1613 10
conduct -0.03197117 0.036735985 -0.04647068 -0.027521966 -0.017610285 -0.039347213 0.04636455 0.0450465 -0.020113207 -0.01643877
fully -0.0011722946 -0.026586853 -0.0135122035 -0.027213007 0.036895234 -0.017658057 -0.0015190166 0.02673798 0.008009787 -0.0034289816
made -0.013751459 -0.02333092 -0.025015278 -0.027685752 -0.017376542 -0.014709752 0.045735214 -0.02110235 0.0376972 0.007133652
advanced -0.009115942 -0.02210644 0.045665056 0.03015789 0.02200914 0.012549081 0.018413657 -0.037809458 -0.007354752 0.022625905
whether 0.02437795 0.023631455 -0.00051566004 0.008147854 0.037672047 -0.009601868 0.013380675 -0.0073747495 0.010385995 0.0050366027
considerable 0.028509615 0.026633918 -0.015500555 0.046688624 -0.04584667 0.0047155097 0.04899658 0.015954018 0.038758527 -0.0023140192
pick -0.013403156 -0.04533215 0.01921543 -0.047848314 0.04465912 -0.0393862 0.011182479 -0.038346235 0.048332274 -0.026847009
order -0.040166367 0.024294462 -0.019595671 -0.021628479 -0.039739672 0.0070252074 -0.0048764804 -0.045659516 -0.016749704 -0.0424201
b -0.034003302 0.039022017 0.011398929 -0.03572088 0.047190364 0.0030766132 0.04776334 0.027497994 0.04612616 0.012300603
prices 0.04731171 -0.028103473 -0.03702408 0.03380899 0.03526648 0.017111596 0.020905804 0.041907627 0.031730283 0.019207133
urban 0.04225924 0.011588032 -0.03205805 0.029038733 -0.04768815 0.02626628 0.036142666 0.044220455 0.011218765 -0.0064655296
Windsor 0.044670142 -0.041854355 -0.019455303 -0.021591358 0.019771008 -0.017554365 -0.0069312705 -0.0037345246 -0.032663267 -0.01054822
equalization 0.049763754 -0.035713363 0.013340752 -0.00083984365 0.016248444 -0.03631933 0.042450752 -0.014862246 -0.03403346 -0.03727059
disregard 0.010780874 -0.031232521 0.03639986 -0.016522795 0.026582433 -0.023656223 -0.000602192 -0.031064356 0.040228643 0.025204962
conservation 0.026242403 -0.039127156 -0.020671127 -0.006079486 -0.049855523 0.025024222 -0.043395903 0.009694292 0.049520336 -0.042536013
Wheat -0.029354408 -0.026961472 -0.031906795 -0.03487574 0.042446855 0.025482036 0.016349534 0.03651411 -0.0065327445 -0.025836464
value -0.0042200675 -0.029131943 -0.04474592 0.000858616 -0.046288878 -0.0076887105 -0.010255045 0.024362817 -0.027159179 -0.03436332
45 -0.017784448 -0.02554013 -0.0310544 -0.029130502 -0.046527453 -0.0006377497 -0.03046555 -0.007688382 0.033047292 0.046601813
alternative -0.031492352 0.02499229 0.0491507 0.03534054 0.044097766 -0.028262038 0.00880623 -0.018573692 -0.036742207 0.029115047
free 0.023466887 0.03284496 0.0014421623 0.041645925 -0.011656631 0.043891586 0.042493723 0.026296621 -0.036703777 -0.0139976535
law -0.033387728 0.025903452 0.039523475 -0.023352677 0.04789168 -0.028921038 -0.012695483 0.025427606 0.019652458 0.040739898
1975 0.024979265 0.033998933 0.042268798 -0.010412489 0.0383458 -0.039511308 0.044252876 -0.017371211 -0.034053795 -0.040816013
programs 0.00030439987 -0.020960707 0.022635866 -0.046449218 -0.0003249639 0.033738192 0.014931319 -0.025166184 -0.0028303755 0.03776497
came -0.026372362 -0.023119165 -0.03179136 -0.02869232 -0.022892678 -0.021908479 0.04152945 -0.008184806 0.0021963615 -0.0070978543
hard -0.022789193 0.0033949541 -0.019566562 -0.0126919 -0.0052208034 0.010132245 0.044224396 0.010391217 -0.04512833 0.049031403
hang -0.01973518 0.0042738304 0.020828303 0.019741384 -0.00012430763 0.034770306 -0.016636543 0.048164606 0.027072124 0.025650984
Mulroney 0.043400604 0.016298126 0.026792055 -0.03142379 0.00053315016 -0.016739907 0.048244175 -0.0067969146 -0.006855474 0.014192316
based -0.0072354195 0.039813414 0.030419007 0.008314938 -0.020131161 -0.04735496 -0.006527629 -0.034370694 0.007049321 -0.016732179
another 0.02311168 -0.031753022 -0.009452381 -0.048712328 0.008012422 0.002870646 0.00754852 -0.011507167 -0.016579008 0.0011904015
pledges 0.024226693 -0.04240226 0.020986898 -0.010306874 0.03377042 0.04299408 0.018979061 0.044376425 -0.0066584386 0.04905657
I 0.035471782 0.0235831 -0.018184677 0.01583085 -0.05053467 -0.029497067 -0.018278882 -0.02526679 0.005953688 -0.024390927
basic 0.038327422 0.013383126 -0.035480518 0.010389125 -0.013518556 -0.029787637 -0.026150506 -0.0068411436 0.003262725 0.014627044
ability -0.0079963375 -0.03985003 -0.039110143 -0.0029421963 0.008814571 -0.029729523 0.0034551981 -0.022148618 -0.03519798 0.01815857
segments -0.0048322626 -0.02604594 0.02368555 -0.020518145 0.018484307 -0.04828213 0.027167143 0.008655154 0.021150239 0.020049958
introduce 0.041783195 -0.045060657 -0.030253759 0.044023063 -0.018565375 -0.039110076 0.042110376 -0.03832429 0.009341345 -0.00043770229
violent -0.012704984 0.01749643 -0.025588937 -0.004830982 0.015354682 -0.026728824 -0.046082426 -0.0003996566 -0.028487 -0.019828636
seen 0.049658608 -0.00783423 0.047619488 -0.009229593 0.0014929501 0.0120536955 -0.030253993 -0.029635208 0.031461217 0.013904131
farm 0.026163312 0.029743282 0.045209568 -0.016397027 -0.03961062 -0.04244266 -0.030799843 -0.039023492 -0.03046689 0.022308588
bring 0.0027386441 0.034117278 0.020720368 0.011844315 -0.013273197 0.01193474 -0.023513958 0.006569648 -0.039105773 -0.023601864
base -0.033269312 0.0460893 0.034824196 -0.036133647 0.043576654 -0.0022860188 0.024521498 -0.033666503 0.004559456 -0.03210399
225,000 0.03055519 -0.012834534 0.0058811186 -0.008427439 0.016850594 0.042603888 -0.031823345 0.048360415 0.04575056 0.0084603075
faced -0.014883764 -0.021629017 -0.006222905 0.031798232 0.03794057 -0.030341456 -0.031868547 -0.026955929 -0.025385551 -0.046252113
playwrights -0.038759403 0.00086120475 0.047393035 -0.03796948 0.010710557 0.03149551 0.00060906145 0.03957455 0.015216275 -0.0033160187
sees 0.034334134 0.021025222 -0.024559975 -0.029537775 0.0074480386 -0.036788996 -0.02698771 -0.0078010904 -0.002275344 0.0069408626
Alberta 0.034634475 -0.021309434 0.04415684 -0.0046925577 0.0017282369 -0.036215387 0.008613124 -0.033917848 0.029127518 -0.024029458
promise 0.03167754 0.006499779 0.024481898 -0.0059483987 -0.048953187 -0.033811647 0.023743697 -0.011815312 0.043540843 -0.0020001535
charged 0.009873154 0.036031783 0.0037534717 0.011132655 0.019492442 -0.0027215302 0.045933843 -0.04179449 0.029311676 0.03783366
accurate -0.03655927 -0.048601314 0.03768548 0.031374287 0.028990142 -0.028684316 0.021140866 0.043057323 -0.004343816 0.01753704
continue -0.01258161 -0.021312308 -0.021007832 -0.024396248 -0.02048247 -0.023472702 0.043436307 0.019767858 0.0039117467 0.026689852
operation 0.010120227 0.028299 -0.0013812187 0.003065378 0.042415872 -0.0055612014 -0.03302632 -0.021145847 -0.0061431313 -0.037130248
spur 0.023023393 0.033870094 0.038671173 0.04219299 0.012175428 0.02358598 -0.04361661 0.011493837 -0.012489387 0.02641448
country 0.021537807 0.008276208 -0.038950276 -0.03506964 0.011712334 0.0016487367 0.005801463 -0.009645687 -0.027644612 0.02662609
negociations 0.025436642 0.036187034 -0.00064750423 -0.0039298595 0.019014824 0.008465127 -0.0124200815 -0.038730673 0.045939412 -0.033807732
state 0.008882688 -0.035108894 -0.029742818 -0.03695801 -0.006416647 -0.030407201 -0.030263124 0.013784035 0.021918641 0.014975049
wrong 0.03632979 -0.014463486 -0.014743482 -0.0011522835 0.019369408 0.0035784277 0.024360953 0.0041859834 0.030883877 -0.003952981
development 0.04212057 0.030817416 0.017874029 -0.020410677 0.017222045 0.00687125 -0.022551844 -0.0058213975 0.032112196 0.031212477
farmers -0.022487817 -0.012907874 -0.020799045 -0.007099994 0.01658474 0.010085824 -0.008882611 0.01187984 0.012743347 0.009636862
constituency -0.010948781 -0.00831724 0.018095406 0.040497534 -0.0036648766 -0.038673796 -0.03129622 0.03777846 -0.010535814 0.02224715
29 -0.01711005 -0.009114093 0.02439922 -0.047884457 0.024424052 -0.032402534 -0.043777976 0.034224257 0.04239697 -0.026371809
explained -0.028855639 -0.0035649482 -0.026529733 -0.0049336087 -0.023429828 -0.029697634 -0.017905045 0.002388944 0.003198565 -0.021662382
doom -0.0010951943 -0.028212966 -0.028672248 0.0015730432 -0.024981719 -0.004892906 0.0011978435 0.002609863 0.023014128 -0.0133980615
policing 0.026806796 0.004857059 0.046112966 0.025588524 0.004882833 0.02833531 0.030223988 0.009473011 0.029142052 0.01899535
absolute 0.0042967806 0.010663373 0.012232408 0.005207412 0.0006374769 -0.030078955 0.019396374 0.02951848 0.008464164 0.030029437
negligible 0.024064457 0.026041768 0.0009578672 -0.04573568 0.017390031 0.0038289537 -0.014912796 0.04375304 0.009362241 0.03588876
isolate -0.010801905 -0.036724195 0.044661053 -0.022008253 -0.025595475 -0.03891662 -0.0025530932 0.049657326 0.041539688 0.012968549
ravages 0.013956174 0.022981161 0.021002261 0.045774665 -0.017766718 0.025803927 -0.015993867 0.0026306657 0.0186968 -0.0067570484
Artistes -0.025804237 -0.035318635 0.0099276425 0.03744126 0.038079195 -0.019378914 0.008634111 -0.017393598 -0.036842644 -0.031771112
live -0.044432748 -0.015269452 0.033560175 -0.022911346 0.017291512 -0.036305107 0.042182468 -0.013965742 -0.007493869 -0.008096149
status -0.03694583 0.031969734 0.0111374 0.011204755 0.01484748 0.016425522 -0.03277421 0.010108977 -0.043158658 -0.010197402
years 0.020934565 -0.021054078 0.0047969143 0.0389542 -0.031272355 -0.031913493 -0.016861646 0.0430161 -0.04370411 0.03194746
Corporation -0.0030287716 0.046324845 0.014019742 -0.021827988 -0.0042918483 -0.03446063 0.013460075 0.027909407 0.048947055 0.045214612
98,355 0.0032401574 0.031022375 -0.027161354 7.360907e-06 -0.03672204 -0.025986908 0.039471604 -0.016943047 -0.014731758 -0.022669688
Privileges 0.04820652 0.042960815 0.031663537 0.0072799423 0.03667133 0.003332364 -0.0016482072 0.03497751 -0.029725896 0.0014370483
partnership -0.034664102 0.044167854 -0.04138445 -0.0330901 0.011083027 0.042450238 0.023048835 0.02166413 0.022876836 -0.015088924
colleagues 0.015331508 -0.04714956 0.03871877 0.00016520881 -0.01541948 0.042897258 0.038708154 0.011139172 -0.01191922 0.045973185
tolerance -0.044384122 -0.045888565 -0.012550638 0.0008271385 -0.026096316 0.0042215763 -0.013669984 0.014976877 0.02826105 0.015834156
existence -0.03957337 0.044852413 0.00011356828 0.004831854 -0.0071232584 0.03978501 0.026141148 0.0107303625 0.006473944 -0.045455836
abattoirs 0.023764046 -0.04625359 -0.04840693 0.0026556803 -0.00821949 -0.04273615 -0.037324283 0.032384012 0.019648401 -0.04152995
readily -0.031740434 0.042975172 0.04120168 0.007547684 0.045076024 -0.0112454165 -0.042579774 0.019731333 0.030494861 0.028624816
Governments 0.033588916 -0.020881182 0.012585977 -0.03542804 0.024304189 -0.039495636 0.018944744 -0.033852834 -0.046906695 0.010931754
maintained 0.030295003 0.03216486 -0.03372582 0.023414845 -0.015014038 -0.018285448 0.018628476 -0.032399543 -0.036058154 0.040289525
co -0.03215033 0.022393825 -0.005274398 -0.033944897 0.013093749 -0.032647997 -0.031885125 -0.016053686 -0.006970056 0.013738474
Budget -0.034426626 0.017180754 -0.011839596 -0.020928657 -0.0020161977 0.027716614 0.024993006 -0.036579195 0.041158132 -0.017299967
September -0.03661147 -0.026451524 -0.0014867114 0.040550984 -0.009277512 -0.020176146 0.01941645 0.047893647 -0.0030947437 0.02308263
rising 0.007709563 -0.012459002 0.027590139 0.00029605147 0.023489468 0.046456996 -0.014622876 -0.0049930615 -0.017877936 -0.018046346
current 0.019810263 0.009834912 0.038366146 0.038908754 0.0034807213 -0.04137594 0.018068785 0.012687622 0.015767511 0.039010376
credit -0.00982155 0.011186361 -0.040385503 -0.046069175 0.024614174 -0.014866696 0.0014594716 -0.033356797 -0.031996254 -0.030322
keeping 0.034711987 -0.045893345 0.018268792 0.011219729 -0.008178049 0.0013322596 0.037286796 -0.04403624 -0.01599747 -0.04435559
calling 0.011909329 -0.037662737 0.035133533 -0.014685427 0.018311035 -0.039153133 0.019920522 -0.035169963 0.007148669 -0.03971098
canada -0.009755702 0.035550606 -0.026994988 0.01416749 0.026534472 0.03583943 -0.01934729 -0.024356928 0.04285636 -0.0122246845
requirements -0.010539649 0.048540503 0.013846761 -0.028780496 -0.023317693 -0.042151272 0.0031792447 -0.01968962 -0.030970743 0.026578892
shampoo -0.017427228 -0.047372714 -0.009242044 -0.0076798825 -0.048310015 -0.011452788 0.04530263 0.01696426 0.009828794 -0.030415008
perspective -0.03646681 0.00052357354 0.041873537 0.016801817 0.03534738 0.04264892 0.030552154 -0.04307732 0.036358364 -0.0034389507
centre 0.0069785863 0.017114246 -0.03435799 -0.02261502 -0.027666388 0.011368296 0.0049790684 0.02864497 0.020758113 -0.031365458
kept 0.040528286 -0.041423574 -0.015708053 0.026598655 -0.002839377 0.009175381 -0.043746967 0.03766814 0.03262358 0.007186155
Timmins -0.011305469 0.041580185 -0.03973952 -0.029692521 0.024672924 0.0012113679 -0.031568784 0.031619895 0.010295976 -0.00028985142
allowed -0.013545218 -0.003901334 0.021598604 0.022818308 -0.050384074 -0.015941205 -0.02167304 -0.016664147 0.014055115 -0.04246943
cause 0.0487317 0.0115601225 -0.04727864 0.013632441 0.012988975 -0.009515785 0.011519713 -0.012610777 -0.031453986 0.002448341
representations 0.017595954 -0.0039905002 0.036589634 0.008263022 0.0054224026 -0.042031646 0.004712363 -0.021371033 -0.042013723 -0.00877026
collected 0.04174318 0.04882655 0.029805172 0.046883546 0.030790206 -0.04123804 0.02379719 -0.02565441 0.013640933 0.03995335
sensitivity 0.046063807 -0.04025034 0.024619889 0.007949549 0.0018924179 0.0036552686 -0.023292288 0.00081152446 -0.041767556 0.0037118073
light -0.03359081 -0.008929342 0.011937749 0.037861977 0.01934123 0.031371716 0.01164473 -0.04513992 0.030011842 -0.041886616
revolving -0.012805449 -0.045956764 0.026388247 0.03248215 -0.008276856 -0.0258576 0.005922941 0.040700532 0.01713172 0.0018745367
claim 0.037685014 -0.031009354 0.018299902 -0.0012875152 -0.017190494 -0.007397338 -0.0007558907 0.0025022628 0.01593937 0.008162072
balanced 0.028014172 -0.013904513 0.032675054 0.015626296 0.018054528 0.007826879 0.0347205 -0.0093755275 0.012338104 -0.013468106
consider 0.044541556 0.0038674593 0.006437782 -0.022952717 -0.04834971 -0.015385969 0.0068156966 0.04767857 -0.03560814 -0.045492277
bringing -0.04760164 -0.028782895 0.043231983 -0.04335735 -0.020035617 -0.021203807 -0.02958793 -0.048762396 -8.566526e-05 0.033574563
Tories -0.0049812556 -0.04149784 0.020328619 -0.03232025 0.027305465 -0.03416195 -0.02094673 0.033882387 -0.020678861 0.018322812
gala -0.020108454 0.010522921 0.025871294 -0.039217673 0.042107135 0.028500462 -0.017007109 -0.028233003 -0.036890555 0.042794112
hotel -0.0430093 -0.021144083 0.013252432 0.02110366 0.020295167 0.03581283 -0.040355943 -0.013352191 0.020042095 0.041803416
levels -0.042749647 -0.04271321 0.0022737589 0.04504254 -0.021794274 -0.0062570977 -0.046679564 -0.02367976 0.044353303 -0.018118976
reflected -0.035670113 -0.012170071 -0.026770463 0.04159998 -0.031863663 -0.021268561 0.04368154 -0.03934572 0.04051626 -0.030190695
established -0.0027621798 0.006930408 0.035928443 -0.036377203 -0.0060640126 0.039601877 -0.043938175 0.008847896 0.035148032 -0.009283799
indicates 0.040376533 0.039133 0.0034005065 0.017205294 0.007655706 -0.003990773 -0.02285658 -0.013077874 -0.0442145 -0.040374607
also -0.042489417 0.03281391 0.031049522 -0.014166928 -0.035902966 0.023878336 0.0246272 0.023817204 -0.022022756 -0.025539156
hearing -0.025635013 -0.008719535 -0.035751365 0.047056217 -0.007290151 0.030820638 0.025838362 0.020574078 0.0070687984 0.030368559
commercial -0.024413962 0.0224689 0.02104422 -0.04806396 -0.030902918 -0.04685578 0.021990249 -0.04544339 -0.0056014857 -0.016161514
deemed -0.017900165 -0.0022081141 -0.0015571555 0.047228254 -0.0106272455 0.040457014 0.021266028 -0.032624386 0.020368088 -0.036674358
side -0.029075783 0.0052946475 -0.02778236 -0.008704849 -0.02492253 0.041612398 0.02693498 -0.041631162 0.010096438 0.0056963046
<unk> 0.025510605 0.003751376 0.020956468 -0.011350356 -0.041105505 -0.0051210704 0.00733495 0.012070101 -0.006153974 -0.01089724
Accord -0.004650946 -0.046439674 0.04715769 0.03746353 0.0032598067 -0.021570012 -0.017969957 0.0077989423 0.00975764 -0.015731832
managed 0.038494874 -0.040244773 0.018997435 -0.031162327 -0.045787156 0.016341297 0.02399333 0.036811385 0.00432129 -0.01614731
follow -0.041024502 0.041082945 -0.027977316 -0.04419692 -0.047520842 0.033913735 -0.00590356 -0.044192925 0.003459837 0.008347334
colleague -0.0149741005 0.034093168 0.038248677 0.018585382 0.04421762 0.02380116 0.03930741 0.009228933 0.018888878 -0.021308823
1934 0.048037384 -0.029959526 0.030945266 0.0067542526 0.020993 0.029190954 -0.038315624 -0.015908614 0.011261888 -0.045117833
Alliance 0.026822805 -0.01913082 -0.011497404 0.004946149 -0.0070581073 -0.026090235 0.017916022 0.033979665 0.023105351 0.015953744
attorneys -0.007333411 0.013505519 0.009600963 0.017902512 0.047025036 0.031864494 0.016409947 -0.033723265 -0.035295017 -0.0003691168
stressed 0.018189691 0.008174508 0.0024688798 0.03657782 0.04344366 -0.03991698 0.025385823 0.031974886 -0.028027905 0.04660745
loudly 0.020718042 -0.024864452 -0.012409561 0.045500014 -0.043411437 -0.040558767 -0.046458896 0.036951657 -0.049615555 0.034785394
Telecom -0.011372339 0.01764649 -0.046446502 -0.02066309 -0.0016876213 0.0025554968 0.0014766805 0.03683684 0.02224988 -0.020656988
one -0.00016884654 -0.013094828 0.035094727 -0.04008165 -0.036878593 0.0012947668 0.017373908 0.021298487 0.002827161 -0.021209175
magic 0.037755672 0.018924033 -0.019655786 -0.026476746 -0.007838009 -0.0077682934 0.025532188 -0.0124245975 0.02595337 -0.003922905
unacceptable 0.022875033 0.00335097 0.001449025 -0.021539008 0.018602842 0.04663979 0.02932743 0.025698453 0.0468766 -0.03961757
obvious 0.035536785 -0.027757829 0.034930244 -0.044193782 0.04642895 0.019879779 0.04279998 0.02005795 -0.014053205 -0.02051278
ahead -0.04729916 -0.017212857 -0.008881045 -0.017908907 -0.0064688446 -0.027475815 -0.049330715 -0.017557934 -0.012832303 0.039906714
bother 0.021977734 -0.020104839 -0.027410557 0.031653102 0.005464973 0.021274831 0.0021959017 0.048042648 -0.02766081 0.00038518396
sent -0.002786328 0.026257962 -0.012040794 -0.031833023 0.042787675 -0.010494416 0.015003303 -0.047015525 -0.038099755 0.0036090228
exist -0.008531402 0.0021004041 -0.029043432 0.024301108 0.014201585 -0.0032338356 -0.020460196 -0.004570628 -0.03005963 -0.044414345
million 0.0386357 -0.021078728 -0.0026812323 -0.04495569 -0.031181114 -0.04367562 -0.0170394 -0.001351808 0.01774912 -0.03713687
directly -0.03107736 0.04777564 -0.017707985 -0.0060777324 -0.043454282 0.031397518 -0.008739366 -0.014468327 -0.009997506 -0.040224753
1970 -0.01751773 0.009792195 0.030388374 0.04474549 0.0017388244 0.036987115 0.007054919 0.04161809 -0.014209572 -0.03568107
collective 0.008569984 0.002322246 -0.033222836 0.02903201 -0.030729158 0.0086589735 -0.0306059 -0.012415147 0.009671721 0.0030786647
preparations 0.046177402 -0.030547503 -0.040916227 -0.034071647 -0.004076107 0.036851708 -0.01987142 0.032675643 0.034067128 -0.030095015
dollars 0.017154243 0.014831747 -0.0047328346 0.015500007 -0.04812865 0.047562804 0.0021127646 0.03180639 0.026064614 -0.009612555
promulgated -0.03796597 -0.02989325 -0.008827551 -0.009245236 -0.043697685 0.018308368 0.009728165 -0.0155984275 -0.0003069499 0.019192021
reduce -0.0031646322 -0.0022311087 -0.017391285 -0.010546597 -0.01678704 0.023962934 -0.036661718 0.01109615 -0.004248947 0.017165856
relieve -0.02143855 -0.037355423 -0.018170139 0.01682234 0.0082674865 0.040473502 0.028999388 0.03644444 0.036422554 0.04201322
Rail 0.024703834 -0.003585669 -0.026995674 0.033522658 0.014159866 -0.0070675705 0.019288868 0.016855314 -0.030612858 0.020372218
throats -0.015984109 -0.040143732 0.023932118 0.021097073 -0.029396856 -0.048441067 0.036455553 0.02434302 0.023874208 -0.02661606
subgovernment 0.02953966 0.03798955 -0.009430174 -0.02025559 -0.023324702 0.02192315 -0.008369637 -0.035462342 -0.0012025976 0.017036295
party 0.034352254 0.004607776 0.0062555736 -0.009451086 0.043068096 0.015307725 0.03117498 -0.04729284 0.046621058 0.010145431
non 0.030441007 0.0022150225 -0.016031764 0.00809595 -0.026502999 -0.0055935904 -0.018198708 0.016065434 -0.048258685 0.031787243
able 0.031262096 -0.032591604 -0.00886821 0.0095656095 0.016380202 -0.019162705 0.031054147 0.041568395 0.006601646 0.03275863
compulsory -0.04789589 0.043969482 0.01760693 0.047974713 -0.015358307 0.02579033 0.038941223 0.00027090593 -0.018195283 0.026512139
pleased 0.045533866 0.025282923 0.0058474755 -0.0040349807 -0.036741965 -0.04119557 0.004958639 0.04426709 -0.022573782 0.017595768
addition 0.022992399 0.015057703 -0.00586025 0.0041418443 0.013648569 0.033244096 0.023506334 0.025489107 -0.04357902 0.012271153
accelerate 0.026885824 0.02726273 0.017748697 0.034543842 -0.03084792 -0.033641376 0.045949396 0.014890865 -0.048014205 0.03738882
independent 0.032399237 0.024128934 -0.014454444 -0.012877173 -0.046004653 -0.043238223 0.0035026537 -0.019660573 -0.042805996 -0.045397043
grain -0.0004159908 -0.041575834 0.007980284 -0.018641533 -0.044760715 -0.0041504586 0.003772977 -0.037030034 0.0365825 0.019212171
evidence 0.041872438 0.019241089 0.012755959 0.01651848 0.0009374247 -0.039569717 0.03744079 0.01797352 -0.03963932 -0.037259273
maintenance -0.04602283 0.020703694 0.0020340174 0.0020995168 -0.017188467 0.030772714 -0.046014246 0.004409238 0.022004284 0.039858405
crime 0.002677777 0.015416977 -0.0058006872 0.025796875 0.016795596 0.026964327 -0.0007421427 -0.036168594 -0.031240517 -0.015475049
bush 0.001898745 -0.016210526 -0.023362396 0.038402997 -0.030850084 0.0263713 0.008544146 0.039635606 0.029869325 0.0356751
even -0.043882176 -0.041448593 -0.043198053 -0.044448353 -0.013901012 0.0049332054 -0.012566179 -0.038271762 -0.011709241 -0.026576338
belief -0.0027422586 -0.028241163 -0.04353546 -0.008789858 -0.048112158 -0.030921182 -0.032271273 0.0065729683 -0.01241512 -0.020465434
General 0.04422388 -0.039172646 -0.015293982 -0.04103877 -0.02660094 0.011597571 0.019462816 0.037447874 0.025552224 -0.015273419
help 0.00473661 0.013923886 -0.0397488 -0.04819206 -0.021803772 0.047294337 0.005578509 0.0014582264 0.03904367 0.018851595
admit -0.026605425 -0.017668514 0.019753931 0.020584408 0.015359536 0.0077596647 0.013128869 -0.027762135 -0.049177 -0.007146828
treating 0.045202874 -0.026345186 -0.00817948 -0.034380656 -0.03474645 -0.007808381 -0.023012878 -0.004124367 -0.019239234 -0.04116173
terms -0.042824153 0.04306789 0.030350832 -0.016708523 0.015211492 -0.0062313727 0.009584169 0.044141196 -0.021368904 0.023936052
construct -0.009915031 0.026307816 -0.027555058 0.042929698 -0.01883533 -0.009040866 -0.048968744 0.031730726 0.021285774 0.015904276
depend 0.0064379387 -0.021360924 -0.0033346186 -0.04713176 0.017590996 -0.047356736 0.027196355 0.0012801208 -0.0028484566 0.0068993457
fewer -0.010966664 0.03795654 -0.01575313 -0.028141974 0.0137324305 -0.008483784 0.033463217 -0.013360459 0.029766347 -0.0029431847
ago -0.013840198 0.044772413 -0.023010034 -0.045244887 -0.043935258 0.048629813 -0.028990416 -0.019118829 -0.026807584 0.011648524
time 0.03666756 -0.04103857 0.0024728095 0.026832007 0.0122956075 -0.02911199 -0.020559203 0.012169138 -0.027651453 -0.021569028
however -0.011882605 -0.04337297 0.029335119 -0.048298914 -0.043517888 0.032927755 0.0015074918 0.047064245 0.018717198 -0.044217046
obviously -0.0013062656 0.04012782 0.043874815 -0.034447715 0.035557043 0.02325493 0.038234677 0.045986846 -0.039298397 0.0017696085
distinction -0.014990285 0.037424043 0.034026723 -0.034855165 -0.03477519 0.01745362 -0.047146555 -0.025479613 -0.047012288 0.027650319
affairs 0.03219879 0.020210663 -0.044748824 0.037605014 0.0015052725 -0.041348122 -0.009555339 0.042564683 -0.04642767 -0.04652779
Canada -0.015939204 -0.0241707 -0.024097558 -0.01274203 -0.012284132 -0.03371884 0.037882127 0.04083603 -0.00047189693 0.00010154366
may 0.01580734 -0.022409923 0.014668633 -0.031155558 0.0031431273 0.042055815 -0.005149991 0.0022227515 0.048261732 -0.045735475
unions 0.033329375 0.033710726 0.032094076 -0.038806193 0.027506702 0.047829982 -0.026087726 -0.0069057853 -0.0071280594 -0.046964917
considered -0.015793463 0.03298537 -0.025222538 0.03775902 -0.04023863 -0.04460771 0.033990383 0.03920512 -0.049971007 -0.0147383595
parties 0.035449415 -0.048660584 -0.02834691 0.0010898337 0.017437177 0.033519294 -0.027479056 0.0048799925 -0.0267944 -0.009531053
joining 0.016544543 0.031208256 -0.03826905 0.034709197 -0.00828667 0.0003582894 -0.025434319 -0.02433473 0.0051943804 0.024656815
verifiable 0.039801586 -0.041162554 0.027916156 0.014937361 0.02685185 0.010658647 -0.04183478 -0.022387885 0.029244293 0.045079395
create -0.029848477 -0.032893956 -0.034573253 -0.01876393 -0.018783659 -0.03249454 -0.022248117 -0.024095425 0.038455144 -0.036946043
volunteers -0.00084371254 0.02896825 0.018017467 -0.04717697 0.005325916 0.034556642 0.030250948 0.04311871 -0.026741745 -0.016386706
No. 0.01794331 -0.021997089 0.000984255 -0.004181704 -0.03614598 -0.048960187 0.03280008 0.013650594 0.0035603198 -0.009352997
element -0.022886964 0.026357338 0.02229596 -0.00881626 0.023656966 -0.03162624 -0.04616179 0.0280744 0.0242273 0.037866525
recognized 0.0107578235 0.048937723 -0.027319213 0.016359584 -0.021252904 0.04673467 -0.03103683 0.025916824 0.017478522 0.012478957
way 0.040534154 -0.027728047 0.040334377 -0.041333675 0.0075819045 0.01879856 0.046388447 0.021684496 -0.03911279 -0.024839293
indicated 0.028152108 -0.04780048 0.01843163 -0.0095357075 0.023571892 0.04124116 -0.037673187 0.03741891 -0.016669797 0.030415243
ownership 0.049867626 0.02842956 0.00089196523 0.041878782 -0.007995488 -0.0017689568 0.035341267 -0.031435613 -0.028531507 -0.02804991
post -0.045487054 0.00054709817 0.037955478 0.022784632 0.010030578 -0.005033474 -0.031896513 0.015897265 -0.028648946 0.007458188
advance 0.03823915 -0.020671014 0.021375826 -0.044612296 0.04316262 -0.0060879374 -0.049014524 0.047636677 -0.038126923 0.020731155
else 0.019430572 0.04300115 -0.044611212 0.0017176877 0.015739214 -0.024748078 0.030956328 0.04321702 0.0058072857 0.00630976
Forrestall -0.01647512 0.019040171 -0.015400323 -0.04410015 -0.02739007 -0.013149413 -0.044256907 0.019460367 0.023835465 0.00552173
became 0.000800838 -0.010097502 0.041914023 -0.033140507 -0.01757428 0.04579138 0.034606352 0.022423338 -0.012032148 0.04014503
reached 0.027948989 -0.041412625 -0.037982564 0.009361479 0.020775255 0.015675418 -0.04101577 -0.029663865 0.04687973 0.044872317
voters 0.005330617 -0.005935055 -0.04491489 0.03747945 -0.018835304 0.00011179177 0.007961029 -0.044098224 0.027050955 0.04767007
rural 0.03182711 0.019350322 -0.042691644 -0.042550113 0.012401678 -0.009997592 -0.0029358643 -0.025730899 -0.017749961 -0.021877235
democracy -0.04016765 -0.012310949 0.0093217995 0.03923691 -0.008322399 -0.022782477 -0.0011143116 -0.02608379 -0.03233843 -0.043565318
efficiency -0.029499933 0.021283904 0.0114241885 -0.025250468 -0.029566966 0.033099573 -0.044394337 0.044652015 -0.013483985 -0.012307973
form -0.034901455 -0.03070788 -0.01382492 -0.037355874 0.034794047 -0.00535881 -0.0269734 0.016760146 -0.03515124 0.040151652
groups -0.007023849 0.03771323 0.045218457 -0.008997608 -0.041492563 0.0025120561 -0.040148128 0.027320784 0.019006656 0.021741945
prepared 0.009933273 -0.02676453 0.015494337 0.044906292 -0.013364705 -0.019068504 0.04297848 0.045231547 0.029674215 0.014872184
1938 -0.028732441 -0.004766578 0.017109033 0.026738139 -0.034530144 -0.02371749 0.035587702 0.01684777 0.020909555 0.03505169
applications -0.047029283 -0.012524908 0.007455821 -0.0060482994 -0.04977367 -0.029063705 0.013153003 -0.01519687 0.022809904 0.01166033
censorship -0.033915963 0.01286153 -0.006843862 -0.023495598 -0.00415694 -0.04730411 -0.046838563 0.037362184 -0.011142302 -0.026172673
responding 0.03239437 0.044226184 -0.032418165 -0.02615496 -0.020326868 0.0018167457 0.027260805 0.021586874 -0.02352507 0.030234445
53 -0.041025802 -0.012418298 0.04758481 -0.0015355323 -0.039916534 0.04612858 -0.040504202 -0.037837226 -0.038524605 0.03260629
position -0.026555188 0.002182854 0.016643638 0.031833585 -0.013251192 0.024298998 0.0038364953 0.028932251 0.037439357 -0.0036579682
1984 0.0030519117 -0.030531745 -0.013469891 -0.015578452 -0.028047662 0.03580173 0.026759297 -0.044166587 0.019005792 -0.02624064
within 0.03668759 -0.03567348 0.039948236 -0.042883553 0.038186003 -0.013827118 0.011135256 0.048458092 -0.049981657 0.04666618
eight 0.038030412 0.002757322 -0.001160264 0.047380593 -0.023793137 0.019166712 0.019027602 -0.03921168 -0.016609289 -0.039080452
-- 0.03306468 0.034711305 0.02879322 -0.04704209 -0.019822225 0.041948207 -0.039425254 0.020199409 -0.033297114 -0.036625933
vote 0.013120053 -0.048382513 -0.032292034 0.00030318377 -0.00824482 -0.009508469 0.019831616 -0.027711373 -0.0129476525 0.025904076
bet 0.033070937 -0.025058424 -0.033750072 -0.01935282 0.041650288 -0.03774895 -0.025742237 0.01017793 0.0008670195 0.010836723
accident -0.03688286 -0.014805989 0.020034749 0.03827165 -0.047217034 -0.02233314 -0.0062032454 0.0011557419 0.021852985 -0.015992716
Regional -0.034758467 -0.023226727 -0.033129945 -0.002008865 0.016632615 0.01732434 -0.037780184 0.033681825 0.012366459 0.031242047
comes 0.0021570164 0.0029925345 0.029318767 0.011936564 -0.019813785 -0.017842505 0.03436878 -0.023203347 -0.045078203 -0.012377143
engine -0.023742689 0.0015776345 0.031604473 0.00057308446 0.033362642 -0.015918827 0.033876795 -0.03452271 0.024454884 -0.019196786
savings -0.004101101 -0.01406823 -0.016974438 -0.0003674126 -0.049298756 -0.046561684 -0.029642647 -0.018418156 -0.024686968 0.014689967
fortunately 0.014101439 -0.0435789 -0.025679495 0.014119247 0.013663392 0.02444164 -0.036605928 -0.009698045 0.016246883 0.0024306776
contributes -0.032360487 -0.027999254 0.04455209 0.0022828819 -0.025982715 -0.0021476129 -0.048405036 0.03591741 0.011517431 0.025536867
climate -0.043567304 0.026757697 0.0049467394 0.027623922 0.029807448 0.014905318 -0.014926155 -0.018944591 0.011512692 0.031434085
press 0.030267468 0.029051257 -0.027430162 0.029861275 -0.046789724 0.037640426 -0.01893321 -0.039695416 -0.034343943 -0.020830672
paid 0.04275758 -0.043591183 0.045826845 -0.0064926036 -0.009929785 -0.024939109 -0.03058007 -0.008567897 -0.031412564 0.012434425
St. -0.03864256 -0.013391908 -0.030161321 0.0072803306 0.041958194 -0.03382875 -0.030811025 0.047620937 -0.042218167 0.0038414893
subsidy -0.010710377 0.031313337 0.046622187 0.017089436 0.024401318 -0.016742626 0.043834496 0.007943436 -0.037653327 0.046612337
watched 0.017241325 -0.015267467 -0.035796084 0.023773303 -0.034784082 0.0051567764 0.03534572 0.033638693 0.027044792 0.029527051
Kenneth 0.02442338 0.02185506 0.020034414 0.021560581 -0.003684833 0.039463688 0.0071069677 0.024384638 -0.005575581 0.008883656
remarks 0.030268362 -0.040339313 -0.0043619894 -0.046028305 -0.0055277334 -0.024695903 0.02070836 0.018244702 0.0069803386 0.018777404
Toronto 0.031410772 0.030518578 -0.019997166 -0.020583285 -0.0041312627 -0.029038826 0.0037673526 -0.042054117 0.006268141 0.033233605
disclosure -0.027607558 0.0060544587 -0.046895538 0.025605815 0.013415664 0.033499245 0.013228877 -0.038285907 0.016373517 0.0068917745
resulting 0.023753593 -0.032858994 0.0049864063 0.037085082 -0.049607504 0.048367083 0.045230657 0.009325739 0.01828018 -0.013383149
coast -0.02508426 0.0012010905 0.005186468 -0.007046371 0.009802202 -0.0057631703 -0.0109954905 -0.018093653 0.03121353 -0.010824493
boats -0.043297485 0.020671243 0.018548762 -0.004264407 -0.013526978 -0.00857102 0.00023403714 0.008833637 0.0047510252 0.010060986
size -0.032815773 -0.04090298 -0.033736967 -0.033695757 -0.02190035 0.039782945 -0.010528183 -0.03827992 -0.028625652 -0.025243673
substantive 0.037111357 0.0043788236 -0.02950907 0.043835286 0.0044850814 0.007503922 -0.012302896 0.015765332 0.02410048 0.03837474
PT6 -0.033331618 0.015624318 -0.029794624 0.02103322 -0.021767307 0.033658043 0.0104362285 0.026283395 -0.010159401 0.019247444
Victoria -0.04476912 0.01038855 0.016977495 0.03821555 -0.010770138 0.004953521 0.02248755 -0.009083901 -0.007446794 0.028631033
naturally -0.03761538 0.014246863 -0.039398033 -0.004190282 0.03602702 0.046975736 -0.02722543 -0.0063195913 -0.0009659111 0.0065910146
coordinated 0.033618633 0.021610932 0.009313436 -0.048622407 -0.029704293 0.0150371995 0.037991658 -0.03374376 -0.040867694 -0.045968432
objective 0.04545652 0.023201337 0.036590736 0.04323729 -0.009712441 -0.0044413656 0.044758152 0.015201398 -0.029485364 0.021444164
employees -0.007802568 0.0132956635 -0.040868532 -0.025748596 -0.01713011 0.0296174 -0.00021259142 -0.042031996 -0.039790522 0.015692987
dislocation -0.042663433 -0.01572576 -0.0022785987 -0.034770403 0.035332277 -0.032033935 0.008636486 -0.017540008 -0.027423533 -0.015440241
giving -0.018184604 -0.028339235 -0.021546518 0.0043508476 0.012622239 -0.004811533 0.0085376 -0.008713463 -0.0037793417 -0.041433174
half -0.040977262 -0.00858498 0.0007147915 0.017762791 -0.005459711 0.04716209 0.025944473 0.011474214 -0.022425577 0.012499873
brief -0.042194813 0.012867942 0.03852369 0.038804907 -0.0060646012 0.03301671 0.024653893 -0.0010972226 -0.01711816 0.031125382
long 0.04537506 -0.004022417 0.013087141 -0.013623517 -0.02266804 -0.022881677 0.013372012 -0.039919212 -0.037555564 -0.039416086
experience -0.018682456 0.0038694032 -0.0014017975 -0.04052909 -0.0061289454 0.012575757 0.04870457 0.029089691 0.043381922 0.041566756
budget 0.047932547 -0.03760806 0.045475684 -0.0361915 -0.0048401463 -0.037023745 -0.040782534 -0.011283327 -0.015626123 0.04299928
throughout 0.020998864 0.0117184725 -0.043043237 -0.0429751 -0.0013058148 0.034551296 0.023073215 -0.02962508 -0.013322438 0.007523129
embarrassed 0.033243403 0.024525223 0.024753107 -0.0037684815 0.009175002 0.04531974 0.048276953 -0.010701221 -0.0422034 -0.0008008017
moved 0.016628455 0.030130537 0.00697822 -0.036759067 -0.015822023 -0.010967289 -0.024276374 -0.01634108 0.038411733 0.027311549
unable 0.026297698 0.017397763 0.0009280142 0.038638167 0.0045854296 0.009262754 -0.02034179 -0.025980245 0.039401412 -0.04833855
C 0.024215719 0.01854013 0.005283176 -0.006070331 -0.031209262 -0.03156913 -0.009790769 -0.03858981 0.028402824 0.030603379
disillusioned -0.026368713 0.0033379246 -0.022880817 -8.828485e-06 -0.010802065 -0.03828034 0.040504385 0.030731441 0.010545794 -0.018546095
put -0.022634348 0.008260048 -0.027946997 -0.0044358303 -0.040375028 -0.043266505 -0.019978097 0.002944586 0.03695536 -0.0042510857
deep -0.025124123 -0.01109555 0.026346654 0.039035283 -0.009090461 -0.018453736 0.023144385 -0.013675979 0.023887344 0.016498199
required 0.047516897 -0.014267041 -0.03302447 0.007556245 0.011432267 0.004594858 -0.031192588 0.008151797 0.0041290275 -0.0027100688
single -0.03965996 -0.036492698 0.030805772 0.020068504 -0.035444025 -0.014409358 0.02173449 -0.024002774 0.045913924 -0.032796502
orders 0.025734924 0.021076808 0.006567484 -0.035388406 0.0076569254 -0.034509953 0.019695694 0.0049737375 -0.002518551 -0.012660248
cut 0.013655748 -0.044413865 -0.009478806 0.010146471 0.019093677 -0.025198014 -0.037289858 0.03519768 -0.0331157 -0.025973307
talked 0.025414808 -0.04253873 0.049358964 0.008961753 0.011080295 -0.004611761 -0.035340402 0.04138052 0.036375277 0.02951428
strains 0.021885045 0.021977672 0.03132862 0.0134090325 -0.007172549 0.04777255 -0.017034486 0.035478503 0.032973066 -0.048341457
Solicitor -0.021804394 0.044810433 -0.044297304 -0.020182671 -0.022767019 -0.028232617 -0.0011784732 0.00064803724 0.030460643 0.023534233
litre 0.015601153 0.004553558 -0.002405824 -0.0037800437 -0.035203025 -0.028783593 -0.031533737 0.0039156 -0.044128094 -0.025947385
lawyers 0.047230694 -0.038801 0.0017919157 0.027964545 0.0074787857 -0.046733677 0.041841943 -0.038980436 -0.036151897 -0.010702112
test -0.006274095 -0.01350573 -0.0023627484 -0.026238998 -0.046626046 -0.044424076 0.021684648 -0.03124584 0.043268505 0.01363213
conducted 0.023756262 -0.017777005 0.03558567 -0.027218819 -0.008048641 -0.029597191 -0.009129491 0.02282427 0.02372095 0.03207484
world 0.025987636 -0.040284276 0.013420048 -0.019687725 -0.031459223 -0.046250667 0.034433145 -0.014761498 0.036955744 0.0345611
7 -0.04669479 0.028195698 0.031415984 0.013079477 -0.022733748 -0.04476836 0.023822028 0.030284354 0.029081546 -0.025739534
Board 0.014708224 -0.021177605 0.025204744 -0.042402815 0.038735177 0.003988174 -0.027569083 0.043127004 0.02785881 -0.040345814
proposing -0.021152519 -0.002077697 -0.022779321 -0.04053624 0.019214638 -0.0038817432 0.012150581 0.023129655 0.02040803 0.025827086
trouble 0.020958973 0.013243337 0.033117555 0.036529627 0.0003296074 -0.021352736 0.039792612 0.046119194 0.03254785 0.00950709
course -0.04410052 -0.03334528 0.010970838 0.04128195 -0.048030965 -0.02524807 0.029437615 -0.045074236 0.009041718 -0.0051618665
theory -0.005534489 -0.033631682 -0.043264948 0.04387784 0.0069167977 -0.014242073 0.037930626 -0.022166383 0.02851046 -0.02957647
ruled 0.014935962 -0.035014283 -0.04088165 0.026534785 0.0025945343 -0.031160614 0.039418314 0.018204993 -0.0053615356 -0.04176528
yet 0.005538319 0.015085727 -0.027644483 -0.023154225 0.04075671 0.03995936 0.04045404 0.041330367 0.03032605 -0.03416098
require 0.018982446 -0.044965003 0.03922752 0.03139977 -0.0011538223 -0.03711777 0.041283336 0.01662533 0.018790659 -0.036213916
p.m. -0.008418605 -0.028357377 -0.010584944 0.04800307 0.0006415514 -0.003139012 -0.045252476 0.039493825 -0.0025603587 0.01490525
Commons 0.046740413 -0.021810275 0.024607204 -0.027508572 -0.047646984 -0.02482482 0.04108246 0.019837124 0.04257581 0.042529397
Liberal 0.029707195 -0.024597669 0.027820664 -0.036958072 -0.023275128 -0.004474812 -0.012867354 -0.030716185 0.032525312 0.000696102
apply -0.02971947 -0.006033632 -0.014659304 -0.014606548 -0.03577587 0.047976628 -0.015128139 0.014134417 0.042857602 -0.031976774
beat 0.03594221 0.0015571729 0.0364356 0.014083996 0.020975858 -0.009161774 -0.037458148 0.015202073 0.026083134 0.046138726
economic -0.022776054 0.034769047 0.015890444 -0.010957969 0.016677896 0.026722142 -0.0035436181 0.038430396 0.019915123 0.013721119
procedure 0.013622247 0.016052293 -0.0040311767 0.016887696 0.041138873 0.043647196 -0.029059215 -0.02479007 0.024698997 0.046927337
elderly 0.018033303 -0.036325697 0.02358284 -0.007192986 -0.022673473 0.030024486 -0.0056699784 0.03736189 -0.039142977 0.04813191
official -0.00022327159 0.049516667 0.024723621 0.004016161 -0.010916357 0.026069088 -0.0139720095 -0.0015881679 -0.0015530746 0.0092235925
19 -0.010486246 -0.033987958 0.026501827 0.041396104 -0.010577917 -0.04230495 0.022053532 -0.043372188 -0.03924969 0.010147146
swept 0.0061075236 -0.013715951 0.017087525 0.015772501 -0.036935862 -0.026713822 -0.03278901 -0.017568354 0.0401655 -0.015198101
newspaper -0.026377046 -0.025743915 0.03824683 -0.045443077 -0.008485419 0.046761554 0.04469278 -0.034535527 0.0066322275 -0.031754322
discussions 0.039071597 0.014999445 -0.0056793806 -0.01279263 -0.04004811 -0.0010917889 -0.01650424 0.039389372 0.039876204 0.016080169
explanation -0.016163196 0.04948445 -0.014508496 -0.030746303 -0.041685585 -0.02761325 -0.0008311452 -0.012355443 -0.002509835 0.03854665
system -0.035093654 0.027115291 -0.04731203 0.0048256987 0.0077154995 0.03449315 0.041084733 0.021443622 -0.030456522 -0.023181597
office -0.03430079 -0.016033322 0.035852853 -0.0110690165 -0.024346722 -0.047702253 0.04199265 0.030033793 0.0030202195 -0.011378776
United 0.03316145 -0.02128302 -0.041431967 0.035587355 -0.049873963 0.006258595 0.004289517 -0.04146622 0.042294174 -0.0070643467
favourable -0.04766692 -0.04815117 0.04694173 -0.019636035 -0.037671205 0.021109346 0.04999107 0.013581669 -0.0025583801 0.020177502
branches 0.011863299 -0.023844583 0.022965977 0.0012276997 -0.03899426 -0.040281408 -0.0036668715 0.034128573 0.030312423 0.027511435
income -0.02109125 -0.028856302 0.049282886 0.025373112 0.0416089 0.045017354 -0.037300855 -0.007032618 0.0022669227 -0.013963505
leaving 0.0082682865 0.0035473274 0.007572714 -0.030942995 0.03879704 0.0012012485 -0.011006818 0.030960841 -0.03841439 -0.009602413
separate -0.017310409 0.013486388 0.025785232 0.026761902 -0.044795718 -0.0037502835 0.03360863 0.012584093 -0.01771175 -0.010031
Institution 0.020034963 -0.011974281 -0.00233304 -0.023696786 0.04430896 0.02634293 0.036387265 0.03487002 0.036470097 -0.03147413
considerations -0.004004179 0.034766383 -0.0043824604 -0.005809802 -0.039782796 -0.016324636 -0.016297678 0.023141226 0.042267766 -0.013523524
proven 0.017073264 0.049095776 -0.033474885 -0.04851609 0.009835459 0.034519773 0.03370612 -0.03122964 -0.048293106 0.0027265933
early -0.014703095 0.044579662 -0.048192516 -0.030085728 0.014819565 -0.029143278 -0.032929126 -0.006559919 0.045720614 -0.007880007
kinds -0.041394357 -0.00037731082 -0.022122273 0.038942292 0.0019128866 0.015418882 -0.032018896 0.013614722 0.03850485 0.024025308
destroy -0.024528168 0.028039608 -0.04091912 -0.015780643 -0.02613819 -0.0067331195 0.042366844 -0.0046591167 -0.037222337 0.032390088
Sir -0.045298245 -0.031692214 0.02814631 0.040758952 -0.00048975286 0.023605864 0.012009867 -0.025572488 0.003130104 0.01835365
statements -0.043808725 -0.042007633 -0.032211486 -0.017188622 0.0059074243 0.026689524 0.009280133 0.04289675 0.017868323 0.0014173974
opposition -0.011193548 0.028017674 0.044141337 0.0075733284 0.04125092 -0.023288596 -0.039337672 0.026665293 0.014259946 0.02657175
retired 0.047471408 0.048160404 0.035842065 -0.02073752 -0.012091455 0.041693952 -0.004320393 0.031203417 -0.035004154 0.00926464
demonstrated 0.005057503 -0.016554764 0.015492967 -0.04522273 0.04397138 -0.03690989 -0.010319793 -0.03808353 -0.010912488 -0.04619975
problem 0.02297021 0.0037507783 -0.0026767931 0.009782807 0.009869565 0.039702967 -0.0417464 -0.0039163106 -0.034095947 0.019367391
Auditor -0.035666358 -0.028429037 -0.0142677445 0.034935936 0.045575943 -0.020330623 -0.004282128 -0.009171159 0.04586938 -0.014232883
agree 0.02941627 -0.014533635 0.020138739 -0.021637978 -0.036175836 -0.035550863 -0.0021054286 -0.047674213 0.046780623 0.018326772
adjusted 0.043579932 -0.023009785 -0.03389752 -0.037280448 0.029041164 0.037846316 -0.03141018 -0.001548849 -0.044383418 0.012838495
difficulties -0.04159106 0.03660928 0.049772657 0.017676169 -0.023669358 -0.0063131955 -0.040461097 -0.025995519 -0.031409863 0.04250679
contradiction 0.011947695 0.04406047 0.0151538905 0.04285329 -0.0032377408 0.040396247 0.033917088 -0.014545563 -0.013972579 0.0118548
Beaufort 0.011867294 0.014259474 0.004139641 -0.0023555995 -0.024863107 0.00027844473 0.032913126 0.012804743 -0.008173001 -0.02304468
Baldwin -0.011462801 0.019328285 0.032719094 -0.049852286 0.037872635 -0.023389347 -0.020978251 0.007949889 -0.017328842 0.0085149575
beef 0.04092796 0.020859981 -0.008241175 -0.021092074 -0.0146954665 -0.025622845 -0.006766921 0.03702076 0.02919973 0.022522869
instance -0.045655295 0.04048677 0.018760085 0.026632717 0.012860652 0.016452877 -0.03528923 0.015782773 -0.029642032 0.020153292
balance 0.029055614 -0.031687353 0.038056284 0.01862932 -0.045982808 -0.0035298595 -0.01166398 0.0067788013 0.009973124 -0.049062666
marriage -0.0024665764 -0.02525023 0.024312442 0.017735777 0.0061266986 -0.010116915 0.043409444 0.004293213 -0.033478033 0.009912166
review -0.025721349 -0.028170325 -0.035286907 -0.034237623 0.04193928 0.024371384 -0.03314477 -0.027579155 0.046036277 -0.020378252
seems 0.02369012 -0.03682854 0.021443618 0.018557174 -0.020419283 0.013124739 0.00010852965 -0.005453679 0.04609477 0.00380567
short 0.006891971 0.0055510597 -0.038200416 -0.03321231 -0.005930069 0.00033963434 -0.023517586 -0.0009439481 -0.048684865 -0.036650438
Company 0.008816807 0.027510442 -0.0052798227 -0.015446838 0.00010433472 -0.034822896 0.0009322023 0.042390518 0.036848288 -0.048591357
friend 0.021090008 0.047305617 -0.04202837 -0.0319415 -0.041169867 -0.024484498 0.017455205 -0.02591805 -0.0349305 0.022488575
Energy -0.021966558 -0.017525546 -0.015938481 6.313774e-05 -0.045879968 -0.046768945 -0.03165272 -0.020325145 -0.008048443 -0.019761497
<null> 0.028405856 0.012094103 -0.048775446 -0.046597447 0.010166418 -0.04977994 -0.010088243 -0.03726505 0.039393436 0.000118136406
indication 0.018224271 0.01710155 -0.009574658 0.048522204 -0.008808838 0.016113002 -0.03261116 0.010414528 -0.0021015413 -0.01190285
range -0.003769046 0.03717916 -0.015657065 -0.011052581 0.03135093 -0.016939571 -0.0008711714 -0.030835047 -0.01922772 -0.044901073
suggested -0.025835788 -0.012587088 -0.03914577 -0.013439192 -0.0033782432 -0.04043802 0.0009639871 -0.009816242 0.012138036 -0.037814517
reasonable 0.027643953 -0.026510196 0.023865668 0.041688964 -0.021430762 0.041176714 0.02244523 0.019522285 -0.0464004 0.029839082
called -0.014944972 -0.045521837 0.040260673 -0.047430262 0.04424379 -0.008747435 -0.016794559 -0.03935587 -0.0026681551 -0.047666557
afraid 0.008496 -0.024780741 -0.04806473 0.0012571026 0.032860316 0.03137032 0.021115912 -0.047067594 0.011457305 0.031097896
act -0.04260288 -0.02899476 0.022079468 -0.041797698 -0.020631896 0.030001443 0.013248017 0.019771462 -0.015685089 0.005372423
preview 0.03414507 0.010021104 0.03780655 -0.016757527 0.037881676 -0.00033667753 -0.04876044 0.015211921 0.015126468 0.023829209
hearings 0.040731285 -0.029510425 0.04854314 0.027532477 -0.041546207 -0.042710446 0.02134457 -0.010516234 -0.010009099 0.04025888
wife -0.026390692 0.0041976357 -0.033642158 -0.0074340776 -0.049255755 -0.015270936 0.045586742 -0.020117383 -0.049414124 -0.021739632
every 0.034754105 0.049950443 0.013963341 0.01759034 0.01845554 -0.04039766 0.00025559758 0.017748538 0.019690705 -0.030605273
lay -0.045786057 -0.009773201 -0.014313079 0.012367216 0.020177325 -0.014108391 -0.0059780534 0.017005086 0.037801705 -0.040294677
given 0.009231412 0.015558253 -0.042406518 0.032444227 -0.048156913 0.033854123 0.040126987 0.017543582 -0.02383598 -0.039889287
developed -0.033225913 -0.040336348 -0.010019695 -0.026865652 -0.013913668 -0.0017876026 -0.013740398 -0.0299973 0.036369935 -0.007346329
firm 0.015538469 -0.037521247 -0.012247916 0.046291076 0.015495634 -0.01113705 0.019089276 0.027308239 0.015012755 0.012811258
followed 0.048219286 0.0434642 0.0132973865 -0.042347662 0.041161343 -0.044085845 0.047826618 -0.035408553 -2.5971542e-05 -0.0040896614
flaws 0.014483093 -0.004569289 0.043567907 -0.0019257584 0.047002893 -0.034710396 -0.013469264 0.025380999 -0.02938073 0.017915577
documents 0.03416122 -0.033849668 0.018564453 0.0070670787 -0.024545977 0.023304377 -0.023654252 0.024122568 0.021880955 -0.042414613
State -0.014882717 -0.018246248 -0.029711207 0.016236564 -0.0041613425 -0.013451064 -0.011093903 -0.0048205843 -0.042994905 -0.039073426
price -0.011631659 -0.04786518 -0.024710316 -0.00038699614 0.044860467 -0.0298693 -0.0016375479 -0.023576206 -0.046635795 -0.0055825682
momentum 0.034862258 -0.046791334 -0.012572624 0.013191545 -0.030962491 0.04279619 0.00035708473 -0.03879702 0.020758681 -0.046820626
around -0.019569518 0.012797856 -0.011529584 0.018088369 -0.042360682 -0.014738271 -0.028815174 -0.028447371 0.021918701 0.043345813
prospective -0.020247668 0.03808582 0.015582219 0.004388955 -0.031963695 0.014483106 -0.0098397015 0.0060810815 0.008065634 -0.0015704577
wonder 0.033539444 -0.0015207243 0.029277511 -0.013015662 -0.04283772 0.004085658 -0.028273322 0.009663728 0.021020148 -0.015947219
includes 0.020004923 0.04813054 0.004736104 -0.037277848 -0.0034271418 0.036961973 -0.032037903 -0.03524793 -0.046614062 -0.00028551297
tax -0.033278674 0.04009841 0.022138601 -0.034094185 -0.015203668 0.0041839518 -0.0032136573 -0.036568005 0.04054513 0.032159965
scientists 0.04827132 -0.045160465 0.047745887 0.030189833 0.006382318 0.0016559197 -0.0106791 -0.019715128 0.0007648184 0.04917279
series 0.03932989 -0.031443607 0.023682123 0.022207517 0.021403555 0.023765946 -0.00986504 -0.011247196 0.008287511 0.03399984
cannot 0.0012452974 -0.033988368 -0.0025401297 -0.022598239 -0.032632317 0.00816512 0.01637482 -0.01296362 0.005625896 -0.03505552
splitting 0.004704236 -0.04794994 0.029220084 -0.004871535 0.02604271 0.047941912 0.043380376 0.028589029 0.015520785 0.045503084
similarly 0.0226211 -0.044109665 0.038751483 -0.010264299 0.013189032 0.029846057 0.047132622 -0.0019419998 0.0038551432 -0.008251111
intermediate 0.00528635 -0.0066781687 -0.019460859 -0.048072293 0.026046176 -0.032084685 0.04403007 0.019024704 -0.03016352 0.031544607
hurry 0.013312468 0.016146418 0.04221597 0.034510702 0.011774777 -0.037503183 -0.03430775 -0.031573962 0.015394146 0.041676655
played -0.014131098 -0.017529873 8.9633024e-05 -0.018256819 -0.004497032 -0.027721057 -0.034891713 -0.029905306 -0.0017778977 0.047056757
history -0.04182633 -0.04200787 0.027355004 -0.049587615 0.03362066 0.011080512 -0.044493943 0.015133503 -0.0064977854 0.046233572
mill 0.011208792 0.038974885 -0.0048874305 0.01310236 0.014067715 0.012879763 0.027098106 0.047406167 0.023352778 0.02646866
decisions -0.04353489 -0.0070351767 -0.024443815 0.012494968 -0.0011993059 0.008641528 -0.03180976 -0.026868144 -0.014744222 0.023294935
rain 0.033106126 -0.046320163 -0.027926171 0.021760432 -0.04383219 0.0012754383 0.0057590352 0.034608155 0.0051187626 -0.005626529
solution 0.0118001625 0.016551532 0.034049965 -0.047866758 -0.0041666413 0.022175297 -0.0054327454 -0.029378204 -0.03685083 0.0029156199
remainder 0.033715956 -0.010442513 -0.023737352 -0.0274245 -0.003333306 0.007160919 0.047067057 0.025709914 -0.017958151 -0.048887562
works -0.025110172 0.039502524 -0.0038365633 -0.033434924 -0.007951958 0.040660832 0.0041074543 0.035314318 0.049329996 0.012616172
depart 0.04231314 0.034179877 0.029907484 0.0045071524 0.015368562 -0.017202826 0.049800117 -0.038934346 -0.03684791 0.040675893
taking -0.0024521009 0.031985786 0.0056467257 -0.0142586855 -0.0019657211 -0.0003382688 0.005533011 0.04072025 0.02899355 0.028041514
seriously 0.038502946 0.044696487 -0.048071116 0.002616754 -0.039424866 0.019700075 -0.032175284 -0.042744733 -0.010377135 -0.03391716
pipeline -0.003041768 0.008101738 0.048669904 -0.0020516184 0.022231216 0.039781112 -0.0069979285 0.030152882 -0.0042936485 -0.021260293
gallant -0.007989449 -0.04380035 0.049077395 -0.02441074 -0.024904102 -0.034623608 -0.017709088 -0.017186064 0.0026750169 0.012021214
negotiations 0.0018166904 0.016755594 -0.0025898626 -0.029620362 0.043368552 -0.016995652 0.00026348786 -0.03294441 -0.033962708 0.038275026
noise 0.039279774 -0.029008651 -0.023470977 0.010644011 0.024896573 0.014382673 -0.021850122 -0.041331027 0.007038305 0.023875244
chief 0.042119328 0.02745986 0.0072924723 -0.043141052 -0.000756382 0.022082897 -0.020632248 0.037936363 -0.028385477 -0.02693966
getting 0.0013878515 -0.044153687 -0.0027537516 -0.0040994417 0.03307334 0.045837346 0.023892365 0.012347194 -0.030464469 0.03811986
inflationary 0.018554628 0.013625415 0.023319708 0.047928188 -0.012834865 -0.017416347 0.010334566 -0.03857409 -0.01965314 0.041614402
drop 0.0032511172 -0.033933394 0.030707493 0.029024465 0.013230782 -0.032252893 -0.040056504 -0.040678248 0.045691926 0.025654113
highly 0.026773578 0.02230694 0.014046811 -0.034769937 -0.014506746 0.021539625 0.036003277 -0.0035806007 0.010040624 0.04219315
Motion 0.009293575 -0.049216397 0.032318786 0.03883043 -0.02801413 0.005706477 0.038918737 0.04896673 0.044702407 0.022338789
brought -0.012638283 0.046452112 0.049474984 0.031441662 0.01276533 -0.021770954 -0.02827864 -0.011213846 -0.024161633 -0.03658551
key 0.04875102 -0.013981571 0.0011717218 0.046960186 0.026267277 -0.032163348 0.020236088 0.026606185 -0.038890336 -0.038409963
Heath -0.020581283 -0.02955663 0.031706233 -0.020008855 0.00853857 0.027779128 -0.029804647 0.018828526 0.042169977 0.035411756
associations -0.018894529 -0.04298237 -0.035304192 -0.027772775 -0.0030768006 -0.046000037 0.012963363 -0.026776241 0.00017582372 -0.019331826
dispose 0.0105493 -0.008425618 -0.0076086354 -0.028037848 -0.018949026 -0.02330076 -0.002782924 -0.00765895 0.00037078324 -0.030091416
specialty 0.032775752 0.025945162 0.0063442257 0.00908358 0.019724753 0.03472758 -0.010107125 -0.01671708 0.034281816 -0.018133562
RIDA -0.006438193 -0.0017323939 0.047313284 0.03084026 -0.03856941 0.03106212 0.022992084 0.047037818 -0.016254798 0.0037739233
Parks 0.013846073 0.022974031 -0.008680586 0.044383213 -0.030616777 0.019946123 0.00918488 -0.039762035 -0.046888232 -0.014474268
Speaker 0.017315494 -0.008605116 0.0275365 -0.011872155 -0.0031043894 0.033534713 0.021350237 -0.018857546 -0.022423208 -0.016630746
hand 0.03691192 -0.044409364 -0.035868526 -0.0025148313 -0.015098585 0.022893157 0.0188681 0.01658123 0.0011149716 0.040263355
Conservative 0.020183278 -0.0017524362 -0.008525236 -0.05001995 0.009552935 0.0012732684 0.013126378 -0.0015191218 0.0071310694 0.027069831
subjected 0.027620243 -0.035081707 -0.040506948 -0.02940795 0.016385011 0.022836024 -0.03266751 -0.009350292 -0.017917732 -0.036005188
eligibility 0.016429383 -0.02924699 0.030898515 -0.01715573 -0.007993608 0.006809836 0.035303887 -0.0026289856 0.040499207 -0.034962725
shipped -0.041734982 0.016589308 -0.021812217 -0.0006159052 -0.009991688 0.020379221 0.026019001 -0.036319315 0.03620583 -0.044139836
senior -0.021412015 0.027504804 0.0024107585 0.021220405 -0.016382387 -0.024434574 -0.02497968 -0.024486672 -0.01791798 -0.019563332
implement 0.018468332 0.016367689 0.002577609 -0.0255411 -0.04305142 0.01436571 -0.025237784 -0.041652124 -0.014890264 -0.043887164
incredible -0.047071148 0.025512325 0.038096018 0.04701371 -0.033149116 0.04464946 -0.011392205 -0.045681395 -0.01207868 -0.0071360874
governments 0.029966012 0.018992348 0.026637603 0.015194171 0.014250726 0.026932323 0.004705323 0.043180723 -0.010808901 -0.029721593
professionals 0.03492567 0.019632978 -0.031192593 0.024929995 -0.011298656 -0.0420891 0.010135233 -0.018908963 -0.032151707 -0.036021836
families 0.03287771 -0.03042843 0.011968017 -0.02211606 -0.04074899 0.016202006 0.040805925 0.00805473 -0.024107244 0.010792441
inflow 0.0047716647 0.0069188615 0.045339134 0.0133505 0.040352233 -0.042864747 -0.026637714 0.044297513 0.039607827 -0.023006506
parliament 0.04315284 0.0028249815 0.004196076 0.029082928 -0.011022538 0.005122536 0.0440737 -0.014180845 -0.017006623 0.048575
facts 0.01875608 -0.047503427 -0.004816248 0.041915804 -0.04211249 0.012557608 -0.012175407 0.036015242 -0.034100622 -0.013216283
advise -0.03338675 0.00630275 -0.02995809 0.019238913 -0.04409654 -0.017944824 0.044034712 0.026198857 0.0060389345 0.047818538
pass 0.022846224 -0.013228908 0.035382602 -0.044486508 0.005921436 -0.028872976 0.030742673 -0.029850828 -0.023565747 -0.0026763056
Wyman -0.019468153 -0.043403216 -0.02774626 0.0146172745 -0.045729868 0.0028346726 0.02095017 0.031001136 -0.03188147 0.027865296
compliance 0.014793165 0.017491896 0.0313095 -0.042936426 0.037707068 -0.022708962 -0.010343134 0.044866234 -0.034952562 -0.037600785
applauding 0.035108827 -0.034642242 0.040763173 -0.03679265 0.03115524 -0.037470765 -0.029365228 -0.044022262 0.00013113524 -0.032851834
marketing 0.04196843 -0.04483204 0.03959685 -0.014620252 0.006319502 -0.043741282 -0.0042818277 -0.0054794243 -0.004665402 0.013582741
used 0.013691891 -0.03922499 -0.035008293 -0.038356487 -0.02589932 0.048191056 -0.029351164 0.017168118 0.030880997 -0.033333443
Superior -0.019050946 -0.014922084 -0.012681714 0.014241257 0.022466773 -0.015240435 0.023988916 -0.0061257537 0.02122329 -0.008449789
adds -0.02102895 -0.014869636 -0.043104563 -0.016188886 -0.021078935 0.040886894 -0.048553694 0.011356519 0.04260689 -0.008202371
qualms -0.026583778 0.04482705 0.019862244 -0.031361066 -0.0082243765 0.0476074 -0.030054381 -0.0010280416 -0.04044856 0.0450664
's -0.008555185 0.012414753 0.0447209 -0.00681238 0.03796203 0.018498797 -0.016997965 0.023799216 -0.03260165 -0.006655853
Bowden -0.012818326 -0.0050535738 0.007861531 0.03392472 0.03463299 -0.0075337705 0.032812625 -0.023022873 0.038404524 -0.031357102
funds -0.029178333 0.039496444 0.044635944 -0.005680297 -0.006312743 0.0058850637 0.014718336 0.007318182 0.0324652 0.004370388
resource 0.04221172 -0.044340275 0.046448406 -0.02614398 -0.0086702965 -0.048323274 -0.006108719 -0.0048688864 -0.049173493 0.004741517
persistence -0.030153811 -0.01702884 0.03373625 0.024896039 -0.02693875 0.03424428 -0.026697285 0.009200052 -0.039862137 0.010189302
officer -0.016306026 -0.02000779 -0.003404173 0.040284764 -0.025078805 -0.03038987 -0.037922874 0.0033221855 -0.0021492196 -0.040357392
effect -0.0351517 -0.008654161 0.023492394 -0.010043035 0.027753517 -0.04230153 -0.031447466 0.020785723 0.02306373 -0.019023387
near -0.024538819 -0.02028433 -0.040063467 0.032789662 -0.022792757 -0.04397885 -0.012290763 -0.0008180822 0.03302745 0.010640029
sold -0.043221965 -0.014704647 0.02580353 0.0007490724 -0.048433322 0.034302797 -0.041899078 0.042009912 0.03749375 -0.017179068
River -0.031242173 0.024913946 -0.0072451946 -0.016666576 0.04813602 0.019624176 -0.002171468 -0.031037787 0.02233416 0.04403063
target 0.019823376 -0.036594115 0.039931215 0.031323373 0.0004830033 -0.048988007 0.013894159 0.014558345 -0.021180082 0.036700185
available 0.03481791 -0.0077143456 0.017809415 0.0074010137 -0.014604548 -0.02418548 -0.010286347 -0.022239216 0.03432562 0.0428432
content 0.03989304 0.03663357 -0.022074603 -0.03279812 -0.02218404 0.010879608 0.013479709 -0.019594891 0.0015881137 -0.047732387
workers -0.024587797 -0.02309224 0.02762379 -0.0041716383 0.013496957 0.0136633385 0.027519355 -0.00033342885 -0.04244932 -0.018427227
previous -0.022250732 -0.03661799 -0.018448355 0.021743791 0.023354314 -0.014512108 -0.010764046 0.01680544 -0.03387061 0.01257271
institutions -0.03881064 0.0045007723 0.013389301 0.011862777 -0.018137168 0.04467416 -0.0017481273 -0.022797616 0.0039323103 -0.044765282
organized 0.029366082 0.009739923 0.019048031 -0.011946396 -0.016706366 -0.030390998 -0.022820905 -0.0084828995 0.013316037 -0.019416615
industrial -0.012160487 -0.0048151864 -0.044173323 0.010663147 0.00083112344 -0.046365928 -0.0075753634 0.042941924 -0.044867143 0.03763503
original 0.025482446 0.005476698 0.0399358 0.048917644 0.009134477 0.041091457 0.014667635 0.003569254 0.03948871 0.015039107
call -0.01098249 0.0064184214 -5.133669e-05 -0.019140162 -0.036580916 -0.027962299 -0.049363166 0.048037235 0.0013625702 -0.014450247
nine -0.012312985 -0.029431382 -0.020844908 -0.02187686 -0.023226902 -0.01663206 -0.019577712 0.0050225467 -0.005962222 -0.04813946
productive -0.02165034 -0.026187513 0.0032614882 -0.039309163 0.036798753 0.041834686 0.035804376 -0.034887955 -0.006436586 0.043105174
building -0.02222989 0.015315714 0.026959196 -0.024787897 -0.048741207 0.033651795 0.00020696699 0.046564385 -0.038785987 -0.015216337
premiums -0.0023295428 -0.010605138 -0.03371489 -0.042027634 0.0072159385 -0.046485588 0.008683553 -0.03698671 0.011425543 0.00726553
reform -0.019348657 -0.029170329 0.005138461 0.0026770157 0.041115195 -0.033497892 -0.030408664 0.010393485 0.017988116 -0.00025050464
foremost -0.0072243973 -0.03370807 0.013956962 -0.03478985 -0.035973 0.024387524 0.046237893 0.026270963 -0.043191254 0.026584743
four 0.017596224 -0.024413284 0.04534226 -0.03474735 0.027219798 -0.031765062 -0.011948939 -0.001936542 -0.010421031 -0.048331648
remove 0.030176781 -0.016104102 -0.048121035 -0.032611776 -0.04737234 -0.016633032 -0.04283232 -0.045835778 -0.0018922939 0.017689086
specialized 0.035331078 0.04350862 -0.0268072 0.0373164 0.040284358 0.04590506 -0.03563705 0.043590315 -0.03151596 0.017937133
Canadair -0.030552212 0.04610389 -0.04143656 -0.042164855 -0.033128664 0.04474182 -0.0071441913 -0.014317232 -0.027970709 -0.023779595
Baie 0.0018841771 0.043804795 0.03149981 0.019061161 0.0008298172 -0.03818105 -0.02424502 -0.03128956 -0.015450544 0.03600703
publicly -0.0010900496 -0.00065281393 0.034330558 -0.012681651 0.035056055 -0.016535852 -0.00838664 0.030664673 0.02535431 -0.030201478
fairly -0.036924884 -0.035260495 0.022448318 -0.024592122 -0.020380804 -0.041451648 0.031206228 0.03251892 0.012100963 0.034761924
solved -0.008898057 0.008749781 0.022591587 0.0059598996 -0.03828427 -0.0370458 -0.005309595 -0.032141052 0.019887844 -0.033464044
Division 0.038009018 0.03102692 0.0252994 0.018601038 0.017547056 0.04438978 -0.029661847 0.02302902 -0.027721087 0.03495777
historic 0.04829054 -0.013311944 0.0008123663 -0.0018753306 -0.013215288 -0.01066373 -0.048428793 0.032779455 -0.041791912 -0.005196943
annually 0.008445192 0.014500769 0.03181266 -0.0027235025 0.033233758 -0.026243404 -0.045832064 -0.025084443 0.040931668 -0.015899865
premise 0.049110573 0.016130751 -0.040201586 -0.03818433 0.022952763 -0.04146436 0.0014118357 0.021814782 -0.012742245 0.004318294
research 0.03504511 -0.010594253 0.034400787 0.037454892 -0.025667163 -0.007186361 0.016602661 -0.010311282 -0.015000895 -0.00803244
thirds 0.048029985 -0.006790227 -0.01521811 -0.027856955 -0.014170118 0.047950406 0.008402153 -0.04112504 0.032245204 0.044507608
rejected 0.010507159 -0.047595937 -0.0047761835 0.047539175 -0.050445996 -0.044066135 0.04602585 -0.020527836 -0.015524734 -0.025208106
mecca -0.0071728383 -0.040992904 0.023441581 -0.0015615474 0.048373077 0.020951316 0.031546872 0.048243053 0.024256641 0.028943164
voted 0.033631667 0.04831515 -0.008676847 -0.030798802 -0.020224322 -0.0009379808 0.019185489 0.032639403 -0.0010047867 -0.009331216
administer -0.023531908 0.013869424 0.0012000942 -0.0462129 0.0444581 -0.047759067 0.04135703 0.009627627 -0.04549884 -0.04244709
Soviet -0.027246796 0.018146269 0.017378628 -0.031886596 -0.010716073 0.036714412 0.025991952 0.03629389 -0.019145826 0.037328992
distributed -0.020629516 -0.033159897 0.02961306 0.035040576 0.026203535 0.03489203 -0.0413222 0.048985675 -0.008321624 -0.03837842
savvy -0.021805419 0.027290562 0.04166107 0.02959447 -0.017222388 -0.035678457 -0.030951066 0.010858092 0.008288055 -0.049047586
buy 0.009310941 -0.03821972 0.04872425 -0.0435689 -0.011150536 -0.00049989147 -0.033649493 -0.012505543 0.04005347 0.045019783
use -0.0039084195 -0.0098249465 0.018666625 -0.025085604 -0.027606102 -0.034751967 -0.01928511 -0.046569232 0.04391691 -0.017347317
Economic -0.048127074 0.049174547 0.021608576 -0.044206686 0.0068259654 -0.03992 0.036997367 0.03391128 0.02716924 -0.023296135
emergency 0.013978508 0.021982396 -0.0018866184 -0.0067125876 -0.02390591 -0.04111918 0.013187079 -0.02439138 0.020867301 -0.04374984
effects -0.015774963 0.006541067 -0.049561437 -0.030765168 -0.030752173 0.04672416 0.048620645 0.0010672854 -0.041694608 -0.04140152
allocating -0.025116079 -0.0024093734 0.008341131 -0.036076438 0.017096821 0.038448907 0.046653703 0.008873068 -0.028813811 0.013613025
indicate 0.013753479 -0.024966449 -0.010296835 0.03696109 -0.012103906 0.036656685 0.033917204 0.0121669 0.024813218 0.03279881
Montagnes 0.030592715 -0.047944933 0.035151843 0.026382593 0.016344937 -0.039649647 0.026016928 0.045306798 0.040119622 0.02246426
equality -0.023234429 0.011411893 -0.002926612 -0.041888323 0.0077600167 -0.04648144 0.022814568 0.010769528 -0.04302941 0.015061461
proposes -0.0013865138 0.027552651 -0.011262234 0.015826315 0.037933417 -0.038419925 -0.030954858 -0.025363803 -0.010500669 0.02319716
Laval -0.03244634 -0.038193766 -0.025731733 -0.04980515 -0.0013306913 -0.003855215 0.0098180445 -0.028883092 0.034565303 -0.049511176
survivor -0.042290386 -0.031502914 -0.0011642398 -0.044584583 0.011330244 0.0343278 -0.0070090983 0.050138157 0.019795252 0.024833048
Fort 0.017522942 0.008302979 -0.037610143 0.0070976377 -0.024861012 0.027391274 0.048174385 0.031370252 0.044401884 0.031797495
says 0.02448602 -0.0014647859 -0.04541366 0.03485909 -0.031614203 -0.0006529383 -0.03425134 -0.04161678 0.0016108941 -0.00083624426
exports -0.01237326 0.012864133 0.01094985 0.007242551 0.039088346 0.0351012 -0.04582667 -0.007098215 -0.009798804 0.026703617
sixth 0.04658308 0.023563728 0.048805356 -0.04185242 -0.032993805 -0.041727666 -0.0024637121 0.015714005 -0.00910638 -0.039872896
hammered 0.011524651 0.016245795 -0.007253508 -0.028245272 0.017296476 -0.03583442 0.031262193 0.01420862 -0.01133218 -0.04148798
Deux -0.021902014 0.04404929 0.034073796 -0.02214663 0.011906506 0.020223018 -0.0037643644 0.049788114 0.03411569 0.0046972246
ban -0.019779535 0.04109483 0.04248511 -0.005306873 -0.009700556 0.031872857 0.007678147 -0.04683141 0.04332865 -0.031050207
tonight -0.017930204 -0.006773328 -0.013946831 -0.037479013 0.017554231 -0.025277738 0.04058499 0.02322751 -0.02931509 0.046873156
assets 0.04971059 -0.048056636 -0.022756482 0.028580775 -0.027330583 -0.02133001 -0.04466875 0.001598397 0.015434311 0.02113184
advancement 0.045977376 -0.022257185 -0.03257174 0.044131346 -0.038176052 0.023101218 0.015804099 -0.011765457 -0.015006136 -0.03345206
among 0.019338574 -0.0053226557 0.017654022 0.036259044 -0.03659745 0.00022168577 -0.039992396 -0.03407739 -0.04583989 0.029099815
though -0.027713083 -0.0020608788 -0.03123209 0.017835828 -0.042162444 0.031571567 0.031049103 -0.019909823 -0.019678889 -0.01578285
ways -0.0051615597 -0.023969853 -0.021996012 0.037324406 0.04625824 0.048433714 0.030593842 0.04511063 -0.036166225 0.0040994454
rest 0.02217902 -0.031898737 -0.008186783 -0.03786263 0.013481666 -0.047570888 -0.039950453 -0.044732902 0.048765473 -0.010842715
pervasive -5.4331947e-05 0.022284769 -0.028297663 -0.020232935 -0.04154794 0.018056244 -0.03787262 0.037407145 -0.027028041 -0.03109773
mind 0.0026495615 -0.027082559 -0.02275473 -0.028042797 -0.016157186 0.033254236 0.026017204 -0.033388138 -0.047256168 -0.017643955
privilege -0.04019491 -0.025558723 0.041636437 0.009936327 0.039704893 0.015587421 0.012025591 0.03062308 -0.049946103 -0.031871714
Manitoba 0.023354797 0.010626253 0.020895757 -0.04025046 -0.005939685 -0.03599201 -0.024248255 -0.010650219 -0.0043925606 0.0061512324
commitment 0.03675938 -0.039144672 0.04788377 -0.01527885 0.015527797 0.040553264 -0.010663126 -0.03734208 -0.040854532 0.02712107
per -0.0026406995 -0.03311902 -0.0333225 0.020219656 -0.009353425 -0.008206128 -0.029059848 0.038453598 0.029378388 -0.03772197
qualify 0.01800467 0.002140449 0.031237414 0.019844573 0.0032742773 0.023282537 0.015406968 0.042745307 -0.008907703 0.017262336
vigorously -0.014085024 -0.014564145 0.03264853 0.039618723 -0.032516204 -0.02359654 0.030799525 0.04720446 -0.047882576 -0.031591978
hate -0.009416125 -0.027743332 0.0059991614 -0.024047945 0.027567854 0.021211885 -0.040938504 0.014003448 0.028798576 -0.04134261
properly 0.030164799 -0.020802487 -0.0066191987 0.04749504 0.04171605 -0.0215786 0.040913828 0.0099201845 -0.01981385 -0.0065314244
A 0.01904511 -0.046260435 0.039656036 0.043095425 0.012133302 0.02566548 0.022261973 0.008637387 -0.041417446 0.031684343
trough -0.017464163 -0.03508933 0.0017636734 -0.049425326 -0.029729184 -0.037866358 0.0048505752 0.04799481 -0.019038392 0.033100944
honesty 0.016142437 -0.03764475 0.03342221 0.03068998 -0.024263918 -0.049614284 0.022225754 0.04211812 -0.023961293 -0.031865124
told 0.028748184 0.04782562 0.049484465 -0.0073546423 0.009466848 0.018468931 0.0058651837 0.035738144 0.02241855 0.0063487655
bailing 0.0023662467 0.02591201 -0.008660013 0.019948373 -0.044162147 -0.034333166 0.025289621 0.010349921 0.035837136 0.04244176
young 0.0364435 0.03878547 0.035645686 0.019640926 0.022932436 0.0003827833 0.030054435 0.009933993 0.0076898704 -0.039345395
Bryce 0.0016082694 -0.043637183 0.0006790201 0.03464992 0.015833847 -0.0162726 0.01384858 -0.023050686 -0.019850012 0.047395457
like -0.0025145966 -0.030359847 0.017538471 -0.01233699 -0.017910784 -0.0062386333 0.03952985 -0.037745878 -0.013218679 0.0015179613
determining -0.02725661 -0.036221337 0.034984365 -0.027478365 -0.015326482 -0.03281707 -0.017389877 0.027609263 -0.0351498 -0.043167874
Moncton -0.046379447 0.042997822 -0.030216407 -0.031020435 0.0484209 -0.024550462 0.0052072043 -0.03253882 0.019323856 0.024597293
70 0.03366211 0.04372375 -0.039937586 0.04504816 -0.031828463 -9.960685e-05 -0.003241187 0.022802958 -0.033998907 -0.0136016
supportive 0.017900113 -0.0034763308 0.022505328 0.04367829 -0.034568004 0.011716377 0.008375646 0.044321116 -0.033683784 -0.048697654
poverty -0.018639594 -0.039943896 0.028728556 0.047845293 -0.019035293 0.007000725 -0.03520835 0.011492067 0.0016721194 0.034762632
legislation -0.003315791 -0.017072164 -0.023891915 -0.017706761 -0.038819127 -0.02388441 -0.020362087 0.036886856 -0.0070723165 -0.033807322
human -0.027122008 -0.032857265 -0.010851025 0.04831409 -0.025117313 -0.012477579 0.016549 -0.03607355 0.014696458 0.001214152
onus 0.027216483 -0.017842852 -0.044295162 -0.023324016 0.038595803 0.015041569 -0.0016245627 0.018485202 0.003254081 -0.016454987
include -0.046547703 0.023804624 0.03409523 0.0046877633 -0.039003696 0.038490485 0.031987995 -0.007081691 -0.043178875 0.01705966
competition -0.042481013 0.03552031 0.045214742 0.014064482 -0.035858966 -0.029364929 0.013682374 0.00856576 -0.039368127 -0.02490261
sort -0.01589376 0.005518711 0.014434485 0.010635296 -0.047930002 -0.020970443 -0.030793812 -0.016186137 0.027942594 0.042736396
Northern 0.02086519 -0.009860652 0.013191982 -0.012199869 -0.011124973 0.005297076 -0.026166316 -0.043800175 -0.0173877 0.014784622
percentage -0.019359695 -0.017784795 -0.029257728 0.039435185 0.006594532 -0.0023154498 0.004151748 -0.022249565 0.037016783 -0.044421747
positive -0.02284762 -0.035014547 -0.012625789 -0.03769167 -0.013423714 0.023614116 0.02939536 0.009147286 0.0011805893 -0.022497354
submit 0.0042838915 -0.039453782 0.0083050355 0.039267357 -0.002288518 -0.0062973215 0.04893553 0.014061105 0.028785009 0.045902494
amendments 0.01749042 -0.036988646 0.0008028289 0.018875448 -0.037644412 -0.008887735 -0.0399951 -0.008337975 -0.011701743 -0.048059337
constitution 0.03271793 -0.03860977 -0.0013298587 0.048509743 -0.005830575 0.0483457 -0.021407736 0.04490173 -0.0059125433 -0.016643753
opportunities 0.0054980656 -0.030758804 0.026113955 -0.001962725 -0.03563754 -0.014088497 -0.043348137 -0.016216857 -0.029774133 0.022448827
information 0.016221605 0.01591661 0.045482725 -0.03357544 -0.04088478 0.030419417 -0.008290997 0.02875804 0.0010221385 0.0046573705
tube -0.004996527 0.003733948 0.02437194 -0.040110014 -0.0386671 -0.03470802 0.03840405 0.0142073175 0.014064053 -0.024020987
lowest 0.013183792 0.0035795334 -0.0075699515 6.73946e-05 0.009239471 -0.041894518 0.030355247 -0.008403237 -0.029457819 0.045718323
unusual -0.0069295177 0.008334129 -0.030558107 0.03116673 0.022143763 -0.021630201 -0.03110498 -0.029084647 -0.035333406 0.02250649
discriminate 0.028228894 0.013406651 0.040181257 -0.0032130482 0.041216686 -0.007965858 -0.013591082 0.008618124 0.034017812 -0.044000532
incentive -0.0035901936 0.037862796 0.02921388 0.0058750818 -0.030294508 0.008928353 0.013398378 0.04635002 -0.047087766 0.03718268
365 0.025175871 -0.0085724825 0.04441193 0.011708197 0.045033682 -0.014788683 -0.04457335 -0.023940086 0.025675273 0.008351897
quite 0.04155364 0.01594606 0.02067995 -0.04174379 0.028234387 -0.0069001727 -0.04065793 0.018715687 0.0012902633 -0.018016502
wants -0.009689275 0.039311998 -0.022895684 0.044644635 0.013455195 0.04148109 -0.03552666 0.034078192 -0.039993685 0.045102593
members 0.031724 -0.04044491 0.047598556 -0.035987403 0.015142298 -0.0446383 0.035321802 0.035162114 0.04633782 0.03167442
runway 0.035164874 0.013445485 -0.01454615 0.015910698 -0.014699354 -0.035614286 0.030331757 -0.044516996 -0.02985567 -0.01654633
disturbed 0.026728861 -0.016660225 0.00020774915 -0.016653268 0.045092847 -0.020751806 -0.029325584 -0.032153096 -3.4653738e-05 -0.014973898
directed -0.0070945416 -0.024226729 -0.044830147 0.004371134 0.023526156 0.029003507 -0.047616124 0.011332823 0.016552148 -0.0002296239
announcement 0.042082213 -0.0228949 0.0015025119 -0.049456507 -0.021812301 -0.004127208 -0.0046054674 -0.0076990877 0.0030112534 0.020665396
come -0.015531004 0.039688688 -0.028978582 0.04486241 -0.048002455 0.02509214 0.005869512 0.0028474128 -0.0032954381 -0.0062900414
mostly -0.0055889376 -0.029000431 -0.018044861 0.029347427 0.025605716 0.044062007 -0.023909664 0.043518834 0.014893195 -0.037857696
demand 0.044490494 -0.0033335083 0.021291725 0.019266363 0.012600925 -0.0064913873 -0.0034561076 0.015583494 0.039156754 -0.025176011
technological 0.02289232 -0.018126346 -0.011630628 -0.00453457 -0.049958628 -0.012307395 -0.005953451 -0.030491298 -0.03787252 0.02373495
gook 0.008244466 0.02994096 0.034308698 -0.014302885 0.02817261 0.03295161 0.048514623 -0.010657808 -0.004472088 0.04781609
end -0.024398651 0.044431247 0.039380528 -0.014368878 0.01308351 -0.0018669122 -0.009200961 0.047897898 0.0012428979 -0.009248906
bound -0.046653148 -0.029001221 -0.046103157 -0.029101333 -0.01938152 0.004796695 0.03246486 -0.004985255 -0.012900161 -0.046337783
painful 0.015643194 -0.018365193 -0.041552678 0.013819703 -0.046206933 -0.013985905 0.044645753 0.029728588 -0.023399958 0.0130358655
management -0.025184209 -0.005778828 -0.015108477 -0.04366206 0.026904784 -0.046308137 0.047574144 -0.033910364 0.03642074 0.008101805
quote 0.022002932 0.041917678 0.029512003 -0.010913429 -0.03301984 0.019260809 -0.045537423 0.0064422386 -0.024265777 0.0401003
progress 0.046734698 0.0098321345 -0.006649543 -0.015214085 0.038728926 -0.04406889 -0.012577608 0.01584538 0.037698183 0.018054942
instead 0.04072299 -0.028839372 -0.015825339 -0.020021267 -0.023295883 0.0010748744 0.02337697 -1.5851128e-05 0.029516464 -0.0215771
companies 0.028485678 0.0099122645 0.040727347 0.03477197 0.0029583185 -0.025015429 -0.021951977 -0.016985875 -0.022931425 0.027218837
Official -0.041690808 -0.0116179 -0.0086189015 0.0049898433 -0.04961973 0.03307571 -0.02924183 0.035952076 0.009334733 0.03937643
providing 0.043182567 -0.016198037 0.042085014 0.028699555 -0.023076454 -0.04410286 -0.019344712 -0.024249963 -0.025152473 -0.023262491
disease -0.012366759 0.013646952 0.047315925 -0.01638887 0.03159497 0.0034629703 -0.024225356 -0.011190078 0.0057648774 0.033394143
loan 0.03285816 0.029335381 -0.022283837 0.01676137 0.010409676 -0.046435434 -0.02295635 -0.02269962 0.026658261 0.0060627344
questions 0.005779761 0.04168704 -0.044964157 0.015795073 -0.033063572 0.011162547 0.04547723 -0.007894985 -0.028676966 -0.040277466
matter 0.026349122 -0.027345808 0.034924373 -0.0007121696 0.0043425723 0.007396551 -0.009027584 0.011670503 -0.029946143 -0.016501464
countries -0.013481565 0.014448311 0.047849108 -0.0059385956 -0.0015381633 -0.0026728902 -0.012702706 -0.0036107495 -0.012817804 0.026167503
mistake -0.03296036 -0.014900362 0.01602686 -0.0464606 0.033292618 0.033849746 0.027376981 -0.020258114 -0.018491624 0.018797375
democratic -0.024926912 -0.045108143 0.049578644 -0.0328146 -0.048472818 -0.049256213 0.037236847 -0.025379378 0.026757142 0.042421192
cited 0.00704825 -0.0027049086 -0.042546526 0.008942387 0.02421914 0.044027597 0.038893335 -0.004543311 0.0342073 0.046148375
Finance -0.004686781 0.02709085 0.03402571 0.03389145 0.0011944971 -0.018842302 -0.015452502 -0.005573273 -0.039272796 0.01321302
welcome 0.0067566778 0.009130545 -0.03585336 0.045224983 0.0087408945 -0.045812856 -0.0045858775 -0.016144611 -0.024551665 0.012368918
seconded 0.012916014 0.021629836 0.018880494 0.0039947946 -0.012102239 -0.047108673 0.034027237 0.047064357 0.015153103 -0.03547335
Minister -0.010777143 -0.0004630515 0.030540308 -0.031980548 0.018068245 0.0071557355 -0.01584732 0.026983708 -0.010387632 0.015088502
sources 0.0011620616 0.02509376 0.0012442546 0.024727155 0.042575203 -0.007141267 -0.0016395363 -0.007267368 0.037660923 -0.044995587
food 0.017438812 -0.027629608 -0.03201639 -0.014604381 0.015371621 -0.036277313 0.0123974765 0.006671731 -0.005882407 -0.028955383
need 0.03630647 -0.025240958 0.035382297 -0.016821938 0.01957796 -0.037260864 0.025403082 -0.034612752 0.015907114 0.018554231
return 0.038499165 0.0331966 -0.011924654 0.037697412 0.009101281 0.014342509 -0.023284337 -0.007961763 -0.012566837 -0.028479662
procedures 0.00603811 0.021634152 0.02049685 0.030154515 -0.049824964 0.045595795 -0.02495334 -0.03244896 0.02706159 0.044642463
Mr. 0.039995372 0.0055910298 -0.024416566 0.016982613 -0.016497059 -0.01633656 0.034368105 0.009380552 0.017704796 -0.036523398
kind -0.040518153 -0.018157518 -0.033238757 -0.03637926 -0.0458584 -0.0010824656 -0.031696785 -0.003954017 -0.028309938 -0.0041299392
extent -0.0303558 0.039535772 -0.032652944 0.015880989 -0.02893935 0.033636987 -0.032679364 -0.02819311 -0.009784173 0.044448752
wall -0.003308288 0.039823767 0.047856003 0.037648667 -0.04948079 -0.04693619 0.04747094 -0.02735127 0.023451783 0.032437395
allow -0.008249155 0.025748996 0.014653123 0.024096057 -0.043841388 -0.038753748 0.038132098 0.0033217957 -0.00089320255 0.0013207408
solutions 0.009059994 -0.04408659 -0.047185197 0.022843339 -0.030113833 0.00032248467 0.010153301 0.022866124 -0.0465174 -0.030389417
family 0.047075134 -0.03793671 0.03870511 -0.03700479 -0.04792629 0.024273299 0.048004705 0.002573869 -0.0066214497 0.030231606
attempts -0.0083208205 0.02948469 -0.035705328 0.022391777 0.038850058 -0.044617318 -0.04282851 0.04506854 -0.025754154 0.011113501
moreover 0.02421468 -0.048356738 0.041850116 -0.026318688 -0.026866041 0.017146882 -0.04748385 -0.013062433 0.032935955 -0.0041491827
Chair 0.0010520704 0.044563033 -0.035412822 7.718856e-05 -0.007944592 0.011659327 -0.01570502 -0.047017824 0.020578813 0.045320198
oh -0.0043340093 0.049563944 -0.021410972 -0.018845169 0.0050063236 0.04021201 -0.042833656 -0.0016427627 0.002118658 -0.018978912
Dartmouth 0.019126413 0.030227099 -0.01875459 0.00013246374 -0.018314144 0.02568669 -0.017132295 0.016928183 -0.026956048 0.021862753
restrict -0.04380593 0.015872924 -0.024334872 0.044028815 0.03758713 0.03995564 -0.012161467 0.008859215 -0.01780376 0.019751873
85 -0.042575274 -0.00917743 -0.025263317 0.017224807 -0.04469389 0.027405165 0.033138953 -0.019525316 0.011260437 0.025851654
either -0.011015805 0.021607935 0.043985724 0.040498897 0.00802035 -0.0035265067 -0.028260525 0.026983956 0.004221991 0.018726332
discuss -0.039012875 0.0057739667 -0.024726827 0.03632952 -0.011674416 -0.015753822 0.04800295 -0.03547975 -0.020526288 -0.0042743655
They 0.03310979 0.030104194 -0.026904168 0.006527165 0.012858781 -0.034190252 0.027307436 -0.0122107025 -0.044227984 -0.033224225
20,000 0.011784902 0.0123460675 -0.027977543 -0.02963045 0.025322393 0.02438264 -0.04024204 -0.018215766 -0.031826314 0.029560005
crowd 0.00012441468 -0.026019903 -0.027255727 -0.0015529873 -0.019481024 0.034033798 -0.034787446 0.045448516 0.017918365 0.0015789284
service -0.00505477 -0.035157572 -0.031712014 0.047969356 -0.016115423 0.0182658 -0.025271118 0.0035087788 -0.023313496 0.015642982
stick 0.0082854 0.013588725 0.01059897 0.02773157 0.0348455 0.044288326 -0.0028399243 -0.035439845 -0.03192152 -0.017608188
power -0.026739243 -0.0059645586 0.003107393 0.005305635 0.008793269 0.04094751 -0.022900874 0.00364312 -0.012838574 0.030057529
meetings -0.003705693 0.02798006 -0.043061916 0.010549872 0.046051744 -0.03306943 0.030623714 0.025362354 0.031017797 -0.046017982
language 0.036782116 -0.02110091 0.025178978 0.036351025 0.0059908293 0.023191154 -0.047183476 0.022954363 -0.037574284 -0.011106251
big 0.048921183 -0.019002276 -0.028940028 -0.029259382 0.041486103 0.04378851 0.04008096 0.014895299 -0.030444784 -0.008753677
much 0.029515518 0.03274836 -0.00048073576 0.0047248183 0.0005568899 0.033934135 0.011939176 -0.007045441 0.039206836 -0.046024088
rule -0.014591335 -0.015032084 -0.02941639 -0.0077861957 0.0010281067 0.024784736 -0.005244817 0.030532937 -0.04991744 -0.019034944
factor -0.029297104 -0.032195184 0.03965784 0.048221353 -0.02993698 0.015280897 -0.025388103 0.03363517 0.0043512452 0.047381453
intend -0.01483719 -0.040211853 -0.04231709 -0.006144211 0.0045476435 0.021729138 0.03435674 -0.032836232 0.036215488 0.019229207
memories -0.02217637 0.02692143 0.0028880949 0.03608741 -0.005463612 0.016690157 0.03674273 0.030050753 0.0143955825 0.045527957
direction -0.021867132 -0.035168573 0.029697284 0.044108115 0.03450671 -0.045054656 0.017630514 0.0019197152 0.014754298 -0.040133037
wish 0.034136783 -0.017705472 0.009413851 -0.02037125 0.028851686 -0.025996774 0.029571654 -0.0070454557 0.045210876 -0.02759891
consult -0.022384258 -0.037704647 -0.01308418 0.013041107 -0.0074439817 0.018242732 0.029434225 0.012039676 0.038731225 0.04233692
returned 0.041685805 0.03293097 -0.004337157 0.019141313 -0.0029083856 -0.00951504 -0.010945925 -0.045740247 0.006190496 -0.030101663
intercontinental -0.048692632 0.037968073 -0.018602004 -0.03637521 -0.002453399 -0.03907878 -0.031151688 0.031060126 -0.008036941 -0.04084293
transmission -0.045650788 -0.0083989175 0.029500553 -0.031109994 0.012286082 -0.035615843 -0.002889771 0.0031380802 0.017968126 0.023767786
indicators 0.046868708 0.03989853 -0.017570984 0.030794436 0.010118214 0.023382602 -0.02108315 0.02123336 -0.045504652 -0.004315729
continued -0.03326797 -0.011039698 -0.015150165 -0.029366111 -0.012623383 0.047547314 -0.01250526 0.045384556 0.01602449 -0.0034697514
account 0.0048512113 -0.011252536 -0.027426865 -0.041912686 -0.010170093 0.008064041 0.034956217 0.004469866 0.026143998 0.009820132
provincial 0.008319845 0.032468688 -0.00064449187 -0.04522209 0.011089239 0.024050351 -0.036341984 -0.018093219 0.020962838 0.0042057023
basis -0.04243626 -0.003487271 -0.0009932161 0.000502953 -0.034963198 -0.0070411693 -0.0152115 0.0096089775 0.023705106 -0.047265787
2.8 -0.038877163 0.033893548 0.032070257 0.021462433 -0.0226905 0.021739407 0.020172961 0.046470936 -0.02783668 0.010945305
diversified 0.009009925 -0.02193067 -0.009655807 -0.0425698 0.04736001 0.008595724 -0.044897385 0.039211363 0.03758042 0.009919806
taxed 0.0016039894 0.01318584 0.04634166 0.023314146 -0.029774677 -0.041315764 0.001139305 0.008660677 0.027043467 0.03718719
feel -0.019102419 -0.03645721 -0.007403318 0.03547952 0.0024137069 0.027930025 -0.02259251 -0.03986115 0.02445537 -0.006067272
absolutely -0.015893592 -0.005822919 0.04762772 -0.039821927 -0.016502002 -0.033398714 0.01984303 -0.018996432 -0.044729184 0.033353824
direct -0.035243552 0.0222901 0.037396625 0.024453983 -0.0071973065 0.008858068 -0.0059610684 -0.016854364 0.016936727 -0.021629617
promises 0.026131172 -0.039772335 -0.036662616 -0.023049274 -0.03704399 0.018254515 -0.029110977 0.0090611875 -0.011425722 -0.01105427
1960s -0.017789196 -0.036599584 0.009388115 0.0038863774 0.0196887 -0.01119739 -0.009836845 -0.036862694 0.041127264 0.002946806
seem -0.040952116 -0.019876985 -0.006023393 -0.04068291 -0.03531496 0.041939158 -0.03598031 -0.030573621 -0.008631193 0.014226481
taken 0.038887024 0.015285585 0.043038704 -0.038352285 -0.0105147 -0.02638337 -0.0009447081 0.030582942 -0.026591262 -0.02984239
6 0.040857587 0.02547462 -0.04774052 -0.045452762 0.024986658 -0.040540494 0.02467971 0.04214711 0.01638848 -0.046896458
introduced -0.02273291 -0.046761803 0.04264894 0.0125035085 -0.046896942 0.022423543 0.036855098 -0.036751375 0.02772233 0.031538118
parents 0.015318184 -0.04347624 -0.041119836 -0.037701193 0.034054775 -0.00043644884 0.02346863 0.013870711 0.012925751 -0.021698197
Treasury 0.024206076 -0.027514365 0.04745743 -0.01650022 -0.010939251 -0.02258892 -0.020417826 0.043809578 -0.0483123 -0.026946189
surveillance 0.006072396 -0.048537124 0.04271438 0.018639132 -0.0016550364 -0.0010221408 -0.025479883 0.047908165 0.047947824 0.031809513
therefore 0.017030573 0.024057759 0.03040459 -0.027722228 -0.035205755 0.037371494 0.03260044 -0.025800377 0.0025143686 0.03198255
involved 0.02933822 0.0073151286 0.042677257 -0.010616412 0.034090616 -0.010918666 0.03670899 0.0009385934 -0.044640474 0.04235377
simply -0.0061637424 -0.0087270895 -0.04480696 -0.015797973 -0.03637083 0.0029615953 0.039328974 0.022493688 0.043404706 -0.028146835
5.23 0.041422244 -0.03599247 -0.012168137 0.04249628 0.039354056 0.019150423 -0.0073901843 0.00048011148 -0.046569966 -0.009852993
according 0.029156478 0.004814511 -0.04198474 -0.017434506 -0.02987521 0.004140307 0.04080448 -0.047965363 0.015149713 0.018791584
House 0.03192751 0.032969527 -0.019766834 -0.03810185 -0.047655128 -0.014619891 -0.019121042 0.040002503 -0.008685584 0.04163041
employment 0.04832253 -0.029943513 -0.0066342326 -0.029159889 0.007165137 0.033983257 -0.027258363 -0.022169206 0.04847599 0.016759492
4 0.025056956 0.003103578 0.008370758 0.03612712 0.00011928109 0.023448752 -0.003623843 0.018033346 0.045541316 0.04764622
24 0.019448683 0.03303899 -0.047470964 0.04921849 0.041293606 0.030348228 0.04301236 0.016054682 0.006335916 0.015957143
operative -0.014149565 -0.026562724 -0.010959852 -0.01927595 0.03754617 0.04834169 -0.020371191 -0.025365498 0.04084208 0.045949504
soared -0.048926085 0.0021555608 0.01623645 -0.036407523 0.03176034 -0.01528972 0.010424749 -0.03420969 -0.009156495 -0.04100233
15 -0.020543152 0.04872388 0.012319899 -0.042690348 -0.020749899 -0.01231793 0.0026301688 -0.046439935 -0.048993073 0.040887438
tourist 0.006980165 -0.0022141773 0.03197082 0.027115453 -0.040692613 0.035140686 -0.03924648 0.017285211 0.031520754 -0.024660127
estimates 0.0397118 -0.035813563 0.02995862 -0.02653626 -0.033358186 0.020675909 -0.005155024 -0.0471409 0.046371672 0.024543142
reality -0.0050721616 0.047535922 -0.020770961 -0.019543555 -0.02184833 -0.044930086 -0.011834928 0.041510895 0.015187506 0.03813887
liberty -0.044689585 -0.00808659 -0.023800796 -0.008434041 0.03908008 0.0016288472 0.026841732 -0.017788352 0.032028805 -0.022756688
discrimination -0.021827629 0.04796517 0.016362645 -0.016508622 0.004667683 -0.00636804 0.04134402 0.0026269094 -0.028780263 -0.036586933
motion -0.019437551 -0.032491192 -0.045996092 -0.021319706 0.021038705 0.04523504 0.0034588003 0.01523192 -0.04452746 0.026188854
airline -0.03255335 -0.021044822 0.008238144 -0.01694979 0.04189966 -0.012191053 0.0029517498 -0.022032801 -0.017267102 -0.0036263762
6.42 -0.036819883 -0.0017763961 0.03414179 -0.029878085 -0.044511702 0.020623093 0.006993917 -0.04907242 0.010403365 0.028893633
item 0.017140092 0.032912217 -0.00709115 0.022995621 -0.039467864 0.025350189 -0.02847478 0.03978925 -0.026278328 -0.0039116857
COJO 0.03605593 0.009750204 0.039028194 0.047333706 -0.010719619 0.0064375526 0.028906884 -0.040867813 -0.042299923 -0.04861725
factors 0.030952588 0.037264638 0.01621577 -0.01778689 0.020659955 -0.022374775 -0.0009520877 0.021835614 0.04889442 0.04743334
oil 0.045912616 -0.02667166 0.031024368 0.04521216 -0.011886831 0.045254968 0.015971866 0.033264015 -0.037447274 0.046838697
tell -0.015186659 -0.039789848 0.004567065 -0.013898195 -0.021496218 0.037820075 -0.00075540575 0.024956098 0.012453062 -0.03689039
CEMA -0.015676126 0.01890609 0.019413734 -0.0055939225 0.044977758 0.008402754 -0.02115214 0.030424768 0.038481403 0.04043039
career -0.010826643 -0.02016109 0.0030802488 -0.0060829595 -0.03327508 0.0073731593 0.044513166 -0.04020078 -0.029126853 0.045422196
forget -0.022370249 0.03958774 -0.0073489593 0.02875875 0.02831742 -0.023358978 0.02844825 0.03383464 -0.043966036 -0.014474532
support 0.00835817 0.011911588 -0.019029759 -0.028388793 0.041736573 -0.016599858 -0.0044323 0.03339301 0.032072134 -0.008471463
Commissioner 0.043195453 0.04598121 -0.023698147 0.014719082 0.024427677 -0.008326941 0.00082092 0.037736397 0.023532499 0.0005065172
looked 0.03866662 -0.037725236 0.039881323 -0.021673981 1.463107e-05 -0.03241173 -0.030801626 0.0016063488 -0.038378157 0.049045213
coasted 0.012756902 -0.029237926 0.019780686 -0.024355873 -0.0067348937 -0.04388444 0.013061608 -0.037427906 -0.009757962 -0.034521997
acid -0.041205492 -0.0031156947 0.045781493 -0.027722878 -0.02598587 0.00043204188 -0.009561818 -0.03901498 -0.049059477 0.026491722
whole 0.03921026 -0.019114241 0.04154468 -0.0446307 0.032136362 0.016669206 0.04188625 -0.023927754 -0.04006527 -0.009582891
know 0.04434234 0.023535661 0.010511087 0.021541802 0.005768229 0.0038683177 -0.017964212 0.019946447 0.023883866 -0.04063797
heritage -0.006305709 -0.015373134 0.02558634 0.03239054 -0.017645242 0.003705681 0.044714205 0.00017197279 -0.03707414 0.037026595
understandable 0.015279365 0.006760109 0.042672142 -0.031205261 0.03233221 0.024396649 -0.013979143 0.050169915 -0.022979971 -0.04446559
actual -0.00964568 -0.034850653 -0.034001414 0.0024846261 0.045853812 0.0017536143 -0.039625026 0.04140735 -0.004833377 -0.011864664
East -0.042404395 -0.00031836244 -0.016260654 -0.05013107 -0.047843527 -0.036598373 -0.022718636 0.012124678 -0.00047912306 -0.03713687
corporations 0.011788506 -0.0014370977 -0.03334053 0.026212383 0.0051788585 0.044065528 -0.023643062 -0.048130196 -0.043488078 0.00280052
Cabinet 0.0041532363 0.014781814 -0.017755982 0.036674183 -0.040086556 0.0043054936 -0.045729883 -0.045181245 0.043721892 -0.025080116
kids 0.026053045 -0.039124712 0.026658634 -0.042339746 0.020913107 0.04605414 0.0033493408 0.015630752 -0.023964267 0.043042947
takes -0.03718145 -0.032623585 0.021200966 0.03052469 -0.025986845 -0.046684064 -0.045753047 -0.024244264 0.016593514 0.04742754
think 0.045767065 0.027704045 0.0042453245 0.013949436 0.02857215 0.04065824 -0.025180584 0.02041312 0.026414916 0.011984396
Quebec -0.019309793 -0.0006287153 0.017201923 -0.0036807864 0.0011391427 -0.014409637 0.009890169 -0.040991552 -0.014861532 0.041169487
federal -0.03986182 0.0093972515 0.010188012 0.006170551 -0.02808373 -0.013887072 -0.021089343 -0.03824263 -0.033557564 -0.02309133
strategy -0.030529609 0.0011838464 -0.037089493 -0.030923882 -0.022713115 0.011945781 0.0029803922 -0.036344714 0.017181251 -0.015861455
caused 0.014367535 0.02230035 0.0074336436 0.047819816 -0.018032497 0.009215532 -0.007122873 0.039038848 0.008742783 0.03171347
fall -0.007897554 -0.040340435 0.022320967 -0.0404159 0.014396421 0.024065094 -0.007460574 0.04671786 0.013092769 0.029844122
units 0.0044885776 0.048660412 0.00025832202 0.013262844 -0.01935635 -0.027900673 -0.019680493 0.035209686 -0.029771931 0.0036740303
wait -0.0009711606 -0.003076008 -0.030844491 0.03882481 -0.024842288 0.01747967 0.00816902 -0.021774275 0.038414665 0.00034788722
burning -0.016894668 0.039713208 0.0494444 0.015382322 -0.022740848 0.027543746 -0.045545716 -0.034426544 -0.00439453 -0.03519373
built 0.01320858 -0.00970563 -0.0012847284 0.021063834 0.010460286 0.03932513 -0.04442078 0.0025922589 -0.026518356 0.040688954
Government 0.038932156 -0.001019756 0.007500021 0.020097308 -0.02136258 -0.005773453 -0.008842104 0.01744382 -0.013305589 -0.014925558
cost 0.015522645 0.039298255 0.033279274 0.021438751 0.008002306 0.0030357833 0.019939171 0.038407806 0.02902756 -0.008284678
informed -0.013006459 0.007643525 -0.024614394 0.029148864 -0.03518457 0.020973658 0.023981499 0.046667457 -0.022182116 -0.02254489
Indian -0.029482294 0.03892171 0.0104183 -0.028219132 0.012363963 -0.020422254 -0.025550785 -0.018441152 0.022164453 -0.022643216
member 0.045882124 0.035547704 0.006488542 -0.0046944935 0.026185058 0.04060766 -0.016398242 -0.017747864 -0.0311957 -0.041371822
benefits -0.028356671 -0.007943417 0.0011637585 -0.030583927 -0.020492516 0.020992517 -0.0035312825 0.006416095 -0.027573666 -0.006374592
main 0.033912197 -0.032939933 0.029276729 -0.040563975 0.02165589 -0.011557237 0.041377272 -0.03963146 0.018253442 -0.0011532404
increased 0.045985937 0.048454378 0.0035950574 0.023979666 -0.01794151 -0.03559948 0.039571293 -0.0058720703 -0.024856126 0.0012553361
trying -0.02717301 0.045180738 0.04844345 -0.0069063003 -0.015211698 0.020423226 -0.016777398 -0.035731353 -0.01840833 0.04054837
conference -0.0025238572 0.04820735 -0.027962977 0.026623607 -0.038458403 0.00022543813 -0.029941676 0.009438544 0.017282374 -0.005292793
conciliatory -0.005603855 0.013247618 0.023666913 0.029856106 0.022028934 -0.03603585 0.021921754 0.043648925 0.0026106772 0.027404312
allowing 0.039283082 -0.0035032374 0.003260122 0.025699647 0.00033646316 -0.030758793 0.035354123 -0.030715419 0.0010862681 0.032287143
leftists 0.025295487 -0.014361815 -0.020747146 -0.0013771972 -0.040003948 0.0076099564 -0.017697131 0.024309877 -0.005678941 0.035200883
paying -0.002316847 -0.01441883 0.014681722 0.0077597047 0.0022000193 -0.048717424 -0.042074554 -0.021830129 0.039700907 0.025594201
part -0.0016580777 0.029121455 -0.008882308 -0.0061005894 0.041163657 -0.02386785 0.041504353 -0.0015381076 -0.027996765 -0.0073315487
sat 0.048299856 -0.0035692325 0.00092716044 -0.035777036 0.031521935 -0.01264205 -0.023192702 -0.0076361517 -0.02671977 -0.01724351
contrary -0.028775467 0.04868606 0.045173433 -0.020952499 0.014316241 0.006191463 -0.020197708 0.02450168 -0.039571602 -0.0061554774
seek 0.038293727 -0.04529517 0.019626694 -0.012255095 0.012533271 0.0039019908 -0.029169315 0.025638027 0.029482268 0.027127732
June 0.010884156 0.041410834 0.029141808 -0.013944681 -0.047228415 -0.048066948 -0.024116533 -0.04519446 -0.015598821 0.008243745
past -0.038453843 0.03006581 -0.03922926 -0.021372266 0.014562498 0.016966617 -0.044245742 -0.0084378235 -0.029809026 0.008719849
present 0.026145056 -0.024193574 -0.043512117 -0.037694383 -0.035970874 -0.045817792 -0.02317177 -0.021327166 -0.002182514 -0.017020382
receiving -0.018940356 -0.025669022 0.037611164 -0.023029497 -0.016591815 -0.02770686 -0.035937708 -0.0070985025 -0.047872193 0.017668895
disagree 0.028837154 0.043634057 0.0043013925 0.038839184 -0.012447362 -0.011044557 -0.0009357457 -0.036645137 -0.023147862 0.022306597
resume 0.04216151 -0.0077947443 0.001613938 0.0018323826 0.033766616 0.0017549107 0.040685598 0.027469756 -0.013175169 0.012767187
retail 0.032382645 0.02422576 0.015782684 0.030719439 -0.041210268 0.003759115 -0.010948953 0.025106719 0.04195084 -0.030979509
thing -0.005540786 -0.017285775 0.0410985 -0.020615477 -0.011653297 0.02816453 0.04044418 -0.009182168 0.033803754 0.02059596
tells 0.014952902 -0.042904664 0.035912685 -0.005409721 0.0041801897 -0.033763487 0.0482907 -0.037846703 -0.010623474 -0.016695928
see -0.0036794876 -0.016931716 0.0045966664 -0.001323796 -0.043180548 0.026150424 -0.006288556 -0.027224474 0.016343053 0.008035528
op -0.016309595 -0.03256826 0.005873878 0.025170056 -0.034508277 0.035352748 -0.03573865 0.0078039197 -0.025337555 -0.031249205
afford 0.030722028 -0.044225764 -0.012848564 -0.023664424 -0.011419799 0.047294937 0.016567571 0.009024851 0.047807056 0.0043075206
eastern 0.023190254 -0.028742515 -0.03662942 0.03353166 -0.03923624 0.034453582 0.017209318 -0.014184888 -0.026018418 -0.015906733
argument -0.030353975 0.0008636424 -0.02085701 0.049413405 0.040272385 0.0054299203 -0.029947812 0.026050476 -0.04897024 0.0026580128
town -0.0101857865 0.00032370468 -0.021223376 -9.240479e-05 0.034408297 0.023017114 -0.037819542 -0.008937486 0.01737138 -0.005674345
still 0.026853275 -0.046815477 0.021257479 -0.02147571 0.032097984 -0.0059469505 -0.025081059 -0.03222629 0.001103181 -0.04189518
Limited -0.029390419 -0.0046303635 -0.04619944 0.032695886 0.019128384 0.021769483 0.043075603 0.0029778585 -0.011158281 0.02157096
drinks -0.0389719 0.017001586 0.026091535 -0.021413293 -0.019708106 0.029832434 0.0010086809 -0.04224123 0.029672524 -0.030146867
thus 0.005874358 -0.04771355 0.012299024 -0.012208161 -0.0026052305 -0.03834496 -0.014202259 0.024755737 0.0003834099 -0.034701537
lesson 0.017198002 -0.04425284 -0.039394733 -0.041246776 -0.04766141 -0.010505263 0.009905243 -0.0005720626 0.045713667 0.016535247
proceed -0.009596413 -0.026789524 -0.008027566 0.038984746 -0.017370654 0.041412137 0.042005736 0.015419399 -0.005445339 -0.03460189
wide -0.0140531855 -0.04360041 -0.022811199 -0.04417998 -0.040093664 -0.032428905 -0.02056777 -0.02935325 -0.030433988 0.003972653
process 0.007255643 0.038126398 -0.022877362 -0.030398872 -0.047067314 0.030394595 0.020869037 -0.040216554 0.020061463 0.03389417
fairness 0.016559307 -0.018858094 0.039146453 -0.010288476 0.033886984 -0.039333876 -0.020075895 -0.015070168 0.015889425 0.024390802
involving 0.018790355 -0.048226558 -0.014229043 0.008743739 -0.015943218 -0.015082044 0.041742835 -0.044068832 -0.019649712 0.002424659
year 0.00814091 -0.032326482 -0.014123856 0.018099103 0.027191093 -0.0039989706 0.017922617 0.017849615 -0.0014579375 -0.0010223928
refer 0.021678438 0.0027521346 0.011075339 0.001489943 0.022685701 0.036166728 0.02869489 -0.0026334936 0.025942143 -0.02076022
elementary -0.025202671 0.035053253 0.010601954 0.028373621 -0.032347243 -0.040196333 0.018442942 -0.025574429 -0.029564846 0.0127789
agricultural 0.04019349 -0.025362458 -0.0075025866 0.009603996 -0.022562034 -0.0474447 0.044020887 -0.029292185 -0.046093155 0.03635322
council 0.019301163 0.026441166 -0.017577454 0.0008203546 -0.0071305586 -0.021869171 -0.027492082 0.009050141 0.04886995 -0.045666907
AIB 0.0008062032 0.025849883 0.008694378 -0.0005813989 0.0023294778 0.022342343 -0.026667964 0.04144739 0.018929143 -0.036606938
marine -0.04673792 0.020221524 -0.013625555 0.024860967 0.007454233 0.036290523 0.0075132838 0.021301443 -0.028214058 0.033838604
insurance 0.04463114 0.047894225 0.035866603 -0.011962155 -0.017025875 -0.030240504 -0.038330548 -0.013618676 0.0045158807 -0.014365256
none -0.003583845 0.014651372 0.03503615 -0.043021355 -0.0035148796 -0.0040510343 -0.048345577 -0.011689088 0.03169561 -0.021234825
stricter 0.005859095 0.037890203 0.003043828 0.029568985 0.015474592 -0.048857067 0.05005043 -0.012237642 0.044176713 -0.004255439
1 0.022043822 0.007374367 0.0039472803 -0.027828822 0.016210042 0.03224515 0.01539494 -0.02329029 0.046605323 0.011297887
regard -0.026985694 0.0006912025 -0.03453287 0.014999395 0.0024536604 0.0021030293 -0.045285832 0.03471486 -0.0071424544 -0.03481346
34 -0.04960644 -0.03252426 0.026979877 -0.04760122 -0.044176944 -0.039225318 -0.0422044 -0.00015602486 0.032633085 0.03445745
resolution 0.009750198 -0.04129792 0.02093005 0.020179506 -0.01856867 0.046600778 0.033749312 -0.037410375 0.03364002 0.010231585
pertinent 0.009985982 -0.028701374 0.037268613 -0.00873125 -0.0047968016 0.047988534 0.03901797 -0.032848563 0.029680165 -0.01331682
ongoing 0.038916044 -0.009644981 -0.019361135 0.03243573 -0.008544078 -0.030326398 0.009612735 0.030499278 0.003607235 0.03467959
John -0.019375756 0.016616456 -0.043516334 -0.008842379 0.024882555 0.02669744 -0.009151773 -0.0014725388 -0.02336302 0.0486242
parliamentary 0.0037800923 -0.032317523 0.020603856 0.04868787 0.046964735 0.003592928 0.04820237 -0.03887344 0.046351276 0.030414581
2 0.008711472 0.010560519 -0.0019205591 -0.029625112 0.031922776 0.024342258 -0.03587187 0.04065963 -0.02646743 -0.02382365
gobbledy 0.0025300935 -0.035788488 0.012531576 0.033547513 0.02055486 -0.022582367 0.017054092 0.039581023 0.008145807 -0.044053633
often -0.01739896 0.039224222 -0.03128593 0.013154689 -0.0143266115 -0.036284667 -0.04894368 0.046353716 0.012691259 -0.010633135
Essex -0.0017542393 0.023787126 0.033158537 -0.023699887 -0.045637146 0.030315274 0.004603632 -0.024642453 0.030611688 -0.03382462
moratorium 0.03217673 -0.018605774 -0.0037139673 -0.0016806561 0.020181097 -0.04329452 -0.032031737 0.0037026056 -0.014447592 -0.036087148
different 0.040867183 0.035858188 0.0060359375 0.03131151 -0.045745365 -0.015699891 -0.029076396 -0.022668159 0.02078718 0.017806921
