1613 100
obscure 0.010782699 0.023015952 -0.016652575 0.008860584 0.0068754544 -0.0036204415 0.020998536 0.004103102 -0.003000754 -0.0048130443 -0.015368305 0.012340651 -0.0014176662 -0.011784004 0.011791549 -0.015717376 -0.013346139 0.014346928 0.013232834 0.0052291118 0.02020897 -0.008567685 -0.0026556058 -0.016720003 -0.004846761 -0.002923258 0.0073857014 -0.0043073464 0.0152288675 -0.0013683834 -0.015564872 0.0031461655 0.039122038 -0.025987078 0.0034463527 -0.020035634 -0.021820314 -0.0008888122 0.00044277142 0.013821091 -0.0045149922 -0.00056961115 -0.02311905 0.007303348 -0.014686585 0.0010580958 -0.00068160193 -0.010023882 0.010401754 0.016062915 0.027551018 -0.008583871 0.02091238 0.014365633 -0.00038071442 -0.010117364 0.012946319 0.024418414 0.016632095 0.020153666 0.022558345 -0.025746793 -0.021716136 0.009149703 -0.01646899 -0.012574237 -0.008043854 -0.0011698236 0.0009552981 0.018649675 -0.010523607 0.029273495 -0.0065440517 -0.0035814235 0.02813661 0.018664338 0.02703155 0.018106148 -0.038643043 0.029993597 -0.010199041 -0.013731031 -0.009924976 -0.01886954 0.0013224428 0.0042312234 0.0026949977 -0.01893224 0.018548988 0.012338111 0.0025585147 -0.0081390785 0.010382843 -0.023085754 -0.010996132 -0.013079763 0.008069805 0.008106924 -0.014629135 -0.011542655
detailed 0.0026273103 0.020693282 0.0063625043 0.040328227 -0.010534484 -0.0010750763 0.01173244 -0.007382538 -0.020335304 0.012409091 0.010055719 -0.00090144365 -0.01923624 0.0033657276 -0.0046265577 0.017159646 0.0057953056 -0.015827242 0.0016823855 -0.014243313 0.0017697582 -0.00010603393 0.020519756 -0.00046304357 0.024088774 0.028506637 -0.03028769 -0.01670412 0.00013711548 -0.0061924215 0.0031781725 -0.01700882 0.0047594826 -0.015432762 -0.0069072153 0.012386538 -0.006618003 0.00529351 -0.014605621 0.0021081783 0.009137234 0.00028001794 -0.010307522 -0.025784714 0.017086703 0.014642311 -0.0102632465 0.0048925825 -0.017598627 -0.016519442 0.0028796298 -0.0089911055 -0.027458904 0.00012407453 0.005823251 0.02918528 -0.029759113 -0.0038182512 -0.01747733 -0.010356198 -0.009949699 0.0035168028 -0.016027154 0.0015004339 -0.051884443 -0.013690226 -0.015118372 -0.008763946 0.0054347785 0.015169183 0.0049708555 -0.009206766 -0.006093628 -0.0026164292 -0.011906183 -0.02756179 -0.003142241 -0.0053746253 0.0007013532 0.03074534 0.0019899227 0.0052111037 -0.014578181 0.0015735549 0.006867713 0.0042817635 -0.011942842 -0.01729025 -0.022130521 -0.008757758 -0.00040103425 0.007210536 -0.005191011 -0.019391937 0.00894189 -0.0053106137 0.0031526638 2.2687018e-05 -0.008839533 0.009431518
recovery -0.026585922 -0.02510269 0.012097329 0.0006980477 0.024403455 0.010691897 -0.00538017 0.033639763 -0.002600093 -0.008697988 0.0070161484 0.030544328 0.008114104 0.03657128 5.9439008e-06 0.004318801 -0.006618566 -0.0030591486 -0.004268358 -0.0008789236 -0.012819406 0.009429351 0.038421586 0.00706897 -0.010032971 -0.0061445725 -0.0032335883 0.0025544118 0.010603443 0.012710046 0.010898679 -0.008820832 -0.0018890955 -0.01872466 -0.0004840269 -0.00023512536 0.020425139 0.010831476 0.012199093 -0.02619652 0.028256617 0.010971149 0.0030615507 0.012931003 0.013484306 -0.0074529243 0.008170722 -0.0035356765 -0.00525903 -0.0032770513 -0.013784129 -0.018933244 0.025960889 -0.0021817063 -0.0028850522 -0.002027845 0.0031938879 -0.025178371 -0.026152492 0.0031261388 -0.008874779 0.014306214 -0.011226578 -0.001563034 -0.01192507 0.009285751 -0.010491945 -0.007307742 0.011046491 0.021428378 0.004916659 -0.001176854 -0.03195385 -0.035462134 0.0041427985 -0.00770301 0.0028845582 0.00237424 0.020034181 0.024582213 0.0040895226 -0.008745656 0.005738043 -0.023516627 0.0028176475 -0.024180634 0.018477635 0.016877819 -0.0051809484 -0.0065821297 -0.010041966 -0.010840464 0.004726633 0.0021932016 -0.013123643 0.015908686 -0.006675953 -0.024650877 -0.012208293 0.0015653339
Heath 0.022258217 -0.011909867 0.016910668 0.011117657 -0.012070517 0.023643672 0.0010065612 0.006237128 0.0014426381 -0.002486745 0.0036633434 0.013192873 -0.004263862 -0.026672455 -0.006593132 0.013934531 0.026346931 0.008855475 -0.008139626 0.02073554 -0.010176781 -0.026839782 -0.011248409 -0.0011875648 0.017448943 0.0006171846 0.0074659623 -0.013434941 -0.024900923 -0.00479127 0.012053599 0.008878661 -0.012525165 -0.018331977 0.011472634 -0.008990368 -0.005434628 -0.010511626 0.008368823 -0.00050362496 -0.003155766 0.015271619 0.01052334 -0.00807463 0.020429317 0.0015458601 -0.000918183 0.004300745 0.0075303637 -0.005225834 0.00269224 -0.0008666847 -0.026064433 -0.0056134053 -0.026066756 0.0053019184 0.002731768 -0.008019796 -0.03095736 -0.011401785 -0.010674804 0.017748365 0.02569986 -0.014439176 -0.0070909373 -0.0067642615 -0.0011688976 0.02320284 0.0065016993 0.010511231 -0.011735419 -0.022330815 -0.0055531245 -0.011035912 0.0041257874 -0.0076587847 0.013119554 -0.005166553 0.0076717436 0.007743908 0.010583974 0.0027907675 -0.021235455 -0.012426893 0.00016945333 -0.004344471 0.011777738 -0.002847974 0.005446653 0.024915814 -0.0031125015 0.0066224574 -0.0039832285 0.0039734896 -0.010287268 0.010898962 0.00819796 0.0020061773 -0.005248414 0.015337216
strikes 0.031482108 -0.013397626 0.016379537 0.0045704255 0.0033036016 -0.002491814 -0.022960488 0.008744951 -0.010827991 -0.0058213905 -0.021558397 0.011786676 -0.0006418653 -0.018172529 -0.008181519 -0.0012067114 0.018230034 0.029252421 0.028639786 0.018112876 -0.005744858 -0.0075567802 -0.022730365 -0.022933993 0.004139887 -0.0077776606 0.0047517247 -0.0008703228 -0.0043284292 0.013106415 0.014703248 -0.016520137 0.01790629 0.014165555 -0.00588951 -0.010547229 0.022518625 0.010590485 0.013312958 -0.00030036527 -0.017697303 -0.011277886 -0.016196003 -0.010133264 -0.016070267 -0.008754908 -0.0017536269 -0.011365578 -0.012268141 0.007823918 0.0071501844 0.008983283 -0.002530219 0.012798853 0.0066842446 -0.008662755 -0.012232054 0.023821956 0.016910903 -0.007014359 -0.023323912 0.007453105 -0.0059284996 -0.018771073 0.0070029153 -0.0005780635 0.03187066 -0.0029152492 -0.008398371 0.0032336875 -0.019200454 0.0037835196 -0.0025103798 0.02471893 -1.4051853e-05 0.020601623 0.007673728 -0.017479999 -0.01834025 -0.012694685 -0.016748179 0.011971515 0.0033557895 -0.0113047585 0.013342806 0.02744974 -0.025939774 -0.022208402 -0.011259547 0.01777593 -0.043283716 0.0010280446 -0.016180528 0.000697184 0.025985092 -0.01027219 0.015640412 0.011530975 -0.02335676 -0.014397061
accurate 0.017192489 -0.0036204227 0.012694784 -0.006359281 -0.020920597 -0.011452961 -0.0068923286 0.0035985713 0.0025934654 -0.02697053 -0.005940338 -0.011333246 -0.014598055 -0.0066634426 -0.005787555 -0.0024789935 -0.009960875 0.022525897 0.007683449 -0.012232226 -0.0077373474 -0.0018839693 -0.006006585 -0.0044255243 0.020631054 -0.015897619 0.0135661885 -0.0019910687 -0.019202197 0.020127622 0.015964456 0.02315583 0.004220945 0.016333038 0.0030871406 0.008790545 0.034447145 -0.021749588 -0.0016053943 0.013967698 0.003129852 -0.023139665 0.0044457945 0.026030404 -0.024876192 -0.014900232 -0.008034008 0.0063814116 0.03273215 -0.013600569 0.03042975 0.026955338 0.0013912842 0.003967813 -0.018626649 -0.011558509 0.007431632 0.00035361014 -0.0031662993 -0.0020848531 -0.009530476 0.007361332 -0.010394185 0.013197993 0.036842216 -0.0021118363 0.00055567734 0.009263032 -0.00906994 0.0022679453 -0.0113697015 -0.008630747 -0.011266157 -0.019561684 -0.017537933 0.024282303 0.007989093 0.0036199968 0.003723335 -0.014692529 -0.015813487 -0.03205023 0.0022754816 -0.020981602 0.0053726765 0.038393073 0.0129780015 -0.0091544725 0.0037430718 0.011034239 -0.0029352924 -0.011635699 -0.01816652 0.028749358 0.0046760235 -0.0071179545 -0.020214116 0.0035011743 0.012845647 0.006245507
degree 0.041959785 -0.025382364 -0.0031944413 0.028855065 -0.020947108 0.014995586 0.017930267 0.0019783475 0.004597776 0.039521687 0.011759895 -0.0064420253 0.0076080505 -0.0138540445 -0.0062947287 -0.019358188 0.017471379 0.0049243686 0.01356416 -0.0053538773 0.008324518 -0.016006032 -0.01995944 -0.0101365615 -0.008464459 -8.04353e-05 0.009081537 0.007878892 0.0020021875 0.02625815 4.9591414e-05 0.015969103 0.02747515 -0.00181948 -0.00381903 -0.012058413 -0.022448003 -0.030592464 -0.0041176598 0.0090588825 -0.0016735175 -0.004151411 -0.023048738 -0.0014137683 -0.012427588 -0.008199752 -0.011715292 -0.009263587 0.023589645 -0.010471082 0.006292564 0.018710783 -0.02132476 0.0011649396 -0.005735231 -0.013649056 0.008376628 -0.00837763 0.0034414695 0.006150211 0.026684925 -0.0064046127 -0.0075692753 0.003226509 0.0040284437 -0.013668002 0.01917209 0.00937182 0.010941465 0.00050186046 -0.013937266 -0.00028429058 0.011280403 0.004937856 0.024440547 0.004754124 -0.013750875 -0.005587036 -0.030072939 -0.010689123 -0.028888866 0.003253344 0.015035373 0.00047055003 0.02275438 0.01891169 -0.0039919904 0.014602357 -0.003312478 0.014722448 0.0046101757 0.009201562 0.012483806 -0.02027376 -0.0031857328 -0.00703926 0.007756606 0.0009057567 0.003133301 0.020005625
fine 0.05120408 -0.024322486 0.013175521 0.01517545 -0.0073629403 0.012910888 -0.0065416954 0.00064610515 -0.0016077064 0.0029620584 0.0017473068 0.008802382 -0.01639334 -0.01847279 -0.0013965569 -0.018385632 0.012047171 0.007944935 -0.0038663847 -0.025423417 -0.010854644 0.0020188135 0.0015379088 -0.029401429 0.010261556 0.017422063 -0.02934245 -0.013677312 0.0084823575 -0.0031642024 0.0016983829 -0.021263938 0.014613669 0.00015560699 -0.011102099 0.03589245 -0.023057831 0.016684687 0.011050225 0.01278545 -0.007134874 -0.0049759857 -0.006275666 -0.0049677645 0.0008843852 -0.0051873587 0.017970294 0.0066555045 -0.014059135 -0.003919211 -0.00026811665 -0.00095810473 -0.009759586 0.0036801894 0.011659023 0.023842433 -0.0058728065 -0.003136111 -0.028091248 -0.03289492 -0.005525122 0.009713429 -0.007619027 -0.036987804 -0.00040833553 -0.008836544 0.01442974 -0.009326426 0.010209503 0.013176312 0.0044201314 -0.020522697 -0.0068655927 -0.01110036 -0.013623933 0.034193475 -0.007231397 -0.007526282 0.0044432846 -0.0116607845 0.0052727526 0.02529942 0.0023545185 -0.008653518 -0.009764506 -0.016471583 0.01693971 -0.007156644 -0.0037106331 -0.010429731 -0.008105681 0.04001504 4.1898747e-05 -0.011656727 0.0011010163 0.0050439676 -0.0029253808 0.020003693 -0.011157175 0.013002077
retired 0.0065859137 -0.008073423 0.020634083 0.017499153 -0.025988799 0.015043613 -0.010166391 -0.010605333 0.00046124365 -0.0031698833 -0.020318093 -0.0122020375 -0.020105341 0.035490736 -0.019443847 0.018698497 -0.011578664 -0.005605807 -0.019428452 -0.0038113166 0.0084292395 -0.015393511 -0.0171147 -0.00659433 0.016805805 -0.020745711 -0.023444297 -0.03411073 -0.005893202 -0.011681638 0.012946516 -0.019510556 -0.020904606 0.013298858 0.0143711055 0.031923145 0.015111801 0.02110773 -0.03014821 0.004173832 -0.047114834 -0.0020865786 0.0017549972 0.0028756051 0.009061215 -0.0062094666 -0.013554924 0.019378707 -0.009662645 -0.008040346 -0.010916224 -0.012699978 -0.027413636 0.0050358046 -0.0028630586 0.021817105 -0.007628338 0.010350501 -0.0011128907 -0.018617718 -0.027370473 0.010142934 0.0039856033 0.0054562576 0.01663058 -0.0028477004 0.007959829 0.00400767 -0.0058990656 -0.009027305 9.9214114e-05 0.0033244547 -0.012342786 0.0005652313 -0.014717641 -0.016439917 0.010884799 0.006037802 0.02893401 -0.0040621157 -0.010551418 -0.0049577984 -0.0049090236 0.019351017 -0.019122824 0.00059233827 -0.0015355182 -0.026451215 0.0032319485 -0.027648723 0.0028688596 0.007851253 -0.0013467274 0.005598022 -0.0031163245 -0.0054381676 -0.0013963906 0.0027642422 -0.009233278 0.0017786432
clear -0.00042040797 0.023103401 0.031883277 -0.0024090558 -0.00063801446 0.0018465361 -0.0030529324 -0.013299581 -0.01858999 -0.011919649 -0.030623129 0.007902512 -0.006401145 -0.006794441 -0.0019528739 -0.00022973749 -0.006273309 -0.03066391 0.026035214 0.00656036 -0.014361093 -0.0025531813 0.018256515 -0.017323716 0.0024263344 0.014904076 -0.0066813 -0.010903021 -0.014558932 -0.0144093195 -0.010181633 -0.007562606 -0.003467258 -0.024110716 0.0011053567 -0.014840478 0.001131731 -0.014194179 -0.01915144 -0.013110989 0.002130968 -0.011090163 0.0056051565 -0.016082568 0.024188228 0.0055287983 0.021254959 -0.0043497006 -0.017796995 -0.0033465321 -0.022116076 -0.016822275 0.008886239 0.010824496 -0.013142121 0.006300143 -0.018055594 -0.02380802 -0.012497364 -0.021089515 -0.0127124805 0.010359836 0.011897398 -0.023017485 0.019185796 0.02276985 -0.020154435 0.01580381 0.026400361 0.0018150405 -0.0013342001 -0.0035723785 -0.010782264 -0.014094637 0.0024116463 -0.04186205 0.011303975 0.023288507 0.015075654 0.019468121 0.018400554 -0.0018042284 -0.01241788 -0.010175059 -0.0024923705 -0.032449055 0.021062495 -0.0029735717 -0.0060324385 -0.0019773997 0.0032864786 -0.0069055418 -0.007656102 0.003795789 0.0023272908 -0.00079436105 0.010743437 0.029424334 -0.006869705 0.024488285
vital -0.041261464 0.020446807 -0.015288218 0.005190177 0.0073415106 -0.018889554 0.0040880046 0.03526468 -0.01528739 0.012486066 -0.005194344 -0.009498427 0.023850186 0.034908976 0.017744442 -0.00364907 -0.005299723 -0.013598154 -0.014917323 0.00206379 0.019669827 0.007904265 -0.012397232 0.00064548256 0.020795766 -0.017639693 -0.008904371 0.0064559267 -0.009203256 -0.012608936 -0.015205167 -0.024473755 0.0057176244 -0.011472134 0.015678907 -0.0029516541 -0.0022183363 0.006519188 0.0103870565 -0.0058905366 -0.006660495 -0.0057147983 0.005390231 0.0013702445 0.004703115 0.02024329 -0.0075700763 -0.012289612 0.010562024 0.012339697 -0.007901849 0.004081552 0.004105074 0.0020256806 0.019404339 -0.021367736 0.017621933 -0.020621417 -0.009474268 0.011436035 0.016734753 -0.010138055 0.012261782 -0.0015781428 -0.024746247 -0.021546917 -0.005789264 -0.008752257 -0.017011536 -0.0048726266 0.004373417 0.03552152 -0.0044289073 0.00447572 0.005177903 -0.02551272 -0.01598624 0.009604155 0.0017078967 0.014063249 -0.013618401 -0.0044525093 0.0106657185 0.0076994067 0.007522547 0.017598594 -0.009230482 -0.025136136 -0.012717475 0.012814942 -0.017598078 0.007689877 0.010405072 -0.008574262 0.0033892358 0.014505464 -0.003228615 -0.003618171 -0.009359466 -0.010968946
certain -0.031120246 0.06476911 0.061575457 0.0027678148 0.016074331 -0.006598262 0.07168345 -0.04012814 -0.0037565222 0.020886142 0.023719238 0.043100476 -0.017542075 -0.035565294 0.0015985355 0.038391214 -0.0053693997 0.008025774 0.0024635282 -0.026258117 0.0067401156 -0.02899098 -0.011354408 0.033934962 0.026970804 0.01444192 -0.00497991 -0.024636341 -0.014065309 -0.0014367669 0.027149051 0.036520813 0.037231497 -0.023214284 -0.0060749063 0.003932524 -0.04166029 0.012589902 -0.004360527 0.024554312 0.026529204 0.030381761 -0.012072718 -0.035410397 0.03216041 0.006048933 0.0134511255 -0.0007311526 -0.008768181 0.0028640195 0.008473162 -0.0012987268 -0.04277817 0.010380849 -0.0086755045 -0.04033024 0.0020578376 0.005465601 -0.012077438 0.004173574 0.0071727587 -0.012645958 0.021314496 -0.011750619 0.0052967537 0.006351913 -0.008303416 0.046175845 0.0077554304 0.006434532 0.033413652 -0.03632957 0.022564372 -0.054773767 -0.045146704 0.0057478873 0.014034063 0.006189833 0.01696378 0.020052612 -0.018129712 0.034259874 -0.016866319 0.039745543 -0.0059444765 0.032684658 -0.019072127 -0.0026485256 0.017632239 0.01046765 0.040824763 0.008687913 0.021331519 0.00054480945 -0.030160015 -0.028062103 -0.0054511214 0.00069606025 0.0027548214 -0.004384846
fishing -0.0125688845 0.016121108 0.011990197 -0.014978493 0.0016765398 -0.0155328065 -0.019275434 0.0032054537 0.0056020143 0.019140668 0.0020868063 -0.008272058 -0.0048596943 -0.0085747205 0.009022232 -0.015041775 0.016018406 0.012336445 0.0066751735 0.009256414 0.027736159 0.0045940853 -0.0023995545 0.001256271 -0.0005540443 -0.027069211 -0.0073441393 -0.009459971 -0.040066235 0.0023289262 -0.0048029264 -0.010357862 -0.009754715 -0.011275376 0.012545735 -0.027179465 0.00047205348 -0.016029557 -0.015282771 0.0071198307 -0.014408135 -0.023599243 -0.0075919717 -0.012170479 -0.022058865 0.010520376 -0.015165171 -0.0033861331 -0.003624397 -0.030765876 -0.015406476 -0.0013604744 0.03815009 0.008185802 -0.015360444 0.0040742448 -0.008537124 0.0053737303 0.013784035 0.010140945 -0.004113571 0.0025905133 0.0019800381 0.0075936 0.026128374 0.0020165988 0.0043910886 0.0072278096 0.014605274 0.019025514 -0.0102378465 -0.0051109577 0.01021081 0.01275135 0.012830171 -0.020785294 0.0044767247 -0.01831868 -0.0035952204 -0.0066749817 -0.019184578 -0.0041994494 0.017145291 0.0065375436 0.0064409166 0.0358244 -0.00818687 -0.013115797 -0.0018398823 0.024714574 -0.015461306 -0.0220818 -0.012427989 0.0017175829 -0.005293974 -0.021791987 0.0035918956 0.013014 0.009835518 -0.02633491
wife 0.02420253 0.007661737 0.041012347 0.005236322 -0.011560911 0.02186753 -0.009312835 0.004871183 0.02360276 -0.0055543506 0.02928917 -0.02370931 -0.0037258016 0.021926949 -0.013584526 1.1128257e-05 -0.0018404626 0.013179602 0.007658257 -0.00010014151 0.015991509 0.0065872325 0.0024053515 0.0012475132 -0.012944549 -0.0028421087 0.0053794775 -0.02213099 -0.028245548 -0.0020925594 0.011002144 0.011300263 -0.0008836038 0.0067877886 -0.015617743 -0.016565755 0.0010242737 -0.016669309 -0.014586676 0.019230133 -0.025008908 0.014393581 -0.0032970628 -0.0047636265 0.0098216375 0.016556872 -0.0031884173 0.0024521612 -0.006285467 -0.013823248 0.006284999 0.030496627 -0.00996278 -0.010330248 0.0031919405 0.017035935 -0.012491887 0.01156443 -0.023707615 0.005915395 -0.0006239584 -0.00691934 0.030048471 0.022367956 0.010823941 -0.019802704 0.0105915945 0.0038602026 -0.0055574602 0.016578747 -0.017337145 -0.023275238 -0.010275167 -0.010799169 0.006579284 -0.010822861 -0.008597193 -0.016088888 -0.0046477243 -0.023258444 -0.013759276 -0.015018417 0.018203435 0.020675419 0.014532746 0.018407177 -0.0084472485 0.018088363 0.005321474 0.0047191097 -0.025269233 -0.009539245 -0.0073909713 -0.010271556 -0.0037284044 0.0096565 0.00027684783 -0.0061228396 -0.0063800924 0.00078275136
belief -0.010827619 -0.0057442165 0.04547842 0.0030021213 -0.029182123 -0.022107668 -0.010681749 -0.0031526359 0.004887363 0.015918761 -0.001621369 -0.01300543 0.0038668222 -0.0051677763 0.01741759 -0.010230426 0.009029859 0.00645414 0.0014754815 -0.0046427087 -0.008556608 -0.0024945703 -0.008292627 0.0052987137 0.019226678 0.0021082985 -0.012320878 -0.028556379 -0.01084802 -0.0012890039 0.0011137074 0.0047132135 -0.0034487892 -0.0024903691 0.0021534588 -0.0020647198 0.0066357977 -0.012849067 -0.009008249 0.010921955 -0.024862323 -0.0036895517 -0.0017441891 0.01481595 0.01706753 0.021925071 0.0021968056 0.005558028 -0.005092126 0.0064082234 0.025341962 -0.0050132643 0.0012276175 0.007043876 0.004550585 0.0064097657 0.010246007 -0.015970761 -0.026667565 -0.012936796 0.0105807595 0.0014542934 0.0014676811 -0.0013169104 -0.00020622462 -0.008793069 0.0054236315 -0.018444333 -0.01579455 0.007950522 -0.0063608484 -0.008942418 0.014512334 -0.012633332 -0.02334806 -0.037535362 0.02720842 0.007286423 0.020482166 -0.0016461222 -0.009785783 0.012630408 0.008998966 0.0024284555 -0.0134594655 0.015673162 0.045096703 -0.01180144 0.020940835 -0.0063483 -0.023514941 0.021940647 -0.012025538 -0.015673622 -0.03242376 0.022228621 -0.012798586 -0.01700122 -0.015557592 0.018642606
team 0.0077226204 -0.0049275346 -0.033606727 -0.00273301 -0.010677777 -0.01898427 -0.014871783 0.009303058 -0.013996355 -0.0007364355 -0.029167797 -0.0054671485 -0.010137511 0.019146467 -0.038561594 0.0065151528 -0.0029784637 0.00042308078 -0.009317543 0.019539788 -0.008427056 0.0025475952 0.005554152 0.017303199 -0.0037192684 0.0011429652 0.004384768 0.0067675486 0.004224378 -0.007063399 0.004522576 -0.010271221 -0.0069249864 0.016194034 0.008914549 -0.00087223673 -0.00012704344 0.00061114534 -0.012479335 -0.011436885 -0.008881399 0.012214829 0.004539899 -0.035147134 -0.00565693 0.024527686 -0.0065693795 -0.0039936686 -0.0018279001 -0.004061526 -0.026863342 -0.014365903 0.0105379885 -0.0024366174 -0.011612265 0.021105304 -0.012013881 0.007399003 -0.0011788339 0.009013532 -0.013479936 0.018609859 -0.009951569 0.01767003 0.015957413 0.006172421 -0.0017843829 0.017797057 0.012029713 -0.008933024 0.017965822 -0.024794044 0.011119946 -0.0031249195 0.004402467 -0.02633467 0.0015294997 -0.007967718 0.0076745884 -0.00781664 0.003954576 -0.0020858508 -0.02988132 -0.033636875 -0.019463448 0.0071032317 0.0061578797 -0.020613091 -0.019347938 0.001965266 0.013933215 -0.029404806 -0.017625254 0.017385075 0.022635302 -0.006024821 0.013137633 -0.0015627069 -0.0122992955 -0.0011854032
challenging -0.012648023 -0.0008008792 -0.0074061737 0.0025134692 -0.021087041 0.020773895 -0.02432921 -0.007765408 0.0041264207 0.020738654 -0.010092923 -0.019503769 0.00202733 0.015084125 -0.00088358275 0.026012044 -0.019033581 0.0003568628 -0.0038365806 0.037107255 0.017759424 0.017263178 0.0080197025 0.032874588 0.002875736 -0.017564418 0.0051769773 0.0067287767 0.003787187 -0.0090715885 0.0067277886 0.008441661 -0.017148128 0.004693463 0.0040364387 -0.01687052 -0.0047597745 -0.021057462 0.0032953965 0.003987344 0.015384505 0.010425484 -0.013884419 -0.019732187 0.020583944 0.04569688 -0.015583158 -0.0050963513 0.0019681838 -0.007849264 0.0071341526 -0.019576486 0.011896389 0.0024593167 -0.012486505 0.035396032 -0.0055882167 0.02446317 -0.0014195433 0.013301415 -0.016872419 0.0010699407 -0.0053620674 -0.004830314 0.019955134 0.0054324865 -0.027453735 0.025892206 0.0035668623 -0.01694977 0.012693264 -0.015792381 -0.0051952163 -0.013745867 0.010935853 -0.026116168 0.020441664 0.01941194 0.018333178 0.0030478667 -0.013428671 -0.046879407 0.00027640117 -0.0061519044 -0.006752817 -0.0022104713 0.018939288 -0.0040327823 -0.0027297852 0.011557928 0.004780429 -0.03527633 -0.001726622 0.01204974 -0.025710346 -0.0041135172 0.01961158 0.0006516359 0.01673943 -0.00013846945
post -0.03646845 -0.035576507 -0.01908174 0.025401218 0.022877706 0.001957656 0.0036052668 0.007793184 -0.00017182759 -0.009864892 0.03218438 0.010521529 0.027284801 0.02468487 0.0054521793 0.01775216 0.015621362 0.0034607279 -0.0094272485 -0.0063939625 -0.0124671 -0.0024470305 -0.0018462605 0.027806563 0.0031433334 -0.005075541 -0.0035814547 0.016338663 -0.008431746 0.0031690875 0.00082055456 -0.011586103 -0.01943346 -0.0013158857 -0.0040245904 0.015687216 0.005509815 0.014032265 0.013844275 -0.01590484 -0.004199719 0.0129162045 0.014413465 0.022997238 0.010360094 0.012281528 0.011678841 0.010595084 -0.01877875 0.019077828 -0.022783581 0.010704935 0.0035557887 -0.0060669077 -0.008605831 -0.010592442 -0.007901414 -0.010964895 0.000104316976 -0.012126195 0.016253203 -0.010120074 -0.00597611 0.011252257 -0.0038486333 -0.013888014 -0.015395421 -0.01386878 0.017793665 -0.0070579834 0.007306006 0.033468295 -0.0020087645 -0.0040833405 0.005375067 0.016697802 -0.009461486 -0.028087772 0.022472043 -0.0012710268 0.005674909 0.0146259945 0.00047255878 -0.013549334 0.0025843438 -0.010415044 0.002950031 0.03505418 -0.01235813 -0.007512992 0.0026968461 0.00951547 -0.009257928 -0.0046947445 0.018172635 -0.0012041033 -0.00484969 -0.014360704 0.021212073 -0.0020195658
performed 0.0012583914 -0.0065818094 0.0066149146 0.011382006 -0.04187758 -0.026677756 -0.01216703 -0.0112978555 -0.003342517 0.0031685985 0.040875364 -0.0011047643 -0.028008878 -0.009785296 -0.010112793 -0.0030199764 0.015112397 -0.014325094 -0.008175672 -0.04088905 0.011714481 -0.002292245 -0.008203299 0.0062972372 0.00884602 -0.009146525 -0.023870857 0.009836991 -0.005243451 0.017722292 -0.0049519846 -0.008163551 0.01116872 -0.00020401861 -0.019497497 0.001728795 -0.0093641095 -0.014231507 0.015947532 -0.011329182 -0.016232587 -0.011685098 0.0029119162 0.0099112475 0.005713388 -0.006818981 -0.011757458 -0.00016341472 0.018783541 -0.0051825154 -0.013206504 -0.0014414412 -0.0101761455 0.016471906 -7.440883e-05 -0.006085707 -0.014919227 -0.018842898 0.0011619022 -0.015548909 -0.0032098661 0.004721037 0.022348102 0.0007621479 -0.0027017267 -0.0024040246 -0.01352376 0.0014774776 0.0024019633 -0.008470726 -0.005936174 -0.008046225 0.0015763383 0.0013616962 -0.00950904 0.005254563 -0.029890623 -0.009057617 0.0048165144 -0.004362453 0.0042981515 0.013651421 0.017738767 -0.0019339417 0.021638457 -0.0020417667 0.0135705415 0.004583709 -0.016178776 -0.0003277572 0.009948252 0.021756021 0.011129584 0.0039599687 0.029111993 -0.0017895978 0.010352676 -0.0035135448 0.0127214985 -0.0104854405
next 0.015419145 0.010858054 -0.01023522 0.022545833 -0.0055277315 -0.009607491 -0.0021361588 0.0076744463 -0.0074008047 -0.025885757 0.01776511 -0.0027904902 -0.009318613 -0.01193243 -0.0014582665 -0.016996192 0.011809375 0.012642826 0.0011768406 -0.019046236 -0.011472333 -0.008449238 -0.027600626 -0.005875402 0.021116694 0.017569162 -0.009553422 -0.0061304537 -0.01496577 0.019946396 -0.02211875 -0.019395009 0.026999768 0.008629496 -0.007633097 -0.0092042675 -0.023405295 -0.012588313 0.044864535 0.012789668 -0.018735368 0.0067092045 0.010922146 -0.029290512 -0.024038551 -0.026576743 0.014929875 0.002744573 -0.03197328 -0.0211049 -0.0010062321 0.013770059 0.01566447 0.0030809666 0.0071281376 0.03902329 0.01895423 0.007481386 0.0182852 0.016438473 -0.0017197445 0.008866134 -0.00047890597 -0.007057765 0.021935022 -0.015852405 0.006137045 0.0021061911 0.00056771206 0.0026374287 0.0033532265 -0.0076792045 1.3078796e-05 -0.011721137 0.011790906 -0.0016032835 -0.002521496 -0.013564215 0.0007345102 0.0021710326 -0.009238372 0.0117450645 0.012195037 -0.0032872546 -0.009630269 0.0034232878 0.004185583 -0.007793113 0.021272313 0.018079188 0.007649694 0.024884442 0.004664976 0.0027994066 -0.018450012 0.012849443 0.0055249287 -0.018583981 0.005861827 -0.016378848
six -0.03024776 0.009011187 0.001398448 0.01393462 -0.005884991 0.010532061 -0.019712595 -0.015731534 -0.00052956404 0.013510068 -0.009998539 -0.0060837287 0.035561003 0.01068574 0.021356149 -0.01664249 -0.023739448 -0.009524769 -0.004153359 -0.028997436 -0.0015613963 0.014582606 0.0049026464 0.0071307663 0.0004496306 -0.0007695482 -0.026574256 -0.007803244 -0.009918758 0.018365806 -0.0060818163 -0.0069578877 -0.013453195 -0.016894013 -0.0033516241 -0.005464536 0.017765228 -0.015116145 0.009023328 0.030053297 -0.0053913794 -0.0141201 0.014340721 0.014245153 0.0030864726 0.0056510693 0.011656764 0.0056463336 0.00015096359 -0.008152331 0.012025951 0.019586854 0.015166901 -0.002379994 0.0021553754 -0.016267715 0.0023944017 -0.008571658 -0.021227596 -0.040799733 -0.00796539 0.0031194002 0.023439584 0.026075086 0.018044442 -0.0029660985 -0.027864015 -0.004138017 -0.022216026 0.014169543 0.0064308313 0.0015316111 -0.011480634 0.0018871271 -0.012092301 0.005650185 0.0024835153 0.00025358624 0.0069182306 0.0045075635 -0.009326334 0.03244853 0.03192302 0.02147212 0.026965126 0.011739951 0.028513115 0.0153438905 -0.01849418 -0.0020304092 -0.006955211 0.00047090108 -0.0027772144 -0.010846907 -0.0053184703 0.013850371 -0.005580342 -0.023287855 0.00073362957 0.010900326
1938 0.010080295 0.0023860082 -0.009572342 0.0009371599 -0.009525736 -0.035247 -0.0046771313 -0.0017991811 -0.0074284365 0.045040924 -0.0008945458 -0.040596873 0.0014414816 0.01770141 -0.028592674 0.01753995 0.005362225 -0.034214865 0.019891018 -0.0013656825 0.010856007 -0.0019393286 0.018180015 0.007962446 0.002041828 -2.0577305e-05 -0.027805906 -0.0013240315 0.034720752 -0.0022781454 -0.019379906 -0.0028194392 -0.0018906111 0.01855011 0.027588567 -0.0027188526 -0.012089866 0.013733174 0.008305905 -0.003647977 0.0070309397 -0.009321204 -0.024803177 0.023138002 -0.0009856794 -0.011186371 0.0072591426 -0.0060109342 0.013734366 -0.011571343 0.0050481367 -0.03044408 0.003146401 -0.010157712 0.009885259 0.011552829 0.00884346 0.027878666 -0.025242053 0.018376531 0.014930022 -0.012622426 -0.0155859245 0.0141224 -0.021297054 -0.02472569 -0.009572973 -0.0026081805 0.0013048974 -0.0011346494 0.0068436326 0.011276303 0.002966335 0.019670147 0.012070546 0.0044042002 0.014077826 0.0025656358 0.0010154878 0.0076390826 0.003389039 -0.006485483 -0.010649973 0.010814747 -0.0071866536 -0.0011422609 0.0097622005 0.0068204594 0.014970199 -0.016027946 0.0077918777 0.0021752578 0.022951787 -0.0053765685 -0.0014285869 -0.009267611 -0.009253739 -0.007930174 -0.0083896965 -0.020199446
disclosure -0.0014395862 -0.0065620416 -0.015176069 -0.003613395 0.0337817 0.005832855 0.007892744 0.019042302 0.013046786 0.021920225 -0.01409328 0.01740808 0.014778883 0.019835811 -0.02041737 0.008960951 0.010740041 0.01504415 -0.0053440407 0.024689028 0.012223187 0.0010495986 -0.0044839904 0.006823349 0.003878996 0.002969543 0.01565122 0.005055485 0.021423569 0.0063955192 -0.010842809 0.0018169711 -0.013827271 0.0102372 0.026390018 -0.028116409 -0.0069220657 -0.018228646 0.038167577 0.0029149707 0.03109859 0.019289078 -0.010443974 -0.002261794 -0.018284408 0.0028189495 -0.0038711056 -0.02411399 -0.0032677138 -0.009751946 0.0044060927 -0.018547656 0.03232346 -0.011132937 0.0022911802 0.017754598 -0.00020506422 0.00425001 -0.001515274 0.00065070676 -0.011878488 0.012845396 -0.0091710985 0.0028044363 0.006442684 -0.0023335598 -0.015187503 0.03221712 -0.017094556 -0.002654293 -0.028577251 0.010013868 -0.0013654522 0.037465237 0.015922066 0.0043947636 0.023769269 -0.020640407 0.01323246 -0.009076284 0.009401514 -0.014852052 -0.01985325 -0.009977899 -0.026301341 0.008677427 0.0054849153 0.012743815 -0.019896105 0.034220513 -0.019143198 -0.029007696 0.009311008 0.00967077 -0.020804534 -0.0055681174 0.022388121 0.0118047185 -0.003076498 -0.0021998477
routine 0.023525085 -0.011656538 0.013992957 -0.027393145 -0.014152383 0.0027972301 -0.0014491486 0.016065873 -0.0015788003 0.01971948 0.010841724 -0.023056816 0.006627793 -0.026903765 -0.003513758 0.011020487 0.015674848 0.0013910969 0.018121917 0.0015910799 0.013942084 0.004484163 -0.006264374 -0.0154411355 0.0036679679 -0.024490809 -0.017654728 -0.020712478 -0.025782604 -0.016175486 0.0030183399 -0.00031281193 -0.001988178 0.008740001 0.005551648 0.009372244 -0.012640502 -0.01449301 0.0026323234 -0.025166655 -0.016814047 -0.022350362 -0.0044990797 0.008053846 0.011052787 -0.0032907596 -0.01603041 -0.0044660755 0.006588145 0.0109111285 -0.0178615 0.0160959 -0.022583218 0.0046581244 0.0022258838 -0.03394891 -0.009703149 0.0026350874 -0.020250756 0.014961704 0.013133884 0.009404925 0.010744002 -0.010403632 -0.024256771 -0.011848968 0.029486261 -0.0114618745 0.01399403 -0.0019310678 -0.004907334 0.0009893053 0.01754386 0.0005861417 0.009107524 0.008536713 -0.006644543 -0.0017157727 -0.004527893 -0.012830602 -0.033004455 -0.0051472466 -0.0067447824 -0.004698943 0.018113578 0.007340906 -0.01769779 -0.032056183 0.0015138207 -0.013235662 -0.012401419 0.021896204 -0.0054792827 -0.027460035 1.5780271e-05 0.0048167007 0.008701738 0.0049517127 0.017592302 -0.009454662
argument 0.0003851591 -0.009148756 -0.012071742 -0.03134195 -0.021134172 -0.022647029 0.019371497 -0.013769989 0.008090279 0.0043637753 -0.020182244 0.03284898 0.02414087 -0.030505681 -0.009062988 0.031695448 0.016364109 -0.04711113 0.03220228 -0.012236381 -0.0051621827 -0.0083433725 0.010049739 0.0065033194 0.021911385 0.005674508 -0.009202106 -0.0012907025 -0.0023760225 -0.012717899 -0.007446155 0.021486185 0.0011110837 -0.0033807135 0.014411314 -0.00016973293 -0.020903548 0.008953902 0.0011745995 -0.009004088 0.015220433 -0.0134823425 0.011977185 0.012529903 0.007305741 0.0013472459 -0.004408682 0.012597184 -0.009229296 -0.014419211 -0.017206943 -0.013713795 -0.0070173875 -0.006981583 0.0060647717 -0.0122199245 -0.03155817 -0.007827054 -0.000777828 -0.017271193 -0.0010328301 0.015694428 0.015358745 -0.0037533203 0.025243498 0.0031998537 0.021365626 0.015611278 0.033426475 -0.0041331053 0.008107617 0.010305632 0.023720909 -0.012679532 -0.00739389 0.01668155 0.00081817136 -0.028228858 0.02161617 0.0066260574 -0.010124938 0.018987382 -0.0060863653 0.023075344 0.007221975 -0.004470122 0.0034700567 -0.009646906 0.0053284415 -0.00904462 0.008156311 0.0043595224 -0.0054254937 0.005627329 -0.0016902888 -0.024391454 -0.023984894 0.007016673 -0.004545989 -0.0070920773
fishermen -0.004545057 0.028978704 -0.049619783 0.043737 0.0003736334 -0.02087856 -0.03278711 -0.050974194 0.09764123 0.07317429 -0.043996744 0.05515075 -0.008991345 -0.032510854 -0.008080959 -0.0022586565 -0.032334153 -0.041815322 0.017819904 -0.020371104 -0.020855308 -0.036499925 0.0292915 0.033044826 0.027215539 0.045205988 -0.047901653 -0.0011771312 0.026020823 -0.01991357 -0.039879132 0.05208054 0.055204764 0.0037136571 -0.021018403 -0.019360881 0.039377347 0.033254854 -0.027110504 -0.03675545 0.039883234 -0.02212092 0.0070456453 -0.033256773 -0.05025386 -0.03191381 0.00045039045 -0.13466959 0.020260366 0.013987934 0.037519287 0.048302803 0.03957642 0.018248023 0.012689593 0.03852551 -0.04185722 -0.01480744 -0.01618129 0.047392946 -0.027795918 0.048544444 0.03061516 -0.010717393 -0.036078952 0.030150773 0.031305537 0.012650371 -0.016742444 0.04533569 0.03393532 0.024478631 -0.01798286 -0.04028266 0.004794817 0.0025814557 0.005253963 -0.01803649 -0.013166973 0.03394332 0.024741806 -0.0029584141 0.049956974 0.007908268 -0.022979198 0.02694111 0.01250512 -0.0005881984 -0.0009459912 -0.049941517 -0.029625304 -0.0031333729 -0.063739195 -0.043131135 0.023113107 0.047867324 -0.058063485 0.006913703 -0.043533023 -0.03548767
going 0.03198099 0.02821362 -0.0094239535 -0.047513504 -0.014541107 0.001311936 -0.03119495 0.024142696 -0.061004333 0.012452806 -0.04476356 -0.075038984 -0.012772117 -0.058836278 -0.0026767957 -0.023162747 -0.010516166 0.023125762 0.0021684037 -0.03340097 -0.026496463 0.12193002 0.040382337 -0.038685538 0.020424139 0.02271786 -0.04905393 -0.035082255 0.02702338 -0.03654916 -0.053419404 0.060503878 -0.012137032 0.040101644 -0.034601834 -0.008990451 -0.0059553324 -0.025140258 -0.05324755 -0.043587048 -0.023118865 -0.047535915 -0.036986485 0.0015517161 0.044758234 0.03967196 0.028565826 0.15396188 0.03505388 0.05650082 -0.033719126 0.013353355 -0.042280477 -0.006887757 -0.08512549 0.022380954 0.048432577 0.0022114995 -0.02763528 -0.05063492 -0.038060825 -0.06255961 0.057587914 -0.027762746 -0.01722191 0.04877488 0.039573394 -0.041132156 -0.013976879 0.04692998 -0.16585168 -0.03750247 -0.060651477 0.01713605 0.044151902 0.02735596 -0.024789 0.03982009 -0.00664718 0.035013434 0.004056033 -0.0009948395 -0.014629416 -0.012223806 -0.051267408 -0.046042304 0.011274571 0.011090372 -0.070607394 0.0053987014 0.012324566 0.026177423 0.10757517 -0.0014366023 0.025075756 -0.0051170276 0.04049767 -0.009768013 -0.021768473 0.023331493
cannot -0.020702701 0.013614889 -0.010432022 0.020181749 0.013494604 0.0027454977 0.022441318 -0.0022286088 -0.009329122 -0.015657676 -0.031388294 0.010332367 0.006955573 0.00026073342 -0.002974612 -0.0065908674 -0.0026858859 -0.01696849 -0.00028273335 0.0026043046 -0.006276906 0.0069936286 -0.0020461574 -0.0066903303 0.005859441 -3.332577e-05 -0.014651124 0.0113815 -0.00303886 -0.03466587 0.008194824 0.022515364 0.008797366 0.007306161 -0.008925367 0.031370286 -0.0060485783 0.043247957 -0.006805558 -0.017904408 0.010715577 -0.00794383 0.012491373 -0.000670776 0.0026520453 0.023243131 0.0111624915 0.010070989 -0.044923924 0.002477759 0.017584408 0.022175297 0.00317989 0.0225005 0.014135738 0.020491948 -0.027939796 -0.00085179607 -0.0009397098 -0.0242124 -0.0013926019 -0.010389218 0.034945376 -0.015050905 0.0009692103 0.017888878 0.00876978 -0.02771253 -0.006328915 0.010224114 0.0047072256 -0.0032669841 0.0017842052 -0.01229526 -0.031067666 -0.003551035 -0.0076288264 0.0074972957 -0.002304869 0.011222194 0.013248449 0.0016033596 0.008370399 0.0049666814 0.0036423241 -0.026289312 0.013822782 0.005423557 -0.032549344 0.0053303344 -0.016272027 -0.0149117885 -0.014105635 -0.012073684 0.027207524 0.00082813756 0.016752668 -0.0077828295 -0.009570144 -0.012812537
close -0.004191096 -0.010541899 0.003941698 -0.030707454 0.0068919696 0.016332543 0.008620344 -0.004223472 0.002138539 0.0033159526 -0.022178806 0.007188262 -0.0021365106 0.007779473 0.0031642227 0.0036404654 0.028260358 0.0064706323 -0.014130716 0.026711438 -0.011644064 -0.008294648 -0.039708916 -5.598791e-05 -0.01050898 -0.0015931412 0.010440211 -0.0047243973 0.0016423615 0.00341611 -0.0050595184 -0.00884742 -0.027462743 -0.019704914 -0.008264682 -0.0050201775 -0.014729072 -0.006400153 0.00652964 0.014308638 0.007763297 0.0022695705 0.0065763462 -0.014650478 0.007290564 0.032689318 0.012817393 -0.013329854 -0.03004324 0.013938157 0.019123234 -0.0025325767 -0.005675113 -0.01435395 -0.0071382546 0.02006412 0.013808503 -0.017953068 0.008012716 0.006318208 -0.0014059285 -0.002192833 0.024719132 -0.012206624 -0.014126259 0.016185863 -0.017706377 0.013838189 -0.010433936 -0.00014275586 0.003908553 -0.0028823926 -0.008804783 0.003766131 -0.035684902 0.0051476783 0.007521395 -0.017410558 0.018534 -0.013176493 0.02369981 0.02141247 0.00024491837 0.029306049 0.0031859009 -0.0035750405 -0.00056584773 0.0036627464 -0.019352693 0.034558546 -0.019407844 -0.015351082 0.0043901205 0.0062398408 0.0030058934 -0.010025608 0.029538179 -0.002039622 -0.02958696 0.010228426
denigrated -0.019908804 0.00987493 0.020627405 0.004030655 0.013670497 0.009277865 -0.008369078 0.016195882 -0.00414672 -0.041186765 -0.023940587 -0.008396243 0.005773422 0.011269992 0.012058038 0.029616661 -0.0046646474 0.010933734 0.0033802772 0.020282917 -0.019738102 -0.0072061946 -0.022606118 0.0061355373 -0.00096076995 0.02287319 0.0065063247 -0.016126549 -0.030223155 0.010610675 0.0003662465 0.03040214 0.0073037003 0.00447083 -0.0026202863 0.004618889 0.03084247 0.023910942 0.010512532 0.001429748 -0.013984915 -0.015334188 -0.018020105 0.019943431 -0.017107291 -0.008031316 0.03633879 -0.0025770594 0.0148610035 -0.0009765758 0.020413237 0.017958563 -0.008256193 -0.006418459 0.03683375 -0.036270153 0.0200122 -0.0004979566 0.009418341 -0.01359631 0.015090332 0.0065083997 0.006910727 0.016478667 0.007898781 -0.027868591 0.0010455742 -0.0057191793 -0.0038576215 0.0052803797 -0.0020116277 0.009735973 0.010846889 -0.012359078 -0.00296221 0.030556098 0.014003314 -0.013200983 -0.020142542 -0.0041795364 -0.009887728 -0.0032061078 0.028207973 0.013721218 0.011503324 0.013552777 -0.021837661 0.00986278 0.015582655 0.029116377 0.0065042954 0.0011060919 0.009583331 0.009445699 -0.006831983 0.0029999106 -0.013246271 -0.024030084 0.0011069059 -0.0025303005
includes 0.02667254 0.0036449304 0.0121936705 0.007001408 0.005612196 -0.0019158588 0.02256835 -0.007444495 0.0058740424 0.040288627 -0.016975455 -0.023926413 -0.014462327 -0.0065366044 0.014544132 0.002776681 0.0031013442 0.017742794 -0.010758308 -0.004796356 -0.0013641913 0.0046069752 -0.0234094 -0.018693026 -0.016602334 0.009378664 0.018362116 0.0020624157 0.006372062 -0.0041348524 -0.01458921 0.0027965507 -0.013630869 -0.006103063 0.015957505 -0.012105937 -0.0049775266 -0.006537334 -0.04816558 0.017365105 -0.007723327 0.025142282 -0.0033251895 0.015627038 0.00051955355 -0.0066350875 0.00395664 -0.003257973 0.024256725 -0.0018325832 0.0010910971 0.013539954 -0.012144542 -0.0054288986 0.0059199193 0.012604341 0.0058578607 0.00390742 0.0047740545 0.019971669 0.022923136 -0.007900053 -0.03676084 0.004892679 0.025322305 -0.013329946 0.024490057 0.0019936424 -0.004093109 0.0065757446 0.013130781 -0.006142949 0.021298902 0.01563517 -0.0023573874 -0.014702779 0.020688197 0.006583536 -0.015292938 -0.016487913 -0.0018432679 -0.0005321276 -0.010447415 0.0106593445 -0.028332358 0.0028287596 0.011446482 0.0038988702 0.0116436705 0.0051143584 0.0002480619 0.0065168873 0.00013130007 -0.011738078 0.010694792 -0.012070651 -0.032634377 -0.010582501 -0.027553085 0.0076564495
placing 0.014812014 -0.020224307 -0.018715492 -0.013116437 0.025023445 -0.0073918304 -0.016229192 -0.0038232415 0.00040926613 -0.0074762665 -0.009158141 -0.002906247 -0.005881993 0.0051864423 -0.020143136 0.019342724 -0.011379607 0.0040674563 -0.023979153 -0.011997535 0.010894346 0.014271963 0.0041317046 -0.0032812785 0.00013772202 0.016622534 -0.0033306016 0.04323235 0.02128405 -0.010475281 -0.0035251188 0.00835737 -0.01983297 0.019718109 -0.0110582 0.014117657 -0.0040955525 -0.0077301282 -0.008939713 0.0035223262 0.0011676553 0.027860982 -0.011262617 -0.014541821 0.0056323195 -0.0034735866 -0.013261323 0.0074552437 0.0007622872 0.004895374 -0.0071941847 -0.0064710965 0.011079773 -0.017924447 -0.0004174409 0.035404447 -0.005061343 -0.007292192 0.02659629 0.0040190155 -0.009107658 -0.0026861061 -0.009403817 -0.007467376 -0.0024189388 0.011429462 -0.014578039 0.0026595723 0.024461161 -0.008071538 0.022599561 0.002897045 -0.013187196 -0.007854651 0.010156878 0.003941434 -0.0034305984 0.007434053 0.013908847 -0.018151352 0.017865395 -0.025781166 -0.02399153 0.003970914 -0.037581157 -0.006224178 0.014046294 -0.00014204107 -0.01161535 -0.017257353 0.01076882 0.016369406 0.0053932513 0.012228166 0.019356027 -0.0031841556 -0.004602826 -0.009080775 0.006525742 -0.005028029
fought -0.018686509 0.013406822 -0.015106416 -0.009521678 -0.0007567518 -0.008021562 -0.006029287 -0.0072851935 0.0052700276 -0.004530959 -0.021188123 0.005593792 0.0025730485 -0.004256968 0.025000615 0.017280033 -0.013445276 -0.015582957 0.009519596 -0.009999081 0.006007454 -0.020360772 0.004965389 0.021985184 0.002468415 -0.003792524 -0.0066418895 0.004861162 0.010066899 -0.007404264 -0.006544616 -0.0024602162 -0.010713467 -0.0025570514 0.00651423 -0.003955789 0.013068425 0.016703323 0.019992884 0.017273199 0.0098816585 -0.014938641 -0.0020887037 0.0006211079 0.010570785 -0.0154784825 -0.0051494404 0.021622412 0.020173598 0.011342164 -0.0011746028 -0.018547216 -0.00045745005 -0.009232801 0.022510987 0.03108653 -0.0026654496 -0.013730801 -0.009244683 -0.0104901455 0.0068922606 0.0024364148 -0.009099701 -0.0048121186 -0.021946035 0.0012915945 -0.034105185 0.010070951 -0.011811605 0.0031575526 -0.013329368 0.0282327 0.015552273 0.017334808 -0.0018624025 -0.0211001 0.0028173965 -0.009685097 -0.014661072 -0.016751982 0.006515506 0.012751684 -0.020757623 -0.010053084 -0.007387471 0.038182106 -0.00016336929 -0.022579957 -0.0040680384 0.01318521 -0.017158095 0.013509001 -0.006434974 0.010641466 0.002883517 -0.026272452 -0.007748981 -0.0018257245 -0.0060582743 -0.009792374
northern 0.0032193928 -0.015058164 -0.02653236 -0.005191765 -0.010806816 0.009728541 0.017087951 -0.0069536273 -0.002818969 0.015842883 -0.027271166 0.009514446 -0.0042426633 0.005679049 0.0059103617 -0.020945812 -0.006446266 0.01247654 0.0060731466 0.021910485 -0.015482205 -0.0032845496 -0.005084464 0.024174744 -0.011583619 -0.0066113397 0.048286796 0.031765826 0.0156051805 -0.018968714 0.010220871 0.018620387 -0.0036351003 0.005890004 0.020426974 -0.015332538 -0.014205068 -0.011036788 -0.03250457 0.022698272 0.0028482461 -0.0011867483 -0.008089119 0.0033353337 -0.0134932045 -0.007164159 -0.005315358 -0.011606632 -0.011330497 0.004367563 -0.0010742896 -0.0304774 0.009459014 0.002814116 -0.013137294 0.03125105 -0.004864888 -0.0013667083 0.021236459 0.002475271 0.002833372 0.0023199837 -0.023549208 0.013603197 0.012455301 0.0025306994 -0.0067137745 0.024206836 0.010575908 -0.01657423 0.0075254063 -0.0022293467 0.016229877 0.0032836967 0.011461411 0.0047610058 -0.016620632 0.003621558 0.006854862 -0.005988998 0.011900064 -0.012908318 -0.017886307 -0.026487146 -0.020443678 0.016148176 0.014783347 0.00036466308 -0.012444699 0.0075012753 0.015403832 -0.023916686 0.0006640033 -0.00016165657 0.021045974 -0.011699463 0.0032968025 0.022848992 0.0037696196 0.0007855245
positive 0.039265476 -0.019533517 -0.029736657 0.0035431522 0.0050559887 0.006183782 0.03143412 0.016768847 0.02546307 0.01085771 0.012839976 -0.019343913 0.0081329495 -0.0013130096 0.0048598647 -0.010311385 0.016335145 0.04332477 0.02366328 -0.038254518 -0.007436606 0.005916659 0.016456801 -0.020970887 -0.010117241 0.0039165807 0.0017545058 0.007283203 0.023148552 0.0032832962 0.0022175277 -0.003907011 0.0107868295 0.0010535666 0.00038685638 -0.0039076093 0.00699298 -0.025154512 -6.321585e-05 0.026612187 -0.014384087 0.008725226 0.010839751 -0.0036006486 -0.015143234 -0.01024822 0.009804778 -0.0030307737 0.0071034897 -0.010303073 0.008086954 0.016897008 -0.023902733 0.0077813286 0.0055471305 -0.010317349 -0.00980818 -0.019850977 0.007472961 0.0026474197 0.0041948967 0.0084576495 -0.028791683 0.011422207 0.0019277997 0.0011993595 0.015075949 0.0003208844 -0.020598615 0.007849253 0.0111750215 -0.01600853 -0.022033837 -0.016642997 0.011530729 0.024551788 -0.0022253864 -0.013749608 -0.0040869033 0.0023523439 -0.026094334 0.00476049 -0.004970879 -0.014892984 -0.0013230419 0.005885401 0.0071798856 0.01610276 -0.030247705 -0.023803316 0.016050057 0.0017286763 0.018210374 -0.013611198 -0.0011456338 0.020644268 -0.0045639877 -0.01403541 -0.0034281462 -0.0002496239
major -0.01008141 0.017732525 0.027379548 0.008685406 0.00012434222 -0.01202394 -0.012896785 -0.0047853338 -0.012456935 -0.015475618 0.009217166 -0.00035038884 -0.008034925 -0.00040337187 -0.020789374 0.008355451 -0.012148487 -0.029685542 -0.0063963016 -0.0020241027 0.015405202 0.016041145 -0.008896466 0.02053352 0.012511184 -0.012684374 -0.0035141483 0.01349065 -0.01980822 0.020519074 0.0025960398 -0.003241725 0.020481812 0.018585276 -0.009584156 0.012166831 0.009649103 0.00037561805 0.0018593204 -0.045525525 0.0013832167 -0.020125581 -0.018066792 -0.009735641 -0.0140834125 -0.018556593 -0.04192443 0.0019659174 0.015598538 0.011370806 -0.028714431 -0.0031067063 0.0062850174 0.0026778358 -0.0006139291 -0.00018977199 0.015020455 0.008876714 -0.0047518844 -0.016921269 0.00075082853 -0.0077198413 0.011975639 -0.00627062 0.0006159533 0.018744728 -0.00074808864 -0.022353213 0.01115451 -0.0048184735 -0.009074275 -6.339201e-05 -0.010945049 -0.017797502 -0.008965464 0.020883566 -0.018215876 0.011288007 0.018375466 -0.0026393617 -0.011988237 0.006778566 0.022230174 -0.008645842 0.01601981 -0.014017632 0.0015617798 -0.008987905 -0.011493909 -0.0086217625 0.0008752659 0.02887344 -0.0129067255 0.010486384 -0.01066684 -0.024766814 -0.005050879 0.0068061044 0.012703554 -0.02423342
passed 0.013319411 -0.0113752615 0.006975102 -0.0077644484 -0.043592792 0.017248368 -0.02102558 0.008722358 -0.035318792 -0.030885814 0.02465622 -0.020028634 0.0032006397 0.020224428 -0.028889168 -0.002363882 0.003471375 0.0023636245 -0.028577324 -0.001388253 0.0026681502 0.029447436 -0.019122092 -0.0066390457 -0.028381811 0.008682717 -0.01566331 -0.0026858416 -0.018897578 0.03054246 -0.012788917 0.017177949 -0.009294924 0.010200595 -0.02443071 -0.008628045 0.026336072 -0.019648295 -0.027750148 0.009913754 -0.00063060643 -0.00899174 0.031783614 0.013137595 -0.003055748 -0.04550207 -0.02704273 0.0130097745 -0.023564963 -0.01571604 0.049527843 0.03175599 -0.03236585 0.012782015 0.008992451 -0.017311798 -0.007742053 -0.018727055 0.0003588471 -0.016627003 0.008071869 0.014588429 -0.032104135 -0.014819647 0.009214098 -0.040674258 -0.008468069 0.019191654 -0.018167878 -0.021925712 0.02328585 0.015840711 0.023051163 0.0068101166 -0.00027489237 0.017319385 0.026841106 0.017779658 0.019736204 -0.011408513 0.034896158 0.008788614 -0.0058042337 -0.0013675173 -0.020560939 0.0020205646 0.035190806 0.01739223 -0.014883321 0.013520969 0.00017641837 -0.009713866 -0.018998481 0.024516247 0.033137012 -0.014351061 -0.0068222415 -0.028823024 0.008679681 -0.014469056
products -0.013868865 0.016414478 -0.0077657416 0.0004560064 -0.006281505 -0.002001573 0.009205597 -0.023299767 -0.013432657 -0.010918822 -0.020402262 -0.009119413 0.01609214 -0.029820735 0.008439177 0.0012611016 0.01969218 -0.00037417279 0.005720652 -0.01271496 -0.006717539 -0.011446935 -0.038643032 -0.0027205287 0.009413327 0.037488114 -0.012393692 -0.010750112 -0.017237252 -0.004612515 -0.01989947 -0.0034138286 0.0066933893 0.0044464 0.00038465846 -0.009696265 -0.013529814 0.0026489303 0.029027315 0.0136164 0.010953399 -0.019924946 0.021960963 -0.0029765605 0.002795143 -0.010663607 0.015765743 0.0033640396 -0.030706601 -0.024556661 0.021529734 0.0038776866 -0.013713874 -0.0014222466 0.01307239 0.016114084 0.0029066722 -0.004708127 0.009222447 0.0055572633 0.008277147 0.005120874 -0.0015113002 -0.022253068 -0.02782421 -0.027450876 -0.01080423 -0.006958868 -0.010721131 -0.006623668 -0.0017644023 0.016070634 0.014043536 0.017972495 0.00412065 -0.008315879 0.004281546 0.016302535 0.0025146108 -0.012932833 0.012283533 -0.002975201 0.0008015225 -0.00522492 -0.017227072 0.0087663755 0.006919408 -0.017169725 -0.004538696 0.007700848 -0.009130011 0.019279383 0.00068145106 -0.009354139 -0.0032658558 -0.009367988 0.003873293 -0.0096358 -0.031049937 -0.007025368
live -0.00822748 0.0015942584 0.004468676 -0.015580901 0.01973803 -0.019221507 0.0030573648 0.0014819363 0.0009551503 -0.0017353173 0.017077317 -0.011685507 -0.00068985496 -0.0048453007 0.030846035 -0.0009951208 0.038647093 -0.007835868 0.0119012 -0.01723118 -0.011453785 0.00564293 0.011217858 -0.0026948731 -0.010728171 -0.028223254 0.016232029 0.0027217993 0.004277341 0.020357275 -0.015083232 0.00201163 -0.0024930192 -0.022878172 -0.014583852 -0.0038182328 0.018973032 -0.0057002627 0.016404076 -0.02142806 -0.006686886 -0.027211435 0.004384602 0.016628582 -0.0011454525 -0.00863513 0.0069616893 -0.0034629044 0.03196308 0.0062916046 0.0032984368 0.017193582 0.012891251 0.007444765 0.0057321447 -0.013669897 -0.006531963 -0.03718027 -0.020100717 0.013325482 0.036106315 0.013130603 0.008079598 0.0040380224 -0.004656356 -0.0051108967 -0.015167616 0.0053996434 -0.004974617 0.0010079176 -0.0065512336 0.034314435 -0.0033958117 0.0059686536 -0.0005568118 0.0021325147 -0.02493507 0.006208726 -0.0046173064 -0.0056069354 -0.006594211 0.028565915 0.019888692 -0.015979862 0.014532367 0.02050029 0.018003289 0.012409834 0.002008703 0.01643507 -0.007001158 0.010430137 -0.00031835365 0.003825454 0.005593162 0.0098533 -0.023758192 0.002587963 -0.004863735 -0.0052395184
term -0.014133497 -0.007169538 -0.022429872 0.01681323 0.037886523 0.0034354543 0.009998645 0.002267201 -0.01518923 0.0189915 -0.018665425 -3.281898e-05 0.01830639 0.0037551085 0.0011912555 0.0063299485 0.0037130092 0.020420035 -0.011731704 0.0010576278 -0.0109935 -0.0061561503 -0.003906608 0.043157663 0.004257803 -0.002959751 0.01485773 0.022953527 0.0028453432 -0.0029072473 -0.025772993 -0.008970202 0.016574936 0.021222984 0.0032960505 -0.0075804503 -0.027333656 -0.01167973 0.010296289 0.03517491 0.026666746 -0.017426495 -0.0125915315 0.0037107926 -0.001304158 0.027883464 -0.0013241742 -0.0031663822 -0.009002417 -0.0048607783 0.012091739 -0.015095567 0.014431622 -0.009833571 0.0022694126 0.024682285 0.017915666 0.00091427576 0.01625574 0.00036229703 0.024075538 -0.023419986 -0.016075859 0.0023167857 -0.0031925347 -0.007005323 -0.052273426 0.020619005 -0.009995222 0.008592055 0.015546796 0.01406233 -0.0065098354 0.0024108991 -0.008976349 0.013135209 -0.0002536123 -0.0020069815 0.01305862 0.014134567 0.017853519 -0.010210293 -0.0075651924 0.014668883 -0.02677601 -0.005115258 0.019035779 -0.001279531 -0.015208281 -0.012154283 -0.010329951 -0.0075966017 0.020638397 -0.021720687 0.0016221849 -0.003522194 -0.011176566 -0.003191801 -0.018292917 -0.025069932
matters 0.006365002 0.00751472 0.002162891 0.011064718 0.02244113 0.043405566 -6.7621e-05 0.0003688897 -0.0027429075 -0.030671649 -0.033952538 0.0018657723 0.0026973872 0.02660105 -0.0010742196 -0.0015885949 -0.0144170225 0.00046940378 -0.04537123 0.01126194 -0.011509515 0.0067093563 -0.023416422 -0.007817204 -0.022818733 0.006574182 0.023726102 0.0032386978 0.005487327 0.013640359 0.022060955 -0.003102112 -0.012757898 0.03113862 -0.012437202 0.0058951695 0.009410163 -0.007856961 -0.007914264 0.014769347 -0.01568062 0.0038672003 -0.0023632545 -0.015924755 -0.00996863 -0.008624506 -0.014717926 0.0016056064 -0.00555914 0.0012998241 -0.001153478 -0.009162332 0.001917475 -0.011522096 -0.00016822666 0.034336224 0.007887722 0.00409312 0.0137711605 -0.011195503 0.005837733 0.0018296099 -0.002128818 0.020449476 0.0049089747 0.0038203497 -0.023898168 -0.0060066804 -0.01493811 -0.0016345212 -0.00084220944 -0.015435902 -0.0015095158 -0.0006983359 -0.033321798 0.022498537 -0.0080218455 7.450668e-05 -0.00064728456 0.0002363011 0.02118678 0.00012959554 0.006877806 0.023310049 -0.007189386 0.009918151 -0.0033181764 0.03508637 -0.036741342 -0.0132140145 0.009777907 0.001842815 -0.0067588566 0.015762758 0.011423424 -0.015253178 -0.023374144 -0.01760545 -0.0136975525 0.013021275
lawyers -0.017411847 0.0037393118 -0.022765014 0.0025847096 -0.011795474 -0.010609564 -0.0062032007 -0.0045864508 -0.015525192 0.004495948 0.010143187 0.016663829 0.019465713 -0.014827759 0.0110691395 0.0065101543 -0.012410055 0.020004459 -0.016711684 0.01028249 -0.0039222124 -0.0052441945 -0.013490668 0.0150503395 0.02030377 -0.019397918 0.0013948698 0.00899528 0.0017504795 0.0068006986 0.0016434948 -0.008373389 0.007446743 0.013753381 0.028624337 -0.0069513693 -0.020098452 -0.005453678 0.023067525 5.1528623e-06 0.0291038 0.004626161 0.013703599 -0.016751414 -0.018541522 -0.006801333 -0.011755285 0.0011851982 -0.0014905652 0.021499919 0.011748636 -0.01609424 0.0013340788 0.019209197 -0.009659722 -0.023079785 0.011508575 -0.0088769505 0.012592974 0.0068704826 -0.011653394 -0.0030609393 0.016771847 -0.017337246 -0.014987372 0.007893277 -0.01302101 -0.001436216 -0.0085379025 -0.012586163 0.018203609 0.011893337 0.0029810646 -0.0015858326 0.002289699 -0.007319707 0.0026109505 0.0035157723 -0.0017961441 0.029914487 -0.0056668785 -0.009479587 -0.0353847 0.01416197 -0.0077004153 -0.009595014 0.008028382 -0.010827791 0.037322022 -0.00052131386 0.01150837 -0.018711695 -0.004722783 -0.01106436 -0.008475544 -0.015324349 0.007281628 0.0076913736 -0.016116362 -0.009535818
happened 0.004574671 0.04577089 0.024260383 0.01794728 0.017028423 -0.00035271654 -0.011407788 -0.004941084 -0.029254604 -0.01616725 -0.008049107 -0.0067095286 0.013495951 -0.0062378347 0.0027850594 0.022600155 -0.00090341526 -0.004308738 0.014725613 0.03583197 0.011427055 0.010236911 -0.011042907 0.015559642 0.012918966 -0.010291508 0.006294628 -0.0064845695 -0.012772866 0.0015488311 0.008699518 0.026110688 0.0039180554 0.002959981 -0.0069033345 -0.016805947 -0.005864007 0.0033632931 -0.005503337 -0.0017265253 0.029289914 -0.021223305 -0.018471204 -0.008261794 0.0041396767 9.237218e-05 0.0032041632 -0.007884561 0.024190443 -0.014742657 0.027386999 -0.008084809 0.026111457 -0.0042600487 -0.0037255718 -0.018457953 -0.011614363 0.00084387884 0.0072083585 0.0010450729 -0.0097909905 -0.0063679223 -0.009953992 -0.012864386 0.0026440453 0.014322048 -0.0058263764 -0.016245292 0.022497833 -0.0008642371 -0.0048458376 0.010719474 0.007265408 -0.009251153 -0.015409667 -0.016640453 0.010584064 0.0031510284 -0.0047308393 0.013899791 0.008330009 -0.016199637 -0.0023080972 0.019218346 -0.018377747 0.011854025 0.010703591 -0.020613153 0.020517375 0.0317878 -0.016822476 -0.015649304 -0.023609009 0.005642874 -0.01840448 -0.02357963 -0.005414759 -0.0036109246 0.0008398962 -0.0047109975
Taylor 0.024073008 -0.0051811133 0.031879216 0.029333215 -0.030435547 -0.0023985235 0.003814863 -0.0026890296 0.005117377 -0.012541251 0.00015698465 0.008578835 6.634134e-05 0.010229962 0.012088034 0.0127622085 -0.008331431 -0.014538476 0.010266995 -0.02979707 0.012881674 0.00403057 0.015592325 -0.050068 0.015033801 -0.01103998 -0.0022707863 -0.0005298046 -0.016105656 0.018505929 0.0217445 0.0012646522 -0.002703371 -0.024185687 0.008244984 0.01058846 0.019139057 0.004274039 0.0134117585 -0.017990386 0.0012029584 0.0051943935 -0.027433317 0.01046809 -0.013961593 0.008001758 0.0025844693 0.008899847 -0.00895659 -0.004769432 -0.009589691 -0.0036865163 0.009779518 -0.007648111 0.014689513 0.0054337117 0.007647265 -0.0062207947 -0.015778119 -0.018275047 0.009335634 -0.00597856 -0.014899801 0.008155729 -0.024564939 -0.008891146 0.009876536 -0.007802698 0.011083937 0.02505315 -0.014779946 0.026312914 0.016820896 0.027990611 0.008930763 -0.008651236 -0.0036735607 0.023676878 -0.025503468 -0.008927802 0.0068731504 0.0093960315 0.013231851 -0.0126682315 0.010087705 -0.018388867 -0.022697885 0.004316888 -0.00421603 0.004426209 0.020436276 0.0054679187 -0.004444593 0.010709698 0.0016718819 -0.004349982 0.005743751 0.010269098 0.0039935512 0.02785425
rising 0.024805905 0.010383634 0.011368205 -0.005086307 -0.011362799 -0.0034202205 -0.021702293 -0.008908343 -0.0056303814 0.0020975082 -0.012068267 -0.026848458 -0.023949431 -0.0038046574 -0.0056303632 0.0058831573 0.019643145 -0.009573709 0.0024630425 0.006591009 0.0077487566 0.0011959478 -0.011153109 -0.0071214526 0.015870694 -0.016483046 -0.016987247 -0.021671703 -0.016296303 0.01766369 -0.0062156245 7.5786724e-05 0.011624581 0.018122265 -0.0034215853 -0.0061136903 -0.0008253326 -0.015151254 0.008778841 0.015054862 -0.03388657 -0.04917089 -0.012425207 -0.028917292 -0.029902734 -0.0012281471 -0.017352916 -0.008977646 -0.0037067444 -0.0049355496 0.00045867526 0.013902971 -0.012796113 0.0014566317 0.0010589394 0.008385236 -0.002020306 -0.004113333 0.021176208 -0.0007143471 0.0052846647 -0.00042653465 0.0021716617 -0.00056544226 -0.009405862 0.0028438866 -0.0015628361 -0.0011602191 -0.010224282 0.0014617422 -0.00996068 -0.0009879188 0.014024247 0.0013341284 0.002843279 -0.012692275 -0.0050193914 -0.022673363 -0.013267831 -0.014074851 -0.01931818 -0.0012834169 -0.0032432852 0.016027354 -0.005882744 0.034987338 -0.009349534 -0.02869858 0.0053595165 0.017138077 -0.012255415 -0.0017564672 -0.0006213741 0.0017326656 -0.0051271883 0.006317718 0.0148045495 0.0127353845 -0.0033949015 -0.011854685
income -0.018238923 0.018720387 -0.0067792386 0.0024106225 -0.0007937935 -0.0055839233 0.0020458668 0.019927755 0.006686768 0.006194163 0.0010545059 -0.0034262345 0.007354216 -0.009713438 0.019639919 -0.031981263 0.0072118207 0.028988022 -0.00089068635 -0.009427924 -0.0036972677 -0.0028602162 -0.015464977 0.017771754 -0.01741695 -0.009475333 0.0017347262 -0.011647224 -0.0217657 -0.021978673 -0.016771622 -0.022367654 -0.01024404 -0.024881868 -0.0117697865 -0.026316686 0.0011461434 0.010265802 -0.009168076 0.004533761 -0.00639569 -0.012037495 0.022062114 -0.0042775725 0.045283422 0.015797941 -0.013558831 -0.011464821 -0.023498574 0.0040869527 -0.027337974 0.0050490573 -0.021090603 0.013555365 -0.010756538 -0.023972027 0.011916172 -0.0105761 -0.010210987 0.001390869 0.02563841 0.010662871 0.034993913 -0.006719424 -0.0044021774 -0.0029642864 -0.013764989 -0.00059859303 -0.012014144 -0.0024297764 0.009468354 0.022035131 -0.011895898 0.009147066 -0.011604995 -0.02520728 0.008702197 0.0026364764 0.028886016 -0.0030431214 0.005385994 0.013349384 0.0039752447 -0.025195044 0.02244019 -0.015966566 0.033405583 -0.01493343 0.007880599 -0.019012341 3.7832724e-05 -0.0065410933 0.008674288 -0.0027636571 -0.01080726 0.01281838 0.0071206763 -0.007456217 -0.0045407848 0.012463183
across -0.00095620577 -0.010585776 0.032531902 -0.0027225902 0.009498576 0.019492695 0.0036084796 -0.0063354196 0.013843501 -0.024641536 0.010436702 0.013835135 -0.0013051752 -0.033647526 -0.0045462945 0.0013958039 0.012626849 0.010525605 -0.005051289 -0.0034727126 -0.0065076854 -0.010902433 -0.0085353935 -0.008555896 -0.013255665 0.012002007 0.0015358847 -0.0046059047 -0.011226184 0.0020371787 0.0032981639 0.0043468983 0.0044434927 -0.022533622 -0.0060485234 0.0059890756 -0.0051059765 0.007536703 0.014094341 0.030616105 -0.006854767 0.012782153 -0.019570278 -0.0050604185 0.0072027636 -0.024210485 0.00285535 0.002158315 -0.015397511 0.004682277 -0.0079509 0.007899729 -0.015856927 -0.028282018 0.007577705 0.015534679 0.014082092 0.019186914 0.00880613 0.01984011 -0.014451334 -0.009544609 -0.012941477 -0.0103635 0.011380218 -0.012612053 0.033145104 -0.0031929112 0.017483283 0.022156043 -0.0020818813 0.016948828 0.004129619 -0.0101122875 0.0015563328 0.016641013 0.0054739495 0.009862995 -0.021489786 -0.013198203 -0.008125972 0.0011735891 0.013765912 0.026315078 0.012587195 -0.004438966 -0.03551611 0.03134496 0.008939164 -0.0118107945 0.0076035135 0.03548323 0.015065643 -0.0019887318 0.0014622253 0.0067831813 -0.017138368 -0.009122297 0.02013004 -0.00091556436
matter -0.008421108 0.0077524134 0.032250807 -0.0021961422 -0.011431198 0.0106460005 0.0072196694 0.005476924 -0.0060667708 -0.0038352637 0.026643578 -0.002581636 0.016605191 -0.019338828 0.01539446 0.011681308 0.00803541 -0.0066436725 0.011149565 -0.030571079 -0.0040511754 -0.012031234 -0.016928714 -0.006943608 0.00828642 0.008693699 0.0058795777 0.005708247 -0.02530135 0.020328218 0.0043504685 0.0040109316 0.0032936851 -0.0072027235 -0.010300705 -0.015275117 -0.014664759 -0.029033436 -2.0249245e-05 -0.017713854 0.004416656 0.010802222 0.025012642 0.014734081 0.0051674508 -0.0076241563 -0.018276008 0.0065374374 -0.001650817 -0.00756322 0.005844193 0.037862666 0.030418776 -0.022614244 -0.0073931706 0.00037750354 0.00916766 -0.032568853 -0.009566178 0.012829192 0.03429545 0.020031592 0.037540834 0.0052903565 -0.012116902 -0.002895536 -0.011228088 0.00863627 0.013481906 0.021124156 -0.007165932 -0.0013534285 0.0040156418 -0.013630158 0.020658774 -0.008211416 -0.027779698 7.0317066e-05 0.009175482 -0.021010278 -0.014052947 0.0011652246 0.0012207064 -0.005668892 0.0033464958 0.015179154 0.021041218 0.0024513453 -0.017069599 0.023446532 0.0067133866 0.023232017 -0.009332168 0.026941527 -0.010086269 -0.004669075 -0.007829252 -0.00567409 0.015355783 0.020452755
law 0.0018397983 -0.0034063016 -0.008068909 -0.003432528 0.0198178 0.0022788767 0.031745277 0.020654764 0.0027832426 0.003678242 -0.015862914 0.014915802 -0.0015669279 -0.014209572 0.001960994 0.011251392 -0.026720306 -0.0098920185 -0.01604534 0.026820825 0.0001970935 -0.0050103073 -0.001606651 0.021141471 0.015273101 -0.033169102 0.030792803 0.012743399 -0.0031738335 -0.014698769 -0.018246023 -0.013571015 -0.009939018 -0.015762841 0.0026404096 0.017066978 -0.013284377 -0.012463142 0.014978536 -0.0065625506 0.0159313 0.012228521 0.008326413 -0.009364772 -0.001363597 0.035341542 -0.009336562 -0.0018785764 -0.0439802 0.018937785 -0.013985458 0.026201509 -0.0011796898 -0.01461936 -0.013051146 0.00979716 0.0060221725 0.0136692645 0.009058537 -0.027109647 0.016526688 -0.005465431 -0.0036011497 0.0064077163 -0.012737872 0.0091649415 0.01835211 0.032723777 0.00016991553 0.0018128611 0.0042181597 0.022387058 0.0019754982 0.0007317376 0.0067091063 -0.01691957 -0.022544827 0.006306825 -0.00039010594 -0.0015307602 -0.007628939 0.014161479 -0.015405863 -0.00024518577 -0.0042371564 0.0010166145 -0.020494288 -0.015051034 -0.028378282 0.013258527 -0.022667006 -0.019730188 -0.016664121 -0.009589002 -0.005442757 -0.026568139 0.016087627 0.017483994 0.002696311 0.0031960243
democracy -0.0050250464 0.020263037 0.017595546 -0.012333121 -0.00046736954 0.01694542 0.014757178 0.011453925 0.01183458 -0.0035541658 0.015078923 0.007237913 -0.017736379 -0.03559451 0.0074639884 -0.005749479 -0.026896328 -0.0024856552 0.027891634 -0.022447817 -0.008093245 -0.00077490276 0.0062824134 -0.0019343656 -0.009451314 0.017023062 0.00032845914 0.0056460164 0.015951373 -0.015639063 -0.0067851613 -0.01599427 0.0004642068 -0.043433614 0.0059313662 -0.026651049 0.0034174907 0.0017009856 0.018275514 0.024112463 0.019110873 -0.012907553 -0.00061592355 0.012524864 -0.0005176456 -0.016695615 -0.0069954954 0.0023663125 0.04175965 0.019164052 0.018790966 0.00042982085 0.013710092 -0.020521242 -0.021660168 -0.002560352 0.028639803 -0.0007356731 0.0011463471 0.012355421 0.018672615 -0.027624287 -0.009403831 -0.020861236 -0.03360464 -0.0014924344 0.0044620316 0.0034531879 0.0102230245 -0.015666103 -0.0067872913 0.027581804 -0.0038473436 -0.0013992356 0.034589823 -0.008389429 0.0081024775 0.004803123 0.002521542 0.010112747 -0.015801799 0.0007438249 -0.0033096408 -0.013652881 0.0020910813 0.013350699 -0.0027576739 0.0030967165 0.014600989 -0.036922533 -0.03527277 -0.021390252 -0.004684221 0.0074129137 0.0035133811 -0.004966112 0.005123152 0.01106575 0.0025484343 0.01113519
shipped 0.0003874331 0.0144665195 -0.0021159283 -0.020166026 0.0019051145 -0.0103074275 0.0068932944 -0.0036725495 0.009286958 -0.00072836265 -0.00833523 0.004855052 0.008976401 0.016518015 0.006442241 -0.019038241 -0.0027824685 -0.005919904 0.011706073 -0.017486904 -0.00934233 -0.01131739 0.014792894 -0.0046790745 -0.0002619779 -0.0021812522 -0.00263407 0.0011943999 0.033875976 0.023227023 -0.0021468 -0.0045172707 0.018188996 -0.010443982 -0.004752887 -0.0057867365 -0.001100724 -0.0052042194 0.007710046 -0.021541605 0.030618787 0.008660424 0.020083025 -0.0023116656 -0.00042945298 -0.00026644534 -0.010955581 0.01396488 0.018081037 0.03027215 0.0013327807 -0.0040759025 0.016753297 0.0039877896 0.007165853 0.009956091 -0.01435912 -0.030811023 -0.014717007 0.0014754685 -0.0070212847 0.0033331444 -0.017866716 -0.002842572 -0.005617628 0.00460422 -0.011566952 0.0077426955 -0.0020371464 0.0103166625 -0.0011536968 -0.0033630175 -0.023276255 0.01330297 0.008762838 -0.013678836 -0.011276269 0.014164341 -0.01287826 -0.01106048 0.035746828 -0.00417855 -0.010635892 -0.04643332 -0.0068210782 -0.027518878 0.010648363 -0.007319572 -0.0111167785 -0.012311246 -0.013289573 -0.008106385 -0.0067889444 0.007968489 0.0011410352 0.010505992 0.0034342506 0.017996242 0.006531614 0.022846729
difficulties 0.015422556 0.026527237 0.0046842685 0.036306072 0.004237648 0.0207656 0.014194912 -0.024164146 0.013164673 0.030266207 0.044874247 0.0052827336 -0.040080912 0.0024949748 0.008138686 0.01650177 -0.016379954 0.009497246 0.007987204 -0.01154352 0.027473174 0.0019016427 -0.009436853 0.012647954 0.011315585 -0.014839191 0.0022595476 0.0023803038 0.022805035 -0.026016168 -0.0030604322 0.009766011 -0.00015969039 0.0010656024 -0.002898735 0.007326459 0.004827296 -0.022795375 -0.009295429 0.010464339 0.013927024 0.010749137 0.0037662578 -0.0047364505 0.0049143033 0.019335045 0.0023367582 0.01921189 0.0028794527 -0.006485726 -0.008575931 0.012603429 -0.025861986 -0.021267835 0.009177621 0.05132224 0.004354556 0.012531568 -0.0278179 0.0016130033 0.020688541 0.0026762886 -0.0015576191 -0.0046094637 -0.011674612 -0.0072126864 -0.03554973 0.015403191 0.0054002763 0.023232013 0.0025545766 0.0006154834 -0.005170345 0.0051423945 -0.01582807 0.0058978405 -0.025185281 0.015823573 -0.014993179 0.0025463402 0.0036704903 0.0046174126 0.01708676 -0.010281507 -0.009069989 -0.001770958 0.010116123 0.004891758 -0.009956883 -0.010971721 -0.00527334 0.0033141105 0.010733349 0.0025633527 -0.014450716 -0.0017980644 -0.008726292 0.013022253 -0.0044057923 0.0038930925
Conservative -0.012774324 -0.0049601216 -0.0056864913 0.018111087 0.010574664 0.007950731 0.025749981 0.0029813827 0.015476406 0.02893538 -0.0075803273 -0.005796846 0.0076331943 0.027758848 0.0056103533 -0.013012777 -0.024467716 -0.017558564 -0.0018229363 0.0036278865 -0.008491711 0.007586431 -0.006328564 0.0042743543 -0.026618311 0.0086330315 0.013437308 -0.012966569 -0.0051134983 -0.014145201 -0.0024790782 -0.00012262014 -0.030842492 0.009260003 0.0021315156 -0.014088074 -0.008118272 -0.013184068 -0.01442415 0.02322369 -0.0028089602 0.009037762 0.0014363526 0.004965768 0.0063597173 0.028581435 0.012864028 -0.005895667 -0.0030852589 -0.00990368 0.011040837 0.011881807 -0.0059940885 -0.01590039 0.0056633633 -0.0045424383 0.008898018 -0.008929936 0.017292114 0.0037121153 -0.005199293 -0.014418734 0.027985176 0.014381056 0.030951533 -0.009125799 -0.019044735 0.007499285 -0.01898696 -0.00013494375 0.010361909 0.012515546 -0.0040324363 0.010072556 -0.0046383017 0.0005750815 0.00088008237 -0.008002757 0.010302707 -0.015902134 -0.009033063 0.0069478676 0.00045245595 0.03330683 -0.002069482 0.00535536 -0.0043400517 0.027400795 -0.017774556 -0.006550962 -0.0070493734 -0.0044233445 0.021978248 -0.01105599 -0.011146953 0.0229488 -0.018945998 -0.010539931 -0.01645923 -0.0041094646
indicated 1.2017685e-05 0.0027556 0.001214048 -0.013571356 -0.0063337614 0.01369962 -0.020925181 -0.02446905 -0.015969537 0.008607581 -0.021434043 -0.011650678 -0.0054717367 0.0003113055 0.02072817 0.009351656 0.009081377 -0.013816692 0.012281485 0.0020590816 -0.011045613 -0.017260455 -0.008746894 0.011121591 -0.013517773 0.029925156 0.011318568 0.008797797 -0.013442275 -0.0054319603 -0.007922944 0.023196742 0.008018514 0.008568384 -0.0004905679 -0.016495317 0.00051190204 -0.029709715 -0.016491173 -0.01699895 -0.011767087 -0.0078046294 -0.0058244225 -0.0037135896 -0.017678803 -0.00582199 -0.009198401 -0.00886118 0.019295048 0.006675028 0.0051441165 0.0134801045 -0.014127145 -0.009635676 0.005940074 -0.011736303 0.009617237 -0.008698449 0.016904563 -0.0128024435 0.0033181272 0.008514897 -0.010000392 0.013069776 0.0043450836 0.0197951 -0.008776941 0.015710825 0.007639825 -0.011081534 -0.004138545 -0.008505988 0.023106815 0.0069883363 0.00040310036 0.016820911 -0.0023676786 -5.4771546e-05 0.0015656007 -0.030720849 -0.01067894 0.009687371 -1.6647915e-05 0.015491101 0.009663419 0.020355992 0.0006434292 0.0038729678 -0.011607084 0.014493007 0.025425764 0.0021766727 0.011850363 0.012924666 -0.0025272053 0.001579388 -0.014491031 0.0028124023 -0.0039953934 0.018733503
assurance -0.047010243 -0.0018828078 0.012616146 0.01917537 -0.027829258 7.958891e-05 -0.04453937 -0.022596074 0.0029425356 0.0041662864 0.029574025 0.017733982 0.0015302663 -0.012419136 0.017796965 0.02403779 0.016120868 0.0030394203 -0.007186019 -0.014196481 -0.009019397 0.016603148 0.014677792 0.022322692 0.005679355 0.001231343 -0.026870843 -0.0033942445 -0.0494652 0.0026803687 0.0015739703 0.0006738452 6.878539e-05 -0.01676769 -0.020576969 -0.0143597545 0.02473951 0.007873585 -0.012121869 -0.011426808 0.016062694 0.0022514637 -0.0033487617 0.008642659 0.028490925 0.0031385268 -0.012258852 0.0063447217 0.010080266 -0.0069820676 0.029468048 -0.0047207414 0.006491185 -0.011880126 0.0036240076 -0.008382345 -0.007846563 -0.017477129 -0.01910341 0.0031767678 0.0072442694 0.004374079 0.008222885 0.009347955 -0.0038086432 -0.024462642 -0.00023631135 -0.0021897417 0.010212908 0.005897098 0.006756722 -0.00565991 0.013611279 -0.0007231608 0.012759654 -0.030704303 0.011530197 0.0068536443 0.008432748 -0.0021362083 -0.0066885767 -0.0073988717 0.017774988 0.009597751 0.024229627 -0.00034348562 0.0007028164 -0.014970563 0.021177806 0.005707799 0.0008232418 0.0050512794 0.0038278115 -0.014386439 0.005289506 0.028957335 0.0015035754 -0.028102985 0.029723184 0.0023755939
allowing -0.008839283 -0.019824374 -0.014376582 -0.00011139619 -0.03274018 0.009173486 0.0093509 0.018683078 -0.0021638027 -0.011750929 -0.002704849 -0.0041911034 0.008320255 -0.031288277 0.0077324766 -0.014909706 0.014104173 0.014344373 0.021194626 0.0055508045 0.01763656 -0.009284448 0.0044446657 -0.0022033658 0.01820963 0.002397831 -0.00713412 0.028803773 0.014062185 -0.012296078 0.0041419715 -0.010751143 -0.009313064 -0.035799958 -0.015320306 -0.010862521 -0.0060989168 0.0067926305 0.03087847 -0.0005866225 0.03718095 0.010010722 0.015457682 -0.007079764 0.0063394797 0.034888033 0.007687239 -0.0053135306 -0.023839785 -0.003663295 0.01998272 0.013453571 0.017758433 -0.011059684 -0.012385235 0.0061111897 0.005005604 0.02672489 -0.0039223824 0.017261585 0.0057775965 -0.013608885 -0.007994261 -0.04879498 -0.025172912 -0.0025288872 0.029838927 0.0046181087 0.005378385 -0.01126972 -0.00026660372 -0.00040661916 -0.011642659 -0.0024369515 0.023071779 -0.020192977 -0.015715158 -0.0020599149 0.008531554 -0.0039061245 -0.012759923 -0.011881686 -0.011003079 -0.0016427439 -0.0131273065 0.00032720584 -0.011478133 0.0013661445 -0.01952716 0.032701418 -0.02702244 -0.008513255 -0.006107633 0.007956942 0.00824629 -0.026968576 0.02983092 0.005272473 0.011844121 -0.018993858
battle -0.004267843 0.013604575 -0.0038634941 0.0069438177 -0.0045722816 -0.028713332 0.0037821431 0.01821148 0.0061243116 -0.012505966 0.010484178 0.0035836983 0.0003760431 0.025998168 -0.002291253 -0.021605957 -0.01835857 0.0066678794 -0.010264771 0.044500556 0.01620918 0.0002219301 -0.018462913 -0.031073773 0.0014811403 -0.015070276 -0.023454241 -0.027634503 -0.0050129835 0.0006876786 -0.0022485123 -0.0025779628 -0.020209745 0.0072420808 -0.021217542 -0.009966384 -0.002726749 -0.006148695 0.021135002 -0.005618936 -0.028119428 -0.0034223227 -0.016036592 -0.004280403 0.0061114924 0.0004685079 0.004487397 -0.0068782712 -0.0030398958 0.0002641118 0.025887255 0.0065217987 -0.01187799 0.029815221 -0.015245713 -0.03377126 -0.0072242427 -0.0051110825 0.0016907066 0.00033253588 -0.0014549564 0.0074722674 0.0008692539 -0.006070002 -0.021077098 -0.008057568 0.0077533466 -0.0018924191 -0.022058185 -0.010710658 -0.0027934671 -0.0048057376 0.0069682556 0.00764755 -0.015741521 -0.009923026 0.024317328 -0.012177572 -0.023005517 0.017993 -0.011139367 -0.035672933 0.0022165035 -0.017722815 0.007734021 0.022604922 -0.00039598736 -0.017448697 0.008010541 -0.0010293727 0.0032961867 -0.016048206 -0.0060966737 -0.0032112456 0.034951277 0.018176354 0.0007571216 -0.018082034 0.01445827 0.013129747
jobs -1.874405e-05 0.012252995 -0.024724377 0.02733121 9.162534e-05 -0.025236184 -0.04010625 -0.026479954 -0.022310713 -0.010867887 -0.011737865 0.0072193346 0.0083018225 -0.006621221 -0.020755641 0.0026860281 0.008782438 -0.022569766 -0.010340504 0.0120692095 -0.0098352395 0.0072355615 0.029182719 0.0028046845 0.029041719 -0.018210106 0.011921113 0.0076200864 0.018371133 -0.0073230537 -0.02297518 0.0058865254 -0.0028311354 0.009942045 -0.013553262 0.009336917 -0.0042329472 -0.008917279 0.014006544 -0.01851169 0.0022846581 -0.016320249 -0.01182897 0.003611997 -0.038188115 0.012047318 -0.0061403555 -0.0023246598 -0.0055095707 0.011268732 0.020440714 -0.019400626 -0.008676735 0.0007546013 0.029436208 0.016272102 0.005095219 0.007928737 0.0021127595 -0.008239913 0.01215072 -0.019707019 -0.002117507 0.0038777075 -0.030068474 -0.011347254 -0.03086535 -0.030182451 -0.008890362 -0.0025753025 0.007427163 0.007975688 0.02606544 0.02045296 -0.011764654 -0.016368963 -0.00057892856 -0.014841275 -0.011490097 0.008489473 -0.02111051 -0.0009404217 0.0004748577 -0.01920726 8.717901e-05 -0.004151385 0.012285111 0.010661239 0.0027666793 0.0051234043 -0.0027154312 0.011101125 -0.0035449096 -0.00973066 0.014870086 -0.015307605 -0.003008063 0.009514142 -0.012315981 -0.017298216
would -0.0048190746 0.021186389 0.026397008 -0.0006879998 0.016401177 0.0075463024 -0.009386426 -0.0053192563 -0.0075364104 -0.0156336 0.011276415 -0.011480313 -0.00049024005 -0.0026003234 -0.009547916 -0.0099413805 7.670606e-06 0.023286317 -0.018646978 0.016521579 0.019158304 0.00049968064 0.005443287 -0.0060288548 -0.002088372 0.01842454 0.005631324 -0.019516539 0.002142496 -0.007218903 0.014016538 0.029989328 -0.010069086 0.019620892 -0.01788453 0.02177259 0.01067988 0.015416436 -0.014547731 -0.00045864773 -0.010640195 0.027168047 -0.00863317 -0.0076467493 0.019670649 -0.0115498435 0.014189871 0.0052756146 0.011018869 0.00057174475 -0.0013678679 0.021118121 -0.026001928 0.0012351681 -0.0052917614 -0.03496685 0.015761357 -0.00043277175 0.003808386 -0.007965308 0.008061381 -0.009424457 0.011225963 0.0074899774 -0.018103927 -0.001553133 0.019347947 -0.019357618 -0.012193849 3.100786e-05 0.00035529773 -0.012566899 0.0004958842 -0.034308903 -0.019370759 -0.017979505 -0.01343795 0.015258851 -0.008207086 -0.0041301497 -0.0037688194 -0.009418517 -0.0042546485 0.0018341237 0.01479262 -0.007887067 0.0032320896 0.039609786 0.0074174106 -0.036547214 0.01810682 0.03147437 -0.002245056 -0.011355451 0.001968774 0.025350263 -0.0031644958 -0.028650936 -0.002460896 0.013308378
economic 0.0069603217 -0.006488312 -0.006988309 -0.0086803585 -0.029129637 0.009937252 -0.0014805092 0.0106740305 0.0069675418 0.008107037 0.019480081 -0.044670932 -7.7807344e-05 0.0015467273 0.008584853 0.010168871 0.013044682 -0.0016203779 0.03678362 -0.0015697393 0.0037169652 0.01484705 0.0034710304 0.013182775 -0.0041346205 -0.018479815 -0.022294883 -0.00072889106 -0.002105628 -0.016681952 -0.0145836705 0.0077637783 -0.005566013 0.00059210777 -0.0009839211 0.0074085854 -0.015564544 -0.00924032 0.008429087 -0.0336231 0.0019304545 -0.0064380686 0.007833501 0.013894197 -0.01511746 0.003179443 -0.0022714392 0.005951587 0.0042646825 0.0116209 0.015260977 0.019705331 0.019974783 0.018791359 -0.003478635 -0.012470781 -0.019029396 -0.0074497126 -0.00045738835 0.00411588 0.026472067 -0.021574585 -0.00021641422 0.0084435055 -0.049181793 -0.008127468 -0.0029425146 -0.026443265 -0.00076857046 0.009146891 0.022742292 0.0017532095 -0.018554416 0.010267051 0.014394487 0.00992454 -0.008005414 0.019914918 -0.0044736112 -0.012988994 -0.0074448353 -0.023836223 0.009394009 -0.012942984 -0.0028979 -0.026105601 0.0031243316 -0.0056571197 -0.005951102 0.00815958 -0.012775825 -0.0078562675 0.0013081555 0.0019874396 -0.007286871 0.012018434 0.038010918 -0.018450681 0.022257542 0.002987457
moratorium 0.006943863 -0.021346074 -0.009104488 0.026612911 -0.014976692 0.0054582567 -0.00126389 -0.0020777944 0.004234904 0.0025962866 -0.016136684 0.015282284 0.0065552713 -0.016824258 0.0025955634 0.0030601448 0.01840745 -0.02573291 0.006398179 0.003010616 -0.017617447 -0.0018205824 -0.017768243 -7.017644e-05 0.013497267 -0.002480882 0.020895582 0.0074869925 -0.027948912 0.020164324 0.0045477725 0.033432145 0.016487526 0.009086126 0.0023479853 -0.01938711 -0.009114003 -0.002941838 -0.0070085754 0.0009027814 -0.01565397 -0.013034643 -0.009506582 -0.01170731 -0.021804452 -0.0016158065 0.003441058 -0.0013586221 -0.0006207754 -0.008046353 -0.003330137 0.0058102645 -0.012282312 -0.001440773 0.016441258 -0.007390511 0.018188866 0.00065910444 0.02260178 -0.010003949 -0.009595438 -0.016907215 -0.013921412 0.009783585 0.029327104 0.02439717 0.014377606 -0.00010795775 -0.0026092986 -0.008995525 0.0029423286 -0.016061146 0.030608496 -0.014590408 0.011645384 0.0057264715 0.014535376 -0.022492595 -0.039358944 -0.016551482 0.009767033 -0.005847699 0.026262155 0.022724561 0.016755296 0.00066630007 0.0007581477 0.0036507586 0.0039103003 0.0067214565 0.018367205 -0.013846788 0.003109004 -0.005001533 -0.014738516 0.0022975241 -0.011953264 -0.0013658262 0.04263838 -0.0012121618
balance -0.015554711 -0.020178152 -0.016614137 0.022055686 0.005841003 -0.0017327892 0.021335598 0.023819838 0.0032454417 0.01511537 0.059979055 0.004449296 -0.0029219515 0.02812147 0.015592815 -0.0068870736 -0.032880314 0.015778704 -0.004845801 -0.023176394 0.011145316 0.0009135503 -0.0054966076 0.011333239 0.004639 0.014693027 -0.025897272 0.011105165 -0.0124321515 0.004005718 0.001042309 -0.016457835 -0.0010222368 -0.011716218 -0.008041936 0.011458153 0.0037709703 0.018321415 -0.001386769 0.0069162906 -0.0029506194 0.01790949 -0.010888739 0.016457083 0.0051169675 -0.0033953977 -0.014984208 -0.014995354 0.01176742 0.0012375859 0.009630087 0.006534944 0.034994945 -0.004934003 0.0032610726 -0.020999106 0.012504242 0.0058253766 0.0039486284 -0.006661402 0.0018426673 -0.013228398 0.014234684 0.003827677 -0.029723449 0.0047947643 -0.03082112 -0.012422451 -0.013722147 0.0060728034 -0.012050456 0.018767023 -0.036215886 0.017786251 0.0131858485 0.0164536 -0.0021275294 -0.0070008934 0.019170739 0.007506056 -0.023841368 0.010533112 0.039435428 0.020419884 0.028590245 0.002072055 -0.0067490656 0.0055613862 -0.0114961015 0.024999142 -0.0014210118 -0.006165989 0.01267144 -0.0036434412 -0.015180546 0.0024810222 0.013090865 -0.0077729877 0.015626889 -0.004545902
withdrawing 0.0040624132 0.005789575 0.004019634 -0.003448776 -0.0039824634 -0.011241895 -0.0026263422 0.010330106 -0.005979553 0.014261295 -0.019109914 -0.021094158 -0.028452748 -0.021072824 0.0054334016 -0.007900802 0.028002936 -0.013859262 0.015127045 -0.0070174765 -0.013273605 0.013100324 0.014199592 0.03161642 0.019616565 0.013349375 -0.014038421 -0.0026694823 -0.003152588 -0.018153185 -0.02753504 0.002042929 0.0012823611 0.01779775 0.008132586 -0.009811165 -0.02206276 -0.010710402 -0.002852842 0.0016306498 -0.0031712607 0.0025777088 -0.0062114038 -0.039391812 0.008840987 0.0111355195 -0.018710213 -0.018026458 0.029132113 -0.014869377 -0.013310063 -0.00095172547 -0.008396792 -0.0074506043 0.0087793255 0.002799234 0.009582196 0.006775323 0.009773251 0.014472738 -0.0048107593 -0.005414057 -0.012921973 -0.014766708 -0.01213497 0.015913384 -0.013387917 0.010382945 0.010155304 -0.00681751 0.010429468 -0.0051464536 -0.012666889 -0.031063044 0.0018153636 -0.020931507 -0.010448913 -0.013224639 0.011162697 -0.009276656 -0.014752737 0.003384873 -0.00983198 -0.017503435 -0.019983422 0.0066137277 0.019122558 -0.039250307 0.0039086384 -0.00086141104 -0.0066807186 -0.010265576 0.012287334 -0.008140591 0.015113264 0.01240089 0.0001879845 -0.0064984728 0.0033534404 -0.0045962404
community -0.0174831 0.008295346 -0.020473504 -0.021870283 0.035255242 -0.015627326 0.017234638 0.016317565 0.005370806 0.014909037 -0.031465113 -0.00041108445 -0.004091398 0.0043353736 -0.0072951224 0.0036686594 -0.0033599765 0.01431334 0.023198225 0.026212139 0.027765574 0.009432682 0.0019941255 0.008884032 0.005305447 -0.019984137 0.0024310474 0.005487768 0.0024011799 -0.016982885 -0.008157794 -0.024294611 -0.0019942701 0.009111747 0.008194799 -0.022453764 0.003919417 -0.02331745 -0.0027344096 -0.00054491323 0.02570298 -0.008561988 -0.0010136236 -0.01735074 -0.0055317814 -0.0093269 -0.009398976 0.00219119 0.013036004 0.00023986236 -0.0017780482 -0.025370156 0.025449488 -0.0075758486 -0.011647848 0.010042619 -0.0024740275 0.018966781 0.008043843 0.015982019 -0.0123951435 0.0042425497 -0.009721054 -0.0093653845 0.031530406 0.014844898 0.0021651527 -0.005960822 -0.015516908 0.004487305 -0.0016598896 -0.016256247 -0.012925996 -0.016078101 -0.002535987 -0.03474251 0.016528904 -0.00089770777 -0.003254797 0.019168956 0.0078011933 -0.0019225136 -0.026784863 0.012270476 -0.004184621 0.012213315 0.022423554 -0.0036277333 0.0054784804 0.007810089 -0.026726574 -0.033336703 -0.0044676727 -0.008977528 -0.012012657 -0.0046714176 -0.016074106 0.006725682 -0.011850466 -0.017088342
leaving 0.013308461 -0.007905527 -0.018643431 -0.023349352 -0.0046274746 0.008324294 0.010804494 -0.012855636 0.010576423 0.024478955 0.0031128624 -0.014446224 -0.016986473 -0.0029971164 0.0199552 -0.00035901176 0.008426134 0.0001560071 0.017340595 0.004586427 -0.0024733176 -0.0013518233 0.001688809 0.011150746 -0.007685884 -0.021693928 0.020633988 0.005858987 -0.0021519053 0.003277094 0.0047337785 0.015827866 0.007867692 -0.046975702 -0.018850144 -0.023421407 -0.019312125 -0.013299593 -0.030198004 -0.0070580463 -0.026090862 -0.002867961 0.004840573 -0.01729271 0.009254889 0.017440494 -0.017262217 -0.004153295 -0.0116751455 0.02057704 -0.018223505 -0.0028166408 -0.014649544 0.003124411 0.0039659278 0.0013055296 -0.0040169754 -0.01018223 0.011686638 0.005908193 0.020121466 -0.013414523 -0.020266281 0.017043822 0.002402455 0.0065293633 -0.010712071 0.02387711 0.022874245 -0.008174489 0.02962897 0.008446135 -0.025703281 0.0051537757 0.002400894 -0.0025406939 -0.018185964 0.004782532 0.01741797 0.016776783 -0.013700412 0.016300855 -0.0040279506 -0.0024437485 0.008246919 -0.005751786 0.011091755 -0.012917905 -0.018854694 -0.0019637116 0.0021442128 -0.00485616 0.015651628 0.0037719212 0.004581513 -0.003795356 0.0037136886 0.010850366 0.014436691 0.0049214168
democratic 0.013166228 0.010765281 0.039568946 -0.0052864524 0.018395824 0.0008015641 0.0065992665 0.007992661 -0.0016739205 -0.020005286 -0.0007952254 -0.008247308 -0.025627172 -0.01817074 0.0065655466 0.0065908325 -0.011947766 0.03454171 -0.0046271165 0.011492166 -0.007612687 -0.017203119 -0.034295443 -0.0022625704 -0.00922839 0.01692934 -0.019241976 -0.049308885 -0.013565908 0.016073516 -0.019357244 -0.012170186 0.00202106 -0.00902303 0.008366119 0.0012425196 0.009384297 0.006907712 0.008518608 0.022559408 -0.004251221 0.014903437 -0.022932585 0.0008728495 -0.005481764 -0.035222236 -0.004734146 0.010659379 -0.012049771 0.014696547 0.01447885 0.001395701 -0.012045452 0.0021253356 -0.013241942 -0.0015073154 0.0004896617 -0.009934403 -0.0041251224 -0.005840693 0.0067777103 0.018166851 -0.01140116 -0.005245042 -0.0073775207 -0.037564922 0.00952252 -0.013416238 -0.0012438186 0.0054491963 -0.0019079334 0.0022315653 0.0099901315 0.005234241 0.0089572305 -0.028825887 -0.0018840311 -0.006985957 -0.00031298888 0.010056531 -0.01929849 0.0019661388 0.019305034 -0.016191252 -0.013889198 0.013914828 -0.0022569103 -0.009372778 0.018168125 0.020243397 -0.016770301 0.031514883 -0.0044339392 -0.005346343 -0.003417667 0.011601434 -0.006677731 -0.0009810446 -0.0073378133 0.015643341
Minister -0.018787786 -0.017824074 0.011368248 -0.025268836 0.0062609985 -0.006780779 -0.005791398 -0.0008077164 0.0038796987 0.007823871 0.0024562192 0.0040075714 0.01711863 -0.017520158 -0.004926132 -0.0024692623 0.042482678 0.0083111385 -0.014889422 0.020691967 0.016453147 -0.017499354 0.0027461413 -0.0054360693 -0.005241775 -0.009323331 0.010407856 -0.0039311294 -0.012253385 0.00047964384 -0.007200478 -0.013790084 -0.020891935 -0.010908757 -0.014975214 -0.0061939117 -0.017775211 -0.019866142 0.0053927233 -0.022397311 0.0048723663 -0.0035057443 0.00900749 0.013588581 0.010017604 -0.030309886 0.0012846809 -0.0025451079 0.016525881 0.018722387 -0.007929015 0.029375577 0.018752137 -0.014674004 -0.015026408 -0.019254187 -0.011143508 -0.0114321355 0.005144015 0.00042614853 0.014203831 0.0061130347 0.004344109 -0.000927013 0.00029484177 -0.010785113 0.029741053 0.008713904 0.018132215 0.0049659223 -0.012671978 -0.014112826 -0.011710023 -0.0029168718 -0.0040009487 -0.009625219 -0.0029192946 -0.016353974 -0.004610477 -0.0132598085 0.0074813124 0.012710157 -0.018225176 -0.008411015 0.008585528 -0.0033793328 -0.007200758 0.012755354 0.017350355 0.016516864 -0.032851335 0.0021526972 -0.012957438 0.0005151171 0.020517504 0.008959629 0.012646848 -0.0074924123 0.011848634 0.009037455
mean -0.024372092 -0.0008302005 -0.0016286155 0.0009179659 -0.025278378 -0.029221207 0.000943081 -0.011156508 -0.018086227 -0.013116243 -0.00023786264 -0.012109144 -0.0008812643 0.031016067 0.020996824 -0.0014738168 0.003342345 -0.018735837 0.012747759 0.004493799 -0.022696266 -0.013188432 -0.018666422 -0.0078787515 0.011737824 -0.018166969 -0.0016214119 -0.011885915 -0.023788482 0.002517123 0.022375822 -0.031834893 -0.0010035128 0.0032477297 0.0011360557 0.0044875345 0.005077994 0.0058623664 -0.016382312 -0.024653558 -0.0023639896 -0.018859489 0.024092903 -0.0021389113 0.0008793423 0.016204404 -0.007824106 -0.0036201426 -0.015266799 0.0051519764 0.017387422 0.021455817 0.020388803 0.027332332 0.02562213 -0.005012995 -0.0023853672 -0.016106956 -0.011017481 -0.009995372 0.004963851 0.016208362 0.0215618 0.00886976 0.0071457955 0.009437707 0.0037512977 0.0030210912 -0.015939103 0.0056503965 -0.008640462 -0.008414435 0.0012558326 0.009941747 0.0020546555 -0.006327922 -0.020204926 -0.007913528 -0.003800844 -0.0036100587 0.0006593323 0.015414037 0.01945456 0.03018068 0.024614418 -0.0043310863 0.033316776 -0.04690847 -0.0051826853 0.01601831 0.015866011 -0.02465817 -0.00964111 0.026738152 -0.012503856 -0.010277339 -0.0001558114 0.016530808 -0.006921807 0.01391078
deal 0.0010184261 -0.0061752894 0.0027329815 0.008225004 -0.02012941 0.014666703 -0.013594704 -0.022290409 -0.009747108 0.024742648 0.0139865205 -0.012665109 -0.0042362176 -0.006294746 -0.01074008 0.03694261 0.0049774856 -0.022494923 -0.012061569 0.012570318 0.014725045 0.0028822762 -0.009809918 0.014098459 0.006658511 0.004761513 -0.029863521 -0.0003291617 -0.0042953673 0.026897503 0.009194285 0.01643909 0.012687247 0.029528683 -0.0063662166 0.019937698 -0.021898028 -0.002236346 -0.022993205 -0.028792521 -0.011203459 -0.025011623 -0.0010362358 -0.013434245 -0.015267375 -0.014997071 0.0014039709 0.012603764 0.009572078 0.008253276 -0.019883662 -0.0017795677 0.0018728948 0.009372777 0.015572818 -0.003911361 -0.018465307 0.004193547 -0.010298474 0.0019805173 -0.0026296617 -0.0032035345 0.021771755 0.021549392 0.0031107778 0.001446455 0.0014670186 -0.022206731 0.015303708 -0.012844715 -0.0036480678 -0.031737287 0.0043209996 -0.0054028747 -0.0045462498 -0.009531916 -0.010688046 -0.013889762 -0.004738399 -0.006673696 -0.008372859 -0.0036025904 -0.017316224 0.037783742 0.031021347 -0.033664513 -0.014591435 0.0038407233 0.0065540564 -0.0023806053 0.011702586 0.010057718 -0.0060002645 -0.024394158 -0.020044433 -0.017454244 0.013881851 0.00023564254 0.02413763 0.005621294
objectives 0.007547673 -0.0077406107 -0.024011426 0.001808981 0.026036879 -0.008650558 0.029002795 0.038967848 -0.0040525673 0.040173523 0.0057162894 0.015326365 -0.009525887 0.023134235 -0.021642078 -0.007562063 0.007144918 0.0050343364 -0.011078064 0.010303018 -0.0035498259 -0.0040137814 -0.0019046586 -0.00059606583 -0.01024645 -0.009449282 -0.00034480498 0.027993698 0.0044274908 0.0056052106 -0.021084558 -0.0006097918 0.03424781 -0.0003464016 0.012984207 -0.0042148004 -0.021254355 -0.006329804 0.011915309 0.02253089 -0.006594293 -0.013197888 -0.0076362994 -0.010874586 -0.005107668 0.0073709954 0.0109457215 -0.0083732 -0.013381652 0.015392956 -0.03626104 -0.0036040223 -0.008071952 0.011257128 -0.0007344371 -0.0043580965 -0.021431327 -0.0055674715 0.017165245 0.010407306 0.002790268 0.011042703 -0.007680108 -0.0024654176 0.00034023877 -0.0057749758 0.0015672875 0.017523885 0.012736087 -0.00020711689 -0.0060697757 -0.0005418765 0.016083473 0.0007311129 0.013444534 -0.009207374 -0.016966015 0.009724188 -0.0023535308 0.0053335144 -0.010303807 -0.0076045226 -0.000986104 -0.023083443 -0.0096502565 -0.018675996 -0.010527743 -0.011553126 -0.024365518 -0.034311123 -0.0049273935 -0.023761598 0.00021853356 -0.012598141 0.008854047 -0.00096163194 0.035354424 0.0021632013 -0.004608487 -0.0056866836
informed -0.0029702089 -0.0026012298 0.020051626 0.006886805 -0.0014361256 0.029197887 -0.0033669095 -0.019676121 -0.00088657753 -0.021630079 -0.019419787 0.00063834013 -0.020123918 -0.02405039 0.021354696 0.0031581796 -0.012491408 -0.0027544391 0.01518188 0.0028576115 -0.009808085 -0.005628722 -0.010328539 0.015133228 -0.016596904 0.004454163 0.027426783 -0.0037769116 -0.012633803 -0.008629024 0.006701923 -0.00047334936 0.0037178097 -0.014222595 0.007157562 -0.0096898 -0.0016106956 -0.017271355 -0.018770263 0.02005772 -0.013597119 0.007460785 0.021029407 0.007860115 -0.0037052638 0.0030082345 -0.01851026 -0.0010218694 0.004704625 -0.010467393 0.02494582 -0.004489075 0.018050013 -0.004525212 0.008389014 0.013051229 -0.012756518 0.0019716867 -0.003827386 6.268715e-05 8.8129425e-05 -0.016159879 -0.026991365 0.01484152 0.03419143 0.0044239014 -0.0064561144 0.0143302 0.016913367 0.0033585504 -0.00020632903 -0.0054381634 -0.008120125 -0.010257366 0.0057186005 0.00712375 0.03370131 -0.0024784864 0.0032300695 0.015248549 -0.023256084 -0.008095367 0.01717548 0.022020366 -0.011461216 0.013024592 -0.0028203602 -0.015889289 -0.0053783883 0.019263579 0.008200482 -0.012580306 -0.013062481 0.018927708 -0.019150212 -0.024445904 -0.01858627 0.005172834 -0.0030919923 -0.0011383629
bailing -0.00865515 0.025517685 0.008041762 -0.032775328 0.02078316 0.007210379 0.019530775 -0.0026032748 0.010584788 -0.009516848 -0.029794065 -0.01277448 -0.0039852434 0.000806919 0.009386203 -0.019355327 -0.024190472 -0.0100558 -0.00734707 0.011617356 0.009089177 -0.010110839 0.0034865646 -0.0033635965 -0.035280336 0.00035316453 0.004038942 -0.0028041683 -0.0072959657 -0.022263998 0.009560719 -0.011149283 -0.0033734841 -0.02599424 0.0146940565 -0.008599515 0.00872645 -0.0012425655 -0.013510075 0.01132991 0.004056219 -0.013821823 0.0032010486 0.0017753756 0.008402797 -0.021566097 0.013966524 -0.012527029 -0.0060389624 -0.000584235 -0.02401767 0.0019045107 0.013139456 0.019826407 0.013047616 0.0043323925 -0.0031085585 0.016618136 0.0051132264 -0.01970717 0.019409645 0.0029643027 -0.013157729 0.025023999 -0.011759132 0.014360269 -0.005879439 0.012724272 -0.007112217 0.008674179 -0.009814726 -0.00021271413 -0.014098849 -0.023766221 0.01197715 -0.00967275 0.0027667866 0.018023878 -0.006728329 0.011967843 -0.0028027697 -0.00876133 -0.0032803696 0.0027288003 -0.017258944 0.012015391 0.0042666374 -0.005064611 -0.008549223 -0.008591911 0.0034915935 -0.034584176 -0.0049498687 0.0066448804 -0.0061139683 -0.0010297709 0.012285278 0.008611931 -0.020061383 -0.01937591
resolution -0.014278428 0.008418779 0.014185428 -0.012661002 0.008124273 0.0066793733 0.0066642477 0.0045244936 0.0042450163 -0.01642827 0.022804879 0.017875187 -0.016636005 -0.014132117 0.0042664707 0.02272948 0.00013229946 -0.027991734 0.016550232 1.0402757e-05 -0.016150504 0.0037366245 -0.0038501406 -0.018546741 0.010013437 0.025676748 -0.020358304 -0.009246043 0.00017895867 0.023813827 0.008638992 -0.009298547 0.003925524 0.012562367 -0.029719276 0.004373544 0.020671668 0.013676578 -0.014444959 -0.011621931 -0.011085041 -0.015137333 -0.018367928 0.033445798 -0.008516002 -0.03495949 0.007715434 0.015606241 0.012353497 0.011378791 0.0025964475 -0.005235969 0.009349946 -0.017388297 0.020087767 -0.005491761 -0.019192806 -0.01915157 0.015066982 0.005626763 0.017814422 0.006953664 0.025294198 0.01113061 -0.008156412 0.009295617 -0.011187735 -0.028482663 0.0132296765 -0.00028280704 -0.010903003 -0.0025156916 0.016956806 0.007484326 -0.012849734 0.014069149 -0.013605427 -0.026824038 -0.006496475 -0.0045966464 0.0014533646 -0.011900691 0.01887214 0.015738279 0.011927162 -0.001033794 -0.034697983 0.002411869 0.009061592 -0.0071702944 -0.0056499355 0.0035423855 -0.012017313 0.014429582 0.0012658681 0.0035661822 -0.0061185607 -0.00024735695 0.024004528 0.0069968714
comes -0.002228365 -0.0067819995 -0.0068075787 -0.012522352 0.009451067 -0.0056511946 0.023832085 -0.0026537902 0.026060008 0.019810084 -0.0313189 -0.022745972 -0.004437723 -0.0003530184 0.012043357 -0.0067791864 -0.003062564 0.019239262 -0.005046728 0.0025212693 0.0062474026 -0.022755768 -0.04614994 -0.0046472177 -0.009060281 -0.0024199309 0.0002930002 -0.014012571 0.0074493755 -0.017733542 -0.006407778 -0.008633442 -0.0020815255 -0.007792964 0.0139643205 0.001421907 -0.0076871254 0.004788121 -0.022250235 -0.003347469 -0.03123809 0.006855661 -0.0015179317 -0.0055779465 -0.003291227 0.0121518355 0.011865755 0.013366756 -0.0003154694 0.0070007453 -0.016070962 0.0330502 0.00022687926 -0.007772551 -0.018219976 0.0064667906 0.014606558 -0.0016275535 0.011022236 0.019344186 -0.0014533766 -0.0075323563 0.0228412 -0.001559993 0.019626444 -0.0022956324 -0.0009791869 0.027594045 -0.018371945 0.021477327 -0.0018369914 0.00084355695 -0.004675648 -0.018588686 -0.018170722 -0.013353223 -0.013182001 0.002013071 0.009396117 -0.025633445 -0.0049049864 -0.0008047782 -0.016191892 0.0010305484 0.0041184267 0.021377476 0.0020386283 0.017841317 -0.031104676 0.008486799 -0.011635052 -0.0053463164 -0.0013066463 -0.01177971 0.014908446 0.022791581 0.00014585233 0.012629488 -0.038115095 -0.0059834877
treating -0.0108145755 0.014228417 0.032290798 0.0010631101 0.012035397 0.031654697 -0.015875334 -0.018597554 0.0033941094 -0.03356357 -0.022544237 -0.0083836205 -0.014480727 -0.045262232 0.009706587 0.008740039 -0.019074861 -0.0005357905 0.0051967246 -0.009844697 -0.019368041 -0.0023864591 -0.005748229 -0.013317916 -0.011134975 0.013473244 -0.012803442 -0.016449243 -0.021005973 -0.018041907 0.0031208426 0.025812337 -0.0027198645 -0.027216168 0.0042546736 -0.010994985 -0.0010614858 0.018130861 -0.00842261 0.0050521404 0.0012604839 -0.010751195 0.015959747 0.020282313 0.022578757 0.0025786858 -0.0031704349 -0.00079927174 -0.00067675 -0.012945558 0.01855349 0.0008714085 0.007075459 -0.0117778955 -0.012454602 -0.0061155246 0.011859812 0.024531892 -0.0046679573 -0.00065269816 0.013414802 -0.010142297 -0.004411276 -0.011458576 -0.004338426 -0.0044711167 0.016730951 -0.0060506193 0.021215403 0.0035318634 0.0026502712 0.014693269 -0.006618633 -0.010247028 0.008362733 -0.016617673 0.0078917965 0.019317927 0.0007907667 0.0068131746 0.009484794 -0.0065656556 -0.0024701692 0.029434243 0.019148823 0.003965379 0.0013800892 0.010768234 0.024144636 -0.006156209 -0.003277598 0.0033819012 0.0008575901 0.0015484203 -0.00026911625 0.007815191 -0.005539348 -0.006788878 0.0009495187 -0.006142611
words -0.01683689 -0.013574861 0.0002990744 0.0020073347 -0.027793331 -0.0074869255 -0.0012447196 -0.0109832045 0.00824137 0.014206743 -0.000773579 -0.020936247 -0.026675036 0.0038254336 -0.000696695 -0.003212983 0.015178986 -0.026753841 0.004719892 -0.01060198 0.0141664725 0.0076967385 -0.0046494235 0.001488331 0.0256898 -0.028479101 -0.0007489055 0.0005151505 -0.01626371 0.0060377265 0.022499712 -0.0032871626 0.003994555 0.010416005 -0.025874931 -0.0022310761 0.0027055903 0.0057372013 -0.019355502 0.0003506621 -0.019277867 -0.03635072 0.011712714 0.022922853 0.001707318 0.0011213304 -0.04040008 0.0063064448 -0.014106844 -0.0012036276 -0.019383872 0.0006623969 -0.021593317 0.0048135053 -0.009703752 0.002925794 -0.0206593 -0.019915983 -0.005062984 0.002196405 0.021371191 0.003975565 0.010628344 0.011220776 0.011739007 0.023243172 -0.0104508195 0.003098424 0.0022920133 0.0017435917 -0.0055106007 0.0034249583 0.008201712 0.001662615 0.0022155044 0.012890412 -0.014196209 -0.038353737 0.010433279 0.00058016996 -0.0026418837 -0.006267949 0.015159188 -0.0054808413 0.013610555 0.013439988 -0.007916211 -0.01951382 -0.0031031945 -0.012436813 -0.0067596445 -0.0054466524 0.012201611 0.012557822 -0.018256528 -0.016902747 -0.011417677 0.0028730035 0.0332614 -0.017727967
see 0.011819356 -0.02050463 -0.015494898 0.015578679 0.0036355385 -0.017014774 0.03849999 0.013782519 0.016751703 0.03584559 0.016131014 0.012371366 -0.010296034 0.00018770076 0.023745349 0.0061266473 0.018411513 -0.019080885 -0.013183215 -0.018416813 0.028186781 0.018809618 -0.00214059 -0.010946442 0.0034132416 -0.012612908 -0.0050387657 0.001850683 -0.016383324 0.02688431 -0.007651595 -0.006655189 -0.0008895923 -0.009038629 0.008229913 0.0006278975 -0.023048148 -0.00020353998 0.0027582052 0.015888887 0.018614782 0.003120588 0.015736755 0.004432358 0.012301686 0.0036451127 -0.0007758268 0.0048672655 -0.015412517 -0.023628691 -0.029879836 0.011563634 0.0014311128 -0.00685253 -0.0046130433 0.021521322 -0.029260846 -0.017569156 -0.009881655 0.03723954 0.007627304 -0.009111389 -0.022050418 0.0055685192 0.028546257 0.008740732 -0.003101048 0.017385107 -0.003852039 0.034599293 -0.002568877 0.004142873 0.008954582 0.013064217 -0.002381162 -0.0057904106 -0.02608508 -0.010191681 -0.011636767 -0.016438065 -0.0005353771 0.0050122817 0.022489117 0.030872794 -0.0014600328 0.01538822 -0.02703079 -2.812616e-05 -0.02092805 0.0107307825 0.012759385 -0.0069922414 -0.0012136954 -0.024177095 0.0047976132 -0.0028555533 -0.0026274167 -0.017665412 0.027843341 -0.03609378
2.8 0.02201427 0.019987488 0.009227838 0.0015741503 -0.0072898665 -0.008411616 -0.008295297 -0.016186588 -0.0024299119 0.024228673 -0.013378609 -0.0033506514 0.023785453 0.013886473 -0.015897587 -0.012923508 0.0070948806 -0.012287826 -0.0010475094 0.011293137 0.0080765635 0.015535527 -0.0075772903 -0.011156785 -0.0031782915 -0.020786192 0.007877298 -0.02016881 -0.002653471 0.022337934 0.0037407326 -0.0051033706 -0.029787917 0.006134059 0.008935552 0.016914591 -0.022094816 0.0056993803 -0.009789809 -0.010831766 0.01061566 -0.011037352 -0.012103254 0.012994358 0.0074488213 0.019778859 0.006689095 -0.0063767536 -0.03770997 -0.0069084065 0.01057501 -0.0070115933 -0.01934888 0.015110724 -0.016216567 0.011983792 -0.00014610437 -0.027989829 -0.016449697 0.011072359 0.025404807 -0.005806328 0.043084726 -0.0019031581 0.008989058 -0.009676354 -0.011835525 -0.010225451 -0.026441686 -0.007361372 -0.0074760397 -0.0037912936 0.024047958 -0.0021044628 -0.0064978437 -0.0025963415 -0.005318583 0.012916785 -0.0014363455 -0.0155283455 0.013146387 -0.0080938535 0.00711285 5.5188255e-05 -0.0009908878 -0.034033902 0.022591002 0.019540336 -0.0040048393 0.009020661 -0.0004496799 0.0073930253 0.0039128754 -0.04461584 0.010936499 0.011086409 -0.004738501 0.017530434 -0.017691942 0.014528254
