1501 50
European 0.02943971 0.0048968815 -0.0015665784 0.010504644 -0.0018258537 -0.007584387 0.015572959 -0.016916465 -0.003143805 0.004824804 0.019067332 0.011244511 0.014196169 0.009402039 -0.005460546 0.0030594044 0.016227093 -0.0076691285 0.018089348 -0.015645828 0.0059944396 0.0028587393 0.013445958 -0.0029805764 0.013051961 -0.006538424 0.007959611 0.0030666073 -0.0026643663 -0.014351753 -0.007456384 -0.0013030173 -0.0031258939 -3.345273e-05 -0.008589287 -0.0023263032 -0.009013641 0.002577384 -0.019222232 -0.027356867 0.0051903394 -0.012494117 0.010034895 -0.0008509656 0.0061414945 0.005511411 -0.015549245 0.01647212 0.01626892 0.0056459224
centres -0.023201184 0.020866219 0.012127329 -0.010287924 -0.015143332 -0.009844186 -0.013137268 0.008955316 0.015279557 0.003584652 -0.01995583 -0.011726197 0.03290186 -0.008192686 0.0053121527 0.01790888 0.0025573974 0.026015487 -0.009421308 -0.02800251 0.007592833 0.013839594 0.012016621 0.008368502 -0.019571258 -0.01073338 0.027388357 0.014414768 -0.0009879794 -0.0068293503 0.013437109 -0.0073950477 -0.034011334 0.006345878 -0.016280081 0.023534901 0.024623673 0.008609912 -0.043543868 0.0055751214 -0.017195055 0.025266552 -0.019581005 -0.016072184 -0.013642084 -0.0070885676 0.001610091 -0.013684873 -0.0029899771 0.002217097
may -0.042502332 0.006917478 -0.012484233 -0.011812892 -0.00088365655 0.00069849344 0.008150835 0.005716323 -0.023439474 -0.010648062 -0.0051037306 -0.010931907 -0.010789614 -6.356789e-05 0.011052445 0.010028828 -0.00975608 0.0030961414 -0.020911455 -0.011801984 0.0058634602 -0.0152652515 0.012334547 -0.00029025585 0.007212943 0.004717236 0.011472211 0.0059536416 -0.022405744 0.010784899 0.011478904 0.010815818 -0.014381458 -0.0026498903 0.025136912 0.0073764287 0.019791065 0.013776352 -0.01229631 -0.011043053 -0.0044414788 -0.014427087 -0.0015244263 0.02602953 -0.01141114 0.003710777 0.010007555 0.01106415 0.0084888665 0.0017283959
evidence 0.016718473 -0.0010781392 -0.014614826 -0.014931217 -0.009636354 0.010316858 -4.2458414e-06 0.0014915059 0.015127278 0.023134084 0.011730222 0.0040128897 0.003956928 0.030343795 0.012364807 -0.0014866153 0.023541793 -0.010247262 0.031609133 -0.0077191 0.02814004 0.0213031 -0.013369445 -0.00079598255 0.0056026434 0.002887707 -0.015485659 -0.005875361 0.035250753 -0.009426037 -0.02763426 -0.007289513 0.029256873 0.010418763 0.019827718 0.014438089 -0.009458749 -0.04319261 0.0042990297 -0.021175822 0.015012131 -0.014295617 0.03118888 0.020550303 0.008275026 0.022797143 -0.025737612 -0.0157431 0.00957009 -0.00018150316
realistic 0.009010144 0.0103371 -0.022607194 -0.00531297 -0.01117075 -0.021464162 -0.013172782 0.00783012 0.0076150903 -7.673557e-05 -0.0123821795 -0.008874593 0.01901266 0.009883655 -0.0036100098 -0.02027181 0.003042604 -0.0070762215 0.021675535 -0.00017194217 -0.007294746 0.0044970056 0.013580621 -0.0076370076 0.012709503 0.0074599236 -0.02295944 -0.020215368 0.020906093 -0.00036975555 0.005987117 0.0020929733 0.03071048 0.0029878346 -0.008367434 -0.011918007 -0.009867912 -0.012134214 -0.0033655828 0.0062917355 0.003958663 -0.006239792 -0.018539846 0.00082863495 -0.014094802 0.0136504555 0.0012861292 0.0029461451 0.014756953 -0.0034503331
authority -0.036262624 0.017848186 -0.004638098 -0.005779093 -0.030369231 -0.022965293 -0.050187424 -0.0028685404 -0.0009100307 0.003895129 -0.0075117946 0.0017400593 0.0038628243 -0.008517943 -0.022747276 -7.883945e-05 -0.0076675713 0.030213073 0.0068738153 -0.033878703 0.0130490735 -0.010833617 0.009719763 0.008660245 0.009217884 -0.01777784 0.0009159392 0.0049814936 -0.045060027 0.020413924 0.008487733 -0.0025634468 -0.009236915 -0.038781915 -0.024603775 -0.03516461 0.021291582 -0.00083002064 -0.028337022 0.00015049358 -0.006087833 -0.003510355 -0.0034891274 -0.00597793 -0.016980864 -0.04139784 -0.00084128045 -0.019037576 0.017749425 -0.036561627
urban -0.014877902 0.01234012 -0.0033450634 0.014154485 -0.021031592 -0.0036515638 0.008746222 0.0039474163 0.01804921 0.008180587 -0.014563116 0.0020512445 0.0054778494 -0.006926586 -0.0021355175 -0.008416947 0.01544867 -0.0015769294 0.0037600351 -0.0060816053 0.008953251 -0.0047097523 -0.015556716 -0.015185068 -0.0071165464 -0.011482506 -0.0060105193 0.00064102694 0.014048623 -0.015957136 -0.006276292 -0.012909083 0.007482291 -0.004405478 -7.010164e-05 0.0021116652 0.008187822 -0.0075777387 -0.0038715643 -0.0060418025 -0.0018055919 0.0005275125 -0.0038601852 0.003129282 0.008798177 0.009331362 -0.01019506 0.002825653 0.00733513 0.0027099107
Essex 0.025674611 -0.09606985 -0.028022623 0.05011913 0.023904918 -0.0037685526 0.061717995 -0.016422346 0.0029094624 -0.014294726 -0.07194147 0.07274019 -0.049394112 -0.023701455 -0.01735726 -0.01687268 -0.015428583 -0.050749637 0.006067981 -0.031936273 -0.064358264 0.04633968 -0.038464133 -0.0057559973 -0.0028070912 0.015561563 0.028594093 -0.032046318 0.04745288 0.06743396 -0.0058122315 0.015086791 0.0393622 -0.00973628 0.096236505 0.015114321 -0.11572818 0.05328059 0.044657093 -0.016816432 0.051212754 0.004457863 0.024032183 -0.07933756 -0.015918514 -0.010916944 -0.023968522 -0.039516855 0.01502949 -0.0055879136
compulsory 0.033674765 -0.01706634 -0.033141788 -0.010881082 -0.040313404 0.0016834779 0.04141694 0.06095185 0.059597466 0.0013796506 0.013182921 0.0004294035 -0.046356365 -0.03386608 0.005223958 -0.036760215 -0.001589265 -0.07282893 -0.0075153285 0.050599143 -0.028913023 -0.006722769 -0.027759323 -0.010132524 0.0010965363 -0.008706518 0.036463074 0.0477427 0.10014026 0.016850634 -0.022124773 0.018067135 -0.017604655 -0.0074107423 -0.0015492656 -0.0060058255 -0.02737542 0.004667793 -0.009640123 -0.038640987 0.020278476 0.050383925 -0.026001312 -0.044928636 -0.0430779 0.020840859 -0.02725285 0.01409433 -0.0077671576 0.026560921
bother 0.027779602 -0.050464865 -0.0136875305 -0.015865581 -0.0329696 0.039387483 0.05504789 0.04220756 0.034686178 0.0648602 0.051212154 -0.0507837 -0.0026267236 0.017457584 -0.006058084 -0.010118389 0.029647052 -0.0049625086 0.013250519 0.0054325084 -0.022008417 -0.00016918092 0.0011405791 0.021765593 -0.012410245 -0.03582272 -0.020585887 -0.032767013 0.03524433 -0.015315327 0.011996613 -0.0037887278 0.023620125 -0.006794089 -0.011503395 0.024806984 -0.01672237 0.0055461987 0.0070237275 -0.0071201352 0.0017532794 -0.01192375 -0.014038528 -0.06241709 0.027472833 -0.013796712 -0.025958786 0.00844585 0.023367377 0.031788215
Beaches -0.018152045 0.03507068 0.003266207 -0.008130252 0.00732912 -0.03121343 -0.020428948 -0.026973125 -0.003448168 -0.001516827 0.029879553 -0.009126469 0.011471359 -0.0112222005 -0.0018010678 0.021432463 -0.015870422 0.009521894 -0.027819958 0.008341419 -0.005823207 0.014225684 0.0063229026 -0.0016640123 -0.01387053 0.0010653273 0.028467828 0.023890851 0.01134689 0.010968287 0.013671832 -0.0045725983 0.00046550971 0.012907847 -0.017585594 -0.009914169 0.016784387 -0.012304254 -0.00660987 -0.006259429 0.019934816 0.01646003 0.0098901475 0.011617154 0.0028371627 -0.021273764 0.008255728 -0.006299812 0.0010886433 -0.001770436
basis -0.00424858 0.0070260386 0.010766424 0.0041784365 0.004856544 0.007886745 -0.010725142 0.013049784 -0.004908079 -0.021010445 0.023558106 0.015066046 0.0020186475 -0.0041425675 0.0045057065 0.010434877 0.006852552 -0.0055571785 -0.019967388 -0.006197389 0.0069459844 0.0047157956 0.015154028 -0.0046190927 -0.00032973022 0.002682503 -0.0138801765 0.0030419845 0.012733804 0.0161106 0.013368154 0.0011968886 -0.0058486927 -0.005736334 -0.019320041 -0.024392834 -0.005229713 -0.01039007 0.021532748 0.0024312888 -0.009091777 0.0046101934 0.00029330063 -0.012124834 -0.0121677 -0.025842095 -0.013280867 0.02160466 0.017182333 -0.0016080589
forecasters 0.019720249 -0.021532292 -0.015412343 0.0036870316 -0.014735621 0.002005469 0.005645513 0.003571285 0.002088082 0.0022752818 0.018019095 0.014822034 -0.0035940628 0.004259552 0.019339548 -0.0315586 0.022496393 -0.00021743716 -0.0063047204 0.019540943 0.010168673 -0.011390038 -0.019503025 0.0046285675 -0.0077276374 0.00076462596 -0.01754053 -0.001117599 -0.0018805487 -0.02073253 -0.028232899 -9.148424e-05 0.02411402 0.010138648 0.022748753 0.008254639 0.0068027284 -0.018328087 0.008426915 -0.014103705 0.010825549 -0.0060533043 0.0029967162 -0.013349648 0.0040621636 0.006868963 -0.019781021 0.014926731 0.0080109 -0.012185125
net 0.03696609 -0.00632409 0.017014483 0.015403292 -0.007974994 0.013403683 0.010280733 -0.0070562055 0.010621384 0.031938996 -0.008103307 0.011455692 0.0011007201 -0.010592098 0.0139394365 0.01543247 0.0043301038 0.009627393 0.006113222 0.009371022 0.0121877175 0.022442613 -0.014601005 -0.017334308 0.0030156327 -0.0027143713 -0.002571326 0.0030436583 0.0044774488 0.00939726 0.0025540916 0.018107802 0.0058552437 -0.03199362 0.009856551 0.016433304 -0.003693078 -0.016931543 0.008953324 -0.007952264 -0.0008642989 0.012748744 0.0044494565 -0.0109949475 0.026058322 0.016328942 4.1922496e-05 0.0064678695 0.0028138154 0.009695538
contradiction 0.002047543 0.014940495 0.00062105065 0.001148841 0.00018146983 -0.011749268 -0.007080112 0.0043152627 -0.005785699 0.010726969 0.005555119 0.013911408 0.020399636 -0.014936419 0.01579318 -0.0109540755 0.002987885 0.010580567 -0.023951324 -0.0013113876 0.006850129 0.004194053 -0.002204709 0.02351026 -0.0363429 0.019167416 -0.008132218 -0.01006828 -0.012873194 -0.01179577 0.0034609323 -0.0008211343 -0.0070642736 0.0107358815 -0.007641347 -0.0069872593 -0.0022051665 0.01921462 0.009836096 0.009845741 -0.01410226 0.0032424238 0.008338968 -0.0066143647 0.012077482 -0.0067509925 0.0095003145 0.0037237771 -0.006375147 -0.0029714634
Departments 0.008879569 -0.067484334 0.007533103 0.00528145 -0.003140145 0.01945258 0.0828017 0.0046118638 0.04848005 0.018185211 -0.00408204 0.0012525308 6.739434e-05 -0.011018028 -0.002909509 0.006725616 -0.036875676 -0.007263131 -0.046682518 0.035394497 0.026180517 0.0070116636 -0.016898062 -0.02482436 0.004712761 0.03932828 0.00044663897 0.01601783 0.00012731529 -0.01076824 -0.03763454 0.008856225 -0.016239459 0.050026204 0.010425575 -0.03590925 -0.023619417 0.00970194 0.014372898 -0.008139308 -0.0072408337 0.046013467 -0.007028155 -0.060457774 0.016695935 0.020386174 0.015897188 -0.027442364 -0.017073516 0.021244688
Investment -0.0011588603 -0.0030415216 -0.0071628895 0.0036856844 -0.0027861814 -0.0021137404 -0.00814918 0.012726821 0.0036027157 -0.004644664 -0.0043991324 0.021503767 -0.0072343284 0.0065140687 0.0013371077 -0.014267227 0.013180031 -0.002201003 -0.0014777672 0.0077201654 -0.0168121 0.00162621 0.0053511644 0.003179025 0.003808293 0.011005299 0.0057047685 0.008920987 0.0075237034 0.004462849 0.0015475618 -0.012272076 -0.0071998006 -0.018701095 -0.0053537395 -0.010072696 -0.0066556996 -0.0066132424 -0.009578359 0.008931855 0.0007523359 -0.007746038 -0.02440814 0.0010460848 0.017865922 0.0039318935 -0.013463463 0.0044274675 -0.0010216525 -0.020275215
harassment -0.019931281 0.041705642 0.0053928304 -0.010920635 0.021090696 -0.012508206 -0.022649443 -0.0022683416 -0.020032017 -0.025272675 0.027575089 -0.0037143794 -0.020220574 -0.007565668 -0.028269894 -0.013044685 -0.014533369 -0.017424775 -0.017422568 -0.008535464 -0.026855588 -0.016135583 -0.0046244217 0.011706336 0.010351989 -0.0023342352 -0.009151648 0.0071617835 -0.0066914125 0.0092806425 0.050413422 0.017276203 0.013160555 0.0077154743 -0.0036994878 -0.018396916 -0.0027235742 0.006197828 0.011515204 0.029726887 -0.0010705271 0.0016679941 0.01651103 0.019528441 0.012178775 -0.03652322 0.027642667 0.011715306 0.005767393 -0.02539038
lowest -0.017284151 -0.0034637267 -0.0045575993 0.0013598971 0.013336236 -0.009966621 -0.008517765 0.0046058195 0.0022472672 -0.009030356 0.0029369637 0.009880433 0.0093321 -0.011207091 0.008323418 -0.014674658 -0.003417507 -0.0036713183 -0.0024061066 -0.0083288215 -0.02521455 -0.022036545 0.0032730731 0.013591848 -0.013576793 0.0085936785 -0.007957126 -0.0015280268 -0.012342993 -0.007852817 -0.0063267346 -0.018616501 0.011203106 0.012867758 -0.0059552174 -0.0044118934 0.009191568 0.0105365 -0.015072675 0.0022269543 -0.0095785335 0.004282866 -0.0052815485 0.0026338142 -0.01692815 -0.017146425 0.012283649 0.0120864 0.004203097 -0.022794412
democracy -0.0035821423 0.008254685 0.0042593284 0.012655707 -0.000519134 -0.0100182975 -0.012304216 -0.003372523 0.0076281354 0.015857833 -0.0029544632 0.005891164 -0.009040836 -0.017398886 0.0065747835 -0.0044342563 0.001410926 -0.003349511 -0.0025724687 -0.0006487967 0.011596339 -0.00284549 -0.0036810052 -0.014497439 -0.0012581511 -0.0010057179 0.011955251 0.010619155 0.006119141 -0.0009050266 -0.024670485 0.0083620865 -0.024531517 -0.007457965 -0.0052032587 -0.022443864 0.0022878065 -0.010240196 -0.00080450415 0.00059635984 -0.0011995836 0.019856721 0.0030452437 -0.0036883075 0.008429002 -0.02766637 -0.007461535 -0.0024247419 -0.0015108734 -0.0105846515
30,000 -0.031311635 0.0059443815 0.024694346 -0.014367646 0.017774913 -0.014193464 -0.007470686 -0.00476106 -0.015358629 -0.029952174 0.008290179 0.0067978348 0.007125194 0.016235085 0.0012690048 -0.023859078 0.008417424 0.0021369543 0.0071864035 -0.02880865 -0.013870037 0.0039228266 0.015593896 0.02814715 0.002497448 0.017011015 0.0083288355 -0.031301662 -0.025753414 0.0120293675 0.009848547 0.007187829 -0.009222036 0.014850462 -0.008977401 -0.018102117 0.008586335 0.0043729255 0.00886883 -0.0046200035 0.00499562 -0.014248661 0.009831572 0.005403326 0.0028968505 -0.029898336 0.008030815 0.0059569594 -0.0035887498 -0.01910357
purpose -0.02997027 0.035128906 -0.02608928 -0.030109717 -0.04107575 -0.026726801 -0.05920675 -0.011310113 -0.020608345 0.043112747 0.00041387381 -0.01661151 -0.043783035 0.014495468 0.0030889767 -0.03185873 -0.028516676 -0.0078525115 0.01969804 -0.02617904 -0.038512737 0.0180106 0.03221267 -0.0064214137 -0.037728675 -0.040936038 0.011910296 -0.027046483 0.0069474415 -0.009672992 0.047456488 0.031829704 -0.014255885 -0.028101953 -0.04721119 -0.0025324046 0.0059409803 -0.019832186 -0.02141036 0.010439006 -0.023180608 -0.01427931 0.0005205873 -0.0016236396 0.018085105 -0.04399822 -0.001549832 0.027887534 0.034011327 0.024019605
obvious 0.062396172 0.045108836 -0.069692746 -0.007024559 -0.057234004 0.039109647 0.0011914994 -0.02616133 -0.008205379 0.01788272 -0.028508984 -0.03722164 0.0040655634 0.032867264 -0.05337016 0.01645794 0.052565143 0.0065434272 -0.04656459 -0.0015841536 -0.056889754 0.009699227 0.033780042 0.01658479 -0.025806021 -0.06436508 -0.04921496 0.022447912 0.040934715 -0.0049177515 0.02462665 0.01788594 0.010679562 0.010927321 -0.0003726954 0.047347106 -0.025851276 0.025556756 0.0049292482 -0.022821153 0.028976263 -0.02185656 -0.06292825 -0.04073186 -0.006655056 0.008613561 0.041096818 -0.009308979 0.031993985 -0.014736301
income 0.009812394 0.005248185 0.012751664 -0.008801696 -0.007154039 -0.013830354 0.010939604 -0.015224118 0.0035355317 -0.016766826 0.008801709 0.023549179 -0.015673 0.011907748 0.024165826 -0.0029509044 -0.0021015753 0.018650759 0.010984609 0.015361457 -0.007120265 0.02983317 0.0064120092 0.032946736 0.00475978 -0.0026364552 0.015964061 -0.03954036 -0.0059145177 -0.0068856706 0.0016951779 0.011854955 -0.017684055 -0.0022586554 -0.0044340864 -0.020962024 0.044196032 -0.009485519 -0.003618664 0.008964296 0.02166164 0.0089148665 -0.00082733115 -0.012979074 -0.0015886984 0.005405835 -0.0024408712 -0.0011971719 -0.021195676 -0.017519876
impact -0.021444714 0.0053685727 0.033810407 -0.025807757 0.018236954 0.009001093 0.010693314 0.006355847 -0.025590042 -0.024429882 -0.0060032355 -0.009101266 0.0026636156 -0.007797224 0.0071984744 -0.010143312 -0.018366424 -0.008450834 -0.020554373 -0.0039700344 -0.019550266 0.0018971184 -0.012759345 0.026138123 0.005739632 -0.012304971 0.010204692 0.005371467 0.0074455696 -0.005739864 0.008889207 0.007442433 -0.01034904 0.012125733 0.008707508 -0.010737258 0.0030508635 -0.0071898424 -0.00820068 0.013530616 -0.015253537 0.0022910496 -0.008379763 0.013325283 -0.003008813 0.006188751 0.00082298706 -0.015563087 0.003651528 -0.042840477
need 0.0089909695 -0.0051086806 -0.014082009 -0.01751862 -0.0224231 -0.007857821 0.014540715 0.0037641844 0.008888282 0.03421305 -0.0073211836 -0.009298352 0.007547689 -0.0020071252 0.0082713235 -0.018525222 0.0016504453 0.003887163 0.014161032 -0.010070405 0.015564509 -0.016919553 -0.0030307388 -0.019755347 -0.003471002 -0.004550631 0.0169131 -0.025539689 -0.02897057 -0.0099568665 0.0012810671 0.0016997312 0.0138339745 0.0020459008 -0.0076900553 0.025712335 -0.008795313 0.007376809 -0.015793893 -0.00492351 -0.009286518 -0.008521784 0.0033617816 -0.008471514 -0.015273451 -0.027154313 -0.0110938335 0.0019225155 -0.015382823 0.010310696
45 -0.060950555 -0.013618032 0.017360663 -0.014624233 -0.015288323 -0.022352517 -0.009319715 0.01385179 -0.0070438352 0.030674772 -0.019623213 0.018761337 -0.04708114 -0.033385452 0.026249817 -0.007332719 0.035556976 0.034617413 -0.023735156 0.037776057 -0.0013130263 -0.0010483627 -0.019183587 -0.0074768816 -0.025674386 -0.04583554 0.0100297835 -0.04574804 -0.017254144 -0.018874833 0.003577875 -0.017385893 -0.044052877 -0.026058659 -0.0018361462 -0.018186986 -0.019925114 0.019444373 0.019757139 0.047918327 -0.010279888 0.01467704 0.032152776 -0.0049121603 0.008819889 -0.019988097 0.0049828785 0.011731347 -0.004429444 0.0040671295
mind 0.007111219 0.01861272 -0.007910856 -0.005068293 -0.006387944 -0.01766668 -0.0192706 -0.014010732 0.0090940045 0.005562757 -0.015447225 -0.004013947 0.013126371 0.00014097453 -0.006189551 0.026226021 -0.01312906 0.009175202 0.017954445 -0.007198961 0.0043892236 -0.0051623606 0.0050463867 -0.008452857 0.0048535895 -0.0071126698 0.010368435 0.006760686 -0.0029473484 0.021014666 -3.0304596e-05 0.00840092 -0.007546514 -0.01786649 -0.00072127813 -0.015735826 0.0026102797 -0.0198156 -0.017843442 -0.007432602 -0.015357593 0.008153112 -0.012838611 -4.27193e-05 -0.0045917495 -0.0006946484 -0.005725865 0.014228668 -0.014118984 0.0032545715
PT7 -0.008183707 0.015546108 -0.0018230394 0.014008116 0.004656723 0.0026943819 -0.009193139 -0.009176999 -0.0082615465 -0.0035836974 0.014890315 -0.0070863767 0.0061175264 -0.011280186 0.0024711562 0.01242962 -0.0023155422 0.011112271 -0.00938703 -0.012424259 -0.0062102573 -0.022605019 0.009356522 -0.0003040143 -0.009383544 0.010716494 -0.00028552127 -0.002194519 -0.005091454 -0.020591713 0.031158375 -0.0022749468 -0.0054467255 0.012574403 0.0023426467 -0.0077365744 -0.0064687026 0.00826427 0.021361228 0.015082648 -0.0022782676 -0.003823168 0.01878059 -0.010938646 -0.006161684 -0.015277061 0.008323963 -0.0056756143 0.023601059 -0.0031710071
third 0.03970436 -0.019827701 -0.012963508 0.00637412 -0.023963815 0.012407488 -0.004571516 0.021382574 0.0049244976 0.042881694 -0.010484586 -0.022928577 0.0042630807 0.028542925 0.008391561 0.003001066 0.0051275827 -0.0026631702 0.038321387 -0.0033077127 0.020835605 0.02775485 -0.017444152 -0.022889525 0.010241042 0.022657461 0.007276414 -4.665996e-05 0.016428107 -0.009004206 -0.021827819 -0.001817995 0.020682808 0.0174484 0.019342404 0.014517644 -0.02306471 -0.0024720083 0.008864152 0.0015392414 0.00841366 -0.002567832 -0.031776752 -0.0038268613 -0.0030760495 0.0060502496 -0.0032302965 -0.013379798 0.010512456 0.019877568
luxury -0.016172122 0.020283682 0.027892038 -0.021535981 -0.0036516984 0.0013545561 -0.01245875 -0.004767464 -0.017783292 0.00013235421 0.0060573267 0.031444803 -0.0108239595 -0.009624715 -0.0028549628 0.0011056305 -0.005223336 0.012640917 -0.017190091 -0.00091275503 -0.017754426 -0.017547633 0.01509667 0.022991404 0.013552408 0.024068939 -0.005042322 -0.0061073727 -0.010007915 0.011333257 0.018663252 0.029192686 -0.02150324 0.005973149 -0.007293608 0.008392935 0.015366606 0.0034600357 0.004260056 0.009503001 0.006523713 -0.025676731 0.011063213 0.0056781 0.0028485707 -0.0051209154 0.011714697 0.013081347 -0.011503783 -0.0013114436
go 0.00677286 -0.02201995 -0.013461376 -0.021434799 -0.08336871 0.013044199 0.060620323 0.06063684 0.048052676 0.034765553 -0.05438143 -0.036737993 -0.0056149946 -0.029128153 -0.060741667 -0.00066163123 0.055157933 0.021486789 0.02121389 0.027517932 0.035119273 0.011435721 -0.034871157 -0.023707973 0.029450525 -0.024137499 -0.04527028 -0.063983105 0.06286339 -0.010927221 -0.009728367 -0.028295916 -0.011553229 0.0055477726 0.07769448 0.03788573 0.013035566 -0.009346933 -0.022287218 0.012266121 -0.06483816 0.027391167 -0.00923424 0.0039327946 0.0029480825 -0.03238939 -0.02209624 -0.017827043 -0.03351067 -0.082911395
long 0.025261335 -1.1670636e-05 0.001881521 -0.007157523 0.0074504763 0.0030005139 0.020950204 -0.02786421 -0.0040608365 -0.0054907966 -0.015926043 -0.010351803 -0.05563217 0.007431657 -0.0016223066 -0.03330282 -0.007347852 0.015459547 0.020389438 -0.015082596 0.004786082 -0.0101241 -0.015444889 -0.036709283 -0.011046177 -0.040300302 -0.015535965 0.048098423 0.009724078 0.005543852 -0.033231445 -0.016430423 -0.02257681 -0.010403516 0.01170864 0.01689834 -0.019418389 -0.00485587 -0.0092257485 0.033421785 -0.0110520255 0.013745253 0.020828 0.017958295 0.009955545 0.0041170362 0.026055906 -0.013054585 0.018052887 0.024726113
Institution -0.024240008 -0.018036898 0.0052788337 -0.0012171338 0.0035171604 0.01407551 0.013915706 0.011231541 -0.015303938 -0.01801413 -0.021241276 0.0033133794 -0.02409667 0.02602865 0.003408568 -0.001333715 0.017223837 -0.014931329 -0.02500784 0.025255853 0.020912727 0.006167447 0.02084424 0.020284092 0.022611894 -0.015823904 0.015915232 0.033357415 0.014866663 -0.020559192 -0.0023504917 0.008011602 -0.021165611 0.023824275 0.010237612 0.0141796805 0.00070565485 0.0013743236 0.002431931 0.00015385635 0.008561651 -0.008778399 -0.010584304 0.011427319 -0.00015033566 0.032787673 -0.011457091 -0.017462522 -0.014124182 -0.009705294
failure 0.019295191 -0.025756132 0.019294715 0.002024996 0.0013233752 -0.01787996 0.042145573 0.015643734 0.003686667 0.010143037 -0.021984568 0.03547344 0.025673907 0.023448449 0.01589942 -0.00010136503 0.01920905 0.0031447504 0.0048888056 -0.0047245077 0.06004964 0.002234918 -0.012334481 -0.02289405 -0.019931126 -0.028980274 -0.0066687 -0.042834826 0.011813054 -0.031072121 -0.028992796 0.021847008 0.010528941 0.029770873 0.020377558 -0.003051632 -0.0034709664 -0.045483742 0.026183354 0.008079714 -0.020713225 -0.0010798665 -0.008024504 -0.017763916 -0.020886097 0.028155787 -0.012987143 0.003611212 -0.017964186 0.022192948
N 0.02302624 -0.028970612 -0.005756905 -0.011908741 -0.007373587 0.008896111 0.00048183952 0.011522631 -0.0029159095 0.04520906 0.0067659635 0.002761247 0.005009871 0.016290942 0.018445656 -0.0026494178 0.018835023 0.0011853629 0.038162343 0.011458273 0.01807547 0.0040517757 -0.0040753433 -0.0016020901 -0.0018226084 0.01097041 -0.0075863237 -0.031454805 -0.006359538 -0.002780519 -0.01900799 0.013995741 -0.008599165 -0.017905395 -0.005991733 -0.0061746854 -0.00798125 -0.019176261 0.002434127 0.0046937484 0.004192169 0.018742543 -0.00018444622 -0.026957491 -0.00049933384 0.026265189 -0.006275143 0.006829627 -0.028189119 0.021832956
Dartmouth 0.0001840698 0.00580782 -0.00791844 0.009670994 -0.0021165195 0.002305801 -0.027149202 0.0024001496 -0.004410855 0.008112278 0.0010641536 0.0035183933 0.009548796 -0.003962542 0.0019246488 0.0009430926 -0.008470091 0.017972557 0.0090681845 0.0090762125 0.0008765749 0.021416483 -0.008839702 -0.01505285 0.008830543 0.012246395 -0.003111643 -0.02200583 0.006678071 -0.005366667 -0.011285696 0.012371164 -0.016817538 0.013912948 -0.012850244 -0.0023053377 0.015671907 -0.021271741 0.0008353683 0.0042593284 -0.016829709 0.0063749924 0.0022440907 -0.0067472607 0.022040755 -0.006223875 -0.0068623135 -0.029330622 -0.021467784 0.010109364
writing -0.030000914 0.012588283 -0.0008632244 0.030826619 0.004021217 -0.0299867 0.021830654 -0.012339061 -0.028926972 -0.01487709 -0.0046149543 -0.030120475 -0.011782371 0.024262717 -0.006833374 -0.013697997 -0.011622523 -0.023951884 0.00980293 -0.0042002024 -0.032778498 -0.025084054 -0.014612887 -0.014261717 -0.012767277 -0.002584436 0.030133275 -0.004292848 0.02121531 0.010230554 0.022068014 -0.019724388 0.018428698 0.018790573 0.0102257095 -0.02564492 -0.00934884 3.191654e-05 -0.020405877 0.03007059 0.01052189 -0.0118913455 0.014452896 0.053860206 0.011329102 -0.03960151 0.017693225 -0.0027857707 0.013020915 -0.013878662
shipped -0.004059675 0.0052017095 -0.033397894 0.0057349387 -0.058335822 0.0016151693 0.018810226 -0.007954547 -0.053201925 -0.0286405 -0.03537994 -0.050825976 -0.0045606615 -0.014201395 0.04329664 0.034691572 0.0058141565 0.037377823 -0.024922602 0.009177446 -0.0020864508 0.023595091 0.00028440787 -0.019364417 -0.03806235 -0.021897156 0.02151456 0.01980397 0.03275543 -0.00062881736 -0.018446889 -0.013654427 0.015639555 -0.038029216 0.01936675 0.048162784 0.028514745 0.020549033 0.016494745 -0.011867141 0.014735714 0.028337633 -0.061354626 -0.033305008 -0.028175889 0.02860595 -0.022549016 -0.00089641527 0.043115154 -0.011317697
apply -0.008691422 -0.0008123891 0.006303955 0.025077466 0.015681945 0.0051400424 -0.004787566 0.012615361 0.0032765793 -0.007915637 -0.009966946 0.0039777183 -0.0023380278 0.001320472 0.02769933 0.0063901534 -0.004712038 0.0045585586 0.006684468 -0.017741283 -0.01859149 -0.018035434 -0.02115024 0.00028082728 -0.00016442174 0.0044452325 -0.012321581 -0.0028183763 0.018038515 0.0098025445 0.00076816516 -0.021968259 0.0015180572 0.006249914 0.0040753814 -0.00035601784 -0.016959257 -0.021897037 0.008422303 -0.026019469 -0.0025061883 -0.007353672 -0.013516064 -0.014240772 -0.0020188298 0.006194096 0.009140274 0.00052863825 -0.00078286836 0.015472557
solution -0.015673868 0.0095070535 0.00035672178 0.016562223 -0.0048412015 -0.0036102883 -0.03091481 -0.010161979 -0.0005841996 -0.027620776 0.015785642 -0.0003567459 -0.004804282 -0.017265951 0.007635741 -0.011336066 -0.011716878 -0.010482327 -0.010139993 -0.0036288062 -0.005918675 0.025961122 -0.005109859 -0.0039882846 -0.01817495 -0.004838896 -0.009855951 0.004062892 -0.0026454637 0.006602716 -0.0015675719 -0.0022380657 -0.006242534 -0.014472094 -0.00044596274 -0.00563121 0.0021145486 -0.0024120354 0.004074056 0.008000088 0.02249789 0.0042883037 -0.0021963532 -0.0037178383 0.0054230755 -0.007110583 0.0007380265 -0.009185575 0.02917416 0.002488792
1984 0.002573968 0.03156026 0.01121378 0.009800364 -0.01485194 0.013014153 -0.013839483 -0.003334568 0.0026308836 0.036146455 0.008073342 -0.01793291 0.006226588 -0.0013203672 0.020488713 0.025673715 0.001960783 0.020594569 -0.006210822 -0.002537948 -0.02974383 -0.014840216 0.0017165132 0.009562325 0.022403248 -0.007491506 0.021602029 -0.034159068 -0.007116926 -0.00804974 -0.015108411 0.009679753 0.0036989856 0.0045155366 0.009714778 0.009855885 -0.009084104 -0.014532648 0.009552431 -0.017986823 0.024114288 -0.031015335 0.0563176 -0.024238177 -0.010946707 -0.0025936323 -0.020649849 -0.0005391403 0.022654789 0.02171859
budget -0.0009020922 0.00019121988 0.01411633 -0.010204107 0.02856958 -0.0020310436 0.008993879 -0.002424865 0.022894558 -0.019345127 -0.025364129 0.032004487 -0.0016915508 -0.013214798 0.02286522 0.004462116 0.025185013 -0.0028778198 -0.008563187 -0.003989024 0.02495723 -0.009533697 0.015595049 -0.009109315 0.01953632 0.0028967704 0.0012653857 0.030284429 -0.0014050831 0.02506161 0.0016487067 -0.026894005 -0.010213757 0.0050836527 -0.0056689633 -0.012328816 0.0005798884 -0.01089792 -0.0076443427 0.0018767163 0.014843238 -0.0034784945 -0.014268061 0.019751571 -0.009817449 0.008592199 -0.00980415 0.02002258 -0.004536036 0.00029154128
Energy 0.01034784 -0.0022324538 0.0021411534 0.00064432004 -0.0262746 -0.002741775 0.018133564 0.023163991 -0.024253465 0.009774276 -0.02493055 -0.035315115 -0.021757273 0.0074457275 -0.004791008 -0.014746859 -0.00032437852 0.00429865 0.022228925 -0.00728132 -0.03317345 -0.001073203 -0.017815111 -0.013949868 0.009943393 -0.01138374 -0.008238999 -0.028089438 0.012887351 -0.013998937 -0.012369758 0.003098197 0.016707815 -0.0064418977 0.009682318 0.030039767 -0.01556663 0.0019174227 0.02424762 -0.016007956 0.00053015933 -0.0132090375 0.017640136 0.02168342 0.00066576805 0.022822337 -0.0024802466 -0.0046507814 -0.002205098 0.012957736
lines -0.029112766 0.007507886 -0.043528557 0.044577062 0.022836585 0.02746289 -0.040492605 -0.040626682 0.015567172 -0.011217146 -0.0038998323 -0.019483322 0.0018333828 0.008859181 0.022984883 0.038713496 -0.05705172 0.009938937 -0.021956386 -0.0059298445 -0.050053444 0.0023111824 0.002861803 0.006331686 0.006363458 0.02423998 0.009359815 -0.0047985646 0.018833589 0.0055619264 0.023941584 -0.0028879112 -0.015171949 -0.023306044 0.0011465063 0.01921864 -0.039764684 -0.014558844 -0.0036200846 0.00712121 0.04322383 0.019231874 -0.0019700667 0.057381403 -0.0298909 -0.064645976 0.04286602 -0.029689088 -0.0102597 0.021537606
treats 0.02907128 -0.04049855 -0.03508083 -0.010306308 0.023108076 0.028346393 0.032396834 0.020722773 0.026583608 0.043614708 -0.022298932 0.00051608065 0.006982794 -0.0074608424 -0.0005221496 -0.04602135 0.034066275 -0.013461148 0.017219605 0.03938172 0.049192533 0.008435372 -0.022111826 -0.01736361 0.019602103 0.011076054 0.016930824 -0.025653014 0.016275091 -0.042087514 0.0043849484 -0.00068734796 0.008501673 0.024623541 0.010346876 -0.0108497115 0.012825057 -0.039478995 -0.005110611 -0.0078039346 -0.041378386 -0.015142413 0.016077029 0.00014513388 0.008261781 -0.0018896475 -0.029428696 0.0027117347 -0.02271079 0.03614242
administrative -0.0021246632 -0.018034961 0.014889389 0.0042550527 0.01608139 -0.00030571304 0.007843293 -0.0077882702 0.036707867 0.029621422 0.014700296 0.00042446336 7.174921e-05 0.0035027943 0.005864806 -0.019183977 -0.023382641 -0.031259943 0.06157269 -0.002151474 0.003345375 0.05045441 0.01612508 0.03748642 0.018116154 -0.009865351 -0.012392019 0.02560249 -0.036834814 0.0016709475 0.00023533741 -0.0040347856 -0.017387046 -0.02325248 0.0054557654 0.0105270315 -0.0028850688 0.016557941 0.0006834242 0.037623398 0.0061880504 -0.023211075 -0.024503348 0.018695828 0.014965397 0.023613164 -0.0005494872 0.012333735 -0.021708617 0.020100923
fifty 0.014258834 0.009574532 -0.010894868 -0.0072958698 0.017338172 -0.017724477 -0.003676864 0.0057306704 0.0052632196 -0.0035387678 0.0045524826 0.0034520957 0.02189947 -0.015848279 0.002049562 0.00030761276 0.01079951 -0.01004691 -0.0036384962 0.011075321 0.027183006 0.0072006956 -0.016586417 -0.0031071021 0.022792732 -0.01414895 -0.009447637 -0.0021780008 0.010845504 0.010349662 -0.0016583118 0.015094129 0.025528323 0.01626052 -0.01619568 -0.0103955325 0.00852656 0.0030628273 0.0026651549 0.00018193005 0.009670466 -0.010765784 -0.0058889096 -0.016687395 -0.0016620669 0.006751975 -0.021139655 -0.0052686287 0.007930096 0.015410353
Department 0.008774927 0.0012407687 -0.0077155526 0.0030210316 0.016024476 0.017077854 0.025033694 -0.0049282047 0.030383296 0.0058318027 0.019046089 0.00044734078 -0.018175539 -0.0056168726 0.01938906 -0.013656454 0.022641087 9.3485694e-05 -0.005535464 0.037744895 0.02278781 -0.018212302 0.0012541857 -0.012723227 0.018455843 -0.026197905 -0.00088493 0.011230196 0.0043032174 -0.0120589 0.005052461 -0.019261146 0.008238402 0.014987019 0.019067826 -0.0075706686 0.0061945342 -0.0020842734 0.016075851 -0.009395968 -0.017859016 0.011313985 0.02170313 -0.00617018 0.012030283 -0.0019595064 -0.013504889 0.0027118868 0.01196605 -0.0054194643
agree -0.029562527 0.022788739 0.013972667 0.017044468 -0.0060629486 -0.008573543 -0.029614601 0.007921173 -0.009315665 -0.014112275 0.0011637972 -0.016750371 -0.003004169 -0.015039755 0.00070799113 0.0086699175 -0.009054018 -0.02161258 -0.03088238 -0.003143342 -0.020876212 -0.0053938697 0.0010890551 0.02022611 -0.012109656 0.0041596484 0.005502713 0.014949633 0.0144552 0.009773257 -0.00081080536 -0.0037751226 0.0021265023 0.01836316 0.012315207 0.0040868823 0.0016554096 0.012771191 0.0068755 0.0045964587 0.01841912 0.007073026 0.0001692657 0.026893927 -0.011197723 -0.0025277417 0.017776983 0.008406485 0.020066688 -0.0054066526
hotel -0.0018048863 -0.011729194 -0.0121131865 -0.015325506 -0.014472459 -0.0069145984 0.009333873 -0.004949356 -0.010707498 0.015906181 0.0067662476 -0.017865162 -0.01622568 0.012105834 -0.0038153683 -0.007761579 -0.00021503802 0.009476398 -0.011046525 -5.0816685e-05 -0.015777351 -0.006212858 -0.0039068726 -0.01752308 -0.020550242 0.0015145413 0.005366745 0.00749846 0.0026286955 -0.014486156 0.012411396 -0.00798234 0.011695778 0.0007253649 -0.014584674 0.020606099 -9.589724e-05 0.011784917 -0.024218254 -0.004280038 -0.01735457 0.01676965 0.030656282 -0.020742966 -0.0015111385 -0.0006700923 0.015394885 -0.0027466463 0.0021682584 0.016058112
remembered -0.0069521894 -0.007804241 0.045076605 -0.008703225 -0.059049573 0.022804845 0.0037269779 -0.039107915 -0.053877786 -0.03308383 0.054862004 0.04502507 -0.052295767 -0.047128763 -0.05873001 0.059474695 0.0054269824 -0.011853159 0.005414449 0.064613804 -0.012086964 -0.033820983 0.021118367 0.01260025 0.02506429 0.04511387 -0.052764352 -0.0004062656 -0.076759584 0.00194712 0.009504159 0.016894823 0.03920628 0.030908791 -0.040321 -0.010410443 -0.006824548 -0.033727076 0.046177533 0.022070078 -0.041666046 -0.031468384 0.007961866 -0.013226181 -0.038671803 0.053551402 -0.046694715 0.047302946 -0.0028665687 -0.06811033
present 0.020053053 0.015844679 0.005763628 -0.0011091505 -0.029306073 0.0038893372 -0.010812718 -0.0028007058 0.0066993125 0.006766785 -0.004160924 0.0043070894 -0.011003602 0.004678159 -0.0060909605 -0.0010150244 0.0009379897 0.005719723 0.0021895438 0.007602891 0.01918128 -0.0051968032 -0.015637703 -0.01637999 0.009731725 -0.00069818355 -0.0034432784 0.0105531 0.0016578659 0.008297934 0.0044533885 0.009736108 -0.024194904 0.0074853175 0.030264929 -0.010443388 0.0065716435 -0.00014066976 0.020756414 0.010349988 0.007568842 -0.013857209 0.012280422 0.0020538508 0.0075996458 0.037780266 -0.021205895 0.016773812 -0.003471842 0.017011402
Court -0.0025350756 0.02268311 0.025457796 0.016470093 -0.013789956 -0.029227288 -0.034369554 -0.0035724225 -0.0025085008 -0.01524888 -0.0059450115 0.011176849 0.00986732 -0.0080871405 -0.014976831 0.006780611 -0.013285449 0.02234664 -0.0077502644 -0.02220866 -0.020443968 0.0074386867 -0.0070524337 -0.0014668817 -0.0031501786 -0.0017472361 0.012128649 0.007254625 0.007417579 0.0077063977 0.0044702957 -0.0047679394 0.0062607764 0.0017203887 -0.01609232 -0.011969491 0.0022785042 0.027273638 -0.012495684 0.0039239526 0.01253502 0.013318574 -0.008240858 0.006126238 -0.0043163984 -0.00058697676 0.022594305 -0.001020625 0.005791921 0.0054132864
Commissioner -0.02942279 -0.0004472944 -0.00017278933 -0.0109996125 -0.011054331 -0.0015951756 -0.0063263695 0.00799064 -0.01679663 -0.008925449 0.018530538 0.0109410025 -0.012493393 0.025180943 0.014475421 0.005936079 -0.0068284264 -0.023772696 -0.0064826487 0.008624711 -0.0156000815 0.016240085 0.009547587 0.002342863 -0.034913704 0.00955385 -0.022382697 -0.0055694645 0.0006998396 -0.006798966 0.014564282 -0.010531982 0.0023291234 -0.018063793 -0.009859725 0.014662637 -0.010212488 -0.02506986 0.015107336 0.0008264927 0.012538564 -0.021271054 -0.006546991 0.015906496 -0.020084754 -0.006246668 0.004032496 0.0131243905 0.008395278 -0.0061945496
pleased 0.0007590014 -0.010147925 0.031223962 0.039531656 0.0037762795 0.0075419177 0.0239172 0.0024451483 -0.00064722484 -0.0065186396 0.0032322158 0.017559009 0.018937547 -0.0061673224 -0.0018567563 0.0028570825 0.0065174694 0.018204462 -0.004231859 0.019400157 -0.03848584 0.012613173 -0.022622542 -0.020991938 -0.010357138 0.0014249412 -0.03282067 -0.03336509 0.011323048 -0.014637493 -0.0033766963 -0.01220839 0.04894439 0.008386595 -0.017376442 -0.0017610461 -0.016108274 -0.020964934 -0.0043620365 -0.009068495 0.004877462 -0.020417362 -0.00625142 0.018412482 -0.0041224244 0.001981599 0.03290446 0.0043195924 0.005313748 0.0040159468
subcommittee 0.0196474 -0.014204581 -0.027929425 -0.019635426 0.00070958986 0.0081214225 0.032343607 0.0044153426 0.031562395 0.011393 0.0133653665 -0.0012283854 0.021069644 -0.0033341618 -0.013776243 0.010226555 0.0040939096 0.0019315145 -0.0045283968 0.022602284 0.030293636 0.018771484 -0.0026561057 -0.020243822 -0.005360722 -0.01476721 -0.0060475725 0.024683008 0.007223097 -0.032647163 0.0066818865 -0.0038307924 0.005343815 -0.0057733823 0.0032567354 -0.00733927 0.020193862 0.011879916 -0.0066178716 0.005834254 -0.02502415 0.009053391 -0.00988367 -0.005916606 0.011971322 -0.0034635456 -0.020026298 0.010209354 0.016729997 0.009023525
open 0.0005140523 0.028598055 0.0015448595 -0.011349206 -0.0065186904 -0.015595399 -0.025153691 0.0026761545 -0.01865761 0.002252413 -0.008448464 -0.015346633 -0.0060935793 -0.008172294 -0.012106619 0.009117638 -0.00013385777 0.028707976 0.0058750585 -0.005880934 -0.013961021 -0.010215349 -0.009153415 -0.012962061 0.0119637875 0.002633043 -0.004663795 -0.009878388 -0.01755806 -0.0060064355 0.0037704068 0.0044191238 0.0006211455 0.0067824274 0.008491757 -0.0043713646 0.008167219 0.0067317984 -0.015053332 0.012986155 0.0005638371 -0.0034854922 0.009372423 0.00046097097 0.0033432138 -0.021790385 -0.014179729 -0.0084535545 0.00054857205 -0.020342903
return 0.00271975 -0.004604799 -0.010199932 -0.0037344396 -0.017889662 0.021896677 -0.0009847898 -0.0034573078 0.011342445 0.002165927 -0.0069823484 -0.0025080973 -0.0036451593 0.013944254 -0.010423012 -0.0117426505 -0.023448529 0.013304974 -0.0036910637 -0.009060683 -0.002422016 0.0019322551 -0.014742182 0.014927454 0.019241948 0.012052489 -0.013285622 0.01475351 -0.0069368584 0.0065573417 -0.0065028267 -0.01437031 0.0072911754 -0.0030033598 0.0045567895 -0.0034179464 -0.0072428547 0.013085604 -0.013623355 0.01019363 -0.0076443506 -0.018893436 0.0032648577 0.01626455 -0.025153495 0.012736375 0.0048776604 0.010412217 0.0019617735 -0.014660845
employment 0.03746499 -0.0049104565 -0.006419969 0.015870165 -0.0085954815 0.0039339196 0.021796081 0.0010410938 -0.011149627 -0.0052545085 -0.005363005 -0.0027501315 0.00034483674 0.0072467076 -0.0066688936 -0.012971326 0.015912734 0.0010737369 -0.0051649567 -0.0011308193 -0.0191537 -0.03211337 -0.004058793 -0.015722759 0.0011841943 0.0053209425 -0.0032119495 0.0068903095 -0.004082855 -0.0062903673 0.0020573717 0.001010845 0.012296904 0.026212256 -0.00029454345 -0.026607402 0.0067982026 0.020020835 -0.0037730448 -0.011171145 -0.014331616 0.0069578625 0.0012904599 -0.013119414 -0.0024537037 0.0059820805 0.012165968 0.0226135 -0.016011247 -0.025429953
leftists 0.0019248432 -0.005747917 0.0033259955 0.010386465 0.0056415163 0.007338254 -0.009012697 0.00430318 0.002622505 0.00095080596 -0.0028942684 0.010630289 0.011917528 -0.008370246 0.0024639228 0.0012682232 -0.019805627 0.00058433425 -0.008870606 0.0191479 0.008525556 0.007816268 0.00052528543 0.015998825 -0.0013313692 0.0006557535 0.009781294 -0.0052948403 -0.0045540975 0.014577573 -0.011732254 0.021966886 -0.0037233883 -0.0015147813 0.0030864147 0.011419137 -0.0009718573 0.007221403 0.004999563 -0.002607026 -0.022636242 0.011121323 0.004667341 -0.0057790573 -0.009812774 -0.010480501 0.013955843 -0.02225011 0.008026163 0.010924636
spoke 0.019082172 -0.0114455465 0.013882384 0.0048962296 -0.0025648521 -0.008436824 0.0109355245 0.004024258 0.025317531 0.027429005 -0.0073806965 -0.016393373 0.005372241 -0.020702744 0.0034086416 0.019992739 0.006668283 -0.00095529156 0.00078420725 0.019973837 -0.0010661595 0.008142822 -0.0031951133 -0.0072767115 -0.011504818 -0.01893487 -0.0052533676 -0.011663533 0.0076888297 -0.02128221 -0.003319014 -0.0025291247 0.004339626 0.00094013824 0.0059934957 -0.004907356 -0.004142816 0.0114826 -0.008607458 0.008791324 -0.008925266 0.010585996 0.0054603796 0.0066330736 -0.0056912294 0.01690811 -0.003713501 -0.01820062 -0.02411423 0.003578634
States -0.007865916 0.0043751393 -0.0016123143 -0.01848021 -0.01746319 0.029684056 0.008781114 -0.000540746 -0.028299697 -0.009203017 0.014852308 0.00063806976 -0.017026983 -0.015288773 -0.0030041223 -0.010715887 0.003876911 -0.0064988164 -0.013216295 0.0023327128 -0.0020502314 -0.010692242 0.014522206 -0.005337617 -0.0027778707 0.030111348 -0.020090424 -0.0028337736 0.013218448 -0.001877579 -0.010904292 0.02161737 0.005120174 -0.004680618 -0.020270891 -0.008859577 0.009337912 -0.008726902 0.0016035386 0.007087524 0.0013629625 0.0038407962 0.021464461 0.0053264587 0.0034924762 -0.013720321 -0.0019557506 0.008646187 0.024678929 -0.01938044
buy -0.01266869 0.024367904 0.020211186 -0.0035816603 0.020629283 -0.014422256 -0.01784237 -0.001999514 0.002959218 -0.0022100578 0.00069320644 -0.00020351505 0.027961345 0.0019648948 -0.0060055815 0.002402844 0.013483176 0.00089507876 -0.0030268761 0.010929719 0.02384292 -0.00163095 0.0042315703 -0.008242788 0.0074473615 -0.011134297 -0.018739691 -0.006263449 0.0116793495 0.0069677313 -0.023853399 -0.007089385 0.02385415 0.017824423 -0.0019311091 -0.0071968734 -0.011251399 0.00656353 0.0065784846 0.019754935 0.0031581554 -0.010504701 -0.0064099533 0.0075145913 0.011834375 -0.014485615 0.015916957 -0.007589751 -0.015307177 -0.005139754
stated 0.04572565 0.02483961 0.021188717 -0.0023700139 -0.020037565 -0.003063113 0.004534806 -0.010935673 -0.0037711072 0.00035579386 -0.01872276 -0.00083074317 0.008627155 -0.0031966793 -0.01507123 -0.025774743 -0.02484909 0.030300835 0.018660555 -0.012104217 -0.00041022513 -0.0041301847 -0.059266694 0.02474377 0.03188757 -0.008061077 0.0112685235 0.029265719 0.049399447 0.009274864 -0.01806507 -0.0010691416 -0.010908567 -0.020078702 -0.0012385278 -0.009214461 0.004854833 -0.050757326 -0.022894671 0.0041841203 0.009095884 0.04312777 0.018266708 0.0071847383 0.025150534 0.010929482 0.009724732 -0.044729505 0.020116255 0.0107884975
percentage 0.038771585 -0.0029101104 -0.024573233 0.0025775163 -0.0075066243 0.016806623 0.00909441 0.00382547 0.024707325 0.033301964 -0.010985666 0.008830959 -0.004469567 0.012393651 -0.018385787 0.004045495 -0.011850218 0.020794133 0.023094537 -0.023552379 0.003196927 0.020131798 -0.016271438 -0.010167358 0.012742164 -0.0021911347 -0.0065695485 0.015113305 0.0019392904 0.0068044933 -0.00339573 -0.0005610693 0.012467613 -0.018371176 0.0022146911 -0.019352114 -0.014437441 0.009327506 0.0056436663 -0.017044893 -0.008132797 0.008091725 -0.017567689 -0.013436076 0.028795067 0.018889772 -0.00912043 0.018840555 -0.01632479 0.019391226
least 0.04409952 -0.024980893 -0.016566623 0.0014462512 -0.030574195 0.006471559 0.03752402 0.012548275 0.018815348 0.016436225 -0.0072051417 0.011418879 -0.009734737 0.013761099 0.00978036 -0.02757164 0.020570256 0.011755274 0.025906643 0.0063951043 0.016310055 0.0002633907 -0.011260213 -0.003260953 0.009417204 -0.0015098203 -0.03411216 -0.015273779 -0.0038158698 -0.03455002 -0.011495432 0.011734582 0.029803315 -0.009031989 0.007209624 -0.014409482 -0.0095411595 -0.024946919 0.013912808 -0.0067238137 0.0014027816 -0.013233528 -0.0018197157 -0.007903469 0.009698645 0.020362526 -0.021584822 0.012277907 -0.0024065985 -0.0038059114
believe 0.023490764 0.004947152 0.01059193 0.00111407 -0.0004941145 0.013430098 0.020847367 0.010289204 0.0010247517 -0.016101709 0.013820028 0.027390653 -0.006512745 -0.008316068 0.008423979 -0.0020336749 0.021570327 0.0031916588 -0.0007870023 0.020248959 0.010909863 -0.026548857 -0.008074858 0.006092573 0.012580167 0.010160639 -0.0060343253 0.0043576933 0.018755523 -0.0041401573 0.005142686 0.0019819294 -0.00190936 -0.0100409 0.0051973 -0.0066222087 -0.014620568 -0.010353895 0.01257163 -0.008940744 -0.0009577382 -0.0070953285 -0.009961655 -0.017597746 0.034971215 0.012711632 -0.0045934166 0.030556107 -0.015439027 0.014584086
counterparts 0.00788581 -0.022208018 -0.013363013 -0.017571945 -0.012337369 0.0054019205 0.031660665 0.015364515 0.015964685 0.009453484 0.0013227309 -0.009096936 -0.010821978 0.0038271027 -0.0041821585 -0.0047172494 0.0030583288 -0.014517403 0.02487401 0.009627574 0.023902958 0.0021586411 -0.008354902 -0.018887093 -0.015161777 -0.011166978 -0.0016468612 -0.0029514732 0.01512691 -0.0029114892 0.0013781711 -0.0029232309 0.008391549 -0.014944083 -0.00075346406 0.0047569317 -0.008611303 -0.0014501503 0.023295037 0.0035369184 -0.0002071019 -0.008076201 -0.009575156 0.0061139744 0.0022448762 0.027636584 -0.027787948 0.013463212 -0.007081687 0.018509168
permanent 0.062346544 0.09514715 -0.17063642 0.08716467 -0.0264043 0.004677496 -0.12997732 0.12884116 0.067689456 0.07237029 0.059269536 -0.04162764 -0.08851677 0.08593734 0.023654716 -0.06732324 0.0852508 0.014783527 -0.004794132 0.010576345 -0.103368126 0.07754757 -0.0011471263 0.021840712 -0.108845584 0.07795126 -0.03671242 0.029081332 -0.050400224 -0.114700735 0.043987684 0.11410538 0.023265526 0.05745869 0.032194886 0.023023166 -0.049970068 -0.09486322 -0.032974735 -0.027061874 -0.06675223 -0.0035517833 -0.03175041 0.0553898 0.00032578222 0.033928867 -0.057296723 -0.022588009 -0.12430436 -0.067327894
trying 0.016790288 -0.012096012 -0.0042544445 -0.007053011 -0.012234729 0.0063145193 0.018221414 -0.004591133 0.019478275 0.008840554 -0.0033262623 -0.00034842477 0.0051221815 0.025846535 0.008758319 -0.015303123 -0.00033146405 -0.010011258 0.02404812 0.018438712 0.027937157 0.019910224 0.0009832277 -0.0053008045 -0.0027546333 -0.0035001598 -0.0015500882 -0.017094592 0.0043992028 -0.015629964 -0.008501377 -0.00059208286 0.006007321 -0.008911415 0.025192093 -0.0026873546 -0.00526926 -0.0170123 -0.0061446815 -0.03498942 0.0018506154 0.0007831629 0.00027654966 -0.0066147624 -0.00589827 0.016231962 0.00017488131 -0.025327688 -0.015480055 -0.011858318
oil 0.008377481 -0.04076356 -0.015824072 -0.011692552 -0.022207238 -0.006299194 0.046912335 0.0019873867 0.04815178 0.00797632 0.00043903023 0.004239518 0.0151760215 -0.0110178655 0.012961339 -0.03445741 0.020190714 -0.01835124 0.059895646 0.028479991 0.007839389 0.023669027 -0.0075072874 -0.0031389135 -0.00766269 -0.0030343505 -0.021685809 -0.0264317 -0.0064375065 -0.025516225 -0.023452781 0.013475015 0.021040974 0.010497786 0.023495596 0.03719042 -0.020839263 -0.04312433 0.019199472 -0.012272736 -0.009620348 0.0028539086 -0.008642772 0.009419153 0.011761686 0.024440726 -0.017399978 -0.032834288 -0.022673972 0.005718116
Government 0.15617356 -0.012452259 -0.11968901 -0.0016819644 0.13182479 0.05987462 0.047322582 0.0019237854 0.13257192 0.016131444 -0.15005304 -0.046722483 -0.05098138 0.08739298 -0.0628305 -0.0008382664 0.061375976 0.037494257 0.009705926 0.11991734 0.115428194 0.018203098 -0.054106142 0.10002052 -0.123492874 -0.035728782 0.12404943 -0.014170553 0.021201884 0.015181151 -0.05247904 0.08724229 -0.002973906 0.06237337 0.09545985 0.11464583 0.041476384 -0.08718561 -0.029337842 0.039593652 -0.005981813 -0.13564986 0.035163924 -0.054431967 -0.010757867 -0.0058533065 -0.010846171 0.08858459 0.023163334 -0.057145227
economy -0.032756265 0.012354479 0.007369153 -0.016640093 -0.016738018 0.006192442 -0.046595782 -0.0101296585 -0.0053302934 -0.050814085 0.0019430991 0.039833523 5.056875e-05 0.020099798 -0.010419704 0.0007168994 -0.014390063 -0.0058868094 -0.016621077 -0.014667671 0.0044064666 -0.0067262184 -0.0072897687 0.036628757 0.030664911 0.022268314 0.019554414 -0.012177067 -0.0040205456 0.035876326 0.0022568805 0.0024299196 -0.056153484 -0.014601976 -0.017577665 0.035349593 0.049188804 0.021637725 -0.025931498 0.0012193006 -0.006545333 0.009532996 0.0105409715 0.028477116 -0.03923652 -0.012692801 0.023798656 -0.0021659962 0.022042068 -0.03234495
rejected 0.023706587 -0.018139064 -0.011540192 -0.023331176 -0.048744634 0.047124073 0.071896546 0.05511027 0.01344751 0.05048508 0.034499735 0.0017644928 0.0034470886 -0.0030689633 -0.0001924769 0.010467069 0.03975594 0.026581427 0.03139757 -0.025653623 0.03958583 0.006314331 0.0461624 0.0088872295 0.03901788 -0.008414526 -0.026917545 -0.021875285 -0.02186461 0.013485357 -0.034939107 0.014663982 -0.023593469 -0.022107864 -0.003457293 0.025484353 -6.3718995e-05 0.016150763 -0.019114975 -0.019039098 -0.04621223 -0.020170636 0.0077391593 -0.050661378 0.052097943 0.028353542 0.0039779665 0.010675653 0.0020879928 0.015600859
parents -0.048908558 0.040515162 0.023961985 -0.013010439 0.038594976 -0.02786145 -0.080457814 -0.005526609 -0.068197265 -0.054337356 -0.027168408 0.010488757 -0.058470774 0.029235141 0.029267423 0.031081537 0.013057744 0.025113015 -0.034387324 -0.029146038 0.0034533797 -0.014517013 0.029556546 -0.018581027 -0.038146313 -0.00097110856 0.040286034 0.017291563 -0.03952786 0.042305265 -0.0068881796 -0.002568279 -0.011060423 -0.014920377 0.03056457 0.017285798 -0.049660154 0.008429966 -0.024347076 0.04043645 -0.019826604 0.009169967 0.0012512084 0.037552435 -0.10323797 -0.008315083 0.025543291 -0.028224947 0.010855544 0.03251047
part 0.013671644 -0.025542714 -0.0062493766 -0.012490198 -0.018589232 0.035871107 0.01812385 0.02109741 0.006984957 0.02231856 -0.017385438 0.024867086 -0.0013390897 -0.00072709005 0.004159129 -0.008052217 0.019089358 0.021461781 -0.0022564144 0.014507189 0.031154921 -0.010444321 -0.02865541 0.0028237756 0.032267038 -0.013366692 0.005077153 -0.0001254133 0.008321575 -0.0361489 -0.011410376 -0.008916463 -0.0035698721 0.00588898 0.005553482 0.011128703 0.013168303 0.0026541075 0.0030437734 -0.031914353 0.014337596 0.0037317914 0.007287999 -0.017025128 -0.032122776 0.02031794 -0.008327476 -0.005780753 0.007633686 -0.0077862646
means -0.02049513 0.0133016845 0.010933972 0.01659656 -0.010186993 -0.0065567 -0.02578511 0.02202923 0.0035506054 -0.0041523944 -0.0063458257 0.01944159 0.018760948 0.00020246755 -0.026400553 0.005319874 -0.02567751 0.028643893 -0.042914752 0.011525342 0.0077788075 0.039400846 -0.015360315 0.003143977 0.036053393 0.016019538 0.008672611 -0.038631875 0.0018894448 -0.001800508 -0.021859173 0.036041126 -0.01925502 -0.010982478 -0.028162027 -0.035148665 0.012870197 0.0031320343 -0.00043102918 0.002485279 -0.025662795 0.0047522383 -0.025179142 -0.030592363 0.0024910716 0.022055125 0.0544704 -0.031661157 0.014558712 -0.03668774
tolerance 0.026020387 -0.008098964 -0.01783831 0.004123763 -0.022705281 0.014776996 0.03243902 -0.0059953006 -0.003806556 0.01403333 -0.007701516 0.0030312513 -0.0033792797 -0.014443172 -0.008245603 0.010318805 0.027488058 0.01258131 -0.03860905 0.026028905 -0.019222083 -0.032952487 -0.026828233 -0.0024409974 0.0010727248 -0.0078010317 -0.005089106 0.009484991 0.012178519 0.00174561 -0.00249166 0.009714551 -0.009765612 -0.0020083296 0.011221508 0.014504234 -0.00019141322 -0.0029167433 -0.016730681 -0.012056311 -0.02182763 0.019342655 -0.0008101848 -0.038300768 -0.04302766 -0.0032350603 -0.0040894304 -0.017205292 -0.006931752 -0.01841701
attempts -0.035419464 -0.002327686 0.01781679 -0.015262054 0.0146786375 -0.01567738 -0.01147165 -0.0051221135 0.013703851 -0.020215085 0.01031017 0.0047514634 -0.0060891635 -0.0093088765 -0.012073271 0.021791976 0.009149631 0.012736398 -0.02537899 0.016629359 -0.030332588 -0.01193741 0.0021366747 0.006535067 -0.015246125 -0.013587582 -0.02228827 0.006774112 -0.002497683 -0.0075441045 0.010161618 0.0014404996 -0.005169517 -0.0021309438 -0.0081740245 -0.005864638 7.857336e-05 0.004419849 -0.010848339 0.017270118 -0.007928168 0.019918974 -0.006271755 0.003781528 -0.0019564333 0.003068558 0.016571613 0.0003246356 -0.0009934092 -0.010843942
writers -0.02231736 -0.0025429728 0.03389463 -0.0043044267 0.005966396 -0.010824706 -0.016875735 -0.011770266 0.0027881255 0.011620715 -0.0036062559 0.010442552 0.0011264809 0.0039567314 -0.0018961519 -0.0073267114 0.009928668 0.0008259084 -0.006886956 0.0042542247 0.021107044 -0.009949567 -0.0047866087 -0.016137136 0.0032892877 0.016382532 -0.0151184 0.00231518 0.008306668 0.010336677 -0.01636061 0.009255468 -0.031029785 -0.011444374 -0.012500496 -8.9184934e-05 -0.006234814 -0.021723814 -0.0040109484 0.011360658 0.008041509 0.006293173 -3.2485405e-06 0.0062973937 -0.0022376443 -0.008155607 -0.006111985 -0.0029503312 0.0030529723 -0.012192265
things -0.06813988 0.02587184 -0.009187503 -0.013971339 -0.00826748 0.041431487 -0.12565948 -0.0061961925 -0.07764005 -0.03010666 0.015094444 0.017072422 -0.05409747 -0.035312522 0.071896784 -0.008102555 -0.002114763 0.020034922 -0.05996991 -0.045556065 -0.024678487 -0.022409447 -0.0014912913 0.015296701 -0.031608954 0.052715667 -0.09551349 -0.045528132 0.021850063 -0.0814747 -0.057253532 -0.116264656 0.0051365155 0.029582195 -0.040608134 -0.04483598 0.042941626 0.019125145 -0.06113916 0.074094 0.112134725 -0.031203821 -0.04785056 0.12651491 -0.015734438 -0.031156495 0.030662913 0.020408727 0.03748759 -0.029106148
early -0.057826642 0.07964183 0.059341878 -0.029093655 -0.07340726 -0.023200888 0.016120581 -0.006011645 -0.025530461 0.01086321 0.020598913 -0.027802976 -0.037051212 -0.021331072 -0.06787213 -0.085145734 -0.11380169 -0.029603535 -0.0852024 -0.010046915 -0.019216234 0.017860362 -0.0580485 -0.0017116107 -0.015071543 0.019571658 -0.03850475 0.040500663 -0.0076704063 0.031725775 0.0031125066 0.015322611 -0.018566217 -0.003382778 -0.0348444 -0.031778388 0.024530388 -0.04657018 -0.04314881 0.0022676284 -0.037608515 -0.016191393 0.05068033 -0.035363026 -0.057291936 -0.034984868 -0.06369812 0.09456892 0.05137148 0.06773286
Parks 0.022714376 0.013954885 0.020520266 0.0059785466 -0.0014839061 -0.0165297 -0.07606626 0.028699173 -0.025625167 -0.03697145 0.023443274 0.0021086098 0.021100564 -0.039780285 -0.01618342 -0.000140524 -0.001362005 0.049840923 -0.015453174 0.0008524521 0.008661999 -0.02078301 -0.021859536 0.0038030727 0.0400569 0.03829998 0.010243714 0.041472483 -0.012529231 0.09748195 -0.018165622 0.016862389 0.017375993 -0.045043014 0.006981762 0.027177384 -0.014696719 -0.008959703 0.01084932 0.02646629 -0.0015705702 -0.025935333 0.00199393 0.00030845404 -0.037880275 -0.035427395 0.012225817 -0.007004531 0.022174552 0.015878757
moment -0.022901084 0.021467607 0.0011749397 -0.021294307 0.015593618 -0.009788528 -0.027335875 0.019244561 -0.0226587 -0.034193315 -0.008924155 0.030831069 -0.012933372 -0.009581022 0.00071360974 0.0045359447 0.022987006 -0.00641798 -0.00846423 -0.01690437 0.0025358761 -0.03290772 -0.0025843238 0.005057145 0.0063557466 0.006823623 -0.016021563 -0.0027395952 -0.0014182123 0.0018025403 -0.0042517413 0.0004145234 -0.01200673 0.000426088 -0.020357512 -9.669701e-05 0.0031754093 -0.010103153 0.013295452 -0.011015767 0.019486379 -0.006732677 0.018210102 0.006544681 -0.0034420937 -0.014155023 0.006029853 0.005517055 0.019249186 -0.009222228
seasonally 0.029662292 -0.009033879 -0.018208912 0.011644933 -0.014533902 0.0041526705 0.028064083 0.014917775 0.027803326 -0.010989533 -0.004434692 -0.0033085267 -0.0061027566 0.0065993546 -0.009633871 0.012899894 -0.019776503 0.0046954006 -0.01715715 0.0017456757 0.011171798 0.00018951134 -0.034238886 0.0048562456 0.0018132532 0.008395381 0.0021631722 -0.011890862 0.03149626 -0.010145587 -0.010372858 -0.007929501 -0.01020128 -0.015995689 -0.003766374 0.02457113 0.0046543516 0.0025398075 0.00936915 -0.015995663 0.008995652 -0.020895464 -0.010185009 -0.0027902368 0.0040577655 0.032647293 0.012116402 0.0053396593 0.0017057708 0.040603552
Wyman -0.012057277 0.0034090865 -0.017566975 0.02102683 0.028450672 0.011448079 -0.0022302885 -0.007085475 -0.0010050881 0.0055398652 -0.00041586836 0.0032738338 0.01176288 -0.005966536 -0.0066235177 0.012965898 -0.021616122 0.0028122172 -0.00647506 0.0068100207 -0.016332082 0.004579214 0.0016885413 0.01123858 -0.003782833 -0.016200176 0.0066991346 0.025463963 -0.0019056136 0.009768871 0.011422121 -0.00077488925 0.0009443305 -0.0014632806 -0.0015750483 -0.00457795 0.0032760622 0.006063106 -0.0052488167 0.00447016 -0.0023676732 0.014357277 -0.0017039347 -0.013007417 0.0005336652 -0.0062792227 -0.014067762 0.010679984 0.014650129 0.0032622248
Confederation -0.0061157583 0.023141094 -0.0065219663 -0.00554427 -0.0034308392 -0.015545255 -0.0568514 -0.011845336 0.0028184445 -0.034184508 0.00096994394 -0.0006798673 0.0083025405 -0.008512703 0.0035817574 -0.004979426 0.01698785 0.009430621 -0.0014959768 -0.019615935 0.019987222 -0.015191034 -0.0044839475 -0.017121237 0.005224026 -0.0013571541 -0.008757063 0.0066348338 0.014410341 0.016127808 0.00048689358 -0.00097385887 -0.009539856 0.025676021 -0.025083484 0.010230698 0.010169894 0.0035397573 -0.011860774 0.0129367 0.040310584 -0.0010593921 -0.004722204 0.017727902 -0.011901073 -0.04945741 0.011866048 -0.026119284 0.010675628 -0.011784291
Don 0.015174582 0.0005580266 -0.015670013 0.03550371 -0.066767946 -0.029618418 0.032741874 0.015862063 0.0025730454 -0.0766719 0.011741129 0.04254336 0.0064152163 0.026109312 -0.04893209 0.105102815 -0.009302523 -0.12277406 0.059530184 -0.012052356 0.0039120256 0.016207779 0.08083459 -0.028088192 0.034466866 -0.08825377 -0.01686546 -0.041289214 0.044103656 -0.05093395 -0.016335513 0.10735594 0.0384617 0.038921446 0.06891696 0.076360546 0.0617089 0.036682665 0.00076786324 -0.063614696 0.053878725 0.012492035 0.07002844 0.075833164 0.06640047 -0.086893626 -0.09124583 0.0037700166 -0.032337368 0.0503938
throats 0.0084761325 -0.0037030235 -0.008485237 -0.022637283 -0.024482477 0.015930945 0.01935464 0.009670194 0.030316515 0.0005305668 0.0016205965 0.007718958 -0.0071660066 0.011465146 -0.0074428935 -0.023057263 0.0075467434 0.04021733 -0.013936241 -0.00539948 0.034667287 -0.007559742 -0.028711952 -0.012648388 0.0217263 -0.007878803 0.0064034928 0.020817388 0.018440424 0.007870704 -0.014760836 0.0022296426 0.019167176 -0.021998364 -0.016756931 0.0052611553 0.036857434 -0.019587982 -0.004103316 -0.025658166 -0.006433284 -0.018248817 0.016499521 -0.04362447 0.0140853645 -0.018774904 0.0046337484 5.708239e-05 0.014256358 -0.023585057
supplementaries -0.014582367 0.0054862346 0.00421976 0.012116593 -0.00013919524 -0.022388153 -0.010136847 0.0018632009 -0.014098899 -0.011297536 -0.010319161 0.002484858 0.04408238 -0.014690878 -0.013770389 -0.031423107 -0.0049770325 0.00222661 -0.022209808 0.025525073 -0.013106553 0.027250646 -0.02936219 -0.007821358 0.016659021 0.015098865 0.006504978 0.002384602 -0.02280002 0.012512381 0.031142876 -0.0037552188 0.018030958 0.007526138 -0.011679317 -0.00017036288 -0.009121402 -0.01100027 0.042889398 -0.0021705204 0.018485012 0.0012392659 0.0034811753 0.003952083 -0.040782426 0.028645376 0.028945208 -0.00388797 -0.0071097147 8.111459e-05
Expansion -0.030939773 0.020676829 -0.0019143401 -0.009739475 0.003605093 -0.002223988 -0.043500446 -0.0009769278 -0.013416796 -0.035580732 0.0150623815 0.0022428264 -0.020201657 0.01214068 -0.004896459 -0.022803856 -0.024664171 0.005026374 -0.008293405 -0.03635034 -0.024248444 -0.009438868 -0.012134096 0.012654171 0.01054227 0.030053737 -0.01997637 -0.017925665 -0.007857125 0.011774108 0.002756307 -0.0017282004 0.004292647 -0.009420897 -0.030504292 0.0039524315 0.029953387 0.0068640457 0.01976879 -0.0007369375 0.0029640673 -0.008341989 -0.02046518 -0.016725088 -0.010367532 -0.031627223 -0.010137393 -0.015700784 0.020696914 -0.031924367
enough 0.10679038 0.02272335 0.01659267 0.026586583 -0.01817374 0.052128185 0.020701729 -0.04144853 0.07754939 0.004169435 0.056425028 -0.009255435 -0.051377725 0.0033263224 0.043904036 -0.03619122 0.03990503 -0.04778097 -0.0199674 0.0088629685 0.0029071723 0.018125359 0.08869518 -0.061353914 0.01312141 -0.12613787 -0.047692362 -0.0019252666 -0.075084195 0.038419586 -0.0893577 0.06321081 -0.0094390195 0.04416963 -0.019488642 0.053691823 0.02153214 0.011888857 0.058875762 0.037553426 -0.09640495 -0.11815291 -0.03073309 -0.029505627 0.045291945 -0.039441172 -0.012829843 0.092809655 0.11427247 0.023509096
responsible -0.0015559924 -0.0025860074 -0.0019348627 -0.008430213 -0.011187039 -0.0011640383 -0.0021049029 -0.0057306206 -0.0009559676 0.0017293398 -0.009047168 0.0012446982 0.00667044 0.0121309 -0.012136234 0.01979649 0.003647307 0.0060480093 0.033735108 0.0171668 0.008106118 0.02333471 0.01495547 -0.00803288 -0.015139944 -0.012465164 0.008402928 0.005901469 -0.01749241 0.0026938336 -0.0041729254 0.021933556 0.0054400763 -0.016118174 0.0020921456 0.012584631 0.0069619943 -0.005969993 -0.004397062 -0.0144022 -0.0073326607 -0.00425137 -0.004811256 0.018604634 0.0077078016 0.021950273 0.011931687 -0.001968264 -0.010489608 0.00030019262
lesson 0.024002178 0.0076150643 0.0061739567 -0.013431088 0.005642996 0.009030412 0.0031644306 0.0067650992 0.010073597 0.013086218 0.030676896 0.0077894027 -0.02113628 -0.009968517 -0.011221298 -0.00036956934 0.02268922 0.010752401 -0.00409571 -0.02470587 0.008149896 0.0100115985 0.009145336 -0.01190085 -0.024741914 0.010716204 -0.022426253 0.029473783 -0.028319577 -0.025612839 0.020971967 -0.0079733385 -0.0057431185 0.0145443035 0.0057014213 0.014995127 0.010893608 -0.008101388 0.02369666 0.012152061 -0.014454735 -0.009465251 0.00024409691 -0.002946075 0.018783094 0.0151770115 -0.015425078 0.019253658 0.0089440895 0.04636297
use 0.0037412716 -0.020454396 0.005146796 0.016666502 0.0031612755 -0.01041814 0.010216318 0.0062692147 0.021621618 -0.015454039 0.03033986 -0.0026426557 0.025744377 0.019605622 0.0059426026 -0.0023130802 -0.0089380415 -0.024276512 0.0126985535 0.021351079 -0.0077375052 0.022350878 0.004121174 0.0034250664 -0.0026551473 0.0068122386 -0.027706996 0.017593032 -0.006906528 -0.004088166 0.014962021 -0.00048969546 0.0046128123 0.012231242 0.017976824 0.020507395 -0.00029592728 -0.011800535 0.004044024 -0.007874042 0.010309151 -0.009785701 0.00884966 0.01165627 -0.019205783 0.0025040805 -0.008625375 0.026991548 -0.013843749 0.018374356
seems -0.004837623 -0.008569631 -0.003931902 -0.014471691 -0.02051318 0.0063924845 0.0031340534 0.035352577 -0.015138419 -0.00068011624 0.010412293 -0.0031419848 -0.012234239 0.0014175886 -0.020805972 -0.0055700717 -0.004565647 -0.014074502 -0.0063972683 4.3398002e-05 -0.016747035 -0.01317003 0.0066878847 -0.0048161177 0.023626376 0.0064388844 -0.0059251767 -0.003989209 -0.014735344 0.00021900679 0.00784478 -0.006473705 0.0015961543 0.00084085437 -0.0076418365 0.017932802 -0.0057877535 0.012957769 0.0035355159 0.0075203213 -0.021953322 -0.0063101244 -0.020869559 -0.007457629 -0.019525303 -0.00017452089 0.0041266573 0.01481986 -0.007389989 -0.011243507
program 0.0429025 0.09067131 -0.0508478 -0.045435406 0.016856581 -0.004578584 0.023808794 0.10890558 0.06406237 -0.011321556 -0.041056838 -0.02277622 0.08025169 0.14976715 -0.007977565 -0.004317729 -0.014874961 -0.025978116 -0.091820635 0.052403674 0.08910062 -0.030186791 0.06450955 0.041438624 0.014681274 0.047542382 0.02669826 0.12879044 -0.026944421 -0.0059770155 -0.08700906 0.10154236 0.07242004 -0.056940123 -0.0101167075 0.037149943 -0.014870856 0.025423497 0.047379293 0.03096491 0.10925601 -0.032253947 0.084569104 0.036338743 0.115325905 0.046385307 0.025864918 0.031217912 -0.0021773998 0.010457059
elderly -0.030557847 -0.047164783 -0.009454524 0.0054295827 0.042141166 0.029314972 -0.09807301 -0.037328586 0.0260547 -0.03346252 0.042034008 -0.022241967 0.01711878 -0.097202234 -0.017071398 0.016818665 0.051678862 -0.020815289 -0.0061001014 -0.027958995 -0.05517849 -0.056710575 -0.07440611 0.08186421 -0.019421289 0.03889114 0.003435818 -0.006212348 -0.018489726 0.055239182 0.010671989 -0.025323033 0.028845679 -0.014448056 0.0022510332 0.041689225 0.038136866 -0.05649807 0.017978752 0.03677455 -0.053898823 0.0689987 0.039029144 -0.011738316 0.047279034 0.07166598 0.023108255 0.02496248 0.10462871 0.00881576
content -0.02615144 -0.0113483425 0.01292189 0.0004079122 -0.0033230148 -0.004924215 0.009989686 -0.009539222 -0.021058554 -0.025398728 -0.014135909 -0.0008951402 0.008789196 0.008284086 -0.0031760926 -0.013313464 -0.0016485795 0.013041101 0.0022977411 0.0009967842 -0.012277952 0.005158785 0.020572595 -0.00032574637 -0.011654693 0.012507834 -0.017761301 0.007957423 -0.026497375 -0.0045384592 -0.005444715 0.0016408938 -0.006741215 -0.002760243 -0.0060834675 0.0032521184 0.0049412968 0.011063992 0.010109835 0.014801363 -0.015137187 -0.0044264207 -0.009385296 0.018937873 0.0059733093 0.000600687 6.630883e-05 0.001550261 -0.0033586074 -0.01715674
experts -0.026329726 -0.064176485 -0.0019483474 0.028767634 0.03057378 0.009985752 0.05033015 0.007052369 0.02673792 0.035492335 0.016304612 0.05391003 -0.011801555 0.018833341 0.03352084 -0.03910023 0.010433411 -0.021741007 0.018337708 0.00774081 -0.030640028 0.014659013 0.018594846 0.0044327513 -0.018479187 -0.008253645 -0.030310214 0.0073862276 0.0082781315 0.0032637361 -0.011173683 0.031885564 0.017376872 0.018636612 0.01143668 -0.008868514 -0.002620514 -0.019227501 -0.011160886 -0.00021695951 -0.019953758 0.014902212 -0.008520676 -0.030462343 -0.052189566 0.022802379 -0.00305419 0.017586784 -0.04991606 0.00497726
handling 0.0012460931 0.045724165 -0.060836796 0.0059920936 0.0017943576 -0.056985166 -0.05979736 0.018160429 -0.012077229 0.007428159 -0.038317353 -0.01957508 0.006944977 0.030798675 0.0142062865 0.0068716947 -0.009398248 0.00010399021 -0.020209655 -0.01933127 -0.040960085 0.03841145 -0.053092483 -0.052501537 -0.0340099 0.016304253 -0.0034616427 0.035876766 0.03224206 0.018610202 0.046734553 0.025929991 0.02767231 -0.013193743 0.015647678 0.016606074 0.058293365 0.021157462 -0.0054879915 0.021553485 -0.017110594 0.027643573 -0.051049966 0.038542267 0.016554372 -0.028960833 0.02487384 -0.033646632 0.02769486 0.0045554945
splitting -0.0105179995 -0.044122003 -0.03356436 0.0008090449 -0.007594622 -0.023027053 0.026829727 0.025315817 -0.001810998 -0.006648989 -0.0027082735 -0.009392841 0.021189943 0.01929339 0.014370732 -0.023349585 0.062376242 -0.009865649 0.02300258 0.012724359 -0.008251713 -0.022992859 -0.0026206565 -0.009856047 0.005015133 -0.030849645 0.015875388 -0.043563932 -0.0046235803 -0.01576892 0.002636489 -0.030578129 0.0126892375 0.035553664 0.028120918 -0.004852971 -0.021528317 -0.0033561704 0.0033528488 0.0025172974 0.002953813 0.00096666126 0.013522547 0.022136204 0.005077906 -0.014815398 0.016132431 0.0090332115 -0.009321602 -0.0002284665
overproduction -0.059069615 0.0068377634 -0.041801855 0.014289199 0.02477622 0.0022013122 -0.01590807 -0.057569392 0.01891004 0.019376518 0.013884523 0.08429416 -0.035235092 0.06816316 0.09452849 0.0003928614 -0.08382421 0.019473983 0.06591727 0.06494223 0.026700769 -0.03635372 0.023993919 9.7726064e-05 -0.033715643 -0.06314105 0.05070203 0.010442346 0.024167337 0.005808341 -0.03404263 0.007943221 0.0723839 -0.0031158356 -0.02215395 -0.114876494 -0.072331026 -0.031284068 -0.07152269 -0.055673838 -0.021665996 -0.009566001 0.018796373 0.012130343 0.0022816113 -0.06768916 -0.013451656 -0.00076190085 -0.048112195 0.0453674
225,000 -0.02926757 0.0129798055 0.013655981 -0.00709942 0.008366467 -0.023586098 -0.04994348 -0.008283043 -0.01156356 -0.00513009 -0.0001262289 -0.0054247524 0.0023410346 -0.011812177 0.015062396 0.009933611 -0.0093901735 0.01197025 0.0034576892 -0.030572653 -0.03774906 -0.020087538 -0.0022228463 0.0100324815 -0.008241858 0.023512762 0.008284583 -0.018041354 -0.024129739 0.016675945 -5.8910344e-05 -0.008735217 0.0028440047 0.014137278 -0.00951028 -0.005694201 0.009372068 0.0019291458 0.00979686 0.001714391 0.00102724 -0.0023857737 0.004411567 0.005887907 -0.024240483 -0.019382488 -0.0010570235 0.012049296 0.014954834 0.0027703163
trend 0.017994687 0.009633638 0.0036595152 -0.009336062 -0.016774118 0.006393189 0.0019468823 -0.0053702258 -0.019947642 0.009191243 -0.028848192 -0.0069885068 -0.0021881838 0.0060370457 -0.007298595 -0.0135859335 0.00053798116 0.041177765 0.023140943 -0.015965069 0.008505505 -0.009574385 -0.016659718 -0.014687602 0.0007452377 0.0006533394 -0.001267622 -0.004221919 -0.01694968 0.013498308 0.0035751013 -0.013733161 -0.0074684774 -0.0022966969 0.004940918 0.00034911535 -0.00462874 -0.0017524951 -0.00603471 -0.0042653456 -0.0082921535 0.013964887 -0.006570141 0.0038946206 0.002286597 0.019779658 0.013807231 -0.008491663 0.0039151236 -0.009114689
proposing -0.018581126 0.02056428 -0.0044741007 0.0029723542 0.024620928 -0.008218888 0.005469116 -0.01334827 0.014938936 0.011607086 0.0048381733 -0.023719978 0.017207963 -0.016322583 -0.01781182 0.014860158 -0.036160037 0.010947708 -0.03604983 0.016955458 -0.019749448 -0.0017713987 0.003145766 0.015146226 0.013316627 -0.016155532 -0.007678752 0.0067165336 -0.008808267 -0.0042552054 0.030188413 -0.00092627155 0.009622479 0.0011692919 -0.014888588 0.01837832 0.006483658 0.0022419312 -0.0055092247 0.011336971 0.011618727 -0.016657013 -0.005024504 0.013057149 -0.0041591395 -0.01780837 0.007503495 0.022128254 0.026312543 -0.0027658716
diversified 0.021573879 -0.019011054 -0.004562582 -0.012879223 -0.0147470515 0.017592955 0.025273798 0.006219568 0.005132651 0.017375337 0.009360629 -0.010798977 -0.014465991 0.007147005 0.0056138155 0.0039371443 0.005009608 -0.0081454385 -0.0069597787 0.015172989 0.02436406 -0.018772071 -0.0010459578 0.013112995 0.009231028 0.00916785 -0.014272648 0.025999395 0.011113034 -0.02043446 -0.0011498933 -0.027785502 0.008937848 -0.00039947976 0.006547925 0.015346283 -0.023999097 0.010262083 0.0011924027 -0.013945373 0.001987093 -0.00989346 -0.010237732 -0.019745942 -0.0019175919 0.011457991 -0.028507873 0.020627823 0.016769536 0.0026020436
readily -0.006226499 0.007497512 -0.0068692495 -0.007863173 0.017340904 -0.010036979 0.0026397477 0.0060937083 -0.0021247105 -0.011399666 0.007191301 0.003706212 6.970117e-05 -0.015500603 -0.00074664934 -0.014933557 -0.0040752306 -0.0007112508 -0.008149549 -0.015312653 0.024275867 -0.0016338931 0.0066414825 0.015852496 -0.01892561 -0.018494718 0.00245631 0.012353684 -0.011836253 -0.01197947 0.037215278 -0.01241063 0.009976351 0.023367546 -0.019804401 -0.0026529208 0.012019982 0.005813435 0.006929369 0.0036570735 0.023530936 0.0076136566 -0.02221029 0.0004655273 -0.008889319 -0.0071841744 0.0016371809 -0.006312229 -0.013346715 -0.015902437
provincial 0.010596401 0.005819101 0.010448404 -0.006254876 -0.015722292 -0.011470467 0.027948597 0.021134375 -0.00039574728 -0.0012027107 0.004043487 0.0027251851 0.00031020486 0.0032024747 -0.026502833 0.006670842 0.025888368 0.0018858472 0.007548074 -0.0032608428 -0.021465117 0.0073936917 -0.0074842214 0.0009180056 -0.0011112457 -0.010897807 0.009472283 -0.0014899031 -0.014315634 0.002138996 -0.0015690955 0.0060006278 -0.00205157 0.014918131 0.00027126953 0.013938804 -0.0071240393 -0.00903652 0.009700736 0.007939415 0.010949044 0.007773929 0.006085594 0.008772081 -0.012446694 0.020622438 0.0036866143 0.00319646 -0.0127760805 0.010198252
detailed 0.0018530504 -0.016865414 -0.00094616535 0.0012829285 0.013487555 0.026078532 0.009303542 0.024096364 0.022359084 0.042173225 0.03325174 -0.00045035584 0.008322792 0.013551709 0.0058287806 0.0034697773 -0.0052418294 -0.0057538813 0.014676128 0.008914202 -0.0064359843 0.02506175 -0.012723685 -0.013947849 -0.017150603 -0.018031763 -0.006677066 -0.01637827 0.039574247 -0.009856952 -0.008414755 0.0039451825 -0.0047841463 -0.0050490014 -0.016571317 0.023141216 0.015660312 -0.03306491 0.014623049 0.004325837 0.006779588 -0.008170105 0.013215738 -0.00895562 0.012198347 -0.014228498 -0.0073966 0.0032187118 -0.022616953 0.016438318
sexual -0.011228299 -0.018996222 0.0059020463 0.0043168426 -0.013549678 -0.010732438 0.006766021 0.016261725 -0.0039537232 -0.0037833308 -0.009441613 0.0067706257 0.0064371265 -0.007094495 0.003313576 -0.013456052 -0.006058079 0.005033519 0.017556868 0.013826799 -0.008902411 0.009708827 0.012332208 -0.002752392 -0.015475987 0.0027287942 -0.012003072 -0.015136474 -0.017097672 -0.009834506 -0.022304105 0.023801671 -0.015521187 0.0007368147 -0.004690385 -0.008694037 0.007529221 -0.01068722 -0.0035444442 -0.008525772 -0.017788097 0.0067258924 -0.006219778 -0.0028604479 -0.017066516 -0.0008398501 0.012289464 0.00042131322 -0.013102198 0.0011262475
12 -0.042051777 0.058763206 0.021232065 0.016760554 0.03360456 -0.030602047 -0.058930043 -0.027741767 -0.05894809 -0.059892364 -0.0055367914 0.0047542877 -0.0069413884 -0.0020122034 0.0053412165 -0.022460744 -0.024109263 0.03174617 0.046609093 -0.023798337 -0.024018364 0.04038307 -0.025390627 0.044913072 0.004817706 -0.015611918 -0.0004261525 -0.025145723 -0.030507803 -0.035318617 -0.0012735992 0.0045954566 0.037364837 5.7588564e-05 -0.1141527 -0.0042957375 0.0021748021 0.016784724 -0.004490943 0.0067851488 0.07427893 -0.044467993 0.048632316 0.036316913 -0.058495518 -0.031172084 0.019340023 -5.7497527e-05 -0.033344127 0.062654115
Alliance -0.014065685 0.00033656287 -0.016199302 0.015914377 0.01684018 -0.0041823937 -0.044616293 0.0059874556 0.0020111047 -0.0043784245 -0.00444473 0.0011430363 0.0352293 -0.013336199 -0.006280806 0.0041419435 0.0004572064 -0.00013686332 -0.011208 -0.015320675 -0.01797347 0.0004998241 0.009225277 0.0048308214 0.0011551386 -0.0059598847 0.026703365 0.014267512 -0.0057870233 0.0010992949 0.010682511 -0.010057066 0.021516606 0.026127802 -0.018329388 -0.009160183 -0.0036704678 0.020833287 0.004141401 0.018368373 -0.00013741311 -0.02572439 -0.0057899393 0.022105705 7.691624e-05 -0.012278799 0.017040452 0.0023757808 0.027875729 0.011984489
stupid -0.0065626833 0.00050351245 -0.006476652 -0.014934412 -0.0023735175 -0.01724327 -0.03309412 0.0061234105 -0.025336262 0.004366689 -0.022983517 0.0063213715 -0.0059235664 0.0007643035 -0.0053620287 -0.01821126 0.026195068 -0.0349444 0.0066995616 0.0069853044 0.022791991 -0.016244896 0.023185126 0.009128312 0.041802526 0.021375414 -0.0011130887 0.013109775 -0.0082904035 0.0033301115 -0.0045175124 -0.0076584904 0.0103277 0.018639455 0.008681667 -0.02587677 -0.008028998 0.0250127 0.0063678604 -0.013217576 -0.056717567 -0.0029509957 -0.017290384 0.01116329 -0.0016231365 -0.028100321 -0.04134171 0.029693952 0.019414525 -0.022157148
December 4.5504654e-05 0.0071513276 -0.01748726 0.018774534 0.009998816 -0.013472413 -0.019259544 0.012498638 0.004221174 0.004696772 -0.0059307623 0.024170179 0.018542968 -0.00727065 0.0042870264 -0.026128108 -0.0064423876 0.00057344674 0.007830228 0.0011061842 0.018752538 0.01121008 -0.0033570183 -0.0032671501 0.010549966 0.0063251476 -0.013469015 0.017745212 0.018738493 -0.0020895395 -0.0013812149 -0.0034943991 0.012710118 0.017869197 -0.008342271 -0.016244404 0.0038741818 -0.007287226 0.0013235288 0.028395472 -0.0007617779 0.0040831533 0.02108165 -0.0011340319 0.0034654986 -0.03358714 0.0008452787 -0.0031072726 -0.010950337 -0.0057774214
hurry 0.036053725 -0.003747223 -0.015665667 0.012899396 -0.016787322 0.012403754 -0.023699006 0.0222718 0.017138403 0.017115744 -0.0022413535 -0.0025705777 0.000842826 0.0079843225 0.0070294216 -0.016800875 -4.8732705e-05 0.007743183 0.010246638 0.00055210193 0.009863357 0.00035423378 -0.0012045706 0.0035181355 0.007493307 -0.009065963 -0.005417258 -0.009478686 0.005757446 -0.020623902 0.0047428026 0.022407662 0.021137105 -0.015821738 -0.0126840165 0.0011197757 0.011590998 0.011872321 -0.010487636 -0.01406114 -0.0007510334 -0.019269913 -0.0057956874 -0.019030917 -0.0059405523 0.008100869 -0.014958892 -0.021846244 0.017163888 0.0025332677
necessarily -0.030863337 0.013327691 0.023757799 0.0040697544 -0.0042313524 -0.01971359 -0.022044651 -0.0046154065 -0.020999419 -0.015179658 -0.00794739 -0.0091107525 -0.0067087547 -0.002116539 0.0076242597 0.017939033 -0.021411285 -0.012825521 -0.011073347 0.0021171728 -0.03165843 -0.0108883055 -0.0027466652 0.031595293 -0.015193986 -0.008109061 0.0013726521 -0.0069320193 0.012878608 0.030191222 -0.0069357865 0.01818811 -0.021602646 0.0070730047 0.020016197 0.033181854 0.012618467 0.02443323 -0.005987641 0.022180278 0.011618385 -0.013904458 0.0093140025 0.037481856 -0.00966561 -0.025837881 0.021979101 -0.0032060926 0.027822778 -0.024391804
statute -0.00063522 0.004895581 -0.009034321 0.0035896993 0.02615685 -0.002435055 0.02229431 -0.019480916 -0.0064039207 -0.014210535 0.00048940297 0.0068131904 -0.006409687 0.011586496 0.010405905 -0.0075457892 0.014072758 0.0037481259 0.005962648 0.012975978 -0.0017007622 -0.014842837 -0.012496658 -0.010249772 -0.012715458 -0.014967714 -0.02630044 -0.002824813 -0.009375743 -0.031025393 -0.0118211415 0.0014373404 -0.015960058 -0.010883069 0.0011468783 0.0023514442 0.0062944144 -0.02397984 -0.030086191 -0.036161482 -0.003821646 0.010130872 -0.008590011 0.0018110055 -0.014422818 -0.008680802 -0.010158594 -0.012378951 -0.015512027 -0.0050415546
regarded -0.04205977 -0.011819086 0.021693649 -0.0046575195 -0.02395982 -0.023295058 -0.007004693 0.007046842 -0.023609646 -0.047962494 -0.0014255586 0.012669351 0.005405844 0.031343024 -0.0043452256 -0.009564837 -6.214867e-05 0.007898555 -0.009104946 -0.017805945 -0.06019344 0.019542856 0.00015578564 -0.014159437 -0.010924692 0.052850626 -0.003202585 -0.018055063 -0.042763148 -0.042071626 0.031302113 -0.0040465575 -0.013543639 -0.03565879 -0.046760257 0.037243176 0.024542961 0.00049848063 -0.014993375 -0.0029780592 0.022945337 -0.014590063 0.012175775 0.030473934 0.00618228 -0.009067135 0.049817983 0.044408813 0.020345598 -0.013224963
place -0.030786067 0.020467093 0.032539815 -0.038077634 -0.0011848924 -0.022532528 0.0013446695 -0.007349552 -0.04519939 -0.04497858 0.014923217 -0.021902328 -0.015589552 0.0013682786 -0.022968236 0.022579368 -0.016568528 -0.007815848 -0.03770329 -0.027996592 -0.019034697 -0.010933745 0.011794946 -0.010213253 -0.056762096 -0.0014366738 -0.0077424073 0.024227928 -0.006789453 0.0072469134 0.0022057332 0.0045889746 -0.045810446 -0.0030548049 0.005939644 0.034052696 0.032802533 -0.011507228 0.00048577783 0.02805122 -0.008305787 0.023992704 0.0021878376 0.015347382 -0.0029648882 -0.004825341 -0.020575196 0.021796925 0.0010778215 0.010996716
vital 0.0034915172 0.006326485 -0.020026887 -0.0133823715 0.010274463 0.0056794216 -0.008165844 -0.020129053 0.02405293 -0.0029702175 -0.004438182 -0.009194517 0.019789746 -0.016029531 -0.0022573832 0.001076135 0.011250729 -0.008662077 0.0074637756 0.008518486 0.022235736 0.0018055444 0.010393595 -0.004634561 0.010841947 -0.013683482 0.0029177796 0.004676134 0.020484343 0.0041508568 0.0031480496 0.0028917058 0.0018876416 0.0068007866 0.01096524 -0.021517953 -0.014431836 -0.00611274 -0.017306501 -0.0054614735 -0.0018301057 -0.013545151 -0.010232356 -0.011582696 0.008838894 -0.004369029 0.0054754466 0.016146898 0.0064334753 -0.028579101
claim -0.021982433 0.025629766 0.006334343 -0.0018719017 0.026050815 -0.012953264 -0.009194013 4.6437493e-05 0.006785685 0.010779751 0.017606134 0.00093938713 0.0016272177 -0.00030765505 0.020465272 0.0132426815 0.0052093035 0.0051501086 -0.021158852 0.0030336883 0.0052003665 0.010395397 0.004966906 -0.015443487 -0.017227542 -0.0009764752 -0.0062438417 0.043058436 0.008028633 0.00852961 0.016570533 -0.00024219428 -0.0016547889 -0.0036174008 0.006060226 -0.0147446 0.015868142 0.015947498 -0.009422839 -0.00091836695 0.0021683655 0.01570611 0.0039988672 -0.007719998 -0.0012082127 -0.025278157 -0.013882363 -0.0008686243 0.008100027 -0.003117904
C -0.06911441 0.036493987 -0.023139497 -0.033279616 0.013002959 -0.0067487615 0.031947304 -0.0251626 -0.022051606 0.012922497 0.01647612 -0.009273172 -0.023190401 0.018421976 -0.04354105 -0.018152688 0.056720346 -0.059490398 -0.054410525 0.06678157 0.07782148 -0.104715645 -0.012367591 0.022585908 0.046855766 -0.062259004 0.053493213 0.0056577194 -0.029133022 0.02655299 -0.068399236 -0.021712048 0.08532828 -0.023416031 0.029857507 0.07786886 -0.059833784 0.04228358 -0.055171784 0.0501484 -0.008889792 -0.0042546988 -0.04933725 0.00903915 -0.020465972 -0.0035115187 -0.0034516286 -0.013267109 0.03592244 -0.033226505
professionals -0.022762489 -0.013413516 0.015370138 0.007741477 0.0013665963 -0.0145196365 -0.024150962 -0.0013171505 -0.030688515 -0.008432273 0.006513888 -0.02632951 -0.017286869 -0.023754045 -0.009188281 0.023861099 -0.010333224 0.009948294 -0.025478136 -0.009013611 -0.036110394 -0.021708718 0.022155505 -0.009750629 -0.018326566 -0.014682288 0.012070788 0.022481747 -0.018228505 0.037634075 0.029222954 -0.0074470257 -0.027288318 0.019335024 0.007356511 -0.008540832 0.01472605 0.027541747 -0.024551762 0.01308123 -0.009526102 -0.0058795037 0.023580378 0.008490862 0.010151595 -0.020441059 -0.0069447085 0.010807068 -0.0017802948 -0.016330812
skilled 0.0070119966 -0.01328159 -0.082001254 0.054853406 -0.05526614 -0.031672087 -0.02905828 0.0025886786 0.10351652 0.051040076 -0.12092169 -0.010023211 0.009554366 0.027225895 0.02171965 0.035952978 0.099517174 0.081976086 -0.042968784 -0.06891322 0.095546454 0.09349075 -0.117118195 0.122374825 0.14099635 -0.054986913 0.010173428 0.08765109 0.033532497 -0.03474127 -0.047774322 0.07722453 -0.04951409 0.062435396 -0.060505252 0.15087584 -0.14174521 -0.12527929 0.01226873 -0.061181203 -0.030488925 -0.015229179 0.030684186 0.024001747 0.02833881 0.092249215 -0.043727 0.16953745 0.015176054 0.0005060958
analysing 0.0027315354 0.0077489596 0.09361473 0.03015606 -0.042037558 0.027730225 -0.16289751 -0.032586783 0.0496184 -0.005280593 -0.03207169 -0.000115751725 -0.002288262 -0.0567638 0.01956056 0.038618777 -0.006985759 -0.010081184 0.005637031 -0.0999247 0.015104164 -0.0040045264 -0.035647962 0.07459807 -0.049268626 -0.08219001 -0.04554575 0.015148612 -0.047608044 0.0058419914 0.05443395 0.053954322 0.033552445 -0.01916296 -0.082609355 0.01289333 0.019558465 0.02484883 -0.037922997 -0.04855603 -0.0061096977 -0.017242493 0.030239632 0.078415185 -0.09215975 -0.010940414 0.082779095 -0.056248292 0.023427371 -0.021251721
available 0.020016883 -0.04324594 -0.010442101 -0.0029845398 -0.008105318 -0.0017052329 0.043749306 0.000101605605 0.049382802 0.0062212017 0.014421111 0.013786123 -0.0084267575 0.017406277 -0.004392258 -0.00832291 -0.0015214637 -0.037242714 0.019623846 0.007591436 0.043261826 0.015143428 0.006041498 0.013829893 -0.022679228 -0.011251043 -0.009684292 0.023946939 -0.011880253 -0.038994968 0.009748187 -0.009226716 -0.011221731 -0.0013802107 0.008402566 0.016492587 -0.02783479 -0.004193576 0.022174375 0.0010162168 -0.014469387 0.011605176 -0.02649874 -0.0071781254 -0.007910509 0.025497742 -0.0026127298 0.0002702191 -0.0037189596 0.011632922
bailing 0.05250995 -0.032793324 -0.031514805 0.019778118 -0.025007531 0.014895076 0.037154656 0.04126176 -0.013749968 0.030614382 -0.020555114 -0.0034182984 2.3790111e-05 -0.004262344 0.041258164 -0.005477913 0.03709141 0.024398271 -0.019228345 0.03713536 -0.020660486 -0.016084101 -0.009987116 -0.036677305 -0.00095309335 0.0036052093 -0.03311362 -0.030262517 0.0125338975 -0.0063415556 0.0034047498 0.00025994767 0.027829709 -0.027249286 -0.02765048 0.022758193 -0.0067524966 -0.030289194 -0.014056462 -0.008386714 -0.019755611 -0.014185383 0.033123065 -0.020969208 0.0016881916 -0.00048186 -0.006601145 -0.022871284 0.0041244114 -0.0023717927
paid -0.06852582 -0.0061270166 0.016368471 0.023845892 0.0058546844 -0.028828988 -0.015771491 0.022622343 0.0010763662 -0.022735644 -0.03851797 -0.0025592628 -0.0071136397 0.023359638 0.005240242 0.0008303644 -0.0034772332 -0.0034343577 -0.02040406 -0.011402458 0.005664012 -0.034713887 0.004138846 0.011948242 0.00615817 0.022003286 -0.0022232267 0.00080656225 0.004889209 -0.012006789 0.029317115 -0.03362002 -0.050037187 0.024928031 0.0138687845 0.031460367 0.04501851 0.048100807 0.010903107 0.012389744 0.015242221 -0.005544119 -0.0047194315 0.023012485 -0.06886069 -0.031153318 0.036555618 0.0066538397 0.016640903 0.0014397973
technology 0.022874005 -0.000835705 -0.020300588 0.022871738 0.015988108 0.01389059 0.00557659 -0.00048412406 0.028473692 0.008739605 0.013901402 0.0051564015 0.0059732003 0.0038676425 -0.014387008 -0.00012714806 0.008512316 0.00044168852 -0.0062010502 -0.0058028037 0.03604494 0.015451588 -0.0077137733 0.001674991 0.03058208 0.005183704 0.007556324 -0.012007566 0.0014560518 0.008834677 -0.016535694 -0.009350505 0.012077784 0.020530296 0.005645896 -0.0065630726 0.00741385 0.0021889324 -0.005256024 -0.0058285063 -0.01662188 -0.001324402 -0.005948252 -0.02396025 0.026750982 0.002678697 0.0002534071 -0.006350996 -0.016845541 0.0022017462
advanced 0.033386186 0.013282312 0.024054088 -0.016273052 0.008111853 0.026472341 -0.06131592 -0.007067879 0.018171214 -0.015903594 0.033613976 -0.004470828 -0.035740588 -0.020074341 0.03170303 0.03363732 0.018322006 0.0143085 -0.016863277 -0.028613834 -0.009400971 0.011619663 0.06928566 -0.029647814 -0.045926433 -0.06651749 0.0142587405 -0.0045629092 -0.019156504 0.07685855 -0.04693102 0.0256487 -0.005309877 0.008220826 0.024442414 -0.053482063 -0.012026196 0.060919233 -0.0077973558 -0.0135860555 -0.017903944 0.0040486935 -0.008427805 -0.0776776 -0.04847148 0.0008001734 -0.06381342 -0.022392593 0.04857561 0.03180661
somehow 0.029903635 -0.033122484 -0.0006470343 -0.0013554551 -0.0015223261 0.011650229 0.052149355 0.010917438 0.004707574 0.016204264 -0.007820137 -0.006260641 0.009643479 0.024458895 0.008891188 -0.026657678 0.010605477 -0.0096971085 0.013897255 0.027843261 0.016681034 0.0025340281 -0.02346634 0.007816081 0.0048852134 0.008718552 -0.0011160887 -0.008595893 0.006498073 -0.016098522 -0.007994725 -0.021222262 0.0101592755 -0.0006577149 0.015641773 0.019703891 -0.010126827 -0.020307941 -0.0010039111 0.00030972704 0.009837587 -0.0037432134 -0.025624078 -0.007442956 0.007477147 0.044451274 0.010100288 -0.00713547 0.004663016 0.0069076256
funding -0.024758868 0.034588818 0.0032502594 0.01352192 0.014451195 -0.009772397 -0.039393388 -0.010177121 -0.009653112 -0.0038907928 -0.017228061 0.0002636148 0.0064740223 0.0046469043 -0.0008116406 0.021711513 -0.021186955 -0.001356463 -0.013000069 0.0142642 -0.012464396 0.013025822 0.0065153833 0.02241345 0.0064968835 -0.00038847083 0.003119817 -0.0015288715 -0.006231877 0.019548222 0.018076418 0.0019416243 0.001521949 0.004158439 -0.0028835353 -0.024230262 0.013773048 -0.003770092 -0.009721422 0.0062970924 0.010452946 -0.012009518 0.0008744752 0.0045865234 0.019655254 0.0064670295 0.024020648 0.0037470711 0.0012003721 -0.020829914
developed 0.024864009 0.09594137 0.17269057 -0.007170589 -0.02115447 0.0020629182 0.09136003 -0.12680487 -0.14695308 0.07093883 0.0059380075 -0.047075003 -0.054122753 0.117447905 0.07594352 -0.03882012 0.01123782 -0.066319294 0.013659304 -0.033437174 -0.10433044 -0.07243928 -0.03916187 -0.19163191 -0.14780818 0.07794784 0.13533956 0.046727914 -0.01480949 -0.13021791 -0.059127316 0.12968686 -0.04936156 0.020249074 -0.13878395 -0.11625526 -0.040137418 0.035575714 -0.037020996 -0.045182467 -0.038588636 -0.075301714 -0.013168129 0.039998107 0.02429475 -0.03608009 0.005786145 -0.09493841 0.14767136 -0.0015171712
us -0.009137056 0.010278482 0.00498361 0.020154856 0.0073812427 -0.0071729124 0.0017174416 -0.010853704 0.0060246615 -0.017644344 0.0068630762 -0.003866895 -0.014202781 0.0031398349 0.0028212743 0.011542064 -0.011099305 0.012995929 -0.009604702 -0.00037632813 -0.019260185 -0.0049055424 -0.0020159376 0.006635639 -0.005951345 0.0033972184 0.022474606 0.0073100612 0.0016956483 0.0018782509 0.0058773938 -0.002383235 -0.005613701 -0.011101454 -0.0078589 -0.0005252983 -0.0056539746 -0.0006004512 -0.014732684 -0.0030923663 0.000453157 0.026703468 -0.0051729623 0.0048733363 0.0022542998 -0.0036085816 0.014093526 0.0019323452 0.0043806154 -0.006035508
came 0.0056659393 -0.015344907 0.0028063804 -0.018578919 -0.010310552 -0.0156209385 0.0045210416 -0.005692552 -0.014991125 -0.025199572 0.0020699056 0.019021174 -0.005967379 -0.0020380374 0.00604371 0.00075934414 0.0032222266 0.0018849781 0.0060141734 0.0013908624 0.0003889957 -0.009434142 -0.008357599 0.0019323949 -0.02853279 -0.015504253 -0.0012620967 -0.0031741527 -0.008996116 -0.008474606 0.015811494 -0.00532327 0.0017640817 0.012875921 0.004785997 0.0018719959 -0.001439622 -0.0022150287 -0.015588184 -0.0125545645 0.0065759644 -0.0044771824 -0.0035009428 -0.0073814224 -0.016167203 0.0010810888 -0.013888348 -0.02036218 -0.00041802862 -0.024268057
performed -0.010948064 -0.025868934 0.018770529 -0.0028569284 0.008534141 0.014574166 0.018646253 -0.0016482655 0.019743675 0.022069415 0.001714483 0.033337086 -0.006362111 0.0058083744 -0.0074272384 -0.019359645 -0.01128001 -0.009283442 0.023443911 -0.020627715 -0.013471021 0.009818893 0.003010075 -0.00016695146 -0.0015161363 0.0023140716 -0.014796305 -0.010035221 -0.013040103 -0.023204334 -0.004202882 0.02374304 -0.016933288 -0.024322709 -0.014392501 0.0021500567 -0.009127384 -0.008078839 0.018011877 0.0075764623 0.011980518 0.01892224 0.015875753 -0.027362557 0.0012828636 0.026149902 0.003715101 0.0051475344 -0.0130425505 0.023091862
careers -0.0028143479 0.003807684 0.00057605014 -0.0016499038 -0.003797961 -0.018080108 0.0067170975 -0.0035573184 0.0052380515 0.002259642 -0.0006832759 0.026975174 0.012035833 0.0072094635 -0.019182337 0.009147508 0.009732826 0.012534887 0.0037897325 -0.010656279 0.008572301 -0.0028886988 -0.0007142265 -0.0058316356 0.013249979 0.007009304 0.008465199 -0.012164622 0.0023153292 -0.004888672 0.018328996 -0.024265021 -0.0032882793 -0.0071125086 -0.0013033666 -0.015155996 -0.01035178 0.01049093 -0.005666378 0.0148588745 -0.005593144 0.008154031 0.01453721 0.0069212 -0.005393619 0.0145234885 0.0072566336 0.027065279 -0.0057426207 0.007057439
longer 0.037323516 -0.010755722 -0.028453328 -0.0005968336 -0.0017585369 0.013084821 0.02390369 0.015333081 -0.0010559803 0.040587306 0.0004967605 0.008146016 -0.007801939 0.02276203 0.005868009 0.0037295865 0.026208488 -0.030824248 0.008468576 -0.0008569856 0.022376148 0.017330805 0.0032324179 -0.040000126 -0.0057811933 0.0034373538 -0.009279636 -0.011337334 -0.0012349809 -0.0061053336 -0.0073777386 -0.013976537 0.017693833 0.010368331 -0.011610534 0.010923112 -0.022146564 -0.017786562 0.029443553 -0.003504814 -0.015284224 -0.013600446 0.0050798636 0.0023065647 -0.02018862 0.019844336 -0.03809998 0.00934115 0.020320335 0.040647343
feel 0.0069902474 0.003088124 -0.02566089 -0.0020703478 0.00731998 0.018322162 0.030290768 -0.0030360827 0.010538445 -0.0063371607 -0.007689613 0.02074279 0.0071722157 0.0021894057 0.011169106 -0.008985394 -0.0010777558 0.010598009 0.0010678757 -0.0010861836 0.006626289 0.015417963 -0.011171604 0.002019674 -0.0049515762 0.0045582815 -0.021678891 -0.020080559 0.0035102556 2.5431822e-05 -0.021451322 0.013424473 0.004733063 -0.005029238 0.002669094 -0.0015413472 -0.017739976 -0.0058052423 -0.002970813 -0.006334902 -0.013157466 -0.0007125996 -0.0028546012 -0.008904977 0.03649928 0.011258592 0.010380808 0.009530828 0.0061259065 0.02181899
comment 0.0133349495 -0.0053910553 -0.014276885 -0.020542959 -0.0063424986 0.0036776373 -0.023235539 -0.0012096623 -0.0060043256 -0.022598118 0.010826293 -0.0030810111 0.018004125 0.017465675 -0.0146188475 0.003972862 0.014531671 -0.017665407 0.020585475 -0.041473452 0.014681377 0.017682798 0.007488968 0.019763475 0.007598008 0.005561983 0.021929031 0.03287291 0.05437127 0.03241506 -0.028841449 -0.028679986 0.0004402211 -0.008073894 -0.039925233 0.007583888 0.02874688 0.013408284 0.037542492 0.058392733 0.03253414 -0.03077438 -0.031047931 -7.1979826e-05 0.0077827116 0.00467655 0.0008414531 -0.012421688 -0.015886547 0.018761382
import -0.025147635 -0.0035409066 -0.011295681 0.0069576646 0.028972698 0.0047895135 -0.03341635 0.007837905 -0.02775954 -0.010742608 0.0092889685 -0.015521002 -0.020972013 0.010917519 -0.021126226 0.017011218 -0.012431676 0.0014866147 -0.016385378 -0.0008226589 -0.03146734 -0.0067246063 0.01437252 0.009962778 -0.0105730565 0.022500169 -0.007847555 0.006162957 -0.028229576 0.02167301 0.008753052 0.01269364 -0.007832459 -0.0009287407 0.014616195 0.0035879328 0.0020701601 0.016707778 0.0201928 0.008523663 -0.011046138 0.004286227 0.001277363 0.0069636884 -0.026620682 -0.00069022586 0.00032998365 -0.017727837 0.01390938 -0.024534144
policy 0.005064148 -0.020070642 -0.027887518 0.007915059 -0.012216362 0.0014806229 -0.010686434 -0.025419807 0.02193795 0.009553852 -0.014458819 -0.0027104293 -0.0021434964 0.01179105 0.016542979 -0.002965058 0.0017326692 -0.02893099 0.003972191 0.009611411 0.019553717 -0.0016766811 -0.014112294 0.0016113023 -0.016385898 0.0008927773 0.008720717 -0.016963376 0.02295002 -0.029190557 -0.02064313 -0.005486583 0.0085923495 -0.010386945 0.00494776 0.0085085705 -0.021263128 -0.034020487 0.019145621 0.001984857 0.040086165 0.010998221 -0.028547369 -0.00033530965 -0.02758642 0.012991583 0.03287531 -0.018174853 0.02047459 0.01334467
prepare 0.01261076 -0.0081885895 0.0021598837 -0.013105356 0.0022314638 0.03285431 0.0036505798 -0.016410613 -0.013429138 0.010437567 0.029983591 0.0074695703 -0.013251865 0.008681721 -0.012329059 -0.011238856 -0.002795416 0.0076970416 -0.018185778 -0.008675752 -0.0068292627 -0.0021105765 -0.006616991 0.021448532 -0.020440673 0.0059098457 0.0066636004 -0.02256963 0.013925381 -0.00046756072 -0.026755793 0.013002641 -0.017649328 -0.0043409364 -0.008557521 0.014732768 0.0030882307 -0.019948862 0.012236503 0.023874214 -0.0021592712 0.011846295 0.01774666 -0.0048378734 0.016873263 0.034567967 -0.012207896 -0.008832178 -0.017079255 0.012654085
trouble -0.035156142 -0.005791775 0.021852873 -0.005792444 0.021195237 0.00030499164 -0.020790616 0.0102258185 -0.027658157 -0.014524104 -0.0117294295 -0.0062349737 -0.0092987325 0.010759437 0.0015306259 0.012364785 0.017206458 -0.02340862 -0.021549053 0.0029686966 -0.004375908 -0.0076313377 0.016452998 0.0057109883 -0.013943068 -0.010905551 0.003063061 0.0066290437 0.006058108 -0.022886168 0.0034027614 0.005795245 0.0016235906 0.010600907 -0.0062977048 0.0035447725 -0.016072491 -0.011953367 -0.006090195 0.016795408 -0.012603551 -0.0043328702 0.0130200265 0.022989381 0.022116873 -0.0074078673 0.023198072 -0.009819323 0.0040011355 -0.014108461
24 -0.029358514 0.027312929 0.01650003 0.03199008 -0.0020287663 -0.013634856 -0.033000443 -0.015427534 0.004015307 -0.014485055 -0.01703199 0.0034929938 0.0055020154 0.0018654589 -0.05315652 -0.004332466 -0.040882282 -0.011004844 0.0029534935 -0.013839759 -0.028228223 -0.01892938 0.03226862 0.02849454 0.0006400759 0.0023635996 -0.0063227536 0.021659873 -0.04445096 0.008734103 -0.0048672184 0.019172478 -0.026207766 -0.009048354 -0.016202627 0.006099235 0.01712168 0.045917228 -0.026254637 -0.0010227785 0.0067462535 0.0017047802 -0.0050068917 0.013621447 -0.02034097 0.0022133258 0.03149006 -0.0013817722 -0.0062512793 -0.034175485
indicates 0.013075405 0.0077051893 0.022259464 0.037901383 -0.012582335 0.0042890506 0.030303642 -0.0040614805 0.025892181 0.039724328 0.025261141 -0.01778505 0.015123601 0.024403786 0.057252023 0.029853215 -0.0010728752 -0.010288614 0.041703254 0.024648316 0.0334357 -0.024380596 -0.033097073 -0.02508882 -0.015298784 0.013954604 0.009408314 -0.035385497 0.02358073 -0.0037548826 -0.030905904 -0.002515789 0.061092664 -0.012383325 -0.007692923 -0.012886605 -0.010247613 -0.016845897 0.045712724 0.0039428147 0.017730772 -0.044424318 0.012991266 -0.017943796 -0.014417228 0.0071560405 -0.0065976013 0.016468879 -0.0071272445 0.024425281
balanced -0.010066519 0.027541932 0.011197772 0.0035861128 0.005848527 -0.0142593095 -9.146007e-05 0.0032129048 0.014673098 0.0013370969 0.00029422285 0.01272158 0.0074735438 0.01420317 -0.016419753 0.0190682 -0.005790675 0.008644808 8.675334e-05 -0.018904028 -0.01881159 -0.015719157 0.007432596 0.01569758 -0.009493913 0.0028869577 0.0015454341 0.022191273 -0.00028931804 0.02157723 0.03391271 0.008243267 -0.0047880234 -0.0068056155 -0.01276166 -0.018566886 0.024953347 -0.008169103 -0.018283928 6.401475e-05 0.0016633518 0.03284454 0.008678076 -0.0074695535 0.0020471339 0.004595907 -0.002828945 0.003933158 0.0042955163 -0.027191909
specialty 0.015673552 0.015413038 -0.004256177 0.0032541505 0.0064702514 -0.0169136 0.006718974 -0.0062355907 -0.01139004 -0.009284561 -0.003445718 -0.009275217 0.016302109 -0.010017139 -0.011604373 0.007844212 -0.032766484 -0.003994027 -0.012662964 0.013402538 -0.008954583 -0.022551434 -0.005072939 -0.012066051 0.007903985 0.006642376 -0.00952362 0.015797185 0.014364994 -0.0013002919 0.016622303 0.0068385117 0.009671741 -0.00422418 0.012035006 -0.015983105 -0.0097608585 0.005487914 -0.0010670996 0.012416417 -0.009564106 0.0038385428 0.011618312 0.013467282 0.011393389 0.0008045895 0.002962418 0.0008353817 0.010065144 -0.00048160093
term -0.011452061 -0.010361919 -0.00064809277 0.011562302 -0.003913864 0.0074393232 0.019080712 0.025837148 0.014588202 -0.006629482 -0.007402617 -0.010913074 0.00027843664 0.012823836 0.007730852 0.014307469 0.00053113286 0.019268734 0.01578716 0.009408117 0.005622459 -0.017776823 0.0017684123 0.005347671 0.01288027 -0.0002821223 0.0049837884 -0.011040177 0.0053218063 -0.013356313 -0.011499775 -0.011486735 0.007260691 0.01070815 0.025495915 0.0025849033 -0.007731005 -0.014544582 0.0076561817 -0.0026013232 0.01086702 -0.0048782853 0.0029228977 -0.008445754 0.009873652 0.027093934 -0.0031868038 0.010063455 -0.025830545 -0.0031190903
ships 0.025164297 0.0069705416 -0.003233702 0.02306185 -0.01998275 0.014810589 -0.0028778045 -0.0048426893 -0.0011472721 0.022361824 0.00012296299 -0.0010359593 -0.009714585 0.0026446444 0.010963946 0.00878988 0.011336836 0.015292817 0.009806524 -0.006295652 0.01657722 0.0033521848 -0.018933292 6.9191185e-05 -0.008508166 0.0028289496 0.00031915953 -0.00064475514 0.0049351286 -0.0046806815 -0.0050264876 -0.006160065 0.009435648 0.0035716384 0.021916086 -0.004902253 -0.01757205 0.0060534393 0.0032907298 0.0013380104 0.0025763414 -0.0073463605 0.009486363 -0.010100955 0.020037627 0.02516634 0.015548533 -0.016344344 -0.024156103 0.047109082
near 0.01481724 -0.2141584 -0.012454634 0.10948463 0.024797361 0.04569783 -0.16043544 -0.032964338 -0.18694788 -0.030258128 0.23049869 0.025906045 0.14964022 0.07091247 -0.03727507 0.024297612 -0.09581503 0.047963426 0.096093886 -0.04859859 0.038272694 -0.08450048 -0.039833922 -0.1054915 -0.17368911 -0.1981262 0.10176863 0.053705506 0.053069893 0.07432926 0.005482744 0.07293356 0.037292767 0.13186055 0.08952496 -0.15542321 0.011595717 -0.10487423 0.03872281 -0.1373597 -0.030250706 0.050761536 0.0128610665 0.01626207 0.021798586 0.044611413 -0.010487583 0.01704125 -0.011869518 -0.066680215
refugee -0.01239934 0.0111866165 0.0130821625 -0.0065535707 -0.006819205 -0.023867577 -0.0028257007 -0.0006710071 -0.0067165503 -0.0056696017 0.008615621 -0.016436448 0.019540397 -0.011720553 -0.01626311 0.0069712214 0.016929327 -0.0021469784 -0.017385364 0.000855393 0.009006984 -0.0033996666 -0.00887441 -0.004634373 -0.007392902 0.010113179 0.0009482844 -0.0036577675 -0.017366474 -0.0042873155 0.0074794036 0.0032439001 -0.009338803 0.010583997 0.004954086 -0.003073981 0.0061882553 -0.008053118 0.0012957994 0.010066159 -0.0050399383 0.0044769906 0.001292328 -0.0056477385 -0.0040772418 -0.012097952 -0.012420265 0.0038396423 -0.0036661322 -0.01843517
says 0.0070338575 -0.0101289805 -0.03307976 -0.021356948 0.005754417 -0.0013836606 0.013134332 0.0016979373 0.022965038 0.023381826 0.0034769406 -0.023730524 0.01346198 0.003896052 0.0154175665 0.012814874 0.0054098414 0.0052099554 -0.016639855 0.033674642 0.0012694676 -0.006387876 0.008772794 0.0029318635 -0.0058705863 -0.013416487 0.025547318 -0.017675472 0.015609388 0.006592068 0.029517725 -0.002539752 0.019889891 0.013133512 0.02334959 -0.006160059 -0.0049133534 -0.009064833 -0.010696815 -0.0030108094 -0.008669019 -0.002816156 -0.0023631246 0.005387355 0.020005655 -0.0150896795 -0.0064170975 0.01770426 -0.012290885 0.0060150544
accident 0.03729014 -0.036240462 -0.007280158 -0.00422055 -0.017143054 0.0006587434 0.052040666 0.0016276604 -0.0073324074 0.014925192 -0.005777302 -0.032229215 -0.011200826 0.0038084958 -0.007946108 0.014026227 -0.026618475 0.0067008575 -0.03352845 0.0077460487 -0.023901755 0.0036692005 -0.010435343 -0.0066417363 -0.012033732 -0.0008181452 0.0040125125 0.01957948 0.016678482 -0.022167917 0.028582888 -0.0038420416 -0.019214844 -0.01779016 0.020594586 0.015229122 0.0023533572 0.012097765 -0.01495048 -0.01809057 -0.02391214 0.024658438 -0.023340346 -0.011087036 -0.007535544 0.02297559 0.009778022 -0.0035183772 -0.016236197 -0.0022112343
