1613 100
employees 0.018115733 -0.0066087926 0.012855079 0.03941763 0.014090952 0.0035076467 0.0099454615 -0.03727755 0.025824822 0.024581375 -0.013305221 0.051878486 -0.026585829 -0.010655317 0.025008569 -0.017484814 -0.02704879 0.020505441 0.011690335 0.030139629 -0.026227865 -0.019283028 -0.012597878 0.0019866168 0.0053908443 -0.03720114 -0.050094146 0.016031582 -0.012063965 0.019251464 0.005003145 0.00017562388 -0.055548053 -0.03451432 -0.010805841 0.01060018 -0.008179961 -0.008025115 -0.018134149 -0.039584063 -0.015382089 -0.017718824 -0.010019187 -0.019830247 0.008706669 -0.0075639747 0.005444553 -0.00065455714 -0.023305576 -0.02549232 0.03290948 0.004236202 0.004497995 -0.0053660986 0.011775066 -0.025756072 -0.04406889 -0.025377987 0.028146235 -0.023556791 -0.01538505 0.009758465 0.035877094 0.002918954 0.038262993 -0.01380013 0.006698538 0.02018597 0.027909815 -0.018310089 0.049563374 -0.0030797133 -0.04808278 0.009250583 -0.014995128 0.060153667 0.014971779 0.03142037 -0.03200186 0.0131975645 0.02021431 0.009375715 0.010273014 0.050493676 0.0008744834 -0.0018052888 0.005659748 -0.008230113 0.0066053537 0.047316827 0.035686135 -0.0033023497 -0.004702269 -0.05052314 -0.036402795 0.0024711557 0.06273817 0.019841371 0.017752325 0.0071727852
surely -0.0033832788 -0.009784668 -0.002154905 -0.016835168 0.013803029 -0.00471397 -0.02059819 -0.0001483545 0.0108129755 -0.004561215 0.002576458 -0.005796867 0.01732973 -0.008973078 -0.024874667 -0.018524852 0.0011764476 -0.0053899903 0.02111377 0.011224497 0.024047088 0.008751939 0.024937978 -0.0018647586 1.5705591e-06 0.025611272 0.0057969885 0.0327813 -0.014842743 -0.0024775525 -0.0038965435 -0.0068414393 0.017804177 0.010052103 0.00412861 -0.025120698 0.021350248 -0.0016590282 -0.016536288 -0.0011565867 -0.021626823 -0.028916143 -0.0039187395 -0.024039915 -0.008331829 0.012769782 -0.030157043 -0.0062646475 -0.0073511824 -0.014764568 -0.008181917 -0.03632192 0.0050152605 -0.00029608392 0.008972503 -0.018698346 6.259035e-05 -0.01432111 -0.0060283057 0.003710403 0.004283537 -0.029166374 -0.03495266 0.0076359524 0.0036686184 -0.023897395 -0.012298671 -0.014297284 0.002973144 -4.4882414e-05 -0.037912343 0.005732457 0.0012962193 -0.007745768 -0.018665118 -0.00085304247 0.006021666 0.047074184 -0.0186999 -0.015510072 -0.00841046 -0.00992975 0.00510889 0.012442119 -0.021414476 -0.013687255 -0.0031449245 -0.026943976 -0.01163566 -0.009676895 -0.0053974907 -0.037848905 0.009691453 0.019176291 0.0037194188 0.015221072 -0.0147719355 0.050717674 -0.016276794 -0.025858803
mind -0.004139419 -0.005590794 0.011365045 0.00943128 -0.033160347 -0.0051866397 0.031143982 0.010826639 -0.0154352635 -0.0015403293 -0.02058684 0.008112139 0.0031164465 -0.011525093 0.007971172 0.007979095 0.004060507 -0.010699547 0.0005338233 0.011274649 0.0077158073 -0.031071436 -0.0019099708 0.018251894 -0.0064264126 -0.008269173 -0.010990626 0.022243386 -0.009916646 0.017285664 -0.017260322 0.0031528766 0.0031977934 -0.020615464 -0.0015541745 -0.021201111 -0.021443097 -0.022722824 0.0018775176 0.008128709 -0.0025582914 -0.0057703434 0.007247378 -0.009043421 -0.032294262 -0.014109888 0.004510721 -0.008830976 0.030953655 0.0032487027 -0.015973438 -0.007450172 -0.012728222 0.028520677 -0.00965958 0.009045591 0.0034851513 0.002802446 -0.0015515862 -0.00034932792 -0.014095747 -0.0071541118 0.0040391483 0.019427495 -0.0022853746 -0.01787166 0.008160805 0.008235002 0.007014803 -0.00038042193 0.007815937 -0.0035026323 5.7993457e-06 -0.014783027 -0.0054507363 0.004083447 0.031445578 0.009681804 0.00083797437 0.017545527 -0.021607187 0.015942834 -0.0034260221 0.017169239 -0.005757113 -0.01074883 0.006389216 0.014457344 -0.006441099 -0.00050678384 0.0087713655 -0.002529425 -0.0076581785 0.010340946 -0.004742873 0.0023808593 -0.012545289 0.016762486 -0.004699688 0.0056681866
conducted 0.023724379 -0.0029116187 0.027872633 -0.024655366 -0.016630024 0.013300339 0.039364263 0.025327824 0.025115235 0.00046810939 0.030500619 -0.02926403 -0.00031937816 0.052099034 0.032001168 -0.04620871 0.012280068 0.03938858 0.020303156 -0.01302582 -0.022607407 -0.024005273 0.012132192 -0.04730323 -0.009500736 0.026518593 -0.03269792 0.0030885085 0.029025398 0.050996393 0.028254068 0.00444847 -0.010925424 -0.009708239 -0.02171946 -0.009551611 -0.03297418 -0.0060490146 0.03358089 -0.008689679 0.040582024 0.010760425 -0.045328576 0.0071552163 0.0029046591 0.03438279 -0.020894315 -0.0069903457 0.02492258 0.022767603 0.0029468283 -0.016662575 -0.00649886 -0.0106818145 0.0018762718 -0.02692055 -0.017773997 0.011767004 0.015464841 -0.032504905 0.04656433 0.04346088 -0.024129322 0.045137223 -0.022055665 0.0051963124 0.011758255 0.0025872483 -0.013651781 -0.04067415 -0.00090582034 -0.01951604 -0.0007123484 0.013401832 -0.009918643 0.01426155 0.024113461 -0.0023044022 0.018900326 0.0017162221 0.014019074 0.023512186 -0.026298583 -0.0029484276 -0.009583537 0.04717919 -0.009212696 -0.007878936 0.030060831 0.009875826 0.005409719 -0.00036611327 0.011660624 0.022981755 -0.02767533 0.016128749 0.031788044 0.017805127 -0.0068027196 0.002383612
Transportation -0.011499749 -0.00068660395 -0.044418056 -0.018072614 0.004438005 0.011423048 0.0049390006 -0.008560162 -0.0015650649 -0.0068491213 -0.0153295975 0.02620101 0.0073948614 0.00867406 0.023918925 0.0027847681 -0.020992236 -0.018090038 0.013467003 0.008519299 -0.01902242 -0.0022847406 0.0344774 -0.006490198 0.0028860075 -0.0054671075 0.0025296153 -0.00096561835 -0.010297716 0.019234074 -0.014352293 0.0027385475 -0.012489086 0.019680528 -0.021584388 0.01563541 -0.0033904964 -0.0026667253 -0.0070168916 0.008337483 -0.006120258 0.01599984 0.018381374 0.00033122377 -0.020862933 0.0037207375 -0.012782922 0.023386322 0.002860468 -0.008485294 0.020602776 -0.0064202137 -0.0027381475 -0.013238142 0.013854679 0.015482369 0.005379454 -0.006280787 -0.017359687 -0.0022029115 -0.014039456 -0.02224016 0.016516695 0.014544732 0.002084233 0.005349119 0.0014375707 0.009425257 0.021055335 -0.0043901904 -0.009258708 0.0119057605 0.006352922 0.0105066635 -0.009486216 -0.003879919 0.022749918 -0.022282673 0.013983376 -0.00017551205 0.004821559 -0.027352262 -0.007490444 -0.01865977 -0.0023639612 -0.04311077 -0.018682754 0.008658847 0.0032525538 0.0038648492 -0.015788238 0.011721823 0.02099963 0.02144591 0.017388077 0.014125555 0.019309297 0.0024582075 0.022687363 -0.022196563
gains -0.0070904065 -0.023756942 0.040656358 -0.009959194 -0.021339754 0.019596105 -0.041558795 -0.0038128595 -0.0023221998 -0.023587605 -0.03850325 0.023065755 -0.020464715 0.020182222 -0.006591048 -0.035302486 -0.01622452 0.017787922 -0.00931969 0.0011665835 0.0036178613 -0.010797909 -0.0058783325 0.003694045 -0.01804699 -0.013728793 0.015737241 -0.024392538 0.02760649 -0.012833551 0.04019366 0.0045988997 0.021614283 -0.0021197265 0.015098777 -0.021703346 0.015779031 -0.00445948 0.027449897 0.022673849 0.008284443 0.022368398 -0.017796976 0.007433042 0.0118609965 -0.002972218 0.015242284 -0.028732864 0.008987839 -0.0034798924 0.004654738 0.009897881 0.013581578 0.0018950254 0.024614926 -0.010003751 0.013559129 -0.0004461006 -0.0037080892 -0.018351564 -0.013347301 0.016326755 0.010788598 -0.012636704 -0.02359915 -0.010352529 -0.0046705636 0.008493679 0.0076518385 -0.022930713 -0.010817891 0.03436357 -0.008304459 0.01044552 0.0016581976 0.054780625 0.023917232 -0.016365591 0.007746811 -0.015084181 0.004450826 -0.0068325186 -0.02767543 0.018546266 0.012649498 -0.009986639 -0.007233855 -0.0421529 -0.015566073 -0.018707868 0.014291011 -0.015189873 0.0038432833 0.019036427 0.0057989764 -0.008319132 -0.028782548 -0.017467108 -0.012227245 -0.013576017
agriculture -0.0142505625 0.0067965193 0.014881697 -0.010166436 -0.014998277 0.010314239 0.0020824005 0.008604758 0.0032317308 0.019930728 0.012829212 -0.0057037976 0.007553192 -0.01833301 -0.0042682663 0.0147867 0.015295097 0.0010713235 -0.012756617 0.03179858 -0.004533949 -0.024577213 0.02220667 0.009461254 -0.018732509 0.017883958 -0.018410608 -0.020480454 0.019184588 -0.02698896 0.015810844 -0.019717233 -0.006761979 -0.010140018 0.003974315 0.0040667555 0.017650416 0.0074762735 0.007345174 0.0236925 -0.0062283115 0.016863702 -0.013389389 -0.036807608 0.016876984 0.0043838425 0.018762825 -0.004680251 -0.011856475 -0.029818216 0.0021236446 0.0075085675 -0.0045650015 -0.009758536 0.0026846225 0.0035813618 -0.014934478 -0.01827821 -0.005878971 0.011736217 0.014909098 0.00873118 0.0047058156 -0.04677791 -0.0004778509 -0.008892778 -0.0054397695 -0.009459541 -0.0031948816 0.017844787 0.022772884 0.0016838394 0.009255151 -0.013357577 0.014112595 0.014210936 -0.002045328 0.014031248 -0.0026397223 0.044419043 0.037280057 -0.002029369 -0.018390346 0.020232107 -0.014475159 -0.014731755 -0.0050780308 -0.0044680326 0.008548897 -0.0049083615 0.024208501 0.0057382337 0.017997587 -0.002927763 0.029446624 0.012659566 -0.010049222 -0.0039075743 -0.03670752 -0.014261067
March 0.0052447882 0.026974885 -0.01645302 -0.021191627 0.007942276 0.006651369 0.010768623 -0.0040082377 -0.021776965 0.01373678 -0.034864914 0.013447477 -0.016312687 0.011455292 -0.0013709519 0.014578417 0.010829842 0.0076215914 -0.008426529 0.0006204393 0.019883469 0.00042852375 0.0015480219 0.022430953 -0.0004841515 0.009304175 -0.023832653 0.044562858 -0.010732234 0.012237928 -0.0025556586 -0.01151005 0.021844123 0.035922777 0.026546977 -0.006930438 0.022294987 0.0040982175 -0.02162908 0.020189593 -0.01580864 -0.010214374 0.016012475 -0.008230928 -0.018179003 -0.009536392 -0.00073121674 0.009199885 0.014209226 -0.022684623 -0.0077581336 -0.028278185 0.008189062 -0.026147604 -0.010089607 -0.022474626 -0.009707419 0.01535323 -0.01712433 -0.016597617 5.779357e-05 -0.012500067 -0.0012179918 0.0032369774 -0.01090721 0.018711187 -0.01412991 0.004379937 -0.0019352918 0.004910983 0.01572404 0.032416813 -0.006464672 0.0031272424 -0.012701182 0.027663494 -0.03380238 -0.006856389 0.023646045 0.0024542315 -0.005530458 -0.011885697 -0.034217775 0.009105835 0.0060282312 -0.004463424 -0.010986582 -0.025632028 0.012326476 -0.0031321966 0.013080332 -0.015166375 0.008664032 -0.0013367429 0.0060803243 0.007493005 -0.0066534905 0.00039337415 -0.0074298917 0.0073648673
Artistes -0.02240321 -0.0062943823 -0.07378464 -0.035591185 0.00096950313 0.008893181 -0.05818187 0.014328637 0.009680896 0.018625949 0.002881283 -0.032527693 -0.02542189 0.044174805 0.004069698 0.005935319 0.0062132385 0.037953306 0.020950826 -0.004528192 -0.020506293 0.049921434 -0.029233782 -0.0071937153 -0.026585242 -0.031724785 -0.0145833 -0.030305583 0.014830782 0.031951092 0.007873245 0.020106552 0.05900038 0.043589476 -0.032653835 -0.033650048 -0.005824089 0.009962293 0.015978197 -0.028760994 -0.042636808 0.0053595 0.0009143789 -0.0026230752 0.0057757674 -0.032025687 -0.0016977189 -0.0060297144 -0.049579635 -0.0079135345 -0.020683456 -0.028954726 0.04692029 0.011009877 0.01997121 -0.038869582 0.025217796 0.03626788 -0.039321754 0.009299704 -0.0016480432 0.042612188 0.00650657 -0.008978011 -0.005315498 0.032491587 -0.01722896 0.043734938 -0.0068435995 0.0031981398 0.0028785234 0.02506612 -0.020136157 -0.021629965 0.007846289 0.011969304 0.0015744176 -0.001365196 0.024928944 -0.0016485369 0.007165543 0.001370169 -0.008707502 -0.04564809 0.025018996 -0.029907336 0.019645825 -0.046193898 0.024259709 0.028916867 -0.035587426 0.055638712 -0.027855944 0.008697662 -0.004752162 -0.007122824 0.035113044 0.034997817 0.0071794065 0.006056312
member -0.019595698 -0.05608197 0.034190916 -0.024718141 -0.0056217187 -0.019013295 -0.0050889305 -0.013116444 0.0103161875 0.010055155 -0.013852731 -0.0007729356 -0.012977225 0.04427533 -0.014113119 -0.018858727 -0.03462463 -0.011352159 -0.0067749154 -0.02846006 0.0017650117 -0.0087175695 0.009054507 -0.03728518 -0.005252418 0.010676773 -0.019616285 0.024666704 -0.0036446992 0.0038418726 -0.020380665 -0.008664576 0.0018852777 -0.007281904 0.011204649 0.008463516 0.00023005098 -0.0018986915 0.02623577 0.017937234 0.03374308 0.031662032 0.024105417 -0.023846785 0.030953811 -0.0024020802 -0.017416172 0.03888257 0.006479778 -0.0033511207 0.008528016 -0.015644446 0.008592544 0.0002565846 0.020431446 0.00027855724 -0.01398908 0.011376203 0.013851897 0.019874422 0.030684736 -0.0052790227 -0.019503318 0.0059680217 0.008259232 -0.011645666 0.014340202 0.030247083 -0.014587015 0.0013691043 0.00949215 -0.027698644 -0.034405757 0.03695849 0.01323323 -0.0011186057 -0.009850225 -0.030655311 0.013421185 -0.004343549 0.016773852 -0.0010387813 -0.0112606045 -0.0013482622 0.03508524 -3.09835e-05 -0.060830303 0.007296823 -0.011477175 0.016909823 0.0027599502 -0.009538391 0.033562023 -0.01381847 -0.012767696 0.013030295 -0.0012913872 -0.020962344 0.009552955 -0.021778062
explained -0.032275807 0.008513067 -0.009278707 0.0024099487 0.030520342 0.030682689 0.0036090673 0.0038504382 0.047619183 0.015529503 -0.043343473 -0.015652418 -0.051196586 -0.01750849 0.02604514 -0.012833102 -0.018456018 0.014726137 -0.017020883 -0.046517726 -0.0073386934 -0.034289755 -0.02035454 -0.0071803518 0.024016276 -0.00045173324 0.006833151 0.013449576 -0.0073011885 0.025385913 0.022749387 -0.036119137 0.051620606 -0.012295416 -0.0069563743 0.039961614 0.014588335 -0.0044467584 -0.0007781714 0.021305015 -0.017511016 0.016741768 0.0029045334 -0.013079866 -0.029468374 -0.012273345 0.000314272 0.04121216 -0.028047318 0.04290159 -0.012303019 -0.01496915 0.011333877 -0.035250258 0.0024410333 -0.0067015663 0.019379063 -0.0033070312 -0.05709553 0.008874085 -0.0071070725 -0.027615415 -0.030633511 0.023859281 -0.0080835465 0.033938758 -0.014377531 -0.013756208 -0.012895908 -0.0138694495 -0.00862405 -0.011489654 -0.012463989 -0.01559076 0.028883219 0.030381117 0.022626234 -0.026010191 0.050478775 0.0019093818 0.0026587308 -0.0020205374 0.022705693 -0.0036917317 -0.06371168 -0.010945486 0.016850108 0.02308806 -0.029857125 -0.0010374095 -0.053863414 -0.020266058 -0.0006439069 -0.00043298362 0.01100381 -0.02802778 -0.0269681 0.012859626 -0.019648554 7.149624e-05
advance -0.021154208 0.010361636 -0.014208454 0.012282176 0.020881688 0.04345791 0.0043756324 -0.019812075 -0.025947183 -0.01043389 -0.0033738518 0.02282912 0.0046028947 -0.004824739 -0.0074725486 -0.009907779 -0.004518022 0.019084193 -0.036659703 -0.014575683 0.02597717 0.03228811 0.011991215 0.0068206005 -0.013645676 -0.011594072 -0.012838866 0.009016149 -0.006951672 0.0021197887 -0.011824796 0.012717985 0.0073041655 0.01991897 0.0054432377 -0.014305877 -0.01834667 0.02599509 -0.010432921 -0.00019222917 0.011114231 -0.0013016837 0.0013413124 -0.004880807 0.013121584 0.016804773 -0.015644891 0.026194429 0.010979851 0.017938757 -0.014682465 0.018020377 0.0020531311 0.011811697 -0.0118287895 0.011965369 0.020955756 0.006627678 -0.0011875688 -0.012926335 0.000276585 -0.004875691 0.013951095 -0.009807673 0.008572409 -0.0008953283 -0.004014311 0.0058300584 -0.018315017 0.013750463 -0.009911768 -0.015398231 0.021197675 -0.006524666 0.023297 -0.00425715 -0.004001965 -0.026603796 -0.023895178 0.0037264791 -0.016342036 -0.016667575 -0.037954673 0.006163455 -0.026076151 -0.011802138 -0.020188754 0.0011401771 -0.024993671 0.028025988 0.0066496967 -0.012691038 0.0016645448 -0.0063989237 -0.0021588309 -0.024149844 0.004939898 -0.026357476 0.019003786 0.00870842
notes -0.028991323 -0.005847579 -0.010597127 -0.022316989 0.008901808 0.021209884 -0.022604842 0.00757858 -0.033639148 -0.022825157 0.0040083723 0.011287637 -0.014699723 -0.003210601 -0.0034121287 -0.0024987815 -0.0051519503 0.026231054 0.011255232 0.009628417 0.008764479 -0.0075084837 0.021138676 -0.011786959 -0.017582912 -0.025706757 -0.028049048 -0.011253238 0.020416737 0.008518885 0.018148378 -0.016406279 0.018759908 0.009178379 0.013713566 0.0037560435 0.02843224 -0.009524907 -0.022491824 -0.014861756 -0.008811784 0.009970769 0.00013645727 0.02164039 -0.0071704127 0.0055995975 -0.0036896719 -0.03224007 0.014719751 -0.015578758 0.021785833 0.024024282 -0.016331486 -0.018956048 0.038542792 -0.015964516 -0.005001911 0.005482022 -0.01520811 0.0026555255 0.01070277 0.016083205 -0.010045931 -0.010973295 0.0016522517 0.0067937556 0.018554011 -0.0036512173 -0.027438821 -0.002933217 -0.005943875 -0.0011139701 0.008251654 -0.011694425 -0.011197485 0.03056019 0.018445307 -0.0028996305 0.008242426 0.009824437 0.004767405 0.0039047734 -0.00905975 -0.0009839422 -0.0046283337 0.02565981 0.0036496697 -0.019439634 -0.020780887 0.0366623 0.02455062 0.012351685 -0.0074399062 0.020582112 -0.006399972 0.00973722 0.0109309545 -0.009000425 -0.022059008 0.0063465345
pledges -0.025901726 0.040021136 0.0012605132 -0.006546629 0.0009826517 0.010466447 0.030896943 0.004246577 0.039342616 0.0051042964 0.010421199 -0.012588067 -0.0021071078 0.017658457 0.03387658 -0.0066028754 0.009911703 0.038410313 -0.00089422293 -0.013104947 -0.04894808 -0.024479505 -0.029845126 -0.03955545 -0.0077699637 -0.0020005915 0.004964755 -0.026960667 0.004783404 0.01619398 -0.014600021 0.010929031 0.011027957 0.02018882 -0.017525615 0.0022218353 0.017118055 -0.020623771 0.0043947008 0.02957576 0.0018533266 -0.0023652534 -0.018701676 0.015224344 -0.00049276743 0.008763869 0.015928553 0.022393016 0.004251391 -0.025951574 -0.012098231 -0.0075286506 -0.029189147 -0.013013992 0.00801768 0.0137080625 -0.01570413 0.0126622105 -0.003711795 -0.03549322 0.012722406 0.0005737804 0.009224894 0.025145214 0.009904633 0.015386873 -0.004502018 0.009317969 0.0041472833 0.014798989 -0.0037878621 -0.002767827 -0.011415393 0.028289298 0.0057470896 0.015941292 0.006756137 0.0066768834 -0.00938098 0.0047870204 0.01412318 -0.013101569 -0.054644294 0.011954744 0.00026889297 0.0046342677 -0.034680475 -0.039179627 -0.009308982 -0.027616797 0.034892343 -0.025581405 0.047622517 0.034503385 0.02731418 -0.0064577945 -0.011933171 -0.03578727 -0.01723225 -0.03394282
19 -0.033268698 -0.0012506378 -0.015708467 0.027101932 0.016563114 -0.017666446 -0.0087752 0.011805729 0.012070327 0.01838547 0.021959057 -0.00041600433 0.004304401 -0.012145448 -0.025005056 -0.034379166 0.0027272461 -0.033951905 0.012574463 0.018945642 -0.019563334 -0.0036037534 0.013411313 0.01224271 0.006683658 0.029148584 -0.037247844 0.01849155 0.0129686445 -0.011113386 -0.018266926 -0.01847032 -0.0015032615 0.01062464 -0.005513487 -0.021146623 -0.042077757 -0.017348193 -0.01122863 -0.012838236 -0.013622195 -0.010622061 0.008198274 0.0060150465 0.008782201 0.022489425 0.026629357 -0.01104637 0.007739784 0.05110694 0.007972575 -0.0050770696 0.0018292983 -0.014698459 -0.0043092654 0.011779072 -0.013780627 -0.005874801 -0.04482044 -0.0047420445 -0.0045083305 -0.0049379217 -0.023971098 0.023925835 0.005789275 -0.0012672968 0.008027235 -0.004323172 -0.01670448 -0.008184523 0.016136697 0.030340964 -0.0021240572 0.0121260965 -0.013983138 0.0026288647 0.010636708 0.025352467 0.021170082 0.0026625157 -0.008632562 -0.01188322 0.016050357 -0.04539633 -0.032780018 0.007758809 0.018571986 0.0012881416 -0.02637082 -0.012844554 -0.013135513 -0.0112928655 -0.009786273 0.001923982 0.017119098 0.009427159 0.008744891 0.0011886567 -0.018775797 0.017265068
Corporation -0.040457893 -0.0011819896 -0.005220723 -0.011235997 0.0054410226 -0.027632294 0.0065161246 0.0020752694 -0.011552626 0.020328294 0.0016613757 -0.013078004 0.03829685 -0.007989332 0.027151996 -0.0069820257 0.015913695 -0.016645111 0.014044896 0.0077740415 0.019818146 0.009621339 -7.933122e-06 0.025012674 0.017843163 0.008325061 -0.0056293304 -0.01910231 -0.010380962 -0.009229395 -0.0020010115 -0.0052686348 0.0027189655 -0.014575679 -0.016313711 0.019911638 0.015545397 -0.00047646428 -0.017393367 0.027607327 -0.007934679 0.002980702 -0.029537436 0.015046769 0.0076229796 -0.0024366376 0.012396073 -0.00016917978 0.014882703 -0.05676592 -0.01595933 0.023922732 -0.04627102 0.0026812772 0.015776124 -0.041740403 -0.016420146 -0.021584613 -0.034760762 0.02369303 -0.0018079074 -0.018739881 -0.0101794945 -0.018446125 -0.017938392 0.03208176 -0.0112505825 0.004247571 0.0016842159 0.035148703 0.0031237905 -0.008414688 -0.015265867 0.0063665044 0.01637307 0.0077836425 0.007063431 0.0011045982 -0.018395957 0.022959424 -0.0022631423 -0.01536681 0.013788922 -0.01437062 0.01354335 -0.0010608967 -0.01910815 0.009002851 0.012836199 0.014013899 -0.014502921 0.019568551 0.011639879 0.00777109 0.0137004 0.025069265 0.012406819 -0.014317413 -0.01741239 -0.01617408
came -0.031422008 -0.013396359 0.0026278803 0.0023435126 -0.012666766 0.033027776 -0.03409599 0.01967198 -0.016280022 0.015701415 -0.031759135 -0.015638985 0.02688815 0.007874872 0.01732884 0.0029638717 -0.020291269 0.0025233894 0.0013265909 0.02787071 -0.0038004403 0.006882398 0.02909529 -0.0073279412 -0.0010663428 0.017086718 -0.0006765565 -0.015416911 -0.0024531437 -0.017900325 -0.03329623 -0.019343076 0.037481945 -0.041220877 -0.024505032 0.012720198 -0.017235003 0.008117809 -0.0026488027 -0.0017669364 -0.0077458024 -0.017397616 0.015216889 -0.001000915 -0.0074020172 0.011364182 0.024464078 -0.0016423811 0.02448229 0.0116555 -0.013366829 -0.0069819004 -0.029543994 -0.0063966988 0.023774823 -0.0297921 0.004574611 -0.025671503 0.009495799 -0.025547786 0.012325145 -0.0034675398 0.038766284 -0.019542346 -0.019911319 0.021059224 0.010118739 0.026626391 0.009113972 0.025022427 -0.0251848 0.013791055 0.0067096623 -0.037624393 -0.007779698 0.010702377 -0.0009776065 -0.019563 -0.013779316 0.022422932 -0.045619626 0.0059246197 -0.009031428 0.0323343 -0.023620343 0.019646369 0.014604315 0.022255061 -0.004712998 -0.051204026 0.01232911 -0.007824145 0.019286398 -0.024670301 0.021822426 -0.013563831 -0.0077433824 0.01006562 -0.005362986 0.01423237
new -0.005782128 -0.018715601 0.023552082 -0.04051308 -0.0039983084 -0.005262826 -0.01086251 -0.011984892 -0.009769194 -0.022342434 -0.03884556 0.0073212516 -0.023183348 -0.00043227023 -0.03557574 0.017891716 0.0070411745 -0.02392565 -0.008512244 -0.025612958 -0.0007070156 -0.0059663504 0.0024162808 0.012755234 0.010852784 -0.0057580173 -0.0152165415 0.0034499285 -0.00024080905 0.002128928 -0.03167683 -0.027856613 0.008152246 0.018718382 0.047435947 0.015014998 -0.018840909 0.0019234659 -0.041285843 -0.0057015615 0.0034024096 -0.025693849 -0.02000231 -0.028249094 -0.008239817 0.012594719 -0.00014230923 -0.04612047 -0.03247838 -0.0006639456 0.010204446 0.0037341034 -0.0026576067 -0.03579128 0.012607082 -0.006534908 0.008531545 0.018720347 0.020732071 -0.0127326 0.015356818 -0.012842337 0.016464313 -0.009548431 0.02780109 -0.034120534 0.019843629 0.02740192 -0.00242166 -0.0063164122 -0.005143117 0.01136055 0.01932484 -0.00524956 -0.014198886 -0.039826937 0.0047380803 0.029167082 -0.017836576 0.033953782 0.009591922 -0.00049309107 -0.0022343148 0.0052352664 0.012119259 0.013217716 0.0015422774 -0.04756906 0.00029667967 0.021996183 0.0146137895 0.006569092 0.008851854 -0.03199412 -0.049239464 -0.0044086026 -0.036214296 -0.0013628936 -0.013942358 0.028369036
right -0.020228608 0.00038931175 0.0038643088 0.044342432 -0.0038796973 0.02316136 -0.015754718 0.016994106 0.022052303 0.016023194 0.026540939 -0.019310286 -0.005166476 0.030082526 -0.010632241 0.029790824 -0.030862276 -0.024604784 0.010227292 -0.017269894 -0.003987578 -0.002587862 -0.020554679 0.004893751 0.013868543 -0.020484552 0.012916147 -0.0347367 -0.03541846 0.00021642545 0.027857356 0.009990882 0.0040355027 -0.0041269273 0.036303736 -0.00489695 0.011688772 -0.004051081 -0.00886943 0.020953406 0.031221336 -0.01059849 -0.003164932 0.049099937 0.00826799 0.017406188 -0.032568514 0.02895901 0.025454871 -0.001998742 -0.013618955 -0.019453425 0.024018593 0.00829333 -0.020293456 -0.0049812603 0.009906475 -0.00090350705 0.015535343 0.010321807 0.031476133 -0.023384942 0.01416601 0.032465022 0.022884566 -0.022130923 -0.020654643 -0.006579009 -0.00020340842 -0.003977567 -0.0085091395 0.007736569 -0.013434123 -0.011033554 0.0011156846 0.009738976 -0.03150425 0.020297153 0.0059770565 -0.053926915 -0.0065594753 0.03603291 -0.028650803 -0.005028228 0.008263475 -0.004976815 0.04041993 -0.010928148 0.006804674 0.0016304401 0.0035612048 0.0018746355 0.014089543 0.0022508581 0.026790978 0.02825138 -0.016328802 0.005493301 -0.0035519272 0.0056361426
tax 0.053323515 -0.03003357 0.043148648 0.03861414 -0.0067523606 -0.018698083 0.10935037 -0.0155492 0.0129219275 -0.021434935 0.009854659 0.0067343498 -0.011025048 0.0064419615 0.030335285 -0.027419105 -0.023565447 -0.010562935 0.0074714925 0.0012048162 -0.014777121 -0.052345052 0.04876748 0.0027150917 -0.021162778 -0.015983034 0.027150255 0.06050275 0.008864765 -0.009695909 0.014605688 0.035662554 -0.01437323 0.0380655 0.020971201 -0.021272028 -0.0014474828 0.008609468 -0.02767664 0.021110645 -0.029732954 0.0021229985 -0.026293034 0.01415804 0.0059626186 0.032309182 -0.0006626218 0.06347736 0.02550221 -0.033819593 0.01990867 -0.021094313 -0.07702732 -0.016677693 -0.051555067 0.013512157 0.03198928 -0.0060758013 -0.0017418702 -0.009791587 0.06290751 0.04047581 0.030003766 0.038347915 0.027902786 -0.003497066 -0.06375775 0.009889912 0.03487654 0.006080891 -0.047012698 0.006677813 0.024526365 0.0048818593 -0.021205772 -0.026446871 -0.019027049 -0.004141719 -0.020672435 -0.021213878 -0.015721697 -0.023086675 -0.02274876 -0.016629148 0.011845638 -0.012536943 0.04275702 -0.017369045 0.0060643014 0.021552615 -0.014113773 0.00741441 -0.022375604 -0.015501726 -0.053229418 -0.028376888 0.0420367 -0.0058132038 -0.012306583 -0.0056192065
buy -0.073163144 -0.006734935 -0.011889784 -0.011741719 0.0070447526 0.011105958 -0.009927437 0.016536383 -0.032315906 0.007844484 -0.001910068 -0.03957532 0.011838634 0.011928057 -0.020552387 0.002687052 0.021676961 0.014339038 -0.0137511445 -0.007987293 0.02104686 0.033744305 0.0046933223 -0.0016395954 0.002171393 0.009312006 0.033302095 -0.015646579 -0.020643214 0.037241388 0.016655264 -0.0075660995 0.023488747 0.0046721534 0.009946215 -0.008160974 0.016778596 -0.017118262 0.008095661 0.012706704 -0.0018304428 0.025626978 -0.0088653 0.012895362 -0.0045626056 0.002401302 0.02565789 -0.028784303 0.008620631 0.038826805 -0.024948403 -0.02413834 0.006294929 0.012381361 -0.008010818 -0.014310102 0.019473284 0.007479477 -0.0073530627 -0.021191137 0.010518476 0.022867521 -0.013807088 -0.008507196 -0.008737688 -0.0046477267 0.002395581 -0.017852206 0.0066339895 -0.027045142 0.0049448777 -0.005239199 -0.015156895 -0.02260976 0.008194264 -0.010256524 -0.03185432 -0.015795961 -0.032235738 -0.023643503 0.027822046 0.006476193 0.015001394 -0.00032049176 -0.018319152 0.005264185 0.016091712 -0.013235301 0.009545356 -0.0071516447 -0.009197838 -0.01413693 -0.00041426384 0.003170315 0.029328566 0.013448627 -0.00320982 0.012262888 -0.009869875 0.020217087
democracy 0.03512405 -0.008052877 0.005260388 -0.0068513826 -0.02726918 0.031574737 -0.045581743 0.045430858 -0.0059545897 -0.010751167 0.0097308075 0.0007689537 0.021127146 0.0034928753 0.0011289828 0.0090098465 0.022402633 0.008112607 0.024082862 -0.030203678 0.020857953 -0.018225385 0.025925016 0.02106582 -0.005558293 0.00094327214 0.032469787 0.011304295 -0.007832719 0.004880674 -0.0065281745 0.0024564078 -0.011171816 -0.034086503 -0.012613274 -0.027476145 -0.00032397537 -0.016659662 -0.018800817 -0.015067644 0.020858642 0.014910042 0.03347249 0.063934825 -0.0016241058 -0.0017452341 0.039982893 -0.026723014 -0.038680542 0.034622125 -0.0554043 -0.053300958 -0.00568698 0.016173024 -0.0060622483 0.01669249 0.00093804026 0.01596221 -0.014762452 0.00034233637 -0.039580643 0.04346451 -0.018176774 0.03233587 -0.031747814 -0.0113195935 -0.030005243 0.019425128 -0.0037290775 0.017258042 -0.014045006 0.03897978 -0.024244253 -0.035298895 -0.022894388 -0.0119625395 -0.007414242 0.0088004265 -0.012884978 0.008884134 0.0010145886 0.012631411 0.010195273 -0.011257506 -0.026770493 -0.07593774 0.005339268 -0.03149993 -0.034300856 -0.0059562814 -0.025865903 0.04063452 0.020586058 -0.010473252 -0.012286393 -0.0113454675 0.0055472497 0.010992448 -0.012129093 0.015460897
exactly 0.012090521 -0.0028709006 0.017279243 -0.00073108874 -0.00367018 0.012855813 0.02802946 0.019241128 0.023852507 -0.013019353 0.028530162 0.025119184 -0.041375745 -0.004357959 0.01609594 -0.029053856 -0.0012007682 0.005530575 0.025608484 -0.011110688 -0.010395691 0.031085249 -0.005933455 -0.019025879 -0.010449322 -0.017000008 0.008394595 0.00070982473 0.013920156 0.0007869506 -0.031887747 0.023996485 -0.008882906 0.0041186186 -0.019767739 0.0194665 0.00087081443 0.006819979 -0.015867941 0.0032687578 0.001883531 -0.008061069 -0.02675401 0.010366119 0.012730308 0.02111328 -0.010009867 0.0028845791 -0.0005255878 -0.007161359 0.033477634 0.021005973 0.028519422 0.009149796 0.0044864262 0.011959246 0.003989145 -0.010046241 -0.0035146768 -0.010700464 -0.018982306 0.0113246925 0.024737108 -0.01541313 0.0202641 -0.012031845 -0.018834326 -0.009323274 0.025986621 -0.019286541 -0.004080024 0.0032736254 -0.01712465 0.010153886 -0.014079153 -0.022436548 0.025428846 0.0025180723 0.015576489 -0.03457309 -0.016808134 -0.010747809 -0.051062826 -0.018098114 0.019625682 -0.010421507 -0.002582415 -0.005904193 0.018765902 -0.005540912 -0.04369692 0.015213217 0.0071419757 0.03339847 -0.017196998 -0.006163582 0.00933687 -0.022903243 0.046432413 -0.017360456
makes 0.0026684962 -0.021718472 -0.0058722897 -0.026636865 0.013602742 0.001032497 0.028813435 -0.0007985689 -0.0064927815 -0.022381637 0.0024434137 -0.0018451468 0.0063540977 0.018594714 0.0055212164 -0.019175256 0.019010292 -0.018736526 -0.0038298406 -0.010019646 -0.007182774 -0.049625404 0.011130376 -0.009359727 -0.02243807 0.0061818417 0.0026910626 0.0064859055 0.024566488 0.023378788 0.019199241 -0.02262743 -0.018626275 -0.010755647 0.015498011 0.0068252557 0.03604519 -0.0095268125 0.00029514031 0.0010785119 0.010094228 -0.0305577 -0.029605 0.025306756 0.00499358 0.021852098 -0.029635096 0.0071979854 0.0011080735 -0.017342217 0.0057621812 0.008128747 -0.005080021 -0.008567455 0.010065661 0.007497105 -0.016702645 0.014800311 -0.030956369 0.029210025 0.013771113 -0.014776009 0.0022696445 -0.0330375 0.015780602 0.0181215 -0.014541454 0.0070853257 -0.0013218144 -0.015692024 0.021357935 0.029989922 -0.00074433885 0.012060602 0.037869453 -0.0014673993 0.013169453 0.012792258 -0.0099021625 -0.03003825 -0.02057718 0.008261812 -0.033247214 -0.022441903 -0.0013384456 0.0029962177 -0.020020556 0.019778375 0.020286608 0.028891874 0.012364444 -0.008357069 0.06542756 -0.011084476 -0.008317506 0.02008799 0.0018253864 0.017428244 -0.022347694 -0.00964669
commodity 0.0112255905 0.01435276 -0.01447105 0.018917738 0.013299793 -0.00795994 -0.01684444 -0.021040361 -0.052989036 -0.013015851 0.005866813 0.013531551 -0.025961127 -0.03343326 -0.010762565 0.0041142763 -0.007879413 -0.008542992 0.011109455 -0.010452755 0.01692023 -0.0032018425 -0.030070662 0.0113729015 -0.012877636 0.0008146793 0.0036616053 0.03163287 -0.0094470205 -0.018676616 0.02476656 -0.0055375258 -0.020968933 0.00866348 -0.016285395 -0.016414626 0.014533615 0.0042677308 -0.020276465 0.0002420983 -0.008973409 -0.0033155235 0.0135430265 0.015476246 -0.0011342497 0.0035159911 -0.02336249 -0.003952952 -0.011603035 0.009041942 -0.0025141994 -0.01625149 -0.0034518363 -0.0010086517 0.0011196351 -0.0034644175 0.01208724 0.018363379 -0.019211238 0.007680713 0.00079426204 -0.0025887012 -0.043987595 0.008304582 0.020074628 -0.0021938225 0.011973605 0.004904449 0.004220239 -0.009468006 0.033396956 0.04590055 -0.024270967 -0.009074848 -0.0032157947 0.015600352 -0.012821116 0.0023505522 -0.011133546 -0.022123484 -0.01314334 0.009543009 -0.00017225766 -0.03341254 0.008053205 0.015466187 0.01768856 0.019083953 -0.0014652237 -0.0023995123 0.020916844 -0.005811374 -0.038894568 -0.0010526513 -0.017970327 -0.019621465 -0.0029339774 0.018843869 -0.003636891 0.0100098355
sides -0.0050505935 -0.009124347 -0.012991653 -0.0311642 0.00043681805 -0.010879849 0.027469534 0.0126140835 -0.002524121 0.011014158 0.043167006 -0.012580661 0.00061275257 0.026756112 0.03134563 -0.0415428 0.0057981173 -0.0065991576 -0.018353073 -0.007873421 0.016785845 0.029633105 -0.04075964 -0.0036636344 -0.03213779 -0.017937519 0.0040482106 0.017018653 -0.0057575847 0.017934225 0.0129894875 0.048235714 -0.018054744 0.010377297 -0.008673218 0.023786156 0.018323256 0.0026355356 -0.02377385 -0.008853185 0.0043027615 -0.02020796 0.010072485 -0.00040705525 0.0006015409 0.010449717 -0.007773733 -0.020577412 0.007975674 0.015864138 0.00029688608 -0.026915675 -0.02520009 0.023340592 -0.027207341 -0.013869895 0.0049179685 -0.0064211255 0.027403878 0.012996184 -0.019856941 0.024765193 -0.0078065917 0.024498928 0.027361512 0.04719437 -0.0024968851 -0.00021528162 -0.0001595043 -0.0067229825 -0.0007373373 -0.023590146 0.0013716827 -0.025455028 0.002809413 -0.03979432 0.015565457 0.016584175 -0.026069488 -0.010221567 -0.0104484605 0.004383133 0.0021503777 0.007884195 -0.004559296 0.0029775938 -0.027905412 0.004265204 0.020679127 0.03941456 0.042388037 0.021763733 0.0017720375 0.0046576243 -0.0027161795 0.022092529 0.016703505 0.0047371094 0.044816878 -0.014064554
see -0.024527943 -0.01786552 -0.011079639 -0.048537433 -0.008943755 0.016212685 -0.008529623 0.009875343 -0.0075378846 0.024623247 0.01865651 -0.022910817 -0.008050334 -0.036199838 -0.010634926 -0.0036530965 0.011297991 0.006092615 -0.0011628605 0.021533264 0.019339401 -0.008852502 0.008682429 -0.0006725419 0.025365217 -0.0020261416 0.008472963 0.03062585 -0.004827059 0.003910951 -0.0020166046 0.005030488 0.013010843 0.016228823 0.0038651538 -0.0084896935 0.0051890435 0.01901076 -0.009116163 -0.0056303623 0.0032526595 -0.04124365 0.01101351 0.018877745 0.0027059573 -0.016750444 -0.0048365276 -0.0023454628 -0.031064002 1.1560565e-05 0.004842392 -0.02170986 -0.000113221264 -0.0042923307 -0.0015692927 -0.017820261 0.00018831108 -0.010456105 -0.012125806 -0.001277192 -0.039431047 -0.0034766349 -0.018102648 0.017375048 -0.040507153 0.023951564 0.007227719 -0.0054547233 -0.0033319243 0.04184829 -0.012524299 -0.018159032 -0.012042862 0.004915594 -0.02334865 -0.021210274 0.004117327 0.007699732 -0.007658126 0.023382904 0.01389738 0.009038539 0.029819775 -0.00800225 -8.218631e-05 -0.006593059 -0.016302269 -0.00020166977 0.009654036 0.0059116464 0.02220343 0.020863557 -0.009328589 0.011968716 -0.018763885 0.007861813 -0.011476899 -0.0014858004 0.006297922 0.003104145
small 0.0042611053 0.015188372 0.037676707 0.02367591 0.016754571 -0.018327113 0.025818722 0.0085138 -0.028809553 -0.0043646963 -0.012884481 -0.00358285 -0.02546819 -0.018944444 0.03689235 -0.010004666 -0.016687095 -0.028829904 0.0023851148 0.0022079507 -0.009604503 -0.02669412 -0.01043809 -0.012178298 0.04357926 0.0054226 -0.036844168 0.008444438 -0.03313593 0.015673298 -0.017313128 0.02318369 -0.014537555 0.030675216 -0.02123334 0.016450826 0.022094669 -0.031336475 -0.0047564325 0.007469385 0.027588854 -0.014619327 -0.010365921 -0.0057130563 -0.012350446 -0.006549921 0.034788214 -0.010981096 -0.013058386 -0.031079387 -0.0010661702 0.006404093 0.0046970793 -0.010387035 0.031258646 0.009586178 -0.021262294 -0.023079684 -0.000107781496 0.030526465 0.010170219 0.009079787 -0.010902715 -0.005658579 -0.015819332 -0.008440517 0.02632538 0.007638749 0.0065926835 -0.023333512 0.0008455418 -0.0027261768 0.010647935 0.034673944 -0.012742123 -0.023097914 0.006518297 0.025387624 0.007658805 -0.011674133 -0.009423311 -0.0091878995 -0.006005053 0.0089752 0.04262969 -0.015194389 -0.003667149 -0.0121369995 0.026227431 -0.0045156344 0.021952545 -0.019949093 0.0046666157 0.029942438 0.004699482 -0.02070616 0.01252979 -0.023733823 0.0027550054 -0.0177834
prepare 0.0016949646 -0.007911621 0.011388227 0.011917657 0.04143664 0.017418543 -0.0064948983 0.020017844 0.024311302 -0.01443668 -0.0010000012 0.0030817087 0.024679653 -0.030993061 -0.010079745 0.011512642 -0.014074867 -0.02384248 -0.010719034 0.01235494 0.01572808 0.011869056 0.024533037 -0.0060574496 0.012990596 -0.04041154 0.021689843 0.004644813 -0.010297097 -0.01562772 0.02767881 0.013160167 0.0025221244 -0.0021723027 -0.010213225 0.015774412 0.033785157 -0.0063973684 -0.021296214 0.005837759 -0.024330212 0.0061395783 -0.011060281 0.020832725 0.0015987924 0.002292862 -0.01573884 0.0045221015 0.035456352 -0.012626469 -0.0071671912 0.018245557 0.010942007 -0.002175377 0.017786069 -0.018034235 0.0035406917 0.00064813235 -0.022175591 -0.015626298 0.006036953 -0.020166794 -0.03978335 -0.004505675 0.0040810923 -0.0030210882 -0.009998257 -0.02644266 0.007735279 -0.017220141 -0.020199401 0.033782527 0.011052234 0.010800535 0.008740008 0.008409754 -0.034091108 0.0127512105 -0.016635058 0.013367614 0.02626373 -0.021662643 0.00852456 -0.010545549 -0.017340906 -0.022881845 0.002880982 0.05305296 0.005030151 -0.014791626 0.00078195636 -0.020939857 0.008166094 0.015475476 0.0004741576 9.3854935e-05 0.019415861 0.0029996221 0.010137581 -0.001764667
interest -0.033263713 -0.016732711 -0.037856854 0.03821581 0.012205956 0.015425749 0.0325269 -0.036399085 -0.01440775 -0.003340748 -0.034900535 0.04585825 -0.025392316 0.011389792 0.008236112 -0.051239394 0.041454308 0.011534539 -0.0028904872 -0.016924793 -0.017773377 -0.01196688 0.0006404355 0.006574208 -0.0030980515 -0.0269138 0.020906858 0.004037041 -0.03181387 0.01363787 -0.021198066 -0.021781288 -0.0022459365 -0.02409344 -0.027676266 -0.048630733 -0.010801334 -0.02271515 -0.019166645 -0.012367188 -0.019410623 -0.012893474 0.012430424 -0.0374538 -0.02570038 0.03151608 -0.006606868 -0.05229482 -0.018121699 5.039276e-05 -0.012284071 -0.036825076 0.02312404 -0.03196894 -0.009172419 0.028646573 -0.01496919 0.05052283 -0.014252529 0.022316683 0.0025801135 0.01656088 -0.00808855 0.008203857 0.012621186 0.028792532 -0.0021217524 0.009733424 0.019068725 -0.0010591479 0.008224914 -0.023142785 -0.019803675 -0.036732588 -0.009619805 0.02202617 0.041242413 0.009337213 -0.007230029 -0.037599824 -0.014631967 -0.018736547 -0.0030196246 0.016296698 0.0051408885 0.02136652 0.022509119 0.020353291 0.017566161 0.03680635 -0.03540659 -0.019213207 -0.019696008 0.0013125277 0.03479934 -0.04689364 0.015558659 -0.01190963 -0.004396312 0.0067806654
excess 0.008927766 -0.022016607 0.012246722 -0.002928303 0.005572555 -0.0062430017 -0.01670735 -0.02906394 0.03516151 0.0144972345 -0.012564395 0.028070435 0.01070065 -0.0005283255 -0.003213211 0.0020865626 -0.037342995 -0.02390976 -0.0020888106 -0.033131696 -0.0029408396 0.014816944 0.023812294 -0.022959428 0.001536132 -0.023019511 0.0051264404 0.0022061137 -0.008590715 0.04140022 0.00012652006 -0.007300467 -0.0015461673 0.010005133 -0.015855545 -0.008339157 0.0019770828 0.0043667248 0.006705233 0.004018488 -0.010569841 0.00020096061 0.03555281 0.021881748 0.0027655333 -0.023306686 -0.009306593 0.021727858 0.018608116 0.0019758376 0.013244935 -0.029000094 0.001891058 0.008211958 0.019963002 0.0003543059 0.023033377 0.023999583 0.014477251 0.015318804 -0.008764276 0.00836823 0.0040792245 -0.023613289 0.014803885 -0.020865919 -0.016551463 -0.010368181 0.042840023 0.010363535 -0.012236248 -0.0013080058 0.014093842 -0.001979643 -0.013664092 0.0043649 0.015473571 -0.0017491349 0.0076377466 0.0059551666 0.0040172436 -0.006729944 -0.0041548028 -0.00035656602 0.01595127 0.0020156037 -0.017896375 0.033684682 -0.0025936256 0.014768077 -0.0107064955 0.020972451 0.026194416 0.014217069 0.016965404 -0.0039335173 0.026391685 0.010881187 -0.0035686307 0.012387545
treating -0.031055558 -0.034941666 -0.028876506 -0.004684842 0.0042179963 -0.0020828499 0.04123074 -0.018651979 0.023082593 -0.0016503104 -0.0065672733 0.029660596 0.02060214 0.0065837596 0.01447851 -0.017324904 0.00044920546 0.004921999 0.0063253073 0.003300226 -0.009073908 0.0059622135 -0.008166269 0.012772619 -0.03249078 0.046935033 -0.0025516562 0.027738653 -0.018201165 -0.03941327 0.025598256 0.036091466 -0.021013884 -0.0041659465 -0.004833892 0.023058252 0.033794258 0.016554885 -0.0015062277 0.0099504385 -0.049429942 -0.015027554 -0.025727231 -0.035673853 0.009430319 0.018257242 -0.0100336075 0.040870726 -0.011196171 -0.009060164 0.05701587 0.021828657 -0.01177257 0.023349306 -0.023951089 -0.002161604 -0.021698935 -0.017564733 -0.0009927492 -0.03055527 0.031189451 0.014018886 -0.0053542554 -0.04373564 0.0062917946 0.0047962903 -0.000680767 -0.016404327 0.007447164 -0.02642989 -0.02284349 0.0028272448 -0.016464617 -0.009351464 0.007370871 0.030842394 0.03881504 0.005271842 0.0077095856 -0.007981685 0.010393655 -0.02365115 -0.01543391 -0.0013562606 -0.011981567 0.019361947 0.0008510222 -0.0010218709 0.0030773496 0.0038239579 0.00085875206 -0.038226437 0.0020227781 0.043491233 0.010781705 0.015361732 0.016694617 -0.007807884 0.0006316145 -0.04518886
program -0.0036346982 -0.08895328 -0.017674657 -0.048039507 0.04101606 -0.0164788 -0.012634314 0.10967345 0.019724568 -0.06665935 0.061372306 0.08098087 0.0043696905 -0.07914545 -0.06509049 0.012389357 -0.044651154 -0.10495401 -0.0765017 0.027694056 0.04592569 0.031894587 -0.05501534 -0.012424094 -0.042342372 0.063952655 0.004055908 -0.0573114 -0.07833057 0.022776991 -0.038423877 0.04085978 -0.0781678 0.03919955 0.109017126 0.034077402 -0.050112315 -0.036105137 0.0581326 -0.0051074787 -0.019160148 -0.03617052 -0.038202636 0.07073527 -0.07794504 -0.07529757 -0.092890434 -0.012462859 -0.0672963 -0.007700714 0.013729533 -0.0293388 -0.01507117 -0.053105175 -0.051098667 -0.042996142 -0.08466268 0.008293202 -0.023202289 0.051188584 -0.10241621 0.08972885 0.08599466 0.0013604573 0.064380646 -0.05016326 -0.0014841128 0.040777594 0.019155815 -0.026803527 -0.0771531 -0.14714278 -0.033651836 -0.0449749 0.01843743 0.028347129 0.09359696 -0.15653983 -0.040476162 0.0038981845 -0.0008445154 0.050100178 -0.110852934 -0.0046626357 0.0018686134 0.03341608 0.046906345 0.025836399 0.03791303 0.021263413 -0.09891799 -0.052907534 0.051494192 0.11838674 0.019909408 0.017264701 -0.058213666 -0.051431675 0.0016887258 -0.1040263
refunded -0.007851282 0.009324212 -0.0202397 0.011483463 0.024378423 0.0065343906 0.015903892 -0.013798457 -0.0023319975 -0.018007632 0.00025365228 0.021556903 0.012379956 -0.026617434 0.01083782 -0.0002807855 0.0112022655 0.018712265 -0.0047770357 0.011809019 -0.011369478 0.0115415035 -0.0063945623 0.02619731 -0.009279823 -0.015159134 0.016539795 0.031961963 0.017254751 -0.021449467 0.02606049 -0.018780772 -0.017952606 0.001784967 -0.016384697 -0.010904477 -0.0140663665 -0.0027733122 -0.02505786 0.034217555 0.012061056 -0.0031703562 -0.01902541 -0.012248557 0.009686928 0.030379703 0.010274563 -0.0026219676 0.008825204 -0.0017052336 -0.008204338 0.040322624 0.010202778 -0.01575324 0.0144057935 0.015436116 0.019956732 -0.006768003 -0.022891486 0.016742505 0.009212124 0.0072839996 -0.036998644 0.00860475 -0.003462857 0.010923428 -0.025070066 -0.02118838 -0.023436153 -0.029778466 0.021543054 0.009093796 -0.034912918 -0.02418047 -0.00172832 -0.011821173 0.0022920084 0.0107227145 -0.0042897775 0.013110844 0.010573799 -0.0004265965 0.0007312631 -0.02806219 0.0033348126 0.046805248 0.018681647 0.0102607235 0.001876848 -0.0056210295 0.00902607 -0.017437756 0.011886107 0.017511649 -0.021803407 -0.031829383 0.0075754826 0.0029933448 -0.014119659 -0.029865246
recommend -0.005426725 -0.009455671 -0.0017116161 0.004213298 0.020669848 -0.01991815 -0.017879812 -0.027414266 -0.011093039 0.0009643199 0.009841903 0.007820385 0.0039567836 0.02418725 -0.002575973 0.0011454197 -0.0040715104 -0.0051347655 -0.0020390996 0.0022659248 -0.0067160963 -0.0055275457 -0.020054394 0.009572331 0.003261192 0.03526451 0.031575013 0.0049009593 -0.0011293606 0.024971616 0.0029773945 0.023412872 -0.016313983 0.005676326 -0.010195867 -0.022669548 -0.041894883 -0.003160853 -0.0061199293 0.0014659531 -0.0076957364 -0.00041830103 -0.0149368355 0.019134462 0.012051746 -0.0013092674 -0.008098495 0.012869983 0.026720569 0.011024778 -7.929129e-05 -0.0033600514 0.021121234 0.016992358 0.005847461 -0.0018813051 0.026701834 0.024321157 -0.020403052 -0.028411025 -0.0085531995 0.00889497 0.0053047757 0.002078378 -0.004125688 -0.0033404971 -0.049033895 -0.0031126249 -0.011322798 0.0040572053 -0.0036207708 0.014275903 -0.023190537 -0.028407237 -0.0059027756 0.002973002 -0.009538847 0.017096806 0.00918 -0.01826628 -0.0035387243 0.0032745344 -0.001954903 0.003922187 -0.012538955 -0.01715726 0.0015603229 0.035495967 -0.004341749 -0.012058539 -0.005472348 -0.009982943 -0.030471742 -0.03731454 -0.024692815 -0.007299378 -0.0050230995 0.016893845 0.011878191 0.03226184
mill -0.000872015 0.02407843 -0.014386713 -0.0045628757 0.018837277 0.024278348 0.0051666065 0.014587538 0.013164016 0.01048378 0.01785197 -0.0071042525 -0.00049833354 0.022313002 0.022910852 -0.026916906 -0.0017630451 0.04260896 0.0011661098 -0.013948444 -0.0324637 0.0068505364 -0.0024686186 -0.0034896536 -0.017465204 0.007229348 0.00904561 -0.0010469473 0.0072721136 0.017278971 -0.014886405 -0.022771232 -0.0018580981 -0.02489885 0.01756302 -0.015316126 0.0011974054 -0.013274949 -0.005136124 0.0020988872 0.013185244 0.023236815 -0.0012514672 -0.006195064 -0.030254085 0.0025037364 0.016289936 -0.04429431 -0.013359836 -0.0035487544 -0.009571739 0.0112202205 0.014705891 -0.0006224963 -0.0044241697 0.008099102 0.010888738 -0.0023851246 0.0019322998 0.0056858826 -0.007112317 -0.0068049873 -0.012745805 -0.0052694893 -0.018159669 -0.018337823 0.019365592 -0.016924063 0.020445362 -0.00861975 0.017755238 -0.014487322 -0.009001949 -0.0034095575 0.0026239248 -0.007060257 0.01494218 -0.013025868 0.00514062 0.003652283 0.0033059937 0.013981269 0.025807498 -0.00628183 -0.0372592 0.012370728 0.028573073 0.017210538 0.020308087 0.007233461 -0.01349145 -0.018164663 0.007973641 0.01106149 -0.007895302 -0.011542184 0.03118749 -0.021559162 0.006858643 0.0047205538
Valley 0.0073834 -0.013151409 0.024671204 0.0153604075 0.025002815 -0.008264648 0.0019517409 -0.026774043 -0.010354138 0.007009641 0.0014098659 -0.006366889 -0.034093924 0.017106423 0.019058097 0.006852609 -0.0068053263 -0.0057882685 0.020728791 -0.0139014125 -0.019461654 0.00787573 -0.02657435 0.021332817 -0.0069398503 0.005254746 -0.00052908517 0.027760543 -0.009047107 0.014531644 0.0021035066 -0.0058863484 0.0052117845 -0.012084559 -0.020918963 0.010042249 -0.01506154 0.005893247 -0.021396734 -0.0059489748 0.009822326 -0.006020378 0.034606356 -0.010899185 -0.008699293 -0.022346271 0.0065401588 0.0002188092 -0.0046607563 0.0058949348 -0.012028062 -0.018390639 -0.013466602 0.005073767 0.009891725 0.041099545 0.008893165 -0.02633628 0.030535059 0.010693313 -0.01695572 0.00214639 0.009834075 -0.01798962 -0.021873642 -0.0014487032 -0.017606145 -0.0016315855 -0.0076344805 -0.0054765735 0.024303796 0.0027168875 -0.005278797 -0.0013951905 0.032196157 -0.03356095 0.007357862 -0.018371174 0.02018525 -0.0015438427 -0.010171689 0.0074349977 -0.017559621 -0.022561856 0.013920442 0.0013299729 -0.008060029 0.011451364 -0.023344258 0.006173931 -0.019866757 -0.03640735 -0.011116218 0.005013204 -0.018248629 -0.016669355 -0.0034816293 0.0014667129 -0.026255708 0.015516239
world 0.021017823 -0.034857545 0.027558962 0.035427358 -0.008573593 0.0071711647 -0.0009806205 -0.007904908 0.03177103 0.016806962 0.0014975328 -0.027120756 -0.0029451395 -0.013778133 0.024396192 -0.0044799293 -0.0039778743 -0.015617494 -0.014304463 -0.014308471 0.013739156 0.0010140361 0.0063484283 -0.019182034 0.019489687 -0.020711418 -0.0076812725 -0.0055917692 0.010084509 -0.030299658 -0.0012504801 -0.013526226 -0.016836168 0.006785652 0.008673865 0.0069949753 0.042284545 -0.0014869398 0.025491085 0.0065994263 -0.0061316295 -0.011648141 0.01285545 0.008986448 0.026376983 -0.01067599 0.030158155 0.023644868 0.0032565077 -0.011403724 -0.02240618 0.014174042 -0.019183138 0.02243653 0.014909463 -0.006526155 -0.014449733 -0.0045233797 0.0013844762 -0.010122421 0.044872716 0.014767575 0.01399959 0.00837804 -0.024238784 -0.022094032 -0.0067888917 0.0057986057 0.030668817 -0.024893744 0.028798211 -0.017026482 0.030767314 -0.0063350108 -0.0032149996 0.0047298507 -0.032533873 -0.06300145 0.004999652 -0.0461153 -0.017330773 0.016651731 0.013310743 -0.02790834 0.03230719 -0.034290075 -0.03109647 3.3497694e-05 0.011363079 -0.00753305 0.018128509 -0.01848848 -0.022322638 0.015457612 -0.021403516 0.003144031 -0.011687751 -0.006098836 0.022325868 -0.028947454
faced -0.020216333 0.015743852 -0.02128652 0.018670553 0.010448385 0.031466205 -0.011794651 0.013956766 0.025827607 -0.010158687 -0.023798123 0.022388486 -0.060472276 0.00017285487 0.0026921947 0.009330524 -0.036217004 0.02027449 0.018433463 -0.011078676 -0.023218969 0.013788985 -0.03431072 0.02600954 0.03512373 -0.0060460377 -0.012561455 -0.028893707 -0.022535099 0.035647098 0.014507771 -0.013262339 0.034560237 -0.0037158069 0.001993907 0.0027487471 -0.019567478 0.035349533 0.015618303 -0.01228718 -0.018011924 0.0045444476 -0.014184434 -0.013985757 -0.024777502 -0.009765018 -0.0043729004 -0.0042600096 -0.026506735 0.049337298 0.026242414 0.027534144 -0.034013696 -0.003927808 0.006547414 -0.047233526 -0.00049080205 0.026348373 -0.0012941316 -0.0006060072 -0.00011757197 0.009299764 0.0029270337 -0.024425164 -0.022032637 -0.0066222297 0.008743527 0.0058792084 0.0067905756 0.010895519 0.017880067 -2.9180665e-05 -0.021382311 0.02556951 -0.03724914 0.014204015 0.025921483 0.02641909 0.014111606 -0.018763462 -0.0071613938 0.042501736 0.009216574 -0.0050144433 -0.00055813225 -0.018346284 0.008711072 0.0017322076 0.024560943 -0.021914091 -0.0010027934 0.0012486835 -0.018695313 -0.00089136267 -0.01655001 -0.009209771 -0.015561434 0.012497834 -0.012157458 -0.008086964
power -0.016132176 0.015655091 0.038995575 0.0030309306 -0.033962015 -0.007172976 0.039872654 -0.023778625 -0.00840736 -0.026467776 0.0028635226 0.029521933 -0.03185372 0.0038711596 -0.0070947288 0.0029974415 0.0018920392 -0.035901874 0.022002464 -0.019768931 0.012074417 -0.021122904 0.0011983418 -0.0064401757 0.0013159352 -0.011806129 -0.004580995 -0.035134364 -0.013401503 0.02198612 0.007147888 0.013936267 -0.019552225 -0.011140413 0.0025675928 -0.0059503987 0.017828723 0.013086818 -0.009115172 0.011002655 -0.023732854 -0.015071959 0.0047969623 0.002000718 -0.00036835787 0.028249448 -0.041581333 0.0026059276 -0.020492993 -0.01660001 0.0037019826 0.012227319 -0.040346038 -0.0010293496 -0.036037803 -0.0029975437 -0.0035708123 -0.014381911 -0.03158796 0.03000877 -0.013507237 -0.022327855 0.025423279 -0.014431875 0.0045766393 0.029870778 -0.049529526 0.0074497657 -0.022808934 -0.012977451 0.0009769093 0.029264016 -0.012391072 0.051680494 0.028339185 -0.0034720446 0.023012556 -0.007774587 -0.013825739 -0.034100596 0.017295323 -0.032745264 -0.0047178767 -0.0071299407 0.009622626 -0.011340364 -0.017444149 -0.007902746 0.00095383544 -0.00807901 -0.017819485 0.00062621786 0.052317496 0.025509916 0.027322032 -0.015421949 0.010619419 -0.035355955 -0.0186967 -0.02082328
claim 0.0075809686 -0.011930588 -0.03673488 -0.04227689 -0.036534596 0.02630026 -0.009077999 -0.024993926 0.012010857 0.007963793 0.040859032 -0.0061635356 -0.028287439 0.011718377 0.01859762 0.01726282 0.030262068 -0.020847216 -0.012132805 0.025175218 -0.0031293903 -0.0085531315 -0.008773635 -0.0043412345 -0.00045198278 -0.011555325 0.026286762 -0.032695986 0.054287218 -0.0058324677 0.022836052 0.008573931 0.04294294 -0.02674408 -0.017577102 -0.026277019 -0.004161365 -0.026873419 -0.01814841 0.0034567877 0.011861727 0.0033752876 0.0014980802 0.0073188487 0.016262455 0.009144251 0.044514257 -0.05164331 -0.00021771746 -0.02928265 0.008012535 -0.02672257 -0.017619327 -0.015599527 0.021401562 -0.024171129 0.0033746616 0.026128357 0.0014309948 -0.015079778 -0.016394215 0.041326463 -0.00087706343 0.0084834285 0.0028795474 0.024586314 -0.019259011 0.030349659 0.008325027 0.017229278 -0.002743077 -0.027743857 -0.00022624596 -0.003937442 -0.009102003 -0.010926885 0.0038666432 0.0093893735 0.008335473 0.033532005 -0.048796274 0.023593193 0.0015383869 -0.037204254 0.0014615649 0.031444505 -0.020857751 -0.021032743 0.03398329 0.0036026821 -0.017390119 -0.009397243 0.002394664 -0.0013873612 -0.018750591 -0.008926846 0.011297615 -0.023899069 -0.004146689 0.03196922
Speaker -0.016938897 -0.022584142 0.005971337 -0.013267433 -0.015063859 -0.0069120377 0.031697698 0.0021092205 0.02039843 0.010747882 -0.00052381516 0.03022504 -0.02002107 -0.0016968456 -0.010495581 -0.02228647 0.019792575 -0.013830443 -0.02748354 0.018911796 -0.00039078086 -0.004739205 -0.0011654637 -0.009318945 0.004008026 -0.003161994 0.025256915 -0.008555326 -0.02362123 0.017711272 0.008302173 0.012819743 -0.055066004 0.0004529081 -0.019416388 -0.009582303 0.025890518 0.020794652 0.020818818 -0.023578083 -0.008770873 0.0121826185 -0.015800599 -0.005878972 0.0138052665 0.01379346 -0.024574006 -0.008378732 0.004512552 -0.02344057 0.04012061 -0.019736608 -0.015758108 -0.016072094 -0.027862925 0.005542866 -0.0040992326 0.011227975 0.012281256 -0.008270972 -0.0052844817 -0.009194696 0.010507254 -0.0014941185 0.054420345 0.010929546 -0.022696707 0.011882195 -0.017561128 -0.038443014 0.015640642 -0.031746354 0.03192856 0.003551702 0.03647517 -0.02059841 -0.0054910164 0.025176758 -0.03004357 0.007828992 0.028566642 0.010757882 -0.002100731 -0.0274414 0.014414317 0.014150059 -0.00063347665 -0.0065587233 -0.0013775937 0.0039883717 0.051364798 -0.0015002862 -0.0023077258 0.02190545 0.0062380275 0.012741193 0.019871552 -0.014624935 0.0020079874 -0.03791808
Hare 0.02651341 -0.00030266587 0.014237852 -0.02402488 -0.01536531 -0.0011640404 -0.025332123 0.027772708 0.019728702 0.020808037 0.023248145 0.006470179 -0.022352496 -0.0057578813 0.01944354 -0.020951742 -0.014022657 -0.020987704 0.00791969 -0.013357177 -0.019942211 -0.013496127 -0.021659752 0.033438697 -0.017012896 0.009918164 -0.018772978 0.03059466 -0.00711917 -0.013263759 -0.011007434 0.007795661 0.014375318 0.002158208 -0.004068494 -0.04067236 0.011631881 -0.007623336 0.009588135 -0.022803346 0.017123545 0.027544882 0.008890339 -0.010073851 -0.0021553955 -0.005269875 -0.00038386913 -0.011361782 -0.035954647 0.02754996 -0.002124789 -0.005044983 0.041606843 -0.003341097 -0.019062236 -0.003787076 0.035711613 0.017887743 -0.0034800514 0.016822565 -0.020505982 -0.025107853 0.0029373085 0.017301148 0.0032813551 0.0025647576 0.014757671 0.02681655 -0.01138139 0.020549443 -0.0152999 -0.008341445 -0.030095406 -0.008062135 -0.02884998 0.023313917 -0.018451573 -0.002378434 0.014459869 -0.017555175 0.008914293 -0.016640529 0.0046720784 -0.0050272765 0.024844209 0.019702546 -0.02091252 -0.018915493 0.01382748 0.012496894 -0.0048840097 0.02845702 0.019133853 -0.027167205 -0.030716615 -0.014200646 -0.028679656 -0.018981202 -0.014645114 0.008681543
completion 0.0058373823 0.007051344 -0.013346345 0.040412974 0.043031324 -0.05402674 0.050680812 -0.044392448 0.0028100885 0.048918698 0.01513382 0.032872286 -0.017302977 0.004556133 0.021953555 0.01613838 0.02195746 -0.038085856 -0.009132478 -0.030851988 0.0329022 -0.04110899 0.0039843917 0.0057877414 0.014108889 0.03304733 0.018641386 -0.035511937 -0.012908607 0.0672219 0.030958101 -0.016588556 0.0017940971 -0.024908667 0.024916383 -0.005532972 -0.044737544 -0.034302853 0.017356671 -0.0409139 0.0027480475 -0.031210009 -0.028329736 -0.030639095 -0.041256092 0.043547045 -0.048443563 0.017007511 0.019413132 -0.038953457 -0.012849739 0.049320363 -0.039933994 0.009690505 -0.005892139 0.0041661803 -0.08133756 0.008172043 -0.012316689 0.03785331 -0.0356063 -0.023993336 0.031327907 -0.027415909 -0.012235827 0.032624833 -0.0195561 -0.044553243 -0.027252587 0.006372813 0.017937137 0.036960144 0.017680801 0.04528924 0.001235086 0.018922765 -0.039861593 0.017119167 0.013202964 0.012644463 0.052393317 0.016431965 0.02931784 0.05641434 -0.073816836 -0.048570607 -0.005010458 0.005739872 0.024270434 0.0006937461 0.024874367 0.018074889 4.833401e-05 0.013005524 0.037241895 -0.004656076 0.014875484 0.045007356 -0.008819967 -0.013659213
estimates -0.004641792 -0.008113334 0.018270344 0.012274589 0.0069349147 0.011102045 0.02523609 0.039458703 0.009490561 -0.019962065 -0.01935762 -4.420028e-05 0.019041333 -0.012723785 0.031336598 0.019335361 0.0062781367 -0.0022581012 -0.006724081 -0.0217559 0.006200182 -0.011323265 0.013396777 0.0020711746 -0.022195294 0.023476802 0.009106424 -0.0022677896 -0.0021023764 0.009706019 0.006712522 0.018211834 -0.0338871 -0.012001821 -0.006638719 -0.0068414332 -0.0038305218 0.0009526033 -0.024054803 0.02034938 -0.009202649 -0.02014625 -0.014188539 -0.014301086 -0.019164214 0.00052819867 0.03895583 -0.01979613 0.0050763935 0.02446647 0.012024679 0.0020700253 0.00043882465 0.0043922924 0.048446193 0.010920616 -0.0352455 -0.005709745 0.009642504 0.022561852 0.00872741 0.0070810416 0.008098847 0.03926612 0.004066652 -0.01958609 0.007355804 -0.016313832 -0.0153086735 -0.034682304 -0.00659246 0.02867053 0.0011375466 0.070014454 0.021021424 -0.022776773 -0.0053294282 0.013794607 -0.009533777 0.00571444 0.004497959 0.02139462 -0.014710416 -0.0037244498 0.021901513 -0.022256978 0.008850214 0.0059735975 -0.018408004 0.019375853 -0.01299213 -0.009880165 0.01773708 3.1188887e-05 0.0074707023 0.013695378 0.014315458 0.008426663 0.0018188094 0.0002390527
Wheat 0.016895223 0.008152708 -0.016714532 0.0010741374 -0.037029073 0.014547996 0.03242373 -0.009827038 0.0181496 0.00070327194 -0.037080016 0.014824254 0.022543496 -0.042771358 0.023062972 0.026257865 0.00039663655 -0.03900652 0.017672844 0.0060274648 -0.022622433 0.0087603135 0.007829447 0.011133442 -0.0037181017 0.01625237 -0.023944965 -0.008979752 -0.045377854 -0.016016172 -0.006765628 -0.0055802483 -0.024452897 -0.0054673734 0.01176222 0.02690101 -0.0057171313 -0.04943088 -0.008996105 -0.01914025 -0.029432679 -0.03385964 0.00705099 -0.012028718 -0.026491242 -0.023993302 -0.010617448 0.033373214 0.005351169 -0.004203323 0.0355681 -0.004203536 -0.026807405 -0.0012819282 -0.00064971455 -0.009048606 -0.044232573 -0.00076499773 -0.015083868 0.012560917 -0.01188674 0.010944525 0.036964152 -0.021930488 -0.012304789 0.011565196 0.011307529 0.010459957 0.002466177 -0.030700155 0.019621039 -0.0024975736 0.049910866 -0.011223379 -0.029236875 0.039264772 -0.0039526667 0.008688977 0.0044843433 -0.0038805266 0.011334078 -0.0074406494 -0.011004301 -0.0060150796 0.036406998 0.006376814 -0.0036366363 0.052833933 0.04187643 0.022183634 0.026800705 0.040536024 0.012358644 -0.025060372 0.026301458 0.039843116 0.019274035 0.011214921 -0.010194801 -0.008907675
taken -0.021477409 -0.0069786995 0.030876653 -0.020078346 0.012082105 -0.024026144 0.019681133 -0.015274904 0.00015684369 -0.016015783 0.034679525 0.03638649 -0.0025889857 0.017485842 0.027489701 0.014430279 -0.0073038666 -0.024177585 -0.011937287 -0.03736393 -0.021489529 -0.0143841915 -0.026437717 -0.02719676 -0.002992958 -0.040028054 0.011777977 -0.005161382 -0.00052714103 0.0042789825 0.0054814164 0.03802083 -0.031891044 0.0075627766 -0.012804091 0.02304803 0.030428663 0.0033226502 0.00478776 0.0177584 0.049929358 -0.00074817205 0.015997363 0.0039865933 -0.035094943 -0.011945445 -0.0014948628 0.023671065 -0.019838529 0.0030139445 0.030853026 -0.021026911 0.01496866 -0.004053225 -0.018494427 0.053681172 0.0034382406 -0.015007053 0.017252348 0.04504794 0.0028836706 -0.039580874 -0.013487353 0.0006802264 -0.030198265 -0.02158614 -0.034681953 0.0066367597 0.014325692 -0.027211988 0.049125638 0.0064786524 -0.045723364 -0.018763464 -0.03224259 -0.043136172 0.045487545 -0.03321336 0.007950664 -0.025425062 0.020543473 0.05414412 -0.0022132555 0.011212493 -0.035305135 -0.0037401814 0.042692307 -0.0036948707 0.0075383093 -0.015078567 -0.02784457 -0.0049391687 -0.025745299 0.034363933 -0.030599933 -0.0065311724 0.04531759 -0.0010608276 0.0009664264 -0.019922055
activity 0.015040078 0.016506443 -0.012130255 -0.028081339 -0.01686453 -0.027181225 -0.05320218 0.016714407 0.003242412 -0.01845041 0.012945241 -0.011068565 -0.002006503 0.028727412 -0.024005465 0.041792393 0.0044985213 0.024698703 -0.023015197 0.012406814 -0.026445638 -0.0024535868 -0.010874601 0.00025321427 -0.004104359 -0.0068616318 0.010264431 0.026178746 0.023624731 -0.02352282 0.021750228 0.004816361 0.013561142 0.037816517 -0.007885079 -0.007828009 0.0033280011 0.015720425 0.012546241 -0.021885462 -0.01915449 0.0050512655 -0.021212207 0.007023012 0.0012020782 -0.005631839 -0.017118398 -0.0027225686 0.014295056 0.00853148 0.0012761967 0.016470239 0.0046571638 0.011106772 0.012247978 -0.003616507 0.018292774 0.031666506 -0.008877706 -0.01716028 -0.011286381 0.010851443 0.021816721 -0.010699211 -0.042573262 0.0037024338 0.022037962 0.025038525 0.00074255693 0.047326345 0.0012791428 0.013537968 0.0031544408 -0.02830902 -0.00042679766 -0.016876731 -0.021756105 0.005926209 0.0070410804 0.026400935 -0.005138179 0.0136154825 0.022995513 0.018638253 -0.024529172 0.0016169113 0.021980314 0.014699379 -0.018495984 0.014189826 0.004408685 -0.007063529 -0.022624504 -0.01872989 -0.0070575695 0.025403136 0.011542127 0.015765907 -0.007621309 0.016191434
figure 0.012172495 -0.0051518474 0.0119286105 0.02562901 0.019149564 -0.003464495 0.015517152 0.00050567096 0.046961933 0.008408209 -0.017716985 -0.020775385 0.00065413164 -0.011895567 0.015564299 -0.018175494 -0.00011963188 -0.0081215855 -0.0047294237 -0.010425251 -0.009830142 -0.021707881 0.010798141 -0.011269893 0.017864794 -0.013753361 0.024666175 -0.02055365 0.022199638 0.0061333375 0.0067457044 0.0040009394 -0.0038165702 0.0031537332 0.00936985 -0.03545151 0.0070298775 -0.041511435 0.005804926 -0.023751775 0.0040917206 0.005515177 0.025451992 -0.0076309526 0.00988628 0.012326569 0.02454907 0.021562379 0.010679375 0.0004613932 0.01057302 0.020647211 -0.03396871 0.045939 -0.005833589 -0.0074786823 -0.01899115 0.030380225 -0.022243686 0.0027350711 0.01669172 0.015301428 -0.0060943207 -0.003996185 0.036949396 -0.024312537 0.01995739 0.011787163 0.011299801 -0.026022188 9.18578e-05 -0.03641743 0.011839015 0.005813608 -0.022467913 -0.017630145 0.00042094983 0.025538927 0.02318074 -0.023851551 -0.005358924 -0.011553156 0.0143700875 -0.0067504244 0.0023074374 0.012210187 0.013308811 0.015978808 0.008926504 -0.009748462 0.03472004 0.0074428376 -0.00595197 0.013901192 -0.007753463 0.017127262 -0.005708437 0.016880535 0.029994182 -0.00970427
commitments 0.0007758469 0.01913117 -0.03156969 0.016843982 -0.008874804 0.008137852 -0.036566522 0.008669587 0.018250467 -0.022078928 -0.019669812 0.01693872 0.017868416 -0.011102219 -0.0059077386 -0.008397217 0.036227603 -0.026265264 -0.0044203363 0.017404364 -0.0061514694 0.019535942 0.03745527 0.033841595 0.0036682119 0.015875863 -0.00084485416 0.011695357 0.002410186 -0.020828476 0.018502476 -0.0180603 -0.0024673184 -0.008351274 -0.00893347 0.02655315 -0.01873046 0.017970078 0.00888991 0.0426382 -0.01454139 0.0020283796 -0.011273048 -0.003984171 0.012889837 0.008249668 -0.0047213016 -0.01006989 0.006485434 0.008646903 -0.023469947 0.026090115 0.008056289 -0.016537268 0.00021255063 -0.022219993 0.005528932 -0.033879053 -0.010200968 -0.0060580103 0.01744806 -0.008304533 -0.012197545 -0.010641483 -0.0061631277 0.02813643 0.010589184 0.00055499375 -0.020988554 0.012243335 0.0034110453 0.008882535 -0.03376703 -0.025583778 -0.0030955537 -0.0020467415 0.002044584 0.025214793 -0.016415784 -0.012171834 -0.008661448 -0.0040938067 0.008653894 0.031816404 -0.03560211 0.014051415 0.0071346974 0.022348154 -0.030038986 -0.0018994145 -0.020844406 -0.025507884 0.0028091157 0.01676365 0.013100926 -0.027727947 0.009954578 0.021948475 -0.012765141 0.018408615
loan -0.028976906 -0.046679396 -0.0391273 -0.044461653 -0.01331747 0.0062005073 -0.016166447 -0.00047309994 0.011937966 0.032544293 0.023767563 -0.008251239 -0.0117852185 -0.0026983386 0.027336843 -0.022334721 0.0076919612 -0.023408158 0.006052589 0.007552006 0.025753496 -0.01908285 -0.03709536 -0.035453126 0.018860655 0.023044301 0.029797526 0.006439887 0.035477135 -0.0098970905 0.02180918 0.009504956 -0.008770086 0.014970077 -0.03424371 -0.023266863 0.008595921 -0.013348659 0.012960543 0.021797732 0.011143844 0.0006094503 -0.021149037 -0.0058355317 0.036983725 -0.0035061296 0.023286188 0.05598859 0.033297125 0.02288173 0.026766382 -0.016332667 -0.019264562 0.0021752035 0.005682442 -0.041612845 -0.025323298 0.0042878673 0.016937584 -0.018216446 -0.030067591 0.0061901035 -0.026041579 -0.015976729 0.005365949 -0.03929459 -0.035638098 0.02213861 -0.021670258 0.0122027 -0.023230622 -0.032585602 0.024975264 0.018213598 -0.023819886 -0.014725976 0.028639197 -0.021702819 -0.019963237 0.03833944 0.004110582 0.0025396778 -0.0067346175 -0.008347019 -0.017537618 -0.016960058 0.0044399453 0.0055147083 -0.022422567 0.0022580235 -0.015993008 0.00017431776 0.016877646 0.0007867871 -0.03800688 0.014888433 -0.025482077 0.004727904 -0.02081763 -0.023618639
away 0.007114678 -0.025406696 -0.023694212 0.026842821 -0.00062096794 -0.013538218 0.041070297 0.015115954 0.0048045833 -0.015831014 -0.0058941054 0.018714543 -0.036893845 -0.016542036 0.017950514 -0.024598012 -0.017764643 -0.02980912 -0.033219144 0.0072617442 -0.02264735 0.0021041576 0.033825938 -0.033993997 -0.0075236554 -0.001334571 -0.014386741 -0.025747009 -0.008200492 0.01076716 0.0010954768 -0.020190079 8.344813e-05 0.01599436 -0.003142083 0.016957907 -0.025189845 0.013890379 -0.010708189 0.0035105548 0.0012968951 -0.016456237 -0.012253325 -0.011935994 -0.006692998 -0.0033471622 0.0032929063 -0.0003341895 0.007933425 0.005592437 0.027172215 -0.023690183 0.02931129 0.008439797 -0.013280444 0.029588383 -0.024582375 -0.015222243 0.029809302 0.0071388483 0.03209728 0.005997165 0.0052192695 0.0050707473 -0.01639455 -0.019007433 0.0046367594 -0.023139536 -0.0109537 -0.04484068 -0.011360942 -0.023059746 -0.040508498 0.013787829 0.008069697 -0.028255714 0.019584093 0.0034325535 -0.00751333 -0.008367299 -0.012880162 -0.010644212 -0.014996169 -0.011316511 -0.025818842 -0.029487155 0.0051134387 0.007726499 -0.0018431926 0.022969706 0.02194656 -0.011875011 0.013039439 -0.011755021 0.024889696 0.020861572 -0.00699858 -0.033606246 0.05066812 -0.016757712
agreements -0.008395852 -0.03504971 -0.018542942 0.010935112 0.008563385 0.0079496 -0.03942169 -0.020539341 0.0059145167 -0.015174145 -0.010242596 -0.00021805055 -0.017042808 -0.034217544 -0.009037716 0.037993703 -0.024296457 0.004213793 -0.010647243 0.0143860765 -0.012348052 0.014395198 0.016982134 -0.012654016 0.0050631696 -0.033376366 0.027414612 -0.007513035 4.959415e-05 -0.0049236873 0.038758658 -0.005072677 -0.02712222 -0.001225865 -0.033507917 0.0013696128 0.002269355 0.016916197 0.0073779863 0.027770175 0.005888509 -0.012600588 0.0020844466 0.0031951105 -0.0017025329 0.040511597 0.0077034864 -0.019092944 -0.008175656 0.009220652 -0.025425313 -0.00030841748 0.030625895 -0.02746011 -0.0033028037 -0.023036106 0.030145679 0.007914955 -0.023252115 0.017347693 0.00038217753 -0.009293804 -0.030137694 0.037381645 0.0031250617 0.014392796 -0.03060216 -0.013327049 0.00057662954 -0.02654937 0.016832141 0.012144431 -0.007096668 -0.019079307 -0.0016622226 0.0251837 -0.0176917 -0.009622529 -0.02663337 0.00086631265 0.012490016 0.016804902 0.0033533073 -0.015746826 -0.010611122 -0.012510007 0.04455708 -0.0042428058 -0.039040677 -0.03741764 -0.014304918 -0.0006866418 -0.033114847 0.010166668 -0.0050162086 -0.029385902 -0.007515897 0.016948322 0.0061800703 0.00084496866
survivor 0.014858945 -0.009507191 -0.012927647 0.011450083 -0.012397143 -0.025093311 -0.03866141 -0.02748932 0.022813488 -0.00084874115 0.003800218 -0.006974903 0.037682034 0.019801663 -0.0018471573 0.0079138335 0.0018330575 -0.007053395 0.008495297 -0.021639276 0.04550292 -0.017218191 -0.03152363 -0.029535204 0.019549225 -0.015054179 0.020524928 -0.01814336 -0.010490291 -0.018134126 0.021593377 0.014314532 -0.022003045 0.01689879 -0.016810155 0.022522356 0.0016352672 -0.006852362 0.041570723 -0.020286268 -0.01339926 -0.034534372 -0.021983145 0.0015664644 -0.009265338 -0.0025921073 0.008696474 0.014302926 -0.009903394 0.005362724 0.004798674 -0.014626516 0.009001308 0.013133696 -0.0016828293 0.011366574 0.022204159 0.0018211877 0.017642548 0.018320957 -0.0061105625 -0.011375257 -0.003795095 -0.031031495 -0.0025145898 -0.008961887 -0.027149085 -0.029812878 0.004797466 -0.035035297 -0.003977236 0.040320933 -0.010771175 -0.030437032 0.02351973 0.0028911934 -0.0010848376 -0.004863318 0.0030527513 -0.0050308337 0.01606382 -0.0036845105 0.0021024898 -0.011925447 -0.00920446 -0.011780306 -0.009553439 -0.023852557 0.024347138 0.012526711 -0.004063037 -0.021650892 0.0008956014 0.003960815 -0.005105149 -0.026670666 -0.011832914 -0.007663358 -0.024340427 -0.02361959
report -0.0036943103 -0.01376646 0.0014920247 -9.1959606e-05 0.0019902608 -0.015258038 0.013920857 -0.0017545064 -0.014653558 0.0022238444 -0.01141019 0.02969966 -0.0014197842 -0.009472403 0.008010445 0.012247954 0.01119359 0.012701075 -0.010570415 0.01073685 -0.019464605 -0.03803966 0.0194024 -0.016769465 -0.023437751 -0.011581654 0.026235249 0.005405201 0.01313665 0.0053570783 -0.0051838052 0.010151381 -0.0022102739 -0.012347959 0.0109835975 0.030728316 0.011936142 -0.016514514 0.0030881446 0.004158086 -0.0067378804 -0.015208081 0.026880493 0.018280441 -0.020216685 0.03185107 -0.0078087756 -0.0054797465 0.017038034 -0.030273035 0.0029483936 -0.014750127 -0.0011584691 0.0035014623 0.020568917 0.006735219 0.032358345 -0.018179797 -0.00075016334 -0.013231734 0.003628452 0.01891889 -0.025668211 -0.005389442 -0.009183585 -0.007014894 0.011088857 0.010889886 -0.010439716 -0.011068 0.01642333 -0.04420036 0.013357202 0.033882335 0.007461695 -0.009009491 0.020345978 0.0022958945 -0.024357388 -0.0032187344 -0.012807247 0.014904965 0.016307425 0.017046606 0.01684916 -0.014566736 0.013056963 -0.013279667 0.010727939 -0.0050481358 0.018537927 0.01688807 0.020935485 -0.010079652 0.018014846 -0.0123415645 -0.005152292 -0.009845575 -0.006056329 -0.020208899
society 0.022530029 0.028028956 -0.00037440113 0.010032957 -0.012631133 -0.018543793 0.028076144 0.0049447888 0.031378742 0.0059616948 0.0020273903 -0.0013609449 -0.037366223 0.030247971 -0.012738772 0.0014186299 0.0063733268 0.01607986 -0.00920109 0.0003117633 -0.0074662627 0.014166056 -0.038300272 0.003693411 -0.020204399 0.010228841 0.024062488 0.01751519 -0.018687943 -0.014941728 -0.010325289 -0.032626994 -0.01203616 0.011761444 -0.004299958 -0.013843648 0.003479872 0.011421444 0.016552916 0.013487771 -0.007447572 -0.026035137 0.021944445 -0.0011610512 0.046189927 0.0065171137 -0.0072975075 0.02712229 -0.0037473002 0.0068613845 0.013780655 0.00069876824 0.00013895094 0.002396576 0.01632908 0.01833018 -0.01854996 0.02359685 0.009899659 0.016189134 0.02390406 0.02269791 0.009989735 0.009231916 0.034209196 -0.009272998 -0.0042708423 -0.007260156 -0.0017870929 -0.034491852 0.0115367705 -0.034959715 -0.0070168395 -0.0032330567 -0.0062562306 -0.023506518 0.028628927 -0.040890373 0.011008245 -0.024093924 -0.025026862 -0.00016964666 0.026097579 -0.006738376 0.0025729933 -0.007503657 0.03329769 0.020058742 -0.016886547 0.016485894 -0.05216594 0.006104376 -0.006870062 -0.038575284 -0.0018480804 0.047818903 0.035248015 0.02332927 -0.021956142 -0.00037957105
depends -0.006234026 0.020948518 -0.017895192 0.0017305082 0.0051615736 -0.03410962 -0.025877183 -0.0276995 0.01430795 -0.036503572 -0.011514735 0.0171581 -0.05026697 -0.04694823 -0.033626318 0.013287362 0.03131258 0.0043985164 -0.025662113 -0.023472747 -0.0052803485 -0.024133246 0.026715977 0.0014873887 -0.008917432 -0.010330592 -0.0068322555 -0.0026375526 0.013263471 -0.011776728 -0.016647138 -0.029823782 0.023167795 -0.014022346 0.050789345 0.035503656 0.016504355 0.020196097 -0.053527582 -0.0020072008 0.025306093 -0.0052892854 0.009849387 0.021167489 0.0038918108 0.015717933 -0.038356055 -0.017879613 -0.046792366 -0.010077577 -0.033042647 -0.0021500243 0.04131249 0.020305358 -0.006847987 -0.013777549 0.02702903 0.030418793 0.012219021 -0.014134615 0.013525514 0.021673182 -0.0062546274 -0.017947754 0.0020374502 -0.0023452956 -0.01022523 0.009069093 0.0050231116 -0.031763308 0.0037418576 0.015869686 -0.018991211 0.0025705888 -0.011210394 -0.03223106 -0.023803523 0.022251703 -0.0054946896 -0.010802955 -0.011458098 -0.004426391 0.01226897 -0.030100077 -0.0011026766 -0.025173692 -0.011260222 0.0069940235 0.013846734 -0.031440206 0.0014714453 0.006408293 -0.008655274 -0.080435686 -0.010314244 0.0012740127 -0.04994321 0.010582527 -0.0012921663 -0.022207431
indicate 0.00132181 0.0016188124 -0.031742252 -0.029029928 -0.023024034 -0.003257818 -0.021571849 0.0012346751 -0.008658084 0.035644304 -0.005018321 0.026046941 -0.008303105 0.008032054 -0.0052327774 0.028619118 -0.00094585103 -0.030472264 0.039354358 -0.0066693076 -0.0036768597 0.00030996857 0.0002997046 0.023443889 0.0021390398 -0.015076779 -0.026315069 -0.055852193 0.01687687 -0.020741234 0.014292298 -0.008339923 0.0071372557 0.0019393042 -0.013226027 0.010772372 0.05710307 -0.011661179 0.010680659 0.00019863294 -0.025811363 0.0064536375 -0.011395156 0.011160563 0.034122158 -0.005098667 -0.021053946 0.04976202 -0.029237485 0.018080898 0.006547747 0.015686765 -0.023890689 -0.026786163 0.0107521 -0.02252513 0.030879142 -0.022418292 -0.010288289 0.02287529 -0.00019913551 0.012886226 -0.016361007 -0.017728232 -0.0038397717 0.01874816 -0.0002690259 -0.01499961 -0.017580291 0.03888985 0.015735146 -0.021394044 0.0027965133 -0.042273063 0.015629314 0.00799614 0.034743324 -0.008144124 -0.02920577 0.04594961 -0.0042162207 0.0021957099 -0.002654161 -0.01658971 -0.024599465 0.0058752303 0.018882725 -0.03460213 -0.02716991 -0.008579944 -0.009662476 0.013988268 0.024823857 0.029212015 -0.007216651 0.008278662 -0.0196217 0.00026273838 -0.008743335 -0.018742634
.5 -0.001994053 0.0016410977 -0.035945624 -0.019706562 -0.009236176 -0.0010626165 -0.026206601 -0.025273466 0.018884432 -0.0061837444 0.011521457 0.013097522 0.014628776 -0.0024539356 -0.013705828 0.0031570338 -0.0038094746 0.007386842 -0.01843593 0.0042833355 0.0035892695 -0.032914612 0.028154837 0.008392965 0.005892977 -0.0031682523 0.0054580797 0.012203159 0.00016970618 -0.010845681 0.043324772 0.018298771 0.014156668 0.0029612535 -0.018611109 -0.022189409 0.03577294 -0.012896224 0.01756208 -0.019286048 -0.0079466365 0.022798425 -0.0038861423 0.026128743 0.011987902 0.0038281982 0.009515265 -0.0001051603 0.031041842 -0.012827469 0.010410992 -0.0022984238 0.025328116 -0.012443006 0.01149949 -0.040767137 -0.006868744 0.012510663 0.00082373794 -0.022092694 -0.010395753 0.0064097145 -0.0017532875 -0.023405826 0.0005585315 -0.01544845 -0.01060737 0.006341502 0.019121686 0.025938464 -0.020357758 0.0016290174 0.002760862 -0.035968676 -0.0080495505 0.019660221 -0.0145807685 -0.004139262 -0.0168255 0.004450402 0.04689364 -0.013470977 0.01658489 0.0073925327 -0.015733814 0.017970638 0.013911353 -0.022794923 0.013919649 0.040916875 0.010570378 -0.031684127 0.00067692855 -0.02455074 -0.0035055326 -0.002184352 -0.0069796317 0.0040634377 -0.015694669 0.004073497
remainder -0.011498914 0.0048479754 0.031954587 0.0051997444 -0.004276687 0.000483436 0.020099508 -0.017768238 0.0009871719 -0.043548275 0.017001882 0.027425054 0.012231585 -0.007815985 0.060346104 0.0022656817 -0.004767164 0.0037198267 -0.025473904 -0.01612364 -0.0051725693 0.002803124 -0.03340371 0.019887526 -0.0053634765 0.007906253 0.00698469 -0.03683435 0.036001522 0.004330365 -0.008607781 -0.019077687 0.003947932 0.006394585 -0.0008398711 0.0031351766 0.022436662 -0.018794833 -0.0015034135 0.012224709 -0.0015820364 0.0002608876 -0.009419304 -0.0018985781 0.0015415129 -0.029509634 0.006509261 -0.025753161 0.018536791 -0.028025791 0.0118262535 0.019692 -0.03488126 0.04828232 -0.026872588 0.011238278 -0.0056594163 0.022702187 0.017980682 -0.0055692587 -0.0036707413 -0.01763746 0.02108382 -0.004879675 0.013776761 -0.0098656695 -0.014468183 -0.0056831026 0.02775662 -0.025100684 -0.049141638 -0.00020428991 -0.026250627 0.010223595 0.021239892 0.023686597 0.01334844 0.016496804 -0.001412759 0.011237584 -0.038030088 -0.0147893485 -0.005828012 -0.0126000475 -0.0120757185 -0.002697777 0.030172475 0.030527668 -0.015335137 0.020680347 0.0042657764 -0.047025576 -0.0067817452 0.008941708 -0.021525517 -0.011288098 0.026083753 -0.021142328 0.005471134 -0.015699403
Leader 0.003949504 -0.0069676884 -0.006054484 -0.01775126 0.009412674 0.008298822 -0.0049958006 -0.00256803 -0.005857424 -0.01918261 -0.0113025075 0.01835762 -0.020047748 -0.01237702 -0.007580287 -0.002039101 -0.0011834668 0.01252098 0.024822868 0.0201343 0.026560182 0.046953112 -0.009884288 0.015666986 -0.005263293 -0.027034814 0.0057255123 0.034632407 -0.0026393593 0.00788492 0.002167955 -0.016133144 0.029718436 -0.009279033 -0.024422621 -0.006161078 -0.014665485 0.004375576 0.006117902 0.003392296 -0.010060767 0.009468404 0.0016005333 -0.0073070265 -0.008891745 -0.01039488 -0.024071123 -0.014967399 0.014465473 -0.018190667 -0.003075564 -0.0027550748 0.04261638 0.04718153 0.004549279 -0.019399835 0.019947575 0.01082154 0.0009795022 0.009386671 -0.0020358781 -0.030938653 -0.024513938 -0.024597231 0.0005868713 -0.008378173 0.013108359 -0.012014443 -0.018072542 0.021637194 -0.008770251 -0.015317057 4.0202867e-05 -0.032046944 -0.0030884463 0.002936459 0.01829085 0.009556599 -0.009726309 0.0057818945 0.0043181106 -0.0037296042 0.015679305 0.023418099 -0.0065475297 -0.02966677 -0.0012247 -0.012674251 -0.020864746 0.009016106 -0.03314203 0.021634402 0.008652711 -0.041812044 -0.017438855 0.0046405303 -0.004248618 0.01582493 0.00965496 0.04911921
Victoria -0.009157641 -0.0353633 0.029947456 -0.033164673 0.014163519 0.0423418 0.032770824 -0.027917083 -0.030969467 0.004173722 0.012288663 -0.0080807395 -0.008535377 0.016334197 0.028961536 0.0062739775 0.005826394 -0.022168439 -0.004728845 -0.023473315 0.016133571 0.0059731714 0.015043443 0.0030759121 -0.025660176 -0.023938615 0.008204245 0.0561191 0.024366658 -0.012686151 0.016217077 -0.009679995 -0.02095192 0.02663551 -0.005773517 -0.007994494 -0.00564268 0.012551075 -0.026364964 -0.015862022 -0.012556891 -0.025262862 0.049408656 0.030944597 0.0136518795 0.007989787 0.014553019 0.01155135 -0.015245534 0.014604663 0.020295646 0.011213582 -0.03134641 0.008586666 0.0059641763 0.023721756 -0.01373516 -0.018245807 0.026017554 -0.039066434 -0.020556023 0.0049272985 0.04131192 9.7353826e-05 -0.015554018 0.0093556605 -0.0039946176 0.013947428 -0.02134218 -0.014244765 -0.0011806535 0.007887082 0.015948668 -0.0052225613 0.0028155395 0.0035285952 0.0019289316 -0.023029016 0.02371695 0.022295238 -0.02126285 0.014843106 0.016832886 0.009754792 -0.022792537 -0.003262577 -0.0051490813 0.0125157405 0.030911542 0.03248652 0.010336168 -0.0014003157 -0.0044881236 0.028277848 0.02147945 0.010982605 -0.02412127 0.020527825 0.022755012 0.0019135359
ways 0.034035336 -0.016728288 0.024474367 -0.06852476 0.09558024 -0.016557075 0.08114342 -0.12937003 0.07589374 0.016306728 0.10958137 0.046637032 -0.08073589 -0.024958866 0.036456525 -0.076651536 -0.093945004 -0.037371844 -0.0047847154 0.028664256 0.0102097625 0.027431075 0.0153118 -0.02647961 0.007111566 0.035785824 -0.058815114 -0.087808274 -0.072888404 0.036981553 0.0025038747 0.0466131 -0.0610304 -0.049317934 -0.0140430285 -0.060486127 0.04465259 -0.040022098 -0.030750824 -0.01474002 0.0024805155 -0.07149901 -0.063306384 0.10148629 0.06622259 0.004568772 -0.023212895 0.012358639 0.07337163 0.0014217504 0.052904557 -0.03265409 -0.06257879 0.057460025 -0.09559415 0.03643044 -0.013548551 0.066366546 0.03240117 0.027843086 -0.041660894 0.05985432 0.0014051878 -0.05979164 -0.0014369952 0.05052154 0.081850864 -0.05739224 0.032230303 -0.12679501 -0.006489246 -0.0047352742 0.06009515 -0.07345478 -0.054806672 -0.005339466 0.030728435 -0.009995244 0.0027744323 0.0152519345 -0.021782216 -0.006050869 0.045660645 0.024330176 -0.084831536 0.031352904 0.08011896 0.036017176 0.018677967 -0.025649361 -0.0070866076 0.0055192118 0.033510417 0.025044661 -0.037874304 -0.035739984 0.0016561211 -0.009522999 -0.084818535 -0.03758779
deemed -0.043555614 -0.005291776 0.026162766 0.007922814 0.0051432196 -0.00079627114 0.044486176 -0.010435508 0.015031448 0.0151452795 -0.0009490815 -0.0030375835 -0.011735267 -0.010231927 0.00031803793 0.037330735 0.00922884 0.033889115 0.014479657 -0.044497885 -0.0007979085 0.019186256 0.008737929 -0.05146138 0.0026870868 0.01696008 0.0049843597 -0.058216937 0.0051265163 0.023541588 -0.009763665 0.010011911 0.0074767848 -0.0071250075 0.003122162 -6.5280954e-05 0.03093684 0.00042055285 0.050579377 0.031470932 -0.014959496 0.0004089331 -0.034131177 0.012036485 -0.018479276 -0.024809746 -0.0018951186 0.030915905 -0.021640435 0.024942348 0.0045256726 0.027791077 -0.024417019 -0.003175927 -0.021439599 0.0115251895 -0.008768146 -0.01464959 0.006427228 -0.013575313 0.011918725 0.029030384 0.03191719 -0.009696483 0.0003132132 -0.012252369 -0.007314276 0.021338547 0.013906377 0.00040304972 0.02577066 -0.010074568 0.01998331 0.032395724 -0.0031542345 0.00392431 -0.006112879 -0.032074016 -0.02163004 -0.015356905 -0.023134086 0.01151091 -0.030061685 0.012801796 -0.030524751 -0.022394866 0.019004248 0.006441704 0.010451609 0.013072229 -0.029523069 -0.0018922105 0.0110661425 0.015519053 0.008296742 0.0022982953 0.011060856 0.030425008 0.014553003 -0.02124435
levels 0.0024399832 0.025684273 0.023706185 0.04062236 0.046512652 0.021132316 -0.0159101 0.038282666 -0.0069604926 -0.0042309957 0.005176122 0.0059231184 -0.0011383914 0.01458835 0.003841744 -0.0332598 0.0033362997 0.0015956953 0.0043658027 0.021327294 0.012473858 -0.008697727 0.007522334 -0.024115648 -0.005195104 0.00035250236 -0.005279337 -0.0033083016 0.008945166 0.024088975 0.01383306 0.0138898585 -0.019216996 -0.00201103 0.009335492 0.010828632 0.009119633 0.004993518 -0.013666835 -0.0036131379 -0.009686761 0.020516386 0.007034613 0.0025533328 -0.00057294144 -0.014199097 -0.010401535 -0.035124693 0.03867511 0.058926385 -0.015156538 0.020187976 -0.026798123 -0.0012492788 0.0049738977 0.0030652871 0.012568017 -0.032131135 0.032250695 -0.019648498 0.0021526301 -0.012814214 -0.00015623169 0.0136333 -0.031823754 0.002903007 0.003879135 0.012782478 -0.00677944 -0.0127076395 -0.014554689 -0.011992857 0.01419137 -0.01571095 -0.017315047 -0.0094282385 -0.02723234 0.000843812 0.021205856 0.032713227 -0.0214834 0.002135241 0.004964427 -0.017516756 0.013341929 0.019096574 0.004609325 0.020941064 -0.02335227 -0.010914134 -0.018427469 0.033858296 -0.000448937 0.0011832293 0.024460362 -0.018946834 -0.018956527 0.021877853 -0.0013051286 0.016472053
removal -0.05235137 -0.010094395 -0.052483577 0.01842812 0.019361218 -0.010152113 -0.017776461 -0.011184893 0.013524289 0.02288351 -0.0018481862 -0.010602357 0.003748281 0.0017495111 -0.0039336216 0.0022612032 0.03221169 -0.017878229 0.037924405 -0.0023752206 0.026849616 0.024380207 -0.01158225 0.039209045 0.032334466 -0.024755998 0.00791635 -0.010103304 0.02096302 0.012476022 -0.015326172 -0.0071558254 0.007708446 -0.009613555 -0.0024546967 0.011116136 0.006491689 -0.0005144843 0.0030956352 0.0026927365 0.054733425 0.0033626766 -0.027331501 -0.014063047 0.011645547 -0.06385312 0.014029187 -0.038606115 0.061835147 0.00829538 -0.04150022 0.0016214373 -0.015302346 0.0438546 -0.017699145 -0.06304076 -0.0073940796 -0.030465668 -0.016169753 -0.0026083144 -0.022140335 0.00015349203 -0.003883231 -0.02561876 -0.028073562 0.01464534 -0.015536621 -0.0016412844 -0.011135446 0.01151639 -0.021493878 -0.03622643 -0.041069034 -0.007273997 0.01705568 0.02007797 -0.022137426 0.03308024 0.014247069 -0.030632379 -0.006016271 0.0077304128 0.0076561626 -0.022066547 -0.032833945 -0.0038222577 0.029772505 0.012180545 0.01653399 0.045271546 -0.03462976 0.021204827 -0.0054042274 -0.026892789 -0.02198609 0.0020355142 0.012094066 0.028913293 -0.011991839 0.0013091867
respect -0.011353024 0.030664898 0.004712675 0.026946496 -0.00022177935 0.009664978 -0.018247906 0.014569366 -0.0522467 0.006436966 -0.01939392 -0.018487476 -0.0018918071 0.0060572093 -0.011527547 -0.023161348 0.0013266599 0.002161785 -0.028098773 0.03133032 0.005140904 -0.008369424 0.0054559135 -0.0199131 -0.040028032 -0.020548023 0.018979667 0.005679703 -0.008190268 -0.010575628 0.027160188 -0.020748876 -0.001234962 0.019168768 0.0011241285 0.0076340465 -0.0050732754 -0.002557561 0.011366007 0.0051189307 0.0126471445 0.0039894423 0.0042286534 0.024465488 0.027747571 -0.0037762066 0.02067968 -0.00063609664 0.03638652 -0.0057168268 -0.0033837245 -0.033506062 0.001977969 -0.01803137 -0.005137636 0.026983423 0.0068927878 0.020815263 -0.00483529 -0.0009142392 -0.011106742 -0.010611743 -0.018822739 0.03335368 0.012154262 0.03458995 0.04067302 0.012556809 -0.049677838 -0.027772473 0.00053011306 0.019055145 -0.021169959 0.0034530694 0.0017308525 -0.0002973099 -0.010917975 -0.01216068 0.010222372 -0.00927195 -0.012110894 0.025356803 0.03920062 0.018541245 -0.010205391 0.021128332 0.024669657 0.007265248 -0.011096935 -0.03957666 -0.0019566922 -0.00537638 -0.016096523 -0.012168553 -0.00021510705 -0.025575051 -0.018544259 -0.012556996 0.021895146 -0.010474535
N -0.020099247 0.005450875 -0.021118892 0.016064012 -0.00046396977 -0.02089806 -0.013202512 -0.01797978 0.028890707 0.010148428 0.020962851 -0.015031227 0.02590485 -0.0062328833 -0.018342813 0.005678256 0.0031398858 -0.005446001 -0.024424521 0.02180529 0.014274034 -0.002658704 0.016695896 0.025169203 0.0075440337 -0.00758743 0.0068478794 0.0303122 -0.016118221 0.007754447 0.037528217 -0.0024705601 0.019927446 0.005286977 0.0014184348 -0.031276956 -0.038825195 0.026908556 0.025072461 -0.04703924 -0.019593399 0.024554431 0.013448553 0.03533576 -0.006994982 0.00050841854 0.03165904 0.025379585 -0.027815752 0.0029252996 0.006463188 -0.012931992 -0.004795777 -0.031368066 -0.0018920605 0.001469872 -0.0023661274 -0.0025593066 -0.020497624 -0.011705909 0.010629953 0.014367113 0.016359413 -0.01661251 0.013434019 -0.038130954 0.015258243 0.019185118 0.014116183 -0.00563337 0.029646352 0.016945723 0.007061871 0.008466858 0.011754981 0.015162808 -0.019726412 0.019310616 0.009210474 0.016653124 -0.00058097177 0.05034535 0.023601897 -0.030753111 0.017490173 0.006871279 -0.0022624545 -0.02131719 0.008910785 -0.02135669 0.0008399723 0.012408502 -0.010840222 0.006536525 -0.03134009 0.010220505 0.03445177 0.007752069 -0.006083849 0.015659707
authority 0.023479898 0.0708484 -0.071760066 0.03660411 -0.0008507135 -0.01024639 -0.14655085 0.0744202 0.10184644 0.06501902 -0.033749536 0.12111766 0.06310404 0.035352394 -0.09136369 0.014555354 0.025074476 -0.083035536 -0.040298305 -0.053605337 0.029225986 -0.048895516 0.0053307675 -0.104739994 -0.031194534 0.09143479 0.07245062 0.044457294 -0.06665541 0.01804221 0.011584051 -0.08759171 0.07045061 -0.02926026 -0.020434715 -0.07852567 0.027817998 -0.0035048702 -0.062450763 -0.008371511 0.046725046 0.061622072 -0.033833392 -0.010507208 0.03474183 0.12606296 0.024168804 -0.08996565 -0.013374702 -0.008460985 -0.028301533 0.009488898 0.014383735 -0.07282983 -0.046324562 -0.010458621 -0.069271766 -0.03847567 0.018964803 0.040346533 -0.031647574 0.036881495 -0.042942602 0.06389803 0.06399429 -0.029754942 0.05595312 -0.03289569 -0.015418592 0.039895896 -0.06319518 -0.046811 -0.028253037 -0.016945599 -0.00311196 0.04092257 -0.004896618 -0.07397691 0.016512001 0.0858895 -0.007227611 -0.016134862 0.12189386 0.048860364 0.041391138 0.038569693 0.1014384 0.08262391 0.038922917 -0.121961385 0.050118033 -0.0027847162 -0.017106416 0.045461178 -0.045483094 0.036439333 -0.008534406 0.005554524 -0.056017097 0.06701976
beef -0.00040845305 -0.0056723924 -0.0107428115 -0.026848044 0.05231686 0.02332896 -0.031442564 -0.0026954426 -0.0056901304 -0.008660523 -0.014016451 0.013305495 0.014317705 0.0070446325 -0.025748488 -0.013569899 -0.045670874 0.0033342591 0.021169282 0.025201267 0.011391542 0.0192025 0.019646887 0.034311034 -0.0400867 0.026443996 -0.005741201 -0.015946878 -0.004733471 -0.016884679 0.0078060348 -0.004294638 0.0429097 -0.033056848 -0.021731025 -0.013768333 0.04301731 -0.003281915 -0.008347074 -0.014104367 -0.015546495 -0.0027655903 0.0030231592 -0.051984638 -0.025095744 -0.022576457 0.013859783 -0.047357153 -0.015035183 0.0022853022 -0.0110176895 -0.028247416 0.0042011407 -0.011257187 -0.019755099 -0.052865505 0.029355055 -0.026666472 0.017289432 0.007195159 0.014023647 -0.04044075 -0.050660424 0.009798987 -0.016579889 -0.015981484 -0.05021338 0.002841295 -0.0019891793 -0.018346582 -0.023642352 0.014603052 -0.033115923 0.039982658 0.018941227 0.022814497 0.008352505 0.007968838 0.028212994 -0.020647073 0.009063589 -0.0066740136 0.037277035 -0.011815875 -0.016651085 0.0015755002 0.0016262988 -0.014088451 -0.05436446 -0.0030475361 -0.0010814342 -0.009854437 0.010293599 0.0174712 0.01545844 0.0068571637 -0.036208745 0.034802753 -0.025236202 -0.018483635
agreement 0.011031443 0.030990072 -0.012047545 -0.01858907 0.016266475 -0.0072137495 -0.006735187 -0.0125544965 0.009228488 0.025398238 -0.008715171 -0.0006529883 0.0009521818 -0.008180355 0.018932616 -0.00957896 0.033394013 -0.041359022 0.0009459278 0.006940999 -0.010578852 0.00068738713 -0.025907256 0.020153914 0.017833622 0.001262933 0.011343412 -0.016741147 -0.0038901707 -0.013955344 -0.04498278 0.0025911906 -0.02002239 0.025691058 -0.0060095754 0.0030320538 -0.028104518 -0.037660684 -0.00079902896 -0.0057745217 0.007676347 -0.004362835 0.0003793334 -0.023621092 -0.0018723302 -0.022650983 -0.04779651 -0.010676126 -0.010279847 -0.007060375 -0.005402433 -0.014552282 0.0001690879 0.032844394 -0.016569998 -0.013574684 -0.021957796 -0.0024264304 0.013898183 -0.0033155074 0.0042390926 0.0014548153 0.017649116 0.011446314 0.012869699 0.009248277 -0.028180655 0.0136487335 0.0370298 0.011432164 0.0120348 -0.013426273 0.019135667 0.008017279 -0.008076467 0.0032928814 -0.0075663393 0.023408396 -0.009308023 0.02230582 0.020603528 -0.020409588 -0.0035570692 0.040116392 0.032629345 0.028171733 0.01713786 0.007398289 0.044603474 0.008158554 0.017331898 -0.0016287433 -0.018069329 0.0062518665 0.0026609194 0.016933834 0.02767456 0.0056981808 -0.009109498 0.028652437
size 0.031006474 0.0021459786 -0.011970378 0.021821113 0.017588913 0.015112663 -0.027658865 0.007969299 -0.0011060869 -0.0009876068 -0.02095558 -0.03729724 -0.00020594173 0.023181992 0.02541669 0.002680823 -0.014986039 -0.010850992 0.0132611925 0.022556596 0.024254642 -0.012126685 0.0038485138 0.014689398 -0.006797733 -0.017933777 0.02127251 -0.014792718 0.012323923 -0.0046009766 -0.029328465 -0.024607142 -0.003138889 -0.014458682 -0.013233805 -0.009026196 0.019128969 0.007137945 -0.04115744 0.020437492 -0.022143748 0.014228318 0.024073748 0.021072077 0.025606073 0.019119335 -0.006963118 0.009483952 -0.02219906 0.01124037 -0.014099297 0.0008812876 0.014441672 0.0062028086 0.027750753 -0.016570915 -0.017603725 0.025863413 0.008267423 0.00992712 -0.0013656585 -0.035402328 -0.0053293547 -0.01759286 0.026249133 0.013796232 -0.006430059 0.02031458 -0.03141941 0.019246386 -0.002485606 0.012717652 0.00093715056 -0.0007673198 -0.009878092 0.022976054 0.0011932488 0.021792118 0.029049495 -0.016691482 -0.036852073 0.02874308 0.012456418 0.0016434244 -0.00696517 -0.009028138 -0.0010716333 -0.010988462 -0.0001115771 0.011418284 -0.021581355 -0.013633724 -0.008611298 -0.007874986 -0.05615864 0.002163707 -0.0012322112 -0.00049181125 0.00037429563 0.029755186
luxury -0.0030014568 0.053848743 0.051701784 0.0059804013 0.0048598796 0.0137007665 0.02511552 0.02337586 0.05388215 0.005212013 -0.031684667 -0.028433435 -0.0074552055 0.010442652 0.057328314 -0.017642505 0.029638972 0.0061200745 0.0006662501 -0.0021924519 0.017999277 -0.026810115 -0.02711597 -0.0120540885 0.0058740834 0.036251538 0.012057856 -0.0022393947 -0.018404758 0.03861996 -0.011915786 0.015395665 0.031482235 0.009995034 -0.014816763 -0.038024377 0.014927042 -0.011244496 0.024212593 -0.032045383 0.0006817159 0.02941905 0.009801312 0.05146136 0.000609831 -0.028765675 0.0006469501 -0.008094633 0.018387768 0.0023850848 0.029997295 -0.025891645 0.0046252534 -0.01638986 0.001000492 -0.0064435527 -0.009507569 -0.016947318 0.0032172704 -0.053637084 -0.017602663 0.015787179 0.014433835 0.024594853 -0.0029042813 0.014722052 -0.017060881 0.008029984 -0.0024382633 -0.0561997 -0.039352696 -0.006567715 0.027610516 -0.018689336 0.028877292 0.014806361 -0.0022671411 -0.0042517437 0.007307604 -0.008793562 -0.04444371 -0.016303087 -0.0036108363 -0.050646074 0.007631581 -0.004871242 -0.012589458 0.013482234 0.010958197 -0.023237867 -0.038760412 0.0024191462 0.029202938 -0.035949346 -0.014278794 -0.027974738 0.004232811 -0.027662257 0.0029317038 -0.019724885
life -0.0037689894 0.013215051 0.058704104 -0.017544243 0.062733956 0.00047376193 0.014379686 1.0929376e-05 0.0007434066 -0.023535656 -0.009537282 0.05835934 0.034643188 -0.0031161853 0.046193473 0.022915928 -0.012837673 -0.004778728 0.019217273 -0.068461485 -0.017559733 -0.021415664 0.003489493 0.0032715867 -0.007302992 0.0044649653 -0.005646226 -0.0172631 0.024051793 0.0034353372 -0.0072821765 -0.0035736512 -0.015968198 0.003177206 -0.022996427 -0.036178548 0.035345297 -0.0016949736 0.029260155 0.00037098094 -0.016606508 0.008410109 0.052573144 -0.024004571 -0.048217464 0.0003024697 0.019561833 0.008238124 0.017651442 -0.025259752 0.008936656 0.009294261 0.003986163 -0.02347726 -0.0149892215 0.011439557 -0.012287882 -0.037691806 0.030242208 0.0030057812 -0.0015449977 -0.0147926 0.018324934 0.03336093 -0.00079280976 0.017007792 -0.009340871 -0.035540506 0.017942939 0.0020064495 0.0099019185 -0.0012773417 -0.0008057254 0.009059635 0.036800284 -0.026474796 0.04766707 -0.031829663 0.0129480325 -0.026562527 0.0074344766 -0.02270624 -0.010482109 0.019728247 0.004305688 -0.03091776 0.001492948 -0.054028027 0.013343638 -0.014838615 -0.008304518 -0.009205725 0.03259476 -0.0054317876 0.02044338 0.033426706 0.018388476 -0.057279695 0.0032634586 0.021456312
housekeeping 0.0013202559 0.0022667395 0.0053774677 -0.020108841 -0.035648078 -0.0019073746 -0.043062676 0.033186115 0.012223525 -0.025457961 0.019388242 -0.02676712 0.0222984 -0.010206788 0.006488869 0.006666137 0.007422974 0.030793067 -0.006955766 0.024815314 -0.022408025 0.030285269 0.016114306 0.01785457 -0.002047036 0.005136233 -0.018204149 -0.0022438748 0.0046583144 0.034749772 0.00080383103 -0.01578693 0.016753152 0.0183239 0.005113772 -0.0038889968 -0.00776251 0.036791228 0.008513644 -0.016184648 0.016219841 0.003466016 -0.0040909527 0.006287707 0.00078727864 -0.0113117285 0.011966488 -0.0033813554 -0.015692294 -0.020717291 -0.0021391998 -0.024166195 0.022430524 0.022871263 0.027375123 -0.01328362 0.031633098 0.004963265 0.011385942 -0.007702198 0.0006960989 0.005168185 -0.006981765 0.022053154 0.0037467564 -0.00443736 0.0027625023 0.00858492 0.0124005675 0.0408066 -0.003194907 -0.030233473 0.013571366 -0.0170894 -0.023260353 -0.0059160097 -0.01652736 0.003873649 -0.02681238 -0.006659641 -0.026880631 0.03550712 0.020315012 0.0045680217 0.000122053316 -0.039373904 0.01744273 0.016813777 0.004349226 -0.011161044 0.0064589023 0.00036826858 0.02769655 -0.043609858 -0.020034771 -0.0055921525 -0.0031177856 0.036911838 -0.015568029 0.012332913
human -0.009922286 -0.013641314 -0.0058523547 -5.337631e-05 -0.024511175 -0.030110132 -0.042462483 -0.081673175 -0.0036041643 0.0072983275 0.033363808 -0.01922263 -0.029167723 -0.017435411 -0.06763304 -0.017317418 -0.022472002 -0.03632861 -0.02910027 0.059961434 0.023901522 -0.040366124 -0.03155393 0.02845783 -0.042375088 -0.019437952 -0.0022190257 -0.054665092 -0.0014350172 -0.05184377 0.026664754 -0.015324251 0.023901269 -0.01829546 0.0210525 0.06415216 -0.022021668 0.03669574 -0.0037238505 -0.024506748 -0.08317669 0.013848081 -0.043640595 -0.036497895 0.08791028 0.006688883 0.02069025 -0.060227256 -0.06097822 -0.051996127 -0.059198912 0.0081095835 -0.033768985 -0.010030203 -0.00020933163 -0.062434543 0.064774245 -0.008325825 -0.058907114 0.01850038 0.020581048 -0.0009429816 -0.018323807 -0.030897297 0.012318322 0.004939905 0.0776177 -0.049798064 0.008097119 0.00023721257 0.009325214 0.014720638 -0.09281005 -0.07767202 -0.07163325 0.08961001 -0.05329541 -0.011439104 0.019036766 0.024403265 -0.0004411927 0.0064398604 0.0016465267 0.050615467 0.03141349 0.050986163 0.045642123 -0.018675452 0.02296665 0.05992169 0.00015266277 -0.0064805686 -0.03370983 0.026135486 0.025452323 0.036257885 0.00068976555 -0.05419958 -0.0006656663 0.053821962
DREE 0.017464483 0.059356023 -0.024219932 -0.001370463 0.021989638 0.024008509 -0.057019867 -0.01572756 0.0059982208 -0.0048288824 -0.03804298 0.009111407 -0.0033856116 0.010513726 -0.0043563 -0.022229506 -0.018528204 0.04117788 0.020579685 0.008405369 -0.017367817 0.029095143 0.03389219 0.0036191037 0.006969604 -0.02448326 0.007276212 0.028809771 0.022905454 -0.007524302 -0.015837789 -0.0024604844 0.024584796 -0.028025225 0.013065531 -0.0029310659 -0.00013772162 0.018013166 -0.013163985 -0.00813924 0.0032787286 -0.00660612 0.014442885 -0.018437672 -0.02694483 0.00077111344 0.00398737 -0.043239404 -0.019619972 0.0035329575 -0.040684868 -0.0008020939 -0.00790574 -0.034318835 0.02988914 0.016481647 -0.0051257415 -0.010203833 -0.0075046318 0.005546993 -0.0028354179 0.009778095 0.015582422 -0.047225114 0.036614336 -0.029515665 0.06654179 0.010465347 -0.008527022 0.015094067 -0.014737184 -0.019492447 0.0024418482 -0.02357028 -0.022224136 -0.0018525805 0.012662664 0.022961093 -0.025397334 0.038582712 -0.017771617 0.007335656 0.0158953 0.0054522404 0.0029159144 0.019856747 0.006925324 0.003616929 -0.026190333 -0.04639701 -0.0066956016 0.023217404 0.015417272 0.010297259 0.027999904 -0.048523076 -0.013609783 -0.009888906 -0.020578312 0.044322852
takes 0.025298739 0.014814969 -0.01618131 0.005923629 -0.0062591927 0.0011448298 -0.036787156 -0.010302172 -0.023545139 0.0061558895 0.033227026 0.0036609601 0.045806732 0.034992557 -0.053312887 0.02294686 0.03748382 0.0013576073 0.021804836 0.019577604 0.0366897 -0.016804801 -0.014729027 0.024240553 -0.0022850921 -0.0001498427 0.020406606 0.0020110246 0.0033811848 -0.025697641 -0.015699612 -0.0018181214 -0.06265702 -0.026435593 -0.027198512 -0.023834025 -0.0074828626 -0.015777325 0.0025204828 0.009575137 0.020339837 -0.04110551 -0.009404483 0.0018256103 -0.030082969 0.026643503 0.013708245 -0.027786793 0.03006651 0.0073062275 -0.0021724491 -0.02376465 0.02646715 0.016921975 0.030978167 -0.010948215 0.0074609094 0.012373246 -0.014092575 0.0040839906 0.005138451 -0.015784709 0.024616744 -0.0032447395 0.020679036 0.005595227 -0.007881173 0.019985935 -0.0041326107 0.017530888 0.028312238 0.020685436 -0.030696677 -0.0033184648 -0.01575902 -0.011433935 -0.01659987 -0.011233221 -0.0070722867 0.053167474 0.0034019086 -0.059872724 0.0015616971 -0.023759807 0.010987624 -0.0098787835 0.015913999 -0.014812125 0.0010996584 -0.010763074 0.021769999 0.016968662 -0.008222098 0.020477511 -0.013472183 -0.012468542 0.0051677744 -0.023220219 -0.006536106 -0.013545325
