1601 100
representatives -0.12585817 -0.04821637 0.059220955 0.028379766 -0.108641386 0.05660719 0.0069360044 0.078590736 -0.053083345 -0.07477182 -0.03941017 -0.053903177 0.06404791 -0.033737347 -0.030524917 -0.02682199 -0.068035424 -0.009013504 0.04123292 -0.049505353 -0.016442848 -0.043526176 -0.060107034 -0.078695215 0.015742728 -0.07028167 -0.00827935 0.024033483 0.05334961 -0.13332069 0.16545682 -0.06947973 -0.015143758 -0.0074628885 -0.0009003072 -0.0696033 0.020900356 -0.10476806 -0.098401114 0.05841148 -0.039548412 -0.13214105 0.026291274 0.02907465 0.06830019 0.004286535 0.0044976356 0.007809195 0.01965007 0.09296077 0.03676078 -0.05666803 -0.08996081 0.016047787 0.002150232 -0.04862287 0.08464007 0.08212411 -0.097232506 -0.1502147 0.077918604 0.12260902 -0.021792104 -0.09826075 -0.068501286 -0.10750583 0.027513206 -0.09638277 0.036448967 0.010236874 0.03194892 -0.0045079975 -0.041321263 -0.03903391 -0.045368336 0.12236379 -0.14427175 0.018103609 -0.06956911 0.06913055 0.057785604 -0.0911622 -0.06296276 0.08784123 -0.038036477 0.010635355 0.06737741 0.082722194 0.10295382 0.051108174 -0.04164924 0.08690584 -0.002019627 -0.040380996 -0.07390622 -0.06596423 -0.12017398 0.042157173 0.034576375 0.13420875
30 -0.021878501 -0.023219699 -0.0071114968 0.0008767656 0.014183275 0.0514136 0.09140507 -0.04917563 -0.08986495 0.07102128 0.11103987 0.16667247 0.022683347 0.03754577 -0.075987935 -0.06256256 0.10155774 0.06168222 0.03054173 0.04231415 -0.013715703 -0.13695315 0.012355816 -0.07230158 0.047740247 -0.10518317 0.11128969 -0.089795984 0.079479374 -0.035792377 0.055838473 -0.050984874 0.011623951 -0.0016073571 -0.038592685 -0.019781621 -0.019274898 0.07382639 -0.02206567 -0.049874257 0.09472121 -0.08151517 -0.029040983 -0.018666713 0.01441288 0.016840888 0.041366108 -0.015167633 -0.08802264 0.035345905 -0.059060812 0.12521546 -0.09542926 -0.057100218 -0.03692799 0.016911017 0.13503829 0.11050822 0.018397154 -0.069291025 0.004739858 0.097801544 -0.035625346 -0.12708682 -0.09853552 -0.064878955 0.11992761 0.03302829 -0.0026881516 -0.037847094 -0.15402429 0.13336994 0.0017238773 0.02937144 0.024537409 -0.027303528 -0.040566515 0.074133374 0.030934531 0.030749707 0.02164895 -0.035965927 0.041223753 -0.013155375 -0.11992227 -0.06899839 -0.06649505 -0.031310912 -0.052542128 0.10396143 -0.019611407 0.06297122 -0.044128317 -0.001750485 -0.06301497 0.11237308 0.012441056 0.09833915 0.050915133 0.018719058
ruling -0.021065703 -0.019451385 -0.13117793 -0.06487842 -0.022247452 -0.09142419 -0.0007481408 -0.013337573 0.032643985 -0.06375898 -0.06777371 0.04093709 -0.025293933 -0.063251756 -0.015478181 -0.061789475 -0.0059827953 0.076741025 -0.07883709 -0.09213306 0.038637545 0.032006394 -0.022805614 -0.04818917 0.06330492 -0.08204749 0.055435438 -0.05425291 -0.0033749966 -0.03119214 -0.039261423 -0.0013996693 0.093875945 -0.108720295 -0.035357762 -0.070603706 0.058635525 0.08340205 -0.037493207 -0.03636734 -0.08497068 -0.14671223 -0.065364115 0.014125568 -0.043463405 -0.08414253 0.029012905 -0.060445704 -0.10068017 0.015787417 -0.036161363 0.067203976 -0.03076063 -0.046386153 0.08597336 0.0536728 0.058475915 -0.08847981 0.006268218 0.06571126 0.124948904 -0.115922466 -0.07342804 0.03369562 0.11416201 -0.058743026 -0.043081313 0.07955521 -0.0013307787 0.077120245 -0.12360649 0.07900237 0.0021611806 -0.014101759 -0.02703721 0.025980122 -0.077493005 0.02125153 0.007993175 0.089583665 0.030829493 0.0048814802 0.0039140326 0.05582691 -0.08440794 -0.015114597 0.0276361 0.07142974 -0.06709475 0.13578026 -0.10685718 -0.036143225 0.08828244 -0.094634935 0.02539156 -0.098564506 -0.0007476264 0.14312084 -0.016269362 -0.025638184
September -0.012474039 0.016284315 -0.028386254 0.03201888 0.07765026 0.029579407 -0.029311262 -0.057690512 0.0017412243 0.007157269 0.01964385 -0.036727596 0.07071899 -0.02371641 0.00072285585 -0.1068816 -0.042468805 -0.08757613 0.07168824 0.117583536 -0.055609 0.1025646 0.09294867 0.011112277 -0.019748108 0.0110718105 0.028058153 0.12387604 -0.06464807 0.111168854 -0.098037995 -0.056670878 -0.015325666 -0.046601016 -0.11366592 -0.100098394 -0.15321514 0.04410854 -0.038678695 -0.01938879 -0.023081394 0.041119415 0.023556104 -0.022062216 0.015455799 -0.07764034 0.04569489 -0.13185164 -0.020221053 -0.13673773 -0.00416877 0.017267698 -0.03538679 0.027353514 0.025776668 0.041032303 0.054899767 0.09689296 0.03159975 0.14748408 -0.022607964 0.0011891405 0.007142515 0.044133794 0.06050298 0.086252846 -0.009639245 0.0809131 -0.010275399 -0.04487512 -0.086847596 -0.026460798 0.056022204 -0.017812278 -0.0021463702 -0.04541216 -0.021289792 0.00034919102 -0.05626538 0.012278833 -0.107752874 -0.029364424 0.058329634 -0.107777745 -0.12046916 0.108376764 -0.0237245 -0.051863678 -0.15695336 0.020054258 -0.04596049 -0.0749685 -0.14142746 0.05500803 -0.06796085 -0.048658073 0.11132016 -0.03285401 0.022366649 0.056672957
makes -0.09705401 -0.04760193 0.032087706 -0.04927434 0.08814634 -0.04076079 -0.0075543798 0.03507774 -0.0901154 0.047541454 0.0062748226 -0.036022075 -0.057737034 -0.043200135 -0.07571204 0.09324948 0.09519682 -0.021227326 -0.015483084 -0.12570694 0.019866813 -0.10727988 0.04470252 0.05606133 -0.01917904 0.12146845 -0.137078 -0.056305815 -0.034849115 -0.057815302 0.033395626 0.10011064 -0.031461123 0.12160217 -0.040267847 0.07427976 0.025801515 -0.06825765 0.013358822 -0.039831113 0.0346027 0.050893128 0.0893781 -0.091105245 0.13149422 0.014608276 -0.06325953 0.014976898 0.08996232 0.022158768 0.012769889 0.01172738 0.0060806763 0.11305159 0.0059185396 -0.11111102 -0.10993738 -0.04855544 0.02767908 -0.11053061 -0.029532228 0.03792147 0.09227696 -0.15793991 -0.051416714 -0.12122553 -0.04895163 -0.04185616 -0.04940605 0.07911105 0.075719774 -0.05526368 0.11805072 -0.0017832838 0.05455652 0.054948434 -0.021810986 -0.034522604 0.00110201 -0.09977605 0.045250826 0.0794522 -0.031961598 0.08099973 0.12051377 0.011448018 0.14231183 0.10119387 -0.050864927 0.0011250045 0.13406624 0.16965814 0.09537316 -0.054768063 0.08895885 0.014526036 -0.06361233 0.0024603473 -0.08302604 -0.002820056
longer 0.12156769 -0.006634683 -0.04259275 0.032441135 -0.09676561 0.0754232 -0.024864854 -0.05287176 -0.10320517 -0.0044592824 -0.018413765 -0.051715367 0.03451272 0.030029103 0.04015572 -0.06243887 -0.08957912 -0.062178385 -0.00805587 -0.12418821 -0.008260394 -0.04768658 -0.0020679128 -0.093295634 -0.01102475 0.0049766027 0.005208709 0.027228408 0.06346485 -0.12024027 0.045204293 0.007002185 -0.06692865 0.029562462 -0.062697105 -0.013397783 0.13804802 0.09688131 -0.020472575 0.15347862 -0.006077399 -0.114985526 -0.12773396 -0.051199347 -0.029455747 0.051898208 0.04822145 -0.039607458 -0.113408394 0.020311706 -0.041593716 0.10447633 -0.11525822 -0.07656379 0.038216356 -0.097606696 -0.11312557 0.046223722 0.0070589967 -0.00844267 -0.00025539144 -0.018490184 -0.10164541 -0.04451376 0.14144213 -0.10533315 0.02848523 0.16931303 -0.01316072 0.0220454 -0.057072077 0.07861732 -0.019530918 -0.045260727 -0.037311997 -0.007115837 -0.16805421 -0.019049345 -0.10541707 0.008120976 -0.018848065 -0.10324844 -0.054661896 0.010365121 -0.093257956 -0.064387195 -0.053587686 -0.0091054095 -0.115411125 0.01104263 -0.03303819 0.034669675 0.09185999 0.06441925 -0.1631292 -0.053184427 -0.07404268 0.03807149 0.023150947 -0.0029672328
final 0.005380655 0.058394052 0.05565096 -0.017567936 0.10059647 0.06317256 -0.17057613 -0.12237836 0.0032898362 -0.0410958 -0.048813358 0.068755366 0.10011715 0.06304058 -0.11444429 0.007481796 0.10031397 -0.06329402 0.04307528 -0.13268119 0.00093335577 -0.0053655794 -0.13059986 -0.031263825 0.030725477 -0.052095637 0.19917944 -0.004053924 0.100225486 0.013180184 0.008261566 -0.043934993 -0.011710686 -0.1055144 0.060929738 0.051742587 -0.054359976 -0.049129654 -0.08412842 0.10846114 0.06317454 -0.09604057 0.14912027 0.03938319 -0.013618322 0.027187672 0.028134251 -0.0109268455 0.05579108 0.048961956 -0.0089204 0.07151284 -0.08768217 -0.0031792936 -0.118274845 0.043763366 0.06161558 0.06991397 -0.086690955 -0.058459006 0.04500228 0.018025454 0.026879972 -0.05243693 -0.05037216 -0.016732354 0.11675435 -0.07387331 -0.024534645 -0.04047478 0.032217212 0.08636902 -0.05135011 -0.022305507 -0.080379605 0.01782224 0.004099955 -0.05222499 0.07594433 -0.04681456 -0.056022067 -0.04606058 -0.017129302 -0.05467453 0.10091575 -0.029395588 0.018885856 0.13585615 0.03393992 -0.058548607 -0.12810698 -0.09638094 0.10426203 0.058151957 0.007478175 -0.042703014 -0.042347144 0.07167306 0.08962308 -0.044078752
Reagan 0.07198154 0.1048189 -0.038017374 -0.055803906 -0.018846398 -0.010376548 -0.096668504 -0.07426299 0.07804337 -0.021336641 0.015875228 -0.102079846 0.015268636 0.049956586 0.11408183 0.02331208 -0.016126199 0.119043745 -0.091070876 0.066564 0.010074946 -0.02750153 -0.031028643 0.053003322 0.041479804 0.049189996 0.00586519 -0.07171601 -0.099467754 0.04505826 -0.079094306 0.03411106 -0.07533951 -0.069958776 0.13258569 -0.0285167 -0.09943324 -0.13157605 0.100074604 -0.054567166 0.16536148 0.07176121 0.036717422 0.028662445 0.023983885 0.10236971 0.018023703 -0.044975564 -0.0044514197 0.095758356 0.040227868 -0.093065746 -0.09263239 -0.0071402 0.042344254 0.0044109668 0.048375543 0.06296728 -0.08593246 0.038699508 0.1024728 0.09174572 0.003057104 0.05096187 -0.057325028 0.009896862 0.08985978 -0.13913506 0.03003643 0.013452063 0.06167967 0.0868681 -0.018097872 -0.06433362 0.03039221 0.12820752 0.14338417 0.1486966 0.05076895 -0.15880932 0.1236021 0.121927306 0.006269878 -0.062660106 0.063894555 -0.12054807 0.08553315 -0.06837039 -0.017784584 0.044452533 0.040918548 0.06730202 0.0031406027 0.050690535 0.07703475 -0.03737023 0.02490881 -0.10970979 -0.14032878 0.03398439
Toronto -0.03460608 0.09309097 -0.10810026 0.019215234 0.024782803 -0.11433514 -0.01596981 -0.017690945 -0.040988218 -0.14772217 -0.012358873 0.1118456 -0.068748586 -0.02390043 0.058740087 -0.018818194 0.042586833 -0.11024534 -0.098718606 0.08399636 0.084585376 0.025284335 -0.013233178 -0.0025499882 -0.02106985 0.028303541 -0.047503322 0.11071583 0.13322103 -0.07434297 0.002893588 0.1493602 0.029123822 0.01275538 -0.030142954 -0.09365265 0.0067032436 0.10896865 -0.007880618 -0.09634398 0.001312075 -0.07264426 -0.13449956 0.034917302 -0.053155787 -0.11759821 0.029266814 0.0133517925 0.03309236 -0.059413753 -0.10208547 -0.09371957 0.08364156 0.09305679 -0.015385286 -0.012331741 0.046505943 -0.047631964 0.03212884 -0.15871854 -0.0067204614 -0.07950624 0.026196972 -0.02389738 -0.13488893 0.081415124 -0.04027199 -0.051649466 0.05603881 0.038632803 -0.02252147 0.058974855 0.061472766 -0.14343934 0.12615694 -0.050130825 -0.031126058 -0.031026158 0.06740135 -0.050120734 -0.0929778 0.07769083 0.072749175 0.006421508 -0.0604762 0.05789264 0.094258 0.034218386 -0.059991177 0.08946475 -0.01042601 -0.028979566 -0.06839526 0.004390755 0.002156959 0.0075239916 -0.050147764 -0.07770618 -0.10608064 -0.0013689254
include -0.12015433 -0.04223647 0.10256951 -0.03257731 0.03506844 -0.07478655 0.013283216 -0.18700428 -0.037925355 0.13549747 0.057790868 -0.16460472 -0.022966683 0.019492209 -0.044596035 0.07955195 0.101750545 0.10566711 0.088653475 -0.041856132 -0.09854376 0.113212615 -0.105951466 0.028385215 0.09898794 -0.041048035 -0.011313545 0.0026569788 -0.04269275 -0.03570078 -0.0905335 0.011424148 -0.03549678 0.0678592 -0.0053863176 -0.00579234 -0.1394362 0.019024849 -0.07185017 0.15452422 0.103132874 0.013144905 0.048597194 -0.05345983 0.018621935 0.08704438 -0.10712653 -0.048160158 0.0046860813 0.0685136 0.1212773 0.0025273797 0.018544631 0.06410524 -0.06103353 -0.047105342 -0.037101083 0.13132064 -0.11451974 -0.05818677 -0.02548309 -0.059746273 0.04536912 -0.007513925 -0.06884019 -0.11788414 -0.0029173282 0.040299002 0.016023029 0.063341394 -0.104337364 -0.012456594 -0.020389132 0.006336208 0.0093089845 -0.07226763 0.1498999 -0.14475481 -0.055817015 0.038190544 0.061397184 -0.0829584 -0.055144053 0.044946123 0.06295799 -0.06819293 -0.074388094 0.094824314 -0.007049637 -0.069657914 0.07974079 0.058877762 0.055006757 -0.09568881 0.036090847 -0.07669571 -0.011305317 -0.07820332 -0.009625992 -0.10447648
ideas 0.08378209 0.06248604 -0.12796406 0.17250678 -0.024496889 0.027348544 0.018467866 -0.027813958 -0.09563929 -0.083546765 -0.014502218 -0.18983212 0.025588712 0.034529515 0.16154562 0.024177989 -0.010201405 0.018125204 0.030241098 0.098932944 0.041778762 0.02666541 -0.06786869 -0.061095256 -0.043326072 -0.16686895 -0.008982949 0.11276735 -0.07589939 -0.0720989 0.08100705 -0.05622178 0.02943467 -0.043920364 0.06778007 -0.108744755 0.011106893 0.045815393 -0.08940198 0.050220434 -0.04292328 -0.014135714 0.014767627 0.059648167 0.124268025 -0.042434268 0.06221748 0.027457831 -0.023656243 -0.0141734965 0.06568624 -0.09617436 0.0981894 -0.08648029 0.10307581 -0.05059454 0.13926752 0.11661731 0.096771374 0.04267844 -0.0027307523 -0.04136805 -0.044383988 0.092962265 0.16163436 -0.06985836 -0.059370384 0.13313472 0.065176226 0.0066079274 -0.0027035654 -0.1280168 -0.02593395 0.030649694 -0.0004291442 0.03575485 -0.05960955 0.02987036 -0.16114767 0.06600991 -0.040495712 0.023889191 -0.06057779 -0.027698908 -0.15793198 0.06306437 -0.023449391 0.025400313 -0.02461321 -0.08556343 0.018489124 -0.11591669 -0.048184916 -0.015738666 -0.024336003 0.011879268 0.021666743 -0.084680565 -0.03755134 0.059774917
human -0.0034899572 0.015108956 -0.049628887 -0.013535181 0.024610054 0.100439265 -0.1305463 -0.010935996 0.088708244 -0.038250804 -3.63528e-05 0.01032064 0.06357248 0.0024875465 -0.055122163 -0.07597568 -0.037355267 0.05022562 0.036526613 0.02278478 0.030854156 -0.114064716 0.002749396 -0.04418297 0.082992174 -0.06589168 0.12458147 0.014264145 -0.029550109 0.11777894 -0.050529897 -0.009828223 -0.15316094 -0.034921106 0.005675871 0.06039693 0.047463316 -0.08139226 -0.025697798 -0.0069787093 -0.053550035 0.04268276 0.007966469 0.11099322 -0.019866591 -0.010694897 0.06260822 -0.0510913 -0.13266122 -0.006046974 0.14424652 0.017691322 -0.17167793 -0.050577488 -0.022077689 0.089223675 0.07758104 0.021779943 -0.04388636 0.13333604 0.05211549 0.05205999 0.09228387 0.13037589 -0.017174432 0.028875507 0.1838481 0.014853391 0.019246195 -0.033429276 0.03099744 0.03669038 -0.072900124 -0.009875979 0.031255107 0.0101121655 0.0001566126 0.022174025 0.10313911 -0.081915334 0.050372694 0.09786183 -0.039928745 -0.032465894 0.0025123642 -0.14663486 0.02652693 -0.041157916 -0.10880483 0.049992785 -0.12840804 0.015091197 -0.13040987 0.06144892 0.06746949 0.076152235 0.08381294 0.052839644 0.01308167 0.14616627
terms -0.0094231395 0.064294346 -0.0332293 0.01339331 0.12360658 0.031796586 -0.07229991 0.055337325 0.06296517 -0.08147767 -0.093535244 -0.0164987 -0.043567434 0.00392526 -0.073400445 -0.040637452 -0.032227386 -0.1353386 -0.079177216 -0.07059834 -0.02474162 -0.119195625 -0.00202129 -0.008830039 -0.0012367475 0.050846636 0.063451745 0.105970435 0.11173747 -0.1035409 0.027335452 0.06100959 -0.006027641 -0.01381112 -0.065217115 -0.03664399 0.046654575 -0.07215556 -0.03782282 -0.0578413 0.02522712 0.0064539025 0.01767322 0.14647502 -0.053507444 0.03851642 -0.08410108 -0.16621548 -0.14353831 -0.027769344 -0.012978215 0.06363956 -0.1688442 0.08150117 -0.09308298 0.06371463 -0.064164616 0.03646222 -0.15658481 0.066240735 0.10668344 0.122021995 -0.018417 -0.08615167 -0.010416704 -0.095181584 -0.031190574 -0.053156108 -0.06909976 -0.02034059 -0.044295896 0.061263908 -0.07617633 -0.110725 -0.008621184 0.018356148 -0.13265538 0.092944905 -0.02388145 0.007647266 -0.05992539 -0.02211133 -0.021989437 0.0077182613 -0.0054488154 0.06916465 0.09652369 0.06031292 -0.031189155 0.04850567 -0.046345647 0.08977763 0.02959773 0.08975127 0.00618295 -0.029315246 -0.0058392053 0.16053566 -0.11690806 0.086708464
mistake 0.09839425 -0.07530386 0.10838032 0.02327191 0.013589666 0.07417913 -0.030989496 0.023112986 -0.06975757 0.012294257 -0.11330181 0.121762946 -0.073775895 -0.07847052 0.0680343 -0.039926406 -0.009398536 -0.015918627 0.01556097 0.035976786 0.021808228 -0.04362573 -0.015140282 -0.04186779 0.01889483 0.07915938 0.09893553 -0.0011584039 0.099382006 0.0052416744 0.06927844 -0.059647307 -0.0752782 -0.035112403 -0.0031312031 0.035463728 0.092250675 -0.0241599 0.0975242 -0.052296225 -0.07171872 -0.09918605 -0.07835836 0.03136453 -0.040462594 -0.008824335 0.065772295 -0.043025233 -0.08388567 -0.048332226 0.015627459 -0.046146464 -0.06859026 0.03401093 0.043330893 -0.08859973 -0.021295557 0.078317724 0.024980517 -0.08531972 -0.057705022 0.10549583 -0.017017169 -0.110099204 0.0032428082 -0.0589483 -0.05359467 -0.1645496 -0.029867837 -0.044835415 0.01593079 -0.04476465 0.037233926 0.06145418 0.020100808 -0.05194346 -0.015206951 -0.028219527 -0.052616164 -0.08039109 -0.021300746 -0.07427677 0.0027677498 0.07568425 0.12407663 0.017271012 0.014708324 -0.032552157 0.014249602 0.010570194 0.11038307 0.116001844 -0.017997451 0.12044552 0.0323748 0.09111932 -0.002109736 -0.07755218 -0.02650874 0.052376386
surveillance 0.050330583 0.010104423 0.018546943 0.017623788 0.0004738359 0.010516669 0.0052128076 -0.049208615 0.08792736 -0.00602912 -0.022402095 -0.013277587 0.032204095 -0.007529748 -0.10006326 -0.058372326 0.03003289 0.07281782 0.02221763 -0.0439192 -0.015602439 0.11244426 -0.113443345 0.05125239 -0.055604443 0.095401734 -0.114299595 -0.016924277 0.056040797 -0.0454152 0.0589087 -0.04419028 -0.0030790162 0.018936899 0.05510601 0.028119933 0.023836868 0.003174971 -0.058907505 0.038523026 0.02437559 0.13152274 -0.016356852 0.071892865 0.00965448 0.020445548 -0.040190145 0.118938774 0.035790548 0.07098242 0.10043754 -0.07893405 0.02757761 0.1045779 0.015525329 -0.092439294 -0.093966916 -0.008091897 0.0039601587 0.055947892 0.05043617 0.091606304 -0.02199251 -0.0742317 0.068839744 -0.046512846 0.0021335133 0.028510638 -0.0632474 -0.0073179067 -0.011836591 0.0591435 -0.1432104 -0.017340386 0.00508845 0.005648286 -0.12150694 0.08402795 -0.031295694 0.0012754509 0.0856256 0.092395306 -0.10886692 0.0053664 0.08202304 0.059123036 0.03130484 0.15041475 0.048379503 0.040579382 0.15306108 0.03328482 0.12514895 -0.1027793 0.07157594 0.057181723 0.0012682161 0.04230167 -0.050395247 -0.026736058
Ministry 0.044754237 -0.023479993 0.07699394 0.045248825 -0.12848322 0.107880354 0.037457276 -0.09637773 -0.08743128 -0.06644651 0.03510868 -0.058436047 -0.03508029 -0.051909484 -0.07193334 0.020474799 -0.07943438 0.05388423 0.16964534 -0.10576145 0.009293328 -0.026012836 -0.115594186 0.06557518 0.0012372148 -0.09497924 0.0721792 -0.03232868 0.039214607 -0.03474792 0.019219821 -0.033683583 -0.033810522 0.03469942 0.028011246 0.0054721734 -0.043973815 0.041322023 -0.017355302 0.13506764 0.05722713 -0.026955316 0.07621677 -0.07828795 0.11317557 0.10138767 0.13504225 0.056131646 0.06725258 0.10084231 0.027147388 -0.00521168 0.008148717 -0.081950605 -0.0066325944 -0.103750385 -0.11828022 -0.0011140628 0.062579654 -0.06161618 0.033370964 0.08292441 -0.060539365 -0.0010812244 -0.044374984 -0.07405486 0.025997331 0.0035012688 0.11972001 -0.07110721 -0.020015402 -0.05955022 -0.019834306 -0.009775977 -0.051149804 0.018440083 -0.009962611 -0.115527235 -0.020636635 -0.05602214 0.09457955 -0.07017461 -0.020177033 -0.03977548 -0.030297488 0.008247338 -0.02811171 0.07334954 0.06580267 -0.040019553 0.009734443 -0.031478927 0.08939355 0.069462515 -0.047767296 0.0931954 -0.08861772 -0.112744406 0.069077455 -0.08372688
Canadair 0.11963697 -0.08033882 0.08198961 0.05604855 -0.04765618 -0.068663955 0.090372875 0.04322672 -0.073068656 -0.0132169975 -0.029449297 0.090189986 -0.07561438 0.051820334 0.047483947 0.11713353 0.018377593 0.017624782 0.032602843 0.10875493 -0.0021875969 0.03846978 0.074905664 0.06073492 -0.06611275 -0.031910703 -0.083319046 -0.032120958 -0.067495115 0.11488849 -0.038962077 -0.064093724 -0.0831502 0.08034522 0.0041166623 0.010282174 0.07316863 0.09801234 0.077879645 0.004070961 0.06333224 0.075564265 -0.12448721 -0.17169406 0.012538256 0.052024797 0.10597994 -0.040893577 -0.0872783 -0.07316276 -0.034106873 0.028298425 -0.07170452 -0.037285395 0.050158896 -0.08010152 -0.010001755 -0.071089305 -0.014806441 -0.06514068 -0.075782984 0.049417008 -0.040944554 -0.08550248 -0.025291275 0.0307567 -0.068195626 -0.005164756 0.0606008 -0.03805971 -0.047217183 0.07791262 0.098550566 0.116581514 0.040919412 0.04748098 0.049638826 -0.052326493 0.04179273 0.00474917 0.12446684 0.023972709 0.08848346 0.007308414 0.088756755 0.0003046202 0.024116177 -0.022233408 -0.021575365 0.032658055 0.08936326 -0.001832924 -0.008031456 0.04589878 0.021950359 0.050619215 -0.17195052 -0.045477506 0.052225687 -0.13830937
unfortunately 0.08284783 0.017492404 0.081262425 -0.019957531 -0.006692399 -0.11995915 -0.010734956 0.02025592 0.05195672 0.075134635 0.03885078 0.063317664 -0.007579422 -0.0056378823 0.042551436 0.10044732 -0.04023458 0.005193225 -0.09788486 0.032974377 -0.031864796 -0.05337367 0.029792298 0.032584544 0.04576017 0.040205285 -0.0680608 0.04448489 0.06770334 0.08411906 -0.03609464 0.0032626458 -0.062095154 0.05255429 -0.01621378 0.063398585 0.12994581 -0.04861413 0.05218856 -0.033944868 0.00031901425 0.12169735 -0.0073301075 0.0011136675 -0.081618704 -0.01500775 -0.07392238 0.057334308 -0.002855131 0.041378032 0.09762618 0.033277385 -0.075112924 0.01365647 -0.038006168 -0.0069590807 0.009948104 0.04199965 -0.0054126605 0.090799086 -0.17261875 0.0029899492 0.07214097 -0.0055690217 0.04030593 -0.008323415 0.068120785 -0.05277526 0.02641726 -0.05746447 0.09458721 0.043262653 -0.032624856 0.054415822 0.1040033 0.04088208 0.061831024 0.019985257 -0.014605749 -0.011792782 -0.040626027 0.12386615 0.10163667 -0.052996982 0.16576687 -0.028920837 0.05433839 -0.003540744 0.005659518 -0.09330264 0.117248386 -0.03830997 0.0047872104 0.0478907 -0.009297089 0.053444795 0.060593646 -0.032115616 0.100805745 -0.0025854183
afternoon 0.06944421 0.018542834 -0.15086943 0.00022559783 -0.018358538 0.028655084 -0.0035497134 0.11559212 0.11627147 -0.07006108 0.009689489 -0.057947595 0.026694909 -0.008685518 -0.11344395 -0.08964404 0.053801287 -0.08173518 -0.11028828 -0.063703 -0.11948441 0.036782622 0.07420119 -0.0049308552 0.03974873 0.025507098 -0.0044630608 -0.036469206 -0.09712359 -0.013499289 -0.116396375 0.06285735 0.03114604 -0.006663081 -0.03824811 -0.05007248 -0.022210801 -0.023841338 -0.006075161 -0.13018635 0.080865845 -0.109755345 0.07362044 0.09149461 -0.067058094 0.054628447 0.013707505 -0.0705277 0.013558954 -0.020952921 -0.06099239 -0.009187142 0.0721437 -0.008165623 0.084345415 0.013301444 0.0768695 -0.019714348 -0.08128949 0.07431171 0.046819158 -0.059028324 -0.03746204 0.048777122 0.010566902 0.04214309 0.0016114076 -0.096094616 -0.085303195 0.026944054 -0.033189304 -0.06351016 -0.108240716 -0.0738362 0.060294144 -0.10258573 -0.15259878 0.03674248 0.014967908 0.03596242 -0.031433742 0.0017919311 0.020470938 0.07948619 -0.054959446 0.026934436 -0.024497638 -0.0105968295 -0.022853436 0.070423864 -0.17739141 0.005038068 -0.028305292 -0.043813318 0.06993421 -0.10375061 -0.016678333 0.019494994 -0.11377252 0.058354475
along 0.09757103 0.01544992 -0.051299047 -0.019541996 0.100176744 0.061209165 -0.07885023 0.06521353 -0.031188693 -0.13487253 0.038944263 -0.04363843 0.054829516 -0.04989378 0.07447127 -0.017374387 -0.05691981 -0.0060748644 0.1506934 0.19386747 0.12574695 -0.048203997 -0.0825519 -0.051866647 0.014284395 -0.07609344 -0.04460218 0.046174504 0.04559097 -0.09610117 -0.0053962977 -0.08556178 -0.027707072 0.075066544 0.050494537 -0.02499449 -0.08000575 -0.010702616 -0.03630396 0.054211956 -0.075992584 -0.038082935 0.017305024 -0.034037396 -0.01418225 0.021229845 0.008687171 0.06367282 -0.042101674 -0.014657027 0.00344235 -0.01172404 -0.064696595 -0.1694116 0.05589107 0.008118843 0.012388065 -0.06847284 0.010773612 0.06460264 0.031045564 0.04361231 -0.12083366 0.079809465 0.026983948 0.052310336 -0.002401764 0.12696806 0.07213418 -0.093773335 -0.025292434 -0.023711223 -0.043881193 0.0629283 0.08113162 0.059818946 0.0073735714 -0.013179546 -0.121760026 -0.01381995 0.07101796 -0.15667246 -0.007910541 -0.068182446 -0.1988841 0.060151115 -0.07458689 -0.044186775 -0.04222192 -0.008344295 -0.01780821 -0.028010575 -0.0842949 0.02740253 0.054481108 -0.00890637 0.041584115 -0.094037265 0.08756914 0.13641112
introduced -0.07528435 -0.10268192 0.07387155 -0.0045667468 0.03680696 0.1326488 0.038052913 -0.022905031 0.08705901 0.04166929 -0.030097447 0.065701716 -0.0037725428 -0.044577993 0.032084078 -0.14069258 0.00037747424 0.047181178 0.14923842 0.10089658 -0.009226934 0.035411723 -0.11044792 -0.08866764 0.008812665 -0.034305412 0.04469946 0.10387299 -0.050600022 -0.05868742 -0.04540144 -0.0357666 -0.023624534 0.009460902 -0.117775194 -0.056386683 0.03632882 -0.055649277 0.039955158 0.05588042 0.0044319173 0.017624129 -0.056318264 0.0047658677 -0.06173468 0.08782878 0.088198654 0.06326246 -0.101656795 -0.04514423 0.0044437754 -0.04651321 -0.081100985 -0.027887806 -0.060003612 -0.021835143 0.008945498 0.004836118 -0.022450348 0.122563966 0.11018719 0.073291056 -0.083246715 -0.09264866 0.0272553 0.08471642 -0.08943165 0.01735305 -0.05273481 0.022468826 0.008647102 -0.0807304 0.008473659 0.05506838 -0.09349536 -0.0586307 -0.058632024 0.02970736 -0.09556121 0.08858043 0.008756715 -0.108788505 0.036562335 -0.067408994 -0.17471336 0.02217199 -0.1086277 -0.100555845 -0.080108956 -0.05146042 0.028870504 0.05313029 0.008100132 0.07652453 -0.08166371 -0.07611958 0.04169174 0.11346149 -0.07496723 0.028298805
countries 0.0037200486 -0.045629747 0.054239858 -0.010521785 -0.098145224 -0.0642519 0.023442136 -0.10241673 0.014059027 -0.012260971 0.081651516 0.0072092707 0.052943055 -0.07866504 -0.116770074 -0.049285498 -0.061094165 0.123033665 0.13571492 0.023151115 0.013119871 0.022402769 -0.1564351 0.024558075 0.042051177 0.017074509 -0.079793885 -0.02030957 -0.09220871 -0.12719421 -0.09214512 -0.06410281 0.108365595 0.06714029 0.015331056 0.08314234 -0.07292664 -0.021651333 0.023062242 0.0947293 0.11661342 -0.02630835 0.07260162 -0.13800196 0.01685859 0.110103525 0.10767617 0.16892348 0.06989442 0.0011847946 -0.01810048 -0.04755824 0.038207818 -0.018290559 -0.0027106046 -0.07489959 0.047132134 0.024218129 -0.008889221 0.00033678155 -0.076092765 -0.032197203 -0.12846538 0.042719163 0.022982346 0.029048864 -0.10045266 0.11300238 0.045511905 0.09011826 -0.0963415 -0.059237644 0.117509864 0.12666173 -0.044620793 0.08685426 0.13139758 -0.08963745 -0.007184837 0.04123026 -0.08793137 -0.05296469 0.08507554 -0.080514774 -0.0011229815 -0.054715395 -0.03457748 -0.016898774 0.14982863 -0.029403003 0.13073799 0.036841955 0.050966505 -0.000161821 0.044378597 -0.18627666 0.019957105 -0.043350775 -0.016092855 -0.0606869
President -0.11756054 -0.032277994 0.06269485 -0.03943133 0.07710198 -0.03900089 0.033044532 -0.030341638 0.013388478 -0.017191885 0.043868374 0.041351758 -0.0072768335 0.08547749 -0.0580263 0.103807725 0.09918384 0.13493143 0.0496648 -0.010377235 -0.004512989 -0.04270244 -0.041329958 0.05027049 -0.006343745 0.051036682 0.054663185 -0.035680454 0.039936855 0.11957098 -0.03790122 0.059824184 0.045890875 0.033913832 -0.03999997 -0.057749305 -0.16311647 -0.062759146 -0.11890451 0.026628438 0.07503745 -0.030185897 0.1830468 0.046812806 0.07942579 0.053832334 -0.052929737 0.055040285 -0.01267929 0.03144682 0.040806297 -0.0110613275 0.020931652 0.094372995 -0.030224208 -0.017702501 0.101462685 0.08862029 0.011098346 0.026917277 0.0038022157 0.018107515 -0.08315755 -0.044004034 -0.06931647 0.1138071 0.08161595 0.009652141 0.06246144 -0.062150683 -0.009453851 0.10079976 0.086174704 0.044026837 0.058025703 -0.013091701 -0.05017477 0.091198385 -0.05366888 0.045821916 -0.05170463 -0.10522623 0.0956102 -0.06830334 -0.07485477 0.053635165 -0.027621346 0.064408146 0.08044327 0.008346845 -0.08822643 0.011445935 0.047433577 -0.09582507 0.106571674 -0.056744754 0.11857365 0.11277191 -0.032659985 -0.031559605
newspaper -0.027880767 -0.17769685 0.03138746 -0.06231546 0.022942523 0.05251193 -0.021312186 0.06550521 -0.06263923 0.043020673 0.07511464 -0.061472785 0.03548943 0.014538587 0.0982083 0.043096166 -0.032236166 0.18788736 0.12648468 0.19653432 -0.08733891 -0.010960206 0.097355075 0.12857318 0.022960125 -0.044697735 0.060478024 -0.07264101 0.023760602 0.11901352 -0.017007302 0.0001890934 -0.0025669483 -0.10716843 -0.021295853 -0.064130455 -0.072415054 -0.1315829 0.13275404 -0.028185327 0.0807439 -0.05243818 0.10189473 -0.05501997 0.05301445 0.063559584 0.052243307 -0.010728435 -0.09165113 0.095732324 0.006508337 -0.008623396 -0.044125512 0.0004125661 0.06931642 -0.08870197 0.10369225 -0.020562591 0.051126257 -0.009168751 0.08523035 -0.105360016 -0.026248889 0.0125003485 -0.029352415 -0.03574474 0.10191609 -0.15714242 0.027085073 0.037738886 0.038752906 0.06653187 0.06485409 0.015493156 0.02259747 0.0386014 -0.0658592 0.102745004 -0.07043976 -0.083900005 0.01918507 0.042779226 -0.008655124 -0.07347766 0.075490005 -0.023393774 -0.03097806 -0.05001253 0.03302559 -0.03223685 -0.09329062 -0.0025550544 0.0034886233 0.01563637 -0.039786726 -0.025322476 0.096196346 -0.01684743 -0.103676185 -0.027419815
overs 0.04656432 0.14789213 0.0516051 -0.07899023 0.06723495 -0.06746365 -0.051173214 -0.080494605 -0.09473188 -0.108310185 -0.0069004516 -0.058846034 -0.001803231 0.06629695 -0.010984736 0.014831561 0.03354279 -0.09087573 0.0058763227 -0.09615978 0.046570636 -0.024890255 -0.122734755 -0.04948286 -0.10855038 0.02643219 -0.09713928 0.03304355 0.06743359 -0.11212849 0.09461069 0.031347807 0.07548159 0.042492427 0.13873687 0.10898174 -0.06594031 0.08277562 -0.042406302 0.028855795 0.026687013 0.09876214 0.058647435 0.024893416 0.095862575 -0.032861892 -0.17913476 0.14200652 0.1936789 0.0766391 0.019180212 0.006056761 -0.052578334 0.09852037 -0.12390908 0.018870573 -0.06881083 -0.08615966 0.030066049 0.11119228 -0.083636634 0.16334127 0.012226593 -0.017455386 -0.14878651 0.0833198 0.01998495 0.030619366 0.114745535 -0.11851518 -0.1337775 0.07540745 -0.066545874 -0.015976487 -0.028188001 0.015557025 0.025540562 -0.12903503 -0.117655575 -0.056471772 0.12853354 -0.07676779 0.03810277 0.01688381 0.055904876 0.039049566 0.011547225 0.18318692 0.076797895 0.005390625 0.122342646 0.08488894 0.14205787 -0.008629462 0.0134627875 0.061816014 -0.033558138 -0.042632002 -0.015123134 -0.014605469
know 0.050599027 0.023374837 -0.043905023 -0.0281662 -0.009328133 -0.0895673 0.074031055 -0.08109242 -0.14275946 0.12242757 -0.072128855 -0.042655572 -0.06724076 -0.09544977 -0.12574983 -0.08661537 -0.055351347 -0.07637564 0.12200495 -0.07794974 0.09743944 0.05740922 0.028281745 -0.014631698 -0.036735576 -0.0453863 0.045523975 0.010680794 -0.007751363 -0.07091838 0.064620726 0.0033660352 0.017934568 0.11480326 0.0233441 -0.028856978 0.037265338 -0.02592903 -0.10846349 0.091565 0.11757574 -0.048437342 -0.019808114 -0.10948985 -0.011679914 0.07137876 -0.010305431 0.08473705 0.063817285 0.060412474 0.11025092 0.026752684 -0.09786586 -0.027169796 -0.03801944 -0.09822089 -0.023058208 0.03917123 -0.026322067 -0.04948152 -0.05100738 0.031183252 0.068562746 -0.018846886 0.16596447 -0.11426992 -0.0034918594 0.10756454 -0.06971465 -0.008883204 -0.04990078 -0.059012365 -0.03829867 -0.042285044 -0.04187329 -0.009686279 -0.069191694 -0.045443647 0.03045074 0.10433046 0.008905337 0.0594884 -0.054653555 -0.06354425 0.08631867 0.07880696 -0.061148237 0.13521723 0.19934778 -0.007103216 0.09064699 -0.030818 0.036736794 0.10031975 -0.15727434 -0.073767625 -0.09791696 0.08697565 0.046369158 -0.097341396
1960s -0.19355522 0.007135077 -0.0700853 -0.09367055 -0.0786207 -0.0013555122 -0.009439195 -0.022222744 0.09659425 0.051242817 -0.0409566 -0.08856914 -0.018750407 -0.020556623 -0.14660692 0.013984312 0.11796449 0.15300903 -0.05180124 -0.046412632 -0.047558017 0.10244415 0.05420525 0.114977024 -0.0016400715 0.0534262 0.008838397 -0.10315439 -0.06545229 0.09176125 -0.21579517 -0.023007337 0.07807479 -0.009453538 0.07738089 -0.04885002 -0.10131087 -0.064165555 0.011956619 -0.12207861 0.059321374 0.011276962 0.14075913 0.05510801 0.11357715 0.044973932 -0.117794834 0.029210743 0.026402038 0.070823535 0.05369261 -0.05932837 0.09226473 0.049702726 0.07380324 0.030685779 0.0030846575 -0.0057451073 -0.0200851 -0.00945933 0.11037242 -0.023192994 0.040969484 0.044345733 0.024936475 0.06289867 0.026300013 -0.056888085 -0.04733637 -0.0040080375 -0.09645609 0.08960708 0.004084095 -0.04438154 0.0666764 -0.013323264 0.1381429 -0.03432503 0.056676902 0.045087975 0.07813599 -0.076457426 -0.024303155 -0.050514646 0.03786844 -0.028396957 0.052783582 0.065376654 0.058338806 0.08920536 0.0002264873 0.025471102 0.0063440544 -0.11431429 0.07505282 -0.024498936 0.040704504 0.073781915 -0.017259562 -0.014886919
description 0.0110647855 0.011220292 -0.024512812 -0.050617117 0.016612176 -0.0019900862 0.049090467 -0.013372806 0.029348189 0.1339084 0.06324409 0.02720929 0.057219468 0.022913244 -0.08993566 -0.13103497 -0.12770836 -0.053363275 0.031304765 -0.02556805 -0.051960636 0.1171509 -0.025287319 -0.11076729 -0.0023145296 -0.12105524 -0.008718142 -0.08639905 -0.08225902 0.100490466 -0.100696996 -0.0638986 -0.009309539 0.07651697 -0.027906805 0.051082198 0.010740146 0.061404753 0.0013132287 -0.11308592 -0.035911284 -0.031187106 -0.08358884 0.06263983 -0.06762798 0.044322196 -0.03918123 -0.11467513 0.052623797 -0.08470883 -0.068394154 0.022626873 -0.11468146 -0.1601928 0.0105578555 0.01306911 -0.031206023 -0.054590397 0.030493243 -0.009874319 -0.087694705 -0.1380412 -0.06883216 0.06518 0.08266869 -0.009612761 -0.0041736695 0.049564146 0.046725925 -0.10227444 -0.07099298 0.10427939 -0.025684496 0.039389364 0.05759996 0.016507369 -0.03644636 -0.15426217 0.03379204 -0.05876405 -0.007783378 -0.06957303 0.0629753 -0.079618335 -0.10761395 0.07772246 -0.0077131023 -0.1410982 -0.092758514 -0.036718465 -0.017489454 -0.12473716 -0.12825695 0.016703958 -0.034084782 -0.045270357 -0.082326666 -0.021035884 0.14362995 -0.03379051
want -0.053975683 0.10856388 -0.018487118 -0.09972614 0.053693917 -0.16874446 -0.03634359 0.010664585 0.082442425 -0.015348544 0.025987398 0.0054247077 0.07225019 -0.053742934 -0.111869924 -0.0069896686 0.094469346 -0.052176278 -0.023297023 0.0048814355 0.04108608 -0.055664618 0.12338768 0.0579573 0.015323471 0.07489017 0.023780936 -0.031390652 0.015476287 -0.033465683 -0.03396883 -0.047885068 0.10037837 -0.11756418 -0.0240261 -0.06525288 -0.084695086 -0.014365985 -0.08041653 0.06452089 0.045759108 0.09620978 0.08742428 -0.012310714 0.087266214 -0.0010858397 -0.08772343 -0.042728607 0.03866976 0.06432424 0.058043074 0.12356327 -0.021120295 0.049568754 -0.121797375 0.029304776 -0.06381362 0.057109438 -0.041970436 -0.007836581 0.034623284 0.15187831 -0.018581817 -0.012077957 -0.08482232 -0.006011248 0.0004916871 -0.05485294 0.06505597 -0.0015080243 -0.06072089 0.10071413 -0.064638376 0.0175629 0.024215674 0.032119814 0.1206975 0.01998829 0.09948512 0.096900426 -0.029443882 0.06549144 0.042042177 0.03276343 -0.061806943 -0.07810471 0.079704024 0.13204409 0.07189474 -0.041595407 -0.08256988 -0.04091072 0.07909897 0.07349696 0.023002932 0.005697368 0.08130923 0.13571168 -0.026903814 0.022891838
Elections 0.12625237 0.14875896 0.013593796 0.054985855 0.028977687 -0.06469664 -0.11603632 -0.06213224 -0.04029821 -0.051508192 -0.0014870135 0.13140744 0.072264805 0.09939277 -0.03509537 0.13032484 -0.042040627 -0.18391596 0.016765827 -0.060078554 0.13884136 -0.04424987 -0.08125048 -0.1024089 -0.0044760793 -0.083568506 0.038792923 0.06520515 0.047813777 0.022200342 0.11805759 -0.02484919 -0.035911366 0.009093512 0.01668088 0.06031813 -0.00831956 0.14882328 -0.11652174 0.124101765 0.007844509 0.07327863 -0.19315597 0.019756258 -0.014037412 -0.0076122987 -0.005666762 -0.076532975 0.09027762 0.04386753 0.0043600188 0.10574501 -0.1159572 -0.10798928 0.040217444 0.099121414 0.034044236 -0.116642825 -0.04436169 -0.042601597 -0.028650202 0.011052038 0.026765143 0.005264976 -0.10602989 -0.044190846 0.15631498 0.083425514 0.11054065 -0.11601763 -0.027222306 0.11189123 0.006506649 0.085214704 -0.06698981 0.12851353 -0.031859227 -0.11227597 0.019991959 -0.034850225 0.033006873 0.081104994 0.06336555 0.08342646 -0.041352693 0.045083143 -0.0013523322 -0.062464826 -0.0299812 -0.07110039 0.0010646835 0.092239656 0.014554489 0.12534769 -0.059769176 0.09300019 -0.04583173 -0.11116322 0.15877557 -0.061122194
level 0.04978318 -0.123518795 -0.025798824 0.017695311 -0.030516528 -0.11767798 0.0949031 0.07763811 -0.015600889 -0.028796444 0.09637955 -0.10539943 0.05408758 -0.06409488 -0.040048365 -0.09324632 -0.0031321386 0.05820893 -0.001594391 0.08226053 -0.05555231 -0.0048606633 0.08681099 0.04431295 -0.069637 0.17126969 -0.14600888 -0.006334952 0.08740973 -0.011800731 0.011649746 0.06441408 0.03606661 -0.03274164 -0.05127452 0.042443488 0.08692246 -0.04425781 0.07755024 -0.009503999 0.001884482 -0.0906596 0.042977747 -0.09600493 -0.008319502 -0.06990647 0.10603701 0.19077225 0.0301906 0.037357792 0.029038532 -0.06768226 0.09772981 0.09075354 0.011881772 -0.03292511 0.01848758 0.011653353 0.038224842 0.09104611 0.047912322 -0.118687995 0.02740408 -0.07267224 0.07259362 0.055263937 -0.087485716 0.0006522905 -0.12655675 0.13072541 0.05242211 -0.04902659 -0.0024365566 0.02293831 0.0029018617 -0.08309961 -0.08871891 0.058405362 -0.08277041 0.09045056 0.0049907193 -0.047038417 0.046651747 -0.037663177 -0.05903336 0.09052873 0.023884159 -0.046862457 0.043435834 -0.062470417 -0.029140064 0.097044036 -0.030483892 -0.034066394 -0.024085702 -0.041547112 0.07333991 0.16461706 -0.12177253 -0.028475555
subsidy 0.05588177 0.048913505 0.042497594 -0.06192405 -0.054006185 -0.14081284 0.10557716 -0.07989298 0.024504649 0.0603282 -0.017972834 0.08937922 0.05227525 0.04624486 -0.07824459 -0.09027102 0.05815002 -0.030889275 0.040355515 -0.07117117 -0.028652797 0.092007995 0.045912348 -0.041018486 0.053967327 0.07767817 -0.05769176 -0.054401014 -0.15530105 -0.025430942 -0.06775665 0.083450764 -0.019811666 0.06480849 -0.049226277 -0.023897488 -0.047781423 0.10482024 0.0040684827 0.16139334 0.00198293 -0.033132203 -0.10846034 -0.17612027 0.018055782 0.03625082 0.033886824 0.12115713 0.11267792 0.005515075 -0.016201299 0.04919221 0.044289872 0.06289855 0.1262613 0.027926762 -0.0711141 0.03451563 0.022942854 -0.12368558 -0.05196056 -0.07028054 -0.013964605 -0.07370979 -0.07241888 -0.047737136 -0.11853536 0.041872848 -0.020468092 0.008222297 -0.013309581 0.033092193 0.069825366 0.09737319 -0.13613002 -0.084815376 0.06076258 -0.107196495 -0.028459279 0.049969845 -0.011451887 0.05136694 0.09421092 -0.02588118 -0.011592653 -0.023998795 -0.026846034 0.060700953 0.040521443 -0.009699147 0.076970346 0.012181881 -0.04165429 -0.03560801 -0.007606823 -0.058559686 -0.049676273 -0.056952253 0.042304344 -0.120518595
Transport 0.07307637 -0.005729519 0.050154116 0.094990544 -0.16876121 0.028326083 0.017868781 -0.1047638 0.026645953 0.033725124 -0.0069329063 -0.0072482224 0.08261053 -0.02284895 0.051328477 0.0145332385 -0.045396302 0.044394962 0.032512736 -0.050582517 -0.064257525 -0.026117336 -0.06732089 -0.0088013215 0.044884276 -0.06893815 -0.056972638 0.05290744 0.038657196 -0.04119133 0.03809415 -0.03473164 0.040051688 0.043960772 0.016081287 0.06763993 0.0367289 -0.04098221 -0.018579662 -0.008499921 0.1310722 -0.052548748 0.028895086 0.05742067 0.01679399 0.13958475 0.02125701 0.07092324 0.046761703 0.14111187 0.17694668 -0.1628269 -0.094751224 -0.0062761595 0.018764816 -0.061049677 0.14681229 -0.038111858 -0.014401366 -0.043521054 0.06318486 0.108672306 -0.069398664 0.08114173 -0.030282643 -0.025716696 0.011067135 -0.094464585 0.09062144 -0.025300812 0.07315293 0.012668511 0.10220781 0.023156263 -0.026253894 0.09203684 0.03207314 0.044457834 0.013040845 -0.0036375474 0.06672229 0.11571288 0.05055904 -0.001627679 0.011791739 -0.12061346 -0.023845939 -0.018941358 0.07162537 0.05216248 0.054730985 0.0047577927 0.088544816 -0.008401049 -0.0066972454 0.118691646 -0.029762862 0.025520395 0.077315964 -0.044392496
indication 0.026341503 -0.03229349 -0.0792377 0.050151356 -0.0417308 0.10449012 0.008689516 0.026456753 -0.031739514 0.000437735 -0.021643974 0.008152672 0.0015107262 0.04497598 0.0135130575 -0.01907689 -0.07195199 0.014453634 0.066309765 0.19406001 -0.05493245 0.09131327 0.03673431 0.00032272856 0.06158933 -0.087348245 -0.011515201 0.15056716 0.04304745 0.106011644 -0.100252144 -0.03590019 0.015148445 0.055518024 -0.04425815 -0.11798199 0.042395044 0.038898915 0.024002904 -0.023927625 -0.024193663 -0.10572519 -0.051733293 0.08245032 -0.06635385 0.05186953 -0.04711647 -0.07368427 0.049015485 -0.022878958 -0.0050227595 0.038623605 0.11644881 -0.0071919095 0.06210481 -0.038500007 0.05473521 -0.009785716 0.028382605 0.050370682 -0.0094163 -0.04841535 -0.0659097 0.041218147 0.049177185 0.023424394 0.040522475 -0.0340131 0.0255294 0.12784688 0.12358946 0.024495251 0.12639597 -0.0617718 -0.035906576 -0.023551961 0.02132453 -0.06891136 -0.04446553 -0.01456243 0.008000508 0.07730796 -0.15482277 0.046880394 -0.12976417 -0.020710172 0.01182759 -0.053886257 -0.043003555 -0.07243878 0.0051886244 -0.050349593 -0.08598588 0.046137974 -0.07772996 0.09261217 0.14978422 -0.023886425 -0.031655267 -0.04160191
acid -0.054223944 0.07223442 -0.017771902 0.08275196 0.038179573 0.08360762 0.017345067 0.039419226 0.08870189 0.012219679 -0.046071358 -0.031394996 0.054109186 -0.018238243 0.020146737 0.017259626 -0.0804944 -0.06371084 0.07570498 -0.07319218 0.05847307 -0.022586564 -0.06050771 -0.032576527 0.0007531386 0.10314772 0.03115454 0.07590581 -0.02248024 -0.19693379 0.072694525 -0.050941546 -0.04171767 -0.034820456 -0.033483382 -0.018963316 0.08089838 -0.055118203 0.030998515 0.08322323 0.012508498 -0.0270886 -0.16900918 0.03168443 0.1524258 -0.011735583 -0.012698715 -0.0040016244 -0.0060518184 0.014146702 -0.04463771 0.0312807 -0.09138345 0.030355347 -0.03381925 0.0932725 -0.09954567 0.0033879976 0.033899363 0.034526337 0.05252842 0.15805289 -0.051823217 -0.082177885 -0.020312166 -0.088912256 -0.08328241 0.058947116 -0.047261626 0.025697526 0.011411825 -0.00050010177 0.011388953 0.03905928 -0.11687173 0.11507127 0.061681695 -0.0449826 -0.08350739 0.05200501 -0.013922611 -0.016403913 -0.04708101 0.0007571261 -0.088219576 0.013066716 -0.046378065 -0.027617613 -0.0015905983 -0.032622907 0.0070253643 0.022510545 0.098145805 -0.041171473 -0.0024455457 0.06134077 0.0030646238 -0.046647064 -0.03412176 0.0019371291
negotiations -0.027731458 -0.0054381266 0.04673275 0.004776187 -0.057347473 0.09165156 -0.07920931 -0.0006495792 0.04013703 0.0032145814 0.0692914 0.052210428 -0.047307227 0.0363435 -0.014782435 -0.03144838 -0.17238829 0.058694493 0.074355185 0.039899334 -0.07970045 -0.026283244 -0.035970815 0.012289132 0.0043054577 -0.055133946 -0.030348897 -0.026036782 -0.13179728 0.02403852 -0.048920486 0.014030912 0.017264765 0.04418099 -0.019980839 0.0064999564 0.073008776 0.1363001 -0.068389274 0.08146913 -0.13793117 0.03317387 -0.04467291 -0.019185564 -0.014603698 -0.10740884 -0.0304668 -0.08566541 -0.013130105 -0.11446614 -0.040715475 0.005468309 -0.02300902 -0.13202904 0.06733266 0.018064836 -0.12054017 -0.07190631 0.028064063 0.14029644 -0.1365568 -0.10914175 -0.049182657 0.067513525 0.09832621 0.045381628 -0.05077246 0.019076535 -0.033931836 0.05868272 -0.06417036 0.105341546 -0.008121793 0.06352715 0.02155837 0.024329944 -0.115288556 -0.16681989 -0.086210795 -0.017785642 0.090763085 -0.08308015 0.09869947 -0.006135899 -0.094925866 0.054751292 -0.06731596 -0.038836893 -0.17293943 -0.0018614841 -0.011100372 -0.048784785 -0.09035742 0.12004459 -0.052287407 0.101667546 -0.033498336 -0.13608517 0.14009354 -0.09024331
put -0.005330231 -0.0067613404 -0.041632198 0.11826715 -0.02558672 0.014660327 -0.0039848844 0.0055404287 0.04764388 0.009887335 0.12273677 -0.13140818 0.11259035 -0.006836188 0.11944312 -0.011951892 0.034021284 0.055424936 -0.07187314 0.08780464 0.05859112 -0.06917742 -0.01947418 0.08118128 -0.00268323 -0.07825728 -0.042838126 -0.0005645248 -0.03605939 -0.038556125 0.07043898 0.13207184 -0.015329582 -0.056312975 -0.027064737 0.030502642 -0.023895456 -0.021102387 0.012689849 -0.11530101 0.10613538 -0.054993134 -0.040859483 0.0756144 0.10358158 0.00082409615 0.13672838 -0.025898403 -0.11127587 0.023309788 -0.0825837 -0.013080326 -0.03101955 -0.12346421 0.06132368 0.06962047 0.0036884123 0.003622482 -0.057742365 -0.078536846 0.02174992 0.05683757 0.013309119 0.051464498 0.117228836 -0.024281288 -0.030698925 0.1037885 -0.089589514 0.10857503 0.024427062 -0.0053137196 0.005474317 -0.1129972 -0.022291355 0.013864544 0.019245729 0.05577069 -0.07385044 0.036111016 0.026062265 0.018638326 -0.03995969 0.0012253125 -0.07220851 -0.022367999 0.06680343 -0.08800519 -0.08244885 -0.010290663 -0.01865633 -0.022900669 -0.018921189 0.031316947 0.05933755 0.037125014 0.110296294 -0.00919294 -0.009906318 -0.018213103
certainly -0.075099714 -0.02887928 0.0034972776 0.017728778 -0.11578202 0.07617228 0.013418911 -0.05810401 -0.061795287 -0.033847015 0.09157918 -0.07026133 0.043575082 -0.006966839 0.04706171 0.011113941 0.10160749 0.033228688 0.06828038 -0.10485533 0.038883142 -0.15456305 -0.026216893 -0.03097958 -0.022341486 0.0077432543 -0.030082002 -0.023750328 0.046545804 -0.16527216 0.15681204 0.03727457 -0.007816491 -0.01487442 0.08213617 0.014846507 0.04706556 -0.004575837 0.042126585 0.09165123 0.1251545 -0.007963398 -0.041306492 -0.046712574 0.09278114 -0.036200225 0.09051954 0.0668068 -0.024969675 0.07651468 -0.08457493 0.0065089986 -0.15378623 -0.013384342 -0.024464287 -0.077326894 0.074228846 0.07872034 -0.09903608 -0.13716306 0.022963602 0.07410829 -0.007316994 -0.07471707 -0.1019664 -0.054270465 0.03011743 0.010402771 0.034042988 -0.0823037 -0.0034090946 0.0028452529 -0.0026357376 0.04704512 -0.07241379 0.025218112 -0.06319099 -0.04486175 -0.1437084 0.088652134 0.0756693 -0.095159575 0.0602477 -0.093560465 -0.06187812 -0.012107077 0.01902838 -0.03298488 -0.0015671595 0.049742382 0.036251448 0.08873199 0.07531717 0.069166854 -0.029882269 0.14131749 -0.006531973 0.004324051 -0.035038687 -0.0455634
acting 0.053987496 -0.04807973 -0.033864576 -0.008940707 0.027389634 0.047705557 0.016018074 0.05320775 0.038425416 0.067532524 -0.020475393 0.012041904 0.08265869 -0.119899735 0.06749262 -0.017064853 -0.10643936 -0.035150513 0.080521226 -0.060948383 0.006201045 -0.064876474 0.017763881 -0.019429399 0.07073614 -0.09248121 0.10227192 -0.011347585 0.14864382 0.08532175 0.0606495 -0.14735636 0.02345589 0.02469432 0.087025665 0.02935656 0.062342823 -0.10713743 -0.011812907 -0.05649257 -0.08246161 0.047540672 0.02590529 0.075060576 -0.10943979 0.021865083 0.08426671 0.00056921033 -0.06124341 0.007909972 0.02135042 0.08407399 -0.05988337 -0.067635514 -0.004609345 -0.012467236 -0.0064773974 -0.07293185 0.010515872 0.11836095 -0.046390202 -0.0056615905 -0.100103766 0.06315082 0.063672364 0.024433564 -0.045555167 -0.0070584686 -0.04363412 -0.06760772 0.09522033 -0.100875735 -0.07641144 0.060391728 -0.026251165 0.12547557 -0.053305518 0.06318871 0.017183555 0.14391151 -0.007538243 -0.02267692 -0.10803738 0.0719201 -0.16272807 -0.044925384 0.07602243 0.02541752 0.08069981 -0.05111474 -0.00799206 0.012197168 0.13752757 0.03783587 -0.07692684 -0.0016289103 0.023914194 0.091590054 0.11389169 -0.03866452
24 0.06131695 -0.030210985 -0.015241261 0.08660254 0.025783408 -0.11246915 0.055132706 -0.021544373 0.03189165 0.04003179 0.05131807 0.046104345 -0.08066094 0.0557528 -0.022257598 -0.0090236645 -0.0011695768 -0.012104013 0.09641188 0.12473084 0.0015474996 0.113280654 -0.037565507 0.074825495 -0.0451703 0.07598144 -0.011216642 0.051902216 -0.061960343 0.06526202 -0.061867498 -0.0048096008 0.09571286 0.07626447 -0.11750912 0.059961755 -0.014845795 0.047225703 0.07986205 -0.001957238 -0.046223033 0.08098449 -0.06688828 0.004682155 -0.018604642 0.023875657 -0.089747004 0.14727294 0.0077208867 0.0149307065 -0.01854862 -0.025576886 0.117277786 0.03019914 0.004823669 -0.05133578 -0.062336463 -0.076809175 0.077038616 0.07409509 -0.021129372 -0.054238286 0.028358733 -0.010166503 -0.10995308 -0.007402012 -0.10845386 0.02162955 -0.045393802 -0.05765873 0.016410278 -0.08488062 0.08856619 -0.0029228292 0.020099232 -0.02097605 0.13006176 -0.083592854 -0.08061216 -0.040348027 0.11593815 0.13621402 0.075743675 0.0040460997 -0.057406116 0.036649067 -0.11886272 -0.08941825 0.08530693 -0.03018004 0.21099478 0.10904735 -0.0027853572 -0.018168451 0.03981325 -0.07367115 -0.07587908 -0.16617714 0.06332269 0.019349564
serve 0.08432097 -0.00031220232 0.10023713 0.017618915 0.07237867 -0.05255946 -0.0031578157 -0.06979308 -0.023581682 0.020544257 -0.048407193 0.10852884 -0.11183667 0.08077115 0.055036306 0.082460776 -0.008726238 -0.11782742 0.15783627 0.053189643 0.0944735 -0.011092973 -0.009942404 0.06282165 -0.045938708 0.013099829 0.008374707 -0.07558462 -0.11453166 0.002529525 0.04504544 0.02139594 0.07803493 0.011544311 -0.07309601 -0.016814638 -0.045476146 0.03761099 -0.018139385 -0.037185524 -0.06278504 0.076426744 -0.06918154 -0.0025605203 -0.12976128 0.03187328 -0.063207395 0.10072087 0.011273041 -0.03509092 0.029644713 -0.05890809 -0.06387156 -0.08717924 0.03866108 0.0058470326 0.059474885 -0.039011076 0.038866647 -0.061571557 -0.11276781 -0.09458472 0.024200244 -0.1051173 -0.0082805855 0.031023212 -0.0014589187 -0.040293124 -0.0087530995 0.014120886 -0.042816006 0.11698575 0.12671827 0.02951979 0.080554634 0.004093358 -0.015978554 -0.036086235 -0.100822985 -0.01538952 0.002027204 0.012449976 0.03786375 -0.016042607 -0.047571182 0.06618825 -0.07692982 -0.04912252 0.018328492 -0.09609162 0.094451554 0.042130318 -0.12313509 0.054357566 -0.060297765 -0.03937051 -0.078963496 -0.184895 0.019605596 -0.05354013
partnership -0.015985146 -0.056414545 0.0804327 0.03421173 -0.013553804 -0.07066384 0.13515118 0.06764368 0.053616688 -0.09024536 0.02396832 -0.041089043 -0.04930739 0.025824757 -0.06566623 0.035459176 -0.048728738 -0.039303888 -0.043502115 -0.017049719 -0.05613625 -0.022726044 0.06708664 0.1083362 -0.101912014 0.086905934 -0.13701785 0.078745134 -0.054978665 0.046515524 -0.027166797 -0.011314871 0.060595926 0.06922196 -0.004446625 -0.09457072 0.071265124 0.120361954 0.12746403 -0.0036651664 -0.020675158 0.084894486 -0.01998399 0.0023991994 0.072671294 -0.045780614 -0.036615275 0.049212907 -0.03667556 0.10879797 -0.020509252 -0.06716675 0.08947141 0.18472277 0.032780424 0.02733609 0.0444581 -0.06232745 0.015399439 -0.003055437 0.058462754 -0.045803186 -0.079466976 0.0351883 -0.04555712 0.014944927 -0.07376312 -0.03692859 0.09561697 -0.081457034 -0.0057701217 0.08044308 0.09665536 0.07707295 0.11339606 -0.040850967 -0.00040532436 0.062138505 -0.14828339 0.007406006 -0.084151775 0.020751245 0.05644469 -0.016499856 -0.102945544 0.043911155 0.021144586 0.020119296 0.0387457 -0.014180049 0.07166683 -0.058670517 0.10837966 -0.07264346 0.09442504 -0.069203325 -0.05762717 0.0579455 -0.07353262 -0.023553375
guess 0.07395188 0.074285954 0.009036963 0.04265411 -0.0047823004 0.1090323 -0.084991895 0.070381105 0.07130275 -0.08049461 -0.01622714 -0.012817819 0.08564691 0.14779507 0.07055346 0.09628542 -0.06635226 -0.13632296 -0.042355336 -0.07022767 0.07070203 -0.029810037 -0.044606395 0.0027052902 0.09100077 -0.0939158 0.032039043 0.1412714 0.0016250581 -0.058709696 0.074537635 -0.09507951 -0.06181582 -0.10844306 0.0595144 -0.03214884 0.13485143 -0.036122918 -0.010663897 0.07637561 -0.13413228 0.06359648 -0.12674011 0.01601409 -0.028782858 -0.002719583 0.017160643 -0.11096512 -0.17211229 0.024315437 -0.03204914 0.04663578 -0.106135346 -0.076348744 -0.025087327 0.11402853 -0.05747394 -0.038492143 0.024522016 0.14151087 0.059711765 0.15169066 0.055177364 0.022542588 0.0040640817 -0.08458873 0.06570025 0.009566423 0.061098784 -0.11322414 0.056714416 0.053671297 -0.032074448 0.013404016 -0.10285977 0.13448459 -0.0891124 -0.038882814 -0.029906316 0.0124249365 -0.07994253 0.028470537 -0.17500673 -0.11662562 -0.0743922 -0.11260194 -0.00841253 -0.01822307 -0.07892746 0.02737836 0.02756007 0.038881596 -0.07723759 0.06962252 -0.029593656 0.18811329 -0.021869913 0.06736315 0.13094023 0.06887191
value -0.029722774 0.09186427 -0.08282824 -0.00416072 -0.032702796 0.103688665 -0.03272598 0.0066838735 -0.012010234 0.027666686 0.07920716 -0.19316334 0.08663944 -0.005138909 0.05688728 0.026213592 0.075376555 -0.05076584 -0.06471761 -0.117102206 -0.04396007 -0.14206207 0.00354188 0.06823776 -0.0062750746 0.053504396 -0.028639821 -0.016143687 0.101372264 -0.14710827 0.06575822 0.085759655 -0.07911525 -0.035315465 -0.024097987 -0.004955531 0.01904855 -0.013450832 0.08133442 0.020890202 0.11697301 0.01006504 0.06277051 0.071743086 0.12379926 -0.07331578 -0.0038825765 -0.08058998 -0.09209541 -0.06783143 0.04594455 0.030119251 -0.12259323 0.023293843 -0.01310469 -0.022490898 -0.052200902 0.062974714 -0.028328754 0.05066446 0.1212643 0.044239867 0.075202554 0.056443144 0.07209859 -0.08341265 -0.038154382 0.07798134 -0.09623703 0.06270584 0.030042775 0.05358368 -0.0784991 -0.02259842 -0.06748956 0.04602463 -0.05601781 0.047136575 -0.0806072 0.0059982226 0.04036857 -0.054757807 -0.06730522 -0.05145926 -0.09365704 -0.00018714138 0.14018612 0.08579341 -0.12961988 -0.04003298 -0.10359655 0.071835786 0.08213325 -0.12616512 -0.053385973 0.0603597 0.1435927 0.09368992 -0.07970911 0.012425446
pipeline 0.009789813 0.10577471 0.039281078 0.13995361 -0.04980152 -0.05633652 -0.03828195 -0.12332594 -0.11686788 -0.05793958 0.11572133 0.030737486 0.06439278 0.035499096 0.040398266 0.12513858 -0.009035654 0.015057931 0.05958274 0.14306895 0.15113899 -0.08525076 -0.067738295 0.05660736 -0.04504804 -0.07207022 -0.05925493 0.09179403 0.0707442 -0.097279765 -0.060433522 -0.055835992 0.038137063 0.10752683 0.101890534 -0.024690952 -0.019433353 -0.061265863 -0.0010836228 -0.014483414 0.07770846 -0.00047912748 -0.005035873 -0.03853208 -0.0267217 0.06083934 -0.002693081 0.06073567 0.030281391 0.02556905 0.018699411 0.007043769 0.03311379 0.016105032 -0.122731 -0.032837465 0.0070345947 -0.015169039 -0.0627891 -0.1708965 -0.019194623 -0.025515234 0.054224923 -0.0057055145 -0.13506866 0.083484024 0.050980512 -0.08302104 0.17048517 -0.063344285 0.024000837 -0.033655323 -0.027496204 0.03057997 -0.06697159 0.14116049 0.11250114 0.023590859 -0.035606 0.022150945 0.0012351949 -0.025109965 -0.005946065 -0.026539002 0.03035325 0.1015767 0.029653788 0.07327957 0.13110147 -0.029881135 0.024170808 -0.07516012 -0.06374892 -0.022897482 0.020293815 0.0946074 0.026632668 -0.028494002 -0.080039434 -0.096062526
conduct 0.013593846 0.053857353 0.03305847 -0.024912342 0.12218213 -0.037003916 -0.060693428 -0.057293527 0.077551804 -0.0027523467 0.010894592 0.049533367 -0.035254546 -0.13027869 -0.057346173 0.009126724 0.10747223 0.12456237 -0.052264765 0.01864406 0.02010704 0.054698817 0.020066788 0.05377559 0.041831236 0.040523168 0.022656852 -0.059354357 0.07963322 0.0768776 -0.041747138 0.0365628 -0.026538452 0.06269085 0.031957157 -0.016349293 -0.07343247 -0.085001126 7.4023344e-05 -0.031895828 -0.0054884413 0.07927413 0.040099867 -0.055202633 0.11259548 0.032091387 -0.08227779 0.004559425 0.13737471 -0.097044304 -0.027024746 -0.07279875 0.044530414 0.08251434 0.05732119 -0.098812625 -0.013934419 -0.106398694 -0.005355879 -0.049643878 -0.021750445 0.013935178 0.052212484 -0.042263158 -0.10634993 0.038077056 0.062060013 -0.18382867 -0.085751124 0.05493828 -0.017561259 -0.04693184 -0.010844714 -0.08926075 0.07429894 -0.022199837 0.13097104 0.012013861 0.036314413 -0.022947215 0.033577334 -0.009894394 0.04718667 0.07621779 0.2008602 0.027930565 0.048324846 0.062920325 0.087370545 0.041752934 0.010031518 -0.034018572 0.050931145 -0.007259431 0.031104947 -0.01848927 -0.0062744753 -0.041699115 -0.087157615 -0.008265305
words -0.065966904 0.08317047 -0.09880003 -0.0334999 0.03828852 -0.1476428 -0.015239692 -0.11423434 -0.015567455 0.067616396 0.0086707985 -0.092520535 0.010700313 -0.0018639158 0.020529417 0.04179656 0.08967409 0.00053711707 -0.12414621 -0.14645052 -0.09341193 0.082063146 0.12169947 -0.041154534 0.0506547 0.040242407 -0.062183503 -0.028018765 -0.11661435 0.141643 -0.045048364 0.16029419 0.057033394 -0.02559402 0.035814047 -0.06777349 -0.06152201 0.009209249 -0.0917165 0.02685873 -0.024723416 -0.07842598 0.03384732 0.04495676 0.070706785 -0.023080008 -0.056431234 -0.05765209 0.12528846 0.0053611104 0.0036247205 0.01774099 0.16172282 0.037011232 0.023600267 0.074048445 -0.007697763 0.08348992 -0.0028839004 0.041374333 -0.021839095 -0.13155547 0.029637767 0.009469701 0.07336876 -0.01881889 -0.012382371 0.06577611 -0.0015929539 -0.018122321 -0.051092044 -0.05827194 -0.07637873 -0.18053724 0.023764927 -0.06594878 0.012455617 -0.08303905 0.055976734 0.021146264 -0.044692885 0.063132785 0.0100871315 -0.04159999 0.048443742 -0.10396038 -0.02849676 0.070269406 -0.0526953 0.06197212 -0.11832037 0.008595097 0.048871607 -0.110015325 -0.063171364 -0.03176629 -0.01608558 0.0032012896 -0.08943477 -0.06843176
development -0.06342426 0.012359343 0.07019459 -0.046753153 0.03965642 -0.06053839 0.057439968 0.010475807 0.032670025 -0.11152807 0.046629097 -0.090974994 -0.037911687 -0.049011443 0.09111409 0.06787914 0.08344246 0.014977397 0.15052609 0.17220071 -0.024564106 0.022741133 -0.077508755 -0.007864462 -0.018536888 0.015049104 -0.07406252 0.09969468 -0.026896985 -0.06416097 0.036479406 0.010031016 0.00863241 0.10025945 0.12525243 -0.025439858 -0.10898546 -0.031057106 0.016060041 0.06545403 -0.013411895 0.08350859 0.07391739 -0.07090347 0.055618156 0.009544344 0.00028691205 0.1366647 0.07701426 0.0018012803 0.13566011 -0.11135794 0.044261657 0.08182747 -0.039234295 -0.061888922 0.023557795 -0.021589871 0.04808804 0.11101257 -0.009254381 0.033043385 -0.07052043 0.047701646 -0.0011906435 0.09707584 -0.052243814 0.011865784 0.08094388 -0.08711903 -0.113711655 0.024227718 -0.036862917 0.05543652 -0.01510725 -0.04719032 0.06066399 -0.079404615 -0.050685387 0.07559596 0.07910493 -0.10928082 0.07869592 -0.11869965 -0.12183751 0.07263296 -0.007952031 0.085105084 0.01746672 -0.011433028 0.09359452 0.07215545 -0.048544962 -0.025501339 0.036444932 -0.04269285 -0.002917892 -0.057306245 -0.05187633 0.054068733
brought 0.02580147 0.056915253 0.07068037 -0.10666761 0.06605093 -0.11186816 0.036507133 -0.065761365 -0.013011857 0.030311782 -0.038490582 0.071971826 -0.045812503 -0.1075979 -0.10633023 -0.11688597 0.046176106 -0.1509954 0.07046528 -0.10918022 -0.04115695 0.086331934 0.051698312 -0.07805857 -0.06633088 0.06948773 0.023067124 -0.03172956 0.029578488 0.033931233 0.036327656 -0.018221984 -0.03216173 0.022572068 -0.0057538725 0.037017588 0.083695814 0.05752106 0.054444008 0.033987023 0.020466546 0.05233083 0.043015797 -0.093614005 -0.056734927 0.053896036 -0.02620056 0.0337608 0.17067054 -0.08028188 0.06414588 0.00949624 -0.11525171 -0.020544063 -0.012530242 0.06014104 0.0104761 0.04662587 0.055923063 -0.09379664 -0.039086267 -0.03367141 0.0014076773 -0.02177247 -0.027453344 0.037152242 -0.112805896 -0.0064757885 -0.06917107 -0.04809893 -0.110268265 -0.08019818 -0.0051145726 -0.0061170594 -0.01054756 -0.026869508 -0.008330869 -0.16479415 0.027549084 0.009770569 -0.026875416 -0.024996284 0.093419954 0.023593543 0.026471691 0.05110921 -0.039206296 0.06303028 0.07305489 0.07258908 -0.051432814 -0.062393423 -0.08547946 -0.044218533 -0.05475514 -0.10853712 -0.0918935 -0.06464858 0.0010115167 0.0048252335
need -0.088417165 -0.09964901 -0.030118575 -0.081206605 -0.019190155 -0.022535032 0.06259802 -0.015244696 0.034994565 0.03969419 0.05830458 -0.024258032 -0.04172101 0.023138268 0.021858525 -0.010578974 -0.06074298 0.11010636 0.078062445 0.15733081 -0.092169605 0.06805943 -0.01899359 0.12551665 -0.043063205 0.04550063 0.012589388 -0.050999418 0.071647294 0.12448448 -0.030335225 -0.078626715 0.105559565 -0.10720931 -0.04675425 -0.025665255 -0.15586118 -0.051767036 -0.0013971354 -0.0388472 0.00898455 -0.06586 0.019780764 0.055717867 -0.117510766 -0.06712201 -0.029735316 -0.077867456 -0.078269586 0.032752346 0.030208763 0.026658012 0.06343014 -0.038893286 -0.005398268 0.013245625 0.112468235 -0.03788066 -0.024922384 0.03808325 -0.04542497 -0.13238683 -0.09114969 0.10948256 0.00011408841 0.15490113 -0.013549367 -0.111136496 -0.08656683 -0.045085948 -0.03297971 -0.0010521992 -0.010856602 -0.011694708 0.062081367 -0.08306856 -0.05381589 0.1322165 -0.037216846 0.049726676 -0.06716118 -0.10931023 0.023956515 -0.022771819 -0.10354733 0.100477174 0.0268411 3.166629e-05 0.00018059066 -0.06822136 -0.02882119 -0.002973624 -0.0037986555 -0.01853101 0.107537664 -0.08682079 0.027081441 0.06728093 -0.02794786 0.05979477
units 0.054655083 0.008900843 0.08371147 0.026117405 0.049106605 0.018386027 -0.030156001 0.13697639 0.12690581 -0.07382328 -0.031254914 0.06449634 -0.03501316 -0.093983576 -0.052129306 0.0022800872 -0.08873563 -0.027078925 -0.0924871 0.06331849 0.096893676 0.07591242 0.08637724 0.07453525 0.050927036 0.14785469 -0.09346891 0.054019243 0.057372894 -0.006889849 -0.18395877 0.0006178097 -0.09779514 0.049694985 -0.10678252 0.034142595 -0.027719175 0.053174876 0.016375804 -0.17105964 -0.09265895 0.09907581 -0.0056765014 0.061272085 0.051203616 0.06788158 0.058390427 -0.013834438 0.027326938 0.004612933 -0.11117469 0.048334297 -0.06748973 0.12849866 -0.085659616 0.030072527 -0.030573677 0.046530224 -0.035355866 -0.0035833323 0.020191168 0.021391172 -0.06250934 0.005548242 -0.04198231 0.10809415 -0.039741263 -0.078504734 -0.027655585 0.079496406 0.047517307 0.025879852 -0.05102684 0.027222816 0.10635463 0.1762592 0.0012185526 0.13036658 0.09739832 -0.1827684 -0.03897457 0.081651844 0.041121006 -0.005709217 0.10619515 0.06690021 0.092719845 -0.042284045 -0.12980208 0.04817337 0.04213351 -0.04594574 -0.13722438 -0.01694772 0.11423392 0.04386782 -0.093249045 -0.015531892 0.072342895 0.15379015
thing -0.070452854 -0.017968403 0.0010839569 0.09560995 0.023717817 0.027828846 -0.029140288 0.03184567 -0.052212764 0.054745533 -0.0024046819 0.014089901 -0.06814532 -0.05828005 0.13140668 -0.0660029 0.06678291 -0.00011210557 0.14031295 0.07449105 0.057984374 -0.0452024 0.12266291 0.10282103 -0.07464867 -0.13682075 0.053364743 -0.0046495134 -0.08383931 -0.010934927 -0.0017768582 -0.09879575 0.050073277 0.03433631 0.072225 0.013483646 -0.060262375 -0.034351647 0.09027016 -0.04844558 0.041678164 0.036063384 -0.03615229 0.036059525 -0.06083574 -0.08559227 0.104217276 0.059766065 -0.05908648 -0.05549463 0.046275865 0.106134504 -0.052797433 -0.13447505 0.019239886 0.014576486 0.1028491 0.08940004 -0.086588204 0.047082808 -0.018299887 0.05558013 0.08190847 0.04245916 -0.07279807 0.1731341 -0.057914786 -0.040501446 0.09994843 -0.09253862 0.037057105 -0.033580203 0.061012343 0.050285902 0.08595751 -0.066486664 0.17510544 0.074464105 0.04661897 0.11002548 -0.08713807 0.0032048235 0.043897834 -0.025582314 -0.063166134 0.022482095 -0.009773804 -0.08551928 -0.027210243 -0.09873758 -0.030711973 0.0468097 0.053215787 0.04617657 0.06492887 -0.004984225 0.009463795 -0.064485885 -0.06959754 0.068565086
Conservative -0.057850845 0.026538268 -0.07081124 -0.0040281704 0.0114397295 -0.050047163 0.0051255 -0.060785063 0.025557067 -0.077022664 -0.030355345 -0.05891047 0.057699326 -0.011377272 -0.06529598 -0.09071343 -0.038266 -0.08757797 -0.115688846 -0.1351807 -0.1494829 0.040218763 -0.01207497 -0.04651648 -0.07007949 0.01633465 0.025830282 -0.046424568 -0.03085683 0.057105634 0.07241892 0.058614567 0.09772786 -0.08260034 0.012639519 0.03753991 0.110703126 0.09370074 -0.037509963 0.032468706 -0.13946378 0.08781299 -0.069919 0.049489904 0.03358218 0.10893822 -0.03175515 0.109909 0.08770912 0.07534841 0.081966974 -0.0952462 0.07899521 0.078837 -0.08632041 0.011476115 0.014118648 0.016722335 0.07922298 0.0046502645 0.06573291 -0.041563474 0.014512244 -0.06595032 0.0674044 -0.10664074 -0.05931468 -0.100186676 0.027180735 0.020368638 0.005541771 0.037733234 -0.09034776 -0.090347745 -0.08030242 -0.03917227 -0.08553706 0.06865723 -0.11966107 -0.035977382 0.00056614203 0.075816624 0.04802527 -0.033279724 0.027291318 0.03717644 -0.11976034 0.13402161 0.16408542 -0.01725008 0.1400318 -0.061508607 0.06347962 0.032374013 0.05916875 0.069098756 0.016740585 0.07543486 -0.09460708 -0.0165034
Member 0.06055791 0.07730602 -0.03229626 -0.07271047 0.055049036 -0.04320285 -0.03856667 -0.06715584 0.06906948 -0.032364085 0.030054085 0.02130814 -0.017340334 0.017829668 0.06210616 0.03384781 -0.042702556 -0.079755284 -0.08823456 0.007400213 -0.1004024 -0.050053522 0.06207707 0.03817473 -0.002299669 0.020088106 0.05939272 -0.13213085 0.076868 -0.043595288 -0.05716701 0.068917334 -0.091599874 0.02178909 -0.08714525 -0.0051618875 -0.031185437 0.046619587 0.09943816 -0.05673021 -0.052643534 0.028559908 -0.023504948 0.12751205 0.04439777 0.08361831 0.11247702 -0.10101154 -0.08424866 -0.051519223 -0.062848814 0.030591708 -0.10616225 -0.07545936 0.054500017 0.0059646796 -0.08753851 -0.017522914 -0.0006559611 -0.06376044 -0.038246863 -0.046692196 -0.02219054 0.028126417 0.05976716 0.12902436 -0.04987978 -0.06428575 -0.093335696 -0.016045732 0.012435837 -0.044210345 -0.041512717 -0.1272469 0.04900576 0.089803696 -0.034466226 -0.046761476 -0.021356404 -0.09279893 -0.013589179 -0.0852505 0.12372895 -0.012793981 0.06303913 -0.040927235 0.17192492 0.0031125867 -0.029273925 -0.04338585 -0.161017 0.034222182 -0.051292423 0.036191367 -0.053166475 0.062394038 0.0033701255 -0.015841844 -0.0054887813 0.054688234
's -0.021177296 0.024415407 -0.013184462 0.042999975 -0.022480384 0.06947401 -0.010883944 -0.05577534 0.09188402 0.047206387 -0.028950933 -0.0233395 0.047836415 -0.011475567 -0.10682931 0.010324734 0.013908535 -0.014289241 -0.023155566 -0.07193378 -0.078624934 0.052425567 -0.09409808 -0.07141733 -0.010454444 0.037557926 -0.047999937 -0.0342176 -0.09399844 -0.0016010026 0.04883472 0.10006333 -0.026566729 -0.07080402 -0.010566579 0.005894756 -0.053201307 0.024097405 -0.0009146253 -0.020412687 0.12887609 -0.024606867 -0.057770208 0.05130718 0.026026582 -0.06077098 -0.06571854 -0.03283191 0.12818357 0.13747528 -0.0071377303 -0.08719659 0.052182462 0.15853283 -0.005540579 0.021573 -0.038581494 -0.07826604 -0.03441658 -0.022181692 0.16901658 0.043358147 -0.0013481795 0.046718415 -0.004855601 -0.07756207 -0.026294978 -0.07876367 -0.024111617 0.07060457 0.0009403666 -0.014307939 -0.09493356 -0.086138226 -0.038403198 -0.031002508 -0.04008494 0.05155137 0.080064826 -0.1419397 0.00898265 -0.049986098 -0.03916783 0.06320551 0.07398738 0.005042534 0.00058327056 0.09515456 0.12080187 -0.012569914 0.025436215 0.087376975 0.11910627 0.057872377 0.004037736 0.0028602206 0.002102345 -0.05366276 0.024334043 0.0033459654
parties -0.003246061 -0.010129077 0.05448044 -0.056374304 -0.08668957 0.08680982 0.024593223 0.03677997 0.06472389 0.05916691 0.096857205 0.11687192 0.037708443 0.06859433 -0.10833927 -0.102501675 0.03389799 0.060362134 -0.12338823 -0.01719716 -0.010480209 -0.040549662 0.027313491 0.02676939 0.008022189 0.0806884 0.0073715798 -0.03721469 0.101600416 -0.055901848 0.02908594 -0.00796346 -0.07738016 0.0102663785 -0.04523623 -0.07425772 0.10333853 -0.057744034 0.0755256 -0.027769966 0.036903255 -0.026272573 0.03760612 -0.023839721 0.1090632 -0.005638539 0.05158272 0.032001987 0.053015094 0.10449474 0.069742545 0.002925422 0.027433664 0.119362436 -0.010513229 -0.093664944 -0.019880757 0.010717014 0.06312168 -0.02911524 0.057613663 0.14152433 -0.04980683 -0.016804093 -0.00429566 -0.04449775 0.0826921 -0.099408746 -0.042740833 0.09110103 0.036204603 -0.017776692 0.1149137 -0.011328201 -0.077212006 -0.11183414 -0.030021671 0.16741411 0.043870635 -0.11378395 0.0005281066 -0.06642827 0.004225172 0.029780125 0.11073667 -0.1462247 -0.009830271 0.005723035 -0.0044084126 0.059452415 -0.079242915 0.013327087 0.014684538 0.040924568 0.0056977374 0.041610207 0.036371097 0.022415087 -0.060934696 0.10406646
Northern -0.04771774 0.04401256 -0.030452542 0.016927006 -0.047730338 0.0063352096 0.076978 -0.061131388 0.04322044 -0.0048615467 0.016810613 -0.11579869 -0.069984265 -0.04295823 0.018474178 0.110744886 0.05397555 0.0070118317 0.06906624 -0.04879091 0.09445852 0.11054913 -0.07565806 0.049942307 -0.03146368 0.012968164 -0.050453395 -0.08480953 -0.048868038 -0.03321151 0.0698046 0.05322118 0.1108959 0.07836748 0.03459393 0.027945708 -0.062002227 0.057019264 0.018454395 0.110491306 0.050876062 0.018698944 0.05389927 -0.07920067 0.14023939 0.038883407 0.023092601 0.04275501 0.13572422 0.053562816 0.0392371 -0.04793608 -0.0077225133 0.109514356 -0.058584668 -0.0049432055 0.14537585 0.041690923 -0.01523513 -0.13212007 0.05232123 0.011953854 0.035658613 -0.04248759 -0.09570679 -0.06368848 -0.031285074 0.053653095 0.06512471 -0.039277323 -0.08878723 -0.03600834 0.019205714 0.04439628 -0.0054962984 0.0017327055 0.02279333 -0.19705544 0.063256755 -0.03855657 0.077714235 -0.14225303 -0.011125911 0.060457785 0.04837192 0.09279599 -0.07254887 0.016935239 0.062257126 0.07989684 -0.019159164 -0.04552135 0.12325056 -0.067752175 0.05803862 -0.09158028 -0.037382964 -0.115577586 0.007104742 0.008698143
officials 0.12226545 -0.04829841 -0.06626509 0.08395684 0.028004866 0.054994192 -0.066041045 0.06900804 0.056568693 0.038759556 0.019473087 -0.09916941 0.016328076 0.0057786773 0.11448288 0.009488639 0.0050584543 -0.03262603 -0.001551958 0.082413316 0.039501242 0.033201035 0.13423724 -0.05386384 0.044580862 -0.1645688 0.06604063 -0.004323576 0.031517614 0.05356433 -0.049474865 -0.00787072 -0.02590644 0.015411896 0.022247558 -0.079052 -0.030859277 0.025697058 -0.015269832 -0.00784107 -0.06449475 0.07105657 -0.028615296 0.087315805 -0.14950858 -0.023281677 0.026886193 0.02275095 -0.2186711 -0.123423025 0.06710033 0.05591487 -0.098675795 -0.09819799 -0.055513684 0.046446186 -0.06370224 0.042861514 -0.07048723 0.16846587 -0.16555448 -0.033223867 -0.096220456 0.035331246 0.16091856 -0.02507301 -0.04023524 0.12433447 0.06571796 -0.056989677 -0.027735718 0.15074293 -0.035067398 0.049093254 0.08999414 -0.007861628 -0.07348722 -0.0657468 -0.004211287 0.05325431 0.036180157 -0.03998255 -0.027608907 -0.085265905 -0.1287711 0.011014999 -0.047933765 -0.07544712 -0.042369198 -0.1154125 0.09062489 -0.031094326 -0.030959653 0.15298189 -0.06292852 0.055253666 0.12273601 0.0048945895 0.08419317 -0.01701138
States -0.1091257 -0.018106535 -0.026659733 -0.10413075 0.0043631545 -0.16288434 0.082953684 0.0026817785 0.0032712452 0.043929286 0.017410215 -0.05280556 -0.0257399 0.023111785 -0.15003775 -0.1373703 0.031801987 0.039624922 0.006567926 -0.09245356 -0.11211155 0.107461534 0.054611344 -0.056718733 0.059906304 0.13973384 -0.0854278 -0.08790468 -0.031741902 -0.013491428 -0.04485212 0.099131644 0.08959094 0.023549274 0.0005224515 7.2340877e-06 -0.17302684 0.10313514 0.1001094 -0.08504956 0.027327983 -0.011312367 0.019427225 -0.09517441 -0.011540897 0.11702708 -0.037164554 0.07383702 0.01846161 0.005815121 -0.020258538 -0.07391808 0.00654946 -0.034242023 0.12537254 -0.106608264 0.022379424 0.036585066 0.043464925 -0.036611956 0.12278303 -0.05390613 0.009870544 -0.0331644 -0.01984304 -0.008685234 -0.06853315 0.07587415 -0.118081026 -0.008267398 -0.06657001 -0.07981679 0.02475192 -0.03482444 -0.08129233 -0.1770751 0.014576396 -0.014619301 0.049397647 0.03125577 -0.048078317 -0.1376971 0.039453708 -0.010075448 0.021421604 0.08923281 -0.043600034 -0.04656118 -0.03969314 0.0873784 -0.05329861 0.0092967115 0.03796819 -0.1564119 -0.022696028 -0.1679922 -0.06613363 0.026961511 -0.03512948 0.07473895
suggestion -0.061736602 -0.008691697 -0.049314097 -0.01151543 0.016727502 -0.12539177 0.05712067 -0.048174433 0.01108344 0.0030266605 -0.11720616 0.017437853 0.045617994 0.029279497 -0.06302229 -0.041355517 0.11074211 -0.02748972 -0.033905037 -0.041500546 -0.12545073 -0.10671533 0.026614936 0.04040834 -0.061429966 0.07845963 0.017626459 -0.11733119 -0.070972666 0.13507365 -0.05946088 0.00071898976 0.047070235 -0.13778843 0.059686113 -0.03969072 -0.07792749 -0.11294145 -0.040601235 -0.052556623 0.13976325 0.023375973 0.07897022 -0.03054978 0.051455908 -0.008847194 -0.06785643 0.09358442 -0.0173267 0.05991839 0.14486511 -0.0067153703 0.024535494 0.0780672 0.03236095 -0.03183683 0.013248834 0.0775069 0.0041377884 -0.00031197784 -0.022207975 0.09172192 0.06609103 0.08351875 -0.08695573 0.020021709 0.02175205 -0.22593696 -0.01009667 -0.018352978 -0.06635191 0.058306247 -0.01116605 0.007182891 0.09274987 -0.04414774 0.14673051 0.0056982236 -0.07907239 -0.02637595 -0.005640303 0.06499597 0.03974994 -0.0848191 -0.011748127 -0.08790204 -0.013434918 -0.0050421706 0.17221636 -0.04331093 0.03788316 -0.05825644 -0.016016163 0.076610796 0.11383529 0.009251999 0.072991595 0.04079736 -0.1553579 -0.009492674
Motion -0.06592228 -0.023772953 0.026104603 -0.1173827 0.012511453 -0.026517123 0.016623354 -0.10195778 0.027352713 -0.011928419 0.12024489 -0.04146161 0.006473224 -0.074990556 0.0034892256 -0.07964738 -0.10031131 -0.02990463 0.034524433 0.135046 0.094449036 0.1384166 0.03885505 0.07812644 0.16972171 0.05279301 0.017800657 -0.001880488 0.089947455 0.0021891177 -0.08070457 0.015165002 -0.026349075 -0.018025504 0.06688351 0.013932909 -0.06475164 -0.007683399 -0.044069365 -0.051305115 -0.041256867 0.088976085 0.014884124 -0.080656156 -0.02162495 0.10634433 0.048408803 0.020259965 0.058509745 -0.027765153 0.011411859 0.023206992 -0.040039603 0.00471341 -0.019693237 -0.011497571 -0.15131967 0.03442742 -0.05127455 0.07268659 -0.13659342 -0.07829198 0.07339831 0.057118565 0.036300167 0.07854484 0.010987188 0.07893349 -0.07330029 0.013898261 -0.006519984 -0.09652108 -0.10535485 0.0035399555 -0.031578206 0.061124288 -0.016276635 -0.034183525 0.09095185 0.010635344 -0.035293978 0.008969681 -0.021273488 0.029777225 0.060673904 0.036277186 0.027349088 -0.04941188 -0.0798259 0.036559254 0.023500692 -0.10888376 -0.032859705 0.026758507 0.050375298 -0.072001785 0.017267155 -0.123936385 0.07309727 -0.011301263
belief 0.055064835 -0.023956876 -0.086323194 -0.023388863 -0.013426149 0.06562783 0.017782051 -0.04752568 -0.01364437 0.027804174 -0.06985748 -0.05682611 0.010585444 -0.051992707 0.021617703 0.040235933 0.004184989 -0.08058376 0.048613034 -0.123171605 0.13593535 -0.063134946 0.0029363532 0.016100015 0.01800321 -0.050716605 0.07130041 -0.08956293 0.06972415 -0.071796186 0.00030977052 -0.006568006 0.08043507 0.07674318 0.061112914 -0.016886415 -0.06794493 -0.056644157 0.047569934 0.035707016 0.059789192 -0.020840393 0.029855495 -0.0017139368 0.06940881 0.018802514 -0.06263065 0.1172001 0.038301703 -0.027611822 -0.00851935 -0.05171009 0.032867905 0.0042975834 -0.051958952 -0.047018047 0.111692116 -0.0077317343 -0.018635444 -0.15014166 -0.06843121 0.06289394 -0.07480281 0.064829096 0.06492061 -0.055476986 0.0060807075 -0.113732204 0.16631752 -0.04059473 0.017856967 -0.01337137 0.010718123 0.06609458 -0.034698866 0.082301535 0.073809475 -0.07534036 3.4237662e-05 -0.09375755 0.031521764 -0.063093044 -0.026399462 0.060767237 -0.12443389 -0.01267135 -0.049751364 -0.006376741 0.21044473 -0.036338273 0.07947207 -0.029608034 0.043494932 0.07730515 0.018745258 -0.03568511 -0.07431397 -0.108281516 -0.023183085 0.028638497
follow 0.0049535357 0.10724499 0.054915402 0.12562245 0.013291137 0.11723476 -0.16637723 -0.075293034 -0.035216983 0.0004797206 -0.02791328 -0.1471297 0.096450515 0.064300455 0.04283139 0.025258671 -0.03834276 -0.010104215 0.14463322 0.06762914 0.07877874 -0.07094907 -0.049330927 -0.033896197 0.0065679057 -0.14161277 0.118888564 0.07575685 0.0037532027 -0.0032266604 -0.030118152 -0.094569035 -0.08634367 -0.024577301 0.12240954 0.010582308 -0.068752654 0.005156357 -0.13973695 0.05067384 -0.03192771 0.034387417 0.044698667 -0.03263798 0.047438703 -0.033834107 0.03504207 -0.061226126 -0.008765785 0.031865574 0.09426714 -0.061178815 -0.12456481 -0.10980707 -0.117507674 0.094714984 -0.06264732 0.061580174 -0.046595432 0.118413225 -0.10825707 0.039767746 -0.00060852047 0.076112926 -0.0021818567 0.02160488 0.14198503 -0.008428699 0.1813748 -0.10812787 0.033294 -0.012238604 -0.057641815 0.06301327 0.010728896 0.05955538 0.06620813 -0.0011806373 0.0101595605 0.08282449 0.013903635 0.040937167 -0.10369615 -0.082303226 -0.16665938 0.0007064092 -0.021448433 -0.03177322 0.12782945 -0.071103156 0.08234649 -0.07448539 0.006419615 0.1651566 -0.08926373 0.10122061 0.11055655 0.03628975 0.084595434 0.052298095
provincial -0.06127177 0.09726138 0.065554775 -0.0065057743 0.017810054 -0.09236261 0.013615988 -0.02530325 0.04704086 -0.060828168 0.17980628 -0.013138326 -0.05103509 0.046273027 0.005471581 -0.0069988095 0.07088729 0.12162559 0.074429385 0.16495113 0.11748116 0.052063774 -0.059439234 0.11498423 0.038133685 0.07800435 -0.01197441 -0.009625742 -0.060131095 -0.06827178 -0.0601951 0.009022218 0.007553287 0.035182565 0.04194451 -0.064038426 -0.17406619 0.059645377 -0.017082075 0.031095678 0.039151456 0.024980998 -0.009770286 -0.09253944 0.007452461 -0.0030797883 0.050032564 0.15191792 0.1068523 -0.014010688 -0.084488556 0.0661246 0.0074904333 0.049918853 -0.07489985 0.04848792 0.016534336 -0.09449507 0.04190168 -0.020637935 -0.093726896 -0.09435241 -0.111932285 -0.033521354 0.03676404 0.14033602 0.07448788 0.14456719 -0.025500862 0.029952986 -0.025276214 -0.0047944966 0.09586747 0.009724535 0.10575139 -0.020123607 0.124834225 0.013913968 -0.0019149766 -0.033580534 0.010526539 0.032794032 0.09140451 -0.09034139 -0.12032143 0.09901607 0.062041245 -0.031475365 0.0864121 -7.264141e-05 0.065196894 -0.033687294 -0.09352551 -0.10215505 0.052643344 -0.08701997 0.024194282 -0.13571617 0.032434408 -0.0020628055
give 0.118922904 0.104414865 -0.10527871 0.020672506 0.06679042 -0.0036130908 0.03828952 -0.083165094 -0.020199373 0.017412351 -0.08664019 0.067865826 0.09193354 0.089934856 0.12960142 0.066711724 -0.007499789 -0.0172859 -0.10166636 -0.079754435 -0.020860458 -0.07983352 0.0076345396 -0.048042465 0.07609492 -0.010318222 0.13826934 0.030087106 0.082275376 0.044569865 0.03762271 -0.035234507 0.022838384 -0.007111982 0.06105146 0.07247766 0.05688004 0.0349417 0.01432995 -0.070050344 0.046624072 -0.10341709 0.019599065 0.097367585 -0.07178171 -0.105704196 0.02815181 -0.10704746 0.05717102 -0.011195042 0.0105278995 0.0463545 -0.08683004 -0.087135285 0.070979014 0.017768525 0.009345257 -0.071036935 0.01383337 -0.12859069 -0.008499995 -0.043671325 0.09057989 0.03327706 -0.05543455 0.082008556 0.20600654 -0.02354791 -0.029660601 -0.1774786 0.018727805 0.00020637558 -0.004217245 -0.021901272 -0.019414881 0.024228385 -0.052454956 0.056181237 0.093756504 0.113698766 -0.030502494 0.0424899 0.0021944828 0.08075601 0.011698153 -0.0408665 0.15036783 0.007784305 0.045240894 -0.0241589 -0.1433866 0.058079302 -0.040314667 -0.008924423 -0.09998123 0.012168581 -0.0897651 0.091976605 0.049728274 -0.04171253
strains 0.030982057 0.014865891 -0.05999192 -0.07682507 -0.017669192 -0.05034458 -0.0335439 0.12571086 0.07593032 -0.048839778 0.024051538 0.13768142 0.008471137 -0.08181591 -0.046421815 -0.06913724 0.09979139 -0.054362535 -0.10065913 -0.06947208 0.03144498 -0.09982931 0.09975914 0.07377654 0.0274607 0.022593334 0.032957952 -0.029103668 0.10811247 0.050793123 -0.006620921 0.11787631 0.061320197 0.05993326 -0.13900928 -0.05789449 0.019008232 0.061617684 0.067156896 -0.014840503 0.047814988 0.024187395 0.0043458035 0.05013439 -0.08795116 -0.055311948 -0.014454879 0.047953565 -0.027968546 -0.006362312 -0.07489283 -0.01891246 -0.010761034 0.085118115 -0.058075015 -0.010290092 0.0012152425 -0.053125534 -0.004752185 -0.12716737 0.05050967 -0.105946176 -0.058351666 -0.029264685 -0.016219351 0.08292445 0.024144746 -0.09346265 -0.09193452 0.06350616 0.0031576615 0.09118715 -0.03575435 -0.019351637 0.06992413 -0.0004200069 -0.06535131 0.094467536 0.070578575 -0.0048124986 -0.09023494 0.019626273 0.1422988 0.15530044 0.07532542 -0.024845101 0.117365986 0.03304598 0.012838568 0.09424721 -0.12605579 -0.016957173 -0.015968317 -0.034516547 -0.064638294 -0.048182365 0.026152223 0.08933512 -0.07850999 -0.024763396
1934 -0.051955957 -0.0538331 0.0756128 0.0020651135 -0.066596285 0.030867985 0.10154904 -0.0016781276 -0.09648805 -0.08052704 0.14323242 -0.15949179 0.0756119 0.053467415 0.06639337 -0.0064218547 -0.012371076 0.10159994 0.16276003 0.07574188 -0.05069958 0.15521678 0.08915653 -0.036709413 -0.039458744 -0.10528743 -0.023865217 0.06070211 -0.12491285 0.04692499 0.02392858 -0.037735984 0.074819826 0.018207325 -0.032921176 -0.0035239265 -0.038432997 0.040125053 -0.059973426 0.016488522 -0.043091726 0.010822329 -0.03249972 -0.044111244 -0.07954081 -0.08077574 -0.05019108 0.06573585 0.049709547 -0.095813274 0.058847796 -0.04257605 0.17199978 -0.060589362 -0.0064433464 0.060717195 0.04994896 -0.029985694 -0.03494353 0.05477754 0.07943692 -0.12813035 -0.026026048 0.06754677 -0.09709983 -0.07304895 -0.062042743 0.08837012 0.090554945 -0.018423926 -0.013720584 -0.036348518 0.062448088 0.105275266 -0.013216874 -0.046598095 -0.06623778 -0.0038774386 -0.07894521 -0.023152504 0.062044635 -0.08508528 0.0010188768 -0.07744238 -0.097655825 0.06892942 -0.04386448 0.06300104 0.041213546 -0.035343412 0.07442879 -0.06399083 0.030567277 0.005169482 -0.08260901 0.048802033 0.07173901 -0.033468395 -0.04200982 -0.04408687
property 0.055829756 0.03485819 -0.019795345 0.029534366 -0.08943368 0.035037417 0.039468143 -0.026559534 -0.01581113 -0.025186528 0.0979525 -0.09258171 -0.015583419 -0.043732002 0.061207425 -0.050895452 -0.105647124 0.0928546 -0.069569 -0.029633837 0.042017378 -0.099847354 -0.09928184 0.022352658 0.08869212 -0.0075320876 -0.07204245 -0.03887456 -0.047180638 -0.031628933 -0.06763635 0.055161864 -0.06600032 -0.0073762005 0.017249905 0.0035045405 0.08005574 -0.042690516 -0.010187327 0.05959895 -0.038648743 -0.05135605 -0.08041054 0.047919057 0.04352708 0.05255748 0.18762524 -0.054275513 0.052820235 -0.03364686 -0.092450365 -0.07018593 0.079781085 -0.044304274 0.009980229 -0.023308646 -0.05089114 0.08635186 -3.4224937e-05 -0.056023803 -0.050068002 -0.028208593 -0.039183892 0.016438961 0.06507097 -0.015609794 0.002417858 0.10636288 0.002682019 0.1596978 0.106908076 0.01602137 0.053946044 -0.0286802 0.0001589516 0.060586825 -0.16542596 -0.008186863 0.01131671 -0.12238389 -0.06041151 -0.110947646 -0.011632762 -0.08676554 0.10348265 -0.07155319 -0.0037109244 -0.031179983 -0.116048165 -0.11544899 0.032060605 -0.019537657 -0.072402425 -0.04691948 -0.045067765 0.08920749 0.01752566 -0.14861903 -0.034116846 -0.030275652
also 0.0066480865 0.03924938 0.12989661 -0.018906305 -0.10703681 -0.1269278 0.05713486 -0.07899148 -0.045953076 0.02701238 0.049818754 0.064729035 0.015917094 0.0005866038 0.003054791 -0.11614725 -9.6985124e-05 -5.244492e-05 -0.019390201 -0.03461478 -0.094049074 -0.019802693 -0.0796579 -0.118131295 0.0013339199 0.0034390471 -0.058157124 -0.09130454 0.04136194 -0.03518288 -0.009502824 0.077764735 -0.030769331 0.025827546 -0.10235979 0.05895789 0.020877657 0.063971765 -0.0063085575 -0.03336101 0.003789924 -0.0040415865 0.030134566 -0.046782807 -0.07472882 0.022045631 -0.0103206085 0.06966311 0.053410597 0.08037508 0.09847932 -0.016997209 -0.005114283 0.010961058 0.092593074 0.006865397 0.021582115 0.052000396 0.005676956 -0.055040468 -0.028410973 0.017880756 -0.07947385 0.010246752 -0.025347915 0.11594855 0.03226221 0.12352772 0.030014763 -0.022191506 -0.06502662 0.055228315 0.035278667 0.015028482 -0.032627214 -0.06956469 -0.09245365 0.038768277 0.04026397 -0.017279318 0.022310413 -0.07414265 0.1449443 -0.025717663 0.070927866 -0.08240172 -0.1456667 0.10588556 0.105438165 -0.024814997 -0.03328544 -0.046198167 -0.027155371 -0.07382696 0.043383427 0.004301178 -0.00978845 0.017583475 0.0070890635 -0.07879187
types 0.025374545 -0.015916238 0.06653837 -0.030947797 0.0088397 0.07353838 -0.03435443 0.04015919 -0.044713005 0.062090095 0.06365456 0.18962662 -0.027109466 -0.012801802 -0.04885624 -0.07832685 0.015579583 -0.028998803 -0.074943274 -0.047715686 -0.0029549575 -0.11675242 0.114304155 0.08740672 0.0496759 0.065589726 0.022175318 -0.12453125 0.06392661 0.110317186 -0.012974314 0.08746065 -0.038631123 0.036195293 -0.038656764 0.037322927 0.1090521 -0.0090578 0.059825696 -0.009175095 -0.005107002 0.055976734 -0.00704808 0.025449928 -0.10452378 0.08078803 0.056735925 -0.019888267 0.0629802 0.035667356 -0.049754534 -0.0971485 -0.05404848 0.0032727271 0.047018927 0.050442535 -0.020692926 -0.040294625 -0.032712694 -0.06156213 0.021051569 -0.000273833 -0.019317992 -0.059653595 0.048640136 0.09371443 0.096584976 -0.08296545 -0.039637364 0.051472463 0.072873786 0.007960315 0.05085081 -0.053123593 -0.027901098 -0.0019421292 0.0004140103 0.12791242 0.12744883 -0.060450926 -0.061865795 -0.004998755 0.038020585 0.016820597 0.16190796 -0.024368023 0.012324535 0.016780937 0.07461175 -0.019095033 -0.10537052 -0.1802148 -0.07449685 0.06347231 -0.008740965 0.06526804 0.012783887 0.0008005425 -0.06375736 0.06004957
anybody -0.015691388 0.019252328 -0.022100244 -0.11520565 -0.03226406 -0.0034400888 -0.10435514 0.04719958 0.06774035 -0.06970505 -0.051978666 -0.02592368 0.070807256 -0.07751586 -0.07693406 -0.05332983 -0.027433103 0.008496153 -0.027495956 -0.03800797 0.030592894 0.1020142 0.02624827 -0.06182852 0.033611704 0.048421886 -0.067652546 -0.061378356 0.0105703175 -0.088902354 0.008234442 -0.04523719 0.030083695 -0.16375259 0.103620045 0.06720624 0.080340706 -0.0126440255 -0.048064034 -0.12143464 -0.0056792255 0.07370419 0.09716078 0.11347691 0.0015973637 0.015566173 -0.11786318 -0.054607473 0.1105215 0.026022984 -0.0329481 -0.016934263 0.043510105 0.06634133 0.019289237 0.06435503 -0.056170303 -0.059910458 0.034124743 0.12843382 0.116004914 0.025520463 0.06207954 -0.014711748 -0.052527055 0.018272597 0.013666915 -0.018696385 -0.05377196 0.11291099 0.09064248 -0.057088237 0.030413775 -0.068010494 -0.08040752 -0.06746676 0.02807488 0.015224833 0.07649513 0.041167937 0.016682265 -0.030399395 -0.011389354 0.09934929 0.011367454 -0.08272049 0.055295106 0.06023743 -0.057205144 0.10841171 -0.093704954 -0.040055394 -0.08908779 -0.11445614 -0.0027803034 0.019276012 0.0062143947 0.0326862 -0.11642227 0.06980518
prices 0.10902301 0.05396981 0.034575872 0.08218368 -0.013289064 -0.010189135 -0.010015055 -0.0173233 -0.04486316 0.06770291 -0.06219132 0.12019614 -0.032668564 -0.07373791 0.17682119 0.06272392 -0.034342274 0.07879049 0.11268266 0.12382745 0.073923826 -0.09088371 0.018457713 -0.000689033 -0.061219756 -0.08493107 0.012315693 0.057274774 0.03905077 0.03219934 0.008865068 -0.035097834 -0.05815359 0.04554199 0.10176908 0.12563568 -0.035798937 0.00113947 0.046902504 -0.012687869 0.007088243 0.11007194 0.03661963 -0.12693101 -0.06307331 -0.012709182 -0.018795228 0.06211409 0.09540664 -0.006068457 0.021210242 -0.060099483 -0.09140869 -0.110831775 -0.042686798 -0.00678931 0.04540761 -0.06963957 -0.044254355 -0.094638385 -0.06618431 0.011968589 0.09792888 0.052441716 -0.036561098 0.0062505878 0.080833904 0.08135745 0.13783433 -0.022077013 -0.0015789134 0.06731364 -0.017086683 0.099559605 -0.06857401 0.09530395 0.029550232 0.00727185 0.16568038 -0.00033972543 0.07707273 0.046817917 0.028984645 -0.014300321 0.17873284 -0.02213378 0.0078007258 -0.0021019357 0.079803735 -0.07098289 -0.001319598 -0.05390188 -0.07693101 0.079616226 -0.08951127 0.03772281 -0.03660868 -0.09909932 0.08498385 0.033128355
pass -0.065657504 0.06447199 0.04987897 -0.045192093 -0.12429082 0.01707158 -0.019010566 0.09486809 0.0035459567 -0.050920445 -0.027741026 -0.060075026 -0.028540814 0.045314774 -0.0131228035 0.023116712 -0.04420539 -0.010669273 -0.027361277 0.07644934 -0.07739778 -0.07083825 -0.0005906451 0.070843875 -0.004983674 -0.08625242 -0.041136723 0.03337662 -0.017920889 -0.05776069 0.057602413 0.012096565 -0.091872685 -0.034714747 -0.02402659 0.03651441 0.05044353 0.08034809 0.04100128 0.09283798 -0.010450135 -0.057920277 -0.11854013 0.023804868 -0.15681358 0.031591147 0.03931771 -0.02768645 -0.16230011 -0.010562814 0.003393681 0.12612383 -0.13651077 -0.041935038 0.0771512 0.061417457 -0.107358284 0.062052406 -0.18058896 0.12720223 0.13657609 -0.05818555 -0.043782003 -0.015326532 0.08877038 0.04773755 -0.053070683 0.061827198 -0.09582917 0.041636884 -0.06506728 0.05155798 -0.014659449 -0.02735096 0.019419074 -0.0077058426 -0.03402381 0.066003665 -0.031662237 0.0718401 0.0309173 -0.14349452 -0.05136241 0.0035706481 0.009768598 -0.03851683 0.06393886 0.055965174 -0.17537144 0.0121226655 -0.040915936 0.13366267 -0.04718784 -0.0042641005 -0.07374864 -0.013915209 0.08348484 -0.029426493 -0.0070580803 0.038801573
spoken -0.101159714 0.044758804 -0.12106719 -0.053553432 -0.04640449 -0.11549073 -0.016577922 0.0824408 -0.032557655 -0.03539338 0.08049027 0.0011465448 0.026722243 -0.0018675856 0.020248601 0.075651854 -0.033925693 -0.0129002035 -0.1468026 0.062357146 0.0066488986 0.008878436 0.021740396 0.09505063 0.029715633 0.06334184 -0.10657254 0.030754825 0.021452205 -0.008494983 -0.06743546 0.037983775 0.06971256 -0.027016392 0.04503451 -0.031061674 -0.10129477 0.004065784 -0.052382052 -0.07022958 0.038816217 0.0065916865 0.05759544 -0.07529921 -0.009306186 -0.07451674 -0.11051497 -0.03658602 -0.00541281 -0.06285464 0.047023058 0.10926761 0.087189965 0.052746527 0.10510433 -0.030074114 -0.011532351 -0.020004267 -0.0074119573 -0.040883753 0.070182495 -0.080868796 0.070757 0.026372178 0.02596331 0.0057639983 0.085262716 0.030065613 0.003708192 0.076933496 0.050820995 0.0063201766 0.06112863 0.081138276 -0.00632988 -0.08011932 0.0406861 0.014088436 0.056692764 -0.0031495157 0.03348806 -0.043767713 -0.09407057 0.038591262 0.08390498 -0.0927101 0.13719809 -0.035389274 -0.0048749004 0.1474889 0.026925132 -0.03244755 -0.012979243 -0.022253897 0.008811431 -0.08491323 0.053603325 -0.047520302 -0.08376124 0.11958584
ordinate 0.07682439 -0.036842927 -0.12945014 0.06294743 -0.054167632 0.021024544 0.03022765 0.09144095 -0.0033600868 0.03745305 -0.09505551 0.1503878 -0.023418909 -0.10606267 0.0030812952 -0.047967482 -0.061609566 -0.089032635 -0.063782476 0.006692894 0.006249452 -0.040173054 0.10778541 0.068572894 -0.019697713 -0.035939246 0.038419724 0.038041417 0.054271165 0.078649886 -0.06685582 -0.026641415 0.038284846 0.014929728 0.008781787 -0.05614254 0.09494389 -0.07174316 0.058521505 -0.11000572 0.056860782 -0.054506566 0.112952955 0.013565367 -0.098837666 -0.00609645 -0.10109996 -0.056673292 -0.019524297 0.08315626 0.015334204 -0.11414479 0.113161415 -0.003888375 0.0030495343 -0.047974423 0.103038125 -0.09490413 -0.061285608 0.040211633 0.061130013 -0.09475141 0.053513754 0.03925515 -0.036558613 -0.05659704 0.059694912 -0.055373255 -0.08416269 -0.04111332 0.026722785 0.06509566 0.052074783 0.01201903 0.07074357 0.011160439 0.09687302 0.062959485 0.19846609 -0.01726633 -0.014361095 0.10779259 -0.08119286 0.17490336 0.08629002 -0.06943431 0.09880371 -0.076943554 -0.029955816 0.058124464 -0.11315821 -0.00785084 0.04925843 0.028545508 0.036516353 -0.040597923 0.000928781 0.075418025 -0.03365347 0.1063458
fully 0.046237532 -0.015659 -0.13159028 -0.0060490207 0.03883233 -0.008645727 0.11815568 0.09015941 -0.020506157 0.077022836 -0.007481885 0.032932814 -0.05648429 0.013573273 0.031463888 -0.0137874745 0.06680589 0.028233128 -0.15554385 -0.037321188 -0.022584356 0.07785661 0.03280962 0.021706052 0.06943427 0.05716547 -0.025751224 -0.005369605 0.07055077 0.079606265 -0.045372292 0.048058365 0.1303996 0.028859453 -0.0635317 -0.022666914 0.06733115 -0.036644503 -0.04212352 -0.0405437 0.06351982 -0.08932786 0.13506351 -0.04526787 0.01932128 -0.0872855 0.006903594 0.040889807 0.054073207 -0.031595957 0.068202965 0.0042814533 0.20168318 0.119963445 0.023680478 -0.034026377 0.09057002 -0.093219854 0.034010034 -0.08157034 0.0126920855 -0.1112355 0.029709756 0.10322026 0.036822118 0.032959726 -0.020528808 0.0034347556 -0.107719146 0.06010215 0.06374119 -0.055079866 -0.026118273 -0.063391685 -0.011756963 -0.03133063 -0.07717826 0.12073626 0.06331227 -0.030174496 -0.12360124 0.09563961 -0.067531966 -0.010562145 0.076688625 -0.0400523 -0.035632562 0.050421573 0.0866648 0.07500224 0.010976557 -0.08728997 0.08426851 -0.05001735 0.043365166 -0.09469386 -0.027210534 0.091302216 -0.078125685 0.041028198
ever -0.021420306 0.011426459 0.023574336 -0.069401875 0.052079633 -0.031456377 -0.114804536 0.014618283 0.1554342 0.03243698 0.10448858 0.11097731 0.076038964 -0.0769767 0.14191316 0.06011442 0.0889088 -0.05359028 0.07429453 0.055879246 0.004045271 -0.023314843 0.0989285 -0.043356385 0.12627676 0.026544504 0.015234481 -0.042968523 0.1364307 -0.106523976 0.039000224 -0.035980165 -0.15725312 -0.09917289 0.051286746 0.052700642 -0.023099145 -0.026587883 0.09343974 -0.06311206 0.063567646 -0.0037960361 -0.060640316 -0.05525132 -0.074685246 -0.10596042 0.051542103 -0.037858725 -0.13658519 -0.01577871 -0.07987754 0.1425884 -0.19198006 -0.050952345 -0.07284048 0.06332827 0.04756818 0.028344283 -0.096816845 0.094479315 -8.641893e-05 0.01886765 0.041806843 0.034124494 -0.108275525 0.12801433 0.04071895 -0.03637207 0.07350101 -0.111887075 -0.035741996 0.05941431 -0.005084879 0.087506264 0.094928734 0.057863344 0.0763495 -0.04414735 -0.029867329 -0.05997644 -0.02672 0.02876854 0.011504673 -0.003033923 -0.022494702 -0.037898052 0.09479093 -0.12311196 -0.13536908 0.007407497 -0.12756325 0.01079769 -0.049854103 -0.029718945 -0.03598652 -0.05766455 0.04376415 -0.042507228 0.036728892 0.0845133
percentage -0.06659895 -0.013393475 0.017589094 -0.041255075 -0.046652965 -0.009287204 -0.102938764 0.023871072 -0.026336586 -0.09092032 0.100964926 0.03003466 -0.07775948 -0.09130132 0.11840604 0.013134054 0.012931581 0.17721707 0.17111115 0.22411428 0.067231715 -0.052144933 0.039524168 0.07476601 0.04091365 -0.033305857 0.048662994 0.05929922 0.09381992 0.012422909 -0.014659622 -0.104747966 -0.08843101 -0.04322684 0.033667576 0.0037942755 -0.11507335 -0.069072254 -0.060868908 -0.078579165 -0.016496746 0.024204541 0.03494445 -0.060410727 -0.020141704 -0.04329351 0.045094896 -0.035313293 0.0017340499 -0.10178783 -0.0036454033 0.0064153923 0.075995944 -0.026261345 0.05950115 0.031678397 -0.01471925 -0.005940523 0.034274686 0.12738125 0.08282105 0.004255149 0.013949723 0.037235398 -0.06899178 0.072877996 -0.011129382 -0.012094895 0.01373789 0.053017035 0.04438522 -0.025795184 0.09403959 0.08918324 -0.017501237 0.044093773 0.100701936 0.09192724 -0.036639962 -0.037385434 -0.0006443482 0.042629853 0.046691693 0.090166815 -0.10846488 0.021838346 0.0839752 -0.047554176 -0.05551227 -0.06189521 0.058534376 -0.060894568 -0.09934756 -0.05244947 0.048879873 0.016965082 0.15093684 -0.0026991814 -0.038853668 0.098040104
nine 0.08355425 0.004418584 -0.026123257 0.0536266 0.029121542 0.046821583 -0.052448492 0.041042715 -0.041124273 0.017944608 -0.072985604 0.05367439 -0.081774175 0.032729708 -0.061627362 0.0855166 -0.11245924 -0.060030643 -0.017471494 -0.16696712 -0.025140498 -0.11264539 0.0202051 -0.06665401 0.044189923 -0.0031763613 -0.03339346 -0.059424482 -0.007300313 -0.00024772735 -0.0011802881 0.011718171 -0.055546165 0.04017287 0.041530382 -0.040921215 0.02089593 0.06324457 0.011463702 0.04211316 -0.0051613683 -0.006668887 0.0010718285 -0.04769531 0.011091584 0.020195695 -0.013996419 -0.05707273 0.023346024 -0.027006498 -0.11472373 -0.077560715 -0.065516666 -0.014847618 -0.05878452 -0.017342735 -0.034896847 0.068390585 -0.036537867 -0.10008926 -0.010102549 0.0319359 -0.0023608478 0.031583995 0.06649274 -0.101158336 0.047442026 -0.011051168 0.047230106 -0.07219377 -0.054319307 -0.036202606 -0.0010523361 -0.013081845 -0.0014435371 0.02731335 -0.11270183 -0.1574078 -0.0071992795 -0.066789865 -0.042625178 -0.07195724 0.0045325328 -0.11260209 0.036598243 -0.010053712 -0.06533633 -0.08073981 0.08686485 -0.0865663 0.0043962453 -0.06793081 0.008521327 0.06770908 -0.05746161 0.08678802 -0.0994711 -0.013529595 0.14862697 0.044442486
spur 0.06895538 -0.054564286 0.042532068 0.0108822975 -0.074802965 0.097182505 0.0128764855 0.0049087037 -0.0017801335 0.027394034 -0.00497765 -0.049428977 0.022836816 -0.03457265 -0.048980627 -0.058190737 0.044441856 0.0018022985 -0.02570006 -0.07951953 -0.023715813 -0.09604872 0.0054679867 -0.07083769 0.055054873 0.05321614 0.026962686 -0.08325661 -0.041129142 -0.045382358 0.07831637 0.08305157 -0.07226398 -0.031658005 0.09571917 -0.054736298 0.078091405 0.077719875 -0.044914447 0.09615079 0.01333683 -0.021934884 -0.054959863 -0.02924241 0.1526244 0.12156688 0.19659084 -0.041874953 -0.023462253 0.07464521 -0.050430954 0.06286904 -0.19654363 0.046994332 0.06703108 0.07004328 -0.13331214 0.015518642 -0.068340704 -0.059821885 -0.0056077614 0.06234524 -0.034677524 -0.12846196 0.010375458 0.055729993 0.046959765 0.090755425 -0.06270283 0.039241146 -0.023465121 0.11085905 -0.053219408 -0.02720164 -0.032943994 0.09934281 -0.11660803 0.040377464 -0.039061435 -0.017512558 0.045405976 -0.14130872 0.08712536 -0.10413413 0.043173376 -0.024813777 -0.077282675 -0.0022815154 -0.00451027 -0.10906932 0.032032076 0.0014913218 -0.06804823 0.028574793 -0.03341343 0.1103987 0.009303255 0.049536668 0.043804936 0.017860472
loading -0.05239605 0.07010629 0.13627264 -0.029048786 0.05264286 -0.060488977 -0.085604556 -0.031935416 0.0069820876 -0.06319152 0.12552662 0.002813902 0.06165481 -0.092464484 0.08955326 0.14978229 0.03226006 0.1043799 0.095663175 0.2015969 0.19053908 -0.02047345 0.041587684 0.08454742 -0.013441537 0.032643866 0.00023857757 0.026533965 -0.08222085 0.02182995 0.05224066 -0.110154636 0.021113168 0.038932517 0.121126235 0.017424164 -0.11602524 -0.03450917 -0.121172495 -0.015446472 0.05424467 0.009951224 0.103592075 -0.02313993 -0.022694098 -0.0117885675 -0.04332881 0.15949607 0.055557843 -0.023503428 0.0033326026 -0.00051920826 0.018503819 -0.009878305 -0.04280346 0.043381054 -0.05150246 -0.07758471 -0.029990336 -0.025285875 -0.085152216 0.009790219 -0.04028964 -0.05021533 -0.08094736 0.0044187345 0.04214756 0.016647067 0.0641069 0.008626375 0.050739978 -0.057734344 0.02273939 0.1292197 -0.061083734 0.08573099 0.19037369 -0.0439564 0.029182017 0.082339756 0.07857249 0.106237985 -0.027016766 -0.02415625 -0.1323645 0.11289714 0.038070817 0.021647077 0.07042696 0.01586785 0.10577489 -0.060897324 -0.070520796 0.051229026 0.11628359 0.030043181 0.028024632 0.026395777 0.050710622 -0.049012862
role 0.073746815 -0.03795165 -0.11536289 -0.042045433 0.16855408 -0.06756683 0.05084779 0.10966289 0.06473365 0.046644345 0.062020186 0.12875254 -0.067898266 -0.02574369 -0.08407354 -0.031940706 0.13973762 -0.019262534 -0.013489815 -0.08141882 0.018192094 -0.14037879 0.15152396 0.049150426 0.021803066 0.150097 0.026644755 -0.13156414 -0.028689269 0.06235294 -0.02902232 0.08075978 -0.035413753 0.029215854 -0.0050174138 -0.008960175 -0.06114873 -0.05569678 -0.02009041 -0.08422721 -0.0016568961 -0.03661919 0.026280971 -0.0010154062 -0.06934761 0.05515857 0.04434828 -0.05055367 -0.07627141 -0.087647356 -0.039486982 0.08424051 -0.046233118 -0.032422557 0.0691201 0.05088878 0.09123236 0.06039965 -0.0523297 -0.1283301 -0.011927443 0.035489336 0.11222845 -0.030542387 -0.0050387895 0.08965345 -0.01349501 -0.080210514 -0.101217896 0.053452265 0.012472665 0.042635176 -0.008246998 -0.025966136 0.08761241 -0.046474177 0.044967163 0.12768266 0.08935251 -0.1436127 -0.03411302 -0.039150532 0.12316536 -0.041397665 0.19591855 -0.06731204 0.008907062 -0.0964978 -0.09010209 0.070375115 -0.11573731 0.050774816 -0.07992098 0.03862261 -0.04394401 -0.04229167 -0.045763846 -0.034338135 -0.09183731 0.120157994
