1501 100
lavish 0.039712667 0.054395124 -0.021634562 -0.0035424763 -0.0025551994 -0.025058359 -0.008116748 0.015782008 0.034461886 0.010595327 0.0070297318 -0.034386426 -0.019162657 0.02284986 0.023226133 0.0060371957 0.02996908 2.7991948e-05 -0.015290754 -0.0020675026 0.01881737 0.004257777 0.032345746 -0.009783613 -0.013351143 -0.025005503 0.016715951 -0.011670692 -0.041339044 -0.025893044 0.015608532 -0.0022638426 -0.038861066 0.027000187 0.009676271 -0.02595297 0.0004011253 -0.0044464786 0.029156625 0.011083101 0.0015694017 -0.03691985 -0.02613687 0.009884771 0.0059828022 -0.036818296 -0.032577127 -0.0070536085 -0.04131993 -0.0067840223 0.013779234 0.0062044105 0.016198171 0.013092182 -0.028866768 -0.008769899 0.04640638 0.03532132 -0.019789342 -1.087063e-05 0.026829004 0.005900106 -0.038566012 0.007593716 0.0066524344 0.019885752 -0.028519945 0.00040580472 -0.024100661 0.011910082 0.018990569 0.016115434 -0.004497694 0.040493112 0.010579912 -0.046212196 0.033852596 -0.0045168647 -0.04935227 0.031991012 0.040255055 -0.025672644 0.0014368605 0.013628126 -0.03848947 -0.030177703 -0.03146886 -0.0475393 0.0022671444 -0.035196338 -0.00021976803 -0.0070750476 0.011131989 0.00011744481 0.005296658 0.004695794 -0.01565613 -0.011859655 0.031928062 0.011449315
18 -0.0278594 -0.008800253 0.021493629 -0.021107523 0.014799175 -0.017565126 0.02596283 -0.013973713 -0.028569471 0.025795903 0.006793166 -0.026699334 -0.002912268 0.0032187528 -0.03402602 0.009581898 -0.013808896 -0.015224388 0.015977677 0.001281066 0.022468822 0.01473065 0.0067452295 -0.026761023 0.018431092 0.0011088618 -0.007283693 -0.022555355 -0.017196488 -0.038586333 0.02071808 0.05121383 0.03883596 -0.029551892 0.0028664991 0.021616127 0.017106827 -0.0044511557 0.034895398 0.0023332313 -0.017057873 0.014106474 0.0068126675 0.005583536 -0.02460216 0.0012585444 -0.009042591 0.056097154 0.0053119585 -0.0154586155 0.018321391 -0.022857398 -0.015976084 -0.024692817 0.017187066 -0.023287844 -0.0009423531 -0.0042682923 0.033092666 0.042710193 0.024697464 -0.047679797 -0.037963204 0.0053598103 -0.023860807 0.039522227 0.011051674 -0.031728756 -0.010930203 0.022052085 -0.032297097 -0.01743471 0.012514286 -0.0043295906 -0.024207612 0.031824794 0.02615096 -0.021219825 0.045813285 -0.015931696 -0.013051949 -0.004562564 0.040824037 0.037201975 0.044064526 0.039624907 -0.015038749 0.0098275645 0.0053167823 0.0438189 0.028756062 -0.04621732 -0.014790941 0.012980602 0.016775053 0.0031616737 -0.017115155 0.018711265 0.0032222732 0.015758462
capital -0.025444215 -0.007882814 0.013743987 0.053611342 0.020746985 0.004267128 0.03813994 -0.010977032 -0.027421338 0.023784429 -0.026736045 -0.011547539 0.014809739 -0.034311336 0.0005680466 -0.0036990568 0.039322633 0.035711404 -0.025884781 -0.045426425 0.0019505927 -0.031971965 -0.042788465 -0.031428322 -0.045479387 0.023932347 0.0392655 0.016112117 -0.034032207 -0.019648034 0.015096648 0.037818626 -0.0053801853 -0.02716851 0.056393925 -0.004032052 -0.0072001345 0.00045055384 -0.027347207 0.014046576 -0.016502148 -0.019241624 0.025312455 0.012323692 0.067094244 -0.078000724 -0.011238507 -0.0017659997 -0.0021108312 0.0026018023 -0.0014635366 0.022217272 -0.005271277 -0.04870292 -0.006395772 0.030994797 -0.008338739 0.03692249 -0.004851911 0.010911049 0.0052740294 -0.04207623 -0.013341796 0.035259355 0.035484612 0.031882495 0.008430956 0.015531951 -0.072923966 0.022038005 -0.0024874832 -0.013155019 0.037775133 0.010031015 -0.014626456 0.0012495704 -0.042205002 0.02083745 0.013792928 0.017653242 -0.024539482 0.012170348 -0.023439385 -0.019748231 0.010492385 0.018402617 -0.0063340603 -0.04499764 -0.016981268 -0.026699144 -0.026068969 -0.0031083897 0.0014577596 -0.0045554414 0.011581894 0.015171924 -0.021762013 -0.02405688 -0.034705892 0.0009925565
remove -0.0041485885 -0.03274366 0.008019308 -0.00021310999 -0.03536796 -0.001550921 0.025230093 0.018333679 0.0008099572 -0.023084436 -0.039594315 -0.019837843 -0.030352937 0.014053242 0.008662627 0.033637132 0.0025935005 -0.024800755 0.028246185 -0.005791557 0.00885223 -0.0072344076 0.0010331698 -0.03033506 0.007389761 -0.026281985 -0.00770592 -0.0029022093 -0.020338567 0.007925814 0.025673088 -0.022620387 0.023709401 0.053785414 -0.0046450645 -0.017802482 0.0028827419 0.024163565 0.011220862 0.028720459 -0.062325176 0.0012479371 0.0016126771 0.015292947 -0.017137852 -0.008931072 0.005693143 -0.0010083814 0.008517177 0.0022088734 0.0062535843 0.013081456 -0.0062910104 -0.020766106 -0.016254995 0.0031163762 0.009284851 -0.020123392 -0.021761391 0.0082994215 -0.0035358993 0.0027034525 -0.026202828 -0.02215096 -0.0032452815 0.00961525 0.005446231 0.038321897 -0.00041342713 -0.004873677 0.052092172 -0.026481735 0.036250893 -0.0023575316 0.019955756 0.01106705 -0.00509364 0.037384223 -0.028199205 0.020760853 -0.0013822443 -0.024516456 0.029423954 0.047762994 0.016960364 0.004398894 0.023217397 0.015862195 0.03422825 0.020699754 -0.014924038 -0.009194706 -0.0062858257 0.016414113 0.0077415397 0.0091434335 -0.01035685 0.016577946 -0.0028903547 0.023945615
envisaged -0.014461088 -0.005172444 -0.02234246 -0.08318012 0.061930876 0.013400279 -0.039981157 0.0065018437 0.017363027 0.021436926 -0.029240604 -0.005112465 -0.06871179 0.00825919 -0.01557282 0.013593433 0.009843213 0.00026135164 -0.0010151595 -0.021697627 0.020834245 0.005575372 0.021368576 -0.029855656 0.004554837 0.0070478953 0.04986996 0.0050486843 -0.028483268 -0.0153987305 0.0068490724 -0.085606836 -0.04356047 0.024160936 0.00896073 0.07997711 0.031768654 -0.010719258 0.04365931 -0.042890698 0.0077550397 0.014320001 0.021791555 -0.033342358 -0.007935231 0.03102812 0.009406508 -0.012337856 -1.417764e-05 -0.021220742 -0.008461278 -0.04049024 -0.0015352868 0.025556276 -0.046945885 0.005276688 -0.033649858 0.02403231 -0.04628822 -0.05838664 0.0023941924 -0.06919683 -0.0039685485 0.05250175 -0.018634675 -0.027834756 -0.052845433 -0.013873268 -0.00765825 -0.07409391 -0.01701226 0.06042326 0.012256116 -0.083592184 -0.0066804495 -0.0074282344 0.038954884 0.045197215 -0.024125688 -0.028173292 -0.0039475574 0.019802256 -0.022200707 0.0029385677 0.0042208377 -0.025641767 -0.028042099 -0.06411756 0.010873627 -0.055468507 -0.0024147616 0.0147808185 0.015778603 0.045812804 0.028282082 -0.04289994 0.020279804 -0.006491623 -0.0024559847 0.017337812
building 0.025853842 0.020647805 -0.01615619 -0.0006223229 -0.008575749 0.015860328 -0.013401175 -0.010664981 0.036189433 0.0555734 -0.038812276 -0.01238215 0.009709714 -0.038449913 0.026211979 -0.04560169 0.009531137 -0.02681783 0.008353646 0.014024068 -0.01351318 0.010207875 0.015614049 -0.012005058 -0.033200834 0.00862087 -0.015287769 -0.015228424 0.0117000425 0.011524012 -0.0152021935 0.010213929 0.0065726363 0.03233068 0.023350477 0.008066924 -0.015324701 0.026397424 0.026002713 -0.014916283 0.003992457 -0.013292784 -0.012918894 -0.034755528 -0.044590276 0.0073866756 0.02598763 0.062943816 0.0027505462 -0.015865732 -0.013148502 0.005415813 0.0063748546 -0.00566681 0.0053946697 0.0012616538 -0.010772989 0.02210507 -0.036320694 -0.07101746 -0.005394643 0.04531413 -0.044473376 -0.00046134833 0.018920884 0.038497396 -0.02519974 0.004332103 -0.01639611 -0.03228332 0.006729438 0.012421454 0.004299478 0.0124617545 0.017200738 0.039892968 0.010736688 0.0080339955 0.038042907 0.02019514 0.022634722 -0.0027301838 0.0116571635 -0.005857312 -0.043613985 0.005170823 -0.023486504 -0.035923395 0.021118842 -0.000298831 0.0020806156 0.012792795 0.0033648694 -0.020911561 0.020981444 -0.008977389 0.009461993 0.0053226147 -0.008366961 -0.019270953
discovered -0.01268746 -0.004295453 0.0030005923 0.028971482 -0.0048614796 0.023196425 0.0039831777 0.003615438 -0.049549233 -0.03969772 -0.027777348 0.0036298851 -0.0045499112 -0.02196047 0.0120813055 -0.03567416 -0.029807856 0.00467012 0.014955158 0.03886352 0.007183755 0.009374174 -0.016603831 0.012803732 0.005882096 0.007906006 -0.009962575 -0.045164708 -0.013648263 -0.021903569 0.015886638 -0.007542127 0.028773068 -0.0026511333 0.0069696372 0.0051681483 0.015180992 0.002661956 -0.018205909 -0.013466219 0.029164474 -0.01311133 0.0152658215 0.0009941958 -0.02115125 0.032628562 0.02194212 -0.0018862511 -0.0056376876 0.009159965 0.002721811 0.015125442 -0.019306855 0.0062941364 -0.0053667193 0.01575909 0.031100752 -0.02362883 0.008357596 -0.012250556 0.012811247 0.00493218 0.01883609 -0.0042254133 0.007984754 -0.01758759 -0.024069712 0.024369879 -6.0742866e-05 0.012087519 -0.022728117 0.014865383 -0.03674576 0.0072500207 -0.0023357237 0.029423319 -0.02350499 0.026150996 -0.008326203 0.022922317 -0.0068169483 -0.036594328 0.00041184365 -0.042493008 0.00055443647 0.00849585 0.004648603 0.029806621 0.01489832 -0.006447589 0.017115485 0.002068491 0.040772658 -0.05177611 -0.00850271 0.024953496 0.012920072 0.0151975155 -0.023033638 0.018674646
regardless -0.004096727 0.0038249476 0.0153104495 0.014323885 -0.03807177 0.012345674 0.0487538 0.0069445875 -0.00023611193 -0.019019404 0.032272063 0.014982436 -0.033608615 0.019182712 0.005737245 -0.03249139 0.030143965 0.04797368 -0.037921593 0.023854848 -0.0005566106 -0.0027400055 0.011666112 0.03544108 -0.040820844 -0.01504417 0.03496369 -0.039344735 0.0037649737 -0.018351583 -0.017867548 -0.016484238 0.0068617603 -0.0013032503 -0.012367299 0.008519874 -0.004186181 -0.02362992 0.0245572 0.02362965 -0.011715311 -0.01612044 -0.04448232 -0.035282027 -0.021800105 -0.022791315 -0.0021429993 -0.002596666 -0.018807514 0.012523758 0.020882985 -0.021957062 0.031413916 -0.004354164 0.002625151 0.011214881 -0.015640259 0.030080412 -0.015161465 0.02985705 0.002796203 0.05173472 -0.014473356 -0.0083713755 -0.013841915 0.030701581 -0.019814113 -0.0399378 -0.008727615 0.051481865 0.025321519 0.01243115 0.027332079 -0.001867906 -0.009493592 0.011326928 -0.025902912 -0.014894425 -0.0019264576 -0.014671509 0.03245844 -0.044602305 -0.036510974 -0.011450907 -0.030044883 -0.008824784 -0.010518124 0.010287808 0.0007428256 0.005095331 -0.012178925 0.00069780037 0.038481697 0.038778804 -0.03127514 -0.0008077349 0.041005157 -0.021319047 -0.02694749 -0.014125623
farmers 0.005855158 -0.0027063168 -0.014541691 0.004108368 -0.017133335 -0.0031700283 -0.011778854 -0.011126965 -0.040083405 0.029234799 -0.025331309 0.0089695705 0.0027602322 0.036522277 0.006835067 -0.02702052 0.0018053099 -0.002656627 -0.009130146 0.06782042 0.017739184 0.026010312 0.044286564 0.011677905 -0.006733325 0.009385891 -0.01808501 -0.011626726 -0.011805313 0.018998763 -0.02589605 0.0326609 0.04787732 0.020354208 0.012802156 0.0033931532 0.007983483 -0.019291233 0.025643356 -0.013300574 0.027476754 -0.04636026 0.0049265125 0.026508924 -0.024748558 -0.00045426073 -0.002674053 0.029296055 -0.0060631563 -0.015961958 0.006171282 -0.0060502915 -0.03072858 -1.4267454e-05 -0.028435966 -0.026032273 0.02834884 0.026384147 -0.0074255783 0.021558348 -0.00353349 0.021384254 -0.024636876 0.010770594 -0.016095651 -0.02008525 0.026049362 0.009652469 -0.0029686033 -0.009209303 0.039265938 0.0028570283 -0.0329071 -0.01581731 -0.009701641 0.030138059 -0.06690017 0.000718769 -0.032710977 -0.019010779 0.0149390735 -0.0019130774 -0.015935091 -0.00041290536 -0.00012037635 0.0075410306 0.05596915 0.021828163 0.023933245 0.021606026 -0.0058367318 -0.042002264 0.008009762 -0.024217743 0.02574701 0.033751845 -0.009727853 -0.006728651 -0.019598981 -0.001318471
employment -0.028282767 -0.0027921423 0.024577314 0.002224958 0.0042010853 -0.019477889 0.03913162 0.008989148 0.007720294 -0.009722434 0.0037470255 0.017616171 -0.0025991988 0.01705896 -0.023336014 0.042059544 -0.033191707 0.02407419 0.011974758 -0.034929097 0.0045226077 -0.0250773 -0.02788595 0.015045746 -0.009678297 -0.0076174648 0.040744126 -0.030638665 -0.007338104 0.00579389 0.0061960425 -0.006148722 0.0016820447 0.020915534 0.013404864 -0.012740158 0.006813891 0.005259305 0.004854484 -0.029959794 -0.012086615 0.0011757656 0.010052537 -0.0020553712 -0.0024374826 -0.021007298 -0.0056034317 0.017193759 0.00016477006 0.0024121017 0.022510761 -0.015392907 0.009576267 -0.021118818 -0.019193448 -0.029151196 0.0047274386 0.0076775574 0.025531456 -0.0044423714 0.018372096 -0.0017425767 0.00915161 0.026353495 -0.008138094 0.02138171 0.01906784 0.0011417163 0.009330138 -0.042282995 0.00021695951 -0.01945973 0.026190583 0.0046492266 -0.012494397 -0.042526875 0.03840452 -0.015555216 -0.026008923 0.0015056825 0.034388933 0.04040733 -0.002307459 -0.022512298 0.034111124 0.018691627 0.013856851 -0.017306909 -0.033838943 -0.017688394 0.004187057 -0.016370447 -0.006757237 0.05436554 0.023040205 -0.0023524847 0.019743524 0.0020403652 -0.024524435 -0.011897927
85 -0.009545793 -0.012352553 0.013971496 0.0332066 0.0017056391 0.018465506 -0.008341977 -0.028832778 -0.06697189 -0.023875259 -0.033468522 0.006134239 0.037231497 -0.057707753 0.015974322 -0.017829629 -0.0009817842 0.0070102667 -0.0031885405 0.0041675316 0.030021751 0.066594005 -0.00403889 -0.0050297966 -0.007585617 -0.017069736 0.0016700942 -0.0038832156 0.024199372 -0.015456941 -0.013058578 0.04188105 0.012903299 -0.008659483 0.013429746 -0.017104203 -0.0047790296 -0.017471705 0.034498047 0.01645111 0.02217996 -0.0041510426 -0.030726844 0.008103077 0.005191527 0.00086798135 0.03989267 0.014140217 0.003511769 -0.030260377 0.008870429 -0.01632347 0.011283588 -0.025512708 0.0026652154 -0.012899628 -0.009968114 0.020843277 0.05060724 0.009669997 -0.011650997 -0.00069966575 0.0132349515 0.025072487 -0.0005063866 0.044781234 0.041223645 -0.0052984767 0.011372252 -0.048964065 -0.031179363 -0.013559731 0.056660075 -0.0042181974 -0.0041591176 -0.009397522 0.028649505 0.0043086153 0.021823106 -0.0073444955 -0.027230626 0.03935863 -0.022226749 -0.007865282 -0.021598488 0.030513672 0.04248538 0.024286317 -0.040035747 0.022974877 -0.013814781 -0.023382705 0.0034850843 0.025613945 -0.01559965 -0.006620724 -0.03431394 -0.020827075 -0.030925564 -0.0078104595
believe 0.016373718 0.08477645 0.053888172 -0.016328432 -0.0202911 0.003660134 0.016480722 0.04967999 -0.0015648676 -0.019284774 -0.038929276 0.00025693397 0.026474264 0.0441607 0.033212837 -0.08685461 0.02282853 -0.025444578 -0.041474175 0.02961208 -0.07183242 0.020217825 0.0129706785 -0.013938253 0.03922813 0.012485405 -0.061211787 -0.030989308 0.0049490724 0.04437921 -0.009621576 0.005308236 -0.04359442 0.029038101 0.0048526754 -0.039990958 -0.002141505 -0.00030079635 0.03391939 0.045488577 -0.025063017 -0.019260004 0.022421509 -0.010189738 0.062683366 -0.042567655 -0.014197179 0.023950785 0.039188974 -0.014205673 -0.02978602 -0.04169012 0.0466215 0.037734386 0.03558933 0.01894117 0.0091400305 -0.0125643425 -0.019963466 0.021384707 0.02665565 -0.015000877 -0.043149453 0.026185926 -0.02790792 0.0087951915 -0.013673903 -0.03763084 0.034905072 0.0059173377 0.0073817796 0.0101802675 0.023406236 -0.006188922 -0.04287875 0.01754275 0.019658348 -0.047268268 -0.027496582 0.07719565 0.025465371 -0.026493067 -0.0140710985 -0.006720894 -0.014474951 -0.037755836 0.03973914 -0.038727116 -0.005036689 -0.073159 0.013966218 -0.032298494 -0.021188231 0.038204376 0.03283196 0.013581928 -0.037475195 -0.023087243 -0.031802755 0.0051732985
500 -0.024370857 -0.010061221 0.004183502 0.014096546 -0.019532777 0.04326994 -0.03251394 -0.011507669 0.02933629 -0.0025049178 0.004406397 -0.013748748 -0.011264838 -0.011731403 -0.014786727 -0.00792525 -0.018188054 0.010355844 -0.03266539 0.021026693 0.022887839 -0.01787896 0.020764368 -0.008707311 0.030490056 -0.042440787 -0.045120254 0.034979153 -0.051737856 0.014911116 -0.028073544 0.00476957 -0.008919836 0.007682615 -0.02625204 -0.0027963915 -0.003489316 -0.020599976 0.016834501 -0.0021507563 -0.02162919 0.009319108 -0.0032949252 0.0023962785 0.02108243 0.039115712 -0.008200157 0.010561131 0.034746304 0.007449687 -0.0099983895 -0.01836037 0.04170469 -0.0038964385 0.040161327 0.00892883 -0.004903758 -0.022293992 -0.0035402286 0.027019711 -0.023711503 0.025109699 -0.02107291 -0.042324107 -0.019494832 -0.028002324 -0.0077216756 0.004972212 0.0055265 -0.027099771 -0.004636112 0.01115092 0.011286728 0.012142861 -0.007637888 -0.03704519 0.0039256276 0.032302115 -0.010327372 -0.022180283 -0.0200918 0.00882447 -0.008153183 0.040191874 0.010660833 0.00015748176 0.0242874 0.031812724 0.00040426257 0.0069243573 -0.042687308 -0.004346404 -0.012524284 0.00093843916 -0.0278027 0.0058893943 -0.010817917 0.018355565 -0.042675648 -0.030422442
represents -0.052661836 0.008970808 0.00813685 -0.03441265 0.0058954414 0.053423792 -0.018143266 -0.0024924134 0.037561063 -0.02501055 0.026487062 -0.022322461 0.0057875505 0.045685075 0.0022464653 0.004986165 0.00011207617 0.013198361 -0.007205488 0.0029403316 0.012748251 -0.0034180158 0.024985176 0.019182207 -0.021975318 0.028118575 -0.015188875 -0.044795863 -0.002760995 0.024909638 0.02675866 0.00618389 0.019778535 0.030801684 0.005815509 0.004565818 0.007972086 0.02503661 0.027539255 -0.0005618603 0.03066302 -0.00044587464 0.02355276 0.005732854 -0.019754244 0.007969555 0.022996416 0.026047615 -0.004328106 -0.021770233 -0.0068122824 0.0011435333 0.039775036 0.0044998676 -0.000597792 0.039459232 0.009599859 0.028350826 0.0049356148 0.012286354 -0.019439198 0.019044485 0.01279807 -0.0053401743 -0.047476765 0.008335891 -0.02041389 -0.01890464 -0.009203547 0.00049109774 0.019931344 -0.008977247 -0.044875737 0.03342674 0.025703657 0.015575726 -0.045249462 0.0042641694 -0.007702352 0.058400538 -0.0014868651 -0.022091484 -0.015979316 -0.02125304 -0.0387897 -0.047911756 -0.0063028876 0.008773831 0.04493947 0.006432649 -0.021583185 0.02741003 0.0068773804 -0.03833024 0.023720816 0.01957138 -0.00898675 -0.015408307 -0.0021638703 0.026740905
farming 0.01645181 0.058282614 -0.016538715 -0.06306748 0.025856897 0.009657936 0.023887333 -0.009071307 -5.2196905e-05 -0.006407338 0.0236977 0.11609224 0.006317125 -0.016064465 0.023556119 -0.14740776 0.06941239 0.062475517 -0.030557616 0.064415656 0.022480978 0.036678024 0.076471224 0.029178068 -0.0038235083 -0.017868761 0.05953899 0.024315445 -0.0427666 0.015278947 0.005341708 -0.0007052986 0.013017989 0.093339294 0.042463936 0.03307016 0.009618309 -0.0070836344 -0.047617897 0.08349358 0.018133918 -0.008601642 0.09774156 -0.06467804 -0.03767069 0.06488122 0.01176207 -0.119624026 -0.045017432 -0.03428337 0.090375215 -0.054519672 0.056284998 0.010674491 -0.08391584 0.04633393 0.09245839 -0.027085705 0.02926588 -0.059672344 -0.049598765 -0.005505886 0.03546765 -0.047097158 0.014617553 0.014701882 -0.022296345 -0.07201454 -0.0062674223 0.023250988 -0.08431072 -0.024947125 -0.066893294 0.029867254 0.008761744 -0.05096317 -0.041314073 0.04438689 -0.020716213 0.048719827 -0.04092804 0.056797817 -0.028669784 0.031778876 0.0024347792 0.064489685 -0.0068424297 0.03989785 0.051316492 -0.035524044 0.021477284 0.0085831275 0.014588006 0.036733184 -0.030922217 0.025531534 -0.016024696 -0.0020610422 0.112436384 0.03512872
best 0.039013173 0.03809507 0.025649142 -0.019668706 0.0095751025 -0.0005541779 -0.0065576853 -0.0062610516 -0.023005778 -0.012432116 -0.039093085 -0.013366789 0.05497295 -0.00926095 -0.0074823685 -0.05103625 0.009144903 0.022716196 -0.00787944 -0.012262375 0.0011426881 -0.013639188 -0.009940085 0.002475216 -0.020916227 -0.0013951901 0.048253253 0.025013 -0.043034744 -0.0075416747 0.018619468 -0.023848874 -0.024095953 0.006086174 0.007881935 -0.015921783 0.018539958 0.012199375 -0.023301726 -0.025946256 -0.02947665 0.03613815 -0.046356913 0.027785912 -0.008326605 -0.009162746 0.053400617 0.015140905 -0.05747826 -0.017839748 0.006770587 -0.014535221 -0.04442917 -0.030997433 -0.032058753 -0.01022321 0.0048754993 -0.037333883 0.021729916 -0.0041159503 0.029725615 0.013046519 0.004281522 0.023867944 -0.028339991 0.0025183575 -0.006913662 -0.0018325334 0.03484576 0.043719385 0.008458767 -0.032021582 0.031231325 -0.006940662 -0.0051266868 0.03820828 -0.028500315 -0.019067459 -0.06597252 0.03404031 0.032976262 -0.032215275 0.004238529 -0.034288127 0.021195216 -0.029762425 0.003461134 -0.02749857 -0.030807916 -0.009203646 -0.0018534003 -0.029948322 0.011447111 -0.015059917 -0.018788455 -0.016270231 0.014698153 -0.018257719 -0.023788948 0.026669778
making -0.07943769 0.011460452 -0.030452065 -0.016418282 -0.06571075 -0.0007255883 0.013140657 0.03722253 -0.0044718673 -0.0071442337 -0.015205458 -0.019409059 0.029739067 0.021650875 -0.03423867 0.019206302 0.0056981705 -0.021234592 0.010182867 0.00904237 -0.010834335 -0.00620651 0.0029567562 -0.043601178 0.011494421 -0.009893423 0.014691733 -0.0030308473 -0.0028270036 0.059833616 -0.0071212556 0.018938662 -0.0026095996 0.03691788 -0.01951744 -0.00090890215 -0.00010679918 0.006573622 -0.039044034 0.051548284 -0.018864736 -0.025098344 0.001918184 0.030307457 -0.001323221 0.009898015 -0.0038821157 -0.0049864347 -0.006766437 0.006530902 -0.01828609 0.053013574 -0.0064214757 -0.02377782 0.015675971 0.0209275 0.04067062 0.037607733 0.0044540297 0.0065583894 -0.02608521 0.011888087 0.009082708 0.008754887 0.025562495 0.011853124 -0.015400901 0.02148369 0.025163185 0.04812671 -0.017035738 -0.024318531 -0.032676898 0.03999527 -0.022996997 -0.039401382 -0.018010383 -0.012909746 -0.020702098 -0.006786909 -0.034394287 -0.028123043 0.041698765 0.04429847 0.013434924 -0.022515317 -0.03610544 -0.00814769 0.046634287 0.0012001075 -0.0010867631 0.01599128 0.046018127 0.029152142 0.04885333 -0.023005115 -0.030915048 0.041450445 0.033018347 0.001559898
increase -0.016715117 0.03958381 0.030178925 -0.016704349 0.08149836 -0.01952369 0.047825012 0.0017154724 0.0058851107 -0.03600375 0.02392473 0.0007171679 0.055251576 -0.031247646 0.03397011 0.028954282 -0.038216688 0.017581325 0.017795283 0.014300376 0.025838165 0.042450592 -0.029085472 -0.04073001 -0.004241266 0.0035031978 -0.064813666 -0.0238975 -0.027742486 -0.031099211 0.022263477 0.032128647 0.054868102 -0.036589116 -0.005364144 0.019596534 0.045581445 -0.0054782694 0.027529841 -0.01741476 -0.025509719 0.01563077 0.011321332 -0.003152989 -0.03471316 -0.026526652 0.020694874 -0.012126628 0.016047275 0.020356545 -0.0058261147 0.03966771 0.0052443207 8.686073e-05 -0.0020911756 -0.033338312 -0.026415868 -0.006964852 -0.036909964 0.0135387825 0.015764708 -0.012476988 0.005005995 -0.0243511 -0.05460896 -0.018326893 -0.02642611 -0.060189232 -0.008161463 0.034091167 -0.0023087533 0.005627254 -0.0034168228 0.0052541518 0.021757768 -0.0062755253 0.015689168 -0.031166164 0.02903311 0.014099788 -0.010999794 0.027565222 0.0013323926 0.005376821 0.04208624 0.018399391 0.015184298 0.0008211331 -0.045098703 -0.0387322 -0.036643438 -0.029726604 -0.016954612 0.00012994603 -0.050208185 -0.032358553 0.0037845266 0.018728955 -0.0019526391 0.030371342
withdrawing 0.0037945448 0.016145766 0.025091644 0.016357897 0.044422626 -0.04838979 -0.0029409598 -0.006562607 0.021306232 -0.039442524 -0.064028285 0.008964339 -0.026935983 -0.04922909 0.005293278 0.03757928 0.028281426 -0.0124786915 0.046491496 -0.018432591 -0.0059347227 0.00745468 -0.029278433 0.013378984 0.062252995 -0.056886327 -0.0029325625 0.05478286 -0.0069976626 -0.003445525 0.020663057 -0.02129835 0.007220654 0.0013326354 -0.021230295 0.0099361 -0.023571204 0.030670758 0.030703174 -0.0017203069 -0.039740313 -0.013464688 -0.008943189 0.025955556 -0.021231683 -0.010315784 -0.023636183 -0.054934308 -0.027573025 0.0077654147 -0.010320344 -0.003801779 0.045014583 -0.024173928 0.004171886 -0.0053431005 -0.020952161 0.0019968 0.031599548 0.007598491 0.034511495 0.042481028 0.023662591 0.013800506 0.02617309 -0.0035196492 -0.009506585 -0.03806524 -0.007845338 -0.05182194 -0.016751846 0.023940785 0.04786944 -0.052740816 -0.014918165 -0.02514647 0.072992116 0.0027426411 -0.017141012 -0.025124578 -0.020829821 -0.052020635 0.008895193 0.06438131 -0.031353656 -0.02208364 -0.0017863006 -0.042541303 -0.0019163223 -0.015390673 -0.025656758 -0.009565057 -0.012622219 -0.013581328 -0.038027905 -0.00731216 0.03180302 -0.02565872 -0.019216895 -0.0061477125
Privileges 0.03103001 0.01390062 0.0156216305 0.009934432 0.032990173 -0.023484755 -0.012890718 -0.009433698 0.015172411 -0.021789793 0.028599473 0.007928538 -0.0174108 0.024590101 -0.0021070833 0.036044944 0.034197506 -0.037337527 -0.028559288 -0.053533472 -0.024925116 0.011357298 -0.007434298 0.0042622425 0.008627552 -0.0017016181 -0.024313468 0.034223195 7.893407e-05 0.0062283482 -0.047666516 0.027080126 0.0124042835 -0.042384084 0.059054676 -0.0044739037 0.0032805642 0.02138076 0.00020341948 0.0010666765 0.00023784315 0.017536942 -0.00030480526 -0.0003640626 -0.0016898046 0.027351186 0.023343556 0.031473067 0.027030522 -0.029821906 0.018831996 -0.02078152 0.030689828 0.009260084 0.009224099 0.018845815 0.0031890294 0.009486208 0.027198182 0.010402536 0.01636373 0.030010313 0.0020436405 -0.002991458 0.01294172 0.00033264095 0.0050132284 -0.012813313 0.009368462 -0.027836988 -0.0070742154 -0.012934987 0.02123099 0.024969555 0.045266613 -0.020417575 0.013984544 0.0060791136 -0.0069271997 -0.038153104 -0.018489521 -0.013610162 -0.027703162 0.038526036 0.0046392176 0.02919756 -0.032759257 0.005670507 0.030896524 0.0027949186 0.018837616 -0.026335768 0.0026164846 0.008241232 0.027335402 0.018548062 -0.01673752 0.020777049 -0.029176086 -0.015304662
certain 0.021605687 0.011452054 0.02052117 -0.011501 0.066094905 0.0035709678 0.010326207 0.04641499 0.03410195 0.0021920656 0.034263495 0.039870832 0.019293776 0.03528133 0.0445269 0.030373748 -0.020670263 -0.03546821 -0.007740572 -0.026389712 0.026204735 0.008074231 -0.0093860235 -0.03563118 -0.061653364 0.0049820007 0.056794595 -0.039379846 -0.0052043227 0.03439744 0.013935028 0.027374804 0.049313735 -0.04290806 -0.027203651 -0.021434177 0.01956198 -0.016116902 -0.03802462 0.013669089 -0.0402026 -0.062418375 -0.013076741 -0.065777265 -0.029712081 0.0984942 -0.03561544 -0.018166978 0.024231672 0.043986194 -0.033538815 0.00020757166 0.014044665 -0.086552806 -0.017047612 -0.005393725 0.033369094 0.021025501 -0.016128311 0.023363162 -0.02296948 -0.04263952 0.009138656 -0.03868262 -0.018618284 0.003918959 -0.036905844 0.048199207 0.0024400488 -0.027572926 0.062214542 0.08503965 -0.007868916 0.05432586 -0.0020500105 -0.03998911 0.025350649 -0.027227137 0.0070872596 -0.009055906 0.024556715 -0.035879973 0.013055962 0.07544598 -0.0029238465 0.0511549 -0.04002426 -0.00469478 -0.008432524 -0.031321008 0.07180565 -0.035670776 0.036608305 0.013145483 -0.0070016 0.021723496 -0.08339374 0.046234515 0.0044224616 -9.8464545e-05
referred -0.031774625 0.0029788194 0.007658907 0.0017857463 0.013541608 0.016118858 -0.024679497 0.055797715 0.0074919737 0.0068012774 0.024928939 0.0179519 -0.015139202 -0.00025086128 0.0037373789 -0.0077436743 -0.02534976 -0.04593991 -0.025893707 -0.0005325565 0.013895073 -0.012517105 -0.013049248 0.0072112917 -0.012956362 0.010674559 0.030187242 -0.016036483 -0.006577195 -0.01029274 -0.00063021743 -0.012593881 -0.03960199 -0.0007788336 0.0018272073 -0.017154485 -0.029937783 -0.017115371 -0.016694214 0.011132727 0.011710911 -0.009696314 -0.0282359 0.010816677 0.016389377 -0.011134257 -0.010024921 0.01570272 0.031636037 0.004291647 -0.0069631725 -0.01961579 -0.019491615 -0.03016546 -0.024789248 -0.011972915 0.0024376092 0.012471808 -0.0012467209 0.015008953 -0.0029988736 0.014980006 -0.0027811225 -0.00018561725 0.026699627 0.0053771236 0.012396676 0.03672649 0.00029592088 0.0068672155 -0.021251865 0.027325932 0.0032197158 -0.0010730592 0.016828677 -0.037219718 -0.02306026 0.015764311 -0.021576066 0.050060894 0.0134122465 0.0024772878 -0.011503668 -0.016883412 -0.0034735687 -0.071599536 0.007567389 -0.0046641743 0.0007043488 -0.047276247 0.00280878 0.021394353 0.011177808 -0.012410756 -0.012434831 0.016322967 0.014898232 0.02245477 0.009038397 -0.0164822
expanded -0.010017665 -0.059271615 -0.052877538 0.0126229385 -0.0039024642 0.021686116 -0.0020546778 0.057558667 -0.005087523 -0.059651025 -0.010800355 -0.044005994 -0.0033096527 0.046503123 0.006688436 0.025760317 -0.0010418113 -0.014757562 0.020256838 -0.019178243 -0.023954641 -0.03200396 0.007144572 0.029274097 0.015985807 -0.015803901 0.046621323 -0.011526165 0.022063535 -0.0361925 0.0015889927 -0.006100739 -0.05234718 0.014202427 0.04559012 0.00922986 0.01800634 -0.007886316 -0.0148233995 -0.02372147 0.026296012 0.049287267 0.010378629 -0.05135514 -0.0005803373 0.011338067 -0.012024375 0.008579472 0.021464564 0.015408235 0.007653359 0.009070537 -0.0007253145 0.012891686 0.037425514 0.021055564 -0.019018833 0.05129988 0.02052568 0.010045557 0.011724797 -0.016403906 0.016575104 -0.015104845 0.009934169 -0.034020774 0.014847588 -0.03654973 -0.056537684 0.044902965 0.017687038 -0.026017565 -0.0051779565 -0.033256564 0.010549632 -0.010612687 -0.074965 0.005526866 0.021029724 0.0233023 0.017302439 0.051814288 -0.010474382 -0.005216237 0.02213222 -0.035917267 -0.057038024 -0.010655668 -0.051562153 -0.01602415 -0.020278279 -0.011241283 0.024361193 0.025698816 -0.034589216 -0.006412894 0.00026306655 -0.015214047 -0.08592999 0.05088784
Crown -0.05886315 0.006857325 0.041161444 -0.03541849 0.07671131 -0.0039727185 -0.027520455 0.039069325 0.0034607132 0.017457196 0.037721455 0.00065693754 0.030730473 0.025284493 -0.04825504 -0.01155019 0.030858159 -0.025989043 0.004042597 -0.07507425 0.03778987 0.012430346 -0.015810767 -0.010648362 -0.008111315 0.026386797 0.006587141 0.063348494 -0.020753877 -0.006000056 0.06828081 -0.07675221 -0.0422731 -0.055293366 -0.0061612893 -0.01394989 -0.021317171 -0.0075493874 -0.031448305 -0.03329675 -0.011153959 0.008380643 0.007938177 0.060525138 -0.023519272 0.07795966 -0.012651573 -0.09134037 -0.03704908 0.009414497 -0.022528019 0.036354613 -0.022338923 0.0046421005 0.03550249 -0.015292618 -0.014432355 -0.021907689 -0.011070518 -0.012192261 0.008345645 -0.06197495 -0.05401224 0.044804737 -0.014327633 -0.05818626 -0.028167265 0.0032428969 -0.06527404 -0.05191021 0.07682606 -0.0053027566 0.04227453 0.028374197 0.098099 -0.0027992758 0.0027314187 0.017000448 -0.052985284 -0.014561835 0.00068894075 -0.02421688 0.027514236 0.08136524 0.020374224 -0.019530792 -0.0047311857 -0.02412481 0.024810914 0.0033350522 0.028492892 0.02776673 0.0043258467 0.013164784 0.076477535 -0.018901238 0.021000624 0.021200582 -0.034382436 0.025148658
mostly -0.020432945 0.020360522 0.011841302 -0.0061227293 0.0402671 0.0132098645 0.010312527 -0.0033827634 0.013835335 -0.019671865 0.018620208 0.008383739 -0.0070110117 -0.032081127 -0.014348957 -0.034230303 -0.047058914 -0.022298051 -0.00039707404 0.018373726 0.02866121 0.011913516 -0.0065745665 -0.035364047 0.0019116331 -0.021003256 0.0163415 0.007483474 -0.02671098 0.018533673 -0.0011102722 0.029806111 -0.0095656365 -0.020587683 -0.023893975 -0.009772457 -0.01099733 0.027928842 -0.0048477594 -0.013857657 0.001982905 0.013068648 -0.024471495 0.01216974 -0.02539114 0.01895806 -0.0056403084 0.012397674 -0.017235674 0.025643526 -9.869982e-05 -0.018843759 -0.04313107 -0.006781971 -0.00042245758 -0.020567395 0.015094108 -0.040775336 0.0057475385 -0.005966494 -0.025201708 0.0024104621 0.022006363 0.008120096 -0.04612307 0.02611072 -0.010945915 0.00086232997 0.006526653 0.01245926 -0.012481952 -0.0076563926 -0.052090026 0.00969102 -0.008561403 -0.029590707 -0.010719165 0.035918657 -0.025814235 0.0016736249 -0.006908926 0.0061138365 0.055313013 0.021323219 0.03720609 -0.000829154 0.01666615 0.0013324982 0.008921493 0.0005488619 -0.004401107 0.0042238194 0.030459736 0.039039187 0.0010379825 -0.008992039 0.0213024 0.010697326 0.005188372 0.023475684
wide 0.02540692 -0.011453779 0.02546059 -0.027372617 0.07204179 -0.030792793 -0.037648883 0.008246921 -0.009679596 0.041681327 -0.05474921 -0.0902887 -0.07360989 -0.04785202 0.0030923074 0.09493474 -0.03666616 -0.04892349 -0.016346117 0.007928469 0.0030751755 0.009202131 0.045953136 -0.021327537 -0.016653107 0.03258991 0.030618876 -0.00708484 0.06281496 -0.020020494 0.008370375 -0.015055524 0.024539735 -0.012663321 0.036391884 -0.0036308598 -0.0033488686 0.09087154 0.06211402 0.0028582886 0.082999595 0.046924334 0.012971553 -0.017844705 0.04099485 -0.03687386 0.06665718 0.014588122 -0.027956689 -0.062956154 0.018593322 -0.024178019 -0.042838484 -0.0015237889 -0.008745088 -0.02223897 -0.021729274 0.04745397 -0.012694952 -0.081516854 -0.013803237 -0.09524909 0.024595542 0.024189116 0.09436284 -0.0023784274 0.024879036 0.032306343 0.0561344 -0.03679169 -0.03137803 0.10369893 0.05502592 -0.009639495 -0.0020202252 0.057316814 -0.0029870616 -0.0728979 0.010040355 -0.026056204 0.01932804 -0.0017854341 -0.013978899 -0.034054648 -0.015477918 -0.010115438 0.036960695 0.014460844 0.020802196 -0.013215732 -0.012062801 -0.026189838 -0.020524787 -0.05142723 0.0020437173 -0.038653318 -0.069620356 -0.00677115 -0.052513752 -0.014221625
ahead -0.029396564 -0.015439244 -0.020106671 -0.01844822 0.0045840163 0.004991264 0.028012436 0.017409319 0.040732652 -0.012515463 -0.012737187 -0.041115955 -0.016772639 -0.005871676 -0.012181808 0.009923058 -0.0018999202 0.03277774 0.006689352 0.045091353 -0.010271547 -0.027566167 -0.018633159 -0.027027795 0.02156088 -0.032663953 -0.0012876608 0.00480146 0.007479852 0.01095162 0.013489997 0.020173008 -0.006072443 0.0023465566 -0.021027002 -0.015768073 -0.013541387 0.023864198 0.015555551 -0.011334138 0.0072532957 0.017089918 0.0039328653 -0.016958853 -0.007989085 -0.036165148 0.010528842 -0.0036465542 -0.009996544 0.004638713 -0.033126004 0.023357226 0.008432834 -0.016371407 -0.022462472 -0.029903375 0.04640875 0.014879237 -0.025537478 0.0009015396 -0.0077393297 0.015147991 0.0069090086 -0.016561342 0.0008313356 -0.017912768 0.005708594 -0.008124552 0.008913101 0.0005346318 -0.02612834 -0.02587916 0.010556306 -0.017197866 0.010244268 0.05324004 0.019207496 -0.034109496 -0.017364355 0.00029428705 -0.008275479 0.018804263 0.030137278 -0.020925086 -3.4811383e-05 -0.022352198 0.01731035 0.023613652 0.011289589 0.018523306 0.009779262 -0.010172251 -0.0043904837 0.001900855 -0.011134671 -0.0006721937 0.030218374 -0.0060956073 0.0225865 0.0073619927
citizens -0.016311254 -0.006842214 0.026147578 -0.038705118 -0.018518304 -0.019722603 -0.011633637 -0.0060128663 0.015438126 -0.025803413 0.0049035633 0.04631498 0.0016762073 0.031630486 0.006306886 -0.014183718 -0.009946677 -0.024040902 0.016168384 0.00949757 -0.008489569 -0.00457016 -0.012474498 0.015572469 -0.010756211 -0.008804338 -0.012757932 -0.02558377 -0.038030803 0.02078905 0.001383779 0.005659909 0.006031389 0.009704224 0.0029253904 -0.011858962 0.01014691 0.00044781354 -0.0023922604 0.0024046276 -0.0011880136 0.0057857917 -0.0074754073 0.0037985037 -0.0064655524 0.037392754 0.006834085 -0.001126227 -0.005208705 0.025029773 -0.008806424 -0.007879066 0.0012610869 -0.006125627 0.017530998 -0.020282786 0.0009678957 -0.01752673 -0.00032605033 0.005961491 -0.02926567 0.022237875 -0.00025368063 -0.0015738452 0.014801818 0.019494886 -0.018039472 0.009760554 0.02048063 -0.015762506 0.01494496 0.0071389317 -0.015558212 0.009596168 -0.01783545 0.0038889698 -0.008601096 0.0019480118 -0.0027604904 -0.023381043 0.0007950419 0.0056173857 -0.002374739 0.015814392 0.0051680817 0.03224395 -0.010833883 0.021255122 -0.019489938 0.004223328 -0.010906974 -0.019580368 0.0024139273 -0.006508069 -0.005645686 -0.0006923391 0.004872939 0.015557028 -0.0026494055 -0.0067982497
managed -0.010632365 0.017231379 0.0060371845 0.023551585 0.005222786 0.021807952 -0.00089689525 0.0018995721 -0.01907329 0.020193571 0.034188524 -0.045924462 -0.005575808 -0.03335363 -0.012523642 0.014083302 0.009816269 0.0029319155 -0.015268109 0.032705568 0.02012896 0.022962032 -0.016365787 -0.0022082985 -0.0055616694 0.0032943897 -0.0103063695 0.017556142 0.014606831 -0.016178755 0.03567822 0.03931253 0.020066204 0.009790271 0.02121033 -0.01526337 0.02066999 0.008359083 0.0025788364 -0.0047357935 0.017285379 0.02925931 -0.017123546 -0.014272666 0.0020178016 -0.007027883 -0.014985256 0.01535347 0.029768577 0.020863898 -0.0010323118 -0.02938206 0.03945401 0.011954378 -0.03628102 0.015612561 0.047281798 0.04145099 -0.006202246 0.01221633 0.052865453 -0.04336055 -0.024659203 0.026262183 0.005276695 0.014714927 0.026011458 -0.010606502 -0.013647724 0.016486181 -0.037477735 -0.029891813 -0.0031264497 -0.04095761 -0.031531665 -0.0076137846 0.023304667 0.0045583453 0.0066842 -0.0023836829 -0.009933673 -0.014820468 0.015713375 0.020780943 -0.0018369119 -0.028471503 -0.003503369 -0.003889738 0.007855218 -0.04177765 -0.0035288031 -0.034230858 -0.011400107 -0.01758412 -0.030077929 -0.013377866 -0.052804016 0.0051732017 -0.023324884 0.008236557
disturbed 0.005092619 0.0053578387 -0.022848383 -0.054319963 -0.02976124 0.03859083 -0.018133309 0.049530327 -0.011605441 0.0050960174 0.06655198 -0.021211337 -0.0038805485 0.016969038 -0.0037152625 -0.017117295 -0.011067746 -0.031161329 0.0076574245 0.015861806 -0.024320152 -0.008665127 -0.00722575 6.151921e-05 0.018515676 -0.0048627686 -0.001678797 -0.016537977 -0.016908882 0.020842986 -0.0005695968 -0.03544847 -0.013178527 0.031659666 -0.012762066 0.020833772 0.011222975 0.021364683 0.012388118 -0.012006532 0.014968851 0.025986398 0.01536021 0.008351242 0.026593965 0.052577004 -0.019056898 -0.054414082 0.0029334913 -0.027380323 -0.030810686 0.017473144 0.00060549466 -0.004236292 0.023444366 0.015109899 -0.017650628 -0.020642074 -0.039599113 -0.042273875 -0.005870208 0.019245269 0.014091454 -0.016720911 0.041522056 0.00029731292 -0.022468628 0.035221223 -0.012943944 0.0027520352 0.0265155 0.026569096 -0.015586521 -0.023746686 0.03599359 0.02122525 -0.0031728393 0.010726158 0.062699735 -0.026361573 -0.020576894 -0.02735674 0.02962984 0.024578108 0.026343655 -0.033898942 0.019069929 0.011033639 0.0061355936 -0.007588889 0.022008935 0.026154466 -0.010386594 -0.035793893 -0.014384323 0.011702876 0.01775329 -0.011761265 -0.0070816074 0.018826092
wait 0.0035979562 0.016044099 -0.014915379 -0.042942274 0.009798218 0.024640022 0.0047443216 0.011576505 -0.00136412 -0.00017597224 0.028430961 -0.01503372 0.017706338 0.023221165 -0.035847414 0.04344448 -0.03741037 -0.006608531 -0.04450484 -0.04043752 -0.060349043 -0.006088366 0.0063106343 0.020831427 0.04223905 0.014323096 -0.061103057 -0.021459766 -0.007429989 0.004937387 -0.00068941474 -0.0004396377 -0.01747879 -0.023660604 -0.007796962 -0.001958447 0.0012655107 0.0036558285 0.016676635 0.026931616 0.013317133 0.006847255 -0.007703931 0.040996056 0.008501988 -0.011298992 -0.009504879 -0.012302401 0.023550708 -0.029003445 0.005722151 -0.02458447 -0.016736513 -0.0018801311 0.0093444055 -0.03309647 0.033681095 0.0061978414 0.008089377 -0.017764006 0.0377796 0.0047860537 0.012658202 0.025655802 0.017688587 0.0012348733 -0.015571107 0.019435564 -0.0007811247 -0.016987309 0.012399916 0.056988012 -0.048901677 -0.008590556 0.028167108 -0.0048379228 -0.0012951079 0.015033738 0.04149666 0.009631777 -0.0046380674 -0.005774982 -0.009900681 -0.0046432773 0.03172455 0.020859012 0.006268778 0.002368998 -0.017125417 -0.037706327 0.033723053 -0.0038695694 -0.03527651 -0.0096233515 -0.010088928 0.022669949 -0.0017292249 0.015844783 0.005369345 0.020147957
Commissioner 0.0030442525 -0.010044457 0.041101057 0.03858016 -0.025621783 -0.023472505 0.02237532 -0.013992369 -0.014942186 0.021949451 -0.029907947 0.0007082258 0.017590072 -0.027106715 -0.019202918 0.005282476 0.007663139 0.0136047695 -0.0024626858 -3.5114266e-05 0.03361618 0.027781706 0.03955658 -0.05881469 0.050102584 -0.0021426785 0.016602937 0.016137287 -0.0107928775 0.009039424 -0.04963966 0.0032217083 0.0820943 0.03359227 -0.007110145 -0.02693253 -0.011589148 -0.0006718462 -0.00014599203 0.03459132 0.012696658 0.009807979 -0.02478509 -0.024391402 0.028617086 -0.04834624 -0.00037868193 -0.011463811 -0.022532111 0.00893614 0.04422463 0.02127447 -0.005587174 -0.020798208 -0.0044669015 0.023630422 0.0017415525 -0.008508809 -0.0133805 0.0035568036 0.018196667 -0.032973107 0.046906065 -0.032918762 0.011669725 0.029325478 -0.01254765 -0.008186363 -0.007073514 -0.022448983 -0.0021232574 0.018702947 0.0014334057 -0.001246147 -0.06279141 -0.051196814 -0.0003417172 -0.055457845 -0.00703107 0.045484714 0.0077692643 0.020354662 0.007088228 -0.0018709183 -0.05774028 -0.022825664 0.027433049 -0.015592088 0.006690801 0.015988214 -0.0032070542 -0.0115469 0.05955036 0.00870488 0.05732033 -0.04523937 0.0018991478 0.026717052 -0.0061988127 -0.07957121
levels 0.03363126 -0.025904115 -0.02000259 -0.0041955137 -0.032837294 -0.0006820131 -0.035530046 0.023829803 -0.009937789 -0.0006811033 -0.0007040249 0.00944984 -0.01792185 -0.0062160986 0.009053109 0.00866897 0.019618267 -0.01323757 0.0100989975 0.057782143 0.020676153 -0.01667201 0.0017809804 0.025656622 0.01511035 -0.020385701 -0.011085325 -0.05455709 -0.03497054 0.02057959 0.0042343647 -0.021212028 0.010219149 -0.0788279 0.023912268 -0.008280178 0.010121201 0.024393769 0.01003718 0.03361097 -0.06135711 -0.03366738 0.01682201 0.0036258143 -0.03291529 0.041034337 0.008595256 -0.05689431 -0.036395054 -0.0030097594 -0.012250286 0.020982688 0.007675928 -0.0033277657 -0.0066186693 -0.016632998 0.01813887 0.027567143 -0.0034762935 -0.0142342625 -0.016288105 0.0075497124 -0.027861988 -0.006457507 0.007093442 0.020253422 -0.024517102 0.023130229 -0.024501113 0.01415901 -0.0058070333 -0.0017130362 -0.0063947067 0.014520781 0.012206916 0.026839502 -0.019118505 0.05212365 -0.03207178 -0.0062450864 -0.01744162 -0.00938116 -0.0066632917 -0.037040245 0.010697738 0.02269666 -0.010144789 -0.0027317593 -0.021409668 0.00035273144 0.0014872791 0.012834262 -0.0073511624 -0.006476217 -0.01761602 0.00257176 0.028699754 -0.018661946 0.0110971425 -0.004293465
liberties 0.0063028866 -0.03216302 0.027657075 -0.000616758 0.059297055 0.029363222 0.014211675 0.030345358 0.0024295298 0.017775478 0.033440646 -0.036842495 0.02371593 0.027860248 -0.004190594 0.017208438 -0.037405096 0.007032183 0.0012686374 -0.003984825 0.03197077 0.008850776 -0.020620845 -0.0026407554 -0.001856494 -0.0022798616 -0.009007724 0.013498112 -0.00658782 -0.009435711 0.02128747 -0.0053374823 0.008515508 0.0032825763 0.030865122 0.005922542 -0.011969489 0.037538197 0.0052017355 0.008794389 0.024308648 0.034147993 0.0042655077 -0.011652388 -0.0055390666 -0.0148020275 -0.04633876 0.065366685 0.0050448133 0.01307209 0.03538419 0.05471178 0.009811925 0.016348442 -0.012303091 -0.024317024 -0.0048259837 -0.02267243 0.01514824 0.00991485 0.02772748 0.035229567 -0.0010912241 -0.014911714 3.8876227e-05 0.0026616422 0.01855439 -0.052370388 -0.051486026 0.015249288 0.020952437 0.0023137867 -0.0088167135 -0.027395176 -0.0029728173 -0.001386082 0.025814032 0.00022880384 -0.015341628 0.005539034 -0.0024392745 0.01303327 0.03454501 -0.010414252 0.035697084 -0.021300092 0.017671049 -0.00406172 0.022807706 -0.013374805 0.047585875 -0.013213154 0.011471708 -0.008990642 0.009673567 -0.009920082 0.020828495 -0.01777736 -0.0364175 0.0054815053
personnel -0.0040772343 0.021313166 -0.033716403 0.020845804 -0.017617276 -0.009831015 0.028050043 0.019484628 0.0059442148 0.011054285 0.019751037 -0.0012931884 0.04318355 -0.00065138866 0.05083037 -0.0006696738 0.030200087 -0.00355272 0.016730022 -0.04482935 0.025248028 0.037916623 0.03243848 0.03651135 -0.07577934 -0.025122304 0.013741635 -0.016194774 0.009757563 -0.057816043 0.01305791 -0.013857223 0.010723259 0.00045900978 0.04351014 -0.002133478 -0.0158101 -0.027733693 -0.019102242 -0.011939009 -0.033732932 -0.018416656 -0.03994368 -0.012506788 -0.038180657 -0.031230949 0.040838588 0.010574247 -0.011905767 0.013734339 -0.01964812 -0.00958064 0.001984777 0.005033336 -0.047978032 0.0017326161 -0.0073533347 -0.0022682718 -0.03585482 -0.020098187 0.004087497 0.01263584 -0.018957427 0.011485123 0.026626788 -0.013381559 -0.014114148 0.0063811764 -0.029391516 0.036061574 0.02542563 0.008159914 0.0043502334 0.00792509 -0.040176462 0.016351806 -0.03136205 0.016850298 -0.0065716384 0.015303906 0.040797085 0.023145363 0.034409713 -0.0057182927 0.022834267 0.0072191316 -0.020554982 -0.00031060283 -0.00082185527 -0.032055195 -0.026900545 -0.0032686773 -0.018475508 -0.031236326 -0.000794879 -0.03841051 0.0024263521 -0.010721495 0.0037881637 -0.007956324
spent 0.0009891104 0.02803643 -0.018993389 -0.007859222 -0.025751835 -0.027562873 -0.008501558 -0.03126249 -0.008576348 -0.019632982 -0.018953705 0.030512514 0.021622032 0.010273495 0.032519132 -0.016309965 -0.005103475 -0.0040690782 0.025523616 0.034417234 0.019812517 0.05747535 0.022008197 0.011275224 0.010023662 0.03878082 0.002116682 0.027565993 -0.031551 0.018988702 0.0091617275 0.019454662 -0.018638719 0.014359219 0.0010896659 -0.0045182193 0.012565661 -0.009001013 -0.017699862 -0.021013271 0.016103936 0.016081499 0.001136152 -0.017829532 -0.005987185 0.024714073 0.0076699182 -0.024775134 -0.013738054 0.021814674 -0.048787422 -0.008699512 -0.00721185 0.0053630527 -0.009357529 0.020481143 0.0031634353 0.0059573515 -0.009247196 -0.004200613 -0.012473507 0.010593977 0.013412582 0.0097018 0.011232053 -0.00278376 -0.02047181 0.020372761 0.024636097 -0.0077364077 0.023200233 0.027003795 -0.016719792 0.004382902 0.02137003 -0.0062705697 0.018131664 0.04721674 0.00081936107 -0.022205928 0.03662509 0.009582509 0.07996236 -0.03270956 0.042589966 -0.033524234 0.0093092825 -0.016041152 0.011753386 0.0063716965 -0.006598311 0.008118746 -0.013163701 0.013720788 0.027607283 0.0013558753 -0.01603659 -0.021710275 0.01281729 0.009429906
poverty -0.008392912 0.07265172 -0.0002372805 -0.08651063 0.039959118 0.0032093045 -0.013538257 0.01339829 -0.004502547 0.019983433 0.11384993 -0.0504279 0.03781859 -0.031089336 0.06026451 0.032755267 -0.12274531 0.035977002 -0.03596095 -0.031805247 -0.008734608 0.029672422 0.019335272 0.11066637 -0.053093262 -0.04570456 -0.045336895 0.0053200712 -0.030267928 0.032632936 0.00999616 -0.0019714483 0.0077940235 -0.029118145 -0.026924597 0.007162465 -0.029353833 -0.124107085 0.0058573345 0.022778127 0.024769817 0.013805248 -0.003934985 0.09105486 0.043274954 -0.06598239 -0.034332074 0.12544794 -0.021528114 -0.025398204 0.062260047 -0.0085296 0.0099197 -0.004861449 0.06364374 -0.03191878 0.038709916 0.13815346 -0.0005242778 -0.08184409 0.021860749 -0.009841754 0.058558833 0.060756914 0.0409024 0.049549676 -0.04797186 -0.037841026 0.06449488 0.018189173 -0.034820236 -0.032199543 -0.039253905 -0.024773693 0.020375656 0.0348266 0.008770288 -0.03902565 0.07100553 0.006987566 -0.048130225 -0.027709318 -0.057223916 0.040032115 -0.037601903 -0.057066396 -0.05714421 0.06613941 0.05669435 0.10844217 -0.024921257 -0.07255762 0.06852831 -0.048683405 -0.13237754 -0.0787905 0.09050154 -0.041127045 -0.026838925 0.029411178
absolutely -0.01641221 0.010101824 0.015517328 -0.0035773257 -0.04173632 -0.014703568 0.011686566 -0.003257413 0.012171378 -0.008473649 -0.054839414 0.012467615 0.0017779615 -0.01277924 0.021760033 0.03134427 -0.019821221 0.016449988 -0.029936202 0.0032543107 0.03017291 0.019673664 0.020765457 0.006088073 0.035079036 0.021782512 0.0026673903 0.05814036 0.019100051 0.021916496 -0.017082244 0.0020724419 -0.014792306 -0.036336698 0.016815854 0.024777358 -0.04159796 0.03267723 -0.01635933 -0.02998443 -0.026930511 -0.0039900383 -0.0076915966 0.00659805 0.032283925 -0.02920637 0.03573693 -0.022791535 0.011813523 0.010964661 0.022120537 -0.040017307 0.007786301 -0.007470542 0.0032350835 -0.010236787 -0.045245834 -0.00986833 -0.0077873357 -0.0031524154 0.008761346 -0.009749515 -0.009314277 -0.030915814 0.003467707 -0.021901248 0.012618091 0.002105794 0.016461603 -0.01169456 0.018526038 -0.0061274488 0.0025982782 0.02102172 0.010635366 -0.0013237605 0.0339455 -0.0007411269 -0.01794544 0.022052307 0.0014522639 -0.005002649 0.026596455 -0.007844517 0.0015927053 -0.020203305 0.026557818 0.024775771 0.007683206 0.025440836 -0.016741874 -0.0052574086 -0.049770907 -0.0020596734 -0.020145608 0.030049967 0.013040175 -0.0101983305 0.010250697 -0.0059169605
discrimination 0.011723958 0.013544529 -0.0103056105 0.044613864 0.005233738 0.017055124 0.012657389 -0.010493454 0.0287666 0.0062986366 -0.042850036 -0.021095688 -0.04086188 -0.027477324 -0.00025708193 -0.055457458 0.009826437 -0.008529726 -0.041173436 -0.02089463 0.018471865 -0.016251344 -0.011167646 0.009153791 -0.016852707 0.037687954 0.010251366 0.0075521367 -0.006710165 0.010337507 0.005633801 0.028236143 0.0012613423 0.026826542 0.016154634 -0.027319737 0.026779616 -0.03053285 0.012288511 0.010150308 0.020795047 0.0034810628 -0.008915864 -0.0052773366 0.024240872 -0.02064437 -0.015908265 -0.0208533 0.0027885744 -0.008782884 -0.052535586 0.017257744 0.017289912 0.008651145 -0.0183315 -0.0019935684 0.012257483 0.0013408456 0.0076183663 0.004962849 -0.020754116 0.038681757 0.0076202294 -0.045380842 -0.0021825396 -0.0027180258 0.06439131 -0.036653228 0.00577953 -0.005384936 0.0041831126 -0.029198742 0.0005722112 -0.020012833 0.0039227013 0.029542312 0.022983992 -0.023983143 0.030781865 -0.02694316 -0.0015070055 -0.0013229663 0.053547405 0.01941445 0.018690675 -0.034920394 0.017230524 0.0126452595 0.019339222 -0.02644627 0.03176852 -0.034836385 0.03425852 -0.001876419 0.003930842 -0.010203924 0.0064049317 -0.0120178545 0.017937455 -0.0027373508
overproduction -0.0141126765 0.011358887 0.016773857 0.03470102 0.018561218 0.03730959 -0.041264843 -0.036507923 -0.036267582 0.034316663 -0.0018220965 -0.03538713 -0.043251332 0.033891026 0.021667538 0.052227303 0.06318424 0.027062465 0.015730456 0.011535756 0.021608766 -0.011137729 -0.047655847 0.0047245 0.051481947 0.010303856 0.011208609 0.031184118 -0.007924651 -0.01113823 0.03893573 0.0065217484 0.023767877 -0.024648052 0.011418765 -0.0062687853 0.053524345 0.03557621 -0.036414742 -0.03277293 0.051244244 0.0060058576 -0.058174353 0.0022206926 0.019803641 -0.08787265 0.108728416 0.108886845 0.029951474 -0.01429602 -0.035539784 -0.030958029 0.019694183 0.0063232835 -0.024261966 -0.020617912 -0.053302642 -0.0009558225 -0.014840735 -0.0057934923 0.029414618 0.023060076 -0.009500539 0.059071507 -0.025835875 0.036037114 -0.023589503 -0.081305124 -0.027665772 -0.032231405 0.020519644 0.018093113 0.07290209 -0.02063973 -0.016682848 0.0072567537 0.033088394 -0.069553904 -0.023041358 0.0022614156 0.023644665 -0.008620124 -0.0028048018 -0.021730868 0.020812849 -0.06809497 -0.0387201 -0.005133474 -0.02215348 0.0026863937 0.03338346 -0.024150673 -0.055158105 -0.000572089 0.07132213 0.011853468 -0.012246173 -0.013908338 -0.05869496 -0.0019642196
element -0.017517827 0.001837481 0.023658501 0.039622553 0.0031908401 0.004885172 -0.02104295 0.017767353 -0.03111724 0.00350329 -0.044433944 0.04844362 -0.026492555 -0.026438368 -0.0018399182 0.01940077 0.0013868088 2.0700689e-05 -0.0057769236 -0.0022235818 0.00016467809 0.0080142645 -0.022272091 0.02015327 -0.0071674176 0.024205152 0.04020676 0.0012980236 -0.009786852 -0.023516739 0.008604421 -0.011745675 0.007838312 0.028085388 0.03492412 -0.0045968406 -0.016406232 0.0081177745 0.01672445 -0.013752276 -0.0021106033 -0.0114554 -0.020437779 0.005513088 -0.03192827 -0.019842846 0.055013325 0.0031882583 -0.024004074 0.016607001 0.014474591 -0.018246034 0.0069404384 -0.006725409 0.024169512 -0.027044132 0.007970225 0.024970653 0.022597602 0.036251627 0.027767152 0.013450583 0.0172568 0.024832116 0.02059805 0.00327915 0.017154591 -0.006862876 -0.0130948955 -0.046076477 0.004762616 0.0038530887 0.041314255 -0.0099483635 -0.024581848 -0.01351454 0.03315225 -0.007554961 0.010741434 0.0042593437 0.024862256 -0.0023407952 -0.032550916 -0.0023066134 -0.034710977 0.0023459194 0.026874129 -0.030484296 -0.0061174207 -0.0061040055 -0.0253713 -0.039526172 0.040077962 -0.010002148 -0.026465796 -0.0038377494 -0.008352911 -0.005940458 -0.00624376 -0.025680954
transmission -0.011587289 0.0044335728 0.032727025 0.012535302 -0.017706176 -0.0068184747 -0.03355471 0.052017737 -0.0054506306 0.020431885 -0.020585032 -0.008202505 -0.029542677 -0.03152027 0.0006876914 -0.013727792 -0.0010160223 0.019564927 0.022178954 0.032161616 0.010044902 0.008064699 -0.038617596 -0.023405815 0.012554176 0.0029047339 0.025641514 -0.0013490013 0.019909263 -0.016940365 -0.0079752635 0.0050519663 0.0037256489 -0.05276196 -0.0027215842 -0.00033301383 0.0008677357 0.03059915 -0.038843684 0.0019518503 0.013590227 -0.010671742 -0.004804113 -0.028139919 0.0054858765 -0.014373539 -0.011202313 0.03216409 0.010590471 -0.01468503 0.01577135 -0.011605787 -0.00082520884 0.0108055 -0.008351109 -0.039802648 -0.010845908 -0.039972246 0.055596825 0.01566844 -0.025599226 0.0033921227 -0.021406688 -0.013616766 0.023269001 -0.015443854 0.011591622 0.029577833 0.02528829 -0.023844216 -0.020071242 -0.025362307 -0.01991727 -0.0070178146 0.049186327 0.00044693137 0.034912787 0.0047863033 0.009193571 -0.01921485 -0.023091266 -0.01668118 -0.011056795 0.0063524535 0.028103579 -0.0069449414 0.025871458 0.021222364 0.012141437 0.029197581 0.04250752 0.032386873 -0.025249857 0.035846826 -0.0044806255 0.028946377 -0.013689534 -0.016336234 -0.008591536 -0.008032517
commitments 0.0039514764 -0.026822817 -0.11521975 -0.09465314 -0.06740202 -0.012961045 -0.017814487 -0.077003695 0.052777935 -0.028395316 0.08309514 -0.05525907 -0.032550123 -0.051890206 -0.116251014 0.045162555 0.04355497 -0.05602438 -0.05289703 0.015587899 0.047577742 -0.03405637 0.059854303 0.089407094 0.032120127 0.047964416 -0.023745045 -0.053912573 0.040565357 -0.05855517 0.024658702 -0.029065413 -0.009218319 -0.017611125 0.06324916 -0.023979347 0.022278052 -0.0144993 0.0077716024 0.017313298 -0.07519174 0.032882895 -0.054081406 0.031634793 -0.009041951 0.08695277 0.058990844 0.010932591 -0.08897899 0.087784745 -0.014728622 -0.059218764 0.05097172 -0.043874886 0.047133297 0.07359093 -0.0077493424 0.018443713 -0.07895161 0.028749336 -0.073363505 0.0113851065 -0.071754225 -0.09163634 0.01953151 -0.076360025 -0.12903394 0.052977774 0.041236367 -0.029897636 0.036992207 -0.014970452 -0.05948686 0.0031551206 0.09018561 -0.06873441 0.021515466 -0.055491246 -0.025595672 -0.014015491 -0.13173762 -0.024553431 0.06942701 -0.028459074 0.070932694 -0.08281483 -0.018341219 -0.05812683 -0.08064805 -0.010879675 0.016503992 -0.012248193 0.084665455 -0.04222542 0.07832023 -0.045152616 0.0016128069 0.0071803983 0.064643286 -0.023788229
relieve -0.012522606 -0.009390767 -0.012601816 -0.0038230666 -0.014508048 -0.012531828 0.023967942 -0.01781405 -0.012372034 0.0075640758 -0.012982753 0.008835651 0.0040124496 0.02211279 -0.012911044 0.003464882 -0.05203731 -0.008142929 0.017593699 0.014405042 -0.02865678 0.03162467 0.01421269 -0.010282648 -0.00812351 0.038189642 -0.024855318 0.0023673493 -0.02245102 0.008300447 -0.011585093 0.013060239 0.003431951 0.026195904 -0.016622541 0.014206808 -0.0055013276 0.022904411 0.024273194 0.0077088038 -0.018513221 -0.0066980943 -0.0008172053 0.02574701 -0.0017390845 0.035919428 0.00920027 0.002216617 -0.010441614 0.007047617 -0.017349422 0.01936958 -0.0099711 0.018709425 -0.004346272 0.010261379 -0.030023549 0.02915485 0.0016860834 -0.009205213 -0.050547685 0.005052708 -0.028230028 0.0031074106 0.03685286 -0.01038187 -0.03512707 -0.041471217 -0.020349927 0.01325029 -0.00339629 0.029681476 -0.009845031 -0.012603108 0.007431476 0.014809011 0.01824414 -0.00095670216 -0.015078285 -0.005951115 0.019649483 0.0125371935 0.02382127 0.010834994 -0.0065842657 0.001325221 -0.02205074 0.034140646 -0.009049482 -0.021660842 -0.013342832 -0.008204911 0.016338058 0.0049666986 0.001831155 0.0046996213 -0.018002247 0.005117847 -0.0027224738 -0.010304253
International -0.0010542048 -0.008077523 -0.045697607 0.0075591374 -0.005355671 0.009951895 -0.02336549 -0.010657711 0.024980819 0.011214583 -0.018297385 0.014825018 0.005591195 0.004475192 0.0038293116 0.0628638 -0.010447848 -0.014747436 -0.019745473 -0.029485447 -0.01814838 -0.0062542073 -0.033177685 -0.0348832 -0.029295584 0.003275686 -0.0027344734 0.0071233315 0.018701613 -0.033096537 -0.022527916 0.030463967 0.0060454486 0.0003370624 -0.0037625427 -0.009083161 -0.04515684 0.014330589 0.0014550058 -0.025558917 -0.0082675805 0.010807793 -0.0019874296 -0.028134083 -0.020975986 -0.0004105243 -0.00019233482 -0.0020779301 -0.024642743 0.02840061 5.5946293e-05 0.0019198788 -0.0023101857 -0.049170457 -0.02001256 0.0012365974 0.026125658 0.0104179215 0.01618424 -0.03069026 -0.006370934 -0.029827466 -0.0096338745 0.02011899 -0.010983425 0.0009087709 -0.03987935 -0.038614195 -0.051296543 0.026499065 -0.0059084883 0.03909532 0.015014671 -0.008407287 -0.032581527 -0.013454413 0.008393809 0.0043613864 0.042039268 0.038759053 0.0255155 -0.027002418 -0.013196429 0.0005440572 0.010746157 -0.032783285 -0.023445196 0.0017995646 0.031732738 -0.04965354 0.008211595 0.019704178 -0.0072178002 -0.02540113 -0.037327226 0.022613332 0.011090992 -0.0216171 0.015761781 -0.010043126
rain 0.01717527 -0.024576562 -0.0017593035 -0.01505093 0.044594925 0.026209777 -0.0067043733 0.016247615 -0.012765573 0.048424214 -0.003173743 -0.03424815 0.04467113 -0.080564596 -0.064995475 -0.007738894 -0.030838171 0.0103392275 -0.0069602495 0.007876077 0.026261298 -0.003982676 0.038851973 0.024658922 0.0010906358 0.01708257 -0.06212329 -0.011717558 -0.0020860813 0.012594707 0.014488448 -0.04506534 0.014934025 0.034702413 -0.007182819 -0.004367205 -0.0170542 -0.02443823 0.0045421347 -0.016487148 0.0086873155 -0.018724702 0.00084156037 -0.019365134 -0.005866074 0.013565726 -0.03659253 -0.0014158265 -0.03069726 0.031523544 0.035274073 0.010367062 -0.019071588 0.018945616 -0.036737315 0.050724097 0.018542865 -0.08159777 -0.016955592 -0.0076972987 0.0461422 0.0270958 0.04358288 -0.0044142497 0.031673085 -0.027023287 0.038816426 -0.004161215 -0.0024895028 0.02190625 0.009004906 0.033212226 -0.07652343 0.0035828003 0.010914122 0.029076135 -0.049364932 -0.019079363 0.0077021467 0.01272339 -0.024223937 -0.05324319 0.004414965 -0.022167621 0.06700018 -0.0064751427 0.014380371 -0.04209783 0.026592681 0.023155415 -0.0038356457 0.0010577716 -0.002278736 -0.03994067 -0.035289437 -0.013344719 0.024970314 0.04420832 -0.016447322 -0.027413681
Montreal -0.023170073 0.0037870726 0.00928637 0.021591118 -0.01782353 0.006496403 -0.009862308 0.0103143705 -0.031091224 -0.024418367 -0.0004729093 -0.025061969 0.007129619 -0.01846553 0.0221715 0.023855321 -0.027102098 -0.0433243 0.011675506 0.031898625 0.025213193 0.013220348 -0.0021477093 -0.013486988 -0.0034545679 -0.0047252057 -0.027181571 -0.016004039 -0.0035200976 -0.009552 0.0056306045 -0.011622333 -0.0021565906 -0.035404775 0.01990434 -0.024109093 0.01400321 -0.03176185 0.011933454 0.018172352 0.035907056 -0.024556434 0.01981587 0.07866057 0.035689488 0.024778526 0.0020415531 -0.03381449 0.049207613 0.040808544 -0.003873454 -0.027325587 -0.033887397 -0.0115970075 -0.040892042 0.006098244 0.031289816 0.025596403 -0.025014918 -0.0075164633 -0.024565803 -0.053439587 -0.0005185623 -0.035031624 0.0075106616 0.023434611 0.02294725 0.012188329 0.022611676 0.018859815 -0.0030823427 -6.463105e-05 -0.025617758 0.021052828 0.01770748 -0.032572668 -0.026293948 0.044672266 -0.028971402 -0.022211727 -0.0293173 -0.0034549097 0.013366532 -0.0469386 0.0063078376 0.019110424 0.0058461563 -0.0034541434 -0.031824425 0.012793928 -0.007814273 -0.0045972955 -0.020282816 0.025109025 0.049742326 0.021675061 0.034008972 0.022431664 0.015489044 0.03235785
arise 0.05434837 -0.053610716 0.045204144 -0.014231906 0.010815592 -0.030319538 -0.0017887166 -0.03323865 0.035504922 0.023358043 0.017940098 0.0031016502 -0.06600373 0.007868277 -0.0054053143 0.0072460514 -0.002046379 0.021049492 0.08486312 -0.03449748 -0.013698722 0.031471036 -0.0395905 -0.02446879 0.05209096 -0.0047585266 -0.012435174 -0.03194867 0.03724249 0.018989207 -0.039158147 0.044259958 -0.004321605 0.007983944 0.03211358 -0.014881673 0.0031690951 -0.015737645 0.017269442 0.01481666 -0.002449189 0.026216773 -0.02640454 -0.0060174074 -0.02477403 -0.10846675 0.06628188 0.0027516433 0.037049998 0.04462491 0.035308786 0.041595716 0.043243337 0.008926838 -0.0060670692 0.029280575 -0.046225093 0.022266133 0.039971996 0.009493625 -0.0026439298 0.075851284 -0.05871164 -0.005133036 0.022456085 0.04684436 -0.01862657 -0.03404358 0.042185348 -0.081248246 0.012129642 0.026233977 0.022222478 0.008495984 -0.026485253 0.08762926 0.06404875 -0.005780631 -0.0030636755 -0.023110049 0.037356086 -0.013024065 -0.028523168 0.028601112 -0.054495677 0.07928755 -0.041654482 -0.050169136 -0.013058902 -0.0060409517 0.025487175 -0.04822967 0.079531 0.017321542 0.00074680796 0.047951207 -0.049015425 0.021660544 -0.044264708 -0.030799653
contradiction -0.047000274 -0.011035084 0.009844853 0.007212432 0.0015388582 0.01426826 0.015434615 0.025456728 -0.035766643 -0.009353876 -0.0036584525 -0.005679626 -0.008256431 0.0030599188 0.0075709387 -0.019016933 0.026169509 0.022017151 -0.0014254546 -0.017491957 -0.014984298 0.018608473 -0.0047093146 0.0057493704 0.043030977 -0.031685274 -0.016421307 -0.005393258 0.02246328 -0.0026403787 -0.0044330508 -0.010981379 -0.024565732 -0.006915765 -0.0035075308 0.0074166474 0.0025672705 0.023624342 -0.0052540596 -0.013849133 -0.010063115 -0.003963298 -0.0035718535 0.038772643 -0.02542874 0.023135211 -0.003784081 0.008489579 -0.00401007 -0.021169944 0.0045992387 -0.005615546 0.0014623292 -0.0047274907 -0.008463182 -0.001691767 -0.012590919 0.029512001 0.042497344 0.014819824 0.011634365 0.011474489 0.024474043 0.003670426 -0.0052052024 0.019072803 0.012505909 0.014879401 0.03742266 -0.016993046 0.014472176 -0.039217807 0.01433707 -0.006566084 0.015248088 0.0077144415 -0.012071846 0.00089172536 -0.032592826 -0.0028971145 -0.028813774 0.010409423 0.019349722 0.028770994 0.026048185 -0.0109415315 0.033961177 0.0035270664 -0.011777049 0.025557728 0.01052645 -0.00016457417 0.0136294495 -0.027278213 -0.0025697201 0.021812383 0.010621223 0.0020107687 0.005906111 -0.0040398687
indicated 0.001154532 0.012191791 -0.04008755 -0.028324565 -0.022849686 0.011533042 -0.018967733 -0.005208411 -0.0028470391 -0.016899023 -0.018877883 -0.010462785 0.053330295 0.0055961558 0.018718543 0.0016735147 6.6714245e-05 0.017121453 0.011157372 0.026774555 -0.010315036 0.03173701 0.01380007 0.014773899 -0.0057484326 0.012560033 0.0004909206 0.022186344 0.021104017 0.008023499 0.0016232678 0.004696796 -0.04501772 -0.012052725 -0.006958544 -0.008408961 -0.03078235 0.025108417 -0.033601444 0.013349339 -0.011445388 0.0060094697 -0.020127922 -0.016086083 -0.00090860564 -0.0058136955 -0.031041844 0.020155685 0.030436102 -0.03587931 -0.009970159 -0.02262624 -0.012666743 0.0049072253 -0.0038959007 -0.010305462 0.026077516 0.0036018637 -0.010953141 0.00484374 -0.03912906 -0.023398982 0.0065437565 -0.015830088 0.023206772 0.010076175 -0.0036953003 0.026456947 0.004714627 0.0072172172 -0.015063517 -0.013838505 0.004089603 -0.0148722315 -0.008953297 -0.0067047635 0.029653104 -0.029896 0.022611456 -0.02600732 -0.012858655 0.018030398 -0.020859469 0.029181518 0.00025629895 -0.011775712 0.011707882 -0.013332945 -0.0045707 -0.022965861 -0.0020925137 0.019738391 0.00060895574 -0.0075342087 -0.021622369 0.013127816 0.0058212997 0.021076454 0.020173345 -0.008713989
fine 0.007075052 0.0007786533 0.01018417 0.027860975 0.026432814 -0.02905632 -0.034239206 0.015102691 -0.0046096467 -0.059356976 -0.024160387 -0.024355158 -0.014550104 -0.03149183 0.020293988 -0.005091165 -0.00036708894 0.009707315 0.030839378 0.02332114 -0.03320381 0.024016095 -0.036092397 -0.032327298 0.01396277 -0.012659712 -0.031154709 0.00028225308 -0.027579872 -0.024618126 0.010016518 -0.0061448207 -0.06629163 -0.0020990162 -0.030812526 0.0051469575 -0.007535303 -0.002268002 0.04118862 -0.016508317 0.0026454385 -0.002247972 -0.026770353 -0.009608203 -0.0034128411 -0.05079883 0.0051636933 0.037774485 0.008390867 0.013545826 0.007774122 -0.006429542 -0.044022705 -0.021925692 0.03193184 0.0057694335 -0.048287593 -0.02853017 0.047857802 0.00056048046 0.026274258 -0.029645419 -0.0015749813 0.04748656 -0.004309313 -0.0021448685 -0.016288118 -0.015306426 0.0061434153 -0.055517945 0.014783672 0.0021727695 0.009462381 -0.03228297 -0.032903012 0.031675033 0.034452092 -0.023669554 0.026655158 0.014314252 0.001708056 -0.02451064 -0.0082429275 -0.010749096 0.01330364 0.016362352 0.0074040894 0.020965572 0.019684851 -0.003753472 -0.00092958956 -0.031494237 -0.008941275 -0.01775809 -0.022289854 0.025380319 -0.021125255 -0.0013228506 -0.010586366 -0.019829653
drug 0.009290184 0.020208064 -0.007801012 -0.01825348 -0.009965712 0.02212593 -0.05617986 0.013325553 -0.008780985 -0.015536202 -0.028724305 0.018907791 0.010945279 0.051302522 0.016555682 0.003763843 0.0021489584 0.01466179 0.0029361385 -0.03980116 0.0033753414 0.009075645 0.032512818 0.0042286175 0.010656269 0.02895144 0.008920526 -0.03365297 0.016032323 0.005072772 -0.05386508 -0.023274137 0.015083133 0.05740996 -0.020953577 -0.024269518 -0.015110957 0.0016564194 0.009053431 -0.013856841 0.0017508991 0.008345894 -0.0023627188 0.01589253 0.00024795003 0.037300717 0.042478062 -0.0018885424 -0.0050696153 -0.020209594 0.00032231637 0.0013547225 0.016827915 0.027586313 0.03626199 0.015594454 0.029384227 0.0059510535 -0.03110744 0.00013545877 0.012837071 0.016930498 0.014132509 -0.0019111296 0.0011301069 0.0033156828 -0.049248222 0.009258655 0.025622195 0.06863705 -0.027951445 0.03382145 -0.015998807 0.04482389 -0.019089034 0.02935055 -0.038305968 0.0026581124 -0.014138864 -0.010131144 -0.012153117 0.02353008 0.0032912332 -0.017312758 0.0018053709 -0.016431792 -0.036197245 0.026330205 0.0008382549 -0.036104422 0.005648566 -0.018937053 -0.018607197 -0.014612428 0.0024778189 0.01723807 0.038627457 -0.023445584 0.013163832 -0.009973927
society -0.010193344 -0.01725524 -0.006870807 0.040325493 -0.0067534912 0.03610446 -0.011316442 0.008679228 0.0003150488 0.03156635 -0.017346516 -0.019750154 -0.041610375 0.016629206 0.03487501 -0.029381411 0.028758751 0.006338246 0.020031035 -0.004112953 -0.008775461 -0.009063196 0.032984342 -0.00012729818 -0.019259034 -0.0010321395 -0.016019005 -0.0042906282 -0.0009889288 -0.040838175 0.02414738 0.020700289 -0.018607132 0.020139376 0.016706012 -0.04709645 -0.0036710727 0.02361101 0.002179179 0.024133528 0.02488934 -0.03200314 -0.035504427 0.0057516373 -0.00472071 -0.0042427187 0.0058169514 0.011084339 0.016116677 -0.005637557 0.003902581 -0.009791153 -0.017717056 -0.0074357856 -0.01446968 0.013150061 0.0246086 -0.02185168 0.031790115 -0.0078115417 -0.020391319 0.014317192 -0.025063794 0.012406561 0.0065769684 0.004807286 -0.0058239494 -0.0004409689 -0.00095398724 -0.0011918457 0.04053477 -0.03097785 0.022886429 -0.0057080956 0.0027747315 2.5671558e-05 0.039676435 -0.039706938 0.012201424 0.0621113 0.015680945 0.013947363 0.004507637 0.0022404876 0.04415343 0.016680678 -0.00046095706 -0.010672 0.03372383 0.019087844 0.010126659 -0.015745463 0.0080608465 -0.017322065 0.026713239 -0.02641488 -0.023990935 -0.014097711 -0.010195485 -3.4087978e-05
caucus -0.00041238742 0.014664175 -0.008682437 0.021426525 -0.015950825 0.0053196717 -0.0062387683 0.025307829 0.008588807 0.009791663 -0.025268052 -0.026840892 0.0031787492 -0.0011886626 -0.0140102245 -0.008313217 0.013940383 0.011258915 0.008026133 0.011552453 -0.009475356 0.017714454 -0.033210155 -0.029201437 0.011518353 -0.026573587 -0.013669068 -0.010804852 0.018109113 -0.002328769 -0.030681424 0.028875872 -0.0021617827 0.013980213 0.02679059 0.011434537 -0.03430165 -0.016762402 0.040875707 -0.025748214 -0.043200012 0.015252479 -0.013620142 -0.034673985 -0.0337237 -0.03776009 0.0016630755 -0.014885397 0.0053877695 -0.00241345 0.015728664 -0.011569465 0.010685546 0.0092064515 0.013143435 0.021490915 0.016358376 0.0010890486 0.007002983 -0.026847208 0.02244477 -0.019885842 -0.023310788 0.034479156 -0.001640024 -0.018656852 -0.0013861387 0.02039434 -0.006792829 -0.015265974 0.037135914 0.0008678823 0.032658268 -0.0113070225 -0.05057498 0.012239402 0.020554196 -0.061536606 -0.006550744 -0.012582678 0.010236049 0.014780757 0.013005227 0.016705826 -0.00678454 -0.010872543 0.034168206 -0.011579784 0.023499195 -0.026736854 -0.022543395 -0.032234136 -0.010085394 0.03427646 0.010351452 0.0145940995 -0.0025967853 0.0016242254 0.014495798 -0.0007190779
last 0.05119397 -0.001058211 -0.005285036 0.0020376656 0.04495968 -0.02384061 0.024226667 -0.0122905355 -0.027471991 0.034973547 0.0058692945 -0.02119914 0.005900925 0.009105324 0.0018117272 0.0180737 0.022388952 0.009279184 -0.019061526 -0.011047255 0.012784614 -0.0011207901 0.003796589 -0.0069333613 -0.027814697 0.012249637 0.04487631 -0.021403043 -0.015116876 -0.035903193 0.026051486 0.0045576678 0.00571273 0.032400474 -0.012885554 0.018424 0.0017652491 -0.010667129 0.020221727 -0.01571234 -0.004787985 -0.014128609 0.00016835111 -0.0035597188 -0.010289453 -0.037588682 0.011204817 0.011047226 -0.012116265 -0.010141406 0.01851595 -0.022945022 0.020498479 0.0067614894 0.00263204 -0.010589163 0.008402916 -0.0038131573 -0.009298602 0.029076498 0.03987427 -0.012476257 -0.026435379 0.03288813 0.026841769 -0.02580361 0.021296756 0.010905174 -0.066266105 0.026821649 0.005193153 0.037817165 0.03172195 0.0040294467 -0.02024986 0.002359712 0.026499301 -0.027794218 -0.0079692025 0.00062602496 -0.035200678 -0.003893042 -0.032098696 0.02422789 0.020147095 0.02080911 0.05081353 -0.016129524 -0.0045657833 0.006864639 -0.0071637114 -0.020387907 0.03250629 -0.018443333 -0.026244476 0.0068425406 -0.026198186 -0.0052592964 0.019619217 0.015112787
Beaches -0.067149684 0.034233555 0.02425123 0.056465283 0.026483469 -0.008859748 0.0154545065 -0.019720413 0.052056037 0.0037157326 -0.018638821 -0.06263224 0.04205895 -0.07695112 0.010891275 0.022332465 -0.0067216083 0.008030245 -0.05702616 -0.0862197 -0.09492712 0.0022990787 -0.009099178 0.028062731 0.08669211 0.040519264 0.004355201 0.020045828 0.09607607 0.006283355 -0.0032412624 -0.0023128977 -0.00857488 -0.07270396 -0.07366772 0.06165684 -0.056727495 0.026156152 -0.0155067565 -0.05837953 0.08138932 -0.0043521863 -0.008458331 0.02851366 0.005858698 -0.024500309 -0.09427005 0.026751246 0.00016216398 -0.009952307 0.048208244 0.0277935 -0.02111506 0.024654184 0.013579092 -0.076604076 0.077647984 0.0095831435 -0.014216746 0.007209229 0.050416183 -0.046283882 0.038093977 0.019968716 0.016282521 -0.030597938 -0.010727556 0.016623491 -0.025100019 0.0018435929 -0.10585747 0.12433084 0.058791004 -0.06822686 0.053290676 0.027078591 -0.068419315 -0.020532398 -0.07320497 -0.017967636 0.012776711 -0.0034565968 0.0342044 0.06474484 -0.04723898 -0.015870517 0.069339804 -0.027718307 -0.10120228 -0.05866983 -0.04822438 -0.038092908 -0.044061445 0.08729558 0.07596927 0.05335851 -0.034986593 -0.089784235 -0.053412016 0.021216402
boring -0.03133866 0.026205858 0.016022693 0.012627839 -0.00563712 0.013434373 0.0058857873 0.011297292 -0.020728318 0.013350614 0.011636557 -0.014434759 0.00561701 0.035595335 -0.042086795 -0.017477352 -0.014384078 -0.02253556 -0.013845123 0.015143819 -0.012296253 -0.010051004 -0.02604694 -0.029257897 0.01622542 0.020023704 0.012870487 0.020735526 0.008586261 -0.016703691 0.016947428 0.0038629165 -0.014883946 -0.004488099 0.030177295 -0.0031379438 -0.0074792993 0.017845752 -0.04039821 0.008284271 0.020571327 0.022013849 -0.019732984 -0.022036826 0.026592204 -0.017183501 -0.0081267385 0.0038466456 -0.0018248116 -0.015094811 -0.006225219 -0.016296102 -0.019019788 -0.0583888 -0.041015908 -0.013079914 -0.021555923 0.0023371747 0.0036712743 -0.01946939 0.017563643 -0.0123701235 -0.017939115 0.0034032785 0.029508162 0.030931717 0.00701547 0.025210505 0.03432076 -0.009036319 0.0070048072 0.022639262 0.03610316 -0.036037162 -0.0019329551 -0.019268282 -0.021802908 0.004034535 -0.007579819 0.034132533 -0.0035661878 0.018206539 -0.0023980082 -0.041652095 -0.0038518878 0.007273391 -0.003162825 0.029259577 -0.021602694 -0.069516286 -0.030667914 -0.03218328 -0.044051785 -0.029447148 -0.0050023347 0.032620475 0.022810465 0.010126028 0.01060123 0.009052509
fully -0.010532922 -0.003404891 0.015749311 -0.0181704 0.017265584 0.028014537 0.018005727 0.023663243 -0.005956283 -0.004781809 -0.008216937 -0.04656871 0.01284799 -0.003328291 0.02554494 -0.023028791 0.034318097 0.002306523 0.011187986 -0.026624357 0.0011098378 -0.0062133055 -0.016999753 0.03474172 -0.0047594975 -0.027051553 0.0148108555 -0.0025928537 -0.022865316 0.014779206 -0.004945843 0.02212993 0.006980147 -0.019200046 -0.020840101 0.010004198 0.002758348 0.02204776 -0.0023994069 -0.0012219701 0.012350603 0.037720907 -0.0109138535 -0.0058629727 0.0024704852 -0.028727967 0.02515922 0.0026216023 0.011050615 -0.027649242 -0.06941745 0.020420874 0.022613978 0.0075214193 -0.0073048896 -0.040877923 0.017959682 -0.0012495157 0.017513886 -0.024247894 0.014749012 0.0044723926 -0.013194062 -0.024846261 -0.014343121 -0.008873228 0.012921107 -0.045782156 0.0011917753 0.023786446 0.032080863 -0.02027942 -0.0027983559 -0.01210862 0.0020417497 0.00055306836 -0.02621206 0.018242193 0.03216864 -0.014481552 -0.0009439143 0.033601042 -0.02825089 -0.015771767 0.042671673 0.0005888967 -0.00072339474 -0.0063373805 -0.023508389 -0.018892692 0.010912622 0.008513349 0.013469303 0.007609129 0.007181438 0.024892692 0.002152565 -0.0045221527 -0.011568366 -0.03363535
wife -0.029847184 0.06154765 0.023379697 -0.011789983 0.000275495 -0.021162778 -0.023786047 0.036820423 -0.01351058 -0.0027747294 -0.055821475 0.0055739605 -0.0054780836 0.010055142 0.034153737 -0.012411704 0.039516844 0.031827472 -0.036129866 -0.01860878 -0.012178868 -0.0027046213 -0.024039201 0.014827946 -0.0071085487 -0.026066596 0.011542577 -0.02305203 0.04379686 0.0013280392 -0.040680256 0.03649658 0.021646453 0.0153954625 -0.0024172864 -0.024085613 -0.00791816 -0.021045322 -0.008581726 -0.024236683 0.02280876 -0.0064253937 -0.037786726 0.037004538 0.0076584094 -0.058388535 -0.03696223 -0.00279505 0.0086143715 -0.033812918 0.037936073 -0.017978622 0.0038759038 -0.003244333 0.0074425726 0.021987932 0.02849638 -0.0334275 0.053643692 0.008728853 0.002806624 -0.030171238 -0.03736915 0.015048146 -0.048747767 0.01100216 0.016694888 -0.0028322695 0.025641138 -0.026016664 -0.021746047 -0.008170907 0.0147462655 -0.0011397115 -0.01730418 0.018394109 0.035272107 0.023613578 -0.012953422 0.003484496 0.024655873 0.007652131 -0.0023921235 0.012518257 0.0017137663 0.0038278587 -0.02133858 0.035245392 0.020203937 -0.026106143 0.008876919 0.0057258666 0.0048460755 0.01189302 0.030148152 -0.017272655 0.040242795 -0.0050769374 0.036949154 0.0049869632
recommend 0.060704824 0.008504804 0.09673232 0.03862608 -0.036881067 -0.043020338 -0.11359756 -0.04382454 0.008970315 -0.009779957 -0.035265222 -0.012849267 -0.010309514 0.019629499 0.040294155 -0.012609983 -0.030209877 0.0004130993 0.036082696 0.027298262 -0.0076986747 0.034035802 -0.09434604 0.017196946 0.012028955 -0.0445535 -0.06269417 -0.017260276 -0.028699892 -0.011944439 -0.033144094 -0.08025249 0.00063347747 0.04305784 -0.058130264 0.00022547599 -0.030640194 -0.020025762 -0.009665662 -0.015732115 0.047614746 -0.07145024 0.014523625 -0.083249986 -0.020695668 -0.019899393 -0.0016537943 0.035263818 -0.037708137 0.042534478 0.020552557 0.008559015 -0.018690601 -0.05460751 0.017014649 -0.02055271 0.09836577 -0.024585523 0.1028104 -0.027221438 0.068203 -0.04925675 0.07108057 -0.016072217 0.029959466 -0.05507476 -0.06136447 -0.056372147 -0.04989224 -0.07624974 -0.04176044 0.030863363 0.03244321 -0.027831139 -0.011958109 0.0042720158 -0.011807868 -0.024747651 -0.0125817405 0.016136251 -0.02162402 -0.025473377 0.0033816728 0.015736455 -0.06428452 0.0015285716 0.0047455397 0.008430935 -0.01642222 -0.03435729 0.012052657 0.042068932 -0.015874889 -0.049307086 -0.019381985 -0.04439551 0.0019331274 -0.019775664 0.0013742287 0.059788138
effect -0.02180857 -0.016154677 -0.019670779 -0.007820099 -0.012900878 0.021269973 0.040107105 0.043404054 0.014309961 -0.0138191525 -0.014015236 -0.00808761 -0.0013634607 -0.00920013 -0.05203456 0.016266014 0.024877802 -0.03553586 -0.020936886 -0.03842411 0.0154565545 -0.0047638826 -0.0049816733 -0.00961998 0.018341295 -0.011772162 -0.039079692 -0.007319716 0.0050582467 0.014137328 0.021970121 -0.002284674 0.01690554 -0.04268824 -0.028270658 -0.027303893 0.009989211 -0.0019371833 0.035367135 -0.032043606 -0.030819586 -0.008236438 -0.012148781 0.010422362 -0.011639303 0.010448411 -0.016054058 -0.019215122 0.009609335 0.033028208 0.045521185 0.0015689385 -0.0003787803 0.014168058 -0.021847393 0.063222334 0.0488769 -0.01906365 -0.05606324 -0.022775585 0.03960458 0.044475242 0.019737385 -0.0108301 -0.015355637 -0.02415338 0.019666234 -0.012664722 -0.0050613536 0.06675382 0.031998698 -0.00027804746 0.0066759465 0.0066182287 0.029799828 -0.0056618387 0.03058237 0.012405997 -0.030014968 -0.018129844 0.00055466883 -0.006628454 0.019696454 -0.0038907982 0.017370142 -0.0052886377 -0.020599937 0.011302427 -0.012416783 -0.026516687 0.04252556 -0.015293895 -0.010768655 0.04240708 0.055935066 0.037537314 0.015480796 0.04693843 0.003690281 0.013376594
providing -0.072562225 0.022849187 -0.033816047 -0.020702912 -0.029982824 0.026989944 -0.017678684 0.05307787 -0.0008885375 0.05022514 -0.0036605243 0.05267294 -0.07089607 -0.0074215815 -0.0047246492 0.01162597 0.0012533085 -0.009527577 -0.007786208 0.028500741 0.06697547 -0.029782435 -0.010860461 0.055908006 -0.02447564 0.008678144 -0.008632505 -0.07035826 -0.042736385 -0.012834282 -0.02356071 -0.0077737174 -0.0105977 0.031029942 -0.0060313432 0.02837435 0.02949378 -0.016698191 0.043629486 0.015797999 0.019404478 -0.03254217 0.0056442297 -0.011521869 -0.0029595424 0.006938669 -0.012273584 -0.0047820546 0.020129472 0.05691309 0.006252628 -0.04838474 0.02886893 -0.011202454 0.010563817 0.01535988 -0.028607465 0.010258172 -0.010461425 0.011131989 -0.02849883 0.00032504427 -0.00041104777 0.0011119959 -0.020328129 0.015193191 0.0037858987 0.017635081 0.010142844 0.07082038 0.016734589 0.026833944 -0.0279735 0.00975046 -0.0045247083 -0.045375567 -0.038551733 0.04740574 0.014446581 -0.02323573 -0.043654133 0.010125356 -0.0038591954 -0.0082376385 -0.00096665794 0.03221712 -0.04565165 0.03108452 0.032276627 0.0012110372 0.026303813 0.06562901 -0.04088785 -0.01639611 0.098807186 0.041251443 -0.0042227176 0.002822813 0.024248824 -0.007806389
role 0.021014376 0.018222073 0.029058835 -0.037854783 -0.040094636 0.05947113 -0.016564708 -0.0007395928 0.017367411 -0.018345533 -0.013839849 -0.0402832 -0.0017915461 -0.011503294 0.026385574 -0.033057425 -0.016985409 -0.0067490092 0.004162415 -0.018671306 -0.030823248 -0.025827197 0.0060357265 -0.023011733 -0.017253516 0.012407372 -0.01786143 -0.055926345 -0.021855993 0.006254076 0.037427176 -0.005725903 -0.057297193 -0.04482774 -0.027498392 0.013045019 -0.002934808 -0.055249106 -0.02407114 0.017513588 -0.009116984 -0.04841203 -0.007747012 0.0042168843 -0.043932244 0.040012274 0.004060813 0.011131732 -0.018776227 0.0460648 -0.026528312 0.034112 -0.017392997 0.009959042 -0.012234625 0.0043368605 0.039081797 -0.036865868 -0.040745724 0.023519404 -0.011608814 0.016710684 0.010594257 -0.012034723 0.04482281 0.0045862775 -0.019828474 0.04740696 -0.032321446 0.045866188 0.021471696 -0.044679012 -0.026042435 -0.0011741826 -0.014578191 -0.01906257 -0.021005632 0.012157446 -0.023476413 0.021818748 0.016368259 -0.06260517 -0.023989255 0.00066599424 0.037091345 -0.023473818 -0.013921823 0.0062946943 -0.0021489214 -0.008129541 -0.04982931 0.043292627 -0.023887455 -0.009664786 0.0041976925 -0.028281985 0.024136804 0.012596896 -0.04203768 -0.020002842
sense -0.010251541 0.0062533803 -0.005267396 -0.028945269 -0.02731311 -0.008058041 0.008129091 -0.0012388296 -0.018748384 0.0043840115 -0.0073369346 -0.0010339975 -0.0046319645 0.0056415405 -0.0067513776 0.036159024 0.00047102582 -0.012224399 0.021809185 -0.022270381 0.029343875 -0.007876281 -0.008099064 0.026752794 -0.012928356 -0.020969559 -0.015930787 -0.0059741456 0.00736348 0.05972437 0.011433781 0.0026072075 -0.012832366 0.005302632 -0.02725804 0.024227824 -0.0063347826 -0.009181896 -0.011639319 -0.0010640856 -0.038591042 0.005231918 0.004074409 -0.006816575 -0.005047861 0.04020238 -0.002951556 -0.023330772 -0.0039165486 -0.008611889 0.001180518 0.024136176 0.008254408 0.0067775473 0.032535277 0.03613751 -0.018296331 0.02335701 -0.043749794 -0.031088034 -0.05498103 -0.009167828 -0.015201313 -0.04893933 -0.0020542035 0.012791366 -0.0037617716 0.03506708 -0.0050177067 0.01747311 -0.008084565 0.0072743013 -0.03676088 -0.005346963 0.00013164757 -0.0071403994 -0.016565572 0.039673265 -0.008994643 -0.022184063 -0.012547184 0.026470821 0.015069253 0.0060879504 0.01995618 0.018398786 -0.04142754 0.0018826548 -0.030764656 -0.0020356087 -0.016293783 0.027426213 -0.0055802427 -0.0016506889 0.004029178 -0.0029024426 -0.0020031256 0.0074681956 0.043092348 -0.000868722
magic 0.010611378 -0.027920963 0.03504565 -0.02577822 -0.051408503 -0.020031428 -0.019016678 -0.0025791689 -0.008304264 0.022097452 -0.02690326 -0.039368737 -0.03653824 0.0072992044 -0.012059278 -0.0117447125 0.026925568 0.037279774 0.002543466 -0.05077187 0.0059700105 -0.010223324 -0.0013813092 -0.004893848 -0.041034378 -0.013419583 -0.035407797 -0.027684717 0.0067348303 0.04992685 0.00065042847 -0.019279603 0.007100819 0.0361793 -0.06693162 -0.0076237144 0.0565928 0.018391637 0.0052011395 -0.021319017 0.038341463 0.023854652 0.016693022 0.0073025725 -0.0012996711 0.057446048 -0.021923818 0.040983006 -0.01235803 -0.0044219266 0.024425508 0.027221978 -0.028611148 0.019300524 -0.018441962 0.01517859 -0.0031206594 0.004087354 -0.0023457771 -0.036081597 -0.0089423945 -0.025521908 -0.022136057 0.024957608 0.009234861 -0.013598543 -0.007247189 0.011018763 0.025895694 0.018821705 0.027643764 0.020551095 -0.0032005026 0.011593882 0.020523269 0.024660703 -0.041641064 0.020402892 -0.004446737 0.0035527183 0.023194782 -0.016560221 -0.009750211 0.027521523 -0.03266438 -0.05443375 -0.03793136 0.02363317 -0.009039861 0.019952854 0.028378773 0.01701601 0.009581475 0.05812462 0.00027362548 0.0015061062 0.021706553 -0.0029932067 -0.024779355 -0.058275178
election 0.014384709 0.007711482 -0.012984294 0.051787946 0.0006835713 -0.01001 -0.0029169722 0.017132688 -0.025744956 0.007848912 -0.02405256 0.007520981 -0.008272746 -0.03640444 -0.0036189181 -0.017184123 0.018110998 0.009938411 0.03937826 0.014435138 0.0051620426 0.0027162 0.033657927 0.007986315 0.012612663 0.026271211 -0.009883048 0.0035289568 -0.023710508 -0.009526339 -0.0098145595 -0.020716079 -0.029450547 -0.044418573 -0.008145998 -0.021344362 0.018144058 0.04087628 0.036697417 -0.010838109 0.0059167417 0.051841144 0.0016136157 -0.003720029 -0.02819514 -0.012224835 -0.010554646 0.0068572746 -0.015172073 2.338829e-05 0.0039291754 -0.038250465 -0.0024522708 0.026030084 0.0030168642 -0.039930154 -0.029876143 0.0013676912 0.023229538 0.043744903 -0.009567632 0.04440048 -0.03967909 0.029359419 0.0046155835 0.025170732 0.0156235285 -0.020816399 -0.005779026 -0.0056392415 0.0043187723 -0.010425214 0.0373961 -0.011652856 -0.001056683 0.0016986518 0.040272072 0.011129581 0.011616334 -0.01005358 0.017893862 0.03765987 -0.0053657186 -0.039228473 0.010165441 -0.01029459 0.062315043 -0.030031402 0.065181784 -0.007159875 -0.027331688 -0.047883764 -0.003073824 -0.0067441147 -0.06884582 -0.019779323 0.026904127 -0.016217366 -0.0020697457 -0.02152982
office -0.011689577 0.034224894 -0.033477657 0.019260643 -0.0154789565 -0.021816023 -0.011237599 -0.014798331 -0.049583618 -0.056461677 -0.060924254 -0.020672103 0.012921931 -0.028026981 -0.02818767 -0.009019401 0.006560032 -0.023411911 -0.03600204 -0.010807581 -0.012935358 -0.0050896257 -0.021971695 0.0034129815 -0.001527694 6.285962e-05 0.004315501 0.0133477105 -0.008014489 0.022998754 -0.0075321384 -0.010858867 0.028326983 -0.027174473 0.019191468 -0.017335428 0.023787607 0.0014993406 0.05424437 -0.011665922 0.031742536 -1.1952594e-05 0.01664567 -0.034929942 -0.041663777 -0.0074665835 -0.009776088 0.010299542 -0.010807547 0.032991774 0.018893277 -0.040245876 0.047376957 -0.08563477 0.019859185 0.049099263 0.010714687 0.021286242 -0.038043477 0.017006798 -0.007214177 -0.008862054 0.016223073 0.03156336 0.013262559 -0.005133909 0.054942332 -0.012995214 -0.049725164 -0.0035876203 -0.033043098 -0.009617021 0.033614412 -0.015512095 0.007689962 0.0077511095 0.042011943 -0.04133158 0.0057855933 -0.025857965 -0.012563904 0.024488159 -0.003980358 -0.0065758554 0.0327035 -0.008109464 0.036062006 0.009345711 0.018390076 0.026559891 0.056277547 0.0041615805 -0.03631582 0.0076369136 -0.021126717 -0.01778713 0.015447438 -0.013334918 0.0048472458 0.021243261
enjoyment 0.01590081 0.017598769 0.0055992836 0.032523256 0.066741884 -0.042608224 -0.022248467 -0.016031094 -0.03633806 0.014799379 -0.028943645 0.0075903805 -0.022571657 0.02959066 0.021066044 -0.018809646 -0.0023808435 0.011976112 0.007977561 -0.0005989496 -0.03566484 -0.03219611 0.026638638 0.003020896 -0.009055777 0.01268844 0.026339658 0.007217243 0.026897479 -0.027780356 0.031266883 0.004694638 -0.023444876 -0.027047608 0.00019020727 0.047596045 -0.008653092 0.0075114463 -0.012141166 -0.016288826 0.014623003 0.02692269 0.017561898 -0.014372529 -0.028533507 0.0091444105 0.039650485 0.016427461 -0.014242959 0.012310373 0.010024589 -0.0049065826 -0.010496353 -0.008739212 0.011497915 0.0003198263 -0.0040741106 -0.006526328 0.023660729 -0.009193904 0.0057062805 -0.031034386 -0.0381254 -0.013003592 -0.008949645 0.010864556 -0.009204457 -0.0040618507 -0.053047903 -0.021544365 0.013872096 0.012427976 0.026813954 0.020375216 -0.002512752 0.06431027 0.043624137 -0.01975367 0.010413628 0.015526244 0.05892403 0.020325076 -0.005980861 0.014412247 -0.029265767 0.029770596 0.0103193335 0.022357676 0.054338563 -0.026025457 -0.00796043 -0.006357588 0.017742649 -0.03971519 0.02573562 -0.01051858 0.006491241 -0.015128813 -0.028750863 0.0050901272
luxury 0.008089799 0.009901538 -0.006701373 0.0015487334 -0.038415175 -0.020435996 0.0012440332 -0.0063937674 -0.0054864706 0.025151929 0.0003833705 -0.00029599608 0.020582438 0.013106849 0.010388489 0.0039587356 0.023896977 -0.007257367 -0.03910155 -0.029864062 0.011970895 0.020368105 0.008149485 0.009642507 -0.0063145226 -0.00034748903 -0.011434568 0.029341577 -6.6833134e-05 -0.024776105 -0.014119452 -0.04475594 -0.04171626 0.00069311133 0.022305848 -0.0037551818 -0.006304307 0.03364057 0.016399488 0.037761368 -0.021937909 -0.02101563 0.016129585 -0.044362247 0.016827567 0.023831954 0.04474987 -0.019165209 -0.034917213 -0.009834289 -0.0064412956 -0.02218172 0.01624091 0.012448572 -0.012903056 0.0034617134 -0.009005169 0.0019573942 -0.0008390633 -0.024647778 -0.03982676 0.031810626 0.009651664 0.012781911 0.030804269 -0.0014903932 -0.028934449 0.01623411 0.021116385 -0.0061362227 -0.026803413 0.026545076 0.0182081 0.031459846 0.012347002 -0.009180301 -0.0013042076 -0.0041346783 -0.005334107 -0.033038232 0.0057559097 -0.0046851886 0.03154308 0.026595332 -0.017622197 -0.0051865093 -0.03480232 0.039795917 0.0030403384 -0.042121876 -0.007172406 -0.0100152735 -0.01863757 0.006252697 -0.00012393954 0.006086747 0.0008379979 0.028467435 0.002990675 -0.0029533333
independent 0.04091381 -0.011300247 -0.006792718 0.0020619093 -0.00980218 -0.022950884 0.018644325 0.0040110727 0.0030870237 0.019859627 -0.044073235 0.009708978 0.011868302 0.035536364 0.017334651 0.03403381 0.0067532193 0.022253623 0.007506875 -0.010203663 0.013636917 -0.0068473085 0.019841189 0.042464204 0.0070225107 0.0054827062 0.013964434 0.013406703 0.017973794 0.03635706 -0.0038021456 -0.0091422135 -0.0074622426 -0.012703063 -0.02232672 0.01402692 0.00843825 0.0010701906 0.008174055 0.032664593 0.0230591 -0.013651415 -0.007536155 0.041098874 0.03164064 -0.0131703345 -0.012546004 -0.022856152 0.016825655 0.0020208056 -0.014072458 0.0389238 0.015364372 0.05500056 -0.025479622 0.00627277 -0.015956992 -0.019952403 -0.01966267 0.006152706 0.004956206 -0.0046964707 0.014123257 -0.017116174 -0.0056816787 -0.03557589 0.028104544 0.037584804 0.008946798 0.060200337 0.0049857385 0.003575521 -0.038255416 -0.0029624943 -0.0053352895 0.022278775 -0.058391374 0.00095006963 -0.009791258 0.02927883 0.016319849 0.040647283 -0.036223054 -0.017574722 0.019794557 0.043045167 0.008121023 -0.016586868 -0.02857232 0.025261931 0.03546998 -0.005126479 0.031134315 0.0044755037 -0.022490403 0.019487932 0.033592507 -0.01076955 0.006271404 -0.009504818
applications -0.0047344533 -0.040981337 -0.0092999 -0.014048822 -0.020600874 0.015245562 -0.0027501024 0.00016650662 -0.0024980525 -0.02886723 0.026601264 0.029601075 0.037675895 0.015406613 -0.037481103 0.03058422 -0.017444057 0.0152302785 -0.020058567 0.012402798 0.013450939 -0.0087258415 0.029253569 -0.006209373 -0.023866238 -0.02119243 -0.0003286237 0.03196814 -0.03287826 0.008852204 -0.006415462 -0.0095901415 0.016826957 0.0211686 -0.009433341 -0.012289429 -0.005819765 -0.013949435 -0.011637964 -0.012239572 0.02489291 0.022694962 0.019240983 0.035781037 -0.019367166 -0.009157014 -0.0067297905 -0.026622185 -0.0032934314 0.022046903 0.024119945 0.0178575 0.01044388 0.020953616 -0.015430342 0.0065385466 -0.007581464 -0.0029645285 -0.0020428326 -0.021572847 0.01526981 0.013832716 0.014777585 -0.038038053 0.007842056 -0.035030566 -0.017486459 -0.013193321 0.024062093 0.046131812 0.0106881065 0.023510579 -0.03508165 0.0057193255 0.035703324 0.0018282312 -0.026072334 0.008311894 -0.0024801092 0.011270739 -0.003651037 -0.05065943 0.04241919 -0.035964794 -0.00216568 -0.029272256 -0.015013594 -0.018368062 0.0018308512 0.023841895 0.05683988 0.035273477 -0.0116734905 -0.022492655 0.011304937 0.039088562 -0.010599365 0.0061404496 -0.0018921886 0.029953152
giving -0.036258165 0.014316285 0.0038725412 0.0038385661 -0.0050070854 -0.007166905 -0.005260109 -0.015521441 0.029006332 -0.014100807 -0.018181996 -0.019786108 -0.005641735 0.05893706 0.0028581657 -0.018708752 -0.0038448847 -0.04718421 -0.0062306114 0.0043652877 -0.02957112 -0.02216091 0.007476709 -0.005100941 -0.028041633 0.0064316876 0.005863679 0.04351844 0.018383322 0.017909756 -0.0032745628 -0.016075436 0.039338704 0.042164624 -0.0072298907 0.051497236 0.043395694 0.021056356 -0.049375776 -0.01592587 -0.037248425 0.04032264 -0.015383856 -0.042154737 -0.0017482197 0.0016255486 0.02923406 -0.031427946 0.018754823 -0.035299294 -0.05630063 0.047139537 0.0012583327 0.013181933 -0.012366934 -0.0031659435 0.0024637515 0.010734606 0.010736012 -0.004802079 -0.04799401 -0.01386106 -0.010990601 -0.040847424 0.0085767405 -0.0071966406 -0.011337923 0.013184929 -0.031890113 0.0042566564 -0.017052257 0.01189368 -0.05400498 0.0065965867 0.02236903 0.039164696 0.004481308 0.006603224 0.02257829 0.036102954 0.03892132 -0.0101436265 0.029532516 0.035360932 -0.006513373 0.0036757984 0.009374039 -0.0023637854 9.6528864e-05 -0.0184323 -0.0052986145 0.0093768975 0.0003808248 0.0081098145 0.06861069 0.030392442 0.026294159 -0.026886836 -0.013900541 0.03288006
introduce 0.0038478638 0.013834555 -0.037451558 -0.003722441 0.01942075 0.020150978 -0.044222932 0.032755207 0.008956588 -0.0054224785 0.008087492 -0.0045788675 -0.013723349 0.052692905 -0.016779771 0.006978128 0.017894492 -0.006586233 -0.023911716 -0.0034831103 -0.0073131807 -0.017632032 0.01272494 0.0055798837 0.00070395716 -0.010893132 -0.010209816 0.02543115 -0.009049961 0.008271469 -0.034717146 0.028493084 0.009403681 0.02132047 0.00029879907 -0.01705548 -0.03222814 -0.0125672 -0.03709169 -0.02473009 0.013073872 0.014235808 -0.015859043 0.015745401 -0.004133758 0.0042660083 0.08867372 -0.01843731 -0.00412879 0.0048035625 -0.015878646 -0.018066833 -0.019246252 -0.046712667 0.03585805 0.022966731 -0.001588168 0.009156352 0.04934286 0.041907866 -0.0041706567 0.021676527 0.002230159 0.024160365 -0.017907409 -0.026977353 0.0011401689 0.008892581 -0.01703271 0.007912856 -0.011130963 0.006838087 0.031064946 0.016601324 0.030033741 0.017824313 0.024049351 0.031382974 0.015959512 -0.019529905 0.026853377 -0.011152679 -0.024091015 0.002631454 -0.008235297 -0.0140620265 0.028022563 0.006986593 0.02421719 0.019015986 0.0012341597 0.015091694 -0.034561202 0.021179134 0.03169639 0.0032036598 0.01232278 -0.032674007 0.0041774656 -0.0035363913
credit 0.022961006 0.021798288 0.02426842 0.0024807027 0.03280268 0.02421887 0.01610109 0.004783408 -0.044912715 0.014218811 0.011460277 -0.020920869 0.050559223 -0.010974814 0.000534105 0.0073817032 -0.009882108 0.011079528 0.017621603 -0.025740093 0.00301895 0.013602886 -0.029231364 -0.023407783 0.00908985 0.012916474 0.027544366 0.029429857 0.0074413763 0.03371896 -0.045665305 0.02841537 -0.035463404 0.016190235 -0.040610496 0.008314663 0.038338814 0.0060551143 0.049774084 -0.004824366 0.031942796 -0.023616187 -0.02441148 0.008770393 0.0037485287 -0.035179403 -0.009098042 -0.0024511395 0.00591699 0.051842097 -0.011142407 0.037481528 -0.0062954733 0.021138286 0.005118474 -0.018278586 -0.0021761968 0.01000783 -0.038618922 -0.03280652 0.035675243 0.010309853 0.027587682 0.0025063888 -0.0017095215 0.012988148 0.022272531 -0.02599454 -0.011300317 -0.032579146 -0.0072039524 0.007394315 -0.014206983 0.025858305 -0.027331753 -0.024396786 -0.00533757 -0.06277821 0.017526148 -0.001103064 -0.010221781 0.036149867 -0.019622657 0.032116503 -0.03992379 0.018476471 0.01157614 -0.0005540943 -0.008557199 0.01851851 -0.009564087 -0.014792969 0.02734219 -0.010564853 0.010730575 0.032400575 -0.016070386 0.025995873 0.011541255 -0.0086558545
something -0.0040276153 0.086653486 -0.036639407 0.005465963 -0.037814524 0.0055848984 0.007724625 -0.0051692915 -0.022981653 0.0053396695 -0.03928694 -0.0038703983 0.021144433 -0.031143477 -0.01174265 -0.0011920917 0.03252584 0.08946178 0.11612548 0.017722301 0.02885864 0.056977376 -0.052018885 0.031955216 0.012003286 -0.0640249 0.037547566 0.027586974 0.08014297 0.03926855 -0.015715191 -0.03015609 0.037394483 0.059069812 0.04375205 -0.0069186566 0.051193185 0.021520333 -0.03389965 -0.04047091 0.01252687 0.0072268154 0.06158852 0.00060892315 0.024601573 -0.07623189 0.045095943 0.019140275 -0.012304323 0.023687715 -0.057876445 0.034557372 0.006598881 -0.004996558 0.005673829 -0.0224363 0.03191995 0.06446337 -8.3556515e-06 0.011525847 0.071553946 0.008427345 0.09058474 0.051950425 0.012057701 0.05059493 -0.00014800578 -0.039036736 0.013279948 -0.019418417 0.015132923 0.07734967 0.051740598 -0.04727563 -0.106708854 0.014524316 -0.061735827 -0.04099241 -0.0020790761 -0.07514362 0.07571922 -0.01610367 0.03957706 0.08162014 -0.01840363 -0.04282105 0.05956231 0.018849941 0.052039273 0.03814088 -0.010648873 0.012625568 -0.021357771 0.001884875 -0.04497736 -0.053828407 0.03146085 -0.033051066 0.017541422 0.026110627
causing -0.054440722 -0.060102317 0.009949919 0.036113024 0.10243463 0.029705605 0.04221043 0.0028372947 -0.0053429045 0.0028218923 0.009557879 0.054503474 -0.019041818 -0.009280318 -0.019701384 -0.044464514 0.041849446 -0.01871664 -0.00054524967 -0.009686416 -0.037753917 0.031032946 -0.04795606 -0.035371862 0.03468778 0.019811088 -0.037361242 0.0076693203 0.026242342 -0.07555616 0.0091459425 -0.050933547 0.016070927 -0.03238755 0.022271167 0.036132842 0.04534179 0.025877405 -0.013122309 0.015557507 0.011856657 0.02619681 0.014939666 0.020584142 0.09390424 -0.08737601 0.023885584 0.040082864 -0.039175484 0.024511578 -0.052543037 -0.0339451 0.0044381255 0.017671738 -0.055582725 -0.05167432 0.013096298 -0.027739879 -0.002184806 -0.011213177 0.04518628 -0.0029347355 0.05076294 0.028048163 -0.05050284 0.069589294 0.0106226485 -0.0070179673 0.022559779 -0.06694548 -0.01594696 0.044801194 0.08783829 -0.05886305 0.060384784 -0.027270352 0.031636287 -0.035292864 -0.027898181 -0.009092163 -0.0060210843 -0.013478359 0.02843701 -0.0439689 -0.0337829 -0.037194178 -0.03860081 0.026282554 -0.004590512 3.3084507e-05 -0.09400925 -0.040538773 -0.008721373 0.058411077 -0.0001610393 0.03974448 -0.046544407 0.016394414 -0.011022406 0.03986427
release 0.001786997 0.03166917 -0.03638999 0.0034831576 0.013331692 0.007695044 -0.020030083 0.029784039 0.03637191 0.005395434 0.036767945 0.026041219 0.015285379 0.05621483 0.038896155 0.017646948 -0.04973679 -0.04430154 -0.033314884 0.0019156848 0.041253757 -0.024475027 0.0035653177 0.009859159 -0.053256232 -0.022996388 -0.009721762 -0.0040261224 0.054066423 0.011935706 0.033602618 -0.018655296 0.05545308 0.012128055 -0.04598865 -0.00928885 -0.01595521 -0.024090014 -0.06384596 -0.016451959 -0.018215802 0.035950243 0.009670888 -0.039840072 -0.0024653445 0.016054086 -0.05934565 -0.03959635 0.002867178 0.010432857 0.029188264 -0.0027672304 0.0015920536 -0.0162087 -0.05124976 0.04851837 0.002136753 -0.00084560213 -0.025670357 0.047670037 -0.037990157 -0.013728269 -0.016853306 -0.03479404 0.02795505 0.011904959 0.0058322046 0.0041882433 0.012904992 0.016258953 -0.002196506 0.03781562 -0.05822161 0.012785644 -0.033491567 0.016253326 0.028058192 0.0048655234 0.042133097 4.8624497e-05 -0.0057178754 -0.061263286 0.0077229897 0.07595557 0.0594982 0.0436467 -0.030941635 -0.0065874215 0.011874219 -0.03228804 -0.008938166 0.05367979 -0.037518173 0.038155556 0.009174367 -0.01789652 0.04345341 0.015666328 0.021712722 -0.02357739
Progressive -0.018529814 0.0391979 0.073738836 0.053303994 -0.030819155 0.032031942 0.0025437246 0.042359162 -0.028620854 -0.055709396 0.023983771 0.0468854 -0.04115223 0.0438185 -6.821682e-05 0.021227878 -0.019982906 -0.019788874 -0.00063624966 -0.035017394 0.035849597 0.041580275 -0.0064988825 0.0011697197 0.026307605 0.02324358 -0.064097404 0.04475593 -0.04490563 -0.006292526 0.0012241247 0.049125932 0.024110362 0.06531792 -0.0026432828 -0.018091353 0.0019284299 0.019817831 -0.00478312 0.04715988 -0.009320504 0.035158552 0.06648425 0.029747847 0.036399342 0.036608875 -0.0067364615 -0.03615039 -0.01860555 -0.043115135 0.013880714 -0.011314839 -0.0641093 0.05607043 0.0153980255 -0.023525441 0.03375119 0.0068998085 0.0074790358 0.03571353 -0.04230893 -0.009540346 0.022610234 -0.0541231 -0.030091202 -0.03914035 -0.019062568 0.039520502 0.05277866 0.026832925 -0.026765538 0.028039146 -0.05348508 -0.0052615125 0.05043683 -0.016268257 -0.014314764 0.034346208 0.054056264 0.008606247 0.017366167 0.01344397 0.040671457 -0.0120197125 0.012309572 -0.03882172 -0.023339782 -0.06536721 -0.0126201045 -0.025441905 -0.02359119 0.056194242 -0.0014957702 -0.009730879 -0.04064309 -0.018452927 0.048697952 0.022331703 0.06317987 0.008452237
Carter -0.043671984 0.0253715 0.0008226405 -0.00015380452 -0.0055964505 0.016630517 0.0012957484 0.025766036 -0.03244346 -0.007451062 -0.020989161 0.030269438 0.027022613 0.0016227551 0.010924021 -0.010636167 0.025186973 -0.004914058 -0.011107161 -0.05136016 -0.063636035 0.027959662 -0.060568027 -0.00043666083 0.0059775608 -0.004073971 0.011602883 -0.0179822 0.01788469 0.0029153973 -0.021975338 0.006088914 0.022114353 -0.01720415 0.028803188 0.008536785 -0.023718907 0.0079059135 0.012072847 0.017104771 0.031773042 0.0040092645 0.015479057 0.0019438812 -0.017456567 -0.037576467 0.0010239732 0.0425605 0.024424959 -0.010004142 0.0030016624 0.011037606 -0.004474007 -0.01645636 -0.012587604 0.017875478 -0.04345731 0.00015799701 -0.011246746 0.00232696 0.019457504 -0.0068610166 -0.023597676 0.019719066 0.013154186 0.012120783 0.025213497 -0.0018292309 0.0069800406 0.018103192 -0.012459581 -0.0071429424 -0.008051852 0.017279712 -0.02618004 0.02139127 -5.1343377e-05 -0.008691432 -0.0018495411 -0.016032973 -0.0100402385 -0.003817265 -0.006121119 0.021352492 0.0021202695 0.0068515996 -0.032400746 0.002866318 0.034529302 0.00040753421 0.0038158933 -0.008441819 0.00015456753 -0.011880022 -0.010523358 0.038300578 0.01584444 0.043122053 -0.0076380325 -0.0026335889
