1501 100
supplier 0.022052884 0.058701366 0.036898334 0.059365984 0.018354326 -0.04469731 -0.022982845 0.027430093 0.019780956 0.018521115 0.01093039 0.017275862 -0.024134299 0.029678836 0.0003999684 0.0032711984 0.022109324 0.0035266546 0.044831455 -0.0009901605 -0.010729237 -0.017582696 -0.004194814 -0.06156321 0.021498874 0.025247965 -0.05105776 -0.0027641628 0.06411942 -0.021491801 -0.011403506 0.024324274 -0.03186404 -0.015479958 0.0025125968 0.011683046 0.04781678 0.0077854777 -0.030813927 0.018996745 -0.020034421 -0.019153638 0.056208823 -0.019967008 -0.0047594323 -0.021043962 -0.026946044 0.02873148 -0.012119483 0.01672331 0.004616656 0.01497064 -0.02204764 -0.0134291975 0.035592236 -0.015708886 0.0057674088 0.0035168664 -0.0020545584 0.042368367 0.019531226 0.011764863 -0.017361114 0.05634869 -0.026285913 0.0026223236 -0.004347313 -0.0069886805 0.030978844 -0.0065542352 0.020579513 -0.026688758 -0.02911719 -0.0049303435 -0.007014057 0.04256247 -0.023896549 -0.017666215 -0.01937812 -0.02094568 0.00184455 -0.037232205 0.02238788 -0.008785628 -0.013755988 0.014831512 0.02311696 0.032243956 0.0032307152 -0.0077394475 -0.019367551 0.011201384 -0.037897546 -0.030774243 0.058642313 0.014967974 0.02392908 0.011599354 0.0075125843 -0.017227005
account 0.008471287 0.04242261 -0.009480845 -0.024179146 -0.022830565 0.024262214 0.050830025 0.06059457 0.070836715 0.034531247 -0.034588024 0.007925676 -0.02633797 0.000112939975 0.02008627 -0.068081126 0.00855123 0.029942568 -0.040353112 -0.008362025 0.067089334 -0.029117413 -0.005678126 -0.05027381 0.0729515 0.01867742 0.0576906 -0.0074680955 -0.05192364 -0.027442487 0.015613598 -0.026765592 0.020153904 0.028466118 -0.033346303 0.034821283 0.049956135 -0.06734771 0.030674055 -0.048659865 -0.006932975 -0.03622074 0.05409154 -0.028570952 -0.014714509 -0.08586673 -0.008122908 -0.047048327 -0.012311243 0.034301203 -0.086713135 -0.022351444 0.04804638 -0.019666579 0.033432283 -0.005446455 -0.027067106 -0.011330862 0.04583932 -0.016827215 -0.0037059705 0.02037775 -0.0005787199 0.015201514 -0.017670907 0.038492765 0.068933114 0.04094728 0.033313792 0.03569752 0.07399696 -0.08753238 -0.046173614 -0.11525885 0.025314163 0.030887637 0.026107263 -0.02355071 -0.016536873 0.031488795 0.045529917 -0.046152122 0.033240315 0.05268904 0.0082262065 0.026604982 -0.0309941 0.007711589 -0.03609436 0.021257404 0.0012112608 -0.019495804 0.050110396 -0.03376148 0.11871324 0.07013406 0.01616599 -0.0065090265 0.0005020083 0.07389232
upon 0.0628881 0.062089752 -0.058351383 0.056770448 0.040614076 -0.06017555 0.04001488 0.050511494 0.08600549 -0.11622424 0.06554421 0.03114762 -0.09933222 0.047489006 0.018863034 -0.08255446 0.06791783 -0.06680759 0.09361717 -0.07431489 0.019586865 -0.013749319 0.06852561 -0.015515113 -0.013663267 -0.045672987 0.0065106335 -0.032867797 -0.04821456 0.020753536 -0.011902421 0.017204437 -0.013743569 0.030649027 0.05229075 0.026052047 -0.029242193 -0.0049220435 -0.0019769939 0.045997985 0.022530828 0.013663304 -0.05435893 -0.014379865 0.040154226 0.02319848 0.02350597 0.023556639 0.02871211 -0.06069054 0.11291525 -0.041045073 -0.0083874315 0.037637684 -0.005599324 0.0939276 0.0107147815 -0.0021943788 -0.060502354 -0.028816774 -0.11882846 0.076458596 -0.031379666 0.06279801 0.06919494 -0.08706658 0.02872521 0.034205187 -0.02432056 0.047576055 0.023781948 0.05562839 0.07996032 -0.10546179 -0.004840262 0.012873503 -0.06873769 0.057067357 0.038803656 -0.039311543 -0.09145716 -0.06178679 0.024874914 -0.074575 0.010447627 0.008893602 0.015046453 0.06193072 0.028234016 -0.059064902 -0.032555874 0.035135176 -0.020390062 0.028564664 -0.012429882 0.0036002945 -0.062266797 -0.026415255 -0.095686324 -0.02419001
asking 0.019761847 -0.00351144 -0.009065314 0.011263947 0.0014698796 -0.010508239 0.02625463 -0.040391836 -0.037244283 0.002472829 0.0012962912 0.003843194 0.019186188 0.010853649 -0.015106896 0.0144572975 0.013411752 0.010014093 -0.021075414 0.009931268 0.023967752 0.039604135 0.04741872 0.0046566445 0.0038074313 -0.011666888 0.027206978 -0.015362426 -0.031461358 0.03310482 -0.047014516 0.023799397 -0.013480093 0.040713727 -0.016065247 -0.04071535 0.022347583 -0.021812923 0.0072441967 0.031438842 -0.0067857574 0.0062706806 -0.047466233 -0.0010832986 -0.006033469 -0.0088343285 -0.018122025 0.008628821 -0.002556814 -0.002269809 0.020261189 -0.030203724 -0.015562552 -0.004359086 -0.020924803 -0.028279051 0.0154425865 0.01735371 0.0065664346 0.01598797 0.008198001 0.005177543 -0.010821179 -0.0059786392 0.02076276 0.029901411 0.0037186407 0.012062677 -0.011164999 -0.04519349 0.018018337 -0.03019806 0.019280499 -0.019874295 0.065330505 -0.04209516 0.021304544 -0.0047966912 0.018138146 0.005521027 -0.021013396 -0.013584542 0.035309575 -0.008313297 -0.030179862 -0.0364421 0.049505927 0.0020419834 -0.0039240182 0.005318683 -0.025035357 0.011568651 -0.030366296 0.009240547 0.037129495 0.0102583235 0.024956824 -0.038287245 0.01987034 -0.013519564
sit -0.015283655 -0.015033638 0.013848305 0.008062589 0.003627847 -0.01790917 0.035430193 0.009045852 0.006074969 0.013572856 0.02679166 -0.02789113 0.011245099 0.0136804655 0.01972663 0.012946653 -0.004218692 -0.0029370317 -0.010363292 -0.01959748 0.010961465 0.019723546 0.002410609 0.007961114 -0.00013850519 0.004684895 -0.050637968 0.0204995 -0.021049727 -0.02840836 0.025969394 -0.011093869 -0.012237651 -0.0100983735 0.04739555 0.015796954 -0.004868622 0.013863873 -0.00076841516 -0.011552497 -0.00068246986 0.013277621 0.033790223 -0.026135093 -0.039752495 0.0041260337 -0.0029933027 0.015019377 0.032071125 -0.00059753435 0.02024153 0.005637709 -0.0065991967 -0.007245892 -0.011300091 0.003695752 0.021693354 -0.034477517 -0.019155296 0.029854378 0.00037247804 -0.010701368 0.022405082 0.0072166515 0.015101422 0.04851113 0.0048603932 0.0021424512 0.044971533 0.07522842 -0.07507415 0.006591401 0.021993365 0.011207873 -0.022362579 0.038143367 0.025751762 0.011005824 0.014677876 0.008652999 0.00474219 -0.042048436 0.013775512 0.0020928343 -0.041845713 -0.003538857 -0.03516052 -0.018565308 -0.0066130594 -0.026341477 -0.0038877293 -0.03531865 0.018562598 -0.0058778385 0.01480241 -0.015494844 -0.010069043 0.004122576 0.01859732 -0.044178814
regard 0.00019691058 0.025629384 0.04791199 0.0020042018 -0.006889224 -0.01434965 0.022944752 -0.046509225 -0.032801345 -0.05780033 0.024695272 0.015137064 0.054061692 0.010087381 -0.013741404 -0.017322356 -0.033146918 0.020529183 0.019892547 0.012460249 -0.009088058 0.025566341 -0.027559247 -0.009676723 0.0014784244 -0.05589839 0.02674975 -0.04557004 -0.020616818 -0.004304998 -0.017447628 0.006099581 -0.0018540723 0.03525011 -0.0156189855 -0.040679086 -0.042622596 -0.009680788 0.015154744 0.035470963 -0.0090122735 -0.019372053 -0.002244689 0.03365638 -0.0012115045 -0.019093083 0.013946105 -0.016408952 -0.036812935 -0.0051046 0.024641035 -0.038473845 0.027094306 0.008024803 -0.0019901076 0.02622384 0.007682943 0.035941947 0.014714417 0.020451855 -0.013026439 0.006612039 -0.031133728 0.035540994 0.011835676 -0.019864252 0.036830932 0.023835247 0.024230657 -0.0024310024 -0.03614688 0.03597083 -0.050791755 0.03991422 -0.048517104 -0.0212208 -0.028629348 -0.008488952 -0.019572996 0.012817792 0.0019025833 0.011843405 0.001823641 0.0010606817 -0.033938326 0.044401787 0.0070252367 -0.035202768 -0.013735166 0.03308203 0.003187589 0.012990847 0.024640484 0.02791262 0.028135912 -0.06248585 0.044676647 0.042330746 0.035762955 -0.027712569
concerned -0.022591855 0.025434341 0.02848849 0.0032100086 0.029804481 0.08988878 -0.007899678 -0.0614068 -0.01425899 0.009142451 -0.065121315 -0.027116615 -0.032970466 0.0778541 -0.002969162 0.046177227 0.00053651806 0.046793345 0.02277894 -0.06997156 0.042448055 -0.018200058 0.06758057 -0.00022845082 0.024136443 0.037099488 -0.0432776 0.01052436 -0.021332292 -0.007115133 -0.0038289414 -0.060507458 -0.0012708113 -0.04385896 -0.08660545 0.02615228 0.051449243 -0.01203923 -0.04982465 -0.0119064525 0.009217881 0.010834021 -0.009322761 0.05179662 -0.054795466 -0.066370904 0.0038076371 -0.0066399183 0.008348105 0.020395942 0.049789354 0.043241214 -0.03431802 0.026902504 -0.016998917 -0.07176038 0.01160908 -0.013650578 0.0038010213 0.030589927 -0.05234318 -0.08405139 0.012620778 0.0863512 0.023537409 0.0033355183 -0.058195412 -0.055504978 -0.028143026 0.012397261 -0.04214553 0.012530408 -0.03817302 0.047643956 -0.03255355 -0.041205093 -0.09081292 0.018696925 0.058209695 -0.054032955 -0.01669471 0.04267039 0.042434517 0.08195051 -0.012986155 0.057527993 -0.054324903 -0.07571094 -0.06695551 -0.036672246 -0.041865047 0.0116214 -0.031594217 -0.015735898 -0.029014478 -0.017476724 0.004394781 -0.016199717 -0.026450552 -0.11558961
look -0.03419617 0.012339601 -0.006285507 0.012127815 0.018820005 -0.025156995 -0.017945347 -0.031823207 0.010381336 -0.02491221 0.01734636 0.008088882 -0.00499589 -0.015897008 -0.014526788 0.025370574 0.023454908 0.056746364 0.01358808 0.025354601 0.0012329959 -0.021354463 0.014031841 -0.069377564 -0.0021213936 -0.025026122 -0.009731187 -0.052315477 0.025384702 -0.026292577 0.0051773875 -0.055274624 0.003204058 -0.0249962 0.004576151 0.039635055 0.04483271 -0.04538706 -0.011912895 0.025797397 0.0008421875 -0.010195551 -0.023098035 0.021729626 0.012192931 -0.034709487 0.00068073446 0.06519307 -0.029339496 0.013953524 0.059058834 -0.013475413 0.01757456 0.043944184 -0.005475164 0.009501354 -0.002937084 0.025778623 0.008560877 -0.00879538 0.021761294 -0.016896063 -0.00975913 -0.032807954 -0.016084557 -0.05089579 -0.0025436797 -0.03995943 -0.010293571 0.021031117 -0.0057675065 -0.04930483 -0.00020214642 0.012562088 0.010985052 -0.014517607 -0.0023927102 -0.031085838 -0.017280139 -0.020059686 0.05474454 0.023726087 -0.009853843 0.031039236 0.0006828761 -0.05571059 -0.04290652 0.0025900067 -0.042108007 -0.016997004 0.013654437 0.07049778 -0.0055724108 0.048400905 0.036849897 -0.03287021 0.014275474 0.00827308 -0.024495553 0.016326243
however 0.044745404 -0.039690368 0.013798247 -0.001240066 0.006563848 -0.060601898 0.0010463509 -0.017998004 -0.0005094982 0.0135987615 0.021194585 0.016861064 -0.014081619 -0.03660735 0.035103157 -0.023552472 -0.03170149 0.0010998456 -0.032078445 0.010606928 0.0032648558 -0.029044334 0.06693538 0.010822098 -0.069807895 -0.016667146 0.021987274 0.020236531 -0.014595171 -0.035188686 -0.014538649 -0.06410689 -0.033640888 0.0033797848 0.009393531 0.003020327 0.008279605 -0.016518299 0.014639967 0.012690756 0.0055595767 0.036436092 0.021483427 -0.027794426 -0.0072871763 0.006991037 0.039400626 -0.0026533331 -0.0042529544 -0.031250272 -0.005221717 0.02754635 -0.01364894 0.02826231 -0.024604468 0.004815412 0.038574766 -0.016238902 0.016570507 -0.023718176 -0.02122686 -0.018272718 0.040985323 -0.017125532 0.0069597336 -0.011335654 -0.022361843 0.0065579624 -0.0150161125 0.027637877 -0.03891034 0.033180512 -0.00016151753 0.026437152 -0.028609984 -0.03192877 -0.030845188 0.0010134667 -0.010404351 -0.063312195 0.008591138 0.06509016 -0.007251732 -0.00309485 0.017950019 -0.006127348 -0.0005718721 0.011319484 -0.029886506 -0.02356924 0.010212016 0.02611147 0.010006816 -0.011706716 0.004691546 -0.020052768 -0.025420317 0.053395446 -0.05888313 -0.014281055
real 0.04827863 0.0039031184 -0.03628999 -0.02973967 0.006394405 -0.017736189 0.022573397 -0.008973623 -0.032329187 -0.013169217 -0.015309256 0.0011317923 -0.065543115 0.0038124933 -0.02221421 -0.017845297 0.028574392 0.007811942 -0.0017789666 -0.014285154 -0.0026400283 0.021038754 0.0050000525 -0.005958016 -0.015869088 -0.0121173365 0.014621535 0.0027484265 0.022246443 -0.01701419 -0.05065313 0.05391715 -0.0026266281 -0.012490914 -0.022022994 0.012662429 -9.923626e-05 -0.052940793 0.01358297 -0.00790542 0.04265413 0.016564341 0.012852583 -0.002984588 -0.011119255 0.03459711 -0.01982802 0.013004937 0.008838983 -0.0044541713 0.037987716 0.0045280284 -0.0091400985 0.014181195 0.03651008 -0.019776568 -0.0037221452 0.021975761 0.010138298 -0.01088346 -0.0035719308 -0.02094403 -0.04947557 0.003540439 -0.002976744 0.020266745 0.02479559 0.007698294 -0.012598849 -0.017672913 0.007925963 0.0020543798 0.020696323 -0.011633944 -0.017212782 -0.038546957 0.046113234 -0.02104578 0.0035827775 -0.0347929 -2.9648309e-05 -0.0034301486 0.0012729442 -0.026985558 -0.039950743 0.0017553946 -0.00015022134 -0.0056569283 0.003505527 0.03787757 0.033264764 -0.0017522839 -0.009980732 -0.001829355 0.023887118 -0.017914807 0.012400915 0.0019966175 0.014995308 0.01706553
provinces 0.028731007 0.004989536 -0.02760838 -0.0009993941 -0.010281076 0.034092247 0.0117043825 -0.06213967 0.00040190236 0.012468007 0.051171433 -0.06356918 -0.007902415 -0.043893967 0.02802624 -0.026237642 0.0069918027 -0.017182242 -0.023758845 -0.01672805 0.048185676 0.03646495 -0.009487794 -0.0037151251 -0.0012325866 -0.005541606 0.00037808556 0.012187068 0.015118965 -0.03801347 0.0117600765 -0.014127826 0.024098257 0.014407506 0.0046568546 -0.043011032 0.00061824726 0.009931967 0.019780926 -0.03936132 0.009099176 -0.0058684084 0.0049896482 -0.00039494626 -0.051595252 0.0215647 0.004454263 -0.012272591 -0.06768471 -0.044260543 0.021480173 -0.048065063 0.03149074 -0.014251374 0.031567078 0.00025968766 0.0119634885 -0.0019713843 0.009939326 -0.011985229 -0.008997602 0.022708284 0.018670477 -0.008933947 0.015860112 0.0074459757 0.045631945 0.028372126 0.015328543 -0.011889196 -0.026878333 0.0016440348 0.045165103 -0.004773274 -0.019540092 0.024523322 0.027524069 0.019259501 0.004400511 -0.03922035 -0.06638162 0.04212672 -0.023743406 0.027127482 0.010278827 0.023264589 -0.020441001 0.047927395 -0.014173311 -0.007173538 -0.07911437 0.004121367 -0.010220697 -0.01599377 0.02421908 -0.049058687 -0.024853576 -0.031329013 0.0119928485 -0.02577493
live -0.033768762 -0.015100716 0.0069940216 -0.06920016 -0.106781445 0.007378391 -0.049557883 0.016283412 -0.027914494 -0.017369442 -0.061928004 0.045836557 0.04211486 0.0341602 -0.019672267 -0.011726065 0.050260413 0.028928377 -0.045693748 0.0010223491 0.022646895 -0.0338063 0.008273997 -0.06119564 0.023957124 -0.011696097 -0.003256559 0.019043826 0.004480413 -0.02246604 -0.109842196 0.026825916 -0.0073724003 -0.020377906 0.009064508 -0.109254725 0.06275972 -0.027624942 -0.02090546 0.00877127 0.065315425 0.051023874 0.021087568 0.014103124 0.0028750272 0.06677802 0.022405414 0.008978869 -0.027880376 -0.015906008 -0.04511946 -0.016021257 -0.035517167 0.017910901 -0.012464719 0.07986336 0.035209328 -0.019134827 0.017430479 -0.05154103 0.010155958 -0.010762037 0.026558565 -0.050259326 0.05522242 -0.079688326 0.060826536 -0.040504646 0.054528974 0.027208706 0.041271094 -0.031182606 -0.08986862 -0.072481856 0.082665704 -0.056144953 -0.038836654 -0.06442025 -0.013270921 0.0015440558 0.019740777 0.008135509 -0.020431057 0.028012572 -0.018482417 -0.0061245263 -0.0514373 0.047542844 0.017444333 -0.041352548 0.07286601 0.027671997 0.041294985 0.033231217 0.07573478 -0.0007195575 0.0322063 -0.04311055 0.041568965 0.015369074
tolerance 0.02878359 0.045571778 0.024926666 0.029006371 0.048839957 -0.06125297 0.05749786 -0.011377622 0.023163477 0.01875344 -0.029918972 -0.05316153 0.03655969 0.026622305 0.035341233 -0.050065074 0.0731709 0.08617648 -0.027438063 0.025648067 -0.04183632 0.01006391 -0.055093113 0.008594412 -0.036389418 0.008078735 0.009477915 -0.023320943 0.022610134 0.06667467 -0.051694322 0.007854646 -0.04902617 -0.0106832655 0.020359926 -0.025906004 0.012770189 0.0005518785 -0.06017579 0.005868487 -0.014458416 -0.11679404 -0.0006669791 -0.022910392 -0.054458052 0.030993702 0.007210984 0.023962626 -0.027040938 0.019560428 0.06476267 0.008032755 0.05248571 0.058131505 -0.039307833 0.007200185 -0.04745224 0.016054811 0.020834189 0.015720041 0.06903291 0.03283594 0.028209837 -0.021535428 -0.0050356793 -0.051392037 -0.0471121 -0.015452082 -0.026568454 0.03654246 0.106723905 -0.030036729 -0.035507035 -0.0070664124 -0.061853334 -0.031275593 -0.014225934 0.042207044 -0.074450344 -0.03194799 -0.019552227 0.037569933 0.021339882 -0.070532955 0.04297748 -0.0020276834 -0.009199432 0.048448313 0.07574591 -0.0556235 0.025718236 -0.008532846 0.0040848106 -0.04203965 0.09865489 -0.0057364637 -0.052015442 -0.07483575 0.029747069 -0.032780636
early 0.020346329 -0.029686188 0.058516216 -0.05925917 -0.020381454 0.006075564 -0.07727371 -0.038687598 -0.020001419 -0.007566625 -0.0172223 -0.03551561 -0.003414446 0.005522869 -0.023814753 -0.013599359 0.032363087 0.019042095 0.02644956 0.057571143 0.044533413 -0.03941741 0.034269374 -0.021206561 0.00088962365 0.024433004 0.01702619 -0.019122291 0.012843204 -0.04229261 -0.025631046 -0.023608742 0.0014223158 0.018293882 -0.04208624 -0.065996535 -0.05292487 0.016537985 0.0003189168 0.056752574 -0.011824993 -0.014374305 -0.0064953226 0.020155856 0.010423682 0.025136983 -0.0016417181 0.029129371 0.014716329 -0.00050699734 0.013045187 -0.023494773 0.001347108 0.055851355 -0.0028043564 0.0082010925 0.048838172 0.02111524 0.012106284 -0.0148136765 0.013139039 -0.0023671945 0.029528935 0.012634655 0.02909492 0.007189567 0.0028535475 -0.08179798 0.017523104 -0.020319626 -0.032243997 -0.019353904 0.019373838 -0.04723963 -0.020326402 -0.04861977 -0.024189947 -0.0049513774 -0.010342217 0.01192778 0.01951726 -0.028221225 0.002359597 0.021856925 -0.021851057 0.018492533 -0.037867546 -0.023464942 -0.029129248 0.01791807 -0.021049423 0.01061537 -0.040883254 0.013634987 -0.019530622 -0.010057293 -0.0067023933 -0.0051437956 0.016907018 0.031432148
technological -0.05557339 -0.09248016 0.0429712 0.011182091 0.004587015 0.005803805 -0.049061824 0.04219833 -0.010561425 0.043076467 -0.02779109 -0.026848884 0.015335619 -0.008789952 -0.0009963925 0.0267223 -0.006530696 0.0046759727 0.004248636 0.00832278 0.015298503 0.034171212 0.041153304 0.058908094 0.007471852 0.03500485 0.017101238 0.02900646 0.038954567 -0.043716993 0.012336717 -0.00079254416 -0.0353667 -0.031554956 -0.0046324804 -0.038798828 -0.02695682 0.06805263 -0.07309578 -0.026468301 -0.039290454 0.002510419 0.040310163 0.011747287 0.05004792 0.039408337 -0.027967012 -0.057520542 0.022292456 0.011132412 0.018319363 0.076314665 -0.030295119 0.03507442 -0.048321974 0.01000321 -0.003679777 0.025982952 0.008400976 0.024301574 -0.0465195 -0.015268143 -0.0010266945 -0.023485266 0.028703952 -0.006438558 -0.011322548 -0.0009879506 0.02112043 -0.044390246 -0.032953374 0.022457227 0.00689569 0.010295151 -0.007549798 0.01626477 -0.01176013 -0.037802827 0.012038432 -0.03377293 0.011322015 0.01619306 0.0006239703 -0.013589849 -0.0024574543 -0.04177753 0.0064691794 -0.04066039 -0.030861935 -0.015639244 -0.01764246 -0.008160928 0.035307232 0.045415107 -0.079633474 0.037780207 -0.014529393 -0.0057630986 0.034428507 0.021395687
St. -0.00037061045 -0.025676534 -0.009157906 -0.0030898754 -0.010488491 0.054545045 0.010511645 0.0015729002 -0.026339697 0.01229912 0.014345401 -0.008857128 -0.024129149 0.020773126 -0.029178793 0.005704376 0.012215842 0.014273671 0.0091705425 0.04165439 -0.016952263 -0.032194953 0.0028559035 -0.014088185 -0.014113939 -0.007922426 -0.010412352 -0.030338956 -0.021754522 -0.0136596775 -0.0068813497 0.008720016 -0.03148965 0.0032872544 -0.017199537 0.0026827517 -0.007965667 0.030292569 0.006845574 0.005238956 0.020822335 -0.028803851 0.0016504443 -0.021562502 0.021133091 0.014239188 0.013677233 -0.013236093 5.9122103e-05 -0.039384115 0.013127492 0.007246665 0.007233517 0.05284646 0.018796802 0.03628648 -0.010521968 0.015467495 0.019386124 0.019087879 -0.010847258 -0.02304064 -0.0055582654 0.014458906 -0.012567426 0.027995763 -0.011758924 -0.0314959 -0.021390688 0.003269208 -0.049449947 -0.035117667 0.01731382 -0.029880043 0.04043773 -0.019328918 -0.037964493 0.0130595025 -0.005910493 -0.0048326543 0.015685903 0.019879244 -0.00632781 -0.032113247 0.02655659 0.003357877 0.040798325 -0.011241353 0.0077927397 -0.0024205449 -0.017834224 0.028682 0.014085467 0.0024077068 -0.016843483 -0.0057455655 0.017678628 0.03708891 0.009206752 0.019725857
somehow 0.01407326 0.026443953 0.01800961 0.0069575543 0.022823798 -0.010944318 -0.0026613069 0.0050161574 -0.005673721 -0.017598614 -0.010195807 -0.020085145 -0.036595013 -0.0046456787 -0.018912056 -0.0170756 -0.032424413 0.03460301 -0.007232519 0.013563563 0.017728468 0.0109105855 -2.4160428e-05 -0.018101467 0.027252575 -0.03340544 -0.0034219665 -0.004843569 0.021928389 -0.0014438594 0.018106636 0.021882508 0.00831572 -0.008494718 0.020629063 0.018613998 0.011739514 0.015488315 -0.020243233 -0.008916525 -0.0039045054 -0.027285803 0.023837065 0.012613048 -0.002464902 0.01001175 0.005860775 0.012531207 -0.011264581 -0.024660086 0.015316468 -0.035903364 0.028018672 -0.029476538 0.023348948 0.029513236 0.003902749 0.0064349184 -0.005877007 -0.013689217 0.0053632315 0.011685389 -0.014598299 -0.009198301 -0.0032728505 -0.00578672 0.017954772 0.0156185785 -0.004724986 0.012747988 0.042435676 -0.037399035 -0.022669338 -0.007490868 0.03027036 0.00073412666 0.000591471 -0.013364733 -0.007374167 -0.022437258 0.006625765 -0.023213824 0.005720263 -0.010261379 -0.017092781 0.00236334 -0.017139873 0.011931148 -0.00455063 -0.002254579 0.021239195 0.015242104 -0.011795875 -0.002085866 0.027267562 0.00381774 0.0060141534 0.0028705695 0.010468505 -0.005891651
momentum 0.012886419 -0.02280282 0.035159543 0.02682109 0.0069014095 0.006512169 -0.007014157 0.063980766 0.025715822 0.013507721 -0.002814632 0.0042694807 0.028395746 0.0204621 -0.04967703 -0.017092792 0.017613364 -0.050887857 0.02233804 0.027946698 0.013335596 0.0049062786 -0.010007193 0.0022607592 0.01982554 -0.04087742 -0.03289494 -0.003957749 0.0009479253 0.031274006 0.037905086 -0.011898164 -0.02107659 0.00573021 0.012520382 -0.026385145 -0.009858789 0.02400419 0.04709965 -0.0038225695 0.010173308 -0.0274899 0.0062145935 -0.026888845 -0.040298644 0.0044904575 0.040807568 -0.05069572 0.012914004 -0.033503037 -0.00089614757 -0.04866834 -0.060195006 -0.012728775 -0.009615562 0.008571492 -0.019030526 -0.0071353433 0.008611052 0.05802205 0.0030262382 -0.0063491953 -0.017742744 -0.015778782 0.000109108514 0.0137431035 -0.014887974 -0.009180605 0.005934006 -0.010005419 -0.018715505 -0.043643236 -0.023992514 -0.00729117 -0.011004075 0.0011160176 -0.019693857 -0.02075528 0.0038379817 0.01675524 -0.0018110583 -0.018323023 -0.029816147 0.059234653 0.02981081 0.03425698 -0.0049737804 0.01243331 0.010139649 0.024225865 0.027021272 -0.013518585 0.053351264 -0.016576769 0.0288175 -0.030324336 0.044656523 0.035841085 -0.005872162 -0.050852578
became -0.034726255 -0.007032205 0.013503437 -0.046120886 0.03734345 -0.0632426 0.020522252 -0.0025798401 -0.0005266825 0.08333715 -0.015595589 0.016718056 0.06296477 0.055082258 0.006349713 -0.0010745887 -0.032028697 0.0055681537 0.081331946 0.022697678 0.001757683 -0.077631705 -0.03173167 0.0016602037 0.01923113 0.012093007 0.036353134 0.0029459356 -0.047629055 0.05187112 -0.049381953 0.07066145 0.017108345 0.053066526 -0.0412892 0.012336207 -0.047777113 -0.0055754855 -0.010204331 -0.016925823 0.020677956 0.004327739 0.057504863 -0.04126204 0.074487336 0.009091448 -0.027823063 0.011795617 0.015592027 0.0058663916 0.034850765 0.00782566 -0.0052252947 0.00808532 -0.022699095 0.049519673 0.034967624 0.080284625 0.0033274344 -0.043905005 0.005112702 -0.06028328 -0.007977816 -0.0019939267 0.021845175 -0.0075045126 -0.013739017 -0.035438407 -0.08317483 0.030749744 -0.012535135 -0.0026621935 0.0023698485 0.016144898 -0.01035431 -0.016872358 0.026570506 -0.0015842817 0.0011734944 0.033690244 0.03879402 0.0025488148 0.032878887 -0.021969805 0.0002518163 0.018795315 0.080185995 -0.014660274 0.0088897925 0.012226302 0.068746984 0.062693164 0.0060702343 -0.05258516 -0.01684453 0.0033255822 -0.014055414 0.024856612 -0.013934709 0.043606672
depends 0.030338492 -0.02100214 -0.028911697 0.00046938704 0.018931087 -0.022002602 -0.02596956 -0.0035902811 -0.026936892 -0.0077308184 0.0022231166 0.021489449 -0.015767025 0.017386543 -0.012753676 -0.022020292 0.03021595 0.012345201 -0.0012627926 0.005587507 0.061549213 0.026449516 0.0024274676 -0.013840087 0.03282893 0.010482145 0.028183142 -0.009631089 0.00038537444 -0.033629566 -0.034530006 -0.018176498 -0.009840164 -0.014095019 -0.0035689836 0.004058934 -0.012772912 -0.009832568 0.0011882631 -0.0637916 0.010617319 0.015535641 0.0049543325 0.003242652 0.0021220096 0.007622664 0.039169554 -0.0060960976 0.016340688 -0.009515819 -0.0043595205 -0.0069303666 0.016977292 -0.012128989 -0.0015421347 -0.022638308 0.004062849 -0.00023943896 0.027987722 -0.0018187471 -0.006327977 0.030535284 0.007908002 0.025470415 0.014322557 0.008639345 0.008925822 0.006712039 0.003177277 0.01039909 0.028069517 -0.042532753 0.03330859 -0.042217888 0.025168266 0.011206993 0.007037406 0.022575812 -0.014955453 -0.05748468 0.04875256 -0.014517738 0.0031841183 0.003554482 -0.030562418 0.020098787 -0.03767564 0.009835691 0.0005082605 0.01978534 0.0030451901 0.026261486 -0.0069126496 -0.023544516 0.023651903 -0.021480756 0.023713076 -0.014310852 0.025737679 -0.021949643
least 0.005825345 -0.04006149 -0.0018005493 0.009144131 -0.027158288 -0.0041069407 -0.00030948632 0.006621322 0.0039000092 -0.00024188077 -0.0055903653 -0.006335738 -0.014660478 -0.010358167 -0.00927474 -0.016434524 0.012301413 -0.0069594597 0.027496496 -0.013438461 0.0055208844 0.0016552061 -0.000604255 -0.017553017 -0.023347858 -0.014642689 0.005463561 -0.004022427 0.018687008 -0.016547034 0.015996354 0.00921728 0.0026405137 -0.014665439 0.020076377 0.030027177 0.0072980807 -0.0031768838 -0.016338687 0.014513856 0.017775 0.009166735 -0.01879036 -0.02972826 0.012474605 0.00035059953 -0.014728052 -0.0035472875 0.017036274 0.019834986 0.011816299 0.03214945 -0.017588131 0.0041303765 -0.004248284 0.019474274 0.01893231 0.012315751 -0.012707146 0.019167447 -0.039274104 0.0101247905 0.013082409 -0.012874427 -0.0489639 0.0060140155 -0.0058211703 0.025388505 0.007920483 -0.020936534 -0.0049762125 -0.018176438 0.033638798 0.024780033 0.0038344942 0.032376517 0.0022667933 -0.0010624664 -0.012796195 -0.014300833 0.008939434 0.009855396 0.009382665 0.011770277 0.007983269 0.04072745 0.019105248 -0.010368925 0.021063427 0.020166164 0.023862131 0.02325009 0.006064476 -0.036615103 0.0148041565 0.023910355 -0.0070062233 -0.0026578112 0.0012444389 -0.016433332
former 0.020098688 0.008508513 -0.038920067 -0.01763422 0.02201971 0.046735156 -0.024347411 0.016893514 0.037455413 0.0063507147 0.013421204 0.029571144 -0.030114776 -0.050125867 -0.009738717 -0.03054745 0.012941907 0.03237744 -0.00034905318 -0.01642989 -0.00920213 -0.017890371 -0.008239201 -0.0011824493 0.009637503 -0.0073999125 0.04526947 -0.016925614 0.01908315 -0.017863438 -0.024190735 -0.025028713 -0.0097753955 0.048440635 -0.009152477 -0.04246312 -0.013910159 -0.0058536795 0.034126684 -0.027922584 0.052460086 0.003622567 0.022397207 -0.0034401328 0.040909816 -0.076782845 0.014680418 -0.0021854155 0.0077251797 0.011749241 0.047513403 -0.0068710567 0.011836776 -0.02789773 -0.0058640097 0.026419813 -0.035024237 -0.027651997 -0.042724863 -0.050104894 -0.0024936767 -0.0054742103 -0.0044923224 0.009781146 -0.0089294575 -0.0022381074 0.00850513 0.016591696 -0.0127255665 0.019051814 0.021048442 -0.019560952 0.00431617 0.015814077 0.027387843 0.025133358 -0.015321266 0.016658122 0.014968167 0.033060912 0.0036277901 -0.02714022 0.023500552 -0.01666011 0.0037306333 -0.03612394 -0.020169135 -0.0026772977 -0.018040055 -0.003458075 0.03370451 0.005563055 -0.022967504 0.009776747 0.014338899 0.0064833956 0.0014707863 -0.048383415 0.052790068 0.016618421
language 0.013800479 -0.0018345333 0.007552091 -0.004724814 0.03397977 0.010569622 -0.025346648 0.037794705 -0.04318567 -0.00058108615 -0.05037218 -0.0008557674 -0.0071835453 -0.0081274705 0.008213667 -0.0030821862 0.028124144 -0.028716795 -0.022646256 0.0049387044 -0.018295933 -0.0033652538 0.015833605 0.017366763 -0.004296289 0.0058469176 -0.0077708145 0.009926591 -0.0073276795 -0.0014637808 -0.026053857 -0.0026557355 -0.022479804 0.01613661 -0.02054576 -0.006095232 0.018552462 -0.01636505 0.030402044 0.00094952097 -0.0284847 0.008685037 -0.035793044 -0.0030002838 -0.022709807 0.0146087855 0.0008232566 -0.0040593147 0.013837011 0.011161606 -0.006401485 0.014111496 0.001686298 0.01757284 -0.014101566 0.0021241668 0.014641865 0.03346561 -0.024346374 -0.040626813 0.040939696 -0.012502058 -0.026060535 0.041662525 -0.009847039 0.038281836 -0.0025633113 0.018258085 -0.018825168 0.016929923 -0.020224717 -0.019076943 -0.01877753 0.010375934 -0.0105206 -0.02018046 -0.042620625 0.009743317 -0.009565086 -0.0030670967 0.006310242 0.029274374 0.020965945 -0.018856386 0.014151415 0.0154032335 0.00014389619 -0.0030543394 0.010913191 0.014064669 -0.010284086 0.02779448 -0.00096677727 -0.019808846 -0.01226504 0.002403648 -0.018577194 -0.0047777486 0.00085173023 0.025145091
Elections 0.006186752 -0.0059327623 -0.012926333 -0.029991511 0.05634031 0.039562773 0.080261916 -0.015510397 0.019017631 0.027235245 -0.018451532 -0.04026766 0.00580809 0.026935378 -0.08493388 -0.00045382022 -0.0122103095 -0.031184243 -0.0072587263 -0.04649754 0.0032901932 -0.029517358 0.03918707 -0.043691877 -0.0063414266 0.033695735 -0.044112187 0.03297936 -0.017467223 0.022903576 0.0017827044 0.006333304 0.01988461 0.020016937 0.0069145933 0.038595315 -0.00251357 -0.030696707 -0.05049632 0.025776815 -0.012627499 0.07195105 -0.006940454 -0.03651385 -0.0051332773 -0.007580078 -0.010052957 -0.04804248 0.077296816 0.030807732 0.021077849 0.007753114 0.0060337726 0.014464473 -0.038161535 0.024540935 -0.01776391 0.025205566 0.023121083 0.030641703 -0.04829854 0.006756248 0.029486105 -0.015561684 0.0034246983 0.00863175 0.007058194 0.027795406 -0.030457048 -0.016156249 0.018221434 0.017861793 0.0029148501 0.030138744 -0.0038945852 -0.007317667 0.07404828 0.013075698 -0.011527623 0.038255002 0.0025721302 0.03695971 0.03906841 0.0040770974 0.071258105 -0.044301458 0.026129413 0.123934105 0.0015450736 -0.03529017 0.00838371 0.026227353 0.016712587 0.025580378 -0.036527574 -0.036255535 0.029225143 0.015134895 0.02232328 0.07380309
1934 0.011254697 0.039919056 0.011671824 0.01979834 0.037063878 -0.02618386 0.044889737 0.048555795 -0.019587368 0.027866965 -0.050270945 -0.07913136 0.016322514 0.03440062 -0.01001142 0.06989689 0.040479247 -0.023497531 -0.011467077 0.044295095 -0.0040176907 0.015337418 -1.4000456e-05 -0.014521605 0.03046968 0.0079252105 0.0104485825 -0.02993816 -0.029481748 0.014280713 -0.026729539 0.005309012 0.019511377 -0.0056377826 -0.0010743258 0.03467388 -0.01307335 0.019652994 -0.022718588 0.04122052 0.016604975 -0.06723749 0.026215242 -0.04854914 0.022246748 0.010266021 -0.019571269 0.021371586 -0.03311025 -0.04321747 -0.0064016967 0.050070245 -0.006370277 0.03725212 -0.026733475 -0.02308839 -0.022815412 -0.05670862 -0.041123565 0.027549248 -0.026249994 0.009211349 -0.040232535 0.010789941 0.048403017 0.003807749 -0.0057533057 0.022683864 -0.026248895 -0.03142855 0.07465931 0.016700793 -0.003431723 -0.0070122425 -0.008335975 -0.0584314 -0.059064664 0.03249157 -0.040799998 0.027391775 -0.024968963 -0.033702124 -0.070995405 0.044303935 -0.008809936 0.0033892165 0.02782994 -0.017004611 0.06313734 -0.0044747544 0.03859366 -0.06016168 0.03191962 0.022560751 0.02861724 0.048656933 0.024002671 0.0010949958 0.025407188 -0.0016930562
ongoing 0.006142982 -0.0091771595 0.0047608865 0.060936294 0.020443704 -0.052044176 -0.015271207 0.0004975124 0.04568229 0.0101586105 0.04376598 -0.002452022 -0.0039059534 0.04391735 -0.02155929 0.004118435 0.0068513355 0.04856726 -0.010484382 0.0156582 0.0012010799 0.00012227555 0.03392619 -0.026462387 0.016552694 -0.028792767 0.012921246 0.011329075 -0.018022144 0.057525277 0.025785131 -0.0029904917 0.008702421 0.013860991 0.01786494 0.005615271 0.026223427 -0.032660365 -0.01593213 -0.022104057 0.0005402855 -0.007910206 0.020807957 -0.0041480777 0.011234859 -0.031123314 -0.005131422 -0.017889474 -0.026858618 0.02650192 0.013887808 0.004118786 -0.023636999 -0.023820248 0.045625854 0.011538307 0.0120918155 -0.006194822 0.0052669994 0.0053915507 0.036027413 0.042576797 0.0031360192 0.0013980807 -0.006538084 0.026235167 0.0045380597 0.004184777 -0.008943744 -0.030772537 -0.028347706 -0.021844301 0.049464848 -0.033840396 -0.0004076109 0.023344066 -0.014199268 0.043779448 0.015439346 0.018181058 0.049196195 0.02501009 0.018027099 0.010989905 0.021667691 -0.02241777 0.0135280555 0.011446966 0.01480195 0.030360326 -0.016529601 0.0176101 0.0005993609 -0.019609895 0.0027004573 0.058787838 0.008396198 -0.004281631 -0.045812484 0.0034297463
reality 0.013727455 -0.014669309 0.001104342 0.020773456 -0.016406644 0.013158313 0.009587579 0.0034824477 0.026555281 0.00057945243 0.00903173 0.010269721 -0.030137576 -0.048513062 -0.03582608 -0.0025062826 -0.0113613745 0.036951106 -0.0116839 0.02487494 -0.006406935 -0.015541881 0.009274844 0.015980098 0.00018119236 -0.033084936 -0.0013823732 -0.01651671 0.016681593 -0.021095308 -0.024075098 -0.008502158 0.015743542 0.014695534 -0.009576215 -0.008666961 -0.00941702 0.006959294 0.02556173 0.0062643327 -0.035871502 0.021464558 0.0014648964 0.028665984 -0.018294208 0.008488235 -0.026886484 0.012977194 0.01047107 -0.0022994601 -0.005232104 -0.001037776 0.012358236 0.03814664 -0.033142548 -0.0038529746 0.021441717 0.023025343 -0.01521374 0.021782344 -0.036874726 -0.010891995 0.025684485 -0.04166436 0.0011557293 -0.005744188 0.014979633 0.011802219 -0.035379887 0.0009845274 0.016259862 -0.017580647 0.000105961866 0.0116039775 -0.005888979 -0.035218306 0.04783697 0.0012626867 0.03048333 -0.0047549224 -0.014059362 -0.023433695 -0.027140062 0.011184439 -0.003229266 0.01623675 0.020482244 0.03670872 0.008193752 -0.017270602 0.043337937 -0.031537827 -0.017607085 0.055957224 0.010571812 0.032847814 0.008392607 0.047741912 -0.0009957341 0.037400704
fought -0.0021517384 0.03787161 0.00021133886 0.018524295 0.013882865 -0.0046996605 -0.023595933 -0.010064696 0.006241452 -0.02628872 0.027487911 0.050210025 -0.011161824 -0.015817992 -0.004026483 0.03015983 0.0005269494 -0.040715985 0.00011217804 0.008835332 -0.024114128 -0.0056642606 0.010292745 0.018642582 0.036324717 -0.006822873 0.017750708 -0.013957675 -0.0064815483 0.014988136 -0.016193755 0.012569774 -0.014699179 0.009150972 -0.00048334064 0.03735421 0.017981578 0.027314866 -0.02468073 -0.011096481 0.00038092 -0.053805403 -0.020639224 -0.008318206 0.03497848 -0.029399741 -0.024516296 -0.0053778347 -0.030437244 0.007836923 -0.0039035142 0.010180974 -0.042455997 -0.0260036 0.026606863 0.028773911 -0.015754905 -0.023314254 0.0049073016 0.019203058 0.028679058 7.070252e-05 -0.0010936343 0.009932458 -0.02880931 0.018849963 0.025660047 -0.04617994 0.024430877 -0.013354001 -0.076842666 -0.00127969 0.00041537825 -0.050664768 -0.026855165 0.017164508 -0.04747321 0.00703346 -0.009256933 -0.017774457 -0.0015935977 -0.004083383 0.0397372 -0.0010021398 -0.0059063663 0.015366276 -0.0039518056 -0.008863206 0.024829429 0.00097115256 0.0008779271 -0.015368008 -0.027868472 -0.036685105 -0.02445368 0.002751401 -0.063943245 -0.0008723208 -0.008480836 -0.0066578756
riding -0.04529743 0.02627804 -0.0064502168 -0.01541112 0.013813919 0.024173597 0.027420571 0.005911121 -0.004557972 -0.026127333 0.007372456 -0.04219771 0.023946773 -0.009083569 0.008782962 0.014206767 0.04059389 0.018618146 0.06538447 -0.008341665 0.028593363 -0.01300958 -0.017837198 0.0030713023 0.027178664 -0.007172833 -0.036213204 0.032935545 -0.013026808 -0.005298938 0.01660244 -0.019814273 -0.007270747 0.018639209 0.040756173 0.054755248 0.0033992077 0.017571058 0.005422621 0.025580969 0.01129665 -0.023670241 -0.049057294 -0.00527097 0.0056342445 0.048170116 -0.011308136 -0.03145595 -0.014514769 -0.0012808347 -0.014372666 -0.012327803 -0.01486371 -0.00024345319 0.032481674 0.008755753 -0.031203035 -0.005133915 0.019150877 0.005351271 0.0090852175 -0.009694974 0.010398605 0.050474644 0.014462376 0.011848376 -0.002924251 0.027404279 0.0011069285 0.015976688 -0.0027250424 0.040228777 0.0030690865 -0.011715529 -0.051812697 0.039011773 0.03674834 0.013749938 0.033096395 0.06697199 -0.0015789063 -0.007358383 0.028349666 0.0056921593 0.0007161277 0.04053736 -0.0132966 -0.013681101 0.0041951383 0.008918162 -0.009332172 0.014366511 0.03289494 -0.0078937365 -0.042049304 -0.0053856457 -0.044946484 0.02195735 -0.030549498 0.022661336
levels -0.08312606 0.007551248 -0.013497225 0.050854657 -0.011448163 -0.035756182 0.008356221 -0.0053867116 -0.028905943 -0.011431676 0.0031319424 0.022381881 0.006455552 0.0043677795 0.010202965 -0.004900299 -0.028977063 -0.024425885 -0.05459621 -0.037090115 -0.026666092 -0.018654618 -0.00076985493 0.014651345 -0.00899804 -0.036960218 0.027261091 -0.0045521343 -0.00478199 0.016004162 -0.030646184 0.01636968 0.0052442783 0.007672713 -0.009701548 -0.032492213 0.012222488 -0.026527785 0.0072933794 -0.030289508 0.020516789 0.0064595165 0.022887092 -0.0407301 -0.026694389 -0.017176898 0.024051936 0.020817662 -0.029270701 0.008452028 -0.023710918 -0.035168935 0.012603315 -0.02399492 0.025068607 -0.022410419 -0.0076717497 -0.029273493 -0.02654822 0.007798312 0.012124801 -0.0003210553 0.008104815 -0.0036790597 -0.01889685 -0.009157882 0.06008716 0.0050911694 0.012351498 -0.037634198 0.029921973 -0.0436847 0.021893224 0.003670228 -0.014998905 0.029857596 -0.019178286 0.014522524 0.007452352 0.011045307 0.0147862295 -0.0058035385 0.028795574 -0.008209532 0.049982518 -0.0009904902 -0.012034831 0.03628003 0.008194793 -0.050137732 -0.0022403037 0.03712426 -0.043498307 0.0069342963 0.003064247 0.008571378 0.010529059 -0.03313646 -0.025943093 -0.027298862
exports -0.017786535 -0.007254266 -0.03638594 -0.035606973 0.05998469 -0.026427038 0.011339833 0.012045298 -0.012432752 0.052812204 -0.0019256378 0.04159651 -0.06311594 0.054018747 -0.017166397 0.0032864765 -0.0009111143 0.0019280084 -0.02150756 0.003158206 0.009610996 0.025079845 -0.037564877 -0.088166974 0.03617756 0.02029622 0.01807672 0.023338068 -0.020784387 0.012385355 0.0028266397 0.027329054 -0.017570466 0.025469774 -0.0026238095 0.017333202 -0.050210677 -0.06275303 -0.010564182 0.015547945 -0.024336262 -0.041023504 0.0057186172 -0.032550115 0.0014918775 -0.007120446 -0.017306508 -0.022118716 -0.009149953 0.0465483 0.012902719 0.008156067 0.004717506 -0.02218967 -0.0025034593 -0.035858776 0.023032699 -0.0716369 0.035828676 0.07799497 0.001044237 0.005443977 -0.04390068 -0.031357605 0.005616496 0.03140462 0.03278234 0.0726207 -0.0116558205 0.016879208 0.029386356 0.01359981 -0.06416068 -0.0010151725 0.046419002 -0.03890285 0.017155005 -0.015269013 -0.006481966 -0.036106125 -0.04135665 -0.0178176 -0.016738312 0.008099393 0.048395734 0.0010493707 -0.007564749 -0.010441774 0.06352431 0.0002520128 -0.010357108 0.050431766 -0.08244257 0.021157937 0.018112447 0.01429327 0.018636387 -0.02758161 0.021409284 -0.024810428
popularity 0.025583178 -0.0053488673 -0.06538928 0.03345804 -0.034010116 0.0569805 -0.028840214 -0.016427953 -0.027708566 -0.0029070314 0.0627284 0.14178792 -0.040589534 -0.0028763902 0.0031173301 -0.024028828 0.038177285 0.0886907 -0.026417498 -0.019396797 -0.07883956 -0.014690513 0.024892187 -0.01309572 -0.015659224 -0.014630348 -0.018553143 -0.02392171 -0.011504188 -0.05127737 0.06772729 0.019578593 -0.028463803 0.015515499 0.07450335 0.070839964 -0.03658151 0.057451736 0.053968277 -0.015550706 -0.015940227 0.055807617 -0.086730435 0.010171242 0.00894581 -0.0073499586 -0.0015860606 -0.0016701489 -0.03742085 -0.04870037 -0.009916771 -0.0068321065 -0.02256189 0.04867142 -0.0076736826 -0.034496106 0.1011354 0.073491104 -0.044131946 0.024719719 0.0059823953 -0.0032138065 0.03636881 -0.0637379 0.03967405 0.0075882133 -0.06160834 -0.009333072 -0.031364046 -0.04314569 0.09082703 -0.08121297 -0.03691488 0.042782247 -0.0024201984 0.019175109 0.06768567 -0.017370239 -0.045793705 0.032634765 0.073441505 -0.068394214 -0.038437404 0.039269093 0.019532315 0.0004311182 -0.00474867 0.075374104 -0.015254485 -0.03692651 -0.05797496 -0.045859553 -0.03251695 0.032403957 0.009730172 -0.006457184 -0.02300401 0.011522618 -0.1056974 0.019287119
complicated 0.0031623016 -0.016680878 0.013557 -0.0013080222 -0.0028498971 0.0031334963 -0.0063200896 -0.054926295 -0.022018315 0.017731862 0.00024708908 0.037676264 -0.013768965 0.012252813 -0.016718566 -0.01396586 0.031022903 0.0031511183 -0.039342895 0.013849363 0.03666183 0.004170209 0.020383801 0.021840364 -0.013946017 0.03258273 0.012333179 -0.0031864138 0.013122325 0.023877202 -0.028503805 0.017536426 0.02344587 -0.044181295 -0.01258659 -0.015763747 -0.011763633 -0.02043235 -0.00746268 0.027618812 -0.02525847 -0.0046545733 -0.008544232 -0.0340599 -0.0010731195 0.0042656315 0.024521949 -0.011006146 0.017864715 0.035095006 0.025037553 0.032036025 -0.0036961713 -0.004615842 0.01708051 0.013566508 0.01830562 -0.0027702574 -0.013994335 0.016524969 -0.011867252 -0.024745703 -0.008527035 -0.013677689 -0.052415892 0.012437575 0.01953453 -0.027256364 0.038871348 -0.00294914 0.01800171 -0.034735054 0.028082106 -0.018297901 0.017859228 0.006863107 0.0007264119 0.0027717669 -0.025039759 -0.0027560825 -0.012645433 0.014858016 0.021104513 0.010247122 -0.011453979 0.03288296 -0.010914551 0.020838488 0.001993217 -0.020475216 -0.017614182 0.011314601 -0.022691607 -0.015465203 0.027232971 0.023602867 0.0019716404 0.0062761186 -0.02121968 -0.024657799
1984 0.069298714 0.05065003 0.046443406 0.026494497 -0.009539874 0.008628024 -0.013382792 -0.041101646 -0.008629477 0.030932078 0.047195088 0.007540335 -0.025772275 -0.017555347 -0.01222996 -0.0206174 0.02969042 -0.049225807 0.04334592 0.048971493 0.010934734 -0.0017389336 -0.0026222616 0.0023255073 -0.01095003 -0.0032305163 -0.00262278 -0.0076673953 0.0049629384 0.06857263 0.03530031 -0.03811849 -0.052390024 -0.04671503 0.01391989 0.0050658965 0.07415873 -0.013288966 0.060011815 -0.035432763 -0.052388646 -0.041957762 0.031005558 0.03574756 -0.03422271 0.03350289 0.04503794 -0.032457396 0.008183987 -0.011239986 0.032257996 0.034418214 0.02676539 -0.01397181 0.01663932 0.011387945 -0.009773825 0.036107916 -0.027576793 0.07539922 0.02708185 -0.025823327 -0.004728819 -0.06251102 0.047060963 -0.015326829 -0.025743188 0.04160517 0.048079386 -0.024975153 0.015774488 -9.357606e-05 0.046493534 0.008165659 -0.09135351 0.026754897 -0.040217143 -0.028205767 0.0056498274 -0.042388912 -0.058252864 -0.024247492 -0.0075377976 -0.038988143 0.050612718 -0.018968228 -0.015685532 -0.012984212 0.0231614 -0.020342488 -0.08757265 -0.043694284 -0.0542252 -0.049555477 0.00026197592 -0.009541595 -0.02258701 0.018069226 0.009879647 -0.008818484
distributed 0.018417126 0.017165035 -0.0034827464 -0.026949681 0.0151666505 -0.01850126 0.04062993 -0.027281174 0.0058081183 0.034188252 -8.248995e-05 0.0098229805 -0.0105296755 -0.013586787 0.0057524634 -0.006766638 -0.022362513 0.005657979 -0.011149527 -0.011272095 -0.017076004 -0.019438129 0.013878217 -0.027899643 0.039494753 -0.0023836398 -0.02470427 0.021610983 -0.015958779 -0.015749171 -0.041547112 -0.0033520614 0.022418663 -0.020310707 -0.014551298 0.011134278 0.0064029023 0.034113526 0.019376976 -0.0053307354 0.024324743 -0.04874022 0.035045367 0.0016411832 0.025447298 0.0027676332 0.05352743 -0.025783824 0.00398878 -0.006296796 -0.030875007 0.0132106375 -0.0013885447 -0.009669458 0.016710015 0.018851165 0.02552865 -0.012649154 -0.011405277 0.017588783 0.014026565 0.039294075 0.0054835603 -0.029181138 0.0049821897 -0.014295515 0.016773332 0.02928911 -0.018066444 -0.061651107 0.001814218 -0.015895426 -0.034452554 -0.035151374 0.03452283 0.055904623 0.00064905453 0.0019785166 -0.0022830132 0.011681635 0.021332625 -0.000120447134 0.030671498 0.00017022772 -0.0059372187 0.0038432765 0.027142754 -0.048070867 0.032544848 -0.030635472 0.028838824 -0.016913917 0.028826019 -0.0016027363 0.018580476 0.01033097 0.03394544 -0.04838161 0.037823685 0.0039897827
gloom 0.006192864 0.042419158 0.023102552 -0.053454548 -0.014825722 -0.05233366 -0.0009219489 -0.010329776 -0.0033426583 -0.02589678 -0.01297383 0.062014647 0.026314702 0.007087305 -0.04906347 -0.01702585 0.0045670248 0.06569168 -0.034790684 0.06842295 -0.049079936 0.027424864 -0.063493684 0.022826694 -0.013618145 0.044133354 0.011234017 -0.0067376746 -0.0037215299 0.0026739687 -0.058615774 0.0012470806 0.03394142 0.04188778 0.0164425 -0.009528449 -0.00041184004 0.035216685 0.016403636 -0.00018944003 -0.021986958 0.006731528 -0.024102636 -0.057631195 0.015308853 -0.016491422 -0.014723537 0.047168437 0.04281132 0.018912498 -0.012187519 0.008945246 -0.012272706 -0.014624846 0.006272749 -0.037368815 0.048736267 0.012736138 -0.04133427 -0.021440493 0.052368023 0.07354275 0.042758554 0.036826517 0.009073878 -0.022703618 -0.055494845 -0.032016236 -0.02471084 -0.03916202 0.064125486 0.026635885 -0.026400479 -0.0058171875 0.074081466 -0.027032303 -0.0084010055 0.055351317 -0.050399303 -0.033304706 0.026211392 -0.018209102 -0.018368753 -0.0027972804 0.0061509516 0.024638567 0.0126876915 0.043988843 0.003502552 0.0019827918 -0.07796431 0.08455517 -0.037825357 -0.04141563 -0.0050158906 0.032689583 -0.077482365 0.0030051135 0.050747972 0.0242792
experience -0.025402471 0.031490106 -0.026384193 -0.006393382 0.005584836 -0.0069136447 -0.010734639 0.032717757 -0.0038770845 0.020758167 0.033877738 0.02027391 -0.039506618 -0.013665564 0.037741557 -0.014937657 -0.0006303818 -0.08000363 0.014361562 0.010297126 0.0057107606 -0.0071048946 -0.032881133 0.048894033 0.05499143 -0.010292125 -0.0810846 0.04788054 -0.038019918 0.024641812 -0.008501586 0.009188635 0.05403923 0.0407338 -0.014695259 0.028112845 0.005884023 0.061927438 0.015922844 -0.012055436 -0.018396351 -0.007713155 0.03619303 -0.0046801884 0.021924246 0.030337557 -0.019766951 -0.0015639012 0.05135076 0.039563745 -0.06731745 -0.054274388 0.02786645 -0.04045763 0.055442017 0.040861394 -0.047050066 -0.013730016 0.012608254 -0.0013731425 0.035416566 0.06364011 -0.030774854 -0.014380907 -0.052402362 0.034176633 0.019214258 -0.011494003 0.013073052 0.009019989 0.02516776 0.0046287533 0.0056139193 -0.0038769867 0.03351773 -0.023784282 0.029735994 0.06322361 -0.0063377796 -0.064852126 0.021904161 -0.0015512335 -0.012438328 0.040702876 -0.023950178 0.023040714 -0.035440903 -0.10089983 -0.018983502 -0.018526666 0.102875255 0.043199856 0.0288785 -0.029106166 0.02692059 -0.004232447 -0.013788921 0.06508539 0.056541633 0.008222893
take -0.060074758 -0.004214133 -0.006290157 0.00052305846 -0.0040767794 0.031228507 -0.0124563705 -0.0060209115 -0.0025537047 0.0024827588 0.016221998 0.026709275 0.0316137 0.0057751387 -0.034570336 0.009557251 -0.0006510507 0.007747067 -0.043488193 0.0016846177 0.0026544516 0.033331648 0.025716566 0.003995337 0.025201056 -0.019496484 0.016187118 -0.046819534 0.032949742 -0.0041735964 -0.0117774485 0.01720584 -0.040120173 0.024872513 -0.0051589417 -0.029190058 -0.0038251253 0.010738258 -0.044296943 -0.012404685 -0.021876477 0.040098898 -0.0063975123 -0.049856044 0.0026002685 0.01431686 0.022412514 -0.030086745 -0.012350982 -0.017703298 0.0011672615 0.010243575 0.02744706 -0.025863608 -0.0057321973 -0.030520748 0.037196707 0.010622399 0.0014081675 -0.02480381 -0.015617574 0.022444548 0.008740874 0.016596297 0.006957517 -0.047415778 0.0007398075 -0.01350639 0.023644865 -0.0031144577 -0.01745016 -0.060893606 0.007061731 0.016293392 -0.043155283 0.048827134 0.012152763 0.026630096 -0.014176177 -0.017999405 0.014470713 -0.015447833 -0.0014019948 0.021888826 0.06580227 -0.005191695 0.016627973 -0.014004689 -0.008290699 -0.018540548 0.023917416 -0.0053753145 0.041657135 -0.03480277 0.043571588 0.0014178274 0.027122453 0.0014281103 0.0038638802 -0.03192133
subsidiary -0.033086453 -0.007719015 0.029459197 -0.0048970543 -0.019987518 -0.008004349 -0.016713476 -0.006583701 0.006050107 0.026536917 0.0056496193 0.030279981 0.0009781405 0.03726445 -0.00049527315 0.0049460037 -0.008602405 0.02312635 0.0011028626 0.04271006 -0.0037716338 0.023810346 0.0012890701 0.019984117 -0.02345836 0.023672214 0.018363921 0.026896236 0.005865522 0.02809856 0.013877057 0.03190423 0.005544235 -0.031519677 0.021252315 0.0024509165 0.033411574 -0.029976904 -0.013009991 -0.024944022 0.01599125 0.0077303965 0.0018934194 0.0035386593 -0.016640844 -0.021510266 -0.01158709 0.034205716 0.026378477 0.018859267 0.017726745 -0.0087583065 0.05079232 0.003490494 0.035201784 -0.014890281 0.013029698 0.02270914 0.0155935045 0.013703504 -0.0033164194 -0.042486615 -0.019187996 0.012066577 0.013583938 -0.011672368 0.031433832 -0.018782847 0.03500544 -0.015202014 0.030072665 -0.020243043 0.029026845 -0.00767971 0.023053596 -0.015441128 -0.010574998 0.026886152 -0.00928077 -0.014047772 -0.0033154385 -0.009925989 0.006342875 -0.0036294777 0.0032438843 -0.016378107 -0.016802255 0.03607721 0.0049344935 -0.019948158 0.010941696 -0.020069815 -0.010350234 0.010083779 0.047410958 -0.021935334 0.027116764 0.023827994 -0.043741077 -0.0022901671
administration -0.017430628 0.014716122 -0.0073465654 -0.016874671 -0.030633377 -0.021396449 0.015680082 -0.00572165 0.038775496 0.049609277 0.05729744 0.016750693 -0.0015662599 0.012119857 0.028807972 -0.025520513 0.02470203 0.0013611739 0.033426803 0.059948355 -0.031783592 0.041614477 -0.0064239306 -0.0051568905 -0.03490085 0.0047774664 0.0054710493 0.015477253 -0.07135035 -0.05747942 -0.010818598 0.02342716 0.013442469 0.016948177 0.015695736 -0.020217415 0.0020587794 0.008564127 0.025173292 0.014539727 0.02618939 -0.0043242276 -0.03763326 -0.019860307 0.02567753 0.009441214 -0.041717622 0.015374356 -0.03813864 0.031509504 0.019946214 -0.014763352 0.01953047 0.0015138452 0.0051719276 0.028008167 -0.0028561759 0.025433645 -0.0022615222 -0.0067971335 0.013630878 -0.024733923 -0.012655572 -0.005406076 -0.0011546534 0.01071919 0.0069059003 0.0070091556 -0.029303996 -0.015664157 0.0018929966 0.0097519 -0.0052757794 0.034328103 0.002342789 -0.043286383 -0.01730176 0.006460737 -0.021587837 -0.044330608 0.0062389313 -0.031695563 -0.045920726 -0.027305253 -0.03163645 -0.050195508 0.027275344 0.041035373 0.015668686 -0.073459685 -0.014379062 0.0059318775 -0.016609482 -0.016073558 0.030592 0.012185026 0.03852314 0.015093038 0.032835744 -0.01979826
Transport 0.026117837 0.0041998476 0.03411155 0.026287667 0.08182279 0.07147888 -0.053058274 0.032067526 0.012887684 0.07594648 -0.06662394 0.022969773 -0.00073828455 -0.05026948 0.060339674 -0.006597418 0.0033685 -0.012336915 0.0057953345 0.03610827 0.00037299463 0.028208513 -0.040379222 0.022016846 -0.047893405 0.06769366 0.06153393 -0.0066275387 0.0056995885 -0.03760564 0.07512404 0.013510839 0.008391856 0.010122022 0.016467398 0.012596233 0.03892888 -0.004782924 -0.020097237 -0.054397956 0.024710804 0.02436293 0.02089369 0.02478081 0.0465975 0.00056679366 -0.068225935 0.0015632038 -0.045530424 -0.06571689 0.032566022 -0.028113345 0.09707018 0.015674392 -0.06584684 -0.018087372 0.034413103 -0.06590365 -0.00043981598 -0.027725572 -0.08605603 -0.03595677 0.05617432 -0.107385695 0.011437527 -0.025570212 0.024123073 -0.026131056 -0.002597704 0.06940495 -0.06582942 0.0138688525 -0.0063307155 0.009989206 0.046105284 0.054657083 0.04367436 -0.024587288 0.013273595 0.039965827 -0.01038902 -0.023143973 0.010327717 0.021724163 0.0017468948 -0.089941874 -0.014944102 -0.022647588 -0.027412947 0.017565584 0.054322716 0.04174807 0.061550304 0.028476058 -0.06699623 -0.017625812 0.049532533 0.11243498 0.01901038 0.0316143
Comeau -0.03043879 0.022013705 -0.02957184 -0.008860974 0.06121678 0.0011177844 -0.105299056 -0.103534065 -0.031076152 0.03744782 -0.023996959 -0.00021760631 -0.016477214 -0.0040417756 -0.05830067 0.03458757 0.0026883036 -0.029042594 0.03937963 -0.006033084 -0.021002516 0.011303895 0.07102611 0.0041219345 0.04246966 -0.010734204 0.07021247 0.023608366 0.03011831 0.021312073 0.031939507 0.009818973 -0.015777169 -0.0014809477 0.080813766 0.011046568 -0.05221654 0.038248107 0.014688488 0.09859973 -0.06654549 -0.05190908 -0.09122909 -0.032410383 -0.03317492 -0.06966093 0.09459108 -0.03780672 -0.06831117 -0.062783726 0.047871638 0.09325602 0.02222275 0.096607685 -0.042415228 0.05494395 0.015914787 -0.030351155 0.009965843 -0.058671735 -0.043696094 -0.009754529 -0.00020340504 -0.0805768 0.019235183 -0.02417698 -0.017997129 0.01872038 0.033351257 0.027420893 -0.066935174 0.023163583 0.043665722 -0.056437034 0.010253341 -0.018066654 -0.06676557 0.050245706 0.016309684 0.036125146 -0.07533599 -0.03344467 -0.00979183 0.059210986 0.024915228 -0.05665482 -0.06272772 -0.03978499 -0.060149442 0.010518538 -0.039317634 -0.005761602 0.0858851 -0.04641265 -0.1501955 0.012250462 0.019625632 0.05569225 -0.0733613 0.018292302
career 0.0007739968 0.02454402 0.022754712 0.009534233 0.02103125 -0.04043891 0.045936584 -0.0070898435 -0.0015704278 0.014693742 -0.028409325 -0.00509682 0.054055464 0.03229915 0.018256765 -0.005167505 -0.023506865 -0.008449921 0.019785155 0.0023400262 0.005260807 -0.036414932 0.0125069255 0.060481496 -0.0029850854 0.008757004 0.026182638 0.028318679 -0.036925193 0.019200355 0.04693555 0.040151298 -0.057564408 0.00750716 -0.0026374622 0.022656236 0.010044509 -0.010973082 0.010625147 0.042303097 0.022486793 0.024441354 0.051963624 0.02355896 -0.045978963 0.010005984 -0.02339233 0.034898855 0.020198725 0.0063874004 0.007664219 0.005381599 0.013814529 0.019368377 0.03840332 -0.047028285 0.028004222 0.0056119 -0.005316712 -0.03416881 -0.0026871893 0.0043205004 0.018223286 -0.057302497 0.024068516 -0.033302624 -0.0046902294 -0.016908785 -0.022725647 0.030555133 -0.06390841 0.025186682 -0.025335763 0.026694378 -0.023650061 0.027627846 0.033906363 -0.0045799795 -0.029981766 0.031457864 0.0018486249 -0.07314013 -0.05307684 0.039736748 0.028128939 0.009722426 -0.0059074657 0.022924019 -0.010460482 -0.0425001 0.07922405 0.00055659935 0.026097026 -0.008163984 0.012033207 -0.012791202 -0.005087326 0.016591443 0.06877958 0.008652821
voters 0.026632287 0.020628314 0.027517786 0.024374025 0.021089477 -0.03565676 0.003671246 0.017941672 0.018871857 0.019192705 -0.05498672 0.0029874067 0.0019056494 0.0147034 -0.004877895 -0.0029769214 0.018851358 0.025236487 0.014019998 0.0042581744 -0.023964198 0.030462613 0.0027022609 -0.0012558585 -0.0062282924 0.020197254 -0.06399123 0.02724121 -0.010918373 -0.054251086 -0.021526242 0.036862776 0.0005913775 -0.012046524 -0.012755157 -0.00085300085 0.0022967923 0.016811663 -0.015217376 0.038006864 -0.019416153 0.02706818 0.009437185 -0.07356682 -0.032763623 -0.0178514 -0.023908924 -0.02909202 -0.00016064246 0.0060729613 -0.0042592594 -0.047947902 0.0015135957 -0.04268407 -0.001417154 -0.016019639 0.031298943 0.014756821 -0.03269196 0.02201681 0.020706544 0.019705944 -0.0029834586 0.017998096 0.01258041 -0.019789465 0.009794562 0.025602782 -0.008321245 0.013012168 0.021056794 -0.048725367 -0.041329566 -0.019616883 0.04998548 -0.017352337 -0.041858464 0.016692605 -0.039365415 -0.013057972 -0.012628501 -0.0286617 -0.0064555923 0.04069888 0.011957666 0.026445957 0.00014954171 0.018793384 -0.021276154 -0.010309636 0.039891344 0.019597486 0.0060441312 -0.013533667 0.021634048 -0.013272371 0.01633096 -0.0031369491 0.0049278936 -0.06376272
perhaps 0.0091030635 -0.008161319 -0.0011757602 -0.02074229 0.012129801 0.0038712441 -0.04325475 -0.010956749 0.01126441 0.021018095 0.00030008767 -0.0020836007 0.0026668026 -0.021076197 0.016133843 0.014086646 0.0019327104 0.008991277 0.012015308 -0.035033286 0.08194189 -0.0011687258 -0.0055356263 0.01645033 -0.010887032 0.016922181 0.007790039 -0.011638935 0.008770553 0.012073152 -0.0024634032 0.0066915015 0.010917838 0.04686879 -0.018353144 0.008949709 -0.0037864242 0.0068678735 -0.028476696 -0.011342332 0.009244439 -0.0009222708 0.037267312 0.005482671 0.02058952 -0.049871676 -0.015507704 0.00998718 0.021366382 -0.012910893 -0.0010684209 -0.05849191 -0.014955422 0.008604953 0.016950097 0.013692417 0.0188092 0.016993685 0.0018043893 -0.0071199727 -0.0022615413 -0.0034342897 0.0062112105 -0.01488593 6.8392605e-05 -0.0004195124 -0.029427571 -0.007413116 0.03823168 0.020299902 -0.0032831677 0.029870884 -0.012812551 0.010884528 0.011885837 0.022247378 0.013656349 -0.04959351 0.0032563258 -0.060516138 -0.011449004 0.019261485 0.0013406271 -0.011474334 -0.0028748722 0.01071681 -0.024377191 0.021672012 0.0025128955 -0.013128801 -0.0041669533 -0.005652651 0.008026564 0.007924242 -0.01029798 -0.0037935849 -0.017941922 0.026498282 0.006623901 0.0017830512
unfortunately -0.004566568 -0.05171531 -0.008432067 -0.022436362 -0.0065843905 -0.016525885 -0.043442912 0.022665594 0.013532783 0.040259402 -0.0064124186 -0.012172712 0.017749716 0.01938751 -0.022499213 0.00019095666 -0.019721659 -0.02489477 -0.044813193 -0.009519169 0.0043336647 -0.001747509 -0.019773807 -0.018191908 -0.029248746 -0.021105977 -0.033549376 0.013563704 0.016039489 0.0014111537 -0.0035872592 0.017270017 0.03729603 0.016789425 -0.01880701 -0.021102007 -0.002204442 -0.015862476 -0.02421177 -0.009676374 -0.0154552795 0.020910446 0.035018645 1.4232646e-05 0.0322412 -0.01207603 -0.020918472 -0.037923906 -0.030077117 0.004520212 -0.0035547533 0.059423566 -0.012999926 0.012515446 0.0048834104 -0.016693562 -0.008059657 0.0016513536 0.04321934 0.06894773 -0.031140417 -0.00073999807 0.036131445 -2.5016721e-05 0.008752091 -0.034706913 -0.019620113 0.02789767 -0.015237405 0.006714071 -0.010681048 0.025690405 -0.035220623 0.0062868567 -0.037799396 -0.06200141 -0.009606954 -0.019095149 0.007508543 -0.031318095 0.010538106 -0.0059575196 -0.044148915 0.014292858 0.022913346 0.009857418 0.027998436 0.021722367 0.005154774 -0.046167467 -0.006690196 0.00117429 0.011274075 0.036844466 -0.0046512643 0.018054225 -0.014799069 0.0152689805 0.014211327 0.036021486
claim -0.04176041 0.00401712 0.0067133354 0.0012857106 -0.0118825 0.008043862 -0.0022590752 -0.032899257 0.044918537 -0.019014709 -0.003117145 -0.007290707 0.031806964 0.06119795 0.008388791 0.0043296725 0.019367786 -0.04066308 0.020012617 0.04406462 0.031030936 0.019700618 0.01005361 -0.023242911 0.020414403 -0.0013033568 0.011695975 -0.0042767366 -0.023204548 0.011543972 -0.0075551174 -0.00036727032 0.02040287 0.018850358 0.007901387 0.002826691 -0.051273704 -0.009212086 0.024476528 0.01713141 0.059432905 0.04396964 -0.04987464 0.04206601 0.006548936 -0.047123145 -0.017859666 0.018708713 -0.051385947 0.01649443 0.011589988 0.02658871 -0.029998418 -0.010729512 -0.0021884257 0.04808268 -0.010426417 -0.008258028 0.019048268 -0.011656646 0.01578229 -0.00847238 0.00053645857 -0.038615268 -0.032925744 0.012803665 0.025364757 -0.0053416286 0.038280323 0.009490132 0.020746684 0.02598277 -0.0135069275 0.04965556 0.007271149 0.008783068 -0.001122156 0.015911847 -0.0042287502 -0.01696314 -0.021771824 -0.015750164 -0.00074205187 0.030336006 -0.007711178 0.006776011 -0.017038707 0.030818235 0.0014853522 0.036073893 0.017882556 -0.046166547 -0.0045086546 0.059532613 -0.018484028 0.00040526135 -0.015319635 -0.024484353 0.069175 0.012200117
piece 0.03034263 0.014846487 -0.0061268643 -0.019691808 0.0039622704 -0.0026640238 0.0040647774 0.0032473789 0.008957807 0.02492322 0.016703911 0.013282756 -0.008084035 0.013056742 -0.029451966 -0.00048612885 -0.011098881 -0.01594353 0.026858557 0.015196377 -0.0093169985 0.0019352997 0.014416826 -0.007110849 0.0023414188 0.003860465 0.0236344 -0.032973956 0.016453413 0.009609264 -0.008827423 -0.018658843 -0.020933047 0.028251786 -0.04810965 -0.0046199565 0.044622086 -0.017666936 0.04561046 -0.007736678 0.016956102 0.0017761849 -0.0012885 -0.039537903 0.036433127 0.0003458359 -0.0014975917 -0.030546965 -0.06567767 0.014506865 0.032800566 -0.009387239 -0.001436276 0.021078689 -0.022323482 -0.013048436 -0.031194642 0.020365125 0.031648975 0.049833547 -0.0008173174 0.004545544 0.00512571 0.034528222 0.0047566774 -0.016653126 -0.008216082 -0.01482266 0.025755655 -0.026291864 -0.031344168 -0.033509362 0.03200028 0.00506068 0.019772371 0.016827414 0.0042548575 -0.022101829 0.029067619 -0.019777814 -0.028140837 -0.009577566 -0.008565463 0.014681936 -0.006515371 0.013958931 -0.014448978 -0.027976535 -0.019288542 0.008832987 0.002281249 0.025255954 -0.04607609 0.0005498264 0.018491862 -0.0051543065 -0.010048773 -0.019009445 -0.025404533 -0.012708641
45 0.0016633281 0.039930936 0.023707822 -0.059224192 0.031019595 0.024775758 0.01328303 0.004518687 0.0037719826 -0.005870229 -0.039352875 -0.0007496611 -0.0242982 -0.00023746642 0.044611767 -0.015152303 0.016072208 -0.012046462 0.02439525 -0.00644426 0.030301997 -0.0334667 -0.020407444 0.04246779 -0.0046190084 -0.010528147 0.014584045 -0.05015585 0.022512529 -0.008737591 -0.018593274 0.031026509 0.019173838 -0.019443795 -0.0601243 -0.014483657 0.016361574 0.0053115785 -0.05477998 -0.039654147 -0.025645176 -0.037988886 -0.010004357 -0.041887693 0.041547798 0.0075317477 0.049710795 -0.043742646 -0.015402185 0.010357823 -0.0221317 0.039462883 0.027739428 0.010251 -0.0029190627 -0.018786998 -0.01903865 -0.040259015 0.029296175 -0.08416361 0.025727892 -0.00049605855 0.0036554951 0.03393209 -0.002586774 -0.027579384 0.028175982 -0.043301165 0.027907928 0.10593768 -0.015159417 -0.03958534 0.024211809 0.005347812 -0.0038352413 -0.03288958 -0.00951023 0.033998914 -0.03489797 0.036230695 0.009460808 -0.0002600992 -0.03574712 0.036390394 0.040232368 0.0017112248 0.009626767 0.03896155 0.011880706 -0.044739235 0.011807997 0.020694023 0.061179478 -0.0081794 0.025998393 -0.026093248 -0.0034957663 0.019508189 0.009492502 0.05797719
set 0.039987177 0.03266069 -0.049084455 0.049330004 0.0012247663 -0.01348344 0.030058008 -0.053703558 -0.05396067 -0.022763805 0.010572426 -0.01213361 -0.04986026 -0.014442735 0.012095979 0.0058686608 0.021438755 0.0034783662 0.01549499 0.010635083 -0.014786992 0.02363843 -0.037338264 -0.047349844 0.0103847515 -0.016181607 0.024047209 -0.014281128 0.009788221 0.035665672 0.0067077503 -0.03734819 0.029717552 0.035722323 -0.0093629025 0.02848034 -0.028976742 0.0027023822 -0.018655691 -0.016202098 -0.003812968 -0.019526199 0.055152174 0.02567813 -0.011430717 -0.007955846 -0.0110779265 0.04604933 -0.0056196544 -0.006882151 0.017916907 0.009296665 0.004200509 -0.057958227 0.028813474 -0.024805184 0.016977215 0.03585492 -0.02288437 0.0145266 -0.0258326 0.0017720446 0.06433408 0.018754473 -0.020157283 -0.050050147 -0.034236223 -0.0033908656 -0.018539038 0.0278282 0.016438773 0.025185075 0.009107062 -0.008110459 0.03221616 -0.016175408 0.04456283 -0.012940749 -0.06501727 -0.027571337 -0.0030843397 -0.04815049 -0.03705289 0.035010215 -0.071178444 -0.018034745 0.037670333 0.033471096 0.03214082 0.05414644 -0.003053242 -0.0162735 -0.059525542 -0.018482717 0.014324608 0.015820203 -0.012260417 0.042094346 -0.013063799 -0.05333575
passed 0.05350564 -0.057690375 -0.0300166 -0.032518916 0.06091563 -0.0018488056 0.012275325 0.034961123 -0.018021408 0.014648359 -0.0085661905 -0.030401083 -0.03621795 -0.056042213 -0.011080893 -0.033673316 0.00021777677 0.034844022 0.04045954 -0.01622271 0.016519835 0.0020341622 -0.017847681 0.041092984 -0.020721069 0.031889684 -0.026739417 -0.0014958794 0.0040775724 -0.01954887 0.033417474 0.007603606 0.031111024 0.012418378 -0.011377385 0.017623559 -0.0395849 0.004598329 -0.008837508 -0.016309982 -0.01733007 -0.0428096 0.029847074 0.06365472 0.00054789113 -0.026051482 -0.049908675 0.041346926 -0.027157709 -0.032654583 0.013119625 -0.025426047 -0.046393342 -0.016165614 0.00646956 0.026541796 0.0006193744 0.060023405 -0.004442679 0.019154571 0.024483025 0.0035680672 0.041977726 -0.008812684 0.009452589 -0.0026658445 -0.005775924 0.009923797 0.00014176697 -0.003911098 -0.07969596 0.017780034 -0.015019465 -0.0073383483 0.018141828 0.030092534 -0.013454841 0.034227956 0.002310684 0.011708987 -0.0048325425 -0.019407297 0.0121611515 0.027110947 -0.043202087 -0.023462486 0.025913855 -0.02407261 0.022775955 0.024140036 0.02256183 0.0020851467 0.048556954 0.023345608 -0.011745997 -0.06644756 -0.037172742 0.012608307 -0.010969099 -0.0021714938
ill -0.015888544 0.011612913 -0.014744032 0.001479355 0.002038505 0.006299293 -0.0047348775 0.0096875895 0.05174997 0.03927007 -0.0040788 -0.022483435 0.03200828 -0.017725727 0.0086463895 -0.032403845 0.018329846 0.019291442 -0.0013667893 0.029852947 -0.040029526 0.018648291 -0.024225404 0.018708954 0.034185518 0.034262832 0.017768074 0.0133936 -0.017455915 0.024682902 -0.002257064 0.008014991 0.01248139 -0.021699024 -0.0002969905 -0.011468758 0.048195794 0.01666645 0.0070378226 -0.03098455 0.034119885 -0.010926033 0.004655944 0.013859034 0.010443353 -0.00603666 0.04731392 -0.01712242 -0.012949475 -0.0081184395 0.022252947 -0.0045645996 0.0049637305 -0.0066850735 0.012885495 0.022725599 0.010420632 -0.0034204554 -0.010983042 -0.022332342 -0.0010500114 -0.0017551543 0.043007717 0.017197683 0.024764966 -0.003044929 -0.015346524 -0.015107424 0.025510097 -0.026212841 -0.009843557 -0.013316425 -0.005804603 0.0057624476 -0.024178075 0.023536256 -0.024854807 -0.012395585 0.0013850601 -0.024702264 0.01841369 -0.040578827 0.02587285 0.00786236 -0.002375503 0.0012649007 -0.0012320272 0.023577493 0.0045066355 0.017882772 0.0048888614 -0.038188938 0.00944999 -0.018915351 0.047682736 0.037092898 0.0077887285 -0.004950997 -0.006620061 -0.00565429
means -0.011618744 0.007846266 0.045113027 -0.028144546 0.065705 -0.01892962 0.014385944 -0.030275803 -0.008261146 0.040410623 0.02234332 -0.029568955 0.049606267 -0.00068937335 0.0040262155 -0.005975857 -0.0011834649 0.03828173 0.022261493 0.051604528 -0.00047065553 -0.04537153 -0.030505696 0.07213412 -0.014460407 0.021110076 0.011962725 0.034298025 -0.01413599 0.043731965 0.0792957 0.03606507 0.013565219 0.014789056 0.054058123 -0.05066024 -0.01827934 -0.02613354 0.023331106 0.045975592 -0.020913271 0.008174788 -0.050249685 0.004433972 0.020264711 -0.006997361 0.011677774 0.0050397813 -0.03922128 -0.046771705 0.07934983 0.024341786 0.06338547 0.011603352 -0.041754615 -0.026179137 0.023864139 0.011598607 -0.024044452 0.07698947 -0.008479822 0.035107378 0.038989726 -0.02124222 0.0138903055 0.036868736 0.028061481 0.011183138 0.018045112 0.014340707 -0.09411503 0.056062423 0.008647231 -0.0017820802 0.0018658559 0.062013067 -0.035965927 -0.04155521 0.017714523 0.03595965 0.049705617 -0.02547443 0.0012420149 -0.04686614 5.8014353e-05 0.07347003 0.018319706 -0.041665427 0.03210498 0.01861209 -0.06658689 0.010934827 -0.051521968 0.0258214 -0.05878708 -0.035170197 -0.06391622 -0.005899829 0.0317709 0.010313543
let -0.0058881165 0.0024697348 0.006532009 -0.027476165 0.005275205 -0.010168937 -0.016907414 -0.017196883 0.038328573 0.006451161 0.008583889 -0.01502867 0.013294605 -0.0071449215 -0.006004186 0.0031284986 -0.004300245 0.022048455 -0.004308953 0.023911104 0.013794126 -0.02217218 -0.013021266 0.016631858 0.03754164 0.020357065 -0.00145001 0.013531511 -0.020417936 -0.008181784 0.018361354 -0.027394146 0.016740972 0.018418599 0.037647493 0.025059808 0.01732489 -0.0039538587 -0.02517405 -0.012710313 0.0029319534 0.0240892 0.027427053 0.00045553315 0.028844176 -0.023209147 0.012814868 -0.008938353 -0.015811829 -0.019212276 0.024757292 -0.005969125 -0.0145980185 -0.0030110292 0.0015430402 0.01618679 -0.030362954 0.0018015658 -0.020990418 -0.015147334 0.010791479 -3.098522e-05 -0.016458664 0.05159328 0.035501212 0.010116673 -0.011234494 -0.0059594084 -0.02414789 0.005945084 0.011321234 0.024444422 -0.02536989 -0.03253671 0.030623117 -0.040871132 -0.049213365 -0.030205084 -0.011648877 -0.004089175 -0.010858242 5.5030658e-05 0.005668686 -0.02757331 -0.005501595 0.005396355 -0.0013626838 0.009566057 0.010004084 -0.025424866 0.032699786 0.0070752874 0.0067662112 -0.017673902 -0.034705788 0.009170976 0.011682075 -0.009892159 -0.015214128 -0.0016705306
stolen 0.0036517973 -0.02447939 -0.035264127 0.023356233 0.043568984 -0.008256135 0.013222854 0.002140256 -0.028086944 0.003983935 0.040298067 -0.048792925 0.010062994 -0.030282961 0.015024928 0.01648347 0.0047590947 0.019109353 -0.052398298 -0.027403384 -0.027278535 0.030724917 0.017871369 0.024655083 -0.013192819 -0.00066092005 -0.020166941 0.037761 -0.0054884744 0.019521054 0.00878692 0.0301727 0.018064357 0.01818384 -0.008581411 -0.031106481 0.021041749 -0.026624238 -0.036095873 -0.008301979 -0.0069717662 0.048517793 0.01670624 -0.021053018 -0.02033762 0.020165715 0.0048182798 0.030894209 -0.01713016 0.0075227837 -0.015192605 -0.02297905 -0.0016017065 -0.025053572 0.01874413 -0.005974197 -0.018053258 0.019560732 0.007982545 -0.01961531 0.0101508405 -0.004074949 -0.03602629 -0.04751158 -0.0017796148 -0.03561688 0.026514538 0.0302548 0.017298749 0.0059043695 0.020780932 0.003451434 -0.026668068 -0.017131777 0.0180515 0.020040091 0.0060733375 0.060339015 -0.020954292 0.04107127 -0.018502625 -0.023122663 0.009903923 -0.023460852 0.030038796 -0.038150165 0.012236141 -0.0031254091 -0.0064353724 -0.004683734 0.021606883 0.006705323 -0.05422165 -0.0010243976 0.053640436 0.020389989 0.029499324 0.0028262988 0.011358877 -0.017444769
public 0.025236165 0.013401252 -0.0038233227 0.04446648 0.039105292 0.01147116 0.03598254 0.042769752 -0.00074235315 -0.034962993 -0.007993251 0.006891896 0.016031507 -0.01132048 0.022366265 0.045831226 -0.014146061 -0.005784623 -0.0039104824 -0.077040136 -0.037508506 0.004215806 0.008072797 -0.024234653 0.010781989 -0.032176465 -0.047634635 -0.010221455 0.023889776 0.014608131 -0.05450168 0.048323542 -0.024336733 -0.03659725 0.029847683 -0.009236136 0.023717675 -0.007855473 -0.021799691 -0.0073538367 -0.010227274 0.036893114 0.018781222 -0.052927166 -0.027771885 0.0033043989 -0.037936922 -0.007474554 -0.020011874 0.013657057 0.009348357 0.0087472135 0.0004620524 0.00035445025 -0.05710914 0.04307522 -0.0019407081 -0.017400097 -0.014184278 -0.02682815 -0.039049197 -0.056962658 -0.091191754 0.028420178 -0.003479337 -0.023913374 0.03043467 0.0062607625 -0.061687693 0.0052243853 0.039121747 -0.016159225 0.014410368 0.0015091611 0.0065558357 -0.013672269 0.057519615 -0.020190489 0.045447186 0.0022339807 0.012358339 -0.011179294 -0.0025702023 0.019344851 0.0016750998 0.05154541 -0.036815256 0.007054518 0.0075082355 0.022604387 0.027965494 0.023301886 -0.0074484535 -0.04961438 -0.035735805 0.03681714 0.020541742 0.029330548 0.033657946 -0.0038114146
whether -0.016651934 0.027779844 0.105713196 -0.0111226365 0.020996591 -0.03403855 -0.04768631 0.023754548 -0.08640745 -0.047007088 0.035637766 -0.026162969 -0.023586504 -0.036011815 -0.015526388 -0.022786666 -0.010262501 -0.07213905 0.02421962 -0.0014684882 -0.09944921 -0.001393339 0.064489335 -0.030650968 0.0036047355 -0.03283866 -0.097713314 0.033032436 -0.011576529 -0.004633119 0.071578205 0.015169376 -0.0042770114 0.03911464 0.054411035 0.02057824 -0.10183842 -0.082660384 -0.047748268 -0.02582314 0.005083684 0.028955769 0.02511467 -0.07040627 0.045098606 0.026082039 -0.0049437457 -0.048322387 -0.0056152088 0.022922602 0.013952054 0.052881755 -0.083483145 -0.039085228 -0.003776466 0.060148455 -0.06272125 -0.039307892 -0.010296871 -0.04316147 -0.014597482 0.0111305965 -0.0050584055 0.00075287715 0.024418535 0.031248664 -0.064164914 -0.060944747 0.017915525 0.0031719264 -0.07311293 0.034973264 0.055603046 -0.009351197 -0.08648018 0.049351264 -0.016017118 -0.0474602 0.04527759 0.017804751 -0.008022447 0.020220155 -0.010652796 -0.009736526 -0.03659112 0.012067948 0.015435785 -0.028451899 -0.04287597 -0.0037604943 -0.079546005 -0.020130215 0.018356293 -0.006899332 -0.108323015 -0.0027093284 -0.062173694 -0.01454987 -0.008437589 0.05145189
reads -0.013725213 0.021439157 0.0017370203 -0.03638447 0.03221234 -0.027635459 -0.030916605 -0.019509064 0.0015151381 -0.01383424 0.026088785 0.004221627 -0.011625544 0.014733991 -0.013546773 0.0043913694 0.0032606446 -0.022531038 0.013842329 -0.015278475 -0.006607136 -0.06486385 -0.025900776 0.036360133 0.027272673 0.0042805066 -0.011035435 -0.011266004 -0.027958667 -0.0017764757 0.029949108 -0.044719007 0.06271911 -0.012497898 0.019142576 -0.0019085872 0.015153101 0.015144457 0.0051442357 -0.020372706 -0.013167568 -0.03969236 0.013171278 -0.036590416 0.034865685 0.040599428 -0.0376376 -0.027973829 0.008777553 -0.010557267 -0.029446812 0.01773328 -0.002998676 0.016383052 -0.021686079 -0.03408647 -0.031537436 0.0029066547 -0.016173534 -0.04369123 0.0011713643 0.0240881 0.0067993477 -0.0329685 0.034892425 -0.041794308 -0.010679251 0.023164518 0.04293601 -0.041809846 -0.0032812674 -0.017801315 -0.024857435 0.007153231 -0.022022845 -0.032392915 0.016373154 -0.010374239 0.029668998 -0.019916039 0.034905493 0.041221812 -0.011032889 0.019760309 -0.021881763 -0.014255817 -0.030243138 -0.0010884299 -0.011550171 0.0026953062 0.0042995433 0.00459704 0.05849547 0.014721339 -0.01283676 -0.016861951 0.017320305 0.016606007 0.00025657366 0.011305076
centre 0.0036919299 0.014040627 -0.01896741 -0.0017185388 0.0040368116 0.0029630726 -0.023652464 0.039421175 -0.043584637 -0.021206487 -2.7819944e-05 0.026082786 0.01933162 -0.0036637255 -0.04583298 -0.01288656 0.011652116 0.05357768 -0.050013453 -0.041636 0.013427576 -0.00173214 -0.0037579173 0.033516344 -0.003670069 -0.022831338 -0.045796204 0.022466747 -0.05252049 0.0012941614 0.052959498 0.011390231 0.016455498 0.031970266 0.020386705 0.017473977 0.045213267 -0.015215913 -0.059988588 0.0078008524 0.040944736 0.075062625 -0.029069357 -0.009295395 0.018329702 -0.0206778 0.0063836565 0.0019219137 -0.010335359 -0.020485105 0.03824306 0.015138639 0.02233058 -0.020694451 0.0027840836 -0.0106564015 -0.016661862 -0.030049607 -0.028670637 -0.03732941 -0.006800201 -0.07186975 0.0028539053 -0.004415917 -0.012452715 0.005160139 0.002996396 -0.010060124 -0.09281984 0.030433219 -0.06651975 -0.00758095 -0.044485297 0.015020496 0.032956664 -0.04017875 -0.041580364 0.053543538 0.0156102665 0.01788882 -0.029869745 0.05653223 -0.0030240566 0.031608496 -0.033209015 -0.063116394 0.07887914 0.06241061 -0.008473342 0.029440332 -0.014625311 0.010009877 -0.01707749 0.010513009 -0.009602988 0.039004315 -0.010825352 0.034556195 0.033135265 0.037644863
factor 0.0023644504 0.0057982784 0.016772885 -0.020090088 0.007702803 -0.011862324 0.005277509 -0.02028777 0.017319685 -0.030785792 -0.03145757 -0.019804645 -0.011803106 0.0054613682 0.0041995505 -0.021395817 -0.034599222 0.031802855 -0.014528218 0.031268135 0.007098722 0.028769968 0.012911821 0.018296149 0.011373638 0.04065795 -0.0009824813 -0.02091455 0.015935754 0.044767633 0.050578583 -0.06717921 -0.0067627886 0.055335954 0.0074651353 0.0012264706 -0.0028304171 0.002179676 -0.009443463 -0.040315665 -0.019472048 -0.0038932948 0.010341106 0.02984507 0.032406665 -0.012722648 -0.010027966 0.00071168796 -0.0405891 0.049346745 0.013370202 -0.03144775 -0.008123763 -0.0021188655 -0.026607577 0.0009526714 0.0014855876 -0.009510838 -0.024394263 -0.007997387 -0.026098879 0.017271826 -0.024801468 0.00035303785 0.018318998 -0.021737881 -0.013329384 0.044057447 -0.066793144 0.0047256616 -0.038124252 0.034336176 0.015928078 0.03989662 -0.0086881425 0.015098674 -0.03224929 0.013304376 -0.0073502604 0.010777888 0.00615635 -0.0034777306 0.00497484 0.027082158 0.025714125 0.031850386 -0.0025286565 0.011423279 0.010575772 -0.01161493 -0.0028954786 0.024073116 0.008489624 -0.019777115 -0.06702316 0.015218061 -0.018617276 -0.014543818 -0.026501369 0.02228964
direction 0.024643637 0.0040891333 -0.025170764 0.009601411 -0.0069242115 0.00083481916 0.021024574 0.020239413 -0.003718506 0.0015768206 0.018374877 0.023675447 -0.012210736 -0.031690802 -0.007184957 0.009369953 0.022119481 -0.028737957 -0.01680363 0.02917803 -0.00039084017 -0.015697906 -0.009229261 -0.028825859 -0.027071575 -0.0037210912 -0.032722887 -0.007758326 -0.01931013 -0.00451076 -0.0034443222 0.0053624623 -0.00843543 -0.0090196915 -0.012710653 -0.002395802 0.049791433 0.019500263 -0.022512322 0.04183777 0.024709515 -0.01938672 -0.028033387 -0.0100188395 -0.010445138 1.0512536e-05 -0.0061266106 0.00056219014 0.025864547 -0.01936402 -0.0029641315 -0.010975369 -0.018577626 -0.027209084 0.008514783 -0.008646133 -0.0077511496 0.008760145 0.011927661 0.015694046 0.02770885 0.02720385 0.020271236 -0.021584097 -0.027414812 -0.06332167 0.013449925 0.01510353 0.020148149 -0.009812597 0.028432751 0.013029108 -0.02490137 -0.014128969 -0.016799832 -0.028617248 -0.008514878 0.009593865 -0.04571759 -0.008571359 0.010343455 -0.011903533 -0.009446316 0.02631024 0.004662579 -0.018295672 0.017020155 0.0077239187 0.022039372 0.01958581 -0.029593604 -0.001671102 -0.030860206 0.019110883 0.020057524 -0.0003253998 -0.0067812316 -0.021330131 -0.036794193 -0.034291547
related 0.013793436 0.020151857 0.026640238 -0.01958843 -0.006195789 0.037921343 -0.036919963 0.0062572863 0.014787886 0.03638884 -5.0948176e-05 0.025787976 -0.028799592 -0.026374482 0.0031919137 -0.04197568 -0.015480502 0.0056501366 0.014990467 0.016663842 -0.011265316 -0.023756193 -0.021844711 0.017024795 0.028294718 0.005398853 -0.0073505593 -0.017076483 0.028178653 -0.001123356 0.022956582 0.021178124 -0.031482022 0.008904982 0.0024750857 -0.005628342 0.020344691 0.021280512 -0.0035438552 -0.016591534 -0.014987703 -0.033225592 -0.019881293 -0.016191585 -0.0017265234 -0.0038856 -0.0089493 -0.026703572 0.009482496 -0.008441634 0.0036424857 -0.026033875 0.01940959 0.0374375 0.009379544 -0.020792266 0.019149428 0.021668598 -0.017165601 0.08821046 -0.029128594 0.006566986 0.035618458 0.015577713 0.0528441 -0.009813255 -0.049446955 -0.026417164 -0.040046915 0.013657804 -0.065303355 0.023606246 0.03738067 -0.007263174 -0.07193637 -0.015976312 -0.024407174 0.009303133 0.014155614 0.036928862 0.04417612 -0.042676453 0.00031469003 0.013729893 -0.004926169 0.0077739744 0.020183347 -0.029235827 0.018984137 -0.0045951246 0.0008310153 -0.033319257 -0.018225214 -0.005482203 -0.013374021 0.0121326605 -0.009010674 0.0049717342 -0.016111178 -0.0031183606
mistake 0.010830807 -0.0074233133 0.010652931 0.011675429 -0.03393237 -0.014727842 -0.03656239 0.039618924 0.020362023 0.013169287 -0.018337931 -0.04868534 -0.0034957505 -0.013462975 0.01585591 0.009232171 -0.020061446 -0.046141274 -0.0029729214 0.043458264 -0.026796307 0.01929925 -0.010601196 -0.012566219 -0.017947221 -0.0028958034 0.01050596 0.015401178 0.01020887 0.0041806456 0.03575128 -0.029608887 -0.0073740724 -0.020519983 -0.0038839953 -0.042560786 0.017474152 -0.025709407 0.029503541 0.015511997 -0.026808796 0.02605028 -0.0042462386 0.025572674 0.0034971354 -0.017463017 -0.009921702 -0.0011306425 0.013636392 0.00068430684 0.008248187 0.010354345 -0.023846569 0.011203203 0.027724456 -0.026063545 0.019309487 0.018027438 -0.013069538 -0.023243982 -0.031208951 0.007660076 -0.02712576 0.0045412323 0.013549434 0.013642589 -0.018764677 0.012643871 -0.061797235 -0.0057423767 -0.032103915 0.010485513 0.0025237696 -0.015873246 0.010163048 -0.018899616 0.0024027266 -0.0012533794 -0.019498786 0.02523098 0.005297447 -0.0138287265 -0.012922945 0.010631986 -0.0004241249 0.031894185 0.00060820475 -0.0060142176 -0.015345032 -0.007890814 -0.0077295015 0.002425818 -0.024343312 -0.0027908322 -0.019817516 0.008286335 -0.012839311 0.017376833 0.0076871254 0.018954394
possible -0.016950741 0.033006802 0.013795591 -0.009184026 0.007431524 -0.011461435 0.0014048368 -0.00063916575 -0.024728987 -0.005306706 -0.03201546 0.0018124284 0.002603446 0.010216714 -0.019677289 0.010982301 0.0010172874 -0.020820886 0.00036742643 -0.012713255 0.00076409866 -0.013920629 0.0012839393 -0.008938104 -0.017736265 -0.034598865 -0.0058169123 0.010770906 0.0006583956 0.03552904 -0.0032450357 -0.008170434 0.015914537 -0.008216524 0.017069586 0.049961727 0.01647834 -0.022990152 -0.058837608 0.037416 -0.0039270236 -0.0028380097 -0.023913264 -0.015027181 -0.007944457 0.024186956 -0.021200562 0.003173698 -0.0072025824 0.01728752 0.0022284724 0.017246362 -0.015841572 -0.007831458 -0.004796906 -0.010383373 0.032020085 -0.034017436 -0.05158606 0.020039828 0.009929253 -0.020616705 -0.0025516716 0.040875427 -0.008735242 0.007489613 -0.0048962245 0.009873014 0.029879672 -0.006837479 0.019081553 0.011529908 0.000563312 -0.018750792 0.041820664 -0.014295484 0.008474545 0.00915843 -0.023349738 0.029163782 -0.00727518 -0.02130164 0.03233436 0.0188009 -0.011929044 -0.017370969 -0.015315464 -0.038838297 -0.012325959 -0.0036929282 -0.012217822 -0.015287259 0.016603837 -0.018908788 0.0406027 0.0023661333 -0.0025041737 0.008418082 -0.0021937664 -0.0064688204
following 0.017166736 -0.037057117 -0.016180804 -0.009869986 0.008302214 0.011270461 0.035548255 -0.006412762 -0.012405937 0.027423577 0.047236785 -0.013069648 -0.01683164 -0.002312255 -0.050474197 -0.035521198 0.046335775 -0.050505124 0.015297663 0.03273947 -0.010611255 0.052987993 0.007438233 0.0016207447 -0.030208476 0.042963263 -0.044027634 0.025165405 -0.00036491864 -0.016016278 -0.031047564 0.06011865 -0.0013955163 -0.016031627 -0.019006096 0.020026319 0.05595011 -0.0032871475 -0.0097626895 0.0030253467 0.054213725 -0.020954236 0.021082427 0.0031775008 -0.011820225 -0.010319536 -0.013438074 0.04015439 0.05487531 0.00565878 0.0009999429 0.010334145 -0.016920902 0.011668878 -0.0010406353 0.06502848 -0.015463587 -0.058531027 -0.0067839413 0.06379849 -0.03138515 0.004880361 0.050759528 0.027095675 0.004017079 -0.058624268 0.046668917 0.020778421 -0.014929771 -0.033297133 0.040917017 0.021156935 0.04386976 0.020680936 -0.008170739 -0.023393378 0.012121504 -0.024733668 0.012715928 0.03508317 -0.027847322 0.012806156 0.031584352 -0.00071331696 0.007547466 0.018023204 0.0324332 -0.030426295 0.0070974035 -0.005088569 0.015982164 0.030982139 0.0025559235 0.05350473 0.010660038 -0.01710245 0.0010110459 0.03195314 0.022459367 0.006350127
Rail 0.05964372 -0.035877228 0.083475836 -0.017781323 -0.025295218 -0.01620436 0.0554617 -0.009768949 0.034974217 0.011346301 0.019133698 0.0005345709 0.026566967 0.023855539 0.06823024 -0.016252788 -0.015813585 0.06615411 0.054607593 -0.048080675 0.05187201 -0.009653876 0.054802038 0.09238265 0.008714609 0.027754685 -0.010079303 -0.04319858 -0.040793043 0.014794807 0.0745586 -0.048450056 0.054308936 0.09438533 -0.037900478 0.019602703 0.014434354 0.011821589 0.018813416 0.063589476 -0.010238176 -0.012022049 -0.011383705 0.03245645 0.022855189 -0.062596075 0.0030089382 0.029511204 -0.04403427 -0.0110455 -0.022494027 0.053321183 -0.05361143 0.12519695 -0.059275333 -0.028527314 0.029787512 -0.07395887 -0.0037037048 0.018913297 0.035620537 -0.12384667 -0.035039745 0.07064017 0.02877005 0.009488156 -0.029456519 0.004442492 0.016807381 -0.011470443 -0.05069118 0.08172357 -0.016052322 0.091859974 -0.053107817 0.05104412 -0.08344806 0.054126676 -0.032085452 0.028887102 0.029012673 -0.06362254 -0.038701054 0.03897346 0.08240739 -0.0701686 -0.036725566 -0.040448755 -0.028687103 0.007025699 -0.04269532 -0.027389962 0.022446983 -0.05747815 -0.055365194 -0.013483776 0.051816996 0.0126942415 -0.09547385 0.025001332
Snowbirds 0.01895545 -0.012046707 -0.013997805 -0.013431746 -0.038598042 0.03960739 0.050156165 -0.0027332448 0.014028165 -0.03284591 -0.023217356 -0.02323545 -0.023234077 -0.020226298 0.028187044 0.0051995018 -0.010697714 0.0032672063 0.0139932865 -0.020452285 -0.01421542 0.0142632425 -0.016316336 0.029390236 -0.008236596 -0.00042448868 -0.012314047 0.015188828 0.014176323 0.03888765 -0.008765055 0.022129666 -0.0027959798 -0.016211096 -0.016224768 0.018954903 0.05605891 0.016350612 -0.0030958564 0.0042546056 -0.02978583 -0.012148088 0.003213682 0.0047118845 -0.008029282 -0.02251329 -0.018827759 0.013076605 0.010666262 -0.006999566 -0.037993293 0.0087847235 0.003519266 0.0025114717 0.0018807813 -0.020607997 -0.0153992 0.017161764 -0.014422875 0.028503602 -0.008660952 -0.006714745 -0.02718264 -0.07480644 0.00033027888 -0.026122108 0.016778732 0.049064126 -0.01479059 -0.0265048 0.06754532 -0.021677427 0.07679153 0.034471508 -0.013277642 0.044880517 -0.04280221 0.024218652 0.013635358 -0.015665162 0.012995006 0.014463209 0.010634743 0.012165484 0.029684752 0.017470017 0.027005445 0.00770996 0.016388252 0.031146232 -0.0067285905 0.017045807 -0.04216716 0.030943045 0.01997894 -0.0060757007 0.012753157 0.009201473 0.009646889 -0.016244104
fortunately 0.0035555218 -0.0067900643 -0.015257567 0.046451826 0.00386946 0.048929494 0.0015468115 0.019330177 0.0008368188 -0.023059621 0.016839873 0.009461196 0.027894787 -0.03650325 -0.008346544 -0.0006028736 0.016942695 0.00068901555 0.045837626 -0.012597967 -0.007526463 -0.017899828 -0.020991657 0.03331356 0.023051621 0.03943057 -0.013634105 0.010114273 0.03910977 0.0049251663 0.020276645 0.027869498 0.0023959368 0.04913806 0.020738216 -0.043441057 0.027103037 -0.022207191 -0.046048276 -0.016002847 0.032353792 -0.006720298 -0.011837065 0.0050293035 0.017564084 0.012541112 0.02156597 -0.0089009935 0.020382471 0.01226654 -0.012636675 -0.04961586 0.031045992 0.008860678 -0.013273898 0.028064407 -0.021139577 0.0019565625 0.03447547 0.023049295 0.003736764 -0.01239439 0.00039360393 0.0038988832 0.036899664 -0.0243483 0.021275979 0.012499556 -0.039004095 -0.03499653 0.034016628 -0.04725265 0.023005728 -0.023510123 -0.0151573215 -0.040253606 0.016320003 -0.009090539 -0.007682796 -0.0008023656 0.015382777 -0.006732528 0.010828723 -0.044084 -0.01918185 -0.015608706 -0.014532028 0.0046085976 -0.03295283 0.007038868 -0.026205858 0.011692993 -0.03594843 -0.021035722 0.034427416 -0.010030523 -0.011104891 0.07356723 0.0046426933 -0.017705139
around 0.036553893 0.013052674 0.0021662829 -0.0041566794 -0.009711355 0.004416719 -0.025608074 -0.012199049 -0.016710283 0.00438855 -0.0076174787 -0.020090772 -0.024918916 -0.011221879 -0.004082635 0.0059502004 0.029966213 0.027918678 0.023165781 0.010337758 0.011267485 -0.021649456 -0.01308946 -0.01799725 0.011518075 -0.015852055 0.010866026 0.0037670103 0.04103407 -5.1098585e-05 0.009844537 0.0032811773 -0.0009059192 -0.029530047 0.011207359 0.0055209133 0.011498604 0.038785037 -0.066138834 -0.05636591 0.006542488 -0.004128387 0.019048208 0.0056250617 0.02485244 -0.019077703 0.03531743 0.00084761245 0.019584792 0.014182476 -0.017586341 0.021349026 0.048646703 -0.009529921 0.035105366 0.011895102 -0.0013098633 0.01910055 -0.014969423 0.017592698 0.024389964 -0.013017062 0.0017314043 -0.015456891 0.010058443 -0.008348541 0.028585192 -0.037057653 -0.0313007 0.042975202 0.055976253 -0.021872291 0.0046211416 -0.04293265 -0.018974598 -0.03127847 -0.039295577 -0.010385938 0.029040318 -0.028573118 -0.026613284 -0.017420085 0.014626374 -0.024208765 0.034036845 -0.004640775 0.0114959 -0.009584211 0.011000133 0.0073311296 -0.023214608 0.026470272 -0.018471941 -0.055333316 0.062453553 0.040508468 -0.0151439 0.0027643826 0.03881996 -0.051435273
roughly 0.04743675 0.000979722 -0.044165518 0.013703908 0.05350157 -0.019210832 -0.061494477 0.053632617 -0.026107822 0.026469281 -0.016368488 -0.05152939 0.027747083 0.06429571 -0.07597338 -0.081096634 0.006205395 0.026532682 0.01791008 -0.05075588 0.028367942 0.065896235 -0.00014888193 -0.062885985 -0.009904481 0.017375024 0.05059726 0.011344367 -0.047771577 0.05097379 -0.11811244 0.021552753 -0.024094218 -0.02574359 -0.0712234 -0.066758946 0.10724382 -0.0099858735 -0.015514878 -0.032291472 0.031057687 0.023477145 0.031929325 -0.0012639025 -0.023449069 0.012822091 0.08468673 0.056378733 0.012141127 -0.033804473 -0.04411309 -0.040796995 0.057359755 -0.049675126 0.024515023 0.004987819 -0.0058850027 0.001599438 0.0076755257 0.018803168 0.04066009 -0.0060137874 -0.07888204 -0.06810263 -0.07182922 -0.015617105 0.0018524001 0.01750358 0.043170527 -0.03404913 0.11235408 -0.04139461 -0.02794468 -0.07042307 0.047120124 0.022682529 0.0145454705 -0.08186173 -0.020407036 0.07855524 -0.04246093 0.048513815 -0.01709485 0.059029188 -0.021836951 0.026506605 -0.044252835 -0.007853211 0.062195342 -0.0038542876 0.041076932 -0.044047497 0.014602718 0.0137656 0.04135618 0.056629915 -0.056645423 -2.5125744e-05 0.030388447 0.018410843
Investment 0.11729738 0.05523569 -0.040811274 0.04219884 0.019721953 -0.10187656 -0.006922892 0.05048634 -0.066520214 -0.12819271 -0.01741101 0.030036073 -0.09678235 0.021550683 0.028241895 0.007463084 0.066461705 0.03490556 -0.020940183 -0.010974245 -0.07231483 0.07892237 -0.042987246 -0.058842912 0.04411183 0.020071473 0.0058964556 0.008560919 0.01443906 -0.10060567 -0.07587813 -0.04020722 0.06361506 0.06739211 -0.014581542 0.02394925 -0.016258001 0.04929174 0.09785701 -0.0008993165 0.014470627 0.044157226 0.02131301 0.02926407 0.1381773 0.008339024 0.027893662 0.055631038 -0.045936834 -0.079879895 -0.048552025 0.10585404 -0.11361688 -0.017305465 -0.031221233 0.06857116 -0.03217231 -0.039303526 0.113877706 -0.046852347 -0.005828855 -0.1046444 -0.010730622 -0.035180964 -0.03875711 0.022194205 -0.046587486 0.07913525 -0.006331682 0.012002529 0.031154666 0.04721649 0.06548912 0.020801246 0.036702238 0.04996457 -0.010143021 0.041760124 0.038564816 -0.061343316 0.002241074 -0.095208816 0.008593009 0.013711057 0.10588079 -0.07139725 -0.04098261 -0.060606606 0.026441727 -0.07328826 -0.013760791 0.05965993 0.00055106846 -0.08753912 0.04699746 -0.07470115 0.06942482 0.03282446 -0.119879335 0.087452315
centres -0.006703397 -0.002801769 -0.018376 -0.024712749 -0.013950732 -0.0016295139 0.004451759 0.05292202 0.0075953547 -0.0061815246 -0.021598391 0.029236646 -0.0485118 -0.025936652 -0.050391674 0.025524788 -0.022641754 0.013774573 0.027682597 -0.023109116 0.021751428 0.017662097 0.011787138 -0.0006304934 0.016767653 0.013077415 -0.01087522 -0.004938277 0.0033680424 -0.0038171797 -0.041403417 0.028791707 0.011681972 -0.00979251 -0.058415826 -0.027047122 -0.0133225005 0.0173767 -0.014345344 -0.009161266 -0.005844873 -0.0150271095 -0.009395942 -0.014751067 -0.03643956 0.022155255 -0.023313738 0.00458699 0.0043642255 0.008398148 -0.047881406 0.0029985309 0.022696853 -0.013319385 -0.01324126 -0.037979253 0.0068835206 -0.00815692 0.025155393 -0.02614621 -0.03202741 -0.0052661225 0.039292574 0.018493697 -0.015605279 -0.02632647 0.031932823 0.000736912 0.0046012923 -0.029718906 0.06534353 -0.024214892 -0.024952715 -0.02308869 -0.0024360218 -0.012780012 0.022695964 0.004902136 -0.012977415 -0.019243794 -0.065339014 0.013550537 -0.021153336 -0.037725467 -0.015414514 -0.073644385 0.011575699 0.07783383 -0.00033615093 -0.006241832 -0.0058113993 0.0042267703 -0.03637621 0.036694128 0.016910406 0.035190105 0.032108523 -0.035159122 0.004886157 0.028924782
companies -0.001233898 -0.01908767 -0.0007106897 -0.002193973 -0.035040434 0.03079106 0.015784552 -0.025182096 0.00610882 -0.037940994 -0.0063609714 -0.016854184 -0.0359761 -0.009583476 -0.009275864 -0.02338094 -0.018720252 0.03310929 -0.0031035843 0.006477078 0.0031054895 -0.0040548528 -0.005440274 0.009920557 -0.028438572 0.013032171 -0.010639889 -0.0064056464 -0.0007740316 0.011206852 0.0023817364 0.011559451 0.0039149667 -0.025360793 0.0028307096 0.025233982 -0.04538692 -0.00946816 -0.013347368 0.039690856 -0.016543437 0.0025275412 0.00062934466 -0.006322474 0.00017257969 0.009784235 -0.008766213 0.0028391012 -0.018373365 -0.01663058 -0.006200374 0.01036695 -0.025027446 0.017237756 0.0059119863 -0.03964784 0.015734566 -0.017031202 0.014649229 -0.0064428914 0.005274435 0.007513905 -0.01456 -0.035120584 0.015441062 0.038138777 -0.017238012 0.022362694 -0.016123692 -0.0047813193 0.0064489488 0.031630147 0.0021355008 0.023771191 -0.0078121778 -0.022331089 0.007852594 -0.0069629634 -0.012251522 0.010783736 -0.008427521 0.022482151 -0.0033980305 -0.03220666 0.008919009 -0.0156042855 0.02354237 -0.016286127 0.002408131 0.010400074 -0.015358783 -0.025530811 0.06019146 -0.030302072 -0.036299687 0.005397 -0.0054966323 0.000738187 -0.020941759 0.03254009
sense 0.013000249 -0.018154128 -0.024736714 0.02667822 0.005403636 -0.003941122 -0.027469372 0.01716958 -0.0065986817 0.026472319 -0.023158025 -9.8193996e-05 -0.019662298 0.015088279 0.0284115 -0.0085905045 -0.05365242 -0.009664354 0.018147117 0.028618092 -0.0509024 -0.013392737 -0.025908958 -0.008074367 -0.021401407 -0.032088086 -0.030931734 0.0014175465 0.032687094 -0.025169067 -0.004802369 -0.0024159253 0.015019871 0.020858211 0.00035936222 0.0042323153 0.057151712 0.034249328 -0.0135454 0.03988784 -0.006681923 0.02245364 -0.014064527 0.0006372592 0.0043063685 -0.014605863 -0.028356997 -0.02368025 -0.0076242695 0.019047018 0.0011726993 -0.00994484 -0.0418543 -0.024286399 -0.017326048 0.03493526 0.011049691 0.02782971 -0.049771067 0.037033018 0.008160676 0.010585956 0.0012684311 -0.0052638766 -0.032208815 0.001826237 0.013555341 -0.018564845 -0.0067810114 0.009865981 -0.02899607 0.002771675 0.0027391491 -0.045539867 0.013000825 -0.01410225 0.025222646 0.0042819814 0.004530209 0.007488844 -0.03442705 0.017430345 -7.7869045e-06 0.01293484 -0.026945941 0.0056502367 -0.027706021 0.006651542 0.03468084 0.028236143 0.023583733 0.0028646528 0.0048819645 -0.04076494 -0.0033422802 0.023098394 -0.014360627 -0.013728151 0.03963734 0.0089162225
tonight -0.013341291 -0.007853918 0.008880825 0.041203976 0.0012657065 -0.0385843 0.0049526617 -0.011973926 0.0012131046 -0.016316945 -0.012551938 0.017144514 0.007157377 -0.017650256 0.03371807 0.029020226 0.0046219877 -0.0072578206 -0.0049043526 0.029467572 -0.0048302156 -0.0132269235 -0.023741908 0.011024417 0.027794357 0.0031373277 0.044212498 -0.0026988268 -0.0113283945 0.020493897 0.011044451 -0.012257835 -0.0055955425 0.022028377 -0.01893238 0.0249347 0.0023395324 -0.0039712084 -0.020122383 -0.02016968 -0.019977896 -0.04013365 -0.026155042 -0.030146955 -0.01579673 0.010481183 -0.0039796275 -0.007729201 0.0026443538 0.010411807 0.04236149 0.03383692 -0.038131904 0.022437885 0.012875333 -0.0019348388 -0.027148928 -0.0026733885 0.0035927673 0.009433304 -0.048465922 -0.0060568224 -0.016925024 0.033919625 0.015967747 0.0049792775 -0.00091554853 0.024383416 0.00017088553 -0.035724524 -0.04364025 -0.035330124 0.015485291 0.0015048507 0.005898087 0.039199285 0.015581895 -0.008407559 0.043434866 0.043779857 -0.009637752 -0.043640647 -0.0030106949 0.021311106 0.0069424873 0.040314075 -0.048674513 -0.016476797 0.050104126 -0.014119883 0.03803812 -0.027417244 0.007488987 -0.011421583 -0.010412217 -0.029529044 -0.04590837 0.0050081383 0.077650845 0.069430284
involved -0.016698346 -0.009484292 0.013756958 -0.0033449552 0.023108732 -0.03676653 -0.03062924 -0.025568355 -0.0014029692 -0.021389265 0.036575183 0.019383425 -0.04391616 -0.052794464 0.020175537 0.018673489 -0.03238078 0.015261444 0.00038828235 0.0022069025 -0.015350141 -0.017646655 0.0030971942 -0.007033187 -0.023724176 -0.008355426 0.0043325042 -0.07277927 0.049204078 -0.0037494365 0.011056442 -0.018835748 0.046655465 -0.027866881 0.038002364 -0.03856338 0.047639012 -0.022837874 0.017730651 0.015677199 -0.021854829 0.05517057 0.0010496653 -0.00325994 0.037808865 -0.048687544 -0.0052379956 0.032392092 0.038639933 -0.0741255 0.024935508 0.06949182 -0.0015400369 0.037419308 -0.01093362 0.00080065324 0.02114197 0.007140189 -0.06634577 -0.035117812 0.0076056975 -0.050040524 0.0060463916 0.0041581187 -0.06529354 -0.010836247 -0.036422983 0.0073100664 -0.010180564 -0.008614892 0.002664742 0.06599969 0.05507774 -0.013560092 0.022432819 0.033360817 -0.0026617674 0.0059013716 0.051463462 -0.0042290324 -0.022881897 0.013349129 -0.02945182 0.01469418 -0.02483294 0.0098652765 -0.020550339 -0.066707544 -0.043127995 0.0088811545 0.047920644 -0.0812261 0.011456837 -0.025436964 -0.008930149 0.0018347157 0.04165517 0.023606122 -0.017346583 0.054654792
record 0.03099593 0.0056466474 -0.013898231 0.0034436036 0.0094481865 0.035935543 0.042196456 -0.039309643 0.00031128054 0.011985115 0.012096938 -0.022229766 0.011702521 0.020130668 -0.0033766287 -0.016013227 0.017097102 -0.0019076213 -0.015343656 -0.015812967 0.012655525 -0.031494066 -0.011199796 0.03977377 -0.013744531 -0.05383674 -0.010509613 0.02069268 -0.028917747 -0.02532751 0.03641071 0.021930534 -0.013519509 0.0007465421 -0.0018120019 0.016704665 -0.050794095 0.0015249754 0.015764443 0.0058608055 -0.007457395 0.012014552 -0.041985936 -0.011267722 0.014022373 0.006655147 -0.0026191904 0.027079098 0.0026684 -0.015160757 -0.017168503 0.028445346 0.030625036 0.036659133 -0.027852526 -0.013718202 -0.024380008 -0.013285104 -0.009374501 -0.009398926 -0.02976339 0.0014889326 0.0038401615 0.025260461 -0.0066947225 -0.020196091 -0.035269693 -0.02954434 -0.005112663 0.045491192 -0.028405529 0.018203674 0.005010958 0.045135207 -0.04376535 -0.012902352 0.022562595 0.008186675 -0.0076125935 0.004437055 -0.022057727 0.04464899 -0.02734028 -0.005952528 -0.007282588 -0.024916258 0.042078864 -0.028110651 0.037823558 0.02265038 -0.00669871 -0.002508809 0.0065236427 -0.030916627 -0.061243348 -0.011288272 0.023373555 -0.019061344 0.012829216 0.009164124
PT7 0.014769656 0.056298256 -0.0027907044 0.0074971477 0.01989437 2.1217274e-06 -0.052294564 0.019532124 0.009821051 0.009683184 -0.014173563 0.030863727 -0.017754287 0.038344115 -0.034266744 0.017929403 -0.025395088 -0.012374804 0.04451932 0.023743248 0.012805546 -0.00034301114 -0.013683192 -0.012306488 0.03737713 -0.020713653 0.024033435 -0.007144591 -0.004656829 -0.016376417 0.015560564 -0.013316434 0.0026255916 -0.001438181 -0.010405929 0.03151821 -0.01703818 0.02595038 0.0037504246 -0.0054190876 0.027990678 0.0138650285 -0.021250313 0.030750873 0.0065039694 -0.0059825396 -0.009588362 0.009784837 -0.0063581746 -0.014444061 -0.013882006 -0.032438498 -0.023970146 -0.009982722 0.009943878 -0.0017898686 0.01549083 -0.019976096 -0.022279942 -8.147931e-05 -0.00014801795 0.005603046 -0.024549734 -0.0334392 -0.0032139283 0.0037377358 0.02276029 0.033762466 0.0045126504 -0.04798305 0.02172212 0.015481425 -0.015062413 0.0010916983 -0.0054842597 -0.019317513 -0.02919356 -0.0073212553 0.0018441768 -0.010667882 0.007850049 0.0067727463 0.027255565 -0.00017679628 -0.01837708 -0.0004921148 -0.009319054 -0.010665219 0.031268217 -0.006655651 -0.035618972 -0.02419157 0.02269571 0.002789866 0.014124043 0.0069758315 0.020540703 -0.008515165 0.026653782 0.022499321
discuss 0.006693573 -0.016764576 0.006178147 0.0023783033 0.0030419014 -0.033654884 0.022736376 0.012914373 -0.009616835 0.025296805 -0.049086027 -0.011979626 -0.03855406 -0.0059657935 0.015446225 -0.008639701 0.05636463 -0.007936703 0.00020292765 -0.050337233 0.0012544119 0.018310042 0.009691469 -0.004852982 0.022858193 -0.032731682 -0.016892588 -0.021796452 0.024256019 -0.03318092 -0.0023346052 0.00036193256 -0.036411427 -0.0579411 -0.01206973 0.022584986 -0.0059164707 0.022268461 0.015257559 -0.032955956 -0.042190462 -0.005859073 0.005529425 -0.020039655 -0.003812559 0.014357593 0.033892643 -0.0024648057 0.009066704 -0.014271985 -0.037614036 0.0066329655 0.0016795404 0.03275714 -0.033523362 -0.025454506 -0.03364152 -0.017222082 -0.0023705047 0.0028810045 0.046846107 0.025102345 -4.820153e-05 0.014451129 0.035958294 0.018595824 -0.023236206 -0.051795688 -0.025481991 0.024320638 0.069509484 -0.025640262 0.010659207 -0.017655453 -0.021648481 -0.0032110922 -0.0014563045 -0.03316848 0.007414289 -0.013845917 -0.015594594 0.0027152777 0.013529614 0.033374973 0.02559631 0.05159907 -0.032331795 -0.0013519259 -0.018709263 0.017580267 0.028587164 0.018674714 0.0060618976 0.015446912 0.013867991 0.006804503 -0.0037513922 -0.0015296172 -0.038610935 -0.009547051
