1613 100
lead -0.0026092045 0.018560922 -0.00045305045 0.0093565425 -0.0072605363 0.016192287 0.005582343 0.024970567 -0.00658655 0.00495773 0.026014954 0.022409052 -0.0019084505 -0.028678037 0.0015176971 0.01919274 -0.018725026 0.012121261 -0.014907964 0.014587108 -0.00852504 0.044137027 0.028997706 -0.0066312696 -0.0042948294 -0.0096281925 -0.011489909 -0.015678125 -0.0025541547 -0.011214543 0.013436183 0.017350182 0.019253746 -0.011998324 -0.0028659878 -0.014809155 0.027459323 0.012728112 -0.010046767 0.0010768584 0.023662176 -0.015052704 -0.011117443 0.034608215 0.004288537 0.039060917 -0.010334606 0.0043009096 -0.00423488 -0.019572835 -0.0049961843 0.018515721 0.0027457862 -0.006117824 0.02277659 -0.011838047 0.019237643 0.0033458865 -0.008829262 -0.021218799 -0.014701436 -0.031282492 0.006671435 -0.001630733 0.012430612 0.005222861 0.013840947 -0.018352212 -0.0033060224 0.0032826266 0.014696583 -0.007275019 -0.017235875 0.028121002 -0.016824456 0.017399017 -0.0025948803 0.0075777126 -0.0072819944 -0.02495011 0.020371487 -0.0067852107 -0.03673796 -0.04183889 -0.022079634 0.009801461 0.0057052607 -0.010535579 -0.036106378 0.0034020534 0.003989698 -0.00847983 0.0064145443 -0.014987595 -0.029845871 0.015723804 0.034884457 0.0036517647 0.0060890033 -0.013379678
New 0.021996185 0.0076251384 0.031471185 -0.017466338 0.0332806 0.0019373205 0.04166582 -0.015044981 -0.053470492 -0.0027144956 -0.026895842 -0.03276875 0.040717945 -0.0059480257 -0.00939847 -0.07808088 -0.009341588 0.019652912 -0.007932807 -0.012181135 0.01734661 -0.012065293 0.02919504 0.022895396 -0.042797897 -0.09128562 0.008433649 0.02766114 0.012930929 -0.03266041 -0.011457769 -0.044617422 0.04437024 -0.023249846 -0.009157121 -0.015040875 0.015288099 -0.0008260671 0.06205407 0.014822652 0.023557521 -0.03055005 -0.038530093 0.0001237035 0.0046449476 -0.031112578 -0.018429292 -0.0077287513 0.015877277 -0.007026261 -0.037223004 0.058875192 -0.038166434 0.03944042 0.027001627 -0.02317939 0.005097329 0.041257177 -0.0068344935 -0.021090295 -0.05211709 -0.05869181 -0.064638294 0.03280505 -0.050559275 -0.0013835279 0.03177673 0.015347936 0.021863641 0.004749459 0.006661845 0.04422545 0.03595426 0.052904606 0.058609787 0.035663005 0.011234195 -0.0010857787 -0.036866236 0.028510613 -0.00059181935 0.0024890208 0.006586181 0.0039902637 0.0013249042 0.0121379215 0.003166976 -0.017752532 0.009586232 -0.05657109 -0.03209742 0.025450021 0.010218358 0.0058474774 -0.02609654 0.042428937 0.0072653564 -0.027936235 0.0065319887 0.04953511
scientists -0.03486147 0.009513769 0.020309564 -0.013416792 -0.0022778239 -0.01281123 0.016626736 -0.01766671 0.009035275 -0.0058721825 -0.013028348 -0.0035014017 -0.05237122 -0.013344387 0.013799538 0.02130311 0.023997465 -0.0025352198 0.03832562 -0.0017984413 0.008977661 0.013314177 -0.02995697 0.046060134 0.021347195 -0.012739432 -0.00062291627 0.022154512 -0.006535619 0.017997382 -0.01145314 -0.020482482 -0.0038927963 0.0071082264 0.00074296386 0.015590656 -0.02956539 0.0035326467 -0.01071653 0.055200588 0.02252982 -0.030003702 -0.0444333 -0.027650468 0.026346622 -0.011759339 -0.0014152986 -0.035325397 -0.0040057795 -0.005019474 -0.029774234 -0.03652412 -0.0036158771 -0.003810885 -0.009380567 0.044087842 0.035711244 0.019372152 0.01740427 -0.017281417 0.003715306 -0.036653984 0.011629376 -0.017923348 0.0009449719 -0.014740591 0.005814331 -0.016445333 0.024276674 0.01654427 0.020342862 -0.0055707362 -0.0008790374 0.00978222 0.03344897 0.0008923212 -0.00012164313 -0.020564254 0.012418398 0.0028374959 0.025635809 0.0026570647 0.038169663 -0.0254614 0.013421158 -0.017253984 0.009962178 0.021179374 -0.01942215 -0.025644915 0.0057570385 -0.016891008 -0.011745229 -0.03603705 -0.024499785 0.009867089 0.0029666624 -0.01748809 -0.0081646 -0.017042706
came -0.0077140927 0.0797444 0.022052245 0.050660536 -0.0026099817 0.02488181 -0.008932665 -0.004083687 -0.036471933 -0.008504077 0.047681455 0.08527644 -0.003842993 0.00789525 -0.018418316 -0.011960197 0.01266599 0.03140924 -0.017079426 0.012102405 0.00062346424 0.02775916 0.031823657 0.07098814 -0.001246111 0.041501246 -0.027378164 0.023663811 0.012952336 -0.010965409 -0.033098675 -0.001933018 0.028163208 0.07424116 -0.016963921 0.020896321 0.04198508 0.010675497 0.018920997 0.0375345 -0.051329717 0.04839742 0.0717504 -0.0629461 0.033375975 0.04056918 -0.0013997857 0.023300756 0.028808506 -0.08660477 0.008080032 -0.045307748 0.043713227 0.05591274 -0.035776403 0.0014991644 -0.053274557 -0.0029016202 0.004467611 -0.017959535 0.016758079 -0.03747167 0.015492599 0.06573001 -0.033649467 0.033605307 0.028475873 0.03423222 0.004109615 0.022470746 -0.09747562 0.0135056535 0.012990474 0.004714195 -0.046545822 -0.016824936 0.047780488 -0.04936332 -0.015964024 -0.024717512 0.023957636 -0.06415399 -0.05586122 -0.01490027 -0.0152603015 -0.0068607703 -0.06129031 0.029152883 0.06958486 -0.071038485 0.021451263 0.00268355 -0.0072386544 -0.004034635 -0.030705467 0.0015247718 -0.03177638 -0.007798191 -0.020027151 -0.014923318
allowing -0.0029179468 0.012147456 0.008987359 -0.016992792 0.010654676 -0.0009789427 -0.019651657 0.03236782 0.018382603 0.037278224 0.015155729 -0.02034018 -0.03602303 -0.0041787103 0.005540139 0.004725378 -0.009387654 0.0024809293 -0.00732108 0.015757065 -0.018273035 -0.01156635 0.0031315633 -0.007857915 -0.003632295 -0.030383594 0.019027522 0.019449726 0.044911038 0.01596976 0.031598747 -0.013117564 0.0067762784 -0.005344667 0.046629384 -0.010890912 -0.024300503 0.00693007 0.040652685 -0.017502641 0.031047124 -0.01954535 -0.01617795 -0.00052582106 -0.03935479 -0.001445169 0.014895379 -0.0075572114 -0.014583893 -0.015064187 -0.028036967 0.026118932 -0.014922667 -0.029968217 0.010503855 0.014578905 0.014000557 0.007900297 -0.01262938 -0.036564454 0.012421412 -0.03986151 0.024759542 -0.00059598865 -0.012970978 0.015835999 0.0026890442 0.0043014986 0.016753422 -0.01880793 0.013443468 0.0077205473 -0.024160117 0.027446823 -0.0009535125 0.018365895 -0.006726945 0.014429068 -0.0015056878 0.023274396 -0.014975352 -0.013118599 -0.0070694825 -0.005035075 -0.024405606 0.0080080405 0.0051787235 0.0332269 -0.007951265 -0.0019074285 -0.0056004943 -0.014064169 -0.008796173 0.015943406 0.0028092556 -0.004502696 0.014393933 -0.027563082 -0.009341533 0.023889514
1934 -0.009247885 0.04294596 -0.014055753 0.008389163 -0.020840945 -0.022766149 -0.021992963 0.015687605 0.020885173 -0.005862804 -0.014119291 0.026739141 -0.024034895 0.03205396 -0.009350147 0.009034166 -0.01959882 0.02862745 -0.035277482 -0.008831682 0.027894294 0.007915202 -0.032767538 -0.009450582 -0.021118065 0.03277169 -0.009823562 0.0011092884 0.011305359 -0.007920582 -0.043958742 -0.0085949395 -0.024048464 -0.00176868 -0.018973712 0.014980164 -0.008410402 -0.032745834 -0.022420116 0.0023976858 0.005721896 0.008972766 0.006192208 -0.011019668 -0.018775323 -0.030925145 -0.027764345 -0.016134432 -0.029718088 -0.008842083 0.020317245 -0.0495547 0.026881237 0.02610918 0.03075976 0.018367212 -0.014436395 0.0031803786 -0.028355189 0.029532176 0.029550599 -0.0059810453 0.018466577 0.021305742 0.00512905 -0.01113662 -0.0025539163 -0.004503894 -0.021395106 0.001858222 -0.037463795 -0.008995054 0.016196346 0.01165224 -0.0217756 -0.0021456452 -0.03487838 0.014373328 -0.011618593 0.003161652 -0.02527976 0.006550726 -0.030658206 0.024706993 -0.017233249 -0.013415578 -0.00433582 -0.01978988 -0.0053710844 -0.023099238 -0.013567284 0.0023658166 -0.018633807 -0.028564388 -0.0043249005 -0.0005709537 -0.002701415 0.022491286 -0.007862532 -0.028362755
target -0.009356148 0.009169672 0.016357172 0.018374138 0.022448985 0.038839106 0.015095787 0.018748453 -0.034719266 0.059142195 0.001469116 -0.05576252 -0.04360618 -0.029662117 0.011762552 0.012094894 0.03107543 -0.005560879 0.037799362 0.018350473 0.008563399 -0.0038076611 0.008052334 0.022342252 0.017113343 -0.023230303 -0.01093629 0.03325638 -0.015174844 0.0020743585 -0.011416023 0.029936893 0.009851682 -0.016794924 -0.027616084 -0.032995075 0.010589302 0.035285223 0.020093445 -0.0005027183 -0.01027308 -0.005303519 -0.042830378 0.029055467 0.0061940295 0.030131314 -0.03674197 -0.011159676 0.00033159432 -0.0026296426 0.007380602 0.01423249 0.015065125 0.016628005 -0.017020442 -0.020758705 -0.0067457664 -0.0020640495 0.014774701 0.028261462 -0.02364485 0.013778205 0.012311682 -0.0030796616 -0.01984746 0.0035569752 -0.006265111 -0.041256636 -0.009958938 0.022621231 -0.0031265048 -0.002285998 -0.044384647 -0.031351775 0.04036681 0.015790367 -0.01745317 0.00038084103 0.015701376 -0.02892272 0.008415953 -0.0030788456 -0.00020262075 -0.025269402 0.05681299 0.01844433 0.0069637867 0.005200248 -0.025635535 -0.007578415 0.0011340969 0.020332705 0.00052188314 0.0031988926 -0.045674846 0.019089589 0.0083509395 -0.032657944 0.008724442 0.023202939
cut 0.011785651 -0.008254634 -0.00997641 0.0053544585 -0.007430369 0.0109838955 0.0035259062 -0.0013031766 0.010103118 -0.0026599327 -0.002407922 0.008169425 -0.01684483 -0.019058606 -0.004386984 0.039367676 -0.008850663 -0.024617836 -0.015240288 0.009548817 0.006132767 0.01041954 0.0070898673 0.0098242285 0.03812267 -0.024318578 0.012597024 0.0016961067 -0.016600654 -0.00915682 0.022565551 -0.020867856 -0.011688923 0.0052470947 -0.011081861 -0.0058969287 0.022579806 0.023542618 -0.009126317 0.003952549 0.015509913 0.024139581 0.0046225707 0.03035448 0.009192083 0.0019450443 0.020788325 -0.0039668004 -2.207933e-05 0.0122354515 -0.014288278 -0.0056254924 -0.003010486 -0.031479552 0.0013742058 0.005308846 -0.011198413 0.0033944254 0.0019160402 -0.030958384 0.016062401 -0.0010624547 0.011206209 -0.004456242 -0.0035289102 0.006423894 0.03636078 -0.012343219 0.012738441 0.017090548 -0.0056755347 -0.011848108 -0.012255025 -0.0048747333 0.01756144 0.016679745 -0.022669017 -0.0010371597 0.009095506 0.0040560937 -0.0012518446 0.005886385 -0.011442553 0.028159153 0.01980735 0.005958091 0.0038445485 0.022843292 0.020625189 0.01745071 0.016677331 0.0348147 0.0016553088 -0.003994629 0.016885938 0.021320429 -0.004287594 0.0039644153 -0.01794769 0.044054493
businesses 0.01113872 -0.012790285 -0.015958004 -0.0045547653 -0.0054531605 0.0040100254 -0.009037478 -0.003120645 -0.010192463 0.0473727 0.0049483734 -0.010580878 -0.01840569 0.021180214 -0.0040531065 0.025447605 0.043904215 0.022361405 0.020622674 -0.014229017 0.03330991 -0.0181745 0.0033978836 0.003803589 0.009686039 0.0035394072 0.008179486 -0.0067647477 -0.00248504 0.024864612 -0.010241158 0.012455597 -0.040423248 -0.036688477 0.04364119 -0.023109794 0.0017927065 0.008588899 -0.0046924856 0.0027868447 -0.009347461 0.020987201 0.015626105 0.0021324828 -0.038893275 -0.0018956 -0.0041865 0.0162629 0.03817318 0.016955815 -0.01162314 0.0027306518 -0.006279262 -0.011555287 -0.001300148 -0.002777244 0.0035769606 -0.013850036 -0.019628841 0.012392258 -0.010286748 -0.0009391923 0.019938556 9.2974864e-05 0.029734062 -0.003481815 -0.0070428303 -0.020496199 -0.010198402 0.014541453 -0.04592057 -0.017197419 0.010717527 0.00025059664 -0.034771044 0.023322895 -0.0005130817 0.007942655 0.0006355576 0.013467921 -0.0049779452 -0.0057328185 -0.015433756 -0.0012735882 -0.022339309 0.015168175 -0.010424744 0.0070460546 -0.014651707 0.008350972 -0.0036265622 0.009607282 0.007544931 -0.01302272 -0.007852349 0.018846722 -0.017931227 0.033616524 -0.020821605 0.01393638
members -0.012805075 -0.009897855 -0.01563367 0.02176698 0.00085747044 -0.031711176 -0.0003449116 -0.0064147357 0.013472431 -0.039520375 0.006000559 0.036737345 -0.036077004 0.024418142 -0.018194508 -0.027437534 -0.0010345485 0.0073527917 -0.016507465 -0.04117984 -0.011005026 0.0027543616 0.01059114 -0.020870073 -0.008184947 0.008617241 -0.0025178553 0.015450815 0.007996695 0.023031393 -0.009359205 0.010315812 -0.03415302 -0.015469931 -0.016831469 -0.00088611664 -0.002322705 -0.004383132 -0.009139822 0.024300668 -0.0005848961 0.015044101 -0.0021904048 -0.031540114 0.0067810304 0.030896477 -0.014266609 0.0015011525 0.0038267085 -0.02032435 0.0030989868 -0.052718755 0.0023879237 0.007954988 -0.002121549 0.0012735581 0.003388544 -0.017103149 -0.01896906 0.0024659424 0.018932937 0.017627604 -0.006599946 -0.0008469047 0.014343328 0.0048068757 -0.023784313 -0.012063884 -0.015228048 -0.009336843 -0.012237999 -0.04517424 -0.005338833 -0.002909734 -0.008598609 -0.029434271 0.0007033369 -0.027052408 -0.0111328885 -0.008516396 -0.014645062 -0.0077895224 -0.020219686 -0.0021965469 -0.03936765 -0.0021246034 0.007080817 0.006584421 0.04304078 0.024917673 0.021998016 0.037711423 -0.030467782 0.0029541587 0.00831721 0.023948636 0.0066833463 0.023136519 -0.026749432 -0.04246399
transmission -0.008439415 -0.020664101 -0.0073747667 0.015401106 -0.0024608355 -0.017714372 -0.030109035 -0.00997433 0.030472502 -0.040408555 0.0104786875 0.0148861995 0.023186397 0.005598235 -0.008974088 -0.03372546 -0.0035766028 -0.0033698832 -0.014407391 -0.0016196953 0.011395082 0.024546918 0.020557204 -0.0050970213 0.010919346 0.048885867 -0.01597023 -0.043551207 -0.010984617 -0.021984978 -0.036138177 -0.0026836598 -0.009936575 -0.012596138 -0.014813466 0.020518437 0.02384555 0.012503153 -0.0033797103 -0.0016210047 -0.016845888 0.012292331 0.04900354 -0.0071214223 0.00466503 -0.019870678 0.014579776 -0.011470507 -0.004033999 -0.0046969727 0.02086925 -0.015156531 -0.0041999165 0.01579528 0.0067507923 -0.010977681 -0.010402992 0.013439492 -0.021537123 -0.005563284 -0.016587755 0.012009384 0.03477093 -0.004704018 0.03700685 0.009509229 -0.014546292 -0.0039355084 0.018231066 0.005974308 -0.034157455 -0.042391893 0.0051417495 0.010811428 -0.043142125 -0.022500329 -0.00508318 -0.01972479 -0.00051937316 -0.0090126125 -0.0226252 -0.0026642869 -0.017891027 0.0066958126 -0.008855868 0.015041577 -0.03147251 -0.0021746398 0.019772535 -0.019780131 0.022068579 -0.031956527 0.017770085 -0.010726926 -0.027668077 0.009535389 0.027523557 -0.024377096 -0.00078591553 -0.04266277
advice 0.0071498896 0.0026773706 -0.010505284 0.0020967643 0.021755476 0.00041101465 0.0042803697 0.011701612 0.011709938 0.008931557 0.004839355 -0.01949681 0.020799577 -0.014092714 -0.011691379 0.030734885 0.011760049 0.0126068005 -0.017986031 0.008491637 0.013746385 -0.0046801157 0.004970163 -0.008903346 0.04349378 -0.016866405 0.0089160595 0.024042709 0.0065614823 -0.025656333 0.0049940166 0.00040099496 0.021961592 -0.0029028654 -0.0069386023 -0.03597013 -0.018619664 -0.033387017 0.01683924 -0.027063118 0.03714106 -0.011834597 -0.021709938 0.014766373 -0.0058629494 -0.00867062 -0.03772807 -0.0031802354 -0.013275216 -0.013986197 -0.017410116 0.020631766 0.0026982166 -0.02601173 -0.032827966 0.010191463 -0.014191143 -0.021576606 0.0029620999 0.021561688 -0.027282141 -0.03895983 -0.020243863 0.016323732 -0.021231147 -0.014337854 0.0033750948 0.0062318556 0.008776014 0.028527735 -0.014768104 0.0058579645 0.025878545 0.010833666 0.01878912 0.020332718 0.0063596917 0.021864131 -0.008714265 0.00041556067 0.028165286 0.0047127227 0.017005628 0.01870668 -0.0073055187 -0.0155603 0.011981799 -0.02882953 -0.023412662 -0.007319732 -0.0026498917 0.021726513 -0.015694268 0.005347734 -0.01686042 -0.028943162 -0.04532661 0.0054107094 -0.0037500015 0.00044930872
size 0.017987028 0.034032933 -0.02652445 0.012641966 -0.019615691 0.02690953 0.010146254 -0.012725588 -0.019577922 0.02463846 0.030572858 -0.03273467 -0.013107016 -0.0073748287 0.034962054 -0.024420489 0.0042112456 -0.01237356 -0.0009918967 0.032328993 -0.008991018 -0.012664613 -0.016539313 0.010351032 0.02351811 -0.020316256 0.001962899 0.044813685 -0.004291693 -0.0037266994 0.003789104 -0.008684479 0.0082963705 -0.018940171 -0.03663421 -0.014669233 -0.014391252 0.013601351 0.023700727 0.029054722 -0.0014580769 -0.026529966 -0.0075293398 -0.01344624 -0.008030203 0.004844409 -0.020447394 0.012827092 -0.037512727 -0.008345868 -0.0261833 0.012404957 -0.00911125 -0.025365053 0.0037639297 0.03737095 0.0183736 -0.019849285 0.0075220712 -0.014566858 0.015693698 -0.0015056867 -0.008030144 0.0023696816 -0.013013206 0.037845723 -0.0017350616 -0.038441278 0.012009108 -0.0079817185 0.022411093 -0.015393073 0.0049120416 -0.003069304 0.013815622 0.031414907 0.0027009745 -0.010979376 0.016527724 -0.009245641 -0.0144578 -0.018889355 -0.006360815 0.023905708 0.020303212 0.040601697 -0.014086352 0.0040873312 0.01337632 -0.009849191 -0.0003165575 0.018653167 0.005038651 -0.0076581044 -0.009755191 -0.02399996 0.011845538 0.0001354384 0.015580753 -0.0021222993
overs -0.02063858 0.00913153 -0.0198234 -0.03147116 -0.029994551 -0.006095021 0.021874033 0.043714058 0.012075761 0.007982442 -0.04373395 0.013624688 -0.0022953856 -0.020444022 -0.007298296 -0.015803048 0.0037500917 0.0032229992 0.01601683 -0.0026350778 -0.017163688 -0.0055755363 0.0004255729 0.009986671 0.009349916 0.0016097856 -0.0134861395 -0.012591292 -0.0034917362 0.012077508 -0.013256786 0.01947296 -0.029994927 0.0137680955 0.025093295 -0.0009649542 -0.0064353505 0.026246658 0.015592587 0.033350937 -0.03730543 0.01751087 0.012477512 0.008598439 0.028668901 0.01971546 -0.0028945885 -0.0063799447 -0.013562534 -0.0019140315 -0.018747091 0.0061731576 -0.016034694 -0.01580758 0.0060848566 -0.008981195 -0.018721905 0.01909301 0.012410928 -0.0056344294 0.04461546 -0.03059758 -0.032898173 0.0088102715 -0.000595727 0.017648662 -0.0035440444 -0.010647773 -0.013011706 0.025356622 0.002362079 0.025344532 0.013691156 0.015616194 0.014988096 0.002459498 0.038301177 -0.0022668038 -0.014708779 0.047982115 -0.033672873 0.028349983 -0.012531217 0.02651333 0.0044662682 0.027901934 -0.012317808 0.028502941 0.0065140305 -0.010032589 -0.03433223 -0.016106263 0.0028602802 -0.023181112 0.017537512 -0.006457964 0.0057856617 0.030592302 -0.015546491 -0.0052256873
process -0.019837186 -0.025809556 -0.009122543 0.01958714 0.023568764 -0.008361256 -0.0047665 -0.016335268 -0.015162428 -0.010405898 -0.018721335 0.022953562 0.036410462 0.032363717 -0.016257718 -0.03225582 -0.003002706 -0.0033827396 0.008922297 0.010044677 -0.008849811 -0.004337852 0.031276315 0.009367276 0.0026137696 0.025577165 0.0142293535 0.004025199 -0.0115326755 0.016260218 0.019456826 0.040682092 -0.011074687 0.05410126 0.020091888 0.00018610137 -0.0016992488 0.010017665 0.022258095 0.0047657224 0.0035454042 0.009276844 -0.029193131 -0.0017309525 0.00825419 0.0004637033 -0.018691223 -0.021322405 0.018296553 -0.0022901588 -0.0202945 0.016190149 0.0027892934 0.040418018 -0.0065448275 -0.0033083109 -0.042707138 -0.029545572 0.012605543 0.0035185788 0.016104857 0.030366492 -0.0036382917 -0.03040861 0.0064705177 -0.018043878 0.0035609102 -0.0057632597 0.018516876 0.03198894 -0.016607268 -0.020659085 0.011526337 -0.034601953 -0.0062518828 0.00535054 -0.028021801 0.013078779 -0.06816547 0.005159739 -0.002371044 0.000836596 -0.0155076925 -0.01177418 -0.012124938 -0.0054804613 -0.043298606 -0.0011874184 -0.008050844 0.013937322 -0.0061313403 0.0009547306 0.009438767 -0.0008245291 0.0189627 -0.012128535 0.009233257 0.020306295 -0.0125865005 0.014105649
help 0.039633326 -0.018287437 0.010557377 0.018344603 0.021513196 0.03155692 -0.0008050675 0.0012480149 0.007099983 0.008918973 -0.017825786 0.0025775568 -0.025350843 0.026461089 0.0015483942 -0.015054451 -0.054013543 0.010825862 0.01793613 -0.0361416 0.036628827 0.05040006 0.014961518 0.007664606 0.0108557 0.02114786 -0.0063534696 -0.016509391 -0.019230949 0.029134031 -0.013422882 0.053342894 -0.04999997 -0.019822966 -0.0045619775 0.020002022 0.01395429 0.013785558 0.012953819 -0.017747909 -0.0040722284 -0.020990036 0.028121533 0.012410569 -0.014856362 -0.022381455 -0.012839631 -0.009023788 0.009565299 -0.028478054 0.017532805 -0.0046222066 -0.027574005 0.019561658 0.010481067 0.024408124 0.012137931 -0.035138004 -0.02023674 -0.014973452 0.0073478664 -0.00025279386 0.023882609 -0.016466653 0.027762508 0.028256567 -0.017666636 -0.005670973 0.030934049 0.024473837 -0.018136593 0.06264232 -0.015539357 0.015258187 0.03601581 0.0065382244 0.01559628 0.0011882026 -0.01614651 -0.0074459445 -0.0055711693 0.023935294 0.024983808 -0.024586624 0.025015729 0.018696712 -0.030201174 -0.03648679 -0.013748587 0.017947977 0.0020691182 -0.03172714 0.08667223 -0.049361203 -0.019530475 0.023613617 0.019809233 0.0021463006 -0.03808391 -0.04363884
international 0.04847835 0.0033042845 -0.021024162 -0.00088346 -0.01770215 0.016353767 -0.033418283 -0.019518547 0.0051844358 -0.017888186 0.018399863 0.036265593 0.015339793 0.022184646 -0.009591987 -0.0032409667 -0.023800936 0.0320529 0.009443152 -0.020365322 0.02363241 -0.024576778 -0.01596358 0.0028975452 -0.016106026 0.0069900053 0.01022404 -0.010801949 -0.0036648375 0.01376359 -0.00754235 0.0028599594 -0.010431637 0.031913195 0.01278187 0.02212741 0.009445218 -0.00044134262 0.0025478308 -0.03640832 -0.011370379 -0.019263124 -0.01947822 0.005598246 -0.02489385 -0.019969624 0.02869255 -0.011898587 -0.042950988 -0.017444434 0.014427663 -0.088000156 0.039812908 -0.0033711772 0.014513238 -0.0006869114 -0.022715628 0.010286883 -0.015509956 0.009316254 0.046296984 -0.0039990484 0.047270417 0.00717907 -0.010825291 -0.0373377 -0.020787084 -0.024122998 0.010268002 0.010816739 -0.022228705 -0.010868704 0.020540023 -0.0057968674 -0.0105754435 -0.010449593 -0.005794881 -0.021582903 -0.0008057739 -0.022516338 -0.042193163 0.004914295 -0.014989364 0.028433584 0.0016995578 -0.01899755 -0.0368445 -0.033745218 0.04502284 0.010612273 0.016948948 0.006500491 -0.01539089 -0.002184322 0.014960094 0.007477754 0.046449985 0.012526755 0.025149008 -0.00011324781
regulations 0.0060223113 -0.01700633 0.01969189 0.015590782 0.016129058 0.0012814405 0.006910646 0.024498532 -0.006879388 -0.0016728987 -0.0011560016 0.03104722 0.008993121 -0.016373646 -0.018198106 0.019338856 -0.063707545 -0.015272581 -0.0018705226 0.004097474 0.022856355 0.03223194 0.011352563 0.029017834 0.01830087 -0.05483679 -0.012492572 0.006133877 0.004633257 -0.012668628 0.0051840553 -0.01821765 0.017879918 0.006097565 0.023716541 -0.027647557 -0.02175055 0.019678948 0.0060150195 0.006258919 0.021886213 -0.03507027 -0.021328764 -0.010808535 -0.024378397 0.004531156 -0.00011621186 -0.014828269 0.040010333 0.011851834 -0.01749837 -0.0071883732 0.01258837 -0.0051182387 -0.003327583 -0.0026758015 0.03546798 0.015014974 0.014421991 -0.018275468 0.020203315 0.011705187 -0.023633663 -0.010174073 -0.021727126 -0.024473665 0.02516469 0.007612314 -0.026626896 0.010617876 0.02637419 -0.0025749288 -0.030139104 0.01807401 0.009911531 0.013314281 -0.00237584 0.003909502 -0.027366703 0.0051101753 0.026194466 0.002722565 -0.017787853 0.015067906 0.005054781 0.009483692 0.015984356 0.013893948 -0.03934127 -0.051349808 0.0010674556 0.008898676 0.027456196 -0.015679397 0.0010684473 -0.01427701 -0.020506172 0.006063411 0.022932405 -0.000587525
judgment -0.006465026 -0.0018122208 0.016818836 0.01880648 -0.026593102 0.008298859 -0.009359551 0.0024493411 -0.004252815 0.024668628 0.028695267 -0.0014605183 0.032818347 0.011059333 0.039337505 0.013727338 0.03995141 -0.002151285 0.010782196 -0.0004849058 0.005836397 0.021127906 0.031510524 -0.010354338 0.04596135 -0.03448232 0.015382412 0.011065334 -0.001167517 -0.018556913 0.017154647 -0.009487666 0.029005904 0.008171795 0.01834571 -0.00042947975 -0.007943872 0.0096830465 0.031198531 0.0053374204 -0.0022251045 -0.026503043 -0.03318472 0.019947467 0.007006187 0.01951917 -0.008727692 -0.0074401195 0.0355734 -0.014427586 -0.0019324684 0.0058469097 0.011856016 -0.039926413 -0.04253382 0.01097147 0.0067473087 0.048685014 0.0053274315 0.012905465 -0.020247454 -0.027736323 -0.009791056 -0.002228368 -0.028538322 -0.000955789 0.033818927 -0.013721943 0.00856036 0.005788696 0.014628083 0.008982033 0.0002170899 0.006023664 0.05427486 -0.012326068 -0.022282884 -0.002788704 0.033196762 -0.00729359 0.049899865 0.0013769522 0.01428256 0.015441737 0.014185266 0.020279376 -0.00012444664 0.01148131 -0.0033068508 0.02373356 0.031434692 0.0037169259 0.001647462 0.018515691 -0.017174691 -0.00967088 -0.040073883 -0.061426327 0.009545797 0.007373438
affected -0.07025166 -0.017974319 0.01533717 0.0081014875 -0.011042077 -0.02104603 -0.031244645 -0.00023405836 0.058086187 -0.15941009 0.06321136 0.026584042 -0.09973191 0.195894 -0.054497033 -0.023878265 -0.008828435 -0.055387583 -0.004032372 -0.033938274 0.006163853 -0.05280567 -0.0091578895 -0.025506169 0.028900428 0.11285154 0.034886368 -0.09400728 -0.0006755223 0.004986053 -0.0063942005 0.0088722715 0.01680635 0.015705502 0.05424667 0.07598916 0.047591396 -0.09399388 -0.0047376435 -0.037303884 0.116445675 0.02924028 0.028581966 -0.050954092 0.074241936 -0.0479276 -0.05088612 0.017051354 -0.05697053 0.049343664 -0.03415365 -0.15322398 0.049229383 0.0070372517 0.12632515 -0.035007533 -0.05457708 -0.0059630238 0.037108503 -0.07055942 -0.075294994 0.046696767 0.022678154 0.027246313 0.07891907 0.038074218 -0.06964064 -0.021911718 -0.09029206 0.013701399 0.029229382 0.058051966 0.059438013 0.019769317 -0.035659377 -0.08705594 -0.13267693 0.022169054 0.035240047 0.0025840474 -0.057572883 -0.06432804 0.042342525 0.1124268 -0.10607863 -0.066108674 0.019236812 0.023246776 0.07608665 0.027496722 -0.06384278 -0.027097015 0.020805646 0.0005908287 0.036426798 0.081128106 0.051978737 0.20971121 -0.00969273 -0.022819346
action -0.005552979 -0.00928337 0.031443205 0.0017827312 -0.0205729 -0.016766867 -0.035250925 -0.013930037 -0.0035212515 -0.0027079866 -0.0138139445 0.014103942 -0.015539773 -0.0016159674 0.025752435 0.010927877 0.004268261 -0.020337816 -0.024608769 -0.0008676605 0.024904434 0.024498241 -0.033832643 -0.020008273 -0.0039079804 0.02763196 -0.009717946 -0.022201616 -0.038664885 -0.016139556 -0.016599497 -0.026325282 0.009437334 0.0081605185 -0.0073071294 0.010036569 0.025873577 0.02008523 -0.02983721 0.0015942988 -0.012552265 -0.02390827 0.016562888 -0.005682697 0.014105909 -0.034686077 -0.012470477 0.016760085 -0.0234962 -0.019812625 0.024285285 -0.045886286 -0.033819962 0.024973385 -0.03788192 -0.0043148277 0.0042130477 -0.01133552 0.00981877 -0.022328306 -0.0052044294 -0.043893058 -0.007901977 0.046842687 0.019631943 -0.019871248 -0.022333091 -0.023550825 0.0129466625 -0.017624289 -0.0059046405 -0.01928754 -0.017806089 0.01073104 -0.028192397 0.021338867 -0.0049068346 0.014073468 -0.0025231284 -0.023009045 0.01813284 -0.04800539 0.010569852 -0.00016260368 0.01717152 0.020368187 0.0060663917 0.0035420195 0.017322334 0.023029016 -0.019994056 -0.027562842 -0.060699146 -0.023537021 0.0016246315 -0.0056553287 0.02835989 0.0070541333 -0.03124696 0.010955821
70 -0.019798478 0.017008016 -0.031807564 -0.01394436 0.0012580999 0.009797114 0.020389797 0.030711643 0.021614607 -0.06187813 -0.004621645 0.012496352 -0.0071292506 -0.010394553 -0.009540534 -0.0012886742 0.010188806 -0.016767677 -0.023350468 0.005307854 -0.025075868 -0.0065194396 0.020201197 -0.0056225276 -2.2765598e-05 0.020109963 0.021544399 0.027977368 -0.030351266 0.042294804 0.00882291 0.01392502 -0.00096161355 -0.021026904 -0.009530215 -0.0022785584 -0.0020547092 -0.033737306 0.033213507 0.0132090375 0.013110429 0.0007984452 -0.011547892 -0.038748097 0.017833786 -0.031094175 -0.044798043 -0.010639489 0.035340343 -0.011015343 -0.01215131 0.0144165885 0.0070786476 0.018771548 -0.033068657 -0.00012141233 0.027256366 -0.008696896 0.00339957 0.0050123986 0.032676276 -0.0034706458 -0.03135554 -0.008131578 0.009056543 0.012283207 0.021269547 0.006858972 -0.046185035 0.0063293152 -0.024517516 -0.0012789393 0.014024098 -0.014689953 -0.011762873 0.026739366 -0.007387361 0.01591749 -0.014637336 0.008977797 0.022509007 0.02947058 -0.026615888 -0.01111872 0.03810287 -0.003822182 0.005662429 -0.049298085 -0.037435062 -0.035416 -0.00024171325 -0.025596354 -0.039585024 -0.006696746 0.0383975 0.012651118 -0.013617104 0.0038456842 -0.0023556638 0.02811176
International -0.020821167 -0.012244881 -0.041881654 -0.01907512 -0.0064668246 -0.019304894 -0.052620057 -0.0031350013 0.012173932 0.008517649 0.010139213 0.04746741 -0.0019364443 0.012087168 0.005894504 0.0151178865 0.01260656 -0.023665106 -0.021068463 -0.006545527 0.03106494 -0.0046426817 -0.031286664 -0.028795023 0.006038449 0.020950655 0.010044707 0.00351443 0.029035984 -0.025589893 0.017518576 -0.003875462 0.001082277 -0.01887787 0.013823309 -0.029065717 0.021758847 0.007491603 -0.0047136634 -0.010937768 0.012515221 0.018125454 0.00152356 -0.037035506 0.015099288 0.0049841064 -0.021976335 0.008737031 0.013739263 -0.0026265392 -0.014989235 -0.047689784 -0.003985813 0.001593523 0.03078268 0.013921916 0.021411778 -0.00027560262 0.020322628 0.0027575034 -0.0008361607 0.011698126 0.010540737 0.0024638325 0.041150276 -0.012817408 0.021403305 0.017001495 0.015959566 0.010543316 0.001969487 -0.015666792 0.015398289 0.008122232 -0.025599368 -0.014571323 0.030113565 -0.017578155 0.0129802795 0.008357755 -0.015816739 0.01608023 -0.004427384 -0.0078046545 -0.00055786583 -0.021726552 -0.05185774 0.005744342 -0.0032284474 -0.0065912837 -0.019877052 0.004724606 0.0086973375 0.015867125 0.0062144576 0.005046763 -0.0028212362 -0.014419006 -0.022224914 0.0055693733
week 0.0052861357 0.009864301 -0.016727384 0.014464501 0.018943574 0.027265074 0.019898957 -0.010369415 -0.00083514256 0.060206007 -0.012777215 -0.041473266 0.029077584 -0.0030109244 0.010027635 0.006824301 -0.023401536 0.045895237 0.04365114 -0.0076552494 -0.010345147 0.017814118 -0.011443892 0.0013610302 0.0026961616 -0.034915928 -0.004181415 0.05202983 0.01597191 0.01106308 0.017434455 0.03346231 -0.00445497 -0.005893621 -0.030351589 0.027289508 0.011118226 0.021017672 0.006964262 -0.0048088324 -0.01673232 0.03027141 -0.03136581 -0.0017262233 0.04638996 0.02333033 0.008992388 0.004944849 -0.015628763 0.0076894737 -0.0027266527 0.014927626 0.017700918 -0.07233745 0.01770692 0.0115040885 0.021607846 -0.0040561794 -0.008750009 -0.003027376 -0.029013073 -0.01024127 0.021195933 -0.01213682 -0.011432722 0.027562425 -0.026844466 0.014119398 -0.008017586 -0.013711225 0.0057237823 -0.0056316387 0.015173916 -0.012672974 0.024417188 0.016622104 0.023633605 -0.005302421 0.00021879976 0.010419141 0.0108675035 -0.0038193292 -0.0069481265 0.012699905 0.0056630946 -0.0028006793 0.01143226 -0.0007946367 -0.038535114 0.013656633 0.020772347 0.024885992 0.03396025 -0.010116407 0.005301227 -0.009642135 -0.02396026 -0.066669285 0.026441528 0.01633931
guide 0.0064565158 -0.0037355898 -0.010189352 0.01823229 0.006801873 0.0004948935 0.011772351 -0.0019871558 0.015288146 -0.03105668 -0.003339796 0.03313019 0.008612831 -0.022598177 0.0099818045 0.008059272 0.01555701 -0.0194108 0.0031593232 0.017441958 -0.009149148 0.005389372 0.014384407 -0.030436594 0.032680605 -0.026480533 -0.013076506 -0.0062128394 -0.031939633 0.0074063023 -0.01708348 -0.027141862 0.040340457 0.0054400065 -0.003985468 -0.021135282 -0.030727468 -0.012287572 0.018215867 0.02805132 0.013997845 0.021650882 -0.017413486 0.004291397 0.02033391 0.0047268025 3.7948965e-05 0.0011470806 0.014279225 -0.00079696754 -0.013142717 0.006570015 0.015657542 0.04367823 0.0050021964 -0.039101887 -0.0055789365 0.010548576 -0.0075310715 0.012405821 -0.019898668 -0.048663948 -0.022704663 -0.015354839 -0.0073573096 -0.002878441 0.025349924 0.0070416206 -0.028513346 0.018052382 -0.00571039 -0.0075320895 0.009299371 -0.009738638 -0.0017719967 0.0075646727 0.0060566193 -0.008524582 -0.016561668 0.03980485 -0.015885092 0.035957742 0.008877845 0.015937647 -0.033486634 -0.034719355 -0.013345235 -0.0015023244 0.002228085 0.0011175509 -0.011213009 -0.030503968 -0.0015391423 0.015826417 -0.0048157983 0.011445613 0.0038464926 -0.010781376 0.0059941933 -0.00040797575
forget 0.006258069 0.002655061 0.017926062 0.0072514103 0.016548304 -0.017434135 -0.019707905 0.008600451 0.017201968 0.0025253815 -0.015606711 0.025248138 0.023895016 0.01184212 -0.01778693 -0.012607022 0.00058876304 -0.0057602865 -0.036519438 0.006925517 0.04208909 -0.010089339 -0.015962694 -0.013864521 -0.0033917835 -0.010026122 0.0046336045 0.02740024 -0.008718675 -0.012751372 -0.04152358 0.017244924 0.018535899 -0.0071765888 0.0024898122 0.013841179 0.0014003841 0.0033382121 0.000108885346 0.004856718 -0.0050633573 0.013346395 -0.011664351 0.016822213 0.008417663 -0.009253143 -0.005858082 -0.037872054 -0.00039426587 0.005831512 -0.0010998062 0.0043400293 -0.010608357 -0.024861924 -0.012335862 0.012057507 -0.004074309 0.00084033405 -0.009177663 0.036207683 0.010333341 0.0027616168 0.0042864312 0.0037984832 -0.016276155 0.013240574 0.015764654 -0.003704952 0.025292719 0.0031203115 -0.01553086 -0.014346728 0.010667709 0.0062100254 0.016321527 -0.0053328825 -0.029752422 -0.014861709 0.023764793 0.0236192 0.007959163 -0.007643256 0.036603235 -0.026736848 0.013854567 0.034483105 -0.007815352 -0.015202117 -0.029332021 -0.0023604194 0.034991685 -0.009626033 0.025117956 0.008335136 -0.02611008 -0.007769887 -0.029157693 0.005203215 -0.023104336 0.0005407612
attracting -0.025713926 -0.034981348 -0.028525101 0.031594906 0.0018115893 -0.033006676 0.01059373 -0.011358233 -0.007414531 -0.021093514 0.0028220706 0.0035078449 0.025981534 0.052059453 0.018645026 -0.026935123 0.025354808 0.008742278 -0.034143966 0.008042363 0.019197514 -0.0077905934 0.004214705 -0.0331017 -0.030975888 0.013758371 -0.011918092 -0.022152798 -0.010057322 -0.011734279 0.006697781 0.03362253 -0.011330234 -0.018530898 -0.02220458 0.01098553 0.014154942 -0.032726966 0.010902127 -0.021889543 -0.012635953 0.0106611345 -0.0064808824 0.0031766728 0.031554934 0.037643824 0.018750867 0.009334134 0.0027507283 -0.009198393 0.026809392 -0.02275205 -0.0007232423 0.010466222 0.019137396 0.018126696 -0.059712525 0.02348868 -0.021088896 0.049585905 -0.040829465 0.042340368 -0.0057930285 -0.0042185476 0.03224933 0.018721601 -0.030927941 -0.01913013 0.011437298 -0.0071632513 -0.041604478 0.01860595 -0.015452354 -0.007318033 -0.027156733 -0.051751025 0.013060891 -0.017972361 0.015298118 -0.0130198235 -0.00046549668 -0.004319255 0.019708239 0.026347848 -0.015018715 -0.048031572 -0.033090934 0.018145036 0.043028735 0.035954818 -0.004522894 -0.003315604 0.0068617873 0.024362076 0.014507019 -0.0024430242 0.026229773 0.022677902 0.002687422 0.004278183
looked -0.009854279 -0.01329076 0.030736491 0.00027106982 0.012469982 -0.04299538 0.014518512 -0.03851165 -0.015581194 -0.019400889 0.01855575 0.03343806 0.030349305 0.030949235 -0.013932096 0.002599976 -0.05560995 -0.027285751 0.014028651 -0.015035622 -0.00016670115 -0.031977363 0.003295069 -0.053824846 0.011015812 0.02587205 -0.007246998 -0.006588949 0.025761595 -0.020401897 -0.019633222 -0.017488588 -0.034406852 -0.019537203 0.022761654 -0.02899059 0.005289197 -0.009637725 -0.0013861541 -0.0029764245 0.026270343 -0.028658561 0.000616363 -0.017786002 0.014417287 0.025031365 0.008413265 0.033843722 0.010760217 -0.015745394 0.0017366947 -0.021970294 0.010223686 -0.0045619197 -0.011968359 -0.0064800056 0.00061321515 0.009746499 0.045894943 -0.044592485 -0.03042793 0.019820053 0.0437909 0.02717143 -0.028240824 -0.00016706437 -0.019160548 -0.017089888 0.035347395 0.042595852 -0.014180138 -0.024087459 -0.008062985 -0.05205032 0.0028079182 -0.038760934 0.0132591715 -0.007128765 0.0010808475 -0.0461587 -0.036146935 -0.021249881 -0.019906446 0.017499212 -0.03458649 -0.010436759 0.002567834 0.01023581 0.042932305 -0.03150387 -0.023214247 0.027163317 -0.0020015175 0.0025396387 -0.033770666 0.03830089 0.012594764 0.040011887 0.022490053 0.0116182305
brings 0.004382947 0.0034768498 0.020391494 0.010194253 0.008156488 -0.0017254299 -0.031954102 0.031544637 -0.006797253 -0.018075839 0.021486564 0.0007047501 0.0100183645 0.0065074065 -0.0170369 0.023207352 0.0020567428 0.0014586288 -0.006293668 -0.0086022625 -0.0111136865 0.0023730688 -0.0011511582 -0.02687313 0.008847169 0.031229226 0.014847595 -0.023448428 -7.497615e-05 0.0105995685 -0.018198585 0.0093276985 0.0124035785 -0.009778115 -0.033295516 0.022308752 -0.012992013 -0.0028838108 -0.024259511 -0.039870095 0.0020874473 0.03744901 -0.000998872 0.004731583 -0.017360976 0.019907704 -0.011305305 0.00822205 0.020380279 0.0026069963 0.02807347 -0.0417831 0.024836393 0.044091687 0.01403659 -0.024740828 -0.0050494443 0.003642146 -0.00067930896 -0.0019794134 -0.009817126 0.0039419825 0.025613647 -0.018728735 0.038531825 -0.014286001 -0.008442708 -0.01282402 0.027452327 -0.014157588 -0.010371058 -0.02298759 0.003847497 0.01765382 -0.0014083246 0.005009332 -0.029513752 -0.02349069 -0.03283568 -0.011672773 -0.036880247 -0.03414348 -0.0002012907 0.014609848 -0.005421987 -0.0035191271 -0.012653993 -0.0024735217 0.021055501 -0.006018956 -0.020431839 -0.0015656018 -0.012759817 0.016884176 0.010231689 0.015899166 -0.0055365656 0.04274209 -0.0144047225 -0.0029062894
ideas 0.023359202 0.01024151 0.019521315 -0.016685408 0.016226891 0.013585574 -0.013224317 0.025338901 0.0034763587 -0.002249286 -0.006167547 -0.0568305 0.017311227 -0.00096449506 -0.034414906 0.016326072 0.021817217 0.010314367 0.02295661 -0.0103620365 0.017651264 0.026029656 0.020084374 0.027607761 -0.0075418437 -0.037136585 -0.005044388 0.00090852 0.016009917 0.026209146 -0.017234856 -0.016150534 0.016240608 -0.0085109975 -0.018471109 -0.0016407594 -0.013709921 0.0036097362 -0.001016772 0.008040992 -0.017944766 -0.031739984 -0.01597124 0.011626807 -0.010027314 0.02094403 0.004598226 0.015017647 -0.029246159 0.0030375174 0.017768728 -0.010566332 -0.008614231 -0.023195116 -0.036722463 -0.010364613 -0.0068430663 -0.040115062 -0.022073537 0.033347137 -0.0146837495 -0.0073338216 -0.004597021 0.0016366164 -0.025640013 0.0039061557 0.01869994 -0.03289428 -0.020173525 -0.0024620097 0.013185587 0.0047065145 -0.05510644 -0.010304442 0.019440832 0.0038795455 -0.0006451371 -0.029404804 0.009113243 -0.04061966 0.0009326729 0.010738474 0.01983023 -0.018067434 0.032213315 -0.018655311 0.025039969 0.025126904 -0.008528499 0.023874316 0.008869786 0.011869811 -0.0010530788 -0.0009093771 -0.029675756 -0.024145355 0.00065848476 0.010159789 0.025067605 0.049939107
thank -0.002770878 -0.028354824 -0.011301436 0.016715193 -0.008307716 0.027341254 0.021602161 -0.028079985 -0.017822538 0.020455763 0.00389639 0.004183603 0.008088924 0.0031820869 -0.0055510406 -0.005327276 -0.015710976 -0.01596056 -0.03619972 0.019382633 -0.009320766 0.026155652 -0.015755922 -0.0030981232 -0.0067017945 -0.014505177 0.023951638 0.005645596 -0.031568814 -0.0069671613 -0.005449395 0.00041551737 -0.005637586 -0.0031886592 0.0032639243 0.007871868 -0.016054342 0.008410657 0.031132156 0.061607674 -0.026491905 0.011494766 0.019566614 -0.039480194 0.031036608 -0.0053127194 -0.021805083 -0.03560686 -0.013761625 -0.024929013 -0.016407393 0.017200798 -0.009802973 -0.035774015 -0.01683586 -0.02354267 -0.021263652 0.03134013 -0.022800546 0.010264565 -0.0144725805 0.0016079592 -0.0019629744 -0.008849399 -0.013985237 -0.009543591 0.022846933 -0.010016016 0.021505574 -0.013451534 0.011385119 0.0019123541 0.015233083 -0.009432717 -0.032729916 0.03789895 0.022798218 0.007421252 0.023462031 0.014588579 0.005050784 -0.0051935827 0.010503009 -0.008532147 0.02185207 0.03529276 0.006348883 -0.003081157 -0.0053674625 -0.015006188 0.013879046 0.002533119 -0.0040306747 0.02799482 -0.006677675 0.016962793 -0.050227206 -0.01920809 0.023455286 0.019817568
able 0.0028899768 -0.02923256 -0.008565135 0.0034037447 -0.01383278 0.0011185487 0.004153072 -0.023292704 -0.031126365 0.024184098 0.009041166 -0.011982371 0.003595028 0.0073089567 -0.007839676 0.014384819 -0.047522966 -0.01648495 -0.01761339 -0.006505947 0.016264085 0.0052966187 -0.024962632 0.033120137 0.009023762 -0.007464065 0.018603273 0.0005468065 -0.017390195 -0.0037098613 -0.01426483 0.0060021533 -0.008459035 -0.027264394 -0.014878196 -0.024830285 0.007810128 -0.004266096 0.037990924 0.013451141 0.014952148 -0.01197563 -0.011874232 -0.007860496 0.0036770466 -0.018862026 0.005948937 -0.013271563 -0.012191481 -0.012536231 -0.032358296 0.009840523 -0.006907871 0.027464923 0.015136773 -0.0014001474 0.004234031 -0.015247013 -0.028561454 -0.016635304 0.0011389817 0.030315954 0.012468778 -0.0068522636 0.029930325 0.02526165 0.008700324 0.0032016616 0.049383402 0.0052736467 0.008715086 0.012528772 0.010558141 0.01908883 -0.015126936 0.017593887 0.022514189 0.014767428 0.0023928194 0.027242318 0.022844082 0.008571298 0.00844057 0.04194149 0.0089044925 0.0025557044 0.012484778 0.017950308 -0.019283807 0.017762896 0.022540228 0.009417022 0.026640698 -0.03253062 0.010953387 0.0016135513 0.015077858 -0.0045957607 -0.012514617 -0.019666456
impact 0.03398216 -0.020989679 0.04385928 -0.04968289 -0.008773887 -0.064682886 -0.09349011 -0.028232638 -0.030422658 -0.003750279 0.019513588 -0.08976661 0.0073762015 0.041747738 -0.008207691 0.0026258174 0.0600825 0.01289736 -0.018398197 -0.041337136 0.045293592 0.022194086 0.043075226 0.04441007 -0.040292162 0.1094425 0.010240142 -0.01167316 -0.04429034 -0.0036082442 0.010687194 0.004930865 -0.013653217 -0.01794586 -0.0055517456 0.0054080444 -0.045438755 0.046537854 -0.052265115 0.068404384 0.016066458 -0.019590693 0.03351944 0.062146526 0.02054213 -0.036366105 -0.0783929 0.018481066 -0.015168226 0.03927355 -0.027750095 -0.023356425 -0.013155552 0.00057272287 -0.049128998 -0.0015032062 0.017849682 -0.06688154 0.061284788 -0.082197115 -0.016208183 -0.04240281 0.0010845981 -0.037974045 -0.0027120593 0.027766727 -0.020513074 0.030863315 -0.019549612 -0.024939952 0.0034866827 0.013751745 -0.028356185 -0.084587626 -0.044003133 0.06977597 0.0026850668 -0.07355426 0.02966457 0.042736117 -0.01969217 -0.019154338 0.044529926 0.026009468 -0.060437873 -0.030355755 0.035307273 0.028915308 0.093708254 0.02238567 -0.040381435 0.02345504 -0.020511892 -0.01915517 -0.042483307 -0.015048443 -0.07569615 0.033594303 0.039312277 -0.05440431
elementary 0.009206172 -0.012406702 0.010948769 -0.003430006 0.012781821 0.0089062685 0.0015270683 0.010574752 0.013094612 0.0046972665 -0.021114752 -0.010045545 0.0015361629 -0.038124286 0.009477225 -0.03015235 -0.0058613946 -0.027660916 -0.0014948426 -0.013411244 -0.01190887 -0.004264351 -0.009411191 0.024090592 -0.004237775 0.029940553 -0.015883602 -0.02941153 -0.0063806325 -0.02246521 -0.007212799 0.0034579383 0.01398175 0.003915414 -0.011224472 0.015823456 0.011708969 0.012297132 -0.027355814 0.0063999505 0.009574564 0.018106133 0.01141769 0.026051363 0.010553521 0.031680018 0.016093947 0.016831161 -0.01735648 0.0017703251 -0.012884265 -0.018191146 0.015088241 0.0016890139 0.038717132 -0.00085253833 -0.010950586 0.0074425507 0.005697939 -0.00800127 0.0048942138 -0.0072537507 0.007860504 0.0027625682 0.019540057 0.012380981 -0.013844698 -0.037745517 0.00087385543 -0.008157497 0.030479176 0.013014533 0.00039150775 -0.029574016 0.0062763277 0.008646511 -0.01983539 0.006448163 -0.020058008 0.024553163 0.0031101487 -0.0071566147 -0.0063090594 -0.024085099 0.006649582 0.029309265 -0.000269711 0.0076480513 0.0034828053 -0.013182322 -0.0010035064 0.010202116 0.019582177 0.02665608 -0.013656499 0.011377274 0.017713308 0.022930017 -0.008922943 -0.005859402
afraid -0.02148234 0.018233335 -0.0073641576 -0.014167864 -0.00883506 0.014725702 0.020793669 -0.00031197089 -0.024230393 -0.0033360086 0.0008040591 -0.008712469 -0.018059438 0.009288825 -0.012265713 -0.0014153506 0.032822084 -0.0077570956 0.027402911 0.05862581 -0.034561902 0.012514615 -0.027100302 -1.0043732e-05 0.004836804 -0.04085713 0.0024852047 0.022752339 -0.0077256793 0.0040800767 -0.012367055 -0.024766741 0.016831351 0.04236266 -0.018479194 0.0010701054 0.008433791 0.017397884 0.019996881 -0.0022532078 0.03020633 -0.009960135 -0.012290934 0.0010986717 0.0012399985 -0.006926845 0.031113276 0.0063390587 -0.00902464 0.017187705 -0.020857995 0.03387058 -0.006461973 -0.015625056 -0.019765953 0.011119243 0.0037057505 0.010658864 -0.0009176266 -0.014105865 0.0048997384 -0.012665267 -0.04970302 0.022648249 -0.018718883 -0.0064087342 0.039613333 0.014821934 -0.01826147 0.017542863 0.005140278 0.020050183 -0.0063390858 -0.009769336 0.0021443348 0.026586847 0.004679881 -0.014870501 -0.03370482 -0.0031849444 0.006685227 0.035947777 -0.011675509 -0.012123268 0.046886753 0.011189144 0.025047412 -0.010219545 -0.0339701 -0.01370918 -0.0015637558 -0.0047169337 -0.01772652 0.017920049 0.03649198 -0.03452059 -0.01056773 -0.022021942 0.013826879 0.01240964
vigorously 0.010674651 0.018944863 0.0066121593 -0.058255877 0.00064638164 -0.03611486 0.021334697 0.016345525 -0.011051383 -0.03353161 -0.018953707 -0.0012613044 -0.03675013 -0.017791573 -0.021681203 0.010830849 0.020561831 -0.0053363414 0.03118117 0.0042462195 -0.029233988 -0.0036888751 0.013752614 0.007792959 -0.045294434 -0.033000764 -0.007139593 0.041195266 -0.013381193 -0.008583463 0.037136305 -0.0022584838 0.011356679 0.029102255 0.028164843 -0.0055085924 -0.00084379036 -0.03206835 0.004349469 0.024208436 0.00021895522 -0.025677517 -0.01913353 -0.013063759 0.01185515 -0.003192571 -0.013522135 0.019322313 0.023373248 0.015399205 -0.018606056 0.017681746 0.022955414 -0.010207544 0.004982704 0.029069759 0.0395935 0.0070467 0.009881645 0.025716648 -0.006962465 -0.011705258 -0.012395858 -0.057204384 -0.015329464 0.03771327 0.009830748 0.03497739 -0.015422445 0.026868321 0.01650418 0.026026128 -0.041129623 -0.029269978 0.037075154 -0.012768744 -0.0060735308 -0.0010377534 -0.011242286 0.028590629 0.010481632 0.0269144 -0.030942187 -0.0041718017 0.019790407 0.0040923906 -0.0032524774 -0.0043523316 -0.03225171 0.014311982 0.013152539 0.032530867 -0.009047351 -0.00991517 0.0041630547 0.012892907 -0.048241932 -0.02761835 0.033358768 0.012471309
done 0.014923727 0.01030793 -0.0055872966 -0.022138346 -0.00021181453 0.011134738 -0.0047867517 -0.0010402191 0.01611442 0.0023825993 0.026419405 -0.0006761034 -0.013749192 0.017305523 -0.0031963913 -0.0095914975 -0.008898166 0.001761335 -0.019586548 0.00017244974 0.00045912398 0.016767075 0.012440503 0.035937563 -0.0024176547 -0.043520704 -0.010010316 0.00858719 -0.024632286 -0.013849394 0.0013457923 -0.011784344 -0.003427919 -0.00010114175 0.00049665134 0.022872243 -0.007077511 0.008587732 0.028897174 0.012668533 0.013758662 -0.011404893 0.0081743635 0.0011433781 -0.00042240345 0.01153341 0.008332551 -0.023512784 0.015056749 0.012419354 -0.035828568 -0.0028749292 0.01490537 -0.0024459886 -0.015956458 -0.0094908485 -0.017818531 0.028089741 0.011640398 0.008163764 0.0037969796 -0.017274175 0.011551849 0.00685247 -0.025569128 -0.0077646445 -0.010719238 0.0068583945 0.0006381541 0.004081915 -0.0021524797 -0.015617557 0.009716421 0.00862681 0.023453915 0.00015144527 -0.0020234534 0.013027502 0.009810802 -0.0027833981 -0.010330357 -0.0039320835 -0.008829511 -0.012450141 0.022893282 0.0075428644 0.0076673757 0.014467434 -0.02200951 -0.019427408 0.014116915 0.011385795 -0.012716699 -0.021249423 -0.009813782 -0.025003973 0.014992818 -0.0024803043 0.015525557 0.004872189
cents 0.007162893 -0.013375489 -0.004068629 0.02526129 -0.007764569 0.010749681 0.004780297 0.00687571 -0.013653183 0.03545926 0.0017400649 0.01855528 -0.0009141454 -0.04633776 -0.034668252 -0.027199125 0.029698538 0.0042692944 0.0344373 0.011956378 0.02393817 -0.04743246 -0.0103799105 0.058411375 0.047380026 -0.13417481 0.00018553203 0.02435479 0.056930475 -0.05313926 0.015645841 -0.03803887 0.019292813 0.038400102 0.039143585 -0.0005013364 -0.055692777 0.021132441 -0.016283259 0.0053016962 0.047986053 -0.002754981 -0.034975223 -0.036370106 0.018816136 0.044912226 0.021716468 0.030343667 -0.07513276 -0.06981461 0.019006561 0.030825725 -0.019019194 -0.06739558 -0.001394487 -0.0040653106 0.018893844 0.024757229 -0.049842775 -0.010503362 0.029399667 0.027343012 -0.020375198 -0.0059377123 0.034760766 0.03395142 0.01507041 -0.014262065 -0.024685964 0.061129864 0.018971428 0.013231978 0.028394908 0.012570323 0.04478144 0.03121341 -0.009610527 0.05978595 0.007893408 0.016809067 0.07265797 0.03734146 0.03127416 -0.021853894 0.068408534 0.036389954 -0.004309061 0.015921598 -0.055664744 0.022296116 0.008751405 0.0010604644 0.017079858 0.009762154 -0.05989964 0.024588617 -0.0026095526 -0.057660278 -0.024838792 0.057531774
immigration -0.036497634 -0.013635532 0.008215631 0.002588953 0.0033703265 0.028289946 -0.0032517961 -0.018120142 -0.0036387458 -0.0015731064 -0.011560246 -0.023117602 0.012268517 -0.019204622 -0.032855604 0.0057620322 0.0010598606 0.03363716 -0.005262515 -0.005387839 0.022369975 -0.008073986 7.856128e-05 -0.022389045 -0.0010703038 -0.002391318 -0.023995027 0.010056184 0.009995952 -0.00031394672 -0.009020547 0.01756209 -0.025865475 -0.021081815 0.0068731937 0.0050008744 0.0026405812 -0.004262943 -0.010189834 0.014087748 0.014463111 -0.011264044 -0.008086293 0.012492901 0.014335156 -0.0054028337 7.451826e-05 -0.02351003 0.025198491 -0.0033164658 -0.014194887 0.033943776 0.0061779832 0.017495638 -0.02815738 0.013555004 -2.0512263e-05 -0.011917109 -0.011997065 0.013643744 -0.00089614245 -0.024992814 0.0131063815 -0.005712519 -0.0019406602 -0.0025783128 -0.013069815 0.01613288 0.017568935 0.012533494 -0.021190064 0.028271943 0.00011565647 0.020228807 -0.0010025247 -0.015918985 0.025677506 -0.010146031 -0.0064037577 0.0036330475 -0.00027148053 0.0021628654 0.009006882 -0.017842501 0.0064684716 0.017557265 -0.008963633 -0.005695938 -0.037265617 -0.027819406 0.003343083 0.010571555 -0.011771195 -0.013015586 0.0065454943 0.0064579947 0.03791696 0.021458963 0.007438894 -0.03530092
representations 0.04265365 0.03647988 -0.0025075134 -0.009370832 0.0020864857 0.029285545 -0.017674292 -0.02713062 -0.02150904 0.029861752 0.060845487 0.050672136 -0.01698893 -0.00053708506 0.023958758 0.007029601 -0.0054820804 -0.022133999 0.042678904 0.0064870026 -0.017844247 0.08286482 -0.017910905 0.019256543 0.019471139 -0.022051977 0.023510652 -0.01290861 -0.031176982 0.014505667 -0.035273027 -0.02447494 0.05685875 0.01144755 -0.0064239223 -0.03250183 -0.037781097 -0.019562632 0.022559717 0.0026898533 0.010996326 -0.036318336 0.012266357 -0.023005454 -0.042444672 0.0066985507 0.049192928 -0.029655939 -0.0032184864 0.001358052 -0.012180169 0.0036666016 0.027434457 0.026104588 0.017917804 0.003405818 0.019810673 -0.0074539823 0.036645323 -0.019298544 0.02299805 0.015911087 -0.051680148 0.022365728 0.04206624 -0.015077063 0.022682123 -0.00873875 0.008182798 0.021135546 0.014476197 -0.049473874 -0.055129968 0.043185934 -0.018836735 0.0020036642 -0.038572133 -0.03037417 -0.02959199 -0.00904288 -0.0016300633 0.025203256 -0.021039486 0.0150934905 -0.026811227 -0.0022119978 0.013335547 0.023059733 -0.023109099 0.025654858 -0.022199888 0.012514701 -0.022040602 -0.019763691 0.0032140273 0.042134184 -0.003274329 -0.0009993714 0.0035665194 -0.0149721755
seconded -0.016574053 -0.017107835 -0.0093192775 0.002754024 -0.0065297536 -0.011797942 0.001928993 -0.0027646937 0.03886946 0.009048166 0.0031064267 0.005537011 0.019304864 -0.018584494 0.01882285 -0.016134595 -0.035595126 0.015988873 0.0033633164 -0.011487562 0.019943723 0.011386079 -0.0010295328 -0.0059332615 -0.017507834 0.028495377 0.008028407 -0.017949674 -0.011631576 -0.0008235462 -0.00953681 -0.02475801 -0.01026629 0.02587622 -0.010881182 -0.008348685 0.02702909 0.023129256 -0.024945207 0.01551317 -0.008129329 0.031250905 0.03605372 0.0041809296 -0.012272539 -0.00966035 -0.008900143 0.0018392989 0.010590629 0.0015405903 0.000759071 -0.01103312 -0.00022247527 -0.0005344723 0.0028237174 7.3369476e-05 0.0027812752 0.0064419466 -0.010680335 -0.003300972 0.010452967 0.008535256 -0.0010708119 0.013656026 -0.0113631 -0.010393615 -0.03576134 0.002091973 0.0029598037 -0.028207079 0.005368731 0.00016290319 0.024326483 -0.04799986 -0.03069529 0.009507809 0.036235284 0.005213434 -0.021051167 -0.032530047 -0.015803648 -0.013638819 0.015621724 0.02204445 -0.014929207 0.0011630821 0.009719068 0.017224384 -0.019320862 0.0092579825 0.022571083 -0.0018929589 0.011778158 -0.00043386355 0.045812886 -0.022514632 -0.024705969 0.016796762 -0.011403982 0.008697316
provincial -0.018341253 0.0003367397 -0.01028319 0.015465056 -0.014478808 0.009752857 -0.01678391 -0.032768585 0.0013440342 -0.0028927657 0.0017455537 -0.02070147 -0.030625705 0.0072866455 -0.0045674564 0.0125185475 0.009366322 0.01736662 -0.008602875 -0.023333097 0.010763084 -0.015488201 0.005406911 -0.005155414 -0.012260863 0.005217183 0.014320363 -0.0052453317 0.008147613 0.020782348 -0.0114101805 0.025092456 0.0007551069 0.026685148 0.013780023 0.01631382 0.014396919 0.01890098 -0.011875045 0.010915574 -0.015837984 0.008292689 0.003928465 0.011201139 0.0054731355 0.03628571 0.0089121815 0.008297199 -0.037441153 0.02460636 -0.012721652 -0.015986605 0.0076579526 0.0033802642 0.025266804 -0.030428747 -0.03386161 0.0007590954 0.009575822 -0.003764519 -0.032401633 0.024047721 0.049521055 -0.00068718614 -0.009204631 -0.0061955876 -0.011374372 0.018355688 -0.0046521453 0.016372735 -0.015930813 -0.03631085 -0.011976361 -0.006190056 0.0022033094 -0.019529946 0.017444223 -0.010907346 0.0136387525 0.019224647 -0.023208013 0.018924484 0.024197413 0.025472814 0.009501462 0.022963265 0.0022166742 -0.011878004 0.026516693 0.0027936664 -0.012509963 -0.020394113 0.012607677 0.0012192416 0.013049192 0.0060514696 -0.009473418 -0.04250255 -0.0070407903 -0.01834997
interfering 0.012897841 0.004144167 0.0032552606 0.04215021 -0.0017882292 0.024278738 -0.013538229 0.021832662 -0.012391977 -0.012613564 0.03677433 0.0049550626 -0.0321485 0.018786078 0.031696714 0.025731348 0.022000069 0.013090497 0.0066415467 0.022886375 -0.0044717016 0.022718633 0.030934054 0.023747565 0.0030213483 -0.0021378943 0.016135596 -0.0016809071 0.019389186 0.011276927 -0.022291515 0.0036353334 0.039909564 -0.0062985127 0.014597022 -0.00094917516 -0.023295695 0.021155987 -0.0005413125 0.008227107 0.013081142 0.01386299 0.030761423 -0.008102935 0.0017663718 0.021480339 0.020297302 -0.0028886711 0.024791766 -0.0008881087 -0.028997233 0.029278122 -0.04776939 0.008374781 0.026217438 -0.0009606062 0.0026308594 0.0077329557 -0.0109667 -0.029929519 0.0072240494 -0.02074512 -0.04744738 -0.008929462 0.029512228 0.014604608 -0.005479861 -0.013235822 -0.0052773417 0.03148341 -0.007877442 -0.014726308 -0.0015386527 0.011994985 0.0056488737 -0.020678392 -0.016145747 0.005539904 -0.008570542 0.0137692895 0.010790076 -0.02000217 -0.015781889 0.019108023 -0.0065775467 -0.019951243 -0.004957401 0.025189383 -0.009887636 0.0022324626 0.0066662575 0.0039302623 -0.020570215 -0.023525886 -0.0034283423 -0.00031005993 0.014457019 0.021746166 -0.0012810817 -0.008132417
Artistes -0.013783279 -0.0038259588 0.015360219 -0.0015582332 -0.022119286 -0.018752329 -0.046072733 -0.0330072 0.031012539 -0.046815738 0.030752294 0.015453304 -0.011520584 -0.003380367 -0.005973629 0.012090914 -0.008242938 -0.0011309009 -0.03356295 -0.0037067123 -0.01807056 -0.014219759 -0.016637934 0.0040783477 -0.0028528357 0.041392203 0.008443715 -0.0394803 0.018320719 0.016891839 -0.03497022 -0.00884958 0.007825055 -0.0022858642 0.01028418 0.046038166 0.0031283256 0.009618481 -0.011961532 -0.042531323 0.0022509634 0.0088552525 0.052431844 -0.013236284 0.012036561 0.0035776985 -0.005470233 -0.0014998817 0.0007143221 0.033144787 0.019284125 -0.04598963 0.011176184 0.002122462 -0.010801628 0.03070468 0.014014201 0.0074563986 0.023019508 -0.014934585 0.0029473747 -0.0058734743 0.04735677 0.019074483 0.0139836455 0.007451459 -0.04187151 -0.009487369 -0.033783156 0.0048483787 -0.01758139 -0.017499838 0.02142737 -0.0047296844 0.0102668675 -0.0149004385 0.0018945679 -0.028022613 -0.01234826 -0.028458565 -0.017688297 -0.0275449 -0.011058007 0.014699611 0.025406515 -0.005128251 -0.02305188 -0.006337615 0.003162903 0.013332221 -0.012502164 -0.0035484568 -0.008484169 -0.006179344 0.010331392 -0.009922258 -0.025223538 0.03640061 -0.012386473 -0.019740093
Program 0.0073030978 0.024542818 0.008364737 -0.0007198792 -0.017182555 -0.04343925 0.041206088 0.005626221 -0.0037638852 0.015503009 0.0020549134 -0.008362284 0.034124527 0.031116076 0.0073285354 0.018144531 -0.016239082 -0.006866633 0.015255322 0.011377948 -0.007159981 -0.012088064 -0.0039328146 0.0020843707 0.0058096224 -1.6303384e-05 -0.012542856 -0.007485083 -0.018745637 0.021841189 0.0011047646 -0.007350856 0.023491913 0.0018981197 0.01452798 0.025669046 0.0013598284 -0.016314471 0.015704101 0.017256903 0.021713104 0.0010993055 -0.030985614 0.016096557 0.027683932 0.010864772 0.027933672 0.015056958 -0.013908323 0.0020610127 -0.0003115707 0.018948229 0.009606278 -0.008442935 -0.0032378463 0.028907813 0.028127352 -0.013448878 -0.022670582 0.0064467685 0.009616973 -0.023020277 -0.006186529 -0.017238528 -0.015173782 -0.017292185 -0.0052544596 0.02600163 -0.0023460707 -0.0077748923 -0.009752729 -0.026173268 0.0016320889 -0.009535872 -0.005868512 -0.0074215466 0.019521823 -0.022830147 -0.008581281 -0.010869869 0.013690179 0.0059192963 -0.030187525 -0.017490393 0.0074531543 -0.00046008837 0.014429273 0.003978759 -0.0010823668 -0.00784441 0.0027142311 -0.03308394 -0.014064476 0.020753577 -0.006666607 -0.013660614 0.04307629 -0.033002745 0.0076511437 -0.01974479
Canadian -0.015468557 -0.0079841465 -0.029421154 0.008205472 0.008984552 0.01328188 -0.0063539455 -0.0007123742 0.01939731 -0.027020032 -0.014792026 -0.014877743 0.0039014376 -0.025101107 -0.0037125172 -0.006264513 -0.0031606522 0.008177447 0.011412753 -0.025437634 0.0145866 0.0024524205 0.006687021 0.019426804 -0.0041565844 0.0075484365 0.0019283493 -0.0013157944 -0.012897672 -0.00081367255 -0.0076817935 0.013221493 -0.020686671 0.005386764 -0.011728461 0.010888672 -0.0034539632 -0.008791083 0.009485943 -0.024110079 -0.009168731 -0.0023775813 0.013249014 0.001949097 0.0069860364 0.016914751 0.020040123 -0.0032535703 -0.013374541 -0.019422298 0.010815032 -0.038396057 0.009473989 -0.010074642 0.012808684 0.0015488423 -0.01154276 0.0017441877 0.0032724526 0.016678555 0.027036801 0.030758087 -0.013489835 -0.0004901374 0.008497354 -0.0055842926 -0.01068076 -0.028819362 -7.999578e-05 0.00450302 -0.010576678 0.0074939374 -0.008935141 -0.032850914 0.044106595 0.008788192 -0.013490817 -0.013336311 -0.0048208144 0.0043589254 -0.029402655 -0.019488 0.017440926 0.011208284 0.023526186 -0.016097933 -0.0069741555 0.0042691436 -0.0048275134 0.0030421037 -0.014605753 0.0012016237 -0.005315059 -0.0044444045 -0.011113698 -0.0018852042 -0.0026805147 0.022741374 -0.018614855 0.030699883
prepare -0.026908431 0.022717837 -0.016063305 0.050131712 -0.029574802 0.0018361707 -0.05284546 -0.02158151 -0.011780847 -0.05453557 -0.008624159 0.027491348 0.0023876135 -0.017553434 -0.021508336 -0.03153878 -0.032415103 0.016295524 -0.03536451 0.006026823 0.0044370545 0.017394906 -0.02285165 0.016361784 0.0033409437 0.012122714 0.005673116 -0.0605818 -0.0026284154 0.012392903 -0.004850804 0.026373837 -0.011559952 0.02831496 0.03398033 0.02034244 0.042669047 0.0024042735 -0.043985642 0.002189035 -0.0115529895 0.036098126 0.030014245 -0.0083871195 -0.0341698 -0.0018259735 -0.018218728 0.0389474 -0.0004699668 0.046283998 -0.018586129 -0.048469253 -0.001394476 -0.00481241 0.0037158923 -0.031896755 -0.007620924 -0.013419547 -0.011917394 0.003789872 0.024165573 -0.026859198 0.044864137 0.037218712 0.0558822 0.043913893 -0.013492018 -0.028786412 -0.036455214 0.006218818 -0.05166598 -0.014890758 0.0013427068 0.028941626 -0.014081334 0.0020173937 0.031492144 -0.02986918 0.011312537 -0.013805934 -0.010571141 -0.0123577155 0.0238158 -0.0163621 0.00024356565 -0.0076965876 0.02521615 0.005690899 -0.025744226 0.044331577 0.0059294626 -0.053329766 0.0035783658 0.06745113 -0.0070045246 -0.016066482 -0.01389614 0.021331543 -0.022079473 0.01665674
community -0.005804424 -0.012956332 -0.018285166 -0.004210853 0.0070017725 -0.03722713 -0.023773186 0.021290567 -0.0029726778 -0.018546024 0.0015750108 0.014903894 0.007180546 0.013450641 -0.02769936 -0.0035982565 0.011029376 -0.02549158 -0.009165699 0.010898951 0.003119829 -0.0073633846 -0.0052037495 0.0003012512 0.0057424777 0.010950689 -0.017216343 -0.0020548613 0.02200405 -0.014490072 0.0377571 0.009950707 0.022806767 0.0164686 -0.009661883 -0.0118746795 0.015701184 0.008069313 -0.025593448 -0.011960854 0.015998617 0.0010808045 -0.010970542 -0.01167938 0.0040541077 0.015621571 -0.0060921437 -0.022519188 -0.01929142 0.04974739 0.009170046 -0.017086212 -0.0029729675 -0.010752917 0.018513242 -0.01244936 -0.019649837 -0.00411785 0.003329133 -0.002811211 0.0019695146 -0.0025427407 0.0048428066 -0.0033125628 -0.016739164 0.009392356 0.0029184322 0.0018677579 -0.008366211 -0.014397121 0.012439518 0.014359079 0.030220581 -0.014455796 -0.010519967 0.01387788 0.00047222868 0.02342556 -0.020477574 -0.021450432 -0.008811566 -0.0065469393 -0.013773633 0.00556167 0.008708959 -0.0012270804 0.0021108189 -0.017084714 -0.0025581755 -0.010164595 -0.04045992 0.011387847 -0.007652344 -0.0017610432 0.005685533 0.0011754663 -0.01655032 0.01014844 -0.00038267043 -0.0023671407
refuses -0.0033794947 0.030450536 -0.032589227 -0.012687485 0.012253744 -0.03251316 -0.020048855 -0.00779647 -0.0036834753 -0.011164467 0.027454615 -0.023391545 0.0052280896 0.028669761 -0.009521401 0.008401433 0.0073539596 0.006424837 -0.001601698 0.007021359 0.0048050843 -0.013789604 -0.0016098069 0.008183176 -0.0060473885 -0.002135116 -0.013281107 -0.007091293 -0.016249174 0.027906865 -0.028543431 0.03096576 -0.0137130525 -0.04687479 -0.018080745 0.0022219406 0.030921366 0.015522426 0.014202324 -0.00083939556 -0.00022504083 -0.0031765522 0.009087177 -0.008539193 0.026105715 0.034028117 -0.010811222 0.008780082 -0.0090912 -0.036842737 0.018459661 0.007554564 0.0035866976 0.018163268 -0.014699648 -0.002773773 -0.009445097 0.0012560606 -0.012539584 0.0033170064 -0.0053837923 0.008935075 0.0061482363 0.027673855 0.0023605374 -0.006135984 -0.023222396 -0.007923025 -0.014631854 -0.0011453279 -0.0184104 0.015280463 0.023940766 -0.035665028 0.022515584 0.009899752 -0.003904996 -0.047042347 -0.009784211 -0.032444756 -0.008404477 -0.01229512 -0.02354608 0.004435894 0.0052194917 0.0032821668 0.0073043043 -0.021847373 -0.0117515735 0.0320831 -0.018585566 -0.010578196 0.00053894497 0.002435647 0.016181983 -0.01796526 0.037597816 0.011449633 0.0012111303 0.011399387
introduced -0.01210031 -0.011477475 -0.02763421 -0.0053986404 0.008945601 0.005952477 -0.033607386 -0.030280493 0.0074452995 0.0056901905 0.023485994 -0.028312758 0.004277384 0.050004967 -0.037074737 -0.018835776 0.023316791 -0.010101636 -0.0253258 -0.03797274 -0.0009812809 -0.029454235 0.006420172 -0.0078740455 -0.02885921 0.055140868 -0.018661786 -0.022890616 0.004456101 -0.008454424 -0.029373316 0.0218394 -0.03256474 -0.019293254 0.01031528 -0.029533904 0.025998132 0.024940845 0.007322178 0.026649127 0.002084294 0.019797832 0.019032346 0.010707769 0.050813 -0.017388102 0.020818882 0.015876053 -0.009101843 -0.015461332 -0.017898172 0.002143892 -0.003594179 0.03218931 0.013119206 0.00016069345 -0.0028443309 0.012520935 -0.0048920824 0.006775403 0.01715242 0.033494025 -0.009208513 0.01998439 0.0482326 0.021563284 0.006787492 -0.008502442 -0.030578583 0.012191727 -0.039395418 -0.0009201036 0.008963635 0.0077754334 -0.011644247 -0.033659074 0.020872476 -0.042346064 -0.025256122 -0.02848215 0.016372839 0.002574312 -0.00014299818 0.01767602 -0.028563587 -0.020075072 -0.020284025 -0.0001856137 0.040972922 0.020371385 -0.00019193452 -0.013726566 -0.0197144 0.000600094 -0.023465637 -0.0069224043 0.0018969314 -0.012447055 -0.020711048 -0.03533325
heritage 0.012749986 0.011486408 0.021178942 -0.024326004 -0.012242171 0.025764039 0.01193048 -0.030453656 0.003237325 0.030307302 0.020840721 0.0047645336 -0.025198542 -0.0115751745 -0.011478979 -0.014932837 0.029895134 -0.01731925 -0.0071424907 0.0024060183 -0.023906197 -0.008595689 0.010281916 0.012676972 -0.010436334 -0.017351493 0.008008486 0.03368574 0.016654916 -0.0052321306 -0.009306699 -0.022137236 0.042541854 -0.01425105 -0.021994865 -0.0151231615 0.029089259 0.008786026 0.04984261 0.02384513 -0.0025816355 -0.008474024 0.012145916 -0.002989118 0.035327435 0.006185778 0.0267738 0.0065419255 0.021604411 0.011777185 -0.03128982 0.0063334694 0.0075574755 -0.024024943 -0.00049904187 0.019057142 0.0046435175 0.03588853 0.020691665 0.022775495 -0.025683347 -0.025035176 -0.008224981 0.014270994 -0.0034913318 -0.014968566 -0.0047505707 0.00094862166 -0.0068771187 -0.016512018 -0.0027586 0.027645506 -0.02279008 0.002613678 -0.0074574216 0.03344769 -0.011754221 -0.012142451 0.0073676165 -0.023807475 0.027842827 -0.00076442916 0.032171167 -0.026317792 0.020911893 0.023727909 -9.851763e-06 -0.010197094 -0.05309501 0.012773454 0.016966984 0.024119457 -0.0022878093 -0.04882995 0.016482221 0.004239361 -0.0039584236 -0.024948616 0.0068282527 0.017058924
Credit 0.0014625099 -0.04112671 -0.003211636 -0.010090558 0.013402207 0.005850587 0.0023406253 0.01856947 0.00072700216 -0.0032854076 -0.01371721 0.00921336 0.0070728427 -0.018318415 0.00034218232 0.014006193 -0.021971812 0.027310265 0.005048941 -0.009727024 -0.0030771764 -0.0014127588 0.0016531348 -0.004382181 0.0015695035 -0.009262895 -0.018990155 0.020044774 -0.004593012 0.01430191 0.025738172 -0.010365907 0.0020879535 0.009165908 -0.007439289 0.0059831287 -0.0013857099 0.006845865 -0.014537817 -0.015210868 0.017358838 -0.021729648 -0.015733616 0.027330888 -0.032796483 -0.014502323 0.0057540513 -0.017654385 -0.0033251292 0.012309562 0.0049557723 0.012814936 0.0031444817 -0.018925725 0.018595422 -0.0043895952 -0.0012758272 0.021859646 0.021850768 0.010767407 -0.017304892 -0.0016551868 0.010440834 -0.010221904 -0.029315647 0.0004375431 -6.367413e-05 0.0007078556 0.02281304 -0.0015472255 0.011311545 0.0035481127 -0.022520239 0.029102223 -0.0041924496 -9.493134e-05 0.007059663 0.004614706 0.012841927 -0.015369751 -0.02895673 -0.0032794178 0.018993378 -0.009195547 0.0037897425 0.0034944764 0.022006223 -0.021231847 -0.015245889 0.0084943725 -0.02627601 -0.0102879 -0.010142636 0.006508876 0.018726757 0.011227319 0.0030287015 -0.00050819543 0.0083308555 -0.019734716
surely -0.028432459 -0.026272953 0.01131178 0.004370524 0.039520927 -0.003097494 0.016249947 0.0054987743 -0.02326742 0.0023657768 0.010077323 -0.002662586 -0.030620797 -8.0359605e-05 0.00830672 -0.021742312 0.0058357795 0.010903355 0.0015144423 0.029332617 0.007311576 -0.023788098 0.0016322989 0.012095029 -0.016097551 -0.0042710025 -0.013481789 -0.006311236 0.003373787 -0.0011704566 0.0015228172 5.6605088e-05 -0.024335297 -0.0010037946 -0.041153777 -0.01610109 0.0099761635 -0.024201952 -0.015639007 0.009586148 -0.014627347 0.014167719 0.009653728 -0.0047406214 -0.012792652 -0.00055742124 0.0005759392 -0.016533893 0.022417177 -0.027526952 -0.00749816 0.02675481 0.005359965 0.008717774 -0.016623605 0.015792564 -0.03453007 0.0012259618 -0.019149834 -0.015655978 -0.010631777 -0.008233428 0.012993936 0.0040857494 0.0023269895 0.010823013 0.009439623 -0.010425517 0.013087867 -0.0024580061 -0.019160144 0.031281095 0.0067200153 0.0007382358 0.00990878 -0.04490719 -0.02282401 -0.036250398 0.0020961533 -0.00077023124 0.016641555 -0.0028730053 0.0072094253 0.0059572803 -0.05070694 -0.0058437604 -0.00037795922 0.012344472 0.020397874 0.005432214 0.006524209 -0.0018301571 -0.04389692 -0.035198417 -0.0025005632 0.015692629 0.03163247 0.0220525 -0.025693946 0.030136302
strains 0.022257196 -0.02672491 -0.01856459 -0.011753763 0.035681542 0.0035786962 -0.06452581 -0.024747524 0.015172927 -0.004372461 0.023836419 -0.013620183 -0.0029470176 0.012693318 -0.003955569 -0.014201605 0.035615437 0.009397364 -0.014830877 0.017983293 0.035786293 0.0023828864 0.003684415 -0.016932376 -0.011777857 -0.0025361122 -0.000852668 -0.027903419 0.0015798432 -0.017079338 -0.0077411253 -0.014132529 -0.024504442 -0.012098915 -0.010230673 0.019436657 0.03504859 -0.0075276718 0.03490916 -0.0013548919 0.0130349295 0.008717438 -0.0019411745 0.014387883 0.027175732 -0.010946455 -0.016778633 0.015661854 0.018159434 0.022191372 -0.043504693 -0.010413738 0.03930941 0.01594758 0.00309148 0.027234154 0.004306045 -0.02287038 -0.010562039 0.01881092 0.0026489175 0.013976219 0.036711372 -0.0012590628 0.022931797 -0.014144685 0.033396263 0.021578182 -0.00044111098 0.059466362 0.00096220616 -0.00072334945 -0.024202703 -0.019564716 -0.020601433 -0.0179796 -0.015309712 -0.011780854 -0.0121904425 -0.046774793 -0.013360075 0.025712885 0.013227692 -0.008724594 -0.013705679 0.01298916 0.019657293 -0.0050111795 0.00777292 0.025640382 -0.01063132 0.021708874 -0.012839749 -0.0058307303 0.0024156044 -0.0032439164 -0.009842451 -0.0013084582 0.02546607 0.0060083494
subcommittee -0.018466033 -0.015262657 -0.023796428 0.0045053936 0.004623222 0.015191407 -0.016944358 0.010990969 -0.032420952 0.009664339 -0.005738656 -0.010037558 -0.014612675 -0.07956747 0.030902801 -0.016482797 -0.0058358284 -0.019467501 0.0033747647 0.027356528 0.032894745 -0.0017398113 -0.026959369 0.0020172852 -0.01708395 0.025019994 -0.0018877166 0.013994707 0.024958322 0.043341104 -0.018397493 -0.0011541698 -0.0072648176 0.0029888125 0.0036645085 -0.00018377144 -0.02140873 0.009665948 0.03742841 0.016362129 0.026289761 0.018457986 -0.027687991 0.009855513 -0.0129113225 -0.013604168 -1.7023114e-05 -0.018394172 -0.0030296992 -0.009434104 0.0018987893 -0.007664327 -0.01134558 -0.0075171147 0.015225121 -0.010280725 -0.0064344965 -0.006717725 0.0635034 -0.014428989 -0.0017697671 -0.015987441 0.025277028 0.024633799 -0.028384335 -0.02763477 -0.017142458 -0.009061696 -0.00406277 -0.009949942 0.01156224 0.032631885 0.0032623976 -0.01010425 -0.017966533 0.009984595 0.0075833434 0.016559068 -0.017736224 0.002586667 -0.025653502 0.021159718 0.026807318 0.034930542 0.031793676 -0.005160697 0.009897461 -0.0012587246 -0.02934591 -0.017170114 0.039760426 0.027337614 -0.0010806147 -0.0052312706 0.0062948586 -0.046380784 0.02724801 -0.0018374104 0.023415796 -0.0060850265
completely -0.00093936047 -0.02383842 0.029130483 -0.0013726673 -0.010164009 -0.001598764 -0.007309491 -0.0042128786 -0.0068408004 -0.040785164 -0.020453952 0.01795178 -8.636157e-05 0.016800258 0.0121744275 0.01316681 0.0010264522 -0.0048803994 -0.009477723 -0.009394055 0.0030039097 0.01311522 0.0014324354 0.0094896965 0.001003198 0.017157406 0.017253838 -0.0045951265 -0.01267474 -0.013588893 0.003491658 0.016999785 -0.014719989 0.017910535 0.012087565 -0.0010207784 -0.0029110834 0.011938373 -0.009608374 -0.007896731 0.013895566 -0.024940366 -0.0031115625 0.008696804 0.015354804 -0.014861169 -0.001862152 0.022684637 0.017848179 -0.036264874 0.0076028844 -0.014925312 -0.02630777 -0.013541619 0.022901874 -0.04238937 0.0023029267 0.012273631 -0.0038932646 0.003788752 0.015432123 0.02858458 -0.010091739 -0.020682042 0.01543112 -0.019063447 -0.00025883503 0.00882402 -0.0002374484 -0.014148768 -0.018716522 -0.03101806 0.008817764 0.005385298 -0.00718271 -0.01197621 -0.007289859 -0.0029329287 0.01205934 0.00027345534 0.009330437 -0.025694039 -0.0108562 -0.01175291 0.0134103205 -0.00951458 -0.014042878 0.0043600393 0.008640877 -0.0058098137 0.0037391493 -0.019136943 -0.011649495 0.0024939987 -0.0013532153 0.007441483 -0.013990175 0.012604744 -0.00806875 0.024646882
services -0.014367244 -0.008179599 0.00070884323 0.028687928 0.0077360678 -0.0031559893 -0.011436272 0.0035395254 0.011533018 -0.022822682 -0.024106927 -0.014687089 0.0063528703 0.018459452 0.0061579286 -0.019967156 0.0016000761 0.017014481 0.00474894 -0.027290292 -0.014424987 0.028105352 -0.0033928351 0.012299548 0.029155416 0.005931272 0.017072216 0.007618895 0.01778333 -0.004647815 0.01603032 0.03215041 -0.0019818437 -0.01877192 0.0027334585 0.004617147 0.012610529 -0.0054827174 -0.028626936 -0.0037076562 0.0033685744 0.054015193 -0.015473308 -0.01192837 -0.005882268 0.040030442 -0.011836157 0.012006688 -0.018353602 -0.0063090017 -0.0032986603 -0.019998211 -0.012247341 0.0089013735 0.010327786 -0.03415902 -0.012599226 -0.029201813 0.033817444 0.0057656737 0.0065943324 -0.028854316 0.010165581 0.00033101742 0.014307525 -0.0039835013 -0.0040020486 -0.0016846535 0.012542424 0.03228301 0.0037687754 0.0017445621 0.042287767 -0.014495004 -0.014188905 -0.0072058425 0.0010623673 -0.002966397 -0.02333823 -0.0053164214 -0.025110383 -0.007947462 -0.050116647 0.01757515 -0.0077799866 0.037191235 0.021120714 0.012710418 0.019024385 -0.06030339 0.0013022765 -0.0015229555 -0.006192105 -0.0039239377 -0.011121736 0.00028795138 -0.0036479577 -0.023107756 0.010844881 -0.004843972
engines 0.007015882 0.017638776 0.032483358 -0.053035382 -0.0032083434 0.011296025 0.039199 0.010894033 -0.016447715 0.015973587 0.013221873 -0.00848429 0.03096728 -0.0023801755 -0.006689476 0.026357511 0.0009195011 0.010845562 0.01332898 -0.022424178 0.0067790984 0.034770302 -0.0025602838 -0.0029954002 0.016716719 -0.022010634 -0.013991357 0.024874685 -0.037568975 -0.00091942155 0.001959119 -0.025021702 0.040985875 0.006451371 0.006724888 -0.01005905 -0.011306518 0.010287593 -0.0048879404 0.021836257 -0.0040294593 0.006899549 -0.023807757 -0.009969484 -0.0034275774 0.02592624 0.014527303 -0.025695944 -0.022410154 -0.025872951 0.012442073 0.013628636 0.007572974 -0.009833632 -0.048788503 -0.053044155 0.022058532 -0.018164428 -0.008933863 -0.008027114 0.00080247235 -0.0034557772 0.0032040565 -0.033302687 -0.031216908 -0.0049045566 0.023857147 -0.016171567 0.002674405 -0.002923382 -0.00029848857 -0.029685324 0.010791734 0.005503072 0.0015171017 0.029704638 0.0042676893 0.008979307 0.04108188 0.022048298 0.022164071 0.012109117 -0.010355178 -0.01560651 -0.020897174 0.013071992 0.020469764 -0.001054337 0.0076122843 0.02675042 -0.00039229737 -0.0011291325 -0.013285788 0.019436076 0.018051295 0.011002181 -0.029315267 0.000100312405 0.02441825 0.025233198
approximately 0.032744676 -0.014402863 -0.008327899 0.013183316 -0.0063375677 0.012663414 0.01632824 0.01647814 0.005903973 0.011034895 -0.017866867 0.015961949 0.038531654 0.015045894 -0.023993677 0.01157082 0.003405404 -0.053649094 0.013008675 0.0027079482 -0.015572203 -0.038025077 0.004843275 0.023613974 0.0068836547 -0.009169801 0.028734758 -0.021080771 0.0017469657 -0.006705743 0.0041080588 0.015544113 0.0012829757 -0.004017702 0.014133218 0.0065877996 0.017433664 0.018203598 -0.004319391 0.019845994 0.014698868 0.0145099135 -0.005604569 -0.0016503175 0.031343557 0.00067117164 0.005330785 0.005387282 0.0038471504 0.0070188865 -0.009050658 -0.023524081 0.015230419 0.021427467 -0.009735732 -0.0050239037 -0.027815593 0.0042867227 0.03496972 0.006268671 -0.006485324 0.014837775 0.013400074 0.012891527 0.01073473 0.002219245 0.024207173 0.0042012082 0.028064812 0.012367696 0.023907378 -0.007871837 0.022982674 -0.015157097 -0.013147988 -0.011425948 0.014022671 -0.002894496 -0.0011912414 0.025313208 0.027582914 0.026624449 -0.040107645 0.004954643 -0.006952207 0.020752829 0.028497815 -0.013785746 -0.0030064501 -0.04956908 -0.0036655408 0.020436967 -0.023273842 0.027104447 0.0103049 -0.011184738 0.0004998417 0.009258764 -0.0031086756 -0.007295172
intensive 0.00016670191 0.046457857 -0.0005497497 -0.0026341155 -0.00839166 -0.009041507 0.02670685 -0.013375185 0.021608151 -0.014654374 0.013176777 0.016356394 -0.008534428 0.019014632 -0.022901077 -0.008168489 -0.0027824645 0.016984751 0.021669816 -0.0065208534 0.00016279495 -0.024333887 -0.0055193324 -0.0022778958 -0.0014390296 0.0326275 0.028107839 -0.013066801 -0.012728187 -0.0035424605 -0.0052194 0.004842839 -0.008488205 0.009631676 -0.01653505 -0.006626028 -0.005625173 -0.0058457977 -0.018613962 -0.011186806 0.002943406 0.028180389 0.022065794 0.022284813 -0.020530067 -0.014024407 0.01038981 -0.017556945 0.0011396703 0.029779444 0.009102737 0.0051953155 0.00065932464 -0.011391455 0.0030781897 -0.02629143 -0.0037884316 0.0063737025 -0.025953222 7.3121395e-05 0.031486962 0.045423027 0.028874753 -0.0077019 0.025551178 0.0016398074 -0.024314525 0.016407298 -0.0026139556 -0.012517392 0.02379409 -0.021550983 -0.009196631 0.0078308 -0.023577254 -0.013001836 -0.014779918 -0.021346346 -0.013876332 0.013232665 -0.021531232 0.015335402 -0.0020824797 0.0072444784 -0.01183545 -0.04615447 0.022639284 -0.002212634 -0.0012139148 -0.0023036303 -0.017210785 -0.008469067 0.03259846 0.0023476097 0.008826278 -0.01946161 -0.008493658 0.008436527 0.012963367 0.010350542
met 0.0020666425 -0.028443923 0.011925715 0.0018117416 -0.025240134 0.014290115 -0.022109808 -0.0028756987 0.0037198178 -0.012908658 -0.014926756 0.0043418836 0.0037078243 -0.0076431492 0.031420354 0.023876078 -0.0055330927 -0.024835989 -0.008792669 0.005910381 0.0016191528 -0.012889041 0.0013632819 -0.007858674 0.01162229 -0.019502845 0.0035405452 0.0012528305 0.017426822 -0.018534182 0.042641785 0.011235378 0.0062554837 -0.014023732 0.005724064 0.022279887 0.002829175 -0.026600864 0.016252235 0.0003603189 0.0014286598 -0.0070315897 -0.011654549 -0.009476438 -0.036876664 -0.0063941088 -0.008344258 0.032636806 0.018982705 -0.0077521666 0.007418945 -0.010264723 0.0068122772 0.0126869995 0.027247507 0.014987876 -0.0053451215 -0.014802988 -0.015713865 -0.026162395 -0.00079825433 -7.393843e-05 0.01647218 0.00067106076 -0.0023717335 0.018661633 0.027133659 -0.023600139 0.05008746 -0.010591696 0.0055132587 0.009176824 0.029656205 -0.021551918 -0.013648624 -0.038522653 0.03573271 0.0021381364 0.01911109 0.0069058454 0.027923401 0.0051978296 -0.010273407 0.028101785 0.015366292 0.008755993 0.0030691924 -0.018404873 0.0040420736 -0.020415137 -0.011541742 0.00872289 -0.0065498413 0.019974409 -0.008149011 0.02582531 -0.0010333654 -0.0044491854 -0.000697658 0.030516082
stick -0.001695761 0.005306367 -0.014807323 0.0082579 -0.0050691366 -0.007722168 0.0046080374 0.01872192 -0.006068636 -0.012581712 0.0011213903 0.018507719 -0.0052264584 -0.011846965 0.008204842 -0.023351107 -0.011689407 -0.010420116 -0.009577353 0.0021878504 -0.009007317 -0.0041608657 -0.014275958 0.005835101 -0.025888227 0.00930117 -0.0048005576 0.015164192 -0.0026027854 0.03348813 -0.0105890855 0.036481388 -0.006252651 -0.05752961 -0.025089616 -0.0049619265 0.0076847035 0.0142854545 -0.0036131283 -0.0026750523 -0.003989599 0.009322176 0.007869752 0.0019256724 -0.018750872 -0.0165238 -1.0302756e-06 -0.027131425 0.020912725 -0.018077873 -0.0052812975 0.010168022 -0.004241647 0.024454463 0.013148227 -0.0055659423 0.010119584 -0.00757465 -0.022889907 0.014155827 0.033899356 0.017051982 0.006931549 -0.0024390153 0.03757287 -0.0013805598 -0.015719064 -0.000295301 -0.010886388 0.012166562 -0.014976466 -0.007378279 0.010467198 0.021823049 -0.009137123 -0.0049104127 0.005511594 0.0021509272 0.012877005 0.019887213 0.01105876 -0.022297118 -0.0069827815 -0.0015161901 0.002618214 0.0015942213 0.006295782 -0.006904482 -0.03769993 -0.0052730264 0.011354437 -0.00981526 0.01228635 -0.023034321 0.01213867 -0.018961411 -0.028532594 0.053735673 -0.020906363 -0.009036268
ask 0.04711245 0.011696992 -0.007704459 -0.017850628 -0.020851014 -0.031700317 -0.07311239 -0.030756935 0.021661114 -0.048435833 -0.017580016 -0.06292488 0.011824368 0.035884835 0.04315716 -0.0037687535 -0.11483487 -0.026091175 -0.022467233 -0.07003823 -0.030773753 -0.009347494 -0.06697496 0.0024509134 -0.047253944 0.037296142 -0.006877999 0.016344283 -0.0059090573 0.02600288 0.027404608 -0.03838951 0.046916198 0.010323832 0.08094315 -0.013368016 0.0037488234 0.008116193 -0.08822384 0.06344436 0.026830688 0.012927208 -0.06723761 -0.044540454 0.0026518172 -0.006543843 -0.008994728 0.08492482 -0.09037277 -0.04129237 -0.036647983 0.010688543 -0.020097999 -0.0058690826 -0.024024349 -0.044957932 -0.008011177 -0.015831148 -0.037961844 0.042602934 -0.055839345 -0.0065007797 -0.017583126 -0.06516409 0.011810962 -0.042218078 -0.06592298 -0.049346857 -0.04435963 -0.019009456 -0.08168192 -0.04028689 0.053729836 -0.079789884 -0.037859954 0.025285881 -0.074362606 -0.015174365 -0.001806411 -0.05197594 -0.011920236 0.107641935 -0.014889919 0.059047986 -0.09742011 -0.020943897 -0.0018782947 -0.00914769 0.027260115 0.00065588404 0.051216558 -0.0021473663 -0.00019778649 0.027443873 -0.060950395 0.041567627 -0.06262446 0.02145439 -0.0051461095 0.016410401
Official -0.01447079 0.010944149 0.016051516 -0.02410368 0.0019370273 -0.0006248912 -0.042298935 0.017151026 -0.0034428113 0.0050943117 0.018226128 -0.019972406 0.0021250972 0.008487518 0.0216382 -0.017073443 0.0068999333 -0.009441715 0.016331773 0.004853385 0.013960371 -0.002104755 -0.00361418 -0.005649877 -0.016721554 0.008056316 0.014208983 -0.0007783431 -0.009858134 0.024989508 0.022205492 -0.015987521 -0.020560397 0.035511743 0.013371955 -0.012612344 0.0150798 -0.00797477 0.009643031 0.009604266 -0.0002848418 -0.0031502158 0.0046628388 0.011075174 0.030061083 0.00686435 0.007102006 0.015405494 -0.00476316 -0.012799316 0.004292433 0.014687494 -0.03659543 -0.00423996 -0.029616222 0.008530992 0.0050755497 -0.0036642058 0.025384437 -0.015112556 0.055181835 0.026882043 0.0009440632 -0.0026295413 -0.04296889 -0.0029910961 0.020680286 0.0011126988 -0.018233098 0.014302563 -0.015199154 -0.003520896 0.007382055 -0.0025233794 0.00991015 0.008453945 0.038144503 0.020661073 0.009011187 -0.0016661994 0.017941182 -0.018091014 -0.034808543 -0.0066051325 -0.010978592 0.013001262 0.01618961 -0.011218028 1.6416307e-05 0.003727924 -0.01025362 -0.009826376 -0.003729269 0.002817729 0.019048605 0.0074460222 -0.018848373 0.012110909 0.024145719 -0.009370964
rational -0.016273692 -0.0077292034 -0.01806602 0.017536696 -0.0038247174 -0.013706087 -0.0029347986 0.014543214 0.0023816337 -0.03365803 0.0061411886 -0.0073479824 -0.031300753 -0.0028846099 0.04674163 0.02351459 0.023720402 0.004368147 0.0008839641 -0.005768654 -0.010682703 0.03365742 -0.031591468 -0.015974334 0.0045177164 0.0038250263 0.013795366 0.014068066 -0.042104907 -0.014073436 0.009045118 -0.042113304 0.008263388 0.02359164 -0.021534136 0.024196077 -0.0071822973 0.019895656 -0.007452052 -0.06653451 -0.02308507 -0.0015313923 -0.0017088223 0.01827723 0.027900599 -0.0272891 3.9072213e-05 0.00063795666 -0.027244253 0.00488702 0.005899227 -0.017389506 -0.016918175 -0.0064958474 -0.009458286 -0.032089353 0.04553619 -0.008251429 0.0045806915 0.012267478 0.021106191 0.020933682 -0.024525415 -0.00065378146 0.02265247 0.008107492 0.009204095 -0.032132994 -0.0038926648 0.0062964144 -0.0058901045 0.017966285 0.015821267 -0.04320749 0.004963191 -0.0011778916 0.0377408 0.014421516 0.01702227 -0.013382649 0.021855127 -0.008387048 -0.0011042779 -0.010477277 0.023501467 0.027200706 0.020472722 0.0053505604 0.0045709475 -0.026634403 -0.015195449 0.018144304 -0.012819359 0.02774335 -0.0049771117 0.0072472165 -0.03785125 0.016158573 -0.001565213 0.0009957224
aerobatic 0.006656751 -0.0053226077 -0.0059591155 0.019735375 -0.0057062106 -0.0039609578 0.016389318 0.0029610647 -0.01960438 0.027743721 -0.0053357976 0.007834285 0.0067628445 0.009310642 0.012996303 0.0050066467 -0.01599823 -0.013830956 0.025832517 -0.009499745 -0.036965895 0.0090427715 0.0012153138 0.008478496 -0.037736658 -0.010873347 -0.0017219717 -0.019109141 -0.019259386 0.0031247246 -0.021360593 -0.023959978 0.02214149 -0.0019292809 -0.016358228 -0.008426882 -0.013493943 0.00854639 0.009840966 -0.017171867 0.001814326 -0.017748088 0.0040410124 -0.009823775 -0.012451865 0.0063249543 0.024834054 0.012923483 0.004674386 0.016248737 0.01626226 0.018513314 -0.012818102 -0.0009861913 -0.027201075 0.013810279 0.023616638 -0.0087524215 -0.007226967 -0.011922526 -0.003788045 0.021829909 -0.016925016 0.01838759 0.0020373443 -0.0076249223 -0.006540424 -0.007446424 0.011826236 -0.0022838989 -0.007084995 -0.029467378 -0.031217959 -0.02097152 -0.007341557 0.04414952 0.014075263 -0.00798254 0.028073499 -0.025690852 -0.00843388 0.010335406 -0.0070780464 -0.022119034 -0.0064627244 0.0052701486 0.039296202 -0.010180969 0.0002006864 -0.0022290957 0.010889583 -0.019764451 -0.007670571 0.0069364505 -0.019461881 0.009886475 -0.030601295 -0.0077761165 0.02824752 -0.015345296
producers -0.012580279 -0.004575198 -0.0071958518 -0.017341241 -0.028314205 -0.024151795 -0.038735546 0.018278874 -0.01750251 0.007735865 0.012751294 -0.017116366 -0.024256065 0.005625049 -0.0044098287 0.003735502 -0.023512706 0.0041995347 -0.0063287187 -0.022664063 0.0024932765 -0.045902554 0.0021557594 -0.024429806 0.01648201 0.046076927 0.0165261 0.02079419 0.012805929 0.0068854624 0.028884212 0.0046445276 -0.020858139 0.01412769 -0.0062821917 0.010159212 0.017062439 -0.016182685 -0.0015876119 -0.017931394 -0.0030259425 0.0010414813 -0.019212615 -0.003584382 -0.0076221493 -0.046299156 -0.010215137 0.013520224 -0.024522087 -0.020409165 0.011948821 0.013454852 0.0040912437 0.06269399 0.050903823 -0.018520191 0.03340077 -0.013186703 0.0112509485 -0.022062158 -0.019738011 0.016127745 -0.0017380567 -0.0043229857 0.0055288044 -0.00018681446 -0.020959001 -0.019788776 0.029325806 -0.017089035 0.0028191158 -0.013547108 -0.020958774 -0.044473283 0.0067822565 -0.021802304 -0.020866938 -0.0074051116 -0.012161644 0.007956323 0.003561313 -0.045101736 -0.016118817 -0.036670893 -0.05532972 -0.01444734 -0.008781024 -0.0019958415 -0.0005687685 0.00060175575 -0.0101685915 -0.0030567164 0.01217132 -5.4585747e-05 -0.010204671 -0.008526468 0.010220144 -0.014960755 -0.013714032 0.012638969
Special -0.09421048 -0.06765056 -0.12694226 0.020478563 0.086252555 0.015738685 -0.0072853914 -0.012140852 0.09710522 -0.024529312 -0.06231435 -0.059156775 0.037018906 -0.00524881 0.048206884 -0.030785855 -0.04585943 0.05296671 -0.11387756 0.004283804 0.07435233 -0.061911356 -0.06994765 -0.071441695 -0.06319385 0.035391297 0.025786905 -0.08031783 -0.14578584 0.0560329 0.042398106 0.013912044 0.046949144 -0.06304353 0.05956163 0.07897616 0.0033512032 -0.015137641 -0.020020856 -0.0377906 -0.014166614 0.060389854 0.09540309 0.03412328 -0.08032863 0.048171263 -0.058862727 -0.046991512 0.010427757 0.09733738 -0.011409792 -0.052307684 0.0060799476 0.03045327 0.07311928 -0.002034618 0.017425647 -0.07591802 0.02023933 -0.027160875 0.0063612266 0.03432318 0.036403395 0.01450185 0.10038148 0.03243532 -0.08102786 -0.020011185 0.044635396 -0.01486161 -0.07442391 -0.05461548 0.036607467 0.033644136 0.0291574 -0.06518746 0.0037626706 -0.03131517 -0.055041526 -0.14065638 -0.06701268 0.06225319 0.03655752 -0.04378193 -0.036368106 -0.095671594 -0.082345374 0.15398403 0.13256036 -0.034574483 -0.13696681 -0.04809176 0.03820992 0.022728289 -0.018981677 0.035071157 -0.04106934 0.0051972535 -0.0060331384 0.051052384
discussion -0.030438017 0.028344413 0.0026939414 -0.046658423 0.012845768 0.017983265 0.008011871 -0.010628351 0.012208182 -0.02649815 0.01805106 -0.006316312 0.005353973 -0.0050067734 0.011185467 0.007367336 0.012564415 0.024697166 -0.013911104 -0.027838603 -0.012841165 -0.007722946 0.025649408 0.019333927 -0.004772147 0.0027895148 -0.007846094 -0.002187878 -0.00797289 0.0035181968 0.017290888 -0.00016410789 -0.0013075636 0.019117285 -0.011751277 -0.011868978 -0.017344886 -0.026452776 -0.038073454 -0.017096177 0.018335447 -0.029495047 0.02205234 -0.030783186 0.023209551 -0.0029751954 -0.021002216 0.016423648 -0.026472494 -0.0033523527 0.009127874 0.022646932 0.014418491 0.004593041 -0.026689487 -0.0051256353 0.016402123 -0.02143502 0.017726384 0.030855816 -0.028224364 -0.009696478 -0.038923185 -0.022286836 0.016120832 -0.019071227 -0.004597196 0.0071576335 -0.020613866 -0.00033236598 -0.0049168104 0.015002198 -0.026827991 0.012646558 0.04173475 0.0005534855 0.025380408 0.010902257 -0.022452973 0.010965508 0.010258581 0.033816107 -0.01927053 -0.00251854 -0.0038826263 0.006634058 0.00046486576 -0.004009274 -0.02533292 0.03386377 0.00020449772 -0.00866654 -0.01597804 0.0015985906 0.0023409165 0.02310764 -0.005097079 0.017913645 0.0038852082 0.011363664
closed 0.02284214 -0.0026626438 -0.017753195 0.019672036 -0.0029844863 -0.018409867 0.01682194 0.0074210777 -0.0013014385 0.022275003 -0.03808934 -0.011737238 0.049480237 -0.06472833 0.02572627 -0.01589617 0.012964193 -0.007375109 0.017656708 -0.03852431 -0.011872818 0.018329214 0.009038178 0.016313678 -0.0013664787 -0.022255355 0.0018468031 -0.0009496135 -0.028314063 -0.037065025 -0.00999793 -0.0134734 -0.0050381543 -0.025491828 0.0037843157 0.012408766 0.008604665 -0.0023811772 0.04750739 0.001996081 0.010701009 -0.036710866 0.0032594036 -0.00753733 0.046524078 -0.027263824 -0.003114284 -0.06864271 0.008554008 0.029023748 0.02363075 -0.03401698 -0.022742212 -0.04025451 0.015727542 0.016674677 -0.03288066 -0.016368853 -0.012160731 0.0074322587 -0.009594585 -0.008770006 -0.028235 -0.019443573 1.9458239e-05 0.008272571 -0.0019192875 0.01226935 -0.01313864 0.015675997 -0.0062822923 -0.03272864 0.034986977 0.022541318 -0.025503252 -0.00031703414 0.03037855 0.01976111 0.0026522432 0.02691803 -0.03359121 0.022132901 -0.0119202575 0.04407589 0.04784364 -0.02692255 -0.0032245582 -0.013535129 -0.029846458 -0.0762494 0.025824016 -0.020871088 0.04685915 0.0013088402 -0.0028058004 -0.0035218813 0.0042771865 -0.044479106 -0.0039171707 0.022667073
running -0.007932396 0.011672489 0.024034897 -0.008737057 0.008133639 0.0208101 -0.01567187 -0.023678664 -0.036246255 -0.0053755217 -0.0073902104 -0.013673474 -0.00078177283 0.018156702 0.021944514 -0.0017431529 0.009692647 0.015383475 0.010876582 0.013682479 -0.01599666 0.010148164 -0.021519931 -0.008160454 -0.018999692 -0.01761323 0.029175734 0.0035078104 -0.016329465 0.009200268 0.041722342 -0.03086177 0.025755322 -0.019081187 -0.016598882 0.030334571 -0.0058851587 -0.009266741 -5.039235e-05 -0.0064627286 -0.01953795 0.0045839795 0.000569039 0.014621983 0.0071797958 -0.034005247 0.0077078417 0.01662714 0.008884844 -0.0070034997 0.02311371 -0.018059362 0.031738345 -0.0068689575 0.012223866 -0.0034345244 -0.019363202 -0.00717963 -0.0036809766 0.0030194037 -0.0029700452 -0.0022328515 0.0054315142 0.012016487 -0.0056141843 -0.014100201 0.013983912 0.015030473 -0.012102041 -0.018282026 0.0064652194 -0.0032736494 0.002596816 -0.0016213853 0.011037147 0.000779464 -0.01863492 0.0008645178 -0.009595081 -0.022628283 -0.00075139734 -0.007910796 0.0051807347 -0.011898728 0.001982973 -0.030813346 -0.003999875 0.015078285 -0.0010284772 0.022527307 -0.017126746 -0.0077800527 -0.0062834537 0.007489455 0.00014447817 0.016313551 0.014473043 -0.0074982485 0.019646578 0.010416973
joining 0.020233713 -0.0030737678 -0.04328452 -0.007763627 -0.009553747 -0.017027184 0.02479364 0.0071521876 -0.018482313 0.02413952 0.025590297 -0.0026527192 0.0033179375 -0.0015057268 -0.04752908 0.032202076 -0.017655727 0.014330584 0.010077327 -0.015504244 0.015961586 0.010094596 0.010477977 -0.035382833 0.033164807 0.0046694553 -0.021925531 -0.009408002 0.02216209 0.008908339 0.015612727 0.040270418 -0.02154976 -0.01892393 -0.033404905 0.018041015 -0.014114032 -0.03093909 -0.034568664 -0.019291162 0.0044827093 0.025514144 0.01896218 0.026685078 0.001793927 -0.005834253 0.0019867877 -0.015673338 -0.018303597 0.024356613 0.029303538 -0.0020696651 0.0289353 -0.029336413 0.0208006 -0.013627781 -0.027514454 -0.023871785 0.0018587575 -0.0069743544 -0.017015338 -0.012084299 0.040704574 -0.005430505 -0.056559913 -0.004169729 -0.017301813 0.002719315 -0.013027 -0.017311309 -0.05942795 -0.012940744 -0.00085579744 -0.028156599 0.0037331127 -0.01795472 0.020241296 0.04741344 0.020713259 -0.016674789 0.0056488593 0.017916897 -0.0069778194 -0.01762827 0.004538847 0.023437534 -0.009638276 -0.013390273 -0.0026214304 -0.011940157 0.023089908 -0.008363219 -0.005344065 -0.016910682 -0.010270109 -0.015558478 -0.013076946 0.012697877 0.0040831035 0.009710805
four 0.012977902 -0.00033449894 0.012426792 -0.00399335 -0.009985089 -0.02071001 0.00449552 0.010017142 0.020192519 0.028143385 0.0031710858 -0.008139936 -0.011008764 0.024492463 0.008186231 -0.031053362 -0.025065662 0.034626953 0.00037371207 -0.035357382 -0.010522277 0.020959917 -0.0040489407 -0.014113217 0.004076825 -0.0012122724 -0.0015229792 0.01933976 -0.009412269 -0.017755872 0.00015787076 0.027794456 -0.0025751963 -0.04679743 0.012130433 -0.032965157 0.014267631 -0.02759882 0.03619445 0.017183268 -0.016719012 0.005352957 -0.025956204 -0.0029913916 -0.021226332 -0.011206118 -0.015435922 -0.0075870734 -0.021521939 0.016015783 -0.014919498 0.0005967462 0.018836102 -0.024258494 0.019184219 0.035327718 -0.059973385 -0.038473766 -0.0054422994 0.012426895 -0.016852312 0.02119503 0.023668688 0.005355592 0.0023596082 0.013487308 0.009822007 -0.016082736 0.00018177943 0.03967475 -0.021856511 -0.015648693 -0.0062611345 0.01204605 -0.012088248 -0.0074448767 0.0007086216 0.0005195065 -0.007413225 -0.030794624 -0.041401535 0.019378746 0.016501755 0.048628036 -0.015862722 -0.020512385 -0.010275328 -0.010200867 -0.004750006 0.016918682 0.00083686726 0.04101816 0.0002451255 0.0048656594 -0.0047788857 -0.005387366 0.02765607 0.015312164 0.008114357 -0.024746576
advise 0.021360232 -0.0056336354 -0.00971168 -0.017962499 0.035409603 0.011715699 -0.016798561 -0.03159033 -0.020392325 -0.020199109 -0.006813112 0.028120188 -0.009655339 -0.0013508543 0.03421355 -0.02742128 0.03374124 -0.014276081 -0.0050360626 -0.031317987 0.020606931 -0.007240529 -0.01360413 -0.03299832 0.026592847 0.013982975 0.029164804 -0.016142242 -0.04028138 -0.017918881 -0.0033290754 -0.027953068 -0.014204447 0.023783738 0.01971738 0.01647324 0.00365026 -0.011982401 0.0063324887 0.020523068 -0.028930027 -0.003060708 0.038241103 -0.014990458 -0.0067833774 -0.011318375 0.017341102 -0.019111605 -0.016518533 0.0076821344 0.0053403643 -0.02033923 -0.015174814 -0.0039035047 -0.00937534 -0.03163449 -0.040390193 -0.017076142 0.0030879145 0.0046313973 0.016476292 -0.01849626 -0.01276028 0.018174237 -0.0063533685 0.019003797 0.016362399 -0.017605418 0.0008478026 0.0035304923 -0.023555769 0.0029748632 0.03824311 -0.0071948115 -0.012038172 0.027281383 0.001736457 -0.032049347 0.010016466 -8.660555e-05 0.024550973 -0.0067810058 0.03125599 0.016867986 0.0123751275 -0.04631851 0.0018055678 0.0035635899 0.020385094 0.006240742 0.03281561 -0.021347826 -0.033762537 0.024566256 0.039094795 -0.022430735 -0.014074897 0.014057826 0.023850074 0.049973264
orders -0.0014781185 0.019464951 0.0022671781 0.035417352 0.04505032 -0.0214657 0.005293432 -0.0060057 0.02817937 -0.017019354 -0.046767734 0.027064793 -0.0028034719 0.0081609385 -0.004008879 -0.002194625 -0.011732962 0.025691984 -0.015852463 -0.034876157 -0.0013777392 0.0028263368 0.040442877 -0.00783179 0.0029952847 0.034872815 0.00021189608 -0.04357134 -0.000121575664 0.008039153 -0.00013950415 -0.004728093 -0.019056521 -0.010548216 0.013097822 -0.0063318736 -0.023396615 0.011245543 -0.03889618 -0.0038196226 -0.011391016 0.0050820443 0.014490779 0.010741044 -0.00649121 -0.018774547 0.010010954 -0.012456316 0.018780883 0.035730973 0.04456001 -0.03164696 0.017166529 0.02290542 0.03532696 -0.013424761 -0.031738453 -0.03645468 0.0027401692 -0.015123278 0.010863565 0.0180595 0.025726894 0.0070118345 0.034420483 -0.0074720387 -0.02473418 -0.014463559 -0.012243193 0.017223708 -0.0132319685 -0.014217952 -0.0004313765 0.019666981 0.0013390924 -0.017913746 -0.008747243 0.041850023 -0.010967775 -0.033898875 -0.01815561 -0.021046735 -0.00859792 -0.013269618 -0.05644462 -0.040856626 -0.02968213 -0.011820075 0.029854164 -0.014315269 -0.0077281706 -0.0010379632 -0.010246729 0.002324632 -0.021430852 0.02277159 0.024788577 0.01003594 0.0043306723 -0.017312003
around 0.01203985 0.005934367 -0.0076960996 -0.017085603 0.0061297757 -0.00025294788 -0.0004946458 0.00527381 -0.014132346 0.04025262 0.045073144 -0.011458321 0.019339152 -0.0007997172 -0.011638615 0.00091884675 0.0024196717 -0.016087117 0.019053278 0.033569332 -0.01754864 -0.02099942 -0.0008151522 -0.0031747208 0.03123409 -0.032424323 -0.031714343 0.012474513 -0.039123222 0.008801724 -0.011271644 -0.022625964 0.021649947 -0.0062958035 -0.002600929 0.047285922 -0.01606317 0.021169832 0.0004753339 0.035983775 -0.02745065 -0.017954823 0.005066527 -0.011071119 0.02029153 0.025336295 -0.0007053841 -0.0043225233 -0.00473681 -0.024390003 0.0027972844 0.005147149 -0.0064037554 0.009296483 -0.036774553 -0.025599476 -0.009070617 0.0042186915 -0.00629454 -0.011391546 0.026447697 -0.026709195 -0.012663343 -0.00029100815 -0.023363618 0.008000676 -0.013049252 0.00096658093 0.027086042 -0.016365593 0.006448413 -0.0065127886 -0.021345142 0.020605495 0.012332605 0.01438282 0.022365917 -0.035239793 -0.011084206 -0.00709919 0.019744039 0.0014045734 0.0018645241 -0.013320947 0.01291688 -0.050218936 -0.013156285 0.02700464 -0.00398988 -0.0011504402 0.0127424095 -0.0097470125 -0.0040546255 0.0112179015 -0.047344953 0.010756419 0.022192853 -0.004992944 0.00958197 -0.021914447
personnel -0.023914794 -0.03012781 -0.03406985 0.032304842 -0.02680219 -0.005188748 -0.011750919 -0.03922071 -0.02885429 -0.010959188 -0.011456166 -0.01417267 0.026988575 -0.009299659 -0.0032183346 0.016705766 -0.014099719 -0.01744811 -0.027334243 0.020226676 0.02499168 -0.0055235783 0.008379098 -0.0035288904 0.0023509369 0.013874886 -0.004000798 -0.020731615 -0.01353905 0.010887689 0.039890442 -0.008582112 0.015907075 -0.021605976 -0.010388838 0.00429991 -0.022078056 0.021989355 0.0091810925 -0.005709613 -0.016234893 0.01928447 0.009838777 -0.007948628 0.030660873 -0.022282997 -0.025081484 0.0041920952 0.011761606 -0.010933611 0.010425255 -0.012170339 -0.039096076 -0.001462567 -0.027202195 -0.047167763 -0.007439834 -0.00757867 0.025238423 -0.008737696 0.019292014 0.025448546 0.0027677733 -0.0015045671 -0.013340573 0.004064023 -0.008917566 -0.030023899 0.021164693 -0.034491416 0.008215779 -0.013880153 -0.019423163 -0.012559241 -0.045794427 -0.01923965 0.02910109 -0.009077283 0.007882101 0.018009944 -0.011665755 -0.023444723 -0.017021231 -0.025230752 0.0038262256 0.022425799 0.019903973 0.0039816736 0.026887955 -0.010337077 0.005193267 -0.035055302 -0.0032722058 0.019411871 -0.023287974 -0.009857066 -0.033893615 0.0052306615 -0.022146845 -0.013655041
recovery 0.027950754 0.016838346 0.00055868726 -0.01876528 0.012691476 0.03800135 -0.002438294 0.023344133 0.016825097 0.04685061 -0.050461978 0.002953955 0.013024132 -0.019834697 -0.036812447 -0.036450043 -0.0068475306 0.011060085 -0.02926989 0.009687601 0.03796547 -0.021192217 0.038074747 0.025426298 0.009578261 -0.072370246 0.017463643 -0.002228397 -0.00509258 -0.010983843 0.039732844 -0.036370996 0.03470778 0.007172454 0.025107553 -0.02386865 -0.04779639 0.050275218 0.034600623 -0.027032524 -0.007900798 -0.0023003556 -0.024954466 -0.019367153 0.0026230894 -0.009011435 -0.028705591 0.037131306 0.008020513 0.0080569815 -0.019178918 0.006896824 0.005447962 -0.04151239 0.006367044 0.050139576 0.038973678 0.076661505 0.018962786 0.031453226 -0.0145388935 0.014788403 0.022619003 0.0049944064 -0.036645778 -0.008079397 0.0020477131 0.0018763066 -0.04213777 -0.019438768 0.02778721 0.013380216 0.04037236 -0.03105359 0.03461212 0.0029937266 -0.024587093 0.024112402 0.026618915 0.020923514 0.018769821 0.016605124 0.03552856 -0.029638613 0.026700951 0.036807638 -0.029215785 -0.013372448 -0.05485615 0.013754404 -0.0045502293 0.018479938 -0.0013705207 -0.007287643 -0.028871275 0.015548528 0.0031309589 -0.0643995 0.018495964 -0.014733027
