1001 100
necessarily -0.001608157 0.030786896 0.046243608 -0.007094593 0.010737609 -0.013145091 -0.042588152 -0.029679075 0.00038308802 0.06639788 0.022543835 0.024309937 -0.023991194 0.014111982 -0.032930575 0.021033136 0.00955301 0.038727887 -0.0129178 -0.0030423226 0.024787417 0.00080058497 0.009791075 -0.041453425 0.0031401892 -0.031888377 0.00031467172 0.007934291 0.011100409 0.009404991 0.012121512 -0.00784539 0.026508622 0.081390075 -0.023855595 0.08525631 0.0045942487 0.021718232 -0.03388274 -0.014314335 0.012490906 0.016844431 0.009370167 -0.0056193853 0.030489428 0.026930222 -0.035019603 -0.01930575 -0.031877577 0.04489048 -0.010488751 -0.017952617 -0.039605763 0.00978682 0.010693449 0.007973291 -0.008547185 -0.021097353 -0.024496939 -0.026297325 0.017596144 -0.029165594 0.008497432 0.027199123 -0.012272726 0.025498156 0.029891945 -0.034138292 -0.0007114702 0.013433829 0.027466327 0.04620859 -0.005584757 0.027917366 0.029797183 -0.019697113 0.041023728 0.032378156 -0.0038764938 -0.010428561 -0.00833954 -0.039780293 0.04338334 0.014121157 0.017192686 -0.010709797 0.0017340851 0.031725608 0.0098017175 -0.025961332 -0.014824449 0.005114608 -0.024032755 -0.049889922 0.013149962 -0.010755657 0.044005018 0.005150316 -0.045955196 0.010084996
fact -0.0274449 0.010636206 -0.011187571 -0.007428227 -0.0200694 -0.024477163 -0.045003865 -0.017754119 -0.0043248367 0.068201974 0.0005393282 0.0037030992 -0.012205789 0.0357526 -0.020381957 0.0065650623 0.00979084 0.012672091 -0.013312943 -0.022470199 -0.03291124 0.024622863 0.0042370837 0.02522873 -0.03951137 -0.019890197 -0.026455767 0.009145337 0.01647165 -0.028305937 -0.012240756 0.0007084898 0.027501104 0.020062465 -0.0319063 -0.018564275 0.04284648 0.00053601584 -0.027034378 0.0242071 -0.008851316 -0.045938965 0.05257883 -0.002370512 0.0083096 0.011998897 0.0035481644 -0.0015170609 0.037286397 -0.013173001 -0.014177099 -0.013956018 -0.024131078 0.0024025198 0.0026391377 -0.03792967 0.05124199 -0.0035478412 0.038118795 -0.014609058 -0.01697223 -0.045600712 -0.023194082 0.0049569495 -0.0017632432 0.014478953 -0.016613118 -0.022137893 0.006168265 0.019982386 0.016002515 -0.030630825 -0.03446491 0.019240135 0.04563434 0.006786348 0.008325436 0.024939151 0.023295462 -0.006335084 0.02498268 0.025480097 -0.007334873 -0.005251299 0.017076913 0.018190887 -0.03430855 0.0016973153 -0.016987946 0.045752384 0.023251906 0.011896244 0.02144897 0.003996379 0.00079678104 0.040454857 -0.014563765 0.029358001 0.010529008 0.0018254542
factor -0.018947478 -0.03746368 0.041027024 -0.027965814 -0.014591298 0.0003759624 -0.02334564 -0.0204077 0.0065249056 -0.006410515 -0.001389175 0.0051512104 0.023191823 -0.044469398 -0.027312478 0.01274496 0.008039726 0.008416627 0.02740418 -0.03556307 -0.044784885 0.035668537 0.019779615 0.019416267 -0.021350497 -0.019072682 -0.01457187 -0.02186063 0.003581944 -0.0029472848 0.01522323 -0.035876375 0.019009974 0.006545375 0.01935066 0.021173473 0.027361965 -0.02379617 -0.049374454 0.018643117 0.03632309 -0.021374097 0.0077629625 -0.00033586595 -0.014307195 0.04746147 -0.04386595 0.0042440575 -0.0066367984 0.020111563 -0.020059438 -0.011183748 -0.010637124 -0.011672176 -0.012926564 0.0026387423 0.025071977 0.024814798 0.013354207 0.013853089 -0.010229229 0.025711142 -0.0010367511 0.008229046 -0.028264116 0.033705086 0.015680276 0.007477822 0.03939805 -0.017304845 0.0017738509 -0.041732974 0.0349012 -0.015716895 0.037136458 0.024333771 0.0015989038 -0.017546209 -0.017048135 0.025360048 0.031425502 -0.06562032 0.012344975 0.01573552 -0.00021718617 -0.03276177 -0.03740711 -0.0027724453 0.0382091 0.009003819 0.0158651 0.030586911 -0.007418666 0.0007174917 -0.010309504 0.0194502 -0.0008606885 0.012498002 0.034601443 -0.020841304
remember 0.037599266 -0.023223601 -0.02649689 0.0014598231 0.026386838 -0.025084533 -0.018050078 -0.0018749778 -0.0071312003 -0.007405932 0.029821003 0.003671845 0.000881099 -0.014670737 0.007706086 -0.014410229 0.020328235 -0.00012104813 -0.024486769 -0.009830264 0.017471641 -0.012795787 -0.0039541256 -0.009172044 -0.026907455 2.1656117e-05 -0.026689095 0.010630651 -0.0062483978 -0.010547176 -0.005429066 0.01672331 0.0015909782 -0.043011293 0.03399296 0.008479029 0.00097190647 -0.002839896 -0.0004331938 0.026306981 -0.030546442 0.01058153 -0.008081569 -0.041102044 0.020348996 -0.0094088055 -0.010992142 0.0075483783 0.001677796 -0.022305341 0.048026472 -0.03167532 0.0057126004 -0.0062280614 -0.04858886 -0.024713991 0.04191874 -0.00815899 -0.028738262 0.009126602 0.020962259 0.020611374 -0.0024551826 0.029405925 -0.010457027 0.010743324 0.0067972415 0.009390901 -0.012784313 0.008397532 -0.020775203 0.010333299 -0.0051934817 0.012670391 -0.01529575 0.02848554 -0.033564337 -0.004692829 0.010939868 -0.04027387 0.0466157 0.0051690186 -0.0030954848 0.015145839 0.020863896 0.032198872 0.036575653 -0.0012684893 -0.02570544 0.037785426 0.009343525 0.050285157 0.005613844 0.0057265954 -0.0030485012 0.00048322856 0.0006419068 -0.0061525656 0.0020872713 -0.021557603
bailing -0.006089861 -0.03711259 0.031149201 -0.0066781063 0.008915022 -0.0019154684 -0.043118905 -0.035358246 -0.018510833 -0.062261753 0.03905241 0.021704435 -0.04851558 -0.015650406 -0.015112161 -0.023643175 -0.002671954 0.021830155 0.017902482 -0.0068653305 -0.0051087216 -0.007040965 0.0020861018 -0.01830769 -0.009693564 -0.02016646 -0.012176135 -0.032775313 0.0025812732 -0.039302085 -0.027422993 -0.0022495368 -0.021856772 0.018296527 -0.0045353277 -0.021405844 -0.011759993 -0.0026386483 -0.005185877 -0.02957516 -0.03178098 0.0010248739 -0.0047657955 0.02282005 -0.014556206 0.006659737 0.0139781395 0.0030210451 -0.011778392 0.011232215 -0.051512387 0.005179719 -0.02480342 0.02171031 0.038525738 -0.00228002 0.02275648 0.004294144 -0.032185238 0.003570409 0.03835199 0.0035241037 -0.0060400963 0.014223998 -0.04358085 0.0001580054 0.0066017564 0.022165257 0.008060106 0.00896465 -0.010189281 -0.01738458 0.025801376 -0.053239804 -0.050345797 0.027631627 -0.03814815 -0.01686356 0.007116927 0.01057913 0.035529055 -0.019496681 0.014633816 0.022591777 -0.0025997527 0.02420867 -0.015303847 -0.008785044 0.017015198 0.0387288 -0.024701536 0.00063454756 0.0033383605 0.006107078 -0.007983638 0.010714712 -0.015350335 0.003682565 0.020963347 0.040515147
introduced 0.011111468 0.012260815 -0.037592564 -0.019575715 0.008997448 0.023196718 -0.0049409033 -0.01959074 0.0048654424 0.018766629 0.04287158 0.023959758 -0.01136368 0.016255664 0.018439518 0.0072384914 -0.01852333 0.0048818886 -0.027508974 -0.0026544656 -0.0147325415 0.012403684 0.034761973 0.016995061 0.016868455 -0.0074972273 0.033582367 0.012257282 -0.01592167 0.0062390715 0.009542218 -0.007277735 -0.00933591 0.020957032 0.018513257 -0.015848197 0.012944029 -0.010897315 0.022370499 -0.0025769994 -0.007430884 -0.0029313506 0.005277141 0.04882464 0.025434151 -0.0041506365 -0.0039011189 -0.011698497 -0.0023723596 0.027183505 -0.00850056 0.00844291 -0.011655635 -0.006757712 0.005587901 -0.000261231 -0.016943682 -0.007944046 -0.016939314 -0.025904352 0.004604887 -0.009737084 -0.044828117 -0.029942773 -0.014744645 0.020039132 0.0011265835 -0.012390572 0.0051572127 -0.008895534 -0.021017596 0.0052027567 0.013671693 0.016125737 0.010158766 -0.0001364178 -0.018786876 0.0024661801 -0.013482132 -0.015541805 -0.012334295 0.0006895386 -0.014035383 -0.011656896 0.0069396053 -0.026123341 0.04224404 -0.0039501544 0.010657078 0.02633673 0.011919564 0.0151210185 0.015591084 -0.0209522 0.0064229737 -0.0070765144 0.016693953 -0.0074454644 0.023914687 0.005943406
giving 0.017218275 0.022413133 0.043556847 0.029383201 0.013681507 -0.020260695 -0.0024509742 -0.009918783 0.010902476 0.0058386954 -0.0042643235 0.013269225 -0.014030162 0.017582685 -0.021511316 0.009065199 -0.012646561 0.029905638 0.021981377 0.004548039 -0.0073095453 -0.02042516 0.013887884 -0.009169268 0.005619332 0.025548618 0.012236539 0.0107622845 -0.021355439 -0.0050991387 -0.01400154 -0.035892334 -0.005857649 0.03418273 0.018019227 0.0193441 -0.0024718852 0.027350916 -0.009618518 -0.02926699 -0.014590162 -0.0059311083 -0.017013375 -0.0051697115 0.0060378714 0.0365814 -0.0026061218 0.032507047 -0.026486782 -0.036202066 0.019006105 -0.016297465 0.027294023 0.009091072 0.006407483 -0.012423709 0.02400695 0.0134374155 -0.023029137 0.014555837 -0.0076258066 0.027736353 -0.005734084 0.0076503404 -0.0087149255 -0.009203394 -0.017179511 -0.010233945 -0.020471368 0.0036541119 0.021758089 -0.0054374076 0.027066825 0.041708726 0.009057411 -0.012350373 0.012148782 -0.015366017 0.016284302 0.028725693 -0.0009766396 0.015422246 0.013147839 -0.020975605 0.005225989 0.038884345 0.015898814 -0.014002914 0.0042483504 -0.010023332 0.011765892 0.02451905 0.0029322812 -0.00687081 -0.009119227 -0.03689269 0.019431772 -0.025921147 -0.014348323 0.012567292
though 0.029546333 0.008855313 -0.011093545 -0.008947511 0.030668536 -0.016351368 0.015584936 -0.009436791 0.017196083 0.013186237 0.032344904 0.017834764 -0.02097369 0.02246288 0.028924901 0.009139211 -0.027297407 0.018391073 -0.012960885 0.026895754 0.0034899511 -0.0066829035 0.0044951607 0.016602287 -0.037783794 0.027883139 -0.025903128 0.015704658 -0.011901529 -0.014848655 -0.0027853763 -0.0013038162 -0.030158503 -0.016592685 0.013081182 -0.01232669 0.025367737 0.019246984 -0.0040102378 -0.00056845014 0.017726777 -0.018285092 -0.0028061322 0.013534196 0.010876024 0.021398032 -0.041596796 -0.032771975 0.019521004 0.009530085 -0.01156422 0.013378466 -0.019049445 -0.013637502 -0.03458785 -0.0031863411 0.01940558 0.014233014 0.033902593 -0.018073592 -0.007980478 -0.01282954 -0.04033638 0.0058965622 -0.015361544 -0.0073825624 0.019981453 -0.023801723 -0.026291123 0.026201116 -0.026574124 0.041922588 0.04976855 -0.0037709312 -0.0019375733 0.0008148493 0.0031532485 0.030040547 -0.02996843 -0.017463453 0.0036679127 0.01638605 0.015626771 -0.0055711423 -0.024331715 0.0071263155 0.0025231559 0.008744333 -0.004505013 0.03174336 -0.034526385 -0.0147025995 0.023738403 0.016193181 0.048445996 -0.023526141 -0.030385854 -0.030841831 0.04330416 -0.024174107
considerable 0.048868783 0.02134299 -0.09377772 0.012487489 -0.055022173 0.014059182 -0.027670313 0.035790276 -0.052052386 -0.042140055 0.06709223 0.013071217 -0.021924175 -0.05416994 -0.030165114 -0.023556285 -0.058172792 -0.013223994 -0.0008291298 0.065578565 0.0042805066 0.049948797 0.060060658 0.06892778 0.042757496 -0.024244726 -0.042044055 0.02729049 0.026102666 0.05676713 0.012249428 0.04916481 0.0057470673 -0.050977454 -0.014785536 -0.07188712 -0.007229152 0.021247001 0.07600117 -0.02134748 -0.07267072 -0.061419364 -0.027448973 -0.028891373 0.021089543 -0.0002087164 0.0364066 -0.006530226 0.038562123 0.06048673 0.0057794857 0.022640023 -0.029628195 -0.030561266 -0.03902733 0.027473904 0.05263621 -0.01921957 -0.0004229073 -0.03138545 0.005097499 -0.06398247 -0.05766418 -0.02226413 -0.071604624 -0.029068949 -0.034928747 0.066445135 -0.062137388 -0.023867603 0.02391229 0.050625194 -0.05892241 0.058202118 -0.062496323 0.05368343 -0.026029883 -0.0027771867 -0.0052287 0.018457506 0.020345293 0.063764006 0.009016747 0.05928513 -0.023335038 0.014304203 0.021972833 -0.06526428 0.051456973 -0.046204284 0.013053711 0.011199646 0.0139872115 0.08141501 -0.05464614 -0.018772399 0.003448729 -0.04863093 -0.045116697 -0.036918767
rise -0.019210128 -0.022312086 0.00029258482 -0.016103026 0.013602144 -0.01269801 -0.02248357 0.0057861246 0.019655216 0.0011798166 -0.0015093815 0.037815623 0.0013191174 0.037375364 -0.0010972532 0.006774123 0.016381117 0.02334775 -0.030582419 0.027023468 0.007731459 -0.0014059967 -0.02079108 0.012624408 -0.00022532864 0.014083227 -0.02408957 0.0009702592 0.0123263085 0.017961532 0.02839846 0.0096341465 -0.010089463 0.028789734 0.032105125 0.03255968 0.005446863 -0.0014417688 -0.04426444 -0.02915185 0.010860609 -0.00018724531 0.017032303 0.01847122 0.0028399364 0.039443314 -0.005183005 0.02146229 0.06651499 0.016662579 0.02101643 -0.039086863 -0.005288997 -0.041330274 0.013496079 -0.023901675 0.04479248 0.007053888 0.008396963 -0.00427582 -0.014523051 0.026099931 0.011187393 0.021050282 0.022759832 0.009932176 -0.04620361 0.010300479 -0.02705827 0.042456746 0.023110447 -0.004157979 0.017521117 -0.01224149 -0.003170227 0.011742806 0.024474386 -0.023288185 -0.013431893 -0.04636833 0.0055674915 -0.010810871 -0.037972037 0.038231462 -0.033806667 0.028445717 0.029935874 0.029731678 -0.0112826945 -0.016924107 -0.011569693 -0.020977585 -0.021733904 -0.03658384 0.011213042 0.020574257 0.010243085 0.01664933 0.0073974715 0.02112584
allowing 0.049262956 -0.0019079814 -0.02737785 0.015656682 -0.0031605242 -0.0020691515 -0.010111037 -7.837155e-05 -0.044762146 0.026997453 -0.003165139 -0.028425667 0.01708846 0.031014632 0.013001996 -0.018299358 0.022538 -0.027644288 -0.00011331909 0.0068479697 -0.023308324 0.010249767 0.012315116 0.023773715 -0.027921595 0.0020479823 -0.0028459255 0.009949107 0.014123671 -0.012485733 -0.046416137 0.0040331264 -0.0015469973 -0.050831556 -0.01067175 0.026221128 0.01743702 0.008051364 0.014536536 0.02023403 -0.012126943 -0.0076173036 0.007964558 0.025520531 0.010879026 0.015196255 -0.003633657 0.0048426804 0.004423169 -0.008205575 -0.012212575 0.021058405 0.021465683 0.032974962 0.0074036205 0.010679543 -0.0054355995 -0.026648613 0.0045677084 0.018472863 -0.0063111493 -0.0013398562 -0.0271813 -0.024250496 -0.021343715 -0.018084982 0.016464856 0.0050726244 0.0092535755 -0.009504398 -0.014170915 -0.008903826 -0.039723054 0.0043373914 0.007491775 0.015889408 0.0615932 0.019515896 -0.016913727 0.02557623 -0.021106692 0.030778198 -0.032035854 -0.032388173 0.0021661127 0.026472654 0.016572857 -0.002115257 -0.018384073 0.024242515 0.010055303 0.002958112 0.057776667 -0.009193011 0.0074983574 0.00054826797 -0.018644733 0.03004421 0.021560308 0.012537428
ago 0.047919434 -0.026506493 0.061616406 0.047792263 -0.042525724 0.018248236 0.005816674 0.039543457 -0.011727577 -0.006727651 0.027762782 -0.026385821 -0.05167237 0.028536374 -0.05990464 -0.0073865135 0.074576445 -0.019013956 0.02171854 -0.045712017 -0.05147262 0.022172324 0.009704115 0.028862694 0.038601756 0.040854957 0.042292785 0.08070725 0.018170124 0.032918207 0.013240379 0.032992676 -0.03800372 0.04918225 0.021779394 -0.009977437 -0.017565046 0.04327006 0.03232702 0.043204166 0.038700625 -0.021207802 -0.095841534 0.005534098 0.048136145 -0.002011447 -0.0647584 -0.034434974 -0.021065522 0.0068141096 0.01838555 0.013501772 0.051011246 -0.06491512 0.080570206 0.046178076 -0.026284121 -0.010702899 -0.00022817074 -0.039300315 -0.014874698 -0.023772316 -0.0478302 -0.0068028434 0.04099935 -0.039110944 -0.043628808 0.04183076 -0.02877557 0.03557307 -0.022542484 0.028469006 -0.067174256 -0.039173894 -0.09055235 -0.026121335 0.016156452 0.041545134 0.027808493 0.058752917 -0.056195527 0.05679197 0.06829756 0.0063527627 -0.030333087 0.037332203 -0.04158313 0.003427728 0.052678093 0.0038411717 -0.05936085 -0.0060133953 -0.032542907 0.039527904 0.025912035 -0.05845208 -0.056265473 -0.06790995 0.021385832 -0.04665103
1978 0.038669948 -0.028721085 0.020986686 0.009852211 -0.0071123783 -0.014920441 -0.0062243515 0.01676275 0.0043765404 0.005292828 -0.021531273 0.029293943 0.015277646 0.032791615 0.029917022 0.014471756 -0.017805219 0.012880921 0.022886686 0.0072098235 -0.031719726 0.0017236483 -0.0036422403 0.03214465 -0.0137117 0.034856804 -0.027027009 -0.009601238 0.011541609 0.0045116656 0.020978693 0.001234957 -0.0073564467 -0.055451497 0.036889903 -0.0033756122 -0.0095332805 0.034576014 0.0011761214 0.005230057 0.010570391 -0.0285235 -0.02433653 -0.013815767 -0.031171778 -0.00931654 -0.011590021 -0.03408448 0.0027527465 -0.006452017 0.02476073 0.0040122326 -0.02110926 0.0061343387 -0.01704398 0.040193725 0.002345927 0.024766536 -0.01832225 -0.00878624 0.020960113 -0.001147046 0.027952315 -0.0019110695 -0.0032013548 -0.027787806 -0.01596318 -0.023900315 0.00051566004 -0.007401087 -0.008648676 -0.006000206 0.0024957499 0.0004380336 -0.019906916 -0.015660964 0.014279565 0.011197704 -0.025227247 0.007443129 -0.008469912 -0.024484819 0.005747772 -0.027216405 -0.0030987859 0.007160829 -0.02321382 0.004874885 0.020827321 0.00071949884 0.03824265 -0.025846252 0.013574357 0.0123322075 0.014421274 -0.023491098 0.024443783 0.0074141584 0.019248314 -0.0038823597
inadvisable 0.00072120473 -0.01884331 -0.002174816 -0.0085683875 -0.00045144273 0.00064032566 0.03620575 0.023860447 -0.012407707 -0.01955189 0.014951177 -0.008972087 -0.02180981 0.0027556845 0.025170838 -0.03366457 -0.015479145 -0.037329804 -0.044492472 -3.7585305e-05 0.029292453 -0.023853673 -0.01654754 -0.0149302315 -0.012597891 0.033828042 -0.036788817 -0.017034726 -0.0030231029 -0.0158469 0.007576963 0.018026827 -0.021109818 -0.032035656 0.03379497 0.02634832 0.0074236672 0.022168746 -0.0015335432 0.022439264 0.030032013 0.038397547 0.011570777 -0.007820332 0.009293485 0.047205336 0.0073195496 -0.014301416 0.010613657 0.044531155 -0.028046995 -0.016892405 -0.0082735075 -0.012179472 0.006396946 -0.028433712 0.014670677 -0.004879027 -0.023418594 0.03618884 0.02917871 0.0018619493 0.005647912 -0.04400972 -0.017703284 -0.016729835 0.019702243 0.024038905 0.011021536 0.021935014 0.016765619 -0.011748905 0.040331062 -0.009586256 -0.008176019 -0.012270811 0.015796913 0.016087208 0.0003054648 0.030369217 0.010986617 -0.040198103 0.018668469 -0.026217548 -0.018360574 0.067540176 0.026350524 0.028720664 0.05091536 0.011572206 -0.0063450984 -0.010448291 0.026254043 -0.0337794 0.024713133 0.01532407 0.030844545 0.0061191125 0.007135957 0.021418048
general -0.0031076516 0.027606262 -0.019062934 -0.022172943 0.027644454 0.0125469295 0.047770783 0.034597937 -0.040631033 -0.023182714 -0.013642844 -0.032507364 -0.058522176 -0.016200868 -0.019797347 0.034872632 -0.009917953 -0.0014319443 0.013631302 -0.060266856 -0.005965386 -0.020752834 -0.041601256 0.00069712894 -0.007758136 0.008955757 -0.016002825 -0.046945788 0.025882052 0.031174626 0.0012542702 0.00035186848 0.00068646995 -0.029798223 -0.027263753 -0.007406312 -0.017795827 0.029138744 0.007707985 0.010149203 -0.008292821 0.021829907 0.024540981 0.05856289 0.023802046 -0.022680972 -0.031899203 -0.03479239 -0.004239659 0.031385418 0.020698126 0.0248519 -0.014679468 -0.056729786 0.0038777548 0.018195286 0.018501082 0.012311974 0.017021168 -0.019725533 -0.050359853 0.019877871 -0.025621006 0.010881802 0.010861741 -0.009592004 0.01951909 -0.06053237 -0.0005425746 -0.019546812 -0.008426196 -0.014034315 -0.018770086 -0.030354964 -0.07296649 0.0055557447 -0.0357751 -0.010719428 0.031539198 0.024945417 0.037901778 -0.02670404 0.03609906 0.021914138 0.0005786391 0.020905375 0.010397692 -0.006121086 0.018062586 0.029399935 -0.026496835 0.02495405 0.0060996423 -0.031413678 0.030822199 -0.032957938 -0.011730242 -0.004785297 -0.017129105 -0.03541723
premiums 0.002099414 -0.07635346 -0.00018010274 0.06220908 0.03303031 0.030893859 0.060738392 -0.048968308 0.0440803 -0.07199412 0.059649374 -0.012917927 0.0032679408 0.050994214 0.032055542 -0.024395324 0.012342347 0.05176565 -0.040317807 0.017348802 0.055175133 -0.021144392 0.06890275 -0.041760873 0.068104826 0.05030464 0.01026785 -0.053520743 -0.008855263 -0.050905205 -0.030646825 0.017270302 -0.0048321933 0.053444915 -0.015073815 0.061848886 0.032547083 0.04742544 0.0070690326 -0.07464518 -0.05997764 -0.013825941 0.0355189 -0.038380306 -0.019040845 0.04932692 -0.058791813 0.054464426 0.029193798 0.03213014 -0.009724967 0.066734865 -0.04389987 0.014765227 -0.06485988 0.048194986 -0.048844837 0.011847777 -0.031842053 0.06325959 -0.00914468 -0.046553567 -0.011003559 0.057810172 -0.00081044016 0.00035129453 -0.011828751 -0.039614584 -0.038582083 0.035625797 -0.046762828 0.014697371 -0.0030698199 0.0018821977 0.043107282 0.024267346 0.053645816 -0.011153269 -0.043400053 0.048765674 -0.0031566294 0.03146998 0.057894155 0.024415104 -0.037036266 0.021617217 0.029229535 0.06393824 0.02719005 -0.037462864 -0.02521901 -0.014466858 -0.062335968 0.061079208 0.043601952 0.002610049 0.06866104 0.06764929 -0.029945334 -0.056190953
lowest -0.02913315 -0.0041297036 -0.02517382 0.0030140902 0.031200511 0.015150363 0.0023055186 0.016472423 -0.012663403 -0.010955343 -0.031781066 0.02194691 0.014772801 -0.044876147 -0.016073566 -0.02003244 0.02542962 -0.007868713 -0.020958973 0.025353733 -0.005569044 0.015540696 0.025118653 0.0030902177 0.008236184 -0.022817617 0.017243544 -0.022100577 -0.002033223 0.010796819 0.0080172 -0.02701123 -0.012718726 0.018231526 -0.029096419 -0.011393446 -0.0021787875 -0.03539463 0.015201748 -0.015520942 0.003329792 -0.011495631 -0.03421222 0.020915383 -0.031037133 -0.018011613 0.0056403778 -0.05415369 -0.01596856 0.021499611 -0.02985844 0.030570159 0.036746703 0.007241411 0.025776153 0.054454505 -0.028091384 0.023631366 -0.03917725 -0.012958097 -0.0015758054 0.009183198 0.015537813 -0.0064749573 0.019955631 -0.046914037 -0.009088389 0.04177128 0.012233805 0.005195205 0.017891062 0.02726108 -0.014171194 -0.018354775 -0.031947985 -0.0111778015 -0.009187791 -0.009485121 0.012777551 -0.0011367758 -0.031696934 0.0037610622 -0.0058289 -0.010051845 -0.018241579 -0.03164957 -0.008707038 -0.010013257 -0.005426404 -0.016097512 -0.021262204 -0.04406655 0.005854768 -0.028502448 -0.026429188 0.008361806 -0.038205985 -0.0010691996 -0.032170035 -0.009503511
strains 0.020126006 0.019118734 0.031502638 0.009720454 -0.004137603 -0.04235506 -0.062623076 -0.022903163 -0.0053772554 0.02302981 -0.042950653 -0.055867743 0.016525222 0.008657568 -0.029980343 -0.026657196 -0.02536538 -0.065667145 0.038126737 0.045075424 -0.07711987 0.07299264 0.020459855 0.050642528 -0.031228285 0.012983737 0.017221665 0.06376318 0.008640084 -0.052183695 0.04661784 0.00798985 0.031101745 0.04333375 -0.03697995 0.05734301 0.030658018 -0.048245747 0.030424377 0.08483136 0.015178741 0.0580134 -0.04771615 0.028124258 0.029840158 -0.045897104 0.03817784 -0.0014921535 -0.011372352 0.009062843 0.05955393 0.036484078 -0.02375025 -0.026871562 -0.051957317 0.028524362 -0.0689012 -0.044349443 -0.051359277 0.027274897 -0.022402305 -0.0313617 -0.03451917 -0.019951472 -0.04055388 0.048199404 -0.04707681 -0.036721934 0.03103766 -0.01057427 0.039545517 0.011722916 0.0404348 0.051640585 -0.054773808 -0.04765748 -0.07718977 -0.039342485 0.002042635 0.025545776 -0.05028481 0.03966935 -0.016581737 0.059174668 0.022700347 0.040003285 0.038508933 -0.03387017 0.027261937 0.031911906 0.09096755 0.022038994 -0.030856336 -0.028453093 -0.06435639 -0.01497539 0.010175632 0.024555082 0.045992672 0.025494704
industrial 0.03709429 0.017136147 -0.008442647 -0.019690864 0.021530949 -0.0010320069 -0.0016384781 0.01399089 0.03372723 -0.028383981 0.019772595 -0.018136676 -0.028880974 -0.019955643 -0.0029830527 0.046500202 -0.0048241206 -0.0361079 0.013147496 -0.013857257 -0.0004371181 0.024869872 0.0136999525 -0.0059495484 0.028831832 -0.004216945 -0.0113386335 -0.012243306 -0.0075285514 0.019182958 0.008971998 -0.019077 -0.0054222355 -0.032203 -0.04854775 0.005232013 0.0080291545 -0.015743854 0.003961255 -0.015347428 0.018436106 0.006591591 0.007813187 -0.046097625 -0.0052898545 0.019001592 0.023158975 -0.009504916 -0.018837944 0.008468399 0.0037087672 0.012414476 -0.0074107484 0.035761688 -0.024148608 0.009852821 0.03235573 0.019603731 -0.023446966 -0.039042704 0.017204424 -0.013675131 0.002591729 -0.0010508099 -0.025467064 0.008116334 -0.0021023506 0.0047893208 0.021795414 -0.034001775 -0.02293443 0.01439295 -0.009592477 -0.030826181 -0.032324426 -0.028920412 -0.024145719 -0.0039995564 0.010262777 -0.010586528 -0.005806811 -0.0023899768 -0.01894179 0.01144262 -0.017291665 0.01874917 -0.02078501 0.01680078 0.0059884507 0.029406857 -0.037599746 0.0025566993 -0.023107983 -0.04168175 -0.013088225 0.02819213 0.041851737 -0.0053651673 0.0038618045 -0.0036936149
authorities -0.07608066 0.033164278 0.023443613 0.03804337 -0.0012071313 0.03115047 0.03719055 0.017816277 0.00035979788 -0.032971747 0.04845722 0.018141067 0.04673881 -0.026126644 0.034688238 -0.006487173 -0.010842668 0.02644817 -0.0237536 -0.0002973362 0.030951744 0.03173126 -0.015506124 0.018932236 0.044292673 -0.015080352 0.031690136 0.04357778 0.044813707 -0.021361187 0.02981746 0.0062878695 0.03475353 0.04462239 0.049513336 -0.064185284 0.007343088 0.008526138 0.027667314 -0.038781427 0.0046385434 0.007770085 -0.02442929 0.01303341 0.018216556 -0.054464255 0.0120704835 -0.021147454 0.026115026 0.023814164 -0.0016561894 -0.055618063 -0.022727814 0.010979547 0.028000202 -0.014170218 0.025624633 0.04673228 0.046309385 -0.021701995 -0.0004820074 0.005794918 -0.0092434315 0.023707276 -0.03350189 0.03160036 -0.03469613 0.011129933 -0.06586758 0.03977173 -0.028913569 0.0006751968 -0.010969675 0.06493889 0.0066039506 -0.051352337 0.021543425 -0.0076030795 -0.027682409 0.018614644 -0.015076347 -0.014915185 -0.007280835 0.0011418068 0.0026818083 -0.014373793 0.04989418 -0.036013577 -0.011283001 0.0047992542 0.0016934731 0.029816542 0.0027761671 0.056712013 0.013505383 -0.020120734 -0.008810541 -0.06512228 -0.0400111 -0.011581049
spending -0.01218407 -0.007892211 0.01968311 -0.01135032 0.00591819 -0.0051423023 0.0039678733 0.0042194473 -0.009415338 -0.002094942 -0.03178305 -0.01149336 -0.024080152 0.018585477 0.007898762 0.01143847 0.005366978 0.0025993325 -0.019514523 -0.0145722395 -0.007587827 0.03431523 0.018478468 -0.027080843 -0.005705722 -0.009521536 0.08646565 0.023547286 0.00078946364 0.019564101 0.0029592724 0.027262857 0.024359059 -0.0185026 -0.009292719 0.015827263 0.022640163 -0.021909794 -0.054715786 -0.040360436 0.009767931 -0.010062221 -0.009468906 0.04624682 0.002678892 -0.0113563 0.025494706 -0.004389396 0.004314853 -0.03458062 -0.0042123427 0.0007574877 0.012723604 -0.0147880735 0.034811094 -0.0019682762 0.054134294 0.029954378 0.026787443 -0.029467763 -0.05011841 0.02641143 0.015810063 0.028518077 0.014153134 0.01932044 -0.030214999 -0.041890007 0.006782526 0.020528657 -0.0005885781 0.006391777 -0.007943872 -0.029280812 -0.036863208 0.024053842 -0.009818068 0.02825682 0.007209147 -0.017997198 0.036580198 0.014359095 0.005158524 -0.019366767 -0.0044908477 -0.043885276 -0.03899794 -0.0067296242 -0.012535483 0.013774294 0.010919909 -0.01710828 -0.030364143 0.014118032 -0.019101517 0.03754397 -0.009146624 -0.023805048 0.031067016 0.011514758
representations -0.0075243753 -0.016864512 0.032548916 -0.006582751 0.028098438 0.0041437307 0.010089314 0.033891466 0.012770503 -0.05502578 -0.039089832 -0.012351162 -0.016970742 -0.005885788 -0.0022588992 0.035507534 -0.037064403 0.01608218 0.01288905 0.024924224 0.0062909247 0.0033030878 0.008303773 0.024070488 0.002582977 0.01618818 -0.008335294 -0.009226421 0.044497043 0.025314922 0.016350005 -0.028485648 -0.019414742 -0.00038148684 0.018326012 0.009673426 -0.012634468 0.012020167 0.023555642 -0.020299612 0.0038058022 0.02471545 -0.00015635969 -0.0054724775 -0.003140645 -0.006750292 0.01956116 0.039293446 0.014340452 -0.007948029 -0.0063627977 0.027046941 -0.009226892 0.012828007 -0.0016688753 -0.009020858 0.01474855 0.0029976186 -0.008567755 0.025434177 0.024295093 0.023748072 -0.01931174 -0.0024296734 -0.0023617547 0.021876805 -0.056538258 0.031820327 -0.021030353 -0.035204154 0.006366571 -0.0327074 0.040290035 -0.026907995 0.016050117 0.0020197306 0.018321238 -0.00045923566 -0.018935569 0.0014387927 0.034595564 -0.013608005 -0.0105047 -0.007727749 0.016859109 0.032022867 0.015564282 -0.014685343 0.02179791 0.008083928 0.016604472 -0.00854215 -0.0077957828 0.0069101118 0.009796289 -0.042099122 0.013274697 -0.016977467 0.012052998 0.041062497
wife -0.046002585 0.017490951 -0.018907 0.01533102 0.032577977 0.008622365 -0.021906935 0.0003167257 -0.0033206479 -0.021945637 -0.02067502 0.016461054 -0.0038717962 0.02286764 -0.010333664 0.008846353 0.035391077 0.009844315 -0.030106843 0.037873432 0.016017588 -0.0040016454 -0.049557235 0.025843743 0.011617771 0.01639078 -0.018793548 0.04402597 0.012590776 0.0045239166 0.014407575 -0.014403016 0.009507948 0.015951391 0.02303747 0.0065033026 0.03356682 0.0045480654 0.0077461633 -0.055514142 -0.015058389 -0.004865967 0.022888498 -0.024385199 0.011014451 -0.026651701 0.0023389247 0.014807294 0.0027653233 0.013873554 0.01590772 -0.012779035 0.007907023 0.01901376 -0.0037760828 -0.01369449 0.005173085 -0.0123780845 -0.0149984835 -0.019814054 0.0025281527 0.03257677 -0.016533379 -0.042167198 0.036403768 -0.040741652 -0.011645744 0.0056873914 -0.029911654 0.0268204 0.016841862 -0.013059457 0.034851544 -0.017176129 -0.021908585 -0.022746893 0.01800974 -0.006694071 0.005514946 8.203054e-05 -0.0067768805 -0.013147177 0.038456988 0.016486779 -0.0020207162 0.013219909 0.018638577 0.033383153 -0.021139331 -0.03666455 -0.0010490371 0.0014594935 -0.00021604041 -0.031938177 0.001108892 -0.046570573 -0.0020304366 0.00029651786 -0.019891536 -0.006393872
wants 0.00025649226 -0.02684227 -0.003424612 -0.03631058 0.015483454 0.016574876 -0.047316544 -0.027966611 0.016343625 0.026780058 -0.017494023 0.012211007 -0.04394989 0.005945606 0.0075921887 -0.024847334 -0.010834408 0.016298201 -0.014762131 0.024763731 0.03982805 0.028987974 -0.045538727 0.025087452 0.0046938136 0.013106521 -0.047733136 0.010400256 0.0003196968 -0.027297555 -0.02503746 0.017403644 -0.0066227866 -0.018130338 -0.015686568 -0.06161561 -0.0069268593 -0.047619127 -0.018433854 0.017397117 -0.018365532 -0.0036191824 -0.009427037 0.015567499 0.008595395 -0.03392249 0.013788312 -0.054843206 -0.035112184 0.023356529 -0.04422274 -0.050990093 0.008033898 -0.009953505 -0.013576066 0.0015297168 0.048760567 0.028669013 -0.00069528964 -0.017907903 0.019763807 0.011692769 0.020962518 -0.005520803 0.0074261082 0.0016956718 -0.040075902 0.036550917 -0.0074530677 -0.004226631 0.00032335706 0.0020212703 -0.02570397 -0.03087084 -0.046191406 0.035631455 -0.0050881244 0.006210508 0.011159251 0.018619003 0.013905606 -0.02211489 0.022968933 0.0002250007 0.045594335 -0.025034474 0.01865653 -0.001113249 0.015043425 0.0007375693 0.023814486 0.019750973 0.0062157167 0.010137899 -0.0057876366 0.03392146 0.007062852 -0.0047508692 -0.016293796 0.023816496
.5 0.03970767 0.03324317 0.052692387 0.02926742 -0.013532948 0.0068532852 -0.048080992 0.008353953 -0.010091581 0.061014827 -0.0245843 0.013523399 0.006928574 0.02776319 -0.0042255167 -0.030259207 0.013613153 0.011160335 0.031972613 -0.012696754 -0.061319627 0.0074016433 0.006171938 0.021317674 0.009404693 -0.01414674 0.0074700243 -0.0026519895 -0.036929987 0.026762804 -0.013994612 0.04955972 0.046715956 -7.1514136e-05 -0.03836185 0.036368843 0.034325246 -0.010784887 -0.003925803 -0.048681885 -0.019482162 0.03529078 0.008412368 0.013332468 -0.018539056 -0.009843131 0.017636966 0.025374366 -0.0359841 -0.07208988 -0.014781953 -0.022114191 0.036193006 0.0359489 -0.0055936947 0.0014270019 -0.028164094 -0.00078321225 0.021222007 0.061493177 -0.007932965 0.0036284358 0.027109794 0.0453125 -0.0027640646 0.003054532 -0.006650136 0.010241426 0.016907804 -0.0112675475 -0.010138933 0.046817597 -0.022745453 0.008718632 -0.009981828 -0.0012573841 -0.03331503 -0.028385967 -0.035712495 -0.012612417 -0.016858453 -0.0050005713 -0.00038880098 0.0013456771 -0.0009500792 0.024342066 -0.03992724 0.02181581 -0.023902792 0.0009306221 -0.0015994436 -0.005382614 -0.019325862 0.026536042 -0.03906416 0.028849775 0.04514897 0.014835605 0.059161454 0.045729574
answered -0.042277016 0.019129986 -0.0024363012 -0.017036546 -0.0070461077 0.0005516262 0.024110086 -0.038832854 0.051986314 0.036548346 -0.056547914 -0.011674623 0.0580252 -0.00759795 0.028386401 -0.013161078 -0.01564102 -0.002811147 -0.061930243 0.029772993 0.0071975766 0.03281167 0.008124752 -0.037237324 -0.013285041 0.026774907 -0.012293013 0.051829107 0.015532552 0.005642771 -0.010768961 0.03440521 -0.008194683 -0.045168914 -0.007371804 0.03446236 -0.014246254 -0.0052785333 0.026229838 -0.060036186 0.06265956 0.0826944 -0.016114222 -0.07452935 -0.04716668 0.055105194 0.027429929 -0.029640663 -0.008858312 0.0043880763 -0.021782596 0.025426388 0.009594965 -0.07323462 -0.0031135837 -0.008020855 -0.031104762 0.032819778 -0.0070082094 -0.022217482 0.01002056 -0.03755106 -0.0360734 0.034518413 0.051472306 -0.011575618 0.021535365 0.020643722 -0.026586924 -0.0025845664 -0.013716049 0.031512942 0.015714077 0.016966777 0.018014193 0.02640089 0.02499822 0.019476196 0.046883702 0.007959048 0.038880788 0.046429038 -0.07021654 -0.029187657 -0.053429134 0.010406208 0.005506963 -0.011248655 -0.007556825 -0.025279747 0.02032056 -0.01368601 0.011263096 0.047165934 0.0078098085 0.053911082 0.05011017 0.07782234 0.0267086 0.021787139
set 0.0037358257 -0.0055282726 0.010546941 -0.029537903 -0.020609986 -0.00902351 -0.013413543 -0.012488778 0.0024945813 0.04532759 0.042266652 -0.020445246 -0.007614538 -0.024844388 -0.011080991 -0.014596638 0.04861207 0.029756675 0.011436276 -0.0068224613 0.0015436002 -0.013838647 -0.024794757 0.013727022 -0.0007851826 -0.00571626 0.009633305 -0.017235678 0.007819289 0.0078089396 -0.003280761 0.02343183 0.012128499 -0.030076362 -0.022683177 -0.0022900195 0.0030996467 -0.017257124 -0.011692968 0.018032447 0.014904873 -0.009678157 0.009069808 -0.008919898 -0.004163483 -0.0027987952 0.008680948 -0.0025286882 -0.023952844 0.004574579 -0.0056484537 -0.0048167645 0.0038626469 0.019210745 -0.010080291 0.016986959 0.0035055946 0.010698354 -0.0007246501 -0.019874347 0.019399773 -0.0112031605 0.027382264 0.035142884 -0.032492973 0.010950533 0.014491692 -0.00854337 0.011878495 0.010330393 0.0271253 -0.035198823 -0.006734053 -0.057673756 -0.024684211 0.025514929 0.00016468225 0.005550174 0.010142878 -0.009124392 -0.009542164 -0.021087153 -0.0037944806 0.028650109 -0.0017146079 0.037480734 -0.023908162 0.027706819 -0.00048322917 0.03477069 0.044443052 -0.021351315 0.025432456 0.016947074 0.01726119 0.003963737 0.00026595237 -0.01526089 0.00978078 0.021240925
objective 0.00247768 -0.005415017 0.025413847 -0.02705159 0.007460641 0.0013427187 0.008553646 0.00037172454 0.012414834 0.040916145 0.039499328 0.027712982 -0.013469439 -0.01582855 -0.010176925 -0.009161082 -0.025155904 0.0116830645 0.009747128 -0.003556614 -0.017875463 0.052931007 0.04194761 0.01741597 -0.008623017 -0.027918138 0.017288657 0.026512347 0.01698877 -0.031990133 0.014535858 0.000562341 0.0065765674 0.020011669 0.00065525435 -0.013642969 0.044765256 -0.011712245 -0.0076132794 -0.009931246 0.014029932 -0.0046322704 0.011079459 -0.0052832603 0.011479118 0.00016864612 0.0053219325 0.031277683 -0.016791046 -0.043190517 0.025942422 -0.0071873358 -0.022221774 0.05007439 -0.010113821 -0.0101597505 0.008803933 -0.005406583 0.002170757 -0.032024726 0.02963217 -0.014636456 0.020468477 0.017701587 -0.004137919 0.078606784 -0.029597946 0.006934724 0.016664183 0.015116613 0.0033720639 -0.020168412 -0.0009020229 -0.011115029 0.030103475 -0.008316662 0.013055484 0.025160894 -0.026792362 -0.0026680345 -0.005371059 0.0027782705 0.03346785 0.014872754 -0.017188182 -0.007320501 -0.03257554 -0.01696915 -0.008436143 -0.005997845 -0.008875105 -0.020609854 0.010760973 0.04543732 -0.016431997 0.0037767973 0.014893324 0.0019760032 0.012796423 0.00823743
schism 0.02116703 0.053208455 -0.0104725165 -0.0093478365 0.02205879 0.034782086 -0.0055890763 -0.025237244 -0.005942682 -0.0236057 0.0028731306 0.017466929 0.008359896 0.023083478 -0.017590778 -0.010132541 0.02780497 -0.01275654 -0.026845463 -0.013712111 -0.0062912935 0.026718974 0.020407047 0.012199942 -0.002841554 -0.0027814442 -0.038701598 0.010610872 0.0111511005 -0.0054154294 -0.0029329571 -0.00406071 0.00023082309 0.052179836 0.020564929 -0.0054396666 -0.0028460773 0.029402204 0.042304546 -0.044585403 0.012868464 0.040441945 0.040848833 -0.006840497 0.045241695 0.020596886 0.008706821 0.019731496 0.006948651 -0.000977386 0.009513735 -0.019126244 0.012183803 0.027540095 0.009620395 -0.022264915 0.010904646 -0.016041558 -0.01842534 -0.010607814 -5.9441547e-05 0.013618185 -0.010657223 -0.019888956 0.018521098 -0.0043310695 -0.025095982 -0.016191782 -0.02755363 -0.011079443 0.012829303 -0.014980138 0.008608836 0.037133925 0.014820369 0.021710923 0.021695139 0.006111203 0.0439137 -0.020135611 0.007478362 -0.010456036 -0.015972419 0.028033888 0.0008624266 0.008219891 0.023554897 0.0056752036 -0.004689161 -0.02199927 0.01246841 0.0058513926 0.0131526245 -0.03981874 -0.0049848175 -0.005424738 0.021666966 0.024400214 -0.02640065 0.019887768
beginning -0.021794267 -0.013343472 -0.011033413 -0.016667001 0.0035394095 0.014296665 0.033538397 -0.0348373 0.019113714 0.016543655 0.009821523 -0.016635792 0.019577283 0.004269197 0.03371008 0.0105997585 0.030360926 0.023797257 0.008694936 -0.0026384257 -0.0049337903 -0.014161483 -0.014303195 -0.005046868 0.0062240846 0.011506072 0.035887443 -0.019550484 -0.04842025 -0.021600608 0.024478365 0.002782084 0.010645619 -0.001352119 -0.011777258 0.005851096 -0.02434183 -0.009969338 -0.0075703547 0.01912638 -0.007052361 -0.032901492 0.026605068 -0.026656821 -0.028492838 0.011227796 -0.009754814 -0.00051079044 -0.031689193 -0.03411322 -0.012828156 0.0031520482 -0.03811905 0.029029295 -0.012602439 0.010362073 -0.02594187 -0.04780974 0.020373436 -0.0183412 -0.017699758 -0.014088344 0.0154378 0.01710642 0.033110935 0.01008838 0.018495785 0.010557203 0.027998555 -0.0004749 -0.01907082 0.02061648 -0.0015043666 -0.010925037 0.021120919 0.024711855 -0.008267294 -0.008616271 0.028775264 0.02071185 -0.004188088 -0.025679218 -0.010760183 0.024978999 -0.014748833 -0.033013724 -0.0104922615 0.03039334 0.0038981321 0.018835904 0.0073811016 0.012256815 -0.025045045 0.012097682 -0.014128906 0.0030726097 0.0038026099 -0.0042752298 0.021599008 -0.009040786
compulsory -0.01794512 -0.019805437 -0.04083771 0.030753374 -0.018926524 -0.011774102 0.012206024 -0.016699178 0.008347188 0.02045073 -0.039981335 -0.0025647075 -0.0021083676 -0.026033336 0.029030416 -0.03955739 -0.0066955853 0.002064713 -0.018621292 -0.021668293 -0.05432391 -0.0050823796 0.03586926 -0.007875863 0.00032532023 0.008089438 -0.034353837 -0.047313575 -0.0141486935 0.010592541 0.031641666 -0.019003782 -0.030689694 0.014884886 0.042480603 0.006803307 -0.01797072 0.014785833 -0.007051221 0.03295096 0.0010033837 -0.0031551737 0.015949091 -0.022854712 -0.023225363 0.026197676 -0.0090452405 0.025001934 0.06387763 0.02100775 -0.07005204 -0.011919376 -0.026830927 0.03422323 -0.004114856 0.0039316257 -0.022125758 -0.0037510928 -0.0058996575 -0.012513392 -0.0037659456 -0.031684663 -0.036441058 -0.026431177 -0.025903111 -0.03696488 -0.01965281 0.004977478 -0.034701277 -0.01708557 0.022646582 -0.01782235 -0.0068293433 0.017330948 0.031307414 -0.010197554 0.02406787 0.024166983 0.015534231 -0.017188149 0.011079559 -0.0035547896 -0.0064469567 0.031498738 0.0014758615 0.036543697 -0.017150553 -0.022073336 0.008046752 -0.03907712 0.0056537306 -0.027623769 -0.021689354 0.01161445 0.034469243 0.015869943 0.024825487 0.013084747 -0.050810568 0.026268236
Bill -0.035036758 -0.011433625 -0.011748111 -0.02575375 0.006760985 -0.019761398 -0.024947362 0.023751741 -0.013820907 -0.030084547 -0.0035376674 0.002141948 0.023173654 -0.0003361456 -0.013686767 0.017555408 0.019788234 -0.00045106673 0.0035720933 0.034649014 -0.028192494 0.012056646 -0.0467138 -0.0017173192 -0.011807095 -0.002950455 0.01534427 -0.009777624 0.044516873 -0.00021870939 0.025766136 0.0042479103 -0.0028389313 -0.004169432 0.006701674 -0.011980061 0.022614907 0.012023192 -0.0059526316 -0.012163003 -0.017812 -0.009419518 0.0027479613 -0.012399213 0.022448493 0.0025625546 -0.028701628 -0.0047295326 0.046552725 -0.038288783 -0.006239147 0.019012412 0.0021208716 -0.029639529 0.016704116 -0.0019841574 0.028233185 0.027339643 0.0063068024 0.024315754 -0.024460008 0.02413786 -0.028846247 0.023516696 0.008237682 -0.002082369 0.0051512886 -0.021969685 0.011945645 0.010631973 0.024982825 -0.047653522 -0.027372021 -0.014820035 0.018888041 0.01211134 0.026174745 0.008586166 -0.010350359 -0.0025568584 0.029077804 0.017327202 -0.023605553 -0.008896702 0.027144346 0.022406906 -0.038306374 0.0070462376 -0.0013843052 0.011221108 -0.0028089506 -0.001763047 -0.004595781 0.048380908 0.028140659 0.021075659 -0.00015584868 0.045140468 -0.0069987252 0.008836788
lesson 0.0020958297 -0.009887681 0.018851299 -0.00588971 -0.010427074 0.021908501 -0.013650952 -0.014316464 0.004863685 -0.0029479405 -0.01757094 0.0283942 0.047437098 -0.027876487 -0.03203585 0.012338166 0.0015457286 -0.0060687438 0.043946836 0.043194138 -0.0343573 0.0060354993 -0.015398718 -0.013652626 0.0104852235 -0.04383117 -0.07580727 -0.023438465 0.03429729 0.02523491 0.030644545 0.019671598 0.02941469 -0.005132198 0.022715753 -0.0448492 0.030997692 -0.022532636 0.011700186 -0.027326748 -0.002518772 0.037287656 0.0024593174 -0.037586983 0.038516328 0.012981358 0.004273194 0.020473214 -0.0149499485 -0.009581801 -0.0022581487 0.02024697 -0.030963013 -0.02949607 -0.018252661 0.03622638 -0.038150337 0.016041638 -0.043409903 0.0323839 0.031246005 -0.042848863 -0.018478045 -0.015511725 0.0049059023 -0.014488466 0.031033104 -0.029383287 0.020497385 0.0453069 0.009839085 -0.03465311 -0.030606417 0.027096232 -0.03679952 -0.008085266 0.022716425 -0.030198459 -0.02108236 -0.05148201 0.005055986 -0.029150242 -0.0117774485 0.013649775 -0.009790006 0.050472055 -0.02749839 0.01507661 0.04260188 0.0068030073 0.007203103 -0.029628757 0.013979928 -0.0037801669 0.008521185 -0.011977807 -0.03143629 0.0060172738 -0.06609396 0.01938332
engine 0.0060858177 -0.004167132 0.007930558 -0.03485691 0.020377666 0.030561242 -0.025177382 0.05765489 -0.018846469 -0.0022577979 -0.037151854 0.009099977 0.0024235607 0.007827733 0.001017497 -0.010711619 -0.009522733 -0.031735472 -0.0024840664 -0.0026463086 1.1176802e-05 0.015359632 0.040712334 0.030364694 0.040733736 0.026074545 -0.0098228855 -0.030162001 0.03363784 0.024703728 0.010320192 0.027743494 0.018856606 0.0022053518 0.011328366 0.012587238 -0.0032323368 -0.03704393 -0.0064129448 0.024980705 -0.01582042 0.022036456 0.006252858 -0.037579183 0.01662056 -0.0034839902 -0.014586161 0.03188103 0.023373138 -0.01073209 0.024390781 0.048357222 0.005538403 -0.017716132 -0.013737521 0.011873981 -0.021965357 -0.049311016 0.020531084 -0.021462 -0.010280207 0.0067624305 0.055002596 0.0016455066 -0.0015602058 0.02863914 0.026080105 0.021493359 0.023571601 -0.025631355 0.008655861 -0.004639912 -0.011942324 -0.003941771 0.024244945 0.030418241 -0.013385351 0.0005667366 -0.0048979735 -0.021868052 0.06677368 -0.015518961 0.019245446 0.017208187 0.01034303 0.020875255 -0.0073456247 -0.012878542 -0.01547651 0.018446643 -0.0010883281 -0.006831796 0.020120893 0.031116126 -0.039825164 0.017967219 0.006847015 -0.0058823335 0.01264154 0.0059366412
Expansion -0.024008922 -0.00046093564 -0.042213634 0.0236839 0.0017726598 -0.0008095644 -0.015210831 0.008986826 -0.03853358 -0.013223191 -0.0033523072 -0.03428049 0.0038330627 0.02974448 0.032589443 0.008691767 0.018713837 -0.046671525 0.0068351245 -0.009596965 0.0055188704 -0.037017424 -0.03839086 0.0033033157 -0.020102112 -0.005508415 -0.002014649 0.015147154 0.034451284 -0.002374926 -0.01529755 -0.024037628 0.0011735989 -0.058299914 0.012285892 -0.00818021 0.015227335 0.04141698 -0.017384473 0.03020523 -0.019985838 -0.01821535 0.008237222 -0.0068346336 0.017601736 0.014708837 -0.014351988 -0.0058884523 -0.013746709 -0.019293994 -0.013395279 0.019367805 0.03757258 0.024756085 0.0005489404 -0.011835255 0.01209203 -0.019477367 0.005146385 0.010171947 -0.019195104 0.009685943 0.0041761016 0.027547827 -0.022114968 -0.023449872 0.023305193 -0.002414953 0.033553828 -0.026021052 0.003170248 -0.048783034 -0.00021074995 0.021572199 0.00033395333 -0.021431027 -0.0055364976 0.015956204 -0.0015489138 -0.013107893 0.014006728 0.015916605 -0.0016532616 0.006135474 0.010206403 0.01723185 -0.034721058 -0.0064008487 0.013101552 0.022236582 0.004007315 -0.033774067 -0.018946558 -0.023335127 0.008978911 0.005162094 -0.0059005166 -0.038075708 -0.0119691435 0.026817758
madam 0.046368394 0.0049698204 0.029253403 0.0029394021 -0.029966624 -0.036939103 -0.022979144 0.033741515 0.02051686 0.055259883 -0.03847158 -0.001940873 -0.028117739 0.032582503 0.015269495 -0.004507248 -0.006387162 -0.018978313 0.021269713 0.030098744 -0.044208124 0.009460558 0.00767835 0.025338614 0.0116540985 -0.028527938 -0.037518103 -0.03007743 -0.056837525 0.017797215 -0.0095978845 -0.0010493573 -0.034886103 0.016590102 0.029845828 -0.0061506196 0.026127456 -0.042382356 0.025183637 0.03289823 -0.023501817 0.0067860987 0.007862052 -0.023240546 0.0055163037 0.032754537 -0.018104317 -0.016251888 0.009575015 -0.022686334 -0.016641239 0.0015682705 0.008608733 -0.037044935 -0.029304499 0.010110548 -0.03495428 0.0018623107 0.029868897 0.008726129 -0.022631275 0.011926199 -0.028931517 -0.016431956 -0.0013027175 -0.018689739 -0.042206887 -0.0075454284 0.021057239 0.03466683 0.0067766802 0.0061580483 0.0076573496 0.015895233 0.029204812 -0.030571483 0.008303388 0.035909448 0.0058237445 -0.010720374 0.021607269 -0.015244445 -0.0189374 -0.018636191 0.0022679777 -0.0031403678 0.020737391 -0.005685429 -0.010726977 0.027385397 -0.023296172 -0.011823953 -0.023341797 0.013147294 -0.002620386 -0.022327002 0.008096559 0.046321057 -0.038529046 0.023772608
technology 0.012381742 0.043767594 0.008691234 0.01497664 -0.0073768925 0.04774192 0.00010072475 0.020302972 -0.00791087 0.0173996 0.0064169234 0.011646603 -0.004943628 0.01706281 0.0111551015 0.03351334 -0.011147157 -0.025417406 -0.0037785394 -0.0021054782 0.0040915776 0.0124622 0.0018599783 0.01545583 0.009683022 -0.0029561927 0.018663902 -0.00013211777 0.017684242 0.005675799 0.035709713 -0.0033354694 -0.017724875 -0.023860833 -0.007018901 0.037814565 0.021235127 0.010945149 0.0051201177 -0.011092795 0.029233955 0.005508924 -0.00070046145 0.004461611 0.010090646 0.016958725 0.0064531276 -0.02233739 -0.04209597 0.01698302 0.019542094 0.0024049873 0.021057203 -0.0056615868 -0.0071947714 0.021506364 -0.0026301048 -0.0018897583 -0.02681273 0.011254566 0.005599952 0.00012127157 0.030365435 -0.046113428 0.019446556 -0.0036727984 -0.034084674 -0.01672378 0.0056792973 -0.004662598 0.020826865 -0.01317935 -0.011798229 0.018779967 -0.0026846216 -0.0037886186 -0.0336223 0.014950656 -0.0036641974 -0.023924911 0.006154882 -0.00044993844 -0.022772186 -0.022403818 -0.03420231 0.021800524 -0.021159574 0.03911026 -0.015788913 -0.01421216 0.009507009 -0.01894835 0.0032289044 -0.05470876 -0.0059350803 0.013279438 -0.0009504389 -0.014136954 0.023998266 0.010844428
used -0.016812038 -0.031183884 -0.03416896 0.008362896 -0.01799606 -0.033905853 -0.026879221 -0.0020976055 0.041766867 0.042454273 -0.015000626 -0.013710485 0.008966206 -0.031229043 0.039573237 0.008782252 -0.01737717 -0.01946074 -0.016215794 0.0076835044 0.0012916495 0.012265115 0.04270076 0.04682501 -0.034315135 -0.0542191 0.01900398 -0.036028404 -0.04408726 -0.00028442242 -0.009301216 0.006269575 -0.04807195 -0.0015021851 0.0020641468 0.014141912 0.02271102 0.023811385 -0.0067044892 0.07141044 0.013919724 0.018291753 0.042277228 -0.030481165 -0.024141198 0.0047900346 -0.019572528 -0.019903656 -0.006356892 0.013229724 0.02122286 0.011692418 -0.0070521473 -0.01473452 -0.002130657 0.00971201 -0.0030099393 -0.003229647 -0.04090524 -0.0017969373 0.019568289 -0.041206233 -0.04170449 -0.035040174 -9.238394e-05 -0.00788302 -0.017569361 0.026325714 0.026433706 -0.01329905 0.0072034993 -0.008459031 -0.010033918 0.0076922327 0.05106282 0.026618874 -0.007308063 -0.024075912 0.064407855 -0.018806411 0.00018476191 -0.013862253 -0.029053872 -0.01188296 -0.025322929 0.0022527713 -0.027292794 0.024987115 0.004806988 0.01638648 -0.0066624656 0.06814942 -0.016430752 -0.028965387 0.011438839 0.038788136 -0.0011388815 -0.009971 0.035205424 0.046479777
change -0.02506857 -0.017026091 -0.02193651 0.016668856 0.023990067 0.010540964 -0.009636429 0.007999794 -0.0013746442 0.0020768302 -0.037517004 -0.02033885 -0.0061223195 0.015188388 -0.02351945 0.05741252 -0.02541555 0.011301782 0.006831941 0.010274625 -0.020867849 0.03777789 0.009456511 0.010833315 0.006044002 -0.01849059 -0.0009987429 -0.031634178 0.028785005 0.013165399 -0.0025794704 -0.0053298026 0.005598198 -0.026476286 -0.0105864145 0.04797936 0.008557392 -0.00797563 -0.014519468 0.035102364 0.0027639526 0.0023284685 0.014464089 -0.024194777 0.00018180627 0.023310311 0.012317729 0.010076078 0.0034023044 0.017319344 0.013338983 -0.00077143975 -0.0030283628 -0.0052475664 -0.022624327 0.05051406 -0.019935211 -0.013246998 0.00036272602 0.0085490635 -0.0052571804 0.0042308155 -0.020085244 -0.0296338 0.025681287 -0.021103444 0.013588631 0.008184485 0.028171951 0.020552479 0.010214672 -0.017379891 -0.03649629 0.008585736 0.0041732336 -0.0058496543 0.024016751 -0.01760955 0.0113589605 -0.010943188 -0.0032714652 0.0037586796 -0.012283659 -0.039776742 -0.006414868 0.008568638 -0.019349463 0.005992591 0.0147661865 -0.015949713 -0.0011223374 0.004052872 -0.013622523 -0.019574353 -0.054863833 0.0038596026 -0.016852437 -0.008281279 0.01437195 0.023991683
Montreal -0.044675827 -0.0029049257 -0.028959857 -0.01795316 0.0013026862 0.0027908257 0.0037862235 0.0008798081 -0.017194368 -0.024272282 0.029642122 -0.005238406 -0.030272193 -0.027101701 -0.0017810019 0.019950325 -0.0055116545 0.0057917354 0.018415503 -0.0037781373 0.0073802816 -0.01296539 0.00089377357 7.014163e-05 0.0032583831 0.0068307673 -0.022192128 -0.029027285 0.0032647469 -0.034573767 -0.0042402353 -0.038212035 -0.023800619 -0.017667944 0.018169753 -0.007797366 0.01118769 -0.00086527265 -0.010567428 0.027029889 0.0016028723 -0.012729523 -0.016667537 -0.029771129 0.029518884 0.004023096 0.0056831376 0.011483234 -0.00848383 -0.007271979 0.018327458 -0.0036344186 -0.011101285 0.016076684 -0.020742515 -0.053064335 0.008491008 -0.01483564 -0.03170235 0.030108217 0.037307438 -0.009233031 0.012474383 -0.040226046 0.0026833958 0.0016753275 -0.011119163 -0.017821578 -0.027314195 -0.0050166547 0.014952121 -0.03830227 -0.0005468057 0.027061848 0.034049373 0.034243766 -0.019930406 0.05092647 0.033614386 -0.0134815695 -0.030364102 -0.028587323 -0.013589631 -0.003503045 0.0088333525 0.035009295 -0.01882894 0.00757739 0.0063688853 0.01777051 0.011978 0.0124846585 -0.00908768 0.018420564 0.0047903163 0.0033659618 -0.004128119 -0.03091503 0.029796258 -0.024743803
element 0.009752081 -0.02756423 0.0010517254 0.013073817 0.009627583 0.009614678 -0.041303743 0.012015409 0.0030033565 0.024088427 -0.02188586 -0.01908845 0.023545045 0.030028673 0.0138631305 -0.010439683 0.010584689 -0.0028477516 0.045389067 0.016561117 -0.014914749 -0.00389576 -0.041710537 0.066588946 -0.009404588 0.020063112 -0.020207379 -0.010113914 0.002954337 -0.029890036 0.026122162 0.012366692 -0.001135225 -0.0059323204 -0.02056982 0.05427378 0.008022194 -0.0051983315 0.023963101 -0.014032743 0.019828716 -0.02092733 -0.0061438507 -0.016999712 -0.016954634 -0.022779804 0.010488853 -0.03829322 0.0033749193 0.011977986 -0.005204967 0.020654079 0.004304489 -0.01224792 0.018763995 0.018140843 0.0073831137 -0.011285296 0.014332599 -0.02045162 0.025953935 -0.003913271 0.012597656 0.00180974 0.030752754 -0.036636855 -0.02455492 0.03728137 0.027451789 -0.0104146935 0.006199424 0.015225293 0.0061073704 0.008251859 -0.026742652 -0.011716259 -1.1071057e-05 -0.00055781216 -0.0068973564 -0.01522483 -0.011256468 -0.025318839 -0.027684644 0.0097617535 -0.05155564 -0.009184245 0.021698203 -0.0034565502 0.020777868 -0.01112175 -0.03701208 -0.0032168727 0.0043627443 0.005122074 -0.010710849 -0.018813927 0.026774054 0.018847035 -0.0023224892 -0.0044302084
heritage 0.01595712 -0.044477765 -0.015646264 -0.022226583 0.0055770893 0.008179696 0.043594018 0.008363502 0.0014997756 -0.010763717 0.061320815 0.010722577 0.006914157 -0.026479252 0.03049078 0.0059294626 0.0011528665 -0.008256868 -0.039539333 0.022100898 0.04875286 0.04764507 -0.024536157 0.038437054 0.0134255085 0.016783023 -0.0098863095 0.022166781 -0.0029510825 -0.035369087 0.006161318 -0.0027088886 0.011351672 -0.03956332 0.023936871 -0.0016100756 -0.012502599 -0.0031318231 0.0029775596 0.012490844 -0.022744074 -0.026217086 -0.0047851144 0.022612233 0.00973952 0.010537409 -0.011879554 0.005118835 -0.017621478 0.00715511 0.020228121 -0.033544276 0.006209757 0.004872692 -0.01056883 0.014798129 -0.009843603 0.020243535 0.022384424 -0.008951321 -0.0037671917 -0.00010361083 -0.012922851 -0.004251587 0.027811605 -0.00084281754 -0.009215675 0.023132252 0.00019296653 -0.011305856 -0.02670633 0.026226185 -0.0007183931 0.021003898 -0.0064828317 0.013546939 0.0148183 -0.0009359062 0.0019258485 0.0019765259 0.012802562 0.0072950046 0.016824601 0.00665714 -0.0054235933 -0.015301245 0.039302237 -0.016820028 -0.025276905 0.012449168 -0.0061233984 0.046605077 0.026792675 0.009195782 -0.045350607 -0.0056601204 -0.011534706 -0.032151397 -0.005611774 -0.0099633485
responsible 0.014249922 -0.026519971 0.009599331 0.034188937 -0.0041153757 -0.022694638 0.0131056635 0.026526546 0.020776985 -0.010268321 0.027308267 0.029329846 -0.002227366 0.016703399 0.032041788 0.02000393 -0.031184606 0.0056647835 0.01671448 0.017702635 0.010225996 -0.0032184115 0.001659629 0.025108084 -0.00940533 0.001261805 -0.025245024 0.004182872 0.030058287 0.03225119 0.010511609 0.023937311 -0.011188789 -0.002474075 0.030113073 -0.0032174303 -0.043348826 0.009423114 0.0059956647 -0.0017204438 -0.000979993 0.022968715 -0.012385566 0.022139193 -0.009596402 -0.0072682044 -0.015156642 -0.00540745 -0.009321859 -0.0017368089 -0.0064859716 -0.004277135 -0.031540424 -0.05180172 -0.033262044 0.035003703 0.023459446 0.022719812 -0.0015640014 0.0034398679 0.010434771 -0.0018202582 0.0034909844 -0.0024983918 0.0044882316 0.029864004 -0.018431911 -0.0040889448 -0.019934574 0.0066349073 -0.014472878 0.008651824 0.029316321 0.015863726 -0.02005671 0.0046956483 -0.009521645 -0.011246156 -0.03252397 0.009439385 -0.0074188113 -0.024482816 -0.00040028023 0.047493182 -0.0071687824 0.03915332 0.029084515 -0.011616589 0.017552784 0.010326903 -0.009318073 0.008948138 -0.010635162 -0.004983589 0.01641351 0.002043257 0.040666692 0.02276082 -0.007828991 -0.028871106
continue -0.010141524 0.012023218 0.028095117 -0.017842643 -0.002785664 -0.010004798 -0.049279805 0.007092989 0.024100417 -0.0014303965 0.029789137 0.033309378 0.024417063 0.016813945 -0.008977428 0.0010199074 0.032926645 0.041196115 -0.04724284 0.04570708 -0.040436402 0.006433987 -0.024848556 -0.006879467 -0.02847389 -0.026847782 -0.039407175 0.041572627 0.01497188 -0.031738456 -0.00769547 0.007885759 0.009344477 -0.030511752 -0.04277931 -0.011401116 0.030138236 -0.0022743368 -0.020017978 -0.039943166 -0.03072881 -0.03951485 0.056963827 0.03551803 0.014388567 -0.009998953 -0.02513717 -0.033021946 0.018175613 -0.0085443035 0.039935272 -0.006466803 0.009200516 0.020070575 0.017305663 -0.018738294 0.014136371 -0.015612151 0.020951657 0.024385996 -0.0006974995 -0.0077047227 -0.041572943 0.03922854 -0.005859602 -0.03344426 0.0021500627 -0.031754848 -0.06593704 0.049925037 -0.027866194 -0.007198542 -0.020540502 -0.0009894662 -0.015897574 0.008535793 0.015854884 -0.029952362 0.0060361484 -0.011559134 0.005653502 0.02345837 -0.01785295 -0.0054913433 0.02159017 0.010822747 -0.030229025 -0.016357172 -0.048541747 0.033037696 0.003767544 0.030122219 0.056612372 0.014140873 0.023827948 0.0081271315 0.014400445 0.0034759247 -0.004449295 -0.0026532048
evidence 0.024983704 -0.034709916 -0.04415001 0.011172563 -0.024300858 -0.01259483 0.04984033 0.009196871 -0.03579806 -0.002493334 0.00025327038 -0.0122669395 -0.001885029 -0.010188276 -0.039845522 0.02832102 0.008873861 0.025327165 0.040198937 -0.01243633 -0.0036320896 -0.015294144 0.0069042784 -0.031024005 -0.018129617 0.014797483 0.024882244 -0.019520512 0.012544565 0.038869604 0.039886124 -0.02654731 0.0034242924 -0.043794524 0.016928036 0.0021741237 -0.02233037 -0.001690219 0.017315028 0.018182065 -0.024468537 -0.037417043 -0.016750216 -0.021545071 0.012253793 -0.050592802 0.02173418 -0.0059949253 -0.0018670833 0.0036334444 -0.037947964 0.00075065315 0.018760853 0.013889611 -0.016940262 0.033618677 0.027440665 0.015341204 -0.029479157 -0.023768906 0.02647536 0.008642461 -0.0120755145 -0.003013074 -0.010264047 0.0019567902 0.015066571 0.04843448 0.007661338 -0.03430227 -0.016371986 0.004645747 -0.006019401 0.022339527 -0.06727502 -0.013185768 0.010483192 0.050916493 0.019594295 0.013386659 0.008949813 0.014892786 -0.012039929 0.03571376 -0.0043618716 -0.0052071456 -0.008034531 -0.016466537 -0.027469356 0.038433343 0.002963339 0.006561057 -0.031920288 0.007264242 0.023224298 -0.028388638 -0.07624262 -0.025276043 -0.037875287 -0.017049167
pervasive -0.010375689 -0.034478754 0.013763265 0.010277522 0.0044296333 -0.015253349 -0.014672334 -0.041114323 0.0057872063 -0.0029238898 -0.022728227 -0.020872297 0.008172837 0.00178404 0.0057288986 -0.0033999116 -0.0077061015 0.015150359 0.0116961235 0.011789488 -0.018392274 -0.018418586 0.012909656 -0.0123399375 0.0010316514 -0.021199705 -0.050971553 -0.029068734 -0.004567 -0.00074470683 0.000113209964 -0.0032865847 -0.016835142 -0.0029406613 0.013578278 0.029669326 -0.0064612795 0.034128226 -0.042684622 0.03943834 0.0022596642 0.0047258334 0.0025755276 -0.012788794 -0.018422749 0.037838418 0.00963627 0.019072786 0.021689095 -0.018078316 -0.009962989 0.025886614 -0.019042686 0.007827247 -0.0038568578 -0.000119485565 -0.0048468136 -0.014290183 0.016933115 0.007550666 0.0017429966 -0.035672788 -0.0015001289 -0.0113121355 -0.01742198 -0.008243999 0.002698098 0.0058234 -0.0035638018 0.009261569 0.007867569 -0.05303787 -0.012689183 -0.009004762 0.025295455 0.003496344 0.002795079 -0.021722572 -0.040657967 -0.016564589 0.016247457 -0.057865217 0.01120003 0.00035382633 -0.010730215 0.014628112 -0.023073418 0.01504127 0.022792475 0.02440583 0.0072929114 -0.010178863 -0.009544508 0.05106364 -0.03201522 -0.0016765485 -0.014805328 0.0008999561 0.014505287 0.0005432148
agreement -0.045219496 -0.0030283781 0.006470176 0.003994239 -0.0062102443 -0.032804664 0.020314287 -0.0070846565 0.024479501 0.042850237 -0.001581176 0.032173816 0.0054313582 0.05131804 -0.02699457 -0.0015890563 0.0019335141 0.03037146 -0.00218156 -0.009554907 -0.003940203 0.031193849 0.02936848 0.014514397 -0.02271099 -0.013864222 -0.0063732825 -0.03972166 -0.011604996 0.013787927 -0.022858793 -0.011821187 0.001732365 0.009330596 -0.014891401 -0.0059492458 -0.010149687 0.027608082 -0.024145346 0.05600556 0.057357553 -0.020250363 0.047392666 -0.045840092 -0.012240354 0.042076252 -0.071628116 -0.022460612 -0.0006047634 0.04250077 0.0115386 0.00061052735 0.016661054 0.036456496 -0.0016440562 -0.036317866 -0.031742275 0.015791705 0.04118881 0.008745529 0.03007999 -0.002413714 0.010875376 0.020151291 0.025572175 0.0025724114 -0.021516694 0.02799847 0.008996792 -0.011072949 -0.009353819 -0.001846134 -0.045009416 -0.009822635 0.04885835 0.01660919 0.0018220241 -0.039649602 -0.034548175 0.004968732 0.012157259 -0.042539377 0.04592582 0.011197623 0.0071033705 -0.035737313 -0.053318534 0.06208349 0.009093246 0.033829473 -0.009437792 0.020539198 -0.00013416877 -0.012837472 0.018535485 0.050877906 0.0027672257 -0.025011977 0.03582437 -0.00931952
get 0.011414389 0.020704744 -0.031195382 -0.0076607405 -0.08684478 0.0271758 -0.0236362 -0.014249872 0.01655514 0.018571004 -0.025873106 -0.034081306 0.0037209487 0.051083814 0.02180465 -0.060354013 0.023258857 0.02900572 0.044798866 -0.029792828 0.006900059 -0.013029639 0.05909852 -0.059046566 0.027093573 0.012153056 -0.031387273 -0.08957302 -0.034027077 -0.038277525 0.026770122 0.057100028 -0.004204204 -0.0017056104 -0.04100499 0.025482818 -0.0023730071 -0.037601072 0.0102383625 0.021968437 -0.0077751307 -0.017936785 0.019402768 0.03689925 -0.04918095 -0.019235978 -0.014956299 0.0008264727 0.037919562 0.03122933 -0.014984095 0.019342301 0.022086672 -0.012477579 -0.042426206 0.005110456 -0.018714475 0.047642138 -0.04230479 -0.02344715 -0.0066339513 -0.03659331 0.050306052 0.02230317 0.031948768 0.06655439 -0.034820996 -0.054256074 0.0033316934 -0.051292837 -0.031259708 0.0021590511 -0.03696414 -0.0648539 0.013791984 0.033858143 -0.021750249 -0.023606343 0.0018827836 0.044030532 -0.029844401 -0.04300314 -0.04420217 0.020386767 0.055049066 -0.055167347 0.032096352 -0.022127723 0.06940571 -0.031042676 0.015519791 -0.008087823 -0.019363753 -0.04785711 -0.005677291 0.014111332 -0.012718684 -0.03945165 -0.016118962 -0.025682759
Speaker -0.035238806 0.008026627 -0.010383041 -0.025650764 0.0019720763 8.903083e-05 -0.009177157 0.009189723 0.009288746 0.0062330915 -0.0067264996 -0.013844282 -0.008035546 0.002976939 0.0058693965 0.036559686 -0.038667995 0.00054145633 0.02209267 0.00035392496 -0.019838793 0.021621864 -0.010944076 0.009781206 0.0015966843 -0.012519075 -0.0007620231 -0.06795823 0.06985048 0.017956998 0.023585897 -0.045999154 0.009131677 0.017912203 0.0036034873 0.0020277528 0.030684294 -0.0010896219 -0.050486162 0.035190374 0.0046532317 0.018526567 0.06255865 -0.01563643 -0.038153943 0.049479973 -0.065609284 0.049396403 -0.03294905 -0.028120382 0.028452761 0.019557886 0.03410519 0.022229102 -0.026318813 -0.0062777223 0.0016015571 0.016301176 0.015110992 0.06622657 0.0127157625 -0.028606575 0.014135381 0.04397622 0.006067088 0.012663003 -0.014147138 0.026865589 0.016302194 0.020816863 0.029034687 0.00017153943 0.005904445 0.041300695 0.029320901 0.006000706 0.016497146 0.023680497 0.025149072 -0.004298607 -0.027599204 0.011082334 -0.035355005 0.032153334 -0.014417822 0.020092351 -0.015545617 0.0053414023 -0.0004412379 0.022728609 -0.004484431 -0.03570521 -0.00016228756 -0.021550002 0.0093811415 0.041422483 -0.0013194687 -0.02573802 0.04700868 -0.02623731
farmers 0.0024318849 -0.023165494 0.0073165097 -0.0032000123 -0.0316969 0.012459345 -0.03370058 -0.025606724 0.0084666265 -0.00032153184 0.013944637 -0.0139848795 0.002628805 -0.0006533782 -0.0076954723 -0.024109863 0.007448576 -0.0010619988 0.012352916 0.0009881236 -0.017227264 0.0125636365 0.0034173934 0.050616775 -0.0076294104 -0.03850921 0.00665104 -0.013690239 0.02962454 -0.0078017125 -0.020774351 -0.0054449956 -0.0028374938 0.0050984006 -0.010673442 -0.042298216 0.017052472 -0.004474613 0.019593788 0.030082736 -0.0021224485 0.012290375 -0.017151415 0.006948284 -0.012590412 -0.03629247 -0.015385637 0.006452216 -0.018722221 -0.0090775145 0.03522827 0.009896199 0.0003255366 -0.02223784 -0.005281871 0.028624814 -0.024525153 -0.0037652247 0.0042115226 -0.0021773148 -0.017306242 0.009671318 -0.002949007 0.008896724 -0.0016180857 0.023636013 -0.008500058 0.0028459742 -0.012919313 0.011163714 -0.007841733 -0.011733002 0.0025842327 0.022549316 0.013544677 -0.0019321179 0.00557154 0.014731569 -0.018876601 0.023186268 0.016134478 0.02890093 -0.017155003 0.004171491 0.015132307 0.0071115205 0.02196646 -0.032790173 -0.026258176 0.014270414 0.025868025 0.018893851 0.042570632 -0.0019360108 0.025773857 0.0032520748 0.027447881 0.0007605022 -0.008848343 -2.210209e-05
pension -0.016643895 0.0047297925 0.0056585055 -0.028150246 -0.015786154 -0.0115170255 -0.031088602 -0.02310205 0.005562826 -0.0141813 -0.0010617288 -0.030827213 0.011294064 -0.018539615 -0.031837765 -0.0033293252 0.007451832 0.038948383 -0.013401973 0.008678843 -0.005219793 -0.005189222 -0.048621103 -0.008754916 -0.003097313 -0.016476676 0.019316124 -0.033414762 0.007598765 -0.012831208 0.018636765 0.019213594 0.015626544 0.039416682 -0.059575956 -0.019679718 -0.018935889 0.011285427 0.011131882 -0.015425444 0.015405483 -0.02307115 0.00085890543 -0.04708996 -0.025383975 -0.0126657905 0.037427086 0.0011903032 -0.0018257994 0.06290204 0.00019925239 -0.007613204 -0.017721368 -0.032612585 0.0033654976 -0.01328885 0.046785817 -0.0005455399 0.031645734 -0.031596556 0.044104625 -0.0064036767 0.0074192747 0.0007378545 0.04278392 -0.029591495 -0.0036770487 0.01193628 -0.008632584 0.0004652645 0.012942065 0.0034028501 -0.005595271 0.033664178 -0.02003504 -0.01919714 -0.010310815 -0.0054838723 0.056321274 -0.004147429 -0.025479622 0.027782215 -0.015846575 -0.0039287945 -0.018248988 -0.012762656 0.016379045 -0.0054684975 -0.00079638883 0.0024366712 0.013248938 0.0072577666 -0.015956521 -0.0022893178 -0.029005256 -0.011533752 -0.031188956 0.004670757 -0.0450645 0.012214218
office 0.0613066 0.06447258 0.0050761783 -0.0022961937 0.04200334 0.023552073 0.0046712747 -0.060061257 -0.05519659 0.042284973 0.02207992 0.004882172 0.04391771 -0.0101363575 -0.004528116 0.015733095 0.005419683 -0.061807282 0.059499614 -0.060628317 0.04370981 0.050852485 -0.01611309 0.0723941 0.03454059 -0.011816597 0.024067989 -0.07430267 -0.057702184 -0.05465911 -0.059756435 -0.026282974 -0.057198837 -0.06080726 -0.020966401 -0.031219034 -0.045998007 0.01785014 -0.04260302 -0.05169781 0.031396437 -0.06176759 0.072265856 0.03524266 0.077313274 0.0065207663 -0.019814037 0.0008571281 0.014623903 0.03925849 -0.053916592 0.025690533 0.005850112 -0.006975922 -0.05454456 -0.06997973 0.021906309 -0.010384133 0.04608821 0.008469745 -0.043432795 0.05287681 0.032764506 -0.02378603 0.04332303 0.019653618 0.07129183 -0.04293001 -0.013048011 0.01825248 0.061847873 -0.040062785 -0.02385538 0.04381009 -0.008526232 -0.054797094 0.063626796 -0.025234254 -0.016196823 0.09151967 -0.002046561 0.08889177 -0.059409056 -0.069713585 -0.026729286 -0.044320118 0.038010307 -0.008183778 0.01722696 0.07050505 -0.03707797 -0.025398146 -0.016150355 0.043202337 -0.020485044 -0.038264915 0.037930693 0.031982124 0.028260037 0.060728442
1960s 0.011970566 0.014132648 -0.022842063 -0.015436816 0.044891536 -0.027975215 -0.012211369 -0.0042674365 0.0140748825 0.016563395 0.039119534 0.01981698 -0.0067127594 -0.013954889 0.027031912 -0.0043015676 0.020071978 0.009535545 -0.018755388 0.020986237 0.033027973 -0.039178587 -0.005931227 0.011766189 -0.014533781 0.017700966 0.0015794624 -0.0022397784 -0.0012372364 -0.007822735 0.014650263 -0.015082742 0.024048228 -0.00718728 0.0058475 0.03894251 -0.0027794938 0.031490978 0.016247213 -0.0024957792 -0.021629913 -0.025493303 -0.024127852 -6.043134e-06 0.00642404 -0.03708956 -0.02310468 -0.006380957 0.03190081 0.0143525805 -0.00890709 -0.054820735 0.0077603646 -0.01319896 -0.05548756 -0.012156289 0.010445705 0.008821438 0.041949373 -0.025683718 0.0039544934 0.015085854 0.0048791957 -0.014374418 -0.018813122 -0.025007915 0.017823089 0.03909036 -0.045625377 0.022849135 -0.018459082 -0.051021773 0.025776444 -0.016365202 -0.06405424 -0.0155682 0.022038596 -0.0013988086 -0.059470396 0.032242287 -0.0032404794 0.006157492 0.015776409 0.02471437 -0.016548406 0.028482253 0.041779935 -0.0032010623 -0.013841939 0.0038363074 -0.0056553166 0.01764453 0.013196788 -0.0037677644 -0.03385698 0.0032506937 -0.011135722 -0.032804452 0.030066617 -0.048537716
objectives 0.010639024 0.0079116775 0.03629878 0.016191568 -0.041203566 -0.023127366 -0.024647057 -0.009829475 0.024863822 0.023741819 -0.030397547 0.0099182855 0.026365196 0.008363989 0.013250484 -0.011450209 0.006843097 0.002319566 -0.02284834 -0.016068518 0.0316227 -0.0009550779 -0.016354831 -0.0049937605 -0.0339713 -0.025842544 -0.02822833 -5.507274e-05 0.016222708 0.024632758 -0.032443684 0.018711189 0.0068363138 0.017078286 -0.022825234 0.016048329 -0.03166441 -0.012412981 0.042231396 -0.008226239 0.0011541403 -0.0029433328 0.022553196 0.013046139 0.03165636 -0.033729505 0.021755375 0.027228393 0.008581744 0.030240985 -0.024361221 -0.016797412 -0.017443115 0.02786223 -0.018334333 0.03102045 -0.00221234 0.013306688 -0.046653297 -0.0077953213 0.02606746 0.0028685038 0.007894619 -0.031402126 -0.014277185 0.024285559 -0.020591907 0.02418842 -0.006304475 -0.009349735 -0.045218375 0.0017049473 0.007699561 -0.04204658 -0.02631208 0.013995294 -0.007967892 -0.027567992 0.00995138 -0.005093788 0.01658229 0.027333809 0.01786992 -0.012267456 0.0008004429 0.0030844447 0.0007237366 0.0062850206 -0.025099203 -0.022967476 0.029360848 -0.022064647 0.029701734 -0.03331531 0.015286087 0.0058185607 0.04363788 0.01744789 0.0013025878 -0.00673668
take -0.008911104 0.023478363 0.012138689 0.015004448 -0.037822418 -0.012748658 -0.0034051558 -0.016801925 0.0043321806 0.016464928 -0.032718208 -0.0044934773 0.040342502 0.0010437544 0.015026106 0.009059428 -0.019349989 -0.007980487 0.00026896884 -0.050042007 -0.021654597 0.05052534 0.0055524865 0.010266313 -0.027435018 -0.020139944 0.025817845 0.018601172 0.041445076 0.0052095423 -0.016053008 0.033756465 -0.010644681 0.019152181 -0.027331969 -0.0045058834 -0.011322647 0.01204463 0.023713237 -0.021792859 0.015608595 -0.014355982 0.038575605 -0.019501103 0.012683216 -0.022285441 -0.034623228 0.004507435 0.035980888 0.014084165 0.009861724 0.018765314 -0.004568377 0.022456113 -0.040753346 0.02727619 -0.0008826489 -0.0027565674 -0.012337303 0.019642636 0.03352072 -0.009269566 -0.02315668 0.014190923 -0.032788716 0.024915513 0.0066978806 0.0033266363 0.012340124 -0.038904354 -0.02086956 0.01197067 -0.013336137 0.0061951955 0.04288509 0.012846322 -0.023291387 -0.015688369 0.034464672 -0.01010073 0.009117347 0.044441216 -0.00047577533 0.007769187 -0.021424241 -0.03282066 -0.0063300007 -0.007819716 0.007214528 0.018031193 0.008685764 -0.004906808 0.03474826 -0.014495471 0.031642407 0.03157542 0.053919673 0.02443774 0.019023472 0.0119163385
new 0.014402393 0.02413272 0.034192182 0.032871738 0.014533895 0.0076611554 0.0070472704 -0.0369812 -0.006309271 -0.05859485 0.03988687 -0.006188484 0.01659738 0.045369107 -0.019373132 0.0003805831 0.01778103 -0.012333146 -0.02567277 0.03573076 0.054552697 -0.026500447 -0.014590383 -0.028698614 -0.019074535 0.011303005 0.00038934615 0.06397624 0.015415686 -0.018286679 0.029736055 0.014797432 0.030525828 -0.025814226 -0.010068367 -0.008014869 -0.0053973235 0.02168005 -0.005050151 -0.03743173 0.023505868 -0.02719049 0.04278764 -0.022422997 0.020656155 0.021522861 0.0057153287 0.0287875 -0.01054168 0.022947254 0.017059237 -0.026048 -0.009602248 0.025946861 -0.0051188567 -0.020279752 0.021798909 0.00025902723 0.021247113 0.016494581 0.013528887 0.015965452 0.036694687 0.02450901 -0.013787779 0.006669559 0.009599693 -0.003981435 -0.042421833 -0.007843985 0.0015986599 0.0016145164 0.010234337 0.00090325973 0.011369455 0.0074896016 0.0016099897 -0.02721312 0.011954467 -0.013312694 0.014032515 -0.00990077 0.025990838 -0.011821291 0.01759861 -0.0022809554 0.024306618 0.05178951 -0.00773108 0.0011107246 0.036386166 0.0011269632 -0.0021664798 -0.012369972 -0.0031247225 -0.0103296945 0.011688833 -0.022050096 0.041934762 0.022630502
neglected -0.0074700583 0.013681028 0.009834058 -0.0051051844 0.031439215 -0.024612587 -0.011568763 -0.027798895 0.029076938 0.0070461514 -0.031281255 0.0104364855 0.041031055 -0.0018327239 0.01254858 -0.035114765 -0.0040375176 0.026565824 -0.010609271 0.02059788 -0.037643418 -0.01869193 -0.005604624 -0.0010102021 0.0058665965 0.012623679 0.033115502 0.033562236 -0.04087833 0.011041426 0.027556945 0.0041414965 -0.03943138 -0.004132837 -0.00645151 -0.03613885 -0.060731135 -0.03795406 0.008822678 -0.027001658 0.033878706 0.018869681 0.017739559 -0.001760553 -0.0060232384 0.0011371707 0.004757774 0.050754182 -0.0035115243 -0.03007103 0.03501564 0.04452561 -0.004922164 0.019980084 0.019320644 -0.021360166 -0.06310392 -0.010131061 -0.018604748 0.019084381 -0.030065054 -0.013046682 -0.004553358 0.006996875 0.0021116547 0.05871642 0.010902667 0.021448694 0.014842428 0.013235948 0.01108431 -0.007060687 0.00029866426 -0.015949126 -0.00073589827 0.021522358 0.031102985 -0.033105906 -0.03513781 -0.014063402 -0.017589841 -0.022145411 -0.017679486 -0.005257628 0.04346461 -0.0058312756 0.03373105 0.023870306 0.042231042 -0.014430593 0.009364359 -0.0061416854 -0.00021250802 -0.015937202 -0.0118917 -0.008514783 0.015626987 -0.029803941 0.03060669 0.013101043
leaving 0.056340933 0.01566598 0.0058838287 0.009612204 0.051193465 0.048250757 -0.006002157 -0.031984515 -0.011142059 -0.07030691 0.032718178 0.03770686 3.6647485e-05 -0.038582224 -0.015818497 -0.00791917 0.03762706 -0.019204583 -0.022621771 -0.010646236 0.035608307 -0.010021158 0.01142349 -0.021721713 0.044992175 0.001787227 0.003145859 0.041488834 0.027684957 -0.07480266 -0.015153027 0.0019158028 -0.03482427 0.024529625 0.0153539535 -0.00674215 -0.035306733 -0.010950927 -0.019662626 0.01822862 0.009604914 0.031681 -0.004769424 0.042780675 0.036203563 -0.03613656 0.051852826 -0.027385876 -0.008659366 0.069922216 -0.014204411 -0.043001596 -0.04989443 0.014923832 -0.04867488 -0.026965415 -0.017835312 -0.017574057 -0.04967396 -0.017207809 0.047193985 0.012946092 0.009344643 -0.015726807 0.021656916 -0.0036962568 0.010654026 0.017223282 -0.019877248 -0.02143915 -0.07622139 -0.014908749 -0.0060192817 0.04295131 0.042801682 -0.0031000103 -0.02855417 0.0022585203 0.027916564 0.015371047 -0.05805973 -0.024208685 0.060121726 -0.017015932 0.023974337 -0.010037505 0.06386708 -0.014675562 -0.0016885425 -0.00744756 0.066774316 0.05721642 0.07172127 0.062514275 0.018807562 -0.05896554 0.002377552 0.004276773 -0.013548107 0.019912139
sold 0.024435282 -0.0044892803 -0.0108798165 -0.024167318 0.018277653 0.033162948 0.017559517 0.02836375 -0.0029545554 -0.0015617548 0.009802147 -0.011171741 -0.01717001 0.014541864 -0.0393611 0.015119992 -0.010721564 0.034415767 0.038472053 -0.038453825 0.012591266 0.01787748 0.035237428 -0.013201397 0.026898537 0.018754771 0.009262632 0.017852599 -0.019035641 -0.010694405 0.012447012 -0.04685253 0.012936859 0.044234633 0.003880551 -0.005921079 0.022323502 0.008574539 -0.036739524 -0.024913402 0.0320155 -0.0054700095 0.018575404 0.017923592 0.008180905 0.014829904 0.008595978 -0.011957274 -0.005923276 -0.011758234 -0.007296113 0.02369262 -0.016140608 -0.0043657776 0.040754333 0.009673281 0.02759544 -0.030067187 0.025343612 -0.037710078 -0.014441162 0.029986989 0.026299546 -0.009636467 -0.012747203 -0.010581909 -0.048089895 -0.025707604 -0.011308143 0.014871607 0.008998834 0.010447961 -0.0375046 0.025707664 0.004694529 0.012961088 -0.011329796 -0.0016272952 -0.01834478 0.010275311 -0.031020615 0.011888566 0.013766328 -0.0012230179 -0.040346075 0.013582926 0.004311683 0.010718641 0.017753212 0.031182135 0.010391634 -0.004081921 -0.026666796 0.02322955 0.022098497 -0.01186966 0.0066689546 0.005919747 -0.06648492 -0.014005603
balanced -0.040528294 0.024023013 -0.021682462 0.00916547 -0.008738338 0.010181624 -0.00026170793 -0.025487445 -0.004465877 0.018671233 0.0109986365 0.01206589 0.032694478 -0.007944192 -0.029979667 -0.009733236 0.007972719 -0.016824689 0.015798358 -0.018789561 0.0096179675 -0.008384979 -0.015282765 0.029880824 -0.039258353 -0.020277262 0.0042232964 -0.0060473867 0.029154334 0.01655955 -0.016024949 0.008130705 -0.003294622 0.03497144 -0.007479283 -0.01480066 0.010352393 0.019817568 -0.00058014947 0.01204316 0.023853209 0.009114368 -0.0012654469 -0.016147941 0.027919855 -0.009731852 -0.010248562 0.0062068757 0.018350376 0.028014826 0.020187644 -0.00026999754 0.026925838 0.030862724 -0.003228498 0.028094402 -0.017863773 -0.02045235 -0.047216084 -0.017603926 0.01084985 -0.010713122 0.010675102 -0.015593035 0.0317497 -0.018788977 0.0050362838 0.0042023826 -0.013322733 -0.012638702 -0.029479459 -0.021369703 0.0008631317 0.00091405027 0.026539989 -0.007870188 0.010395073 -0.022234717 0.04406722 0.015211202 0.014800038 -0.025924042 -0.011269083 0.030709269 -0.0044071935 -0.020353451 0.003991928 0.032913744 -0.022939732 -0.04603705 0.02107943 0.0018607423 -0.007270286 -0.013103457 -0.031615205 -0.023209322 -0.054487266 0.02990275 0.012644398 0.003779453
far 0.010739095 -0.029278237 -0.019248232 0.015508778 -0.020346172 -0.00033016986 -0.00898342 -0.0069392673 0.024381632 0.046131875 -0.005301552 0.006726607 -0.03910333 0.018555501 0.049205445 0.016725317 -0.011606115 0.006025238 -0.034810256 -0.010663323 0.034978148 0.006285507 -0.009625904 0.018151062 -0.021167483 0.042218897 -0.03818697 0.04001599 0.061145782 0.03340944 0.0046571866 -0.03669959 -0.036075324 -0.006943921 0.025658643 0.0064877174 -0.01452899 0.014483574 0.00935125 -0.019790728 0.02877442 -0.0136973895 0.014289632 -0.025271816 0.050218556 -0.015306156 -0.018274732 -0.009790134 0.02681373 -0.0156091675 -0.022753661 0.02180176 0.0050764144 0.016021237 0.010922569 -0.038095906 -0.025747148 -0.06536115 0.015729887 0.022218423 0.016844146 -0.025176346 -0.0030797583 0.0035396274 -0.02115937 0.00505523 0.036752693 0.004607773 0.029269073 0.010279132 0.02973941 0.0007318407 0.047873918 -0.006418758 -0.004574632 -0.043870624 0.0024991403 0.03774249 0.03219666 -0.012430922 0.018668864 -0.013338285 0.0069434303 0.009242001 -0.013862793 -0.014477832 -0.0223775 -0.0021031967 0.026286304 -0.05185244 0.017008193 -0.023508808 -0.0007019227 -0.043969646 0.002949495 0.033656217 0.042664774 -0.026127588 -0.017683376 0.0172456
make 0.023970403 -0.022945901 0.03534778 0.0062432806 0.01631238 0.045956753 0.03205531 -0.001233647 -0.034552258 -0.018395089 0.039371677 0.015893323 -0.010659988 -0.049955994 -0.01001481 0.031587906 0.027122982 0.024363318 -0.032066047 -0.031830113 0.05076236 -0.022305872 -0.01764805 -0.011939386 0.030689985 0.010900229 0.0080107255 0.008677925 -0.014674128 -0.016448537 0.024425441 0.008927474 0.0012735091 -0.05114064 -0.025748875 0.01503037 0.015276307 0.0076399227 -0.035254706 -0.037517063 -0.021435423 0.02139502 0.021241913 0.025458522 0.06505203 0.006685673 0.031817593 -0.039555907 -0.062794335 -0.007629355 0.03548007 -0.029698683 -0.0020952444 -0.007552442 0.04105947 0.011528461 0.025406998 0.024516085 -0.007839078 -0.03299267 -0.0023385452 0.072808355 -0.014570062 0.036853436 0.031277113 -0.016752513 -0.013288583 -0.036982894 -0.022512276 0.018393824 -0.019637113 -0.0020959086 0.017420966 -0.019810855 -0.062750444 0.00034275273 -0.050738964 -0.0034784707 -0.04195692 0.028428363 0.015909864 0.0067055956 -0.016665488 -0.011211039 0.025154283 0.026529882 -0.033190448 0.04367856 -0.014136762 -0.013144318 -0.025426723 0.00556688 -0.030603629 0.009675581 0.023651412 -0.012538466 0.015191857 -0.016290141 0.013571095 0.014795062
oh 0.040061306 0.013737727 -0.01349571 -0.015532432 0.0093034655 0.025398294 0.025399737 0.020972759 0.054973632 0.0125847235 -0.018015673 0.0073438752 -0.016063787 0.015918199 0.01435726 0.008840378 -0.01841728 -0.0052680187 -0.0020755255 0.00043878797 0.020498963 0.0043054293 0.022428107 -0.010834717 -0.039323505 -0.0037050054 -0.027690643 -0.015244046 -0.02172632 0.012529744 0.012824583 -0.00085653923 -0.00013946765 0.021161374 -0.010597708 0.0063875155 0.009072711 0.04778591 0.00052132725 -0.00825446 0.018629849 -0.017661303 0.012550766 -0.025921969 -0.003580265 0.02426319 -0.011800649 0.027549153 -0.014333585 -0.0286065 0.0093244165 0.008076246 -0.020446697 -0.025310172 -0.021025248 0.014320756 0.0024540564 -0.04396492 0.017619543 -0.0012152331 0.025392182 0.014788286 -0.0031131383 -0.0380912 0.010920526 0.025309272 0.020933473 -0.01962724 0.030699799 -0.00042810012 -0.0018278046 -0.012431037 0.008955797 0.02493665 -0.020096615 0.021497741 -0.012802152 -0.026279498 -0.0118593 -0.037620742 0.016415043 -0.030152563 0.00066810916 -0.012270499 -0.0053678555 0.025846682 -0.008036122 0.018696211 0.012019394 0.024449795 -0.02269899 -0.01215743 0.002354562 -0.044241488 0.01519747 0.013184384 0.012520278 0.003489294 0.008389365 -0.019028869
rejected 0.006055256 -0.013091044 -0.0043970337 0.010584859 0.004272778 -0.027788756 0.004027117 0.01539155 -0.050195005 -0.027819471 -0.005281452 0.0031765974 -0.035366915 0.026594702 0.019225284 0.024387717 -0.02515609 -0.045276437 -0.00617984 0.0025105039 -0.004980609 0.027558027 0.024838356 -0.0101355715 0.013986745 -0.0029845824 -0.019270334 0.004219587 -0.024944717 -0.008592641 0.02667639 0.010407212 0.02231083 -0.004081868 -0.010761775 0.017707534 -0.010286817 0.039778214 -0.0025911974 -0.015079945 -0.024773955 0.023431381 0.040581875 0.01532999 0.01973194 0.023687031 0.00078289467 0.007905752 -0.0039216517 -0.008211615 0.009158047 0.017230578 -0.016353315 0.017244475 -0.020666493 -0.0069389977 0.02430423 -0.0028063906 -0.0029130164 -0.021041686 -0.0057136086 0.028833576 -0.008664907 -0.012109235 -0.0076332884 -0.02434199 -0.043815855 0.0066755298 0.006016357 0.007136726 -0.01243251 0.014111834 0.01863225 -0.012962911 -0.0154844215 0.005227433 0.0006052322 0.00444216 -0.007419993 0.0047086454 0.025467768 0.0009939689 0.010627296 0.0040030167 0.011845901 0.01787795 -0.0043450226 0.011838943 -0.006827958 0.0029881913 0.009867159 0.006274675 -0.015913881 0.041522954 -0.0035411199 -0.0047920896 -0.00435408 -0.03251412 0.002831806 0.017449537
alcohol -0.010881042 0.020127058 -0.0008335277 -0.025057958 0.0098621715 0.017993085 0.032806896 0.011527525 -0.008107983 -0.049487267 0.021241073 -0.014336272 -0.048025742 0.0077552665 -0.0037955004 -0.0038400346 -0.042597543 -0.0016756755 -0.018763814 -0.035508405 -0.007918364 0.018549236 0.016983077 -0.01749217 0.0544367 0.040593136 0.024483506 -0.0010559155 -0.035068013 -0.045212325 -0.006709614 0.0047630696 0.0018499915 0.040047955 -0.02100471 0.036297902 0.035538543 -0.02850905 -0.012396063 -0.068656094 0.014603554 0.02151682 0.022904297 0.00566905 0.036257945 0.025173312 0.051243573 -0.0063601504 -0.012681773 0.0040650936 -0.04388373 0.015809149 -0.019163778 0.0050130654 -0.01576309 -0.0073069576 0.0015574206 0.0061886176 0.046159554 -0.018016858 0.042712413 -0.0073966114 0.008720189 0.0019501508 7.60323e-06 0.029875081 -0.014563336 -0.031070704 -0.017967636 -0.04957511 -0.005088117 0.019838963 -0.034755927 -0.032566596 -0.012011676 0.03059917 -0.007180229 -0.017775238 0.007239733 -0.027639344 0.040453807 -0.012400579 0.036023974 -0.017181735 -0.041263793 -0.016727125 0.020791834 0.00012538623 0.015676428 0.0039478503 -0.029606966 -0.023136714 0.010881207 0.028100839 -0.033144906 0.0052097766 -0.008124512 0.021111865 -0.024483701 -0.005629043
criminals 0.028469991 -0.05301748 0.042421956 -0.035666972 -0.016951837 -0.008378199 0.022157937 0.0787988 0.007894999 0.020025456 0.018406928 0.002541576 0.011868884 -0.03278397 0.039620932 0.044238865 -0.04632657 -0.01687258 0.041729156 0.030786155 -0.02613477 0.01119806 -0.005999024 0.040557828 -0.046538893 0.05617804 -0.06638252 -0.039322168 0.07535084 0.03803905 0.025265314 0.026705753 -0.029313602 -0.01459303 -0.026835524 -0.032772753 0.023479678 0.011938352 0.035152335 -0.025718544 0.032209493 -0.02360025 0.082486644 0.017498551 0.035987798 -0.04950982 -0.06507402 0.08144154 0.04214828 0.005033753 0.0012503635 0.07874991 0.025808267 -0.0015632617 -0.032635365 -0.0034624205 -0.039365105 -0.020484839 -0.047096767 0.09652683 0.043073572 0.029507525 -0.017423104 0.016068328 -0.046924185 0.01791627 -0.0071007144 0.021260843 0.007649109 -0.021306803 -0.025600743 -0.03067147 -0.006891542 -0.023159677 0.05937979 -0.0056665004 -0.007550541 -0.012965624 0.0055403057 0.015882175 -0.053734727 -0.002087257 -0.09437768 0.010220012 0.056571048 -0.02183893 -0.038717005 0.0073478613 -0.04271901 0.012769768 -0.041322622 -0.044076163 -0.0048392853 -0.02400425 0.015609097 0.049510416 0.017027576 0.07778215 0.05162893 -0.024028733
implement 0.010676457 0.013034342 -0.02780261 -0.0031548715 -0.008548063 0.031817194 -0.011568266 -0.0072301864 0.031514645 0.04610808 -0.072584905 0.0005200432 0.0078254035 0.015061618 0.0067154937 -0.0039657783 -0.002228093 -0.0050677974 0.016568145 -0.04186214 -0.0016023245 -0.017757693 -0.035086777 -0.016132798 -0.01707551 0.017632842 -0.019956427 0.027285768 -0.0010692735 -0.004554518 0.049295392 0.03129894 0.021042762 0.018672949 -0.032993935 0.017822586 0.010902051 0.027043747 -0.0015880266 -0.008888417 -0.006682028 -0.023429658 -0.0069879433 0.008124614 0.006641853 0.0073994603 -0.009874928 -0.031755682 -0.014855495 0.0034822158 -0.011855893 0.010273076 -0.039621703 -0.04159374 -0.014448439 -0.01997668 -0.0007521381 -0.027018651 0.016645331 0.0083089955 -0.006166875 -0.0016419274 -0.006414287 0.008767711 0.040335037 0.0038271917 0.032978155 0.012245976 0.012467364 0.01222968 0.06129848 0.06178623 -0.025121514 0.03353722 0.0005696044 -0.03162054 0.0119461 0.0031559102 0.023283783 -0.0057740477 0.011271611 0.020743363 0.017451487 0.0051907105 -0.030226838 -0.021574784 -0.018479008 -0.007015615 0.027207084 -0.019709196 -0.020137772 -0.038319588 -0.031957705 -0.012612762 -0.03499305 0.030535486 0.042829983 -0.012019412 -0.03038988 -0.0064254873
move 0.006204012 -0.026338657 0.00083086116 -0.039766118 -0.014855444 0.00064903416 -0.013332934 -0.0055278554 0.030892294 0.009791587 0.012375304 0.025462369 0.013852773 0.01569498 0.03880397 -0.011189098 0.0064373873 -0.012767635 0.0058691083 0.010567102 -0.05114731 0.017184285 0.0014261033 0.0013199305 -0.00577637 -0.04164039 0.05740375 -0.055421643 4.4291606e-05 -0.018679254 -0.0053058495 -0.00130761 -0.0066507305 -0.019372104 0.004417019 -0.029544393 0.030455286 0.06806632 0.035284653 -0.0039760033 0.024609586 -0.011634617 0.0036199708 0.0042847544 -0.058771413 -0.022916095 -0.01794516 -0.02617104 -0.022425758 -0.024634194 0.016353332 0.02873519 0.013019122 0.011957951 0.033238646 -0.017474229 -0.015626892 0.033312842 -0.039224457 -0.013404627 -0.013449265 0.008266489 -0.014227 0.017967261 0.020897921 0.00038404285 -0.020970667 0.019436175 0.028090911 0.014326013 0.021184782 0.005766033 0.025110831 0.006006801 -0.044096965 0.017598392 0.003274762 0.0031105785 0.00011190935 -0.000983129 -0.022253383 -0.005875669 -0.02520405 -0.004173362 -0.04417436 0.0048263376 -0.061266445 0.005451248 -0.0025418533 -0.02541968 0.014055053 -0.041698657 0.0041548847 0.012102284 0.014158574 -0.020975733 -0.014223104 -0.010966575 0.0012805706 0.017297829
pleased -0.037586372 -0.006955626 -0.033685703 0.013777739 -0.0016105552 -0.054333385 -0.03466274 -0.017130397 -0.013120451 -0.013272787 0.01958911 0.008240791 0.008599035 0.012430644 0.025688158 0.01921197 -0.026133912 -0.010094553 0.004592248 0.02995436 0.016245212 0.010801639 -0.019107575 0.03913602 -0.015447151 -0.0016214498 -0.0042230384 -0.00840374 0.035694893 -0.0008449353 0.019209584 0.0033259683 -0.007536166 0.024872445 0.053905364 0.02306574 0.018306397 0.020105723 0.007018324 -0.015057506 -0.028159922 -0.012084679 -0.015396888 0.029556142 0.037272952 0.00867312 -0.015128347 0.0076197498 0.042570274 -0.009485858 -0.0099049965 0.022900261 -0.037727013 -0.002039086 0.02955481 -0.059441 0.014928832 0.028780596 0.013883152 -0.0017570648 0.010058689 -0.0116090095 -0.037630443 -0.01721024 -0.0072704647 0.012342413 -0.0033914961 0.011760101 -0.025495399 -0.0036172746 -0.036106914 0.0006801249 -0.005060432 -0.00084086787 -0.0039243605 -0.021450238 0.008159065 0.015200401 -0.008253622 -0.0010123746 0.051079266 -0.00047161253 0.017279908 0.026165076 -0.0025220043 -0.0031092647 -0.004651537 0.021407858 -0.028058205 0.00013982371 -0.016740259 -0.017789211 0.0012457184 0.024472162 0.02138218 -0.010515385 -0.010316637 0.008230766 0.011677964 -0.007861135
loudly -0.06079273 -0.019835519 0.018124696 0.0383727 0.011947093 0.036720823 -0.001988281 -0.017296292 -0.023871152 -0.047019456 0.0034258673 0.027888715 0.030126002 -0.012600404 -0.04367965 0.024393918 -0.04271373 0.00262782 -0.011212362 0.026313432 0.04558491 -0.05291973 -0.0126839075 -0.044364102 0.0017572254 0.019130647 -0.035620444 0.011129115 0.0057430426 0.019266676 0.05093217 -0.053647682 -0.0104747405 0.01907591 -0.00047700584 0.029246785 0.0071221213 -0.029457396 -0.013066177 0.0018539821 -0.036292195 -0.025320975 -0.01706082 0.022052623 0.0024929324 -0.06638956 -0.021273373 -0.003585139 -0.034584872 0.0026069232 0.009057707 -0.014519935 -0.0034338168 -0.0145590985 0.0026826302 -0.017697196 0.012987601 -0.0048780814 -0.027110219 -0.0037345313 -0.0147622675 -0.006021471 -0.008317903 0.034600858 -0.041950304 -0.010988139 0.008688218 -0.010316071 -0.0351258 0.007812848 0.0017195065 -0.0488716 0.0007702821 -0.029062541 0.0055138962 -0.008157582 0.0194771 0.015279989 -0.031520557 -0.023789413 -0.004783497 -0.016383722 -0.022353258 -0.028815543 0.008098776 0.021011615 0.012373011 0.023392268 -0.0019059826 -0.0016556447 0.018640654 -0.004996311 -0.018873714 -0.010497556 -0.0029124243 -0.014150173 0.011218458 -0.024260757 -0.027752636 -0.01927301
savings -0.034666836 0.03898454 -0.009977787 -0.051185895 0.0025761053 -0.022533048 0.035011776 0.012597136 0.06599965 0.037356105 -0.016110148 -0.0007172084 0.02273661 0.023901878 0.03416069 0.018238436 0.018980082 0.030001406 -0.0053901146 0.02658729 -0.04107399 -0.028120728 0.030459804 -0.008659455 0.048205163 0.012257165 0.041112654 -0.010645161 -0.025960203 -0.047825202 -0.0003048814 0.022874527 -0.030707497 0.023197412 -0.023478767 0.041197322 -0.037772104 0.0068477914 0.016298205 0.033640876 -0.034494985 0.007989993 -0.019394854 0.033165917 -0.00634199 0.019842632 -0.031829454 0.02015674 -0.058317948 0.04445218 -0.032427475 0.027998328 0.004122719 -0.011205837 -0.0019500013 0.00074204 -0.02154214 0.042251028 -0.058823448 -0.030359015 -0.01914105 0.05076493 -0.019670295 -0.06382923 -0.002150922 0.020383723 0.021598864 0.023518741 0.031986218 -0.01456112 0.0014077573 0.055621743 -0.025197258 0.012810902 0.05928539 0.03288729 -0.012229366 0.01831069 0.056091014 -0.051548082 -0.032517325 0.020907115 0.011605357 -0.02548722 0.04858266 -0.03168139 -0.035700258 -0.021413675 0.006570666 -0.018286735 -0.0285624 -0.01223999 0.015939578 -0.032128427 0.0009361982 0.0033319052 0.04439109 -0.02183405 -0.042002037 -0.0025153956
return 0.05458511 -0.004170293 -0.018906195 0.005362668 -0.0007433767 -0.017563067 -0.031613465 -0.0013610063 -0.0047854786 0.009700622 0.03059933 -0.018204916 -0.023744548 -0.009997957 -0.0024463942 0.023075724 -0.0010421402 0.011260367 0.029627003 -0.03378045 -0.013485193 -0.02513903 -0.014869846 0.0066482723 -0.0130181 -0.005051035 0.005950532 -0.04352668 0.013254581 0.0028230264 -0.03440614 0.021569738 -0.007853969 -0.040542834 -0.01507989 0.0020926278 0.018485848 0.004533665 -0.0040402194 0.036265045 0.007608982 -0.02257869 0.0072603268 0.022337826 0.017121399 -0.0034296862 -0.016575504 -0.009845166 -0.013253149 0.0071359137 0.012007424 0.004499234 -0.016114803 0.0044572316 -0.0460311 0.047018893 0.006343365 0.014928224 -0.013450278 0.0042205052 0.0151600875 -0.023422059 0.006894817 0.009980548 -0.014762903 -0.04255764 0.021434922 -0.047245614 0.037460838 -0.014928512 -0.034700874 -0.036875717 -0.047609594 -0.028812353 -0.029905427 -0.014945088 -0.04072321 0.0058151633 -0.011915568 0.003918435 -0.005970303 0.007461535 0.0058569945 -0.027454268 0.013500528 0.01433719 -0.029089741 -0.011402511 -0.024167893 0.027906382 -0.01658713 0.0074343556 0.00036533113 0.02102755 0.01427453 0.028345872 -0.019310461 -0.001794067 -0.0056644757 -0.014446825
right 0.012132575 0.008871928 0.022898886 -0.010463181 0.0056022587 0.002512807 0.00022006349 0.02437032 -0.008320738 0.021604598 -0.010851187 0.003392664 -0.007901552 0.010148589 0.027361015 -0.016705938 -0.002927814 0.009005319 0.014015924 -0.030784832 -0.04461996 0.049308594 0.021738539 0.02604789 0.021897338 -0.003563344 -0.022381764 -0.05637444 0.014554089 -0.014161091 0.027638225 0.011354038 0.044800762 -0.016056472 -0.009482013 0.013229029 0.010266807 0.007941517 0.02689385 0.003717138 -0.027955621 0.028013524 0.0026950182 0.0067541357 -0.019306503 -0.0012845846 -0.014008609 0.032119464 -0.015609834 0.022686815 0.020670425 -0.0026472565 0.007226427 -0.009754399 -0.0010457417 0.008902792 0.002680516 0.012723135 0.011724654 -0.01831263 -0.027911521 0.007306807 0.03174274 -0.028455544 0.029411267 -0.0030175368 -0.01847572 -0.011982092 0.021929782 0.002731362 -0.0071954955 0.011568353 0.003483772 -0.020269023 -0.04065899 -0.020397218 0.022014126 0.031914953 0.004236581 0.014227934 0.009021044 -0.028028458 -0.020282697 0.0027711014 0.0032766499 0.012605676 0.015979165 -0.003206709 0.024341468 -0.023244046 -0.0025746645 0.014688274 -0.009634732 0.015126277 -0.040781602 -0.023384448 0.0041451557 -0.014096481 -0.007818267 -0.024042914
thank 0.0395749 -0.0002342296 0.032244552 -0.0002572977 0.011253378 -0.010294922 0.002383025 -0.04107457 -0.00045018372 0.015238701 0.017601868 -0.014687221 0.018285297 -0.007329329 0.0103874905 -0.020913828 0.0038875788 0.023913892 0.017981669 -0.009579883 -0.030768963 0.008561162 -0.005247041 0.019668445 0.011613313 0.024166508 0.017850226 -0.017911002 -0.012693459 0.0051688454 -0.009496699 -0.024912488 0.026494542 0.02604509 0.0383435 -0.030870106 -0.0051886262 -0.030923164 0.023337217 0.02754051 -0.024036087 0.018761355 -0.043422382 0.006044456 -0.017720725 0.0005464706 0.008395916 0.0056875576 -0.0068638045 0.026902875 -0.039038926 -0.005306829 -0.0045272163 0.016934859 0.008564137 -0.029796949 0.038361844 0.024373697 -0.018198278 -0.010116571 -0.03772783 -0.010688223 -0.03925802 -0.0073592183 -0.019618917 0.012699392 0.0019984494 0.009181061 -0.018893147 0.0058028805 -0.011584512 0.008274717 0.009232035 -0.0147659145 0.021232244 -0.023449292 0.012863675 0.0013549875 -0.02234731 0.019323021 0.011297099 0.034955624 0.019502379 -0.037197664 0.04419083 -0.009833566 0.025821427 -0.0035971266 0.014302964 -0.022550922 0.0027560245 0.01304995 3.1403033e-05 0.049894188 0.009555136 -0.041733555 -0.0034495257 0.009530734 -0.021629807 0.017092112
point -0.042554453 0.02848914 0.029219918 -0.013199293 -0.0046799923 -0.0009509993 -0.009217739 -0.008904835 0.023285214 -0.01279614 -0.004068764 -0.0004528292 -0.01682323 -0.009325517 -0.0093700085 -0.025751198 -0.005100172 -0.00886252 -0.035283115 0.010318246 -0.030695466 0.011979696 0.028320456 0.005180371 -0.016437728 -0.029480278 0.04370305 0.011752851 -0.025469698 -0.013576078 0.0014013937 -0.0075192126 0.022365669 0.035145454 -0.014479417 -0.0026983093 0.008651577 0.014773597 -0.0051700976 -0.026262796 -0.017978758 0.0175105 -0.016099479 0.0050427546 0.003057388 -0.0021208425 0.0128405085 0.009082925 -0.0066723777 0.020172939 0.007985375 0.009008647 -0.022921422 0.019106092 0.04571131 -0.012416346 0.0022858973 -0.0025269787 -0.0024852268 -0.01688771 -0.007085178 -0.013612332 -0.03358687 -0.01826297 -0.014750593 0.02723628 -0.0055069765 0.0073112557 -0.022892185 0.02957863 0.0022753738 -0.0036892188 -0.0055511286 -0.0045653996 0.013415582 -0.005315917 0.0041540307 0.010893718 0.024648292 0.0044573094 -0.020179283 0.034109913 0.011174378 -0.0048637744 -0.00471439 -0.02039812 0.008378256 0.011292815 0.0018380501 -0.017436124 0.022499558 -0.022330517 -0.0074374345 0.016723447 0.044013962 0.013801504 0.007477749 0.011563891 -0.026403496 0.013360522
Minister 0.014097406 0.01930508 0.020224659 -0.015214644 0.028850354 0.0069818986 0.010983461 0.018293468 -0.014543259 -0.033671204 -0.025909154 -0.02245054 -0.00252012 -0.01840425 -0.020378944 0.004007012 0.0061702067 -0.017628804 -0.021895874 -0.00041683065 0.00874601 0.008178275 -0.009836773 -0.017214872 0.024567818 0.036375303 0.023449216 0.022480631 -0.020402951 -0.012598817 0.026065763 -0.020197656 0.008801102 -0.013795472 -0.014260422 0.029925475 0.027822616 0.0091138305 -0.01086398 -0.050821163 0.0069284094 0.049502205 -0.0250658 0.022960274 0.014354756 0.04182885 0.016606083 0.0028947284 -0.0063585364 -0.019226322 -0.024193421 -0.027052153 0.0372755 -0.020061592 0.0011054745 -0.00357907 -0.0046549994 0.007552477 0.010113083 0.0042375997 -0.011310931 0.021777868 0.010458863 0.00035459592 -0.0003899755 -0.013711404 0.035739258 -0.019153962 0.0068828077 0.00843922 -0.027645413 0.026770134 0.010446191 -0.038722593 -0.04055825 -0.0031646017 -0.00035314925 0.005437349 -0.006750142 -0.041844822 0.055924736 -0.019362956 0.027318362 0.0037535245 -0.025208535 -0.02675686 -0.019325698 -0.038438246 -0.018597104 -0.044840492 0.019959439 -0.014355696 -0.014185237 -0.014951572 0.006755741 -0.017718667 0.0004019396 -0.058179885 -0.0045686197 -0.028668895
retired -0.020917103 0.008681819 -0.022003986 -0.014597021 0.00036806244 -0.01985766 -0.013686388 -0.0043003596 -0.002711551 -0.015244188 0.035176594 0.003245901 0.01088408 0.016902799 0.019501107 -0.06303253 -0.0038379156 0.04433949 -0.03742945 -0.008969398 0.0021120752 0.03619975 0.025312958 0.01691003 0.031027498 0.026501033 -0.046016764 0.02507915 -0.009055493 0.008483558 0.015085279 0.0344268 0.004070532 0.041338343 0.02841055 -0.037538145 0.016137728 -0.00018472175 0.013657313 -0.01834888 0.00430094 0.032591708 0.019506289 -0.008240988 0.03455087 0.0075288457 -0.039471418 -0.0005564389 0.047000643 0.009170223 0.03700948 0.0399144 -0.04751407 -0.027919155 -0.00076623005 0.0019760707 -0.0074761594 0.017581645 -0.0074576424 -0.004494105 0.0049946895 -0.035538603 -0.014200546 0.034258448 -0.011101326 0.0015299795 0.04136269 -0.028660666 -0.021672547 -0.02823226 0.004671689 -0.02532515 0.018334916 -0.015660807 0.05396 0.01430006 -0.040970333 0.014967758 -0.02383022 -0.032473296 0.028731642 -0.010784357 -0.0014992831 0.03191574 0.039016176 0.0242914 0.0026657837 0.027166946 0.034800224 0.013587823 -0.034652498 -0.0034987084 0.03126147 0.040272135 0.045302074 0.016298847 0.024009576 0.04513077 0.018220883 0.006737137
climate -0.014197353 0.006059765 0.0025368496 0.008161869 -0.013340323 -0.004379629 -0.03898606 0.018686322 0.008730221 0.022518393 -0.01481253 0.017140748 0.009816316 0.049361397 0.031132154 0.018825294 0.013936768 -0.0052017504 -0.00585928 -0.0013159747 -0.07393265 0.040595375 -0.017063996 0.04556925 0.009145775 -0.051028457 -0.007275722 -0.0048097274 0.003571266 0.0128136575 0.074882336 0.014159274 0.017474735 -0.003697998 0.035152912 0.07082868 0.0021154515 0.011097603 -0.0026100378 -0.0024206217 -0.030609857 0.001732269 0.009520419 -0.025796285 0.027014151 -0.013110623 -0.03646222 0.01543058 -0.006340785 -0.001870883 0.057596706 -0.0134500135 0.0089925 -0.003953486 0.0025107316 -0.039551448 0.039750457 0.031183336 -0.014524739 0.040201813 -0.011256501 -0.015199993 -0.005862429 0.017943472 -0.016882937 0.02572169 -0.052479234 0.0074432706 0.00929134 -0.03147568 -0.02942108 0.02394322 0.0018343801 0.00407374 0.046660468 0.023220817 0.0444951 0.029593518 -0.00918804 -0.029101219 0.0021871733 -0.02056361 0.0108018685 -0.021050917 -0.036702845 -0.015681682 -0.023473958 0.02849087 0.020938003 0.012516323 -0.0028263042 0.035740163 -0.0011839608 -0.025897626 0.007751167 0.008588107 -0.0023700115 -0.0057387045 0.030108642 0.03740764
Heath -0.009703691 -0.01703321 -0.025783429 0.044813365 -0.011781621 -0.030631531 0.006364017 -0.0023356404 0.028747745 0.024723671 -0.040666763 -0.02663923 -0.012729052 0.05357691 -0.005752519 0.017304288 -0.017231828 -0.005030094 0.024342742 0.011529896 -0.013225316 0.003722405 0.013787493 -0.011854645 -0.054081902 -0.012345406 -0.012234761 0.019965548 -0.004652296 0.0057331566 -0.0021962659 -0.03141166 -0.028194355 -0.0034780316 -0.031228004 0.021185992 -0.0034491946 -0.005349384 -0.026933251 0.049969383 0.011096749 -0.021931294 0.0008550297 -0.07013502 0.0041774223 0.02052522 0.0022272884 -0.035195153 -0.010455356 0.0025953935 0.017570954 0.036201447 -0.0061154556 0.004825956 -0.044033736 0.005291471 -0.009688596 0.0047135907 0.011715916 0.021686425 -0.0063239834 -0.03258202 0.0023311682 -0.021180084 -0.007988772 0.0056419475 0.033616383 0.018913945 -0.011310764 -0.01147915 0.004485899 -0.022645775 -0.03284446 -0.0005849028 0.063531764 0.0017783033 0.0097870445 -0.022349244 0.04599058 0.004014241 -0.036725312 0.014399334 -0.033725794 0.008154574 -0.006630213 -0.018678058 -0.0061008246 0.039392408 -0.006881118 0.012865854 0.006529608 -0.0042047254 -0.024178645 -0.01346014 -0.0016889817 0.018506575 0.0028504236 0.010260153 0.016725298 0.0045518926
