1001 100
next -0.032554846 -0.06194454 -0.0008609408 -0.020134883 0.023764085 0.0077375537 -0.0059754527 0.015389806 0.015630638 -0.033278104 0.01648527 -0.0135425255 -0.0119622545 -0.033298705 0.018148674 -0.014966987 0.037621938 -0.018196423 -0.019018957 -0.005855056 -0.011845631 0.01566272 -0.05192251 -0.009926024 0.0050096526 0.005026187 -0.0371581 0.01751833 -0.020852726 -0.031929333 0.045923274 0.04627333 0.016260283 -0.030740846 0.054925464 0.016718065 -0.0360885 -0.002470266 0.050993737 -0.02443431 -0.0153552 -0.027480152 -0.009148781 0.026798986 0.049994867 -0.008480878 -0.04561445 -0.020410331 -0.02410933 -0.0059513035 -0.008024443 -0.004035971 -0.034903947 0.009277752 0.00661839 0.015670354 -0.016680323 0.0040785316 -0.015343293 -0.012680427 0.0019953512 0.069481045 -0.015177771 -0.025751838 -0.00090725895 -0.02816141 0.009686992 0.0053897602 -0.021545878 0.008046325 0.024955574 0.019329054 0.022723677 0.004120445 -0.025137201 0.0032819295 0.019562725 0.004180136 0.0019143501 0.008935443 0.030766627 -0.021059446 0.023351934 0.006393716 0.010869763 0.03130576 0.027676169 0.0023246517 -0.019038223 -0.032174315 -0.0027719894 -0.011730133 -0.01984456 0.007766053 -0.026326654 0.006470739 0.041384406 -0.01678674 -0.02470453 -0.017234368
proceed -0.01973007 0.010353058 0.01692731 -0.001472293 -0.016116332 0.003803199 0.000808354 0.0014255627 -0.0015093806 0.0033869953 0.0121096885 0.011426631 0.0038561989 0.036680482 0.0031360653 0.015231499 -0.025333205 0.010150424 -0.017922554 0.0023856256 0.02164063 -0.027277013 -0.010811803 0.029295316 -0.010047155 -0.06355522 -0.018736728 -0.025665144 -0.036322817 0.01465474 0.02320975 0.0050616963 0.012257283 0.025688928 0.008186224 0.016070187 -0.00986513 0.033566274 -0.014455432 -0.0343703 0.015250865 -0.018946216 0.030848468 -0.0011464519 0.015450703 0.05678572 0.031137936 0.003921073 0.032697085 -0.0119026825 0.005472821 -0.03296783 -0.04312911 -0.03295019 -0.023267811 -0.010843978 -0.012563272 0.01896274 -0.0072673573 -0.0039082677 0.0015159339 -0.022363788 0.0077259536 0.00061600097 0.023518452 -0.012134854 -0.0063468292 -0.023767306 -0.035669025 0.017193966 0.016602796 -0.014422302 0.0045592217 -0.0022077921 -0.0014476175 -0.0028887377 0.0033198108 0.021746024 -0.023603499 -0.019354133 0.027535083 0.009408627 0.0030561076 -0.008033207 0.019093398 -0.016699126 0.031506006 0.014630635 0.016800681 0.039010305 -0.016244747 -0.028349627 0.016615892 -0.03452691 -0.021929879 -0.014790749 0.015005197 -0.00082562416 -0.0061994074 0.038935598
additional 0.025284339 -0.029669141 -0.019337343 0.0057789916 0.055273026 0.023446621 -0.008455321 0.0066220686 0.044670794 -0.0017026234 -0.009663382 0.0033070068 -0.013001442 0.006281846 -0.011525062 -0.004774824 0.01896122 -0.027498763 0.030672746 -0.010517665 0.020353429 -0.0027408877 0.029008837 0.01495589 -0.009717253 0.0032705818 -0.03658516 0.0068006157 -0.009046725 0.014210783 -0.002867138 -0.01357437 -0.028345564 -0.0029432746 -0.009121429 0.026155021 0.010625897 -0.0076862443 0.019844692 0.007559426 -0.02684183 -0.0061336947 0.04471763 -0.0036797489 -0.0030071868 -0.02190079 -0.004346807 -0.00694 -0.007337038 -0.024274157 -0.01385917 0.004200808 -0.014094589 0.03118667 -0.018669585 -0.003549975 0.018936148 0.0016898497 0.020887356 -0.024251629 -0.026864536 -0.027473634 0.017627701 -0.019329805 -0.011014536 0.015696697 0.018927636 0.015226705 -0.0093204435 -0.029825326 0.004296912 -0.0038208524 -0.005674783 -0.02264119 0.007865176 0.022297077 -0.0011874518 0.016859759 0.0041793194 0.015690565 -0.034847483 -0.009385536 -0.0007337714 -0.026746789 -0.021109343 0.0044852835 0.026482722 0.011508316 -0.030373886 0.011151886 -0.010599034 -0.013523962 -0.0047952747 0.005257572 0.013480017 0.006720219 -0.0381717 0.028814988 0.010813675 -0.021084573
coordinated -0.02483818 -0.018819278 -0.0035208266 0.00087212556 0.04002605 0.02293334 0.003573522 -0.036674578 0.03429191 0.027996546 -0.001435339 0.058863822 -0.0013841678 0.007933845 0.005861207 0.018237183 -0.019850813 -0.013683068 0.03758568 -0.022522366 0.017803703 -0.055332392 0.01537596 0.03490506 -0.045497946 -0.011185821 -0.015947957 0.036975693 0.008551479 -0.015439408 0.0063664652 0.0068425206 -0.04031066 -0.01885994 0.0054180156 0.023960799 0.010934058 -0.028514832 -0.009493218 0.0252031 -0.010768187 -0.031024698 -0.020581145 -0.0039404277 -0.034144435 0.009805771 -0.011415411 -0.015929293 0.02363233 -0.026287964 0.019233793 -0.01253453 -0.0072995415 0.03909856 -0.004125908 0.05190294 0.009497279 0.022559315 0.030406924 -0.018377718 -0.0015749544 0.0030550696 -0.016712736 -0.012347208 -0.017353194 -0.018831456 -0.0047783274 -0.012590243 0.0007187086 -0.03144139 0.043133873 0.010063147 -0.017122407 -0.0021739583 0.010759741 0.013948709 0.023979632 0.01625577 0.03417847 -0.009621633 -0.0074944333 0.014130317 0.03424374 -0.025656482 -0.016690748 -0.0060725673 0.014780757 -0.010062598 -0.011298074 -0.006225365 0.004427914 0.018522708 -0.043605246 -0.007818114 0.0017787936 0.015098599 -0.014296392 0.017933339 0.036511023 0.016044844
noise 0.033986695 -0.0154287275 0.043689553 0.036987055 0.04791992 -0.00031915633 0.00938377 0.020299936 0.03363877 -0.08789923 0.023090217 0.017113963 0.022720655 0.024315797 -0.00012253411 -0.0019474723 -0.036767136 -0.024708143 -0.059428077 -0.0075217206 0.036456723 0.01933278 -0.0054542692 0.056675896 -0.025712987 0.017449666 0.012976513 0.055723824 -0.028788557 -0.0012194861 0.019560572 0.0148593215 -0.051373996 -0.0041010263 -0.002242246 -0.06418557 0.035047036 0.010609154 -0.0035593272 0.016946953 -0.09362942 0.013098487 -0.012798572 -0.030973569 -0.031725142 -0.0011073566 0.007906467 0.015498354 0.037720293 -0.048627626 0.015895663 -0.028037688 0.0042866766 -0.06018892 0.019199848 0.020735627 -0.012980093 -0.00043075182 -0.0012591723 -0.016118724 0.007199108 0.0017241349 0.038209237 0.00013112149 -0.004320436 0.047608938 -0.040585406 0.00092023314 0.016916761 -0.0021380289 0.026786083 0.034159295 0.007167957 0.041810706 -0.035290524 0.010426116 0.009959711 0.010564618 0.006936281 0.003459365 -0.013153267 -0.0050238073 -0.03375773 0.0003530332 -0.0084634805 0.0044766255 0.0020806026 0.0022199517 -0.033040322 0.006838797 -0.02214756 0.032212712 -0.019452056 0.020335289 -0.04001148 -0.018789096 -0.010211104 0.0005219928 0.007678003 0.008500526
action -0.033090804 -0.017461412 -0.027801579 0.00018380466 0.03328834 -0.03359836 0.014874066 -0.04319326 -0.012840593 -0.03149396 0.014443748 0.012191333 -0.015241693 0.023455877 0.009486003 -0.0109701995 -0.019688051 0.00796284 0.01682223 -0.036629725 0.0274854 0.0068410733 -0.0007856329 0.015650872 0.008942382 0.039836198 -0.04581426 0.04317219 -0.033858933 -0.0018683344 0.019820023 -0.0013405175 -0.018941117 -0.031695284 -0.013213947 -0.036884785 -0.024172744 -0.03497094 -0.012658409 0.022410093 -0.0012454739 -0.00765557 -0.047867276 0.005695527 -0.01950674 0.012735484 0.018503444 -0.025951749 0.07681985 -0.011907507 -0.0039845877 -0.03334717 1.0986696e-05 0.0067767887 -0.023647383 0.008721386 0.0141080925 -0.0002786843 0.010097194 0.018107554 -0.023166379 0.008286867 -0.011969599 0.00792629 -0.030221926 0.004785063 0.038406655 -0.027500475 -0.009567744 -0.02739359 -0.030178705 -0.027045555 0.0053406344 -0.04620026 -0.005243025 0.031105945 -0.037687816 -0.009735434 -0.046636477 -0.025401803 -0.0076848855 0.0073954235 -0.022326749 -0.05618018 0.02993919 -0.0101883365 0.008724733 -0.005685293 0.025431007 -0.008277569 -0.0039196042 0.07429978 -0.021208182 -0.0062430305 -0.012008774 0.062055822 0.021830508 -0.019921344 0.015959607 -0.020487383
Hon. -0.0102825565 -0.0061160726 0.032674786 -0.078874886 -0.021108188 -0.011285532 -0.02321472 -0.040329758 -0.013282721 -0.030736951 -0.011861067 -0.009202368 0.026212096 -0.049845137 0.02497296 -0.008645188 0.023212075 -0.0047862823 -0.0007232337 -0.022113262 0.02732569 -0.013121192 -0.050930753 -0.021531362 0.03574104 0.003467634 0.0013134669 -0.03477794 0.012479763 0.013098452 -0.031311315 -0.0167992 0.06178089 -0.0050929585 0.0065274155 0.038561434 0.03558784 0.0044264393 -0.017388541 -0.049011357 0.012060574 0.04119655 0.019039186 0.019503366 0.0016655219 0.00863007 0.019996021 0.023733845 0.007676895 0.061516546 0.03794792 0.06704448 0.029025063 -0.0007589077 0.021224258 -0.0071694837 -0.0018352538 -0.010740478 -0.017196525 -0.026328621 0.052514024 -0.0059545375 -0.01219777 -0.009915114 -0.007098671 -0.03696119 0.032416813 0.026806219 -0.037500486 0.017946465 -0.013163798 0.0017789896 0.007623721 -0.0028301894 0.0041623553 0.0033714708 0.010756923 -0.023490174 0.058997206 0.0004808334 -0.0072724298 0.030861013 0.002501512 0.021313984 -0.0031422514 -0.0026477617 -0.006964283 -0.018154437 0.029164838 0.00793536 -0.03251155 -0.06453193 0.03832249 -0.0059518707 0.021114117 -0.016807893 0.066143654 -0.013578883 0.02769126 -0.012331018
democracy -0.04076043 0.05918646 -0.024746336 0.013290271 -0.037362516 -0.11419 0.017238818 0.12048716 -0.053084042 -0.04644333 0.075960435 -0.025709549 0.19693123 0.13578422 -0.01404909 -0.04762605 0.01400159 0.059840906 0.061179806 -0.029788515 0.013976771 0.016068231 -0.029592337 -0.048554957 -0.039385643 0.04806096 0.12507917 -0.08864322 -0.014344926 -0.022048961 -0.015230249 -0.0414332 0.119876735 0.043759704 0.022875022 -0.08573412 -0.03569431 0.010736868 0.022316752 -0.025530223 -0.017622182 0.049122717 -0.03687029 -0.043050263 -0.036779203 0.036897857 0.04831442 0.03310351 -0.035088472 0.011174717 -0.052010775 0.03359032 -0.035443448 0.034997888 0.03437245 0.05440566 -0.07826772 -0.003990358 -0.07871138 0.044919815 -0.012175426 0.04808226 -0.0141218295 -0.0042146076 0.00840985 -0.05345817 -0.025666537 -0.11298165 -0.08918007 0.08273846 0.06097288 -0.008358128 0.0058302023 -0.03165425 0.043887325 0.010875043 0.09528558 -0.0925165 0.05313601 0.10538913 0.04876552 -0.053690765 -0.067227356 0.026879443 0.032643363 0.038486127 -0.09836234 -0.10683743 0.028905893 -0.061815593 -0.024569537 -0.051093318 0.043557458 -0.066212706 0.071721904 -0.12609488 0.062411904 -0.15904503 -0.0974535 0.009195108
sensitivity -0.012452116 -0.017360656 0.016237102 -0.01506609 0.0019886382 -0.03806061 0.03192389 0.038790982 -0.010399826 -0.009428491 -0.014600945 -0.039532006 0.018963829 0.0005190548 -0.038867414 0.014629303 0.023079291 -0.025050115 -0.035853922 -0.028105913 0.009873802 0.027930465 0.029697072 -0.0004823265 -0.035219546 0.015091399 -0.021664469 0.026254779 -0.0046770275 -0.0031717406 -0.008049293 0.03220123 0.03487581 -0.00062775624 0.02103552 0.028731573 0.016740356 -0.02621284 -0.0073703188 0.008290124 0.03365538 0.01275426 0.021015547 0.052152187 -0.0012031149 0.002289563 0.015538507 -0.012733952 -0.008222374 0.018444555 -0.028953217 0.032179117 0.040125363 -0.029143615 -0.039104488 -0.0033320857 0.009005067 -0.020904092 0.027556771 0.048643306 0.04282197 0.0028588804 0.012830097 -0.0063128024 0.028743811 -0.019774761 0.04435805 -0.025991399 -0.023538806 -0.0032062517 -0.013725783 0.0074399565 -0.0017691574 0.020243673 -0.0014967518 -0.05910686 0.020902986 -0.03319435 0.011944938 0.036671136 0.0044435803 -0.00027874764 0.0030348948 -0.027812652 -0.04690185 -0.048657037 -0.011467963 -0.03686432 0.009098154 -0.04344501 0.017619055 0.04743067 -0.03876454 -0.023383703 0.008088552 -0.031660613 0.031560086 -0.0063033733 -0.008151144 -0.036406327
embarrassed -0.0016050618 0.02157258 0.021199502 0.0016001514 -0.04293357 -0.00535182 0.012773312 0.0031727029 -0.01004351 0.008280679 0.011437691 -0.0050698672 -0.014033572 0.01379748 0.007115532 0.013952044 -0.008245904 0.021080337 -0.015960857 -0.0085471785 -0.009040552 0.008488361 0.0018129519 -0.01803603 -0.008023054 0.010651908 0.03678213 0.0024373475 0.00721604 -0.0020765504 -0.0020906567 -0.044310953 0.037960004 -0.031718895 0.009722156 -0.0043578516 -0.007517641 0.01925132 -0.025305396 0.019628307 0.016373217 0.0022389558 0.006817902 0.002596918 -0.025837144 -0.021021748 -0.003191779 -0.02140403 0.05177742 0.002251516 -0.020478489 -0.012463155 0.023845632 0.009444839 0.0039694607 -0.018644571 -0.026164962 -0.024696803 -0.01913815 -0.01756248 -0.02273835 0.013194368 -0.0034301733 0.005865202 -0.009357247 0.0054243198 0.01310819 -0.010226916 -0.017320218 0.006090168 -0.06829253 -0.007013256 0.018331513 -0.0379738 -0.046066817 0.03185446 0.021782428 -0.015789784 -0.007178947 0.038294103 -0.0119332895 0.03010384 -0.03093568 -0.016499672 0.012536943 0.020839835 -0.0010289571 -0.01901784 0.025508136 -0.005207817 -0.028435346 0.024850333 0.0019724653 0.05093853 -0.012763608 0.03166121 -0.009238699 0.021531252 0.004009543 0.012733579
agriculture 0.03237886 0.0044921264 -0.022260735 0.024321804 -0.034633677 -0.039546944 0.034060337 0.031217283 0.017802052 -0.023086835 0.00273733 -0.029796235 -0.018093048 0.013897813 -0.005060644 -0.020440442 0.044585768 -0.008117617 -0.06902215 0.018932115 -0.0414978 0.041021697 0.006212512 -0.05996324 0.048442185 0.024253957 0.006040497 -0.01722691 -0.019881405 0.06504192 -0.019542307 -0.021416876 0.05538694 0.04250152 0.017853621 0.021118747 0.016488668 -0.0068193595 -0.033140462 -0.017565144 0.009249033 0.03726431 0.011895218 0.028771862 -0.027676003 0.0075639873 0.004864653 -0.005598832 0.0025881187 0.0015092376 -0.036647506 0.0051298193 0.015323633 0.021531582 0.01835854 -0.016814213 0.009690507 -0.019045716 -0.03019318 -0.006774122 -0.015407964 0.040674016 0.02432814 -0.0008722737 0.00774764 0.019370891 -0.013831412 0.020375112 0.011588216 0.025771817 -0.009275577 0.0039289836 0.016677963 0.0097946245 -0.037185997 -0.02219096 0.018673904 -0.0046122773 0.007273472 0.020992039 0.022562172 0.041811075 -0.008317779 0.0062039886 0.014402945 -0.014764207 -0.017561916 -0.015404084 0.04419273 -0.019945534 -0.033983756 0.018051364 0.009429214 -0.02937551 0.041957308 0.04073451 -0.0007479175 -0.0405833 -0.01311887 0.0460953
censorship -0.012179054 -0.015987994 -0.0052556107 -0.017247433 -0.02398459 -0.032103546 -0.011759341 -0.025583798 -0.0025730133 0.006413148 -0.03349736 0.043627784 0.009709183 0.0037404026 0.0026326047 -0.033817973 -0.015511186 0.000474822 -0.042323716 0.026711134 -0.033190433 0.0077630747 0.010000029 -0.027958991 -0.01574877 -0.010460254 0.0020577156 -0.01972074 -0.0013322382 0.03701035 -0.0056192367 -0.026031103 0.059996128 0.012482053 -0.03387254 0.0043659625 0.006482648 -0.0025218602 0.010508155 -0.020243488 0.018128408 0.003555486 -0.005092136 0.021720758 -0.022043796 -0.007995102 0.016698303 -0.045577873 0.00012111245 0.030821243 0.008240258 0.035875145 0.03813485 -0.024552247 -0.012600787 0.038832728 0.026312584 -0.011662276 -0.00834816 -0.031651814 0.004453093 0.028386544 0.05734859 -0.017174546 -0.019971322 -0.05282335 -0.0069064344 0.0022092466 -0.036503483 0.013810322 0.0012267972 -0.020046903 0.035178363 -0.018167255 0.030906448 0.0010362391 0.017816743 -0.045307223 -0.018687947 -0.033322114 0.05058862 0.005211957 -0.012131823 -0.01929978 0.014420301 -0.005025368 -0.0065890476 -0.07684604 0.00929537 0.033657994 -0.026268639 0.034487378 -0.02655824 -0.017356625 -0.00057526235 5.5892437e-05 0.039716113 -0.025026763 0.0078400755 0.0044462346
let 0.051548492 -0.011005534 -0.05141633 -0.007895561 -0.026090002 0.01414161 -0.030446617 -0.014795519 -0.045027383 -0.08269083 0.0074523585 -0.0061729285 0.0007183306 -0.032796662 0.031696748 -0.045570124 0.042109415 -0.049472284 -0.030488791 0.039462604 -0.013257144 0.007854849 -0.033903357 -0.044012383 0.0481376 -0.015217705 0.027081229 0.0018286537 0.00044090836 0.0045467783 -0.047306024 -0.021274488 0.06532627 0.03553779 -0.007970147 0.018953057 -0.035601027 0.0010466527 -0.04115582 -0.007628125 -0.0011946007 0.0051235305 -0.01684266 -0.028785514 -0.039005052 0.021958765 0.02104417 -0.055295717 -0.04134227 -0.006721068 -0.030414252 0.0419034 0.015415077 -0.034315705 0.026448088 -0.0146567235 -0.0106997555 -0.027214423 -0.05352135 -0.03790609 -0.02264164 0.051068854 0.02729799 -0.0051066848 -0.018069942 0.018368306 -0.019816512 -0.0028896087 -0.038889203 0.009718927 -0.0023962585 0.017629743 0.05889631 0.022131136 -0.011273797 -0.028618013 0.05846091 0.0007968829 -0.004203132 0.02114436 -0.04276953 -0.037301 0.013869232 0.017651068 -0.003960939 0.027564649 0.018708505 -0.008144522 0.017095204 0.015369508 0.050877914 0.00613325 0.05038194 -0.010775931 0.0050668293 -0.04329467 -0.030292146 -0.04413346 -0.030049432 0.0021257363
looked -0.015951581 0.012425209 -0.012885147 -0.03370174 0.059464816 -0.0049144193 0.016112562 0.023230473 -0.0058066496 -0.020171195 -0.013600768 0.034924455 -0.03971092 -0.04590711 0.01889426 0.014338051 0.03846615 -0.04064323 0.019412607 0.030636713 0.0054205395 0.019582372 0.0026156753 0.031006716 0.0039014332 -0.026811603 -0.012220456 0.0003076073 0.006246834 0.033547107 0.013764428 0.07331022 -0.077041775 -0.022747075 0.010676074 0.03729187 -0.008798728 0.039929684 0.034465205 -0.006033871 -0.063333556 -0.042165335 -0.049037367 -0.010606753 -0.03295405 -0.0049348576 0.011255483 -0.003299476 0.030281506 -0.037053138 0.017142747 -0.04424692 0.031874303 0.017779402 -0.015224045 0.031248802 0.005080086 -0.037624493 0.018298604 -0.008211925 0.053649828 0.021532102 -0.044870354 0.0006293983 -0.012959027 0.011640867 -0.034950063 0.009925458 -0.009778316 0.019266477 0.052354522 0.015604376 -0.029193744 -0.022593241 -0.03169445 -0.025116328 -0.02397417 0.048070572 -0.02751311 -0.0019486374 0.017358068 -0.01643911 0.0015062991 -0.006879446 -0.010969532 0.012500398 0.025747165 -0.0074760504 -0.0049776253 0.022096738 -0.0090859635 0.048766658 -0.0050947694 -0.031746022 -0.03396465 -0.0047269105 -0.017192736 0.029842233 -0.018997975 -0.009925972
Motion 0.020439053 -0.02228597 -0.028410895 0.0056796526 -0.042998753 -0.0113412505 0.016217917 0.021120086 -0.019750845 0.013301423 -0.022265954 -0.005046821 0.017099377 0.00996111 0.018973216 -0.015994435 -0.0031317128 -0.005005615 -0.03540368 0.023615744 -0.047867037 0.025886327 -0.006092387 -0.07321096 -0.020055924 0.020570211 0.06286157 -0.015535347 0.02143933 -0.044075105 -0.014705025 0.00709932 0.039412092 -0.003921092 0.0017072884 -0.01633257 -0.012915969 -0.009231691 -0.0039977157 0.019597756 0.05653114 0.038877312 0.0064386744 0.016895028 0.038405597 -0.017379612 -0.012213995 -0.0051291743 -0.033090483 -0.014778962 -0.054448795 0.009436285 -0.010007803 0.019246746 0.034231275 -0.014326823 -0.0062765153 0.008449496 0.0054476066 -0.008032031 -0.024880117 -0.0018549763 0.0192816 -0.00788983 0.006963107 0.018810166 0.022640854 -0.03604621 -0.008759351 0.024252228 0.017897984 -0.0038567178 0.0050592786 0.029960502 -0.029051803 -0.028417885 0.011692575 -0.024910245 -0.017278371 0.011526133 0.0073459772 0.0060993377 -0.029598553 0.0017866323 -0.003957486 -0.0003646533 -0.013322006 0.0033929078 -0.013786141 0.02436348 0.005913655 0.02036881 0.002001753 -0.019867003 0.016461106 0.017799057 0.014006013 -0.02636352 -0.040516693 0.011318725
pledges 0.056426555 -0.0017765032 0.015047431 -0.0026186488 -0.013145031 -0.0054035243 0.009073153 0.0013988587 -0.010748483 -0.04378047 0.028535124 0.01160409 -0.04318588 0.018012539 -0.010511404 -0.016224908 0.0062583857 -0.017134473 -0.04107733 -0.0050540688 -0.01573625 -0.01959883 0.0051042074 -0.02967286 -0.020806441 -0.00020847342 0.015087165 0.013732123 -0.025742713 -0.014391324 0.0085049905 -0.017340206 0.023668656 0.02729134 0.010810481 0.0069426787 -0.036692604 -0.008055904 -0.016764745 0.03531207 -0.039373033 0.010547565 0.016868077 0.010710833 0.021334313 -0.0517138 0.0023868147 -0.01800708 -0.031669296 0.013908174 -0.0064553 -0.005799271 -0.008198961 0.019848019 0.026654575 -0.011615175 -0.017549053 -0.018278819 0.00362176 -0.0059802425 0.015639901 0.012673256 0.023085639 0.038236953 0.029752951 -0.0291205 -0.018853243 -0.014467211 -0.021828396 0.002925612 -0.022719247 0.013223917 -0.027561985 -0.037149798 -0.014533796 0.019625146 -0.026657166 -0.014969175 -0.039697923 0.0398823 -0.048966624 0.025221946 0.021599906 -0.008089645 0.017655985 -0.024177745 0.009490033 -0.030110547 0.027409853 0.027441293 -0.0045366315 -0.008213351 0.01696241 0.01418484 -0.013733321 -0.010482853 -0.012474777 -0.018768154 -0.023123307 -0.0022765833
goal 0.027039975 -0.022870848 0.01710512 -0.006947996 -0.04442312 0.011534799 0.031752218 -0.05598536 -0.008550024 0.04006335 0.015614977 -0.0008147422 0.00480985 0.023057364 -0.04814507 0.015683858 0.007307675 0.032541707 -0.039544266 -0.008476285 0.031005668 -0.049670897 0.011801919 0.025975538 0.012371814 -0.022175323 -0.014331904 0.014093952 -0.0023369826 0.0009305177 -0.013712335 -0.0072557856 -0.051000282 0.0039203325 0.03176148 -0.017004026 0.0011282215 0.034891833 0.0053130896 0.012773758 -0.0367913 -0.015216329 -0.037606943 0.011981427 0.0293287 -0.051338468 0.0007967347 0.0025189635 0.024448069 0.011958533 0.009755379 -0.031255953 -0.00010038132 -0.0148228 -0.013305089 0.0423222 0.020755379 -0.059262104 0.007973488 -0.013575133 0.01752699 0.0028383406 0.0038124616 -0.0016764351 -0.010139742 0.023943288 -0.0105658155 -0.039441843 0.010223027 0.030751048 0.0101868175 -0.036768097 -0.022741154 -0.011288493 0.021326205 -0.040254638 -0.01965086 -0.035897963 0.043949764 0.042672798 0.018107207 -0.021938212 -0.008229511 0.046741262 0.024424618 -0.035229087 0.031042716 -0.014386132 0.0006256177 0.019090638 -0.010958729 -0.0067237183 -0.005142392 0.022732498 0.010100024 0.022219665 -0.0132232085 0.041910727 0.031195564 -0.0066348324
vigorously 0.03417397 -0.03540035 0.026603643 -0.016783413 -0.006431158 0.015193267 -0.016731236 -0.048218414 0.020673886 0.023802612 -0.013934985 0.028988894 0.00019523514 -0.012359121 0.02561128 -0.0034572857 0.013899877 0.016589575 -0.0010455305 0.031164946 -0.015927428 0.0127466 -0.028629774 0.018249225 -0.012236133 0.0066780425 -0.017435757 0.02177336 0.009898179 0.0041660164 0.035241503 0.001905005 -0.027166847 0.006551319 0.003294472 -0.0060108304 -0.03158438 0.013652212 0.021089414 0.022662742 -0.05447524 -0.04006382 -0.016638683 -0.017793363 -0.02403138 -0.025765864 -0.05090139 -0.013806754 0.04110989 0.023471227 0.03312222 -0.0032194534 0.0033151233 -0.00044098988 0.012925814 0.045380075 0.0017275154 0.020498125 0.033543065 0.0076114377 -0.00596946 -0.036609635 0.023285197 -0.018868554 -0.051190093 0.014982383 -0.026094675 -0.028890034 0.0019166899 -0.019621398 0.008214107 0.012963487 0.014252707 0.013983767 0.004372398 0.036978573 -0.0057300786 0.011097514 0.03627803 0.02267947 -0.042966854 -0.051966988 0.0043901484 0.047256142 0.01264127 -0.042742174 -0.0086461585 -0.014741908 0.011839458 -0.00025242628 -0.009127115 0.0014756168 0.0063279183 -0.01593174 0.0029531682 -0.02012207 -0.0069441344 -0.012272639 0.030740393 -0.019893209
seen -0.00041061046 0.010508535 -0.013352306 0.010117223 0.02730043 -0.003417098 -0.014162065 -0.021726659 0.0013677313 -0.021903114 0.010079724 -0.012863011 -0.007899582 -0.053874724 0.0005606697 0.031493895 -0.0032704503 0.010828655 0.008825131 -0.027540317 0.029452091 0.021841876 -0.017644828 0.037412714 -0.009816364 0.0022207994 -0.022274798 -0.0055748583 0.0029114431 0.0012263006 0.01345496 -0.015552058 -0.017940903 -0.02495895 0.012354412 0.021154532 -0.01754849 -0.00017837272 -0.015012518 0.0034887756 -0.013304263 -0.0135264555 -0.009343216 0.029096937 -0.030206962 -0.038792588 -0.007928968 0.018530691 0.012846067 -0.011777622 0.04648566 -0.02258502 0.0009935693 -0.008431437 -0.025366055 0.030171 0.004413302 -0.0024047806 -0.009357421 0.0261224 -0.012505939 -0.03624342 -0.02114084 0.022352764 -0.024851285 -0.006323451 0.0043998086 -0.035765924 0.017513493 0.0006326428 0.008106529 0.010722699 0.016975934 0.0020744833 -0.01352367 0.025057308 0.01905385 -0.05714239 0.00039750966 0.010843394 0.00050507 2.1038577e-06 -0.005190282 0.008691354 0.026166057 -0.009155237 0.0064102584 -0.016301906 0.025719123 -0.053083356 -0.01597224 0.004261053 -0.01105682 0.0149674425 -0.0015844529 0.016495558 0.014231639 -0.017071715 -0.029474683 -0.029847944
moreover 0.065840125 0.028703397 -0.027022308 0.03680059 0.025124155 0.008417173 -0.007389128 -0.0075487476 0.063085675 -0.009406899 -0.036661107 -0.05228768 0.0469374 0.0034095463 -0.024200993 0.061802957 0.044107914 0.033267368 -0.0055312845 0.032239128 -0.0053527546 0.012751628 -0.019710995 0.020102903 -0.00937315 0.010925713 0.07248052 0.038034588 0.004481908 0.015893228 0.039951224 0.020838654 0.018184943 -0.01933375 -0.06780466 0.002121602 0.03335521 0.020995967 0.066957444 0.0199157 0.044285905 -0.004316727 0.08139956 -0.015546141 0.0013817039 0.028690984 -0.07025465 -0.014307524 -0.035906177 0.009313662 0.026338246 -0.017778484 -0.009179383 -0.0060773054 0.0062916623 -0.016256742 0.018827965 -0.0155189615 0.029842366 -0.018466877 -0.013049456 0.0063918014 -0.0034996802 1.9616855e-05 0.0074810497 0.053029604 -0.002296242 -0.00258586 0.009436495 0.0141202025 -0.0010128823 -0.07917112 -0.019746222 0.0695034 -0.03137144 0.05781113 0.027270863 0.03280029 -0.016318997 0.032081235 0.034869026 0.06077069 0.055608306 -0.068299405 0.013224425 -0.019322088 -0.07557443 0.03720845 -0.039309353 -0.017207349 -0.0068236194 -0.040538337 0.003984142 0.029573333 -0.026776526 -0.017982306 0.029093083 -0.05048969 0.051238123 -0.027182441
alternative 0.024917534 0.024161026 -0.014694326 -0.0086301975 -0.029671103 -0.011579595 -0.02064588 -0.007234893 -0.045004133 0.0037400776 0.022192625 -0.017436296 0.007688816 -0.024101213 -0.049145963 -0.050984222 0.030385925 -0.05390566 -0.00088900834 0.020406466 0.028249485 -0.023778524 -0.010714223 -0.048746597 0.0008733653 0.041444678 0.038697224 0.0009900237 -0.0037523138 -0.03348853 -0.029061731 0.009138904 0.03126184 0.04487929 -0.016271856 -0.029671038 -0.0182163 -0.014601874 0.008409936 0.040744863 0.05344497 0.041916564 0.011565987 0.005772209 0.030300915 -0.034947284 0.019920453 0.020696668 -0.063209094 -0.0025932023 -0.045773234 -0.011749127 0.019571304 -0.03395865 -0.0031410167 -0.043346956 -0.016205113 -0.017238704 -0.008465726 -0.011004436 -0.027306285 -0.009630454 0.047587212 0.029683117 0.025703277 0.003631412 -0.017125817 0.026700862 -0.016782071 0.027007166 -0.039977632 -0.024836576 -0.0073275333 0.029642347 -0.025977155 0.028694974 0.018508835 0.007825404 -0.007787382 -0.0032015673 -0.023844989 0.06375924 -0.03130354 -0.011816646 0.0013700227 -0.0121637285 0.002578158 0.009854484 -0.02784005 -0.034309324 -0.006908223 0.011075013 0.006036937 -0.007567775 -0.010433019 0.02678988 -0.00861904 -0.033549387 0.013373247 0.034545593
seems 0.0073086875 -0.013397007 -0.0023432623 -0.008371458 -0.008046668 -0.024462769 0.030972244 0.015780097 -0.010702037 -0.028709896 0.0039377683 -0.0065583503 -0.025042044 0.010540793 0.019723866 -0.042197444 0.039834857 0.007944432 -0.009863783 -0.012977061 0.0068451213 -0.040911302 -0.0035705555 -0.0059598316 0.0048979707 -0.02799299 -0.005065381 0.022132104 -0.0142062 -0.025647385 0.00068862794 0.040310606 -0.010507082 -0.0015843976 -0.026498409 0.008732281 0.023617001 -0.019745514 -0.03399456 0.02238144 -0.038296733 -0.0060909716 -0.007139388 -0.017560298 -0.012958503 0.017394071 -0.0009535988 0.017937616 0.014924394 -0.01990894 0.019097429 0.02472812 0.03258912 -0.006006363 -0.007934641 0.008814817 0.007205072 0.01219602 -0.006201106 -0.020441588 0.008319473 -0.00061533763 -0.023071405 -0.0077272644 0.020262828 0.0037495377 -0.016626917 -0.007162817 0.002127032 -0.014076047 -0.00719451 -0.00799021 -0.0047574476 0.035448436 0.017381707 0.009568543 0.018402088 0.013927789 0.021542644 -0.0010498934 0.041847076 -0.006050393 0.0075665484 0.016731167 0.0014120732 -0.008562996 0.016328495 0.010988978 0.0041735442 0.004200414 0.016104184 -0.00030954904 -0.060266152 0.0099649085 -0.018144703 -0.024917793 -0.010762545 0.021431886 0.03444747 0.033676695
security -0.048438217 0.03566544 -0.015657801 0.0004545711 0.03173729 -0.024064824 -0.024814863 -0.04276592 -0.015313918 0.017901849 -0.058087636 -0.052192356 -0.015415937 -0.018876843 0.019909179 0.020489588 0.020192003 -0.03973404 0.00046875788 0.017379513 0.008900639 0.0145916995 -2.9635965e-05 -0.028944816 -0.046440154 0.029073864 0.019444162 -0.0338411 0.008308402 0.017294278 -0.018574258 0.013575108 -0.014632831 0.0006855001 -0.0028764026 0.032149266 0.008719363 0.016576033 0.010189234 0.008671103 -0.017457599 -0.039999295 0.03590179 -0.020355724 0.024287755 -0.017579084 0.009775488 0.015048917 0.026019985 -0.011347938 -0.034077883 0.030275352 0.00048492156 0.034355816 -0.0010846847 0.0390531 -0.000634447 -0.007489874 0.01978262 -0.01643972 0.005373715 0.0014602904 -0.013652811 0.0021808846 0.020304598 -0.014413442 0.01158892 0.0129566705 0.033125952 -0.03595896 0.01015002 -0.015843723 -0.041241765 0.013458437 -0.0045408257 -0.04682788 -0.0511872 0.0022397162 -0.007355533 -0.023891978 0.0032381206 0.012927774 -0.01567885 -0.0031529854 0.024330549 0.01262205 0.0026497992 0.00024912244 0.016496055 0.067522645 0.01193486 0.021329379 -0.000350895 -0.037430413 0.00665239 0.03287387 0.005851543 0.0014298246 -0.004102203 -0.00067452656
operations 0.017890155 -0.0014940682 -0.029191224 0.047945786 -0.018519802 0.061917298 0.045399856 -0.020074604 -0.025178017 -0.015560299 -0.00024222326 -0.0253252 -0.0063908896 0.006371096 0.031655632 -0.014193062 0.013129654 -0.055470545 -0.003583388 -0.039443944 0.023428472 -0.048332416 0.037884593 -0.0031667338 -0.02144915 0.03616293 0.021213947 0.07746742 -0.051083624 0.032067854 -0.05779238 -0.018314648 -0.025561953 -0.0013837 -0.0027951044 0.02440033 0.023076307 -0.007958419 -0.042177375 -0.0038557216 -0.058990486 0.0012257847 -0.0032252884 0.11750919 0.0016920107 -0.002560086 -0.03265737 0.09290698 0.024146685 0.04328456 -0.0016955086 0.03722761 -0.020979935 0.030264517 -0.039867252 0.046910733 0.030066356 -0.03163511 -0.025304873 -0.0017548497 -0.0088272635 0.02082048 0.007973251 -0.018887445 0.0058354917 0.02117497 0.027811734 -0.057083674 -0.061034497 -0.029303508 -0.060531825 -0.044993307 0.040572807 0.025571058 -0.0021474077 -0.013691025 0.019510072 -0.022304475 0.011303416 0.00047078877 -0.006229026 0.027046446 -0.05584518 0.015810134 -0.011516268 0.01217361 -0.0006454283 -0.020262519 -0.051730186 -0.05643414 0.004895076 0.0055776774 -0.039276257 0.0144165605 0.013135235 0.06510307 -0.041204374 0.013963164 -0.026715782 -0.026435198
point -0.024726342 0.019796068 -0.0069051897 -0.008050006 -0.0013741262 0.02303526 0.017580254 0.010160601 0.0002951474 -0.020005226 -0.01270402 0.008072451 -0.011318942 -0.0044316314 0.0066796495 -0.02460839 0.009237269 -0.0256139 -0.027895615 0.017106688 -0.040198423 -0.046603657 0.022127332 0.037842557 -0.02586816 -0.008074132 0.004086037 -0.04113289 -0.009941955 -0.035203982 -0.00036907708 0.0005499172 -0.009301352 0.013438865 -0.02540485 0.02248801 -0.022664875 -0.016856056 0.0019441345 -0.015232961 -0.015885916 -0.0016304987 0.0039043492 0.011334587 -0.017461948 -0.0032954265 -0.04069046 0.011739866 0.006105408 -0.01898675 0.0010071527 -0.01956393 -0.034589153 0.019553836 0.007234491 0.012916195 0.002681529 0.02833241 0.026936138 -0.031469166 -0.0010921714 -0.022138579 -0.018871697 0.009542837 0.02806 -0.029759247 0.018338604 0.0024377613 0.031556565 -0.04710102 -0.023993438 -0.034855414 -0.0024258725 -0.0035246338 -0.003871759 0.009182463 -0.03583425 0.00044013388 -0.025303435 -0.040664643 0.009452409 -0.0044224323 -0.0032837905 0.011756216 -0.00827409 0.016175942 -0.02242491 0.009736885 -0.031217216 0.016505389 -0.027801944 -0.010209307 -0.019119503 -4.226691e-05 -0.029974164 0.044706207 0.006444306 -0.006197436 0.0095988065 -0.035499033
approach -0.015944652 0.01412781 -0.010113117 -0.012001887 -0.02732831 -0.0062543754 0.018164173 0.026774615 -0.020632861 -0.026460983 0.023209888 -0.031084321 0.013215965 -0.021043776 0.055355985 -0.019747976 -0.0074180714 0.008379742 -0.039479934 -0.03057953 -0.0024892297 0.033180714 0.004165016 -0.03336163 0.03062974 -0.008352439 0.017868282 0.010745018 -0.012842021 -0.016096313 -0.008105816 -0.048477575 0.00046691357 0.014827963 0.018043501 -0.008889994 -0.025672374 0.0010571678 0.0028375662 -0.039469216 0.018982358 0.026803635 0.02457745 -0.036009733 -0.04205998 0.011774695 -0.016449686 -0.01692754 0.029477831 0.0078193545 -0.017740278 0.028602665 -0.025160858 -0.0076829493 0.029960927 -0.024309821 0.013597654 -0.007624484 -0.023188446 -0.005260381 0.016579235 0.0013711484 0.020716112 -0.022938548 0.001831106 0.035707075 0.030949732 -0.022440137 -0.009073518 -0.01789201 0.01829796 0.026793964 -0.002477945 -0.01872899 0.03330832 -0.0471052 0.0050191716 0.0072911484 0.03716469 0.029664973 0.010674804 -0.00504623 -0.0074485736 0.030760242 0.00049577304 -0.0065810047 -0.011275426 -0.023284433 0.03188491 0.0056341784 -0.0034801662 0.0048703193 -0.0092109265 -0.011328495 -0.016942395 -0.023010578 -0.02438418 0.03278728 -0.0075358083 0.004199883
intermediate -0.050375596 0.011245461 0.0025902968 -0.020384323 0.0022300617 0.009378734 0.0048930338 -0.0017407107 -0.011507616 0.016576964 -0.010014047 0.018266352 0.0006533051 -0.011830176 -0.010887626 0.023717389 0.027622512 -0.0023573004 0.025739353 -0.010991442 0.0026298543 0.0046396735 0.04266569 0.053464394 0.010426057 -0.02866597 -0.0044871555 0.001583185 -0.008027075 -0.021649178 0.012076818 -0.03067288 -0.032254554 -0.02360307 0.0144366035 -0.0015030185 -0.025916744 0.044874564 0.00049694045 0.015218925 -0.010691815 -0.0007289249 -0.026827054 -0.022330442 -0.010202529 -0.030163428 0.001139287 -0.0004010339 0.01992088 0.010551085 0.007289417 -0.04366189 -0.0018363656 0.0038370197 0.013910901 -0.0020399813 -0.0293419 -0.0016719392 0.010855308 -0.00035305036 -0.03898276 -0.0015352495 0.010763654 0.00060312403 0.0132083455 0.018714003 0.0047602863 0.012472218 -0.01983412 -0.036409505 0.025673114 -0.0010168608 -0.0178628 -0.015044173 0.006209948 0.024973666 -0.022636801 -0.006111252 -0.0014277874 -0.008578226 -0.0109180305 -0.028685745 0.0001974049 0.007697697 0.013499107 0.017195523 0.011328898 0.028011804 -0.053170834 -0.044692192 -0.02228843 0.0138070015 0.013882869 0.014571077 -0.03396067 -0.0013046621 0.006646171 0.024762165 -0.031023972 -0.041704185
recommendation -0.011409349 -0.025514906 -0.037223306 -0.025745658 -0.008286486 0.024143059 0.039729007 -0.00090444466 -0.024435742 -0.0147530455 0.033789203 -0.025694782 -0.027933378 -0.05034146 0.032732695 0.010042778 -0.019563496 -0.013799963 0.028146725 -0.045849133 -0.011400461 -0.001541139 -0.026136393 -0.010365527 -0.019624744 -0.025388429 0.018247401 -0.04955545 -0.012439712 0.014804924 -0.027395183 -0.033174366 0.015126543 -0.012100832 -0.023404375 -0.032184172 0.042760674 -0.000790334 -0.0063120043 0.01451766 -0.013440747 -0.005142632 0.0253696 -0.002555116 -0.0055712257 -0.018138591 -0.017218579 -0.022224754 0.023344759 0.047279444 0.0047388873 0.0124203395 -0.0062060105 -0.0035349424 -0.011928324 0.017238941 0.002405956 0.016634814 0.014534042 0.04988186 0.004065742 0.0051032854 0.012451618 0.000116861425 -0.002259995 0.008278286 -0.01681128 0.009728586 -0.016420718 -0.00767646 -0.016160011 -0.013162377 0.017198002 0.00032950554 -0.0056781997 0.0009901616 -0.019330468 0.023814984 0.01840134 0.007822586 -0.025901299 0.0010357682 -0.045112807 -0.033483632 0.015814409 -0.020627595 0.028722964 -0.0035573808 0.039089076 0.0023880817 -0.023548374 -0.029201612 -0.010991618 0.00043560538 0.011308657 -0.014696578 -0.0020543316 0.05695059 -0.063873336 0.054768063
serve -0.03919721 0.0048173866 -0.0083261 -0.023503078 -0.036557492 -0.003625374 -0.01791602 0.04306513 -0.010983927 0.0836649 0.0779899 0.021870688 -0.015279794 0.010154314 -0.038494784 0.031939168 -0.03666378 0.0545701 0.026200378 -0.0324884 -0.014847346 0.026125494 0.060575366 0.032524448 0.022305004 -0.0030254347 -0.0004803483 -0.0114937015 -0.04136824 -0.018773394 0.015971273 -0.008031222 0.027550075 -0.0031286576 0.022026232 0.017561555 -0.08866651 0.034108106 0.02418998 0.02035005 0.024364598 -0.011027059 0.030623449 -0.041288596 -0.017935343 -0.012553929 -0.008160852 0.039805878 0.03500298 0.012730713 0.008170187 -0.051522788 -0.07247753 0.020071773 -0.033096686 0.010167853 0.012665903 0.0025945902 -0.03146238 0.023122318 0.0044113724 -0.0046230378 0.055737823 -0.005076647 -0.05604869 -0.04678013 0.06656728 0.03535939 -0.015808519 0.0144501 -0.03191539 -0.067244306 -0.0016656441 0.048534904 -0.0157093 0.0359109 0.00027960702 0.046764426 -0.013339303 0.02148915 -0.0075790253 -0.02446239 0.031101571 -0.022696834 -0.06432656 0.0139799705 0.019685104 0.008761505 0.046182863 -0.01035651 -0.0035828094 0.023007676 0.03390498 0.009972148 -0.0026791824 -0.015436699 -0.024907563 0.011263054 -0.019188846 -0.060841452
certain 0.013673299 -0.004244332 0.043726727 -0.07747478 -0.050000034 -0.012587367 0.029478433 0.04448501 -0.050099574 0.008683927 0.027260862 -0.025307678 -0.018527923 0.030245092 0.021996383 0.053323355 0.009431918 -0.016867729 -0.054870322 -0.02964888 0.0138520505 0.0151338605 -0.040790997 -0.029653668 0.035637014 0.008379506 0.019864785 -0.024848422 -0.057778917 -0.028084824 -0.027678248 -0.025062677 0.102548525 0.01907325 -0.013227147 0.035221502 0.028294018 0.05710639 -0.032637075 0.011639257 0.024699809 0.050660525 0.030160928 -0.008834876 -0.0015991002 -0.015045446 0.070164286 0.015210328 -0.016749188 0.028303578 -0.048788015 0.07011228 0.027378777 0.007077438 -0.020251013 -0.01388772 0.00094848976 -0.0329183 -0.0135976095 0.009005012 -0.0023630757 0.04772044 0.0404068 0.04563135 0.014661592 0.05050803 -0.042368017 0.02309081 -0.09268074 0.07293579 -0.019207705 0.003089931 0.026406877 -0.0041393526 -0.047077022 -0.028770998 0.07122873 -0.022290818 0.03638283 0.018916309 0.04470275 0.024585743 0.02750549 -0.0022177114 -0.029366482 -0.007927561 -0.024642775 -0.014474202 0.03050058 0.009217516 -0.0030472581 0.039099637 0.023228252 0.027293134 0.044985507 0.0036049273 0.014244046 -0.08293687 -0.013671321 -0.0023776796
Northern 0.011225459 -0.0034423987 0.010728935 -0.018630154 -0.0032599359 0.030730616 0.0061063264 -0.004089123 0.015658095 0.0016164837 -0.0071848696 -0.035066698 -0.008662364 0.012707013 -0.033417646 -0.0038510105 0.023661554 0.03254054 -0.0037480895 0.012823188 -0.0045961062 -0.0226277 0.02005528 0.047159825 0.025966447 -0.008954287 0.02679841 -0.035007533 -0.016366621 0.010402387 0.004204554 0.008918632 -0.016656008 -0.03268396 0.030405791 3.9495993e-05 -0.0053192945 -0.004118193 -0.013087964 0.029271076 -0.01617527 -0.006598676 0.016733736 0.011549604 -0.0445936 0.0025189081 0.018713167 -0.039063007 -0.015156821 0.004615264 0.021307671 0.016168114 -0.0042387918 -0.014872987 0.0034725973 0.016740182 0.016852172 -0.03196902 -0.018441027 0.0014443528 -0.019969668 0.029857643 -0.0096975 0.04487492 0.011137784 0.011168828 0.0049141995 0.03388579 0.0102392435 -0.014935751 0.029136427 0.007933462 -0.002195148 -0.0074543906 -0.0019392299 0.027501527 -0.012183946 0.022874461 0.03093269 0.02949549 -0.029508881 -0.009269125 -0.021972995 -0.028936172 0.023762435 0.018125465 0.017330978 0.019328611 -0.009289198 0.032856118 0.014689643 -0.0044361306 0.03106942 0.006646191 0.016289143 -0.023125326 -0.02726333 0.036591846 -0.01596429 -0.01861221
regulations 0.010662368 0.018771851 0.02781081 -0.00821457 -0.01717764 -0.0041394667 -0.033450056 0.0026522717 0.025665108 0.012506119 0.0012022881 -0.036843877 0.0050845332 0.018673489 0.005939603 -0.0076359543 0.03272148 0.004313144 -0.006676054 0.006784615 -0.026322797 0.038045567 -0.027109645 -0.019030493 0.0010238963 0.020946776 0.012470056 0.0026203678 -0.0076669557 -0.0050110375 -0.0025298786 0.010306216 0.03764069 0.009239442 0.027774427 -0.033666365 -0.0030079545 -0.0048545543 -0.016274981 -0.0085451985 0.021551171 0.012522496 0.024601651 0.021010742 0.056049578 0.011701013 0.019597711 0.0022599678 0.0014839312 0.00030971365 -0.03577666 0.07152322 -0.008385323 -0.009610139 0.012011237 -0.030360809 -0.002927457 -0.025005251 -0.032087985 -0.0013283658 0.02603638 0.0095146615 0.020387828 0.0096015055 0.06578817 -0.032600075 0.009384076 -0.0071615586 0.014763855 -0.003669558 -0.00822205 0.01383617 0.0062368074 0.0036332144 0.0061618574 0.0244172 0.014640734 0.005746495 0.03745295 -0.015273267 -0.011900872 -6.227428e-05 -0.011708774 -0.005776979 -0.045873754 0.01994927 -0.056816194 -0.007115797 -0.0057205097 -0.019874938 0.031860307 0.036416892 0.0101852305 -0.015859505 0.00455582 -0.0065465537 0.030124202 -0.0011108893 -0.021231636 0.022866998
afford -0.004969548 -0.015835242 -0.007692314 0.011070707 0.0023516994 -0.032938275 -0.013137189 -0.028190421 -0.035714217 0.014954279 -0.013461522 0.009937013 -0.022070264 -0.007516445 0.009742593 -0.028762545 0.036566645 -0.012778545 0.0010957605 -0.018416118 0.038878627 -0.042849332 0.023239544 -0.020265402 0.0078973975 -0.02395586 -0.0023156006 -0.02224491 0.03849807 -0.023416787 -0.016887486 0.02632846 -0.02915922 0.00405029 -0.016054844 0.012127314 0.024975304 -0.022414232 0.022038858 -0.008650089 -0.0057948986 -0.012227298 0.0020031745 -0.031132868 0.010330918 0.0030711 0.021519275 -0.008889283 0.008500807 -0.0069971387 0.03450634 -0.011782118 0.04328917 0.020165518 -0.0008826536 0.020727756 0.006268083 0.0155117065 0.03483414 0.016103316 -0.0063177007 -0.006158935 -0.018522874 0.009787103 -0.0041608857 0.02651003 0.014018161 -0.030885706 -0.022753367 -0.0074463994 0.01562268 -0.014399914 -0.046665534 0.0064487695 0.0322412 -0.022061475 -0.0186094 0.016064737 -0.039028462 0.008636856 -0.0023259788 0.007995149 0.027670277 0.04017461 0.010301419 -0.04252983 -0.009855352 -0.01267049 -0.00038106565 0.004593693 0.019943872 0.00014999966 -0.0020363024 -0.020622533 -0.024952477 -0.00519465 -0.006496832 -0.020686474 0.00570319 -0.04573586
unemployment -0.016055567 0.01804249 -0.009862602 0.013414084 0.0011383165 0.030590395 0.010158648 0.019153718 0.013504086 -0.009054352 -0.008655707 -0.011372877 -0.01420821 -0.021640204 0.0053324853 -0.015592153 -0.023885727 0.018382967 0.0072728684 -0.0040971735 -0.008091283 0.011485613 0.022475863 -0.034292974 -0.018777154 -0.015075835 0.002058494 -0.0068134954 -0.015431255 -0.0031892979 -0.021586685 -0.02373643 -0.040399224 -0.0249512 0.0014235926 0.028904926 -0.021284765 0.0030264156 -0.015124232 -0.0184793 -0.015123018 0.039642166 0.002518263 0.0071553425 -0.0013465367 -0.00013074733 0.0073694726 -0.010084374 -0.0031733578 0.00994285 0.034010153 0.004186758 -0.00718375 0.0076527153 0.006295535 -0.017953184 0.009460748 -0.017281663 -0.002100981 -0.0076869656 0.011877597 -0.046813983 -0.011376964 0.05150261 -0.01930502 -0.021272054 -0.003063921 0.03968046 -0.0071634026 -0.004520735 0.005060795 -0.0051597105 -0.023623971 0.005883651 0.03263722 -0.004454196 -0.011511929 -0.012023472 -0.009649121 0.00943043 -0.011873511 -1.70446e-05 0.035380103 -0.01324537 -0.00019281649 0.005966 -0.018213047 -0.029385995 -0.0031150996 -0.018244933 -0.0039692577 -0.030644098 -0.008530892 -0.024116553 0.003712412 -0.003796019 -0.027921338 0.0073608803 -0.033236206 -0.0026912123
drop 0.015729954 -0.019791447 0.016303772 -0.0120751485 -0.036690924 -0.019947547 -0.0134552885 -0.018881505 -0.014504902 -0.040834915 0.0075807376 -0.0066757523 -0.011787603 0.049314182 0.0039466326 0.0072668176 0.040878624 0.046765123 0.007906714 -0.009752593 -0.01806858 -0.037318718 0.004646221 0.048323043 0.024464333 -0.0009782161 -0.011631984 0.02211543 0.026809057 -0.0023302494 -0.036975376 0.0017916269 -0.018850576 0.0060838726 -0.025870819 -0.034617607 0.006906053 -0.030609416 0.00586194 0.012660134 0.015991988 -0.0056027155 -0.0012344416 0.033282585 0.03519355 -0.032948725 0.013936412 0.0064922725 0.007389415 0.014812341 0.016123537 0.00055642053 0.003533053 0.010131309 -0.0063253124 -0.028120976 -0.0013227647 0.01437558 0.0036307052 0.013198841 0.0018095572 0.021043027 0.01188029 -0.052907497 -0.0030786223 0.002267713 -0.019985402 -0.009262181 0.023966113 0.022609526 0.027414978 0.00024686725 0.008467368 -0.017482916 0.056176856 -0.024914367 -0.017575838 0.007946234 0.0043133567 -0.019309357 -0.0174075 0.019200591 -0.014689261 0.018611878 0.025394015 0.001947873 -0.011529434 0.025926964 -0.030494453 0.0036376053 -0.00536993 -0.037925374 -0.042392883 0.010870498 -0.038149327 -0.01883073 0.031790677 -0.0050618653 0.027596744 0.031458024
survivor 0.035506364 0.053116757 -0.010879353 -0.03336747 -0.01421658 -0.012316445 0.011560564 0.0034916573 0.0046787714 0.016008513 0.013183773 -0.0017631738 0.038552307 -0.045612726 -0.004741514 0.025300961 0.026270494 0.011053884 0.001720154 0.010562663 -0.049017724 -0.044406492 -0.004800609 -0.026640223 0.016305374 -0.016115868 0.01619435 -0.038090475 -0.011967442 0.016450075 -0.0058175283 -0.04350752 0.017528072 0.007010849 -0.008516994 -0.014988213 -0.007104498 -0.011427749 0.003142216 0.00026905572 0.0118583655 0.024828587 0.026970932 0.031823616 -0.012427378 -0.023800692 0.017386235 0.03202847 -0.059873458 -0.014124444 0.0015347262 0.03828787 -7.742543e-05 0.03697976 -0.0033557902 -0.027332414 -0.029098345 -0.004430641 0.0057684053 -0.0007491354 -0.0111520095 0.0018028711 -0.03896178 -0.01649329 -0.009297703 -0.0044827447 0.030009951 0.00013155793 0.0175076 0.033301856 -0.06823251 0.031993784 0.026839461 0.017251858 -0.017993735 -0.0033876612 -0.016194303 0.029216256 0.048497975 0.022614066 -0.01927311 0.01816446 0.029223403 0.00311562 0.060606394 0.028350342 0.0012665825 0.0020926797 -0.007366604 -0.022127444 0.015677445 0.0042246026 0.05749258 0.010819209 0.029530209 -0.040057495 -0.019889465 -0.06578874 -0.0029110387 0.03894521
purpose -0.0010680745 -0.029264595 -0.009052931 0.017247703 0.035656586 0.023246948 0.00020258204 0.01858271 -0.02447385 0.015974257 0.0016438786 -0.003243499 0.026560526 -0.0038982597 0.007778322 0.0083447825 -0.017796747 -0.0038810442 -0.0054663 0.008116537 0.01874699 0.02184154 0.0027886406 -0.034628775 -0.03369634 0.021480259 0.018171472 -0.02719104 -0.027994895 -0.03229643 -0.018634927 -0.02735128 -0.007932301 0.03317065 -0.012310902 0.007883711 -0.009854193 0.019111102 0.0030845492 -0.0017888749 0.055652756 -0.035744525 -0.014206105 0.02614132 0.021553617 0.0019628534 0.0009432593 0.012374127 0.032343812 -0.02206114 -0.02439808 -0.017643543 0.0041021146 -0.017051198 0.02645157 0.00041981932 -0.019944262 0.03186285 0.019824132 -0.042956613 0.028206429 0.0074047875 -0.014282767 0.014445872 -0.023806835 -0.00856843 0.014008014 0.0044964496 -0.0050755166 -0.01434212 0.020295726 0.013750878 -0.0046758302 0.01422053 -0.01258631 0.013442992 -0.0094703585 -0.0068662176 0.000510546 0.006938398 0.03671184 0.0026618964 -0.02529871 -0.0035755439 -0.0015239926 -0.044959255 -0.01443071 -0.019414932 0.013827225 -0.034367498 0.0070974305 0.023750952 -0.011640426 0.001928958 0.022366878 0.0057629445 -0.008854991 0.0116857 -0.02921825 0.02250563
indicate 0.026147526 0.0020125718 0.004607588 0.0017584732 0.019009426 0.02902411 0.0098581705 -0.009899559 0.0053960606 -0.00021731973 0.027185105 0.006844058 0.025257943 -0.033268627 0.022741273 0.0053929067 0.003549313 -0.0081863245 0.023662968 -0.0088105155 -0.010780334 -0.0043398696 -0.06384658 0.005643168 -0.017986307 0.0063299756 0.013520704 -0.0070432816 -0.031811804 0.0125198215 -0.02152442 -3.1853502e-05 -0.045521323 -0.020399168 0.060789928 0.003114254 0.034589443 -0.009611463 -0.015138848 -0.05508156 -0.03399392 -0.01963228 0.017384734 0.017837813 0.014199396 -0.006496351 -0.0035355822 -0.04992041 -0.001118327 -0.015122793 0.01108292 0.02191311 -0.002069876 -0.028689113 -0.00676151 -0.020994443 0.04195532 0.040107515 -0.019620528 0.0204498 -0.044015013 -0.009014012 -0.0098783765 0.007203317 -0.08365493 -0.017759187 0.011730437 -0.04508053 -0.0028386705 0.00043525512 0.005217895 -0.02355823 0.024856862 -0.07182756 -0.052675862 -0.008965565 -0.034223616 -0.005255199 0.016434103 0.018557563 0.031981993 -0.010544413 0.047896814 -0.028681766 -0.015734676 0.01789061 -0.020733608 0.03354879 0.004672126 -0.023512859 -0.05456955 -0.00668709 -0.010626351 0.0028236802 0.006294294 -0.013899675 0.006156599 0.009814076 -0.019850047 -0.021920072
half 0.006572571 -0.0071177026 -0.008341199 0.038817503 -0.00850598 -0.0137394825 -0.013984301 -0.011983427 0.0064534657 -0.006482876 -0.02216103 -0.012106791 -0.020182118 -0.018605206 0.0021143008 -0.0016213781 -0.0020271223 -0.005676109 -0.032578867 -0.0017789708 -0.0002241361 -0.00659484 0.015655458 -0.026062123 -0.009200705 -0.0053091804 0.016175492 -0.03997335 0.0044645225 -0.014056988 0.007148295 0.007215237 0.011539777 -0.0014909896 0.010590728 -0.042311274 0.007690705 -0.0074878507 0.0044114115 -0.017489007 0.018058522 -0.0021786664 0.03974849 -0.046789624 -0.04299161 -0.021596497 0.02058668 0.00048071254 0.027219543 0.0010319502 -0.0055544293 0.01475022 0.00081837963 -0.012245584 0.0058214553 0.005121927 -0.00092208595 -0.0065127145 0.019221919 -0.016604548 0.017291602 0.019145126 0.004156157 0.020549921 0.008599638 0.0029752648 0.012533992 -0.008398002 0.00464812 -0.003793115 -0.018914388 -0.012365209 0.016419537 -0.019876326 0.041500412 -0.029991541 -0.014373552 -0.02253126 0.037949912 0.012879846 0.0031889193 -0.0043855095 -0.0043084202 0.024248606 -0.039549973 -0.00762985 0.010845079 0.011202214 0.0026673586 -0.009011463 -0.00025311555 -0.03300114 0.018439058 -0.019960035 0.009775297 0.0116895605 0.011407087 -0.015429672 -0.018367158 -0.0024011973
require -0.0040818085 -0.016196907 0.043703776 0.033758737 -0.020559004 -0.0042868764 -0.027448488 0.03012475 -0.03182456 0.042397816 -0.009758996 -0.00045617094 -0.010025534 0.015469453 0.0013026611 -0.0059925583 -0.021164834 -0.027111162 -0.051334318 0.0011248516 -0.05035885 0.008324399 0.072534755 -0.028191665 -0.0067893844 0.023103045 -0.0053001214 -0.054156348 0.020892022 -0.0124474205 0.07058667 -0.026407203 0.052955296 -0.002319898 0.009564571 0.0077676196 0.026262576 0.018768808 0.0057498654 -0.012801444 0.005079898 -0.0003093916 0.025920905 -0.0141544845 -0.029852495 -0.005123862 0.02306521 0.018570077 0.007100063 0.035028175 0.021120213 0.03673449 -0.016795902 0.029573968 0.0012107313 -0.028775388 -0.02804333 0.012735958 -0.034960575 0.0250393 -0.011909239 0.023591155 -0.01300678 0.005695047 0.02482893 0.00094800594 0.019284856 -0.0095637 -0.0201498 0.007790783 0.011357278 0.0010292206 0.004269731 0.0049119107 0.0042744633 -0.021499285 0.06692583 0.034821738 -0.020713272 0.0044069 -0.03289121 0.02895573 -0.02666293 0.045222122 -0.012591292 -0.0060995943 -4.143035e-05 -0.00018048375 -0.03615597 0.0033843676 -0.009547041 0.0017403248 0.028125502 0.0040180106 0.004476727 -0.010155884 0.026358504 -0.035760462 -0.024769058 -0.021941733
well 0.034544628 -0.0131417755 0.010131594 0.0013019742 0.009732749 0.006808532 0.01655861 0.010761672 -0.014026933 -0.010435814 -0.012422969 -0.024214288 -0.002607113 0.030706175 0.0051746285 0.012361212 -0.03072845 -0.006985004 -0.00030078297 -0.035640992 0.015167399 0.05175142 -0.017602682 -0.03871126 -0.020247672 -0.0038524861 -0.019693384 -0.0050566993 0.03771116 0.025039071 0.022253424 0.007774582 0.03512184 0.012966288 0.024440426 0.008181492 0.012473545 0.0051061953 -0.047973912 -0.00674919 0.02703539 -0.037060287 -0.017368186 0.044684205 0.029722257 -0.004327552 0.007326769 0.009237551 -0.016134026 -0.0043174895 0.023757398 0.029233709 0.022952719 0.020929834 -0.028402122 0.01700593 -0.0047339858 0.0025228017 -0.012150576 0.016316712 -0.0026031032 -0.013685747 0.022515431 -0.017127365 -0.02445701 -0.032813475 0.0046099415 -0.0006641954 0.025266647 0.003520145 -0.028782679 0.039894395 -0.0027013535 0.007774298 -0.0030324655 -0.017159432 0.029343072 -0.04915388 0.00227491 0.018976847 0.0103833405 -0.0012039255 -0.021307332 -0.021467816 -0.008808477 -0.0033520884 -0.0045593544 0.020984529 -0.002591509 0.0063432436 0.024306552 0.007138891 0.0031305335 -0.0107564675 0.022252532 -0.0005665328 -0.017112121 0.02831639 0.009961583 0.010334483
Court -0.016184527 -0.018251715 0.012805674 0.037257604 -0.008700987 0.03940555 0.042766467 0.010355827 0.040084403 0.04433773 0.0074098073 0.03734858 -0.0034570738 -0.01436504 0.006899389 0.02971992 0.03176969 0.004770857 0.04208833 0.004023437 0.011406522 -0.006825435 -0.002939566 0.038603697 -0.014590925 -0.006423848 -0.01757447 0.003348343 -0.012127775 -0.0050322716 0.014261324 0.03467033 -0.031928632 0.019249607 0.02264531 -0.045922183 0.00036099134 0.022510648 -0.013422284 0.017403262 -0.051001813 -0.035665225 -0.0033432853 0.04338096 0.034258977 -0.012636694 -0.016583346 0.028211586 0.04071705 -0.033570677 0.0243498 -0.029321559 -0.040993996 -0.008439935 0.005252461 0.01620902 0.027785722 0.024432149 -0.024415499 -0.011762321 -0.018495087 -0.0076420833 -0.043127168 -0.049042296 -0.017212724 -0.017316878 -0.025943963 -0.008193265 0.04077903 -0.021576468 -0.002823504 -0.0063636466 -0.013534654 -0.04116144 -0.021853006 0.0074520074 -0.039791707 0.041739207 0.023594137 -0.0015730709 -0.0075956034 -0.009434114 -0.0052552195 -0.032817256 0.024714798 0.0015237911 -0.036805384 -0.0069950833 0.026209623 0.02193588 -0.04159561 -0.0052985596 -0.009827955 -1.1232798e-05 0.020570511 -0.0116131175 -0.031935897 0.014659551 0.034649823 0.00328387
6.42 -0.005794628 0.004140321 -0.03558385 0.018870875 -0.04066833 0.008287817 -0.023315324 -0.005349437 -0.0599825 -0.047713324 -0.012940122 -0.013142039 -0.005353416 0.029283417 0.0020776289 -0.0018632526 -0.012299813 -0.017038435 -0.017617367 0.019606048 -0.016809793 0.02247158 -0.06088419 -0.040419888 0.008817873 0.0008250464 0.0010932316 -0.0040460527 -0.00072051934 -2.5419416e-05 -0.03015836 -0.006559205 0.017283577 0.011132465 -0.011160771 -0.04971054 -0.042398095 -0.020778062 -0.020789823 0.0011446816 0.038732436 0.050339114 -0.05004526 0.026976936 0.01816649 -0.007733972 0.036775585 -0.041470684 -0.006657833 -0.017138794 -0.008863128 0.052052975 -0.008015757 -0.019885128 0.026454655 0.017332667 0.013143575 -0.0015151418 -0.02021803 0.0028289338 -0.021231312 0.013179922 -0.0064893668 0.006112435 -0.0007318688 -0.013077583 -0.033768963 0.014869875 -0.010842364 0.04152004 -0.0013355834 0.008541025 0.022195753 0.0092851035 0.07134537 -0.037961967 0.04325017 -0.026107855 -0.0410047 -0.024624111 0.007693254 0.018670902 -0.00616281 0.022717018 0.03309302 0.025694741 -0.042982407 -0.03584785 -0.005882279 -0.03983015 0.019755615 -0.0006682823 0.04015455 0.0048192414 0.027192896 0.023342375 -0.012711266 -0.029467264 -0.00013352973 0.012947971
product -0.010860403 -0.04402122 0.045671914 0.009551769 0.018458115 -0.02647099 -0.0145880785 0.009709822 -0.024649948 0.018232344 -0.0096852295 0.019182427 0.010920367 0.005158366 0.0061293077 -0.028079716 -0.004872525 0.0068987953 0.012571587 0.0054750596 -0.02547974 -0.02099102 -0.0055403593 0.053147368 0.0024297524 0.035118334 -0.037435792 0.01662605 -0.025299752 -0.002166066 0.01105711 0.015963651 -0.012877048 0.017825592 -0.049213875 0.0092053255 0.0032878772 0.0073800697 0.0037484525 0.004294513 -0.030772783 -0.0077061667 -0.039327085 0.006468296 0.020512847 0.0029864912 -0.02755857 0.013659968 -0.0024269633 -0.013366565 0.053686008 -0.03085851 0.0018516015 -0.026645657 -0.0015631858 0.03888923 0.027028747 -0.010338559 0.055423938 0.0067977402 -0.0020630488 0.01019866 -0.051044773 -0.020609401 -0.031872537 0.024198908 -0.038249504 0.007966927 0.015942749 -0.048474498 0.007279059 0.03539876 0.0014742629 -0.0014479167 -0.0100651635 0.030925393 -0.018305823 0.010285269 -0.019693788 0.026502214 -0.013661506 -0.0039554453 -0.042391505 -0.009053773 0.025542343 -0.022511236 0.027022935 0.01323722 -0.006832342 -0.021722088 -0.002598014 0.027813898 -0.018345864 -0.0025420443 -0.026666978 -0.022258442 -0.019742874 0.014739679 0.0048674243 -0.015620185
nine 0.011799201 0.018760845 0.0023095603 -0.016684357 -0.013104769 -0.011437586 -0.021515036 0.006038097 -0.01421908 0.017523777 0.021243202 -0.027222821 -0.01597932 -0.0059381323 0.00195882 0.011240749 -0.0022360552 -0.019668546 -0.032242075 -0.02338168 0.055936757 0.0011808738 -0.02619508 -0.035917073 0.031160854 -0.06501521 0.03385072 -0.023863807 -0.016396217 0.0012276983 -0.04345211 0.03204097 0.055734016 0.023357742 -0.03141827 -0.03994224 0.0013394802 -0.011892902 0.020867873 -0.011163736 0.050207783 0.008798164 -0.0029397872 -0.009591086 0.055625632 -0.013201758 -0.019076578 -0.004968666 0.005285584 -0.026814671 -0.016626116 -0.017180128 0.015279513 -0.018799035 0.005785577 -0.049897887 -0.03364127 -0.010057449 -0.020938167 0.028476665 -0.048019297 -0.023324994 0.0035970001 -0.0017911638 -0.0034747226 -0.018829312 0.043851644 -0.0018497132 -0.006559293 0.016994046 6.287545e-05 -0.027292874 -0.016981728 -0.009019566 -0.0032733628 0.032700956 0.04019514 -0.01665503 -0.05258695 0.0018268626 0.008147771 -0.01597275 -0.025448307 -0.024358442 -0.0065321233 -0.018262718 -0.013326906 -4.371314e-05 -0.012248039 0.015393634 0.002964668 0.0018049688 0.022670351 0.03194869 -0.031143889 0.014290546 0.010483596 -0.0127968285 0.007027336 0.021587415
Company -0.021271974 0.048296697 0.008193364 0.0038383142 -0.013517896 0.01252641 -0.004137564 -0.028932817 -0.02207553 0.027545845 0.0055367434 0.0009710912 0.00066062965 -0.000117953634 0.010149042 -0.0064954017 -0.007886612 0.0094341785 0.027292052 0.0077768695 0.038069427 0.04695861 -0.034299437 0.0012406578 0.008560511 -0.011589552 -0.01730412 0.015960222 0.005328511 0.0088128755 -0.010899928 -0.011981333 -0.005005064 0.017550817 -0.019948144 0.023818947 -0.015108292 -0.009059659 -0.020087516 -0.047111787 -0.0038922373 0.0005335206 -0.02331383 -0.0035352493 0.020643836 0.011004301 0.0069629434 0.016093148 -0.014930083 0.009459371 0.034925018 0.0076974947 -0.022262348 -0.016765656 -0.016864091 -0.04470104 -0.0544154 0.01365134 -0.026553944 0.024529602 -0.04412353 -0.0027670225 0.008141855 0.007978958 -0.011754846 0.0037598745 0.012364253 0.0034528153 0.011674201 0.01916563 0.005592946 -0.012244732 -0.010792798 -0.020741275 0.0067866035 0.00095287827 0.02141403 -0.019356081 -0.018776868 -0.03108557 0.035218995 -0.03709229 0.0053112446 -0.0018016987 0.010821206 -0.0046933494 -0.009341656 0.020097207 -0.016761053 -0.00032823847 -0.010401773 -0.010896159 -0.013816725 -0.020010343 0.010527858 0.010132893 0.0024429993 0.0026279984 0.0017114823 -0.007403971
full -0.0039448533 -0.04037615 -0.019843983 0.007824687 0.012017269 -0.018702956 0.014577378 0.019407732 -0.0066886367 -0.014354173 0.039091215 -0.031743504 -0.014857491 0.02562534 0.009416993 0.012185147 0.0061354805 -0.024870252 0.004034853 -0.0007759137 0.042636868 -7.895025e-05 -0.024809107 -0.017837586 0.01149894 -0.044064302 -0.01578942 -0.027835421 -0.0017056286 -0.0058218036 0.0095013045 -0.0052325674 0.011159301 0.0068893186 0.0041242475 -0.011640265 0.020090228 -0.005947114 -0.017590586 0.0039357096 -0.00026136718 -0.0107125025 0.010298524 -0.012904504 0.006549377 0.015614245 0.02126877 0.013498453 0.0046145385 -0.014364679 -0.00082368625 -0.06179256 -0.014902373 0.0061204955 -0.006498412 -0.0011376375 0.010643476 0.0042871917 0.025812024 0.037787106 0.019228676 -0.022740256 -0.018297613 -0.031238418 -0.015575542 0.023650253 0.016939739 0.0051732156 -0.029084101 -1.1121752e-05 -0.043772884 0.034924656 -0.030624432 -0.009099431 0.0079931 0.008602128 0.0080911815 -5.2427116e-05 0.011612082 0.023629935 -0.012104758 -0.010073301 0.014248206 -0.0020754393 0.008310307 0.00018412663 0.018101566 0.04722824 -0.0022062971 0.024986941 2.1959539e-05 0.0065122815 0.0036093984 -0.00424546 -0.0050690034 0.02001139 -0.016958313 0.0076491754 0.009859459 0.03449443
Government -0.0021022928 -0.003589136 0.01986423 -0.021162562 0.020342262 -0.007977614 -0.03311693 -0.018439269 0.027101254 -0.013462477 -0.015968967 0.0022600738 -0.0037597758 -0.037417196 -0.05020962 0.017644908 0.01853141 -0.005196008 0.02472001 -0.009096412 -0.0040639793 -0.034446776 0.029460678 0.034640882 -0.009330318 -0.0151138855 0.014100653 0.021297242 0.0011707793 0.01820893 -0.01511814 0.02662933 -0.050378684 0.0038414574 -0.015779011 -0.038706385 -0.0204785 0.053972326 -0.011235915 0.029361308 0.012519269 -0.008054569 -0.02549471 -0.00532083 0.02581752 -0.012008961 -0.027379857 0.0086300345 0.05141385 -0.020889537 0.03174947 -0.011758881 -0.00761984 0.004251575 -0.030324249 0.0051197717 0.0049978355 -0.012758579 -0.0067389524 -2.4109147e-05 0.03429491 -0.016899105 0.0003815851 0.002322256 0.021223353 0.035264403 -0.03981229 0.012201902 -0.01769149 0.018488823 -0.030781187 -0.010160756 0.036710694 0.031128192 -0.0014225098 -0.011008761 -0.01985591 0.0024382812 -0.06595509 -0.0026593013 -0.0094167795 -0.03367126 0.024510456 -0.0096234 0.01852341 0.011562541 0.0022473983 0.046289895 0.018888725 0.054319285 0.008433258 -0.01856164 0.0073113665 -0.024873158 -0.045639683 0.02928209 -0.0037849143 -0.004115763 0.03585098 -0.027322706
recommend -0.0030945698 0.000102311795 -0.031199133 0.0011589192 0.009539623 -0.047693685 0.018369053 0.00048733648 -0.016928857 0.0059169605 0.009050226 0.03344783 0.006040267 -0.007999379 -0.0023935619 -0.03932116 -0.03939393 -0.04772106 0.017565798 -0.012851323 -0.01219563 0.005945869 0.04263944 0.022643559 -0.020557148 -0.015991833 0.011682509 -0.0149403345 0.0074143587 0.005740006 -0.0040553263 0.007619611 -0.023160055 0.022065336 -0.011849182 0.040246863 0.00021223276 -0.0076521323 -0.0034642967 -0.027569523 -0.046218857 -0.01943222 -0.03847749 0.005653658 -0.017328622 0.03662425 0.035615873 0.00833808 -0.020295175 0.015428444 0.0037435584 -0.009136759 0.016709322 0.010544389 -0.011863566 -0.024630778 0.019834919 0.01701466 0.051886167 0.014010358 0.022358324 -0.001130799 0.009644976 -0.057952307 -0.02176003 0.0820099 0.014399715 0.019750603 0.0073580714 0.0060256384 -0.013808968 0.025022529 -0.010504603 -0.014945314 -0.023934374 0.0042044125 -0.0038642683 -0.011183876 -0.013995431 -0.010297798 -0.0020099534 -0.055537146 -0.012937819 -0.01901829 -0.03353964 -0.022747304 0.020139992 0.04532271 -0.017244885 0.015037038 0.013678427 0.024650175 -0.00903875 -0.0022941257 -0.022574654 0.02822377 -0.007340503 -0.007389929 -0.044755667 0.0030146984
simply 0.049638897 0.03608363 0.018241996 0.02837034 -0.05454664 -0.045048535 0.004029525 0.013918369 -0.020733403 -0.0060062706 0.032371305 -0.030477192 -0.0052247276 -0.010497563 -0.014260573 0.01874487 0.005199232 0.0017383317 -0.014837937 0.0024852704 -0.0011667872 0.05160343 0.013740765 -0.01008731 0.022511572 -0.014497373 0.047968548 -0.0027547183 0.003940955 0.0031412551 -0.019329106 -0.015136172 0.03490279 -0.032234848 0.008598316 0.0023030858 0.007867571 0.010354697 -0.02414229 0.007053135 0.06073553 0.0032589866 0.011961386 0.012674399 0.0281215 -0.005293159 -0.007351206 0.006533979 -0.020628601 0.012247296 -0.06330572 0.022363441 -0.0052240086 0.030676955 -0.009872669 -0.03033579 0.0014981722 -0.020855874 -0.0020519907 0.0019318063 0.006447217 0.03973631 -0.017563716 -0.0048259804 0.004402226 -0.005338168 0.037553083 0.0028506932 -0.0069641564 0.033924486 -0.01564198 -0.014541536 -0.007310826 -0.012507719 -0.021244736 -0.021362886 0.042354416 0.010395838 -0.009225875 -0.010547832 -0.049503867 0.0072471662 0.008061608 0.020131223 0.045213014 0.059544507 -0.015220526 -0.028926767 0.036589943 -0.03168256 0.040925745 0.031053865 0.038381267 0.004178669 0.012323798 0.033484846 -0.03056939 -0.016235888 -0.023139058 -0.00089504797
reminded -0.004861926 0.037098285 -0.025689393 -0.0032463814 0.0115102725 -0.08257987 0.046418708 0.03198332 0.026593834 -0.005353499 0.0491383 -0.04207939 0.024158048 -0.080005586 -0.036260765 0.0046755434 0.008249181 0.027329195 -0.041918505 -0.0056286165 0.014397946 0.028266449 -0.00461495 -0.031073324 0.02283053 -0.020353552 0.06710189 -0.041317932 -0.05018292 0.0007293697 0.019392785 -0.02736666 0.030612841 -0.018551113 -0.036171503 0.02563427 -0.0023278217 0.048955522 0.0031424663 -0.054470744 0.030067196 0.08229647 -0.051292565 -0.009901256 0.034332573 0.035308413 -0.007003656 0.006268376 -0.013161248 0.02529548 -0.053161893 0.07438315 -0.039261907 -0.015494464 -0.01212386 -0.048815828 -0.031802196 -0.020836474 0.008279434 0.00287926 0.027037818 -0.038867954 -0.008756123 0.048151173 0.012737917 0.018602982 0.05567263 0.032996368 -0.0539586 0.032360535 0.004443904 -0.01735021 0.037413906 0.008227651 -0.037692647 -0.03997891 0.030993504 -0.0093871 0.042189125 0.009330385 -0.0075095207 -0.015641963 0.00057866605 0.014936035 0.047059674 0.04327254 -0.07967068 -0.023369743 0.07376655 0.06772053 0.043354616 0.043018807 0.020169893 0.093464784 0.015720308 -0.020367919 0.046866383 0.06712685 0.006720165 -0.028973797
fees -0.03436568 -0.019143824 0.004882023 0.0035548892 0.009834861 0.0024724028 0.008543367 -0.020875026 0.013423882 -0.013416678 -0.0117360465 0.04163851 -0.009133751 -0.03698875 0.007908657 0.0316705 -0.05418371 0.027209671 0.03329253 -0.04818165 0.010935844 -0.01852349 0.01157927 0.027558682 -0.068635926 1.8297578e-06 -0.00018606518 -0.0069827777 -0.0022793747 0.015829038 0.043303497 0.018843701 -0.014566897 -0.022664197 -0.03394948 0.0060307127 -0.028605554 -0.009872111 0.0075343065 0.009990219 -0.034057766 -0.0057337163 -0.006459034 -0.015346763 0.029743103 0.019860981 -0.038186546 0.028976938 -0.010621876 0.04783496 0.013101804 -0.0325784 0.020414772 -0.02153068 -0.0085142525 0.0021384894 0.016596435 0.004044411 0.02398278 -0.006329389 0.009716872 -0.0008838957 0.011146775 0.007913137 -0.00051597203 -0.015233385 0.0031240236 -0.0019339811 0.005468886 -0.023097517 0.008996801 0.046571847 0.0103690745 0.038852733 0.021238973 -0.014682806 -0.016624132 0.033655107 0.008580466 0.011155247 -0.0022560752 -0.004911319 0.011859911 -0.055316847 -0.010864976 0.012404763 0.01732766 0.010395817 0.02460953 0.03936311 -0.03443619 -0.012262519 -0.011565173 0.011112173 -0.01860879 0.012040134 -0.026448956 -0.0024176491 0.013855521 -0.018534848
Canada 0.010028929 0.0065820124 -0.01690779 -0.005236062 0.0015478729 -0.00594678 -0.013495352 -0.009189284 0.016416892 -0.026509682 0.000253413 -0.020752206 0.0043202024 -0.047233205 0.016540933 0.019488895 0.021706592 0.004371418 -0.03443852 -0.03547986 -0.01634559 -0.025227424 -0.03282036 -0.014111043 0.030165099 0.0022430825 0.008238294 0.0027397065 -0.013952405 0.021451317 0.0074744322 -0.014534127 0.05231186 0.03991771 0.021432722 -0.006333818 0.0026903227 0.0005426215 0.009055902 -0.006365631 0.045849897 0.03125667 0.0027461115 -0.01835222 -0.022823602 0.020951066 0.012383939 -0.018379342 0.016724171 -0.028939363 -0.020803034 0.003775919 -0.008153817 -0.004420707 -0.0028163919 -0.012974586 -0.024684347 -0.00313439 -0.0210963 -0.0072785695 0.010233073 0.016796159 -0.009176061 -0.009821343 -0.012771496 0.005087861 -0.026267095 -0.033624016 0.0206546 0.018035427 0.004877279 -0.018091302 0.01256163 -0.0022770937 0.018960034 -0.010477191 0.056968078 0.01678834 0.0054126624 -0.009354844 0.018013239 0.0045727696 -0.043394163 -0.00927723 0.006852273 0.026400946 -0.030529 -0.04498426 0.021501437 0.027158294 -0.015213529 -0.012172305 0.015615414 0.0049334588 -0.018491752 0.016567938 0.004733443 -0.013311729 0.0131520815 -0.020238979
affected 0.034887556 0.009500964 0.0064356187 0.021335553 0.0094995415 0.006695986 0.023619037 0.004938656 0.00014233508 -0.017142689 -0.0043867 -0.008650281 0.00013153738 -0.046361268 0.018824546 -0.010100361 -0.032961845 -0.0063692615 -0.023872588 -0.05635888 -0.016996397 0.0085689705 0.0018877719 -0.0044913664 -0.021910228 0.0039770985 0.029036963 -0.018897507 -0.031770237 0.0041099805 -0.019791305 -0.0072122365 -0.022419063 -0.007980099 -0.0033958429 0.03252215 0.02948657 0.03662525 -0.028911076 -0.0439551 0.004124605 0.0433492 0.005095864 0.0116308695 -0.010198918 0.017845156 0.005594938 0.016270807 -0.005112882 0.03125373 0.03151004 -0.054828577 0.027914084 -0.011047113 -0.006951655 -0.0012045683 -0.029947191 0.034947645 -0.025724081 -0.0006435892 0.010871437 -0.029869642 -0.006064316 0.021017399 -0.011686827 0.010409533 -0.001332527 -0.0005484249 0.019315798 -0.04237688 -0.018719383 0.0006851072 0.013163337 0.041729324 -0.0035230229 0.0038391813 -0.0031562408 0.031829458 -0.0035495514 0.024772601 -0.0012774252 -0.025899524 0.006529481 -0.016072406 -0.013748695 -0.008081338 0.0002504708 0.0045932494 0.0035691266 -0.007819693 0.025738414 0.014151589 0.022877054 0.0560135 0.0294149 -0.01448106 0.0010578248 0.06786047 -0.006324156 0.0037671681
des 0.011063939 0.023337355 0.0064727627 0.017411303 -0.0070487848 -0.004106092 0.009758936 -0.02424804 0.016227014 0.030118993 -0.029327996 0.0012131203 -0.0101192705 -0.0076128207 -0.04116565 -0.0005901536 -0.01010234 0.05617548 0.027450856 -0.011854092 -0.027262742 0.0038962015 0.012351667 0.005730814 -0.044026606 -0.026128124 0.017099837 0.04467069 0.010479836 0.021718599 0.021446565 0.0009976136 -0.002242158 0.0013879085 -0.011756769 0.031446125 -0.017686278 0.010888486 0.026396334 0.017784502 -0.014006136 0.020763373 -0.020085005 0.0097025735 0.0044365553 0.0026715011 -0.009142819 0.0089984415 -0.033357788 -0.024709463 0.0032830385 0.014782714 -0.040155098 0.017137002 0.026327193 -0.024871882 0.008084937 0.0048323534 0.025237082 0.014379941 -0.0069389134 -0.047240604 0.0019038094 0.008355228 -0.0044471975 0.0046636057 -0.020005193 0.039403476 0.014861865 0.014349551 -0.0041581844 -0.022259392 0.0235256 0.010789909 -0.017540393 -0.006901199 0.008111395 0.034687474 0.010544516 -0.040869687 -0.021384541 0.0074579543 0.0056290915 -0.016136926 0.0065330593 0.0317213 0.006959769 0.024341365 -0.014742874 0.030634182 -0.010218687 0.018459707 -0.0049825213 -0.012196073 -0.038582657 0.023263676 0.0025851903 -0.0162304 0.007570885 0.0002823412
automatic 0.012639276 -0.02530896 -0.019465202 0.0009526084 -0.014944177 -0.0060448837 -0.03078859 -0.018047867 0.004219932 -0.005725847 0.008173941 -0.008201899 -0.047498927 -0.013631908 -0.0080003515 -0.03954266 -0.0016791244 -0.019354455 0.018051066 -0.019256333 -0.00016384013 -0.016958127 -0.020760283 -5.783193e-06 -0.0010622184 0.025780484 -0.021770105 0.0070761186 -0.013380009 0.00020530389 0.023093345 0.023021724 -0.013091278 0.02791618 0.009937208 -0.008181365 -0.009890086 -0.0023200815 -0.0073364237 0.024666153 -0.0012739913 0.0053335764 -0.018118799 -0.030486977 0.014616951 0.008750801 -0.006496483 0.023412663 -0.0017803684 0.023475386 -0.016722837 0.02208533 0.0062384917 0.011450992 -0.011040326 -0.0095255 -0.003994432 0.009853479 -0.047074795 -0.00827587 -0.015850909 -0.010290096 0.028134523 -0.0001904961 -0.0033459119 -0.0030376592 0.002994741 0.015845906 -0.005393144 -0.042353503 0.015262345 0.01909128 -0.034560386 -0.02739717 0.0006475511 -0.053274874 -0.011359382 -0.0131397955 -0.026765946 0.018776624 -0.022699466 -0.020533154 0.0043666265 0.025858492 -0.015351369 0.0050659836 0.042267065 -0.009239151 0.017576749 -0.027883334 0.001573284 -0.0065862387 -0.03088648 -8.764642e-05 -0.0022452236 0.0009638342 -0.02042773 -0.008127572 -0.005913285 -0.049692836
rationalize -0.0022914063 -0.005801484 0.07054141 0.017265176 0.026081616 -0.041322503 -0.01038996 9.3670795e-05 0.011755334 0.061873112 0.021077894 -0.012983541 0.0018760017 -0.013830929 0.0038223558 -0.032423228 0.025524657 3.4599856e-05 -0.03478024 0.014740169 -0.028728167 -0.016834792 0.0063424986 -0.021556683 -0.019162253 -0.012692326 0.036720876 -0.00017456734 -0.022127964 -0.017496131 0.002582667 0.0047487863 0.011851932 -0.011464281 0.0007554217 0.011575223 -0.02939555 0.0019895686 -0.034509 -0.014283388 0.0092094 0.07491307 -0.010313395 0.022119096 -0.0024889493 -0.007186115 0.008441068 0.028509513 0.011120144 0.007537429 0.018511688 0.05076345 -0.014401211 0.008790409 -0.0010109884 -0.030014785 0.02393479 -0.027377298 -0.02882301 0.043917127 -0.017211078 0.02024678 -0.0012362838 -0.006328134 0.02280942 0.004253189 0.029604292 0.026474698 -0.034421295 -0.0014725517 -0.010300227 -0.006600137 0.025497366 -0.016693719 -0.036763888 -0.009814086 0.009728751 0.019381506 0.014219955 -0.017128296 0.026654344 0.018878877 0.024593161 0.037763346 -0.029908039 -0.012553622 -0.028796585 -0.013969867 -0.020898663 0.005597142 -0.008434575 0.012388091 0.007502849 0.029496055 0.043373205 -0.008350325 0.016392723 -0.0035955217 -0.010392753 0.008999246
turn -0.024914289 -0.042977065 0.019801993 0.017207595 0.0044869715 0.019272152 0.0131805185 0.020536743 -0.019837487 -0.007741852 0.023581836 -0.0028863223 -0.022035321 0.00984879 -0.019116577 0.043594252 0.019313237 0.009034421 0.01582491 -0.028086325 -0.016300373 -0.012483645 0.003905844 0.070152104 -0.023604771 -0.023115363 0.010451611 0.05375398 -0.011595914 0.021212017 -0.0070541473 0.034340918 -0.018013781 -0.025353996 0.04141482 0.01570992 -0.00011643011 -0.0036350316 -0.002820786 0.010582327 -0.026985595 -0.0025134364 -0.0047824923 -0.018225921 0.013785708 -0.0135046635 -0.02647466 -0.03515782 -0.029311486 -0.02909932 0.048615217 -0.027768042 0.047687396 -0.010604825 0.0038339011 0.010486146 0.03042834 -0.02235923 0.027919196 -0.0048368406 0.007057911 -0.033537455 -0.032187928 0.011991495 0.006854738 -0.01568072 -0.027692914 -0.0014195798 0.006883922 -0.0030644268 0.0055625113 0.035703253 -0.014709391 -0.0019348004 0.0117680505 -0.0054771136 -0.048321098 0.0030964166 -0.009235736 -0.036131077 -0.02809053 0.048407186 -0.0108539555 -0.030988304 0.01117352 -0.0062711653 0.040651485 -0.015732074 0.0041428832 -0.009976001 -0.010857629 -0.006995649 -0.011294281 0.00021056473 -0.029482976 0.04481161 -0.029090168 0.0003701361 0.0020439224 0.0027159296
call 0.028380523 0.017512402 -0.035984103 -0.014980463 0.021711104 0.008821861 0.0041478476 -0.017241707 -0.01947389 0.0047571547 -0.017587613 -0.025571216 0.0013193579 0.04292894 0.0030412741 0.008069311 -0.04144104 0.040990166 -0.01837569 -0.019645803 -0.023001865 0.0030840805 -0.02595433 -0.07990853 0.013858662 -0.04096974 0.0006218501 -0.027537093 0.011105214 -0.054509223 0.045190595 -0.025978018 0.059218988 0.04666218 -0.009595176 0.005005126 -0.06404799 -0.00037678098 -0.042868186 -0.01207332 0.038723096 -0.008387014 -0.028832026 -0.016547624 -0.0396659 -0.01376556 0.0063653523 -0.021432538 -0.025307162 -0.02129266 -0.015104249 0.015072731 -0.013376864 -0.0033550812 0.0072298883 -0.00219726 0.040702924 0.02681525 -0.060290154 -0.057595484 -0.044440325 -0.008967921 -0.021242898 -0.020496197 0.00069527817 0.02687844 0.0015301548 0.0020174382 -0.022651747 -0.021566637 -0.03271648 0.023550846 -0.011906066 0.008235416 -0.014094585 -0.046557374 0.04930783 0.014602482 0.0012912208 -0.010209406 0.02296269 0.00083714 -0.018114772 -0.013779874 -0.036608487 -0.024281682 -0.051718812 0.014940944 0.008881878 0.012299268 0.015337666 0.026111845 -0.020886043 0.034138802 0.011765552 0.011432482 -0.007788029 0.015980763 -0.009431589 -0.03269792
savings -0.009534105 -0.015161931 0.024987584 0.01676082 -0.026781445 -0.02218313 0.0034956804 -0.009613215 -0.069255896 -0.036548987 0.00844723 0.04996266 -0.020188902 0.02238387 0.0012248064 -0.008076584 0.03186796 -0.019454695 0.017249964 -0.01003943 0.007574427 -0.052965056 -0.0028417658 0.0063961763 -0.0143325245 0.01528668 0.023743091 0.05547072 -0.012357004 0.014393018 -0.028212037 -0.042462762 -0.029788418 0.021435132 0.03141438 0.008064836 -0.05809603 -0.0119577795 0.03300957 0.015252237 -0.021518823 -0.0076845535 -0.00899306 0.010267449 -0.03449923 -0.024148481 -0.037489343 -0.025383003 0.015087617 -0.0074790968 0.045383155 0.014731717 0.034386415 -0.002867789 0.028742159 0.015460363 -0.022217192 -0.0008494763 0.003270857 -0.012784981 0.018217243 0.032583706 0.00982616 0.017691154 -0.020724883 -0.008909953 -0.034936074 0.008474534 -0.019320365 -0.038807042 0.00086922303 0.0013780866 0.010506682 -0.008424366 -0.030988837 0.04021492 -0.003328468 0.018830335 0.0085679125 -0.005320445 -0.013273922 0.0010709219 -0.0052610943 -0.026420627 0.03983276 -0.010788187 0.0118454145 0.008429293 -0.017696619 -0.008293181 -0.013163112 -0.009987053 0.0033583476 0.035350174 -0.009732382 0.007934481 -0.014184747 0.005991379 0.007068041 0.03892049
gave 0.040543564 0.038847044 -0.021754956 -0.0057889977 -0.015800139 -0.0016743701 0.0016323794 0.008810072 0.012292219 -0.021628138 0.0150467465 0.0109446375 0.029850513 0.004077317 -0.011741865 -0.020286601 -0.0253008 0.0062055322 -0.039324243 0.024580976 -0.004008255 -0.0055475156 0.0017055975 -0.07420268 0.020403527 -0.050356317 0.001442211 -0.030868046 0.005743189 0.023486584 -0.030618293 -0.012514124 0.045238435 0.006680339 0.00997037 0.007335433 0.009260576 -0.0044802143 -0.026440281 -0.012047726 0.050413914 0.030807743 -0.016394446 0.018262273 0.011767347 0.005947206 -0.010898147 -0.035094514 0.005067279 0.021322766 -0.03339268 0.017469903 0.0037571392 0.00039947656 -0.010448819 -0.0023114781 -0.013959211 -0.009835895 0.00071555487 0.0060950685 -0.0075396197 0.0031440835 -0.01284361 0.022831947 -0.012720261 0.0014569903 0.0029338435 -0.002226414 -0.03296006 0.015160821 -0.0473725 -0.01364252 -0.02014023 0.0060931374 0.017342398 -0.013967751 0.03043975 -0.03673544 -0.036998343 -0.018768307 0.016803985 0.018924134 -0.006201604 -0.0052352916 0.025670387 -0.033958845 0.011583041 -0.017851213 -0.0097311875 0.031695265 0.0664791 -0.017191825 -0.00864956 0.0022083311 0.019748207 0.03276069 -0.0248799 -0.0023499061 -0.0031020371 0.013831095
sector -0.014223712 0.016886007 -0.030458074 -0.021951947 -0.019052848 -0.00428296 0.042519905 -0.004349504 0.020698562 0.0058800313 0.016602287 -0.02110486 -0.019084744 -0.0050034067 0.030081034 -0.03376342 -0.012579453 0.012312427 0.021461638 0.013107254 -0.008428192 0.03374117 0.032306578 -0.013007589 0.01964236 -0.020103954 0.0014073215 -0.011399392 0.0050311303 -0.03274623 -0.028122146 0.006570955 -0.04358796 0.028601347 -0.015061497 -0.02989434 -0.012821831 0.03275413 0.03331731 -0.011747818 -0.05751312 -0.008613245 -0.0005671297 -0.024973433 -0.0010776919 0.02480004 -0.03304037 -0.03688472 0.039762765 0.010785256 0.0055397516 -0.029005483 -0.025048878 0.028755305 -0.02160405 -0.004248405 -0.031794786 -0.015426622 -0.02066404 0.015906695 0.033818897 -0.026494456 -0.025495647 0.03422602 0.04971462 0.05548342 -0.0040694145 -0.00998907 -0.008753149 -0.005004782 0.017633082 0.004151744 0.0072692656 0.010111979 0.004450631 0.0021729101 0.0054327343 0.010328473 -0.005100007 0.012271251 0.006539201 -0.0035384903 -0.026059398 -0.036237385 0.004768326 -0.036282048 -0.024961358 -0.004362498 0.021362327 0.01580614 0.017570294 -0.0021852553 -0.0071655777 0.008586062 -0.029538026 -0.014633808 -0.024415154 -0.03599169 0.009891146 -0.008277093
indeed 0.014700393 0.009923047 0.010624395 -0.029565128 -0.033647887 0.011142949 -0.015052716 0.009648586 0.033145558 0.01890821 -0.00022869022 0.017111562 0.015113288 0.026499178 -0.024299946 0.04354547 0.027075293 0.018361082 0.002691871 -0.010724066 0.036612447 0.025840404 0.017688904 0.018784741 0.010424559 -0.036013965 0.024877243 -0.0017605727 0.0063355565 0.005754047 -0.018023774 -0.0059396764 0.024470443 -0.019031435 0.017103413 0.014638479 0.010432597 0.011225228 -0.016629547 0.022999803 0.050444398 0.018848924 -0.02582469 0.025032725 0.0069731814 -0.037781022 0.015596378 0.0062957513 -0.0018663169 0.032774296 0.041244157 -0.013161052 0.005649681 -0.011100221 0.0004871551 -0.027779775 -0.019648997 -0.017099615 -0.026211059 -0.02088175 -0.015215453 -0.031566605 0.0025497419 -0.011480018 -0.007224274 -0.0113769295 -0.015036962 0.00081738166 -0.031226188 -0.0030418916 0.008530596 -0.03369124 -0.0029989327 0.007212669 0.009237708 0.011435198 0.015299327 -0.012870709 -0.009596973 -0.008405361 -0.035963595 0.004451444 -0.0077789226 -0.034793552 0.025273994 0.02613692 -0.014291068 0.012074847 -0.003461555 -0.007779595 -0.02126574 -0.0051566106 0.018910393 0.031104824 -0.00044216856 0.010557505 -0.0137177445 -0.044860996 -0.0011548542 -0.010315323
mean -0.007191675 0.02819613 0.02024312 -0.0023042983 -0.03586834 -0.009655759 -0.0063633476 -0.033125434 0.015524978 -0.041420706 -0.021743694 0.009639778 0.009542511 -0.015062078 0.015075961 -0.018961499 0.018913617 -0.04426901 0.018010948 0.0036879345 0.033360798 -0.0046582017 -0.00774882 -0.01629232 -0.01831834 -0.010786466 -0.024679873 -0.032484453 0.025713518 0.016490689 0.012137732 -0.018045958 0.0043641254 2.0489795e-05 -0.016100168 0.03553136 0.047438398 -0.02641739 0.0050903503 0.014216549 -0.04154489 0.013352502 0.00379703 0.035368383 -0.019049415 -0.0063635753 -0.03102614 0.008540684 0.019302616 -9.843457e-05 -0.029150544 0.03274013 0.030633762 0.001070357 -0.01945966 -0.0004281419 -0.016604967 -0.019944983 0.028853254 -0.029326156 0.03597064 -0.023901094 0.06918127 -0.03176197 -0.012285309 0.011748405 -0.009629416 -0.002209058 -0.010697696 0.009034909 -0.048458632 -0.055621598 0.03517061 -0.03644922 0.0039750366 -0.023045758 -0.0022697472 0.0048128995 -0.022718959 -0.013022358 -0.005193529 0.021439973 0.009328805 0.0016179613 0.0012017377 -0.0071019903 -0.02825571 -0.0021686326 -0.01229535 -0.01279503 0.013789911 0.011109337 0.017573435 0.01836481 -0.017066881 -0.020284653 0.009475318 -0.021012075 0.026299743 -0.011950431
target -0.018885463 -0.021597939 -0.020489158 0.02099591 -0.011552873 0.025682742 -0.0023909921 -0.01642691 0.029952046 -0.026454799 0.0172332 -0.0083445795 0.015830597 0.008424069 -0.021742607 0.010042712 0.03104063 -0.008758401 0.0031208033 -0.0038603374 0.02201154 -0.0055806655 0.033898637 -0.008161279 0.013928558 -0.014474964 -0.022748873 0.006313882 0.027533336 0.0012744396 0.0068873637 0.0059503503 0.0051846234 0.0036697348 -0.005114957 -0.028859477 -0.0021328328 0.0292406 0.0041145184 0.0055563045 0.002952082 -0.010731177 -0.04435055 0.019404115 -0.01105741 -0.0010252479 -0.0005854707 0.0018662792 0.023550933 -0.015106622 0.032982193 -0.0013626327 -0.014199519 0.003307862 -0.003873626 0.03303262 0.0253738 -0.02475599 -0.0044747978 -0.013246146 -0.02818571 -0.021016952 -0.020765102 0.0058936733 -0.010777825 0.0004429188 -0.018244771 -0.0079070395 -0.03233673 0.027049357 0.0041756113 -0.01048546 0.006118303 -0.024884382 0.03478181 0.041030258 0.004373284 0.019415723 -0.022459708 -0.02861006 0.047908545 0.009160712 0.009434503 -0.00889149 0.021132305 -0.0062455796 0.020228086 0.054405555 -0.015892025 0.011022323 -0.011255817 -0.03676146 -0.055576667 0.041359775 -0.009458238 0.004653584 0.026340848 -0.0055127633 0.017090062 0.008964086
cause -0.013717572 0.009600127 0.046300117 -0.022438 0.017120108 0.018513557 -0.020329177 -0.010805194 0.013539935 -0.020423958 -0.02039061 0.051407307 0.010776883 -0.009957676 0.008316657 -0.010998108 0.017136104 -0.028835004 0.035702143 0.024989886 0.012817776 0.01373736 -0.005559199 0.03775476 -0.024220845 0.01974822 -0.0018441337 0.047602464 -0.016208902 -0.013725428 -0.0021213375 -0.019525208 -0.07374073 0.003897903 -0.010942772 -0.019673847 -0.026554953 0.0051842034 0.0158107 0.03682205 -0.031164968 -0.0099206 -0.0031420996 0.017102877 -0.019583136 -0.00013997348 -0.011833996 0.05495203 0.010695051 0.011693926 0.021835536 -0.020272085 0.0010754355 0.006492781 0.015728697 0.014298076 -0.0031062886 -0.0039374647 0.03277881 0.0020521323 -0.023392228 0.022701342 -0.0061584357 -0.04410118 0.039313737 0.014308112 0.0163051 -0.009519145 0.028435623 -0.056706063 0.004579914 0.004164575 -0.021251695 0.0013228373 -0.0028763816 0.014199081 -0.05560296 -0.030682908 0.0026524889 -0.036330745 -0.008182674 0.008512838 -0.008906225 0.0026954454 0.002322292 -0.020392725 -0.0093175685 0.011007333 -0.03585329 -0.006048347 -0.0076301293 0.02744284 -0.017461587 -0.0045021577 -0.005599596 -0.038713396 -0.01219168 -0.028675921 0.052380357 -0.045068502
much -0.008774934 -0.01905179 0.008293705 -0.032620758 -0.03196501 0.043060903 0.0018776887 -0.021570846 -0.04513256 -0.020937027 -0.0029747235 -0.012570398 -0.008289209 -0.012900865 0.0026693754 -0.016574232 0.007094075 -0.037568197 0.0034930597 0.034159984 -0.0009850098 -0.0033555855 -0.0033997456 -0.0064131757 0.04260409 -0.011938631 -0.0011390429 0.018767953 0.00868529 0.03161211 -0.044664834 -0.0066408813 -0.0040917024 0.016284145 0.0024394605 -0.0067439335 0.017699137 0.045597754 0.03969865 0.019122535 -0.00803469 0.016266467 -0.008597127 0.005721912 0.02309063 -0.008291084 -0.045376286 0.050735634 -0.024278302 0.027707506 -0.03618463 0.030394433 0.02221256 -0.017672049 -0.03227836 0.019092742 -0.021665722 -0.055805862 -0.017863432 0.012578506 -0.029836921 0.033326197 -0.000817675 0.026766792 -0.009107983 -0.025187612 0.02694259 0.0064980085 0.002605992 0.0066010635 -0.003324401 -0.01189439 0.011328498 0.016196864 0.0059905583 0.021715874 0.019704979 0.00205197 -0.026588347 0.028805673 0.027453737 0.037088454 0.006576866 0.062340222 -0.008579787 0.0513073 0.0029754771 0.0059441393 0.018215934 0.001338655 -0.015257379 -0.023414008 0.05357841 -0.03287309 -0.019413717 0.0023145988 0.03333989 0.01935495 -0.0033224053 -0.0054872385
making 0.01937179 -0.0061598807 -0.034850333 0.061221935 0.08644532 0.022305133 -0.013221006 -0.03915384 0.012072167 0.016307082 0.0098449625 0.07136389 -0.023442974 0.03317258 0.0151484385 0.042134423 0.024356041 0.07444149 0.048031963 0.02389687 -0.019633392 0.0019764197 -0.063933566 0.0032124221 -0.040725905 0.0066559683 -0.039729293 -0.009126603 0.07202191 -0.012543708 0.008545994 0.041586936 -0.033332396 -0.009153989 -0.015754312 0.07675078 -0.040723473 -0.016383642 -0.012496249 0.026622692 -0.014289293 -0.019916246 -0.018761776 -0.036862597 0.0035440368 0.036188316 0.03178367 -0.0034023034 0.0010932718 -0.00016718474 0.023101145 -0.05562093 0.02701364 0.079516806 -0.007716354 0.009241224 0.022482114 -0.02693459 0.032314494 0.03583945 0.024283547 -0.033750422 0.013347297 -0.021818902 -0.017731432 0.01599329 -0.0015548035 0.03422071 -0.0027132034 -0.012937714 0.034759115 0.051169693 -0.017122934 0.020156236 0.0015625424 0.016051143 0.023842065 0.016294418 -0.041224647 0.018651044 -0.0068963873 -0.044493757 0.012700589 -0.019922152 0.011182734 0.0026323358 0.068098806 0.0070784204 -0.02325047 0.009919171 0.010538891 -0.022424428 0.021824505 0.011795625 0.016924538 -0.046100866 -0.023846107 0.14165905 -0.0053800046 0.058998317
responding -0.0017218539 0.021153182 -0.015874762 0.009988618 0.028272536 0.022642862 0.018771952 0.018497342 -0.0022244225 0.019543024 0.011364734 0.010941515 -0.005627059 0.005613548 -0.029104067 -0.0034575888 -0.02424277 0.0048118606 -0.029802017 -0.023096383 0.033815123 -0.019980382 -0.009187683 0.0022479345 -0.009832165 -0.0076208906 0.022918124 0.026652038 0.0010195022 0.0024872846 -0.020599026 0.0019308932 -0.037222147 -0.01647646 0.0022674324 0.014540368 0.0016099159 0.004638851 0.0007125939 0.0010577164 -0.009690766 -0.001684791 0.008889035 0.027014466 0.015390919 -0.049519833 0.006335505 -0.009466587 0.02698813 -0.024016097 -0.011476475 -0.043811314 0.021904508 -0.045473803 -0.018099133 -0.0050112745 0.032020394 -0.005724796 0.019197479 0.0044665667 0.009896981 -0.026749142 0.034380227 -0.030765388 -0.017613852 0.048437748 -0.015885256 -0.01250865 0.03547445 0.02347915 -0.005221658 -0.009133504 0.00421332 -0.0076113436 -0.018689128 0.002654016 -0.025155356 0.055255815 0.020503437 -0.014301336 0.0059284177 0.021233752 -0.010427063 0.014360472 0.022472579 0.04377141 0.0127250785 0.030582896 -0.001399166 -0.046910644 -0.01657432 0.03311983 0.037516396 0.01238754 0.009407591 0.018100139 0.027370028 0.03308637 -0.019335022 0.027478663
drinks 0.0027000173 -0.0016814793 -0.00607114 0.058336597 -0.010785456 0.0030476288 -0.019533549 0.009656027 -0.0025546418 -0.019198092 0.008495751 -0.04082512 -0.0045874775 0.006755633 -0.029530289 -0.04388647 0.028415155 -0.020098602 -0.06283844 -0.010665133 -0.056281637 0.017566597 0.015178218 -0.005158872 0.0047445158 -0.00641732 0.04080054 0.045167033 0.014147082 -0.011122035 0.017859511 -0.011833292 0.03760129 0.00900753 0.0340923 0.0065480345 -0.020467242 0.008205375 0.015126301 -0.013128368 0.011148478 0.041275773 -0.056109563 0.03472895 0.017639184 0.020889197 -0.00838153 -0.053013917 0.0062754923 0.032687604 -0.022619408 0.012388223 -0.033249866 -0.030091152 0.009373857 -0.010023535 0.0006550544 0.0039678863 -0.022328747 -0.013498079 -0.0105334725 0.03861995 -0.023122763 -0.0012037496 -0.009465232 -0.030037578 0.00911643 0.0008754903 -0.02332318 0.005583545 0.030437578 -0.0015233613 -0.007560643 0.009263732 0.023218177 -0.023503996 0.005554202 -0.052095275 0.000659002 0.04407786 0.022416284 0.00085136737 -0.00033175712 0.013720569 0.005080387 0.0021949639 0.011886819 0.007737841 0.017451908 -0.060955755 -0.0036975734 -0.041107334 0.02617813 0.038719572 0.034180857 0.008313653 0.007444803 -0.032670893 -0.007433626 0.0154316425
include -0.0045572347 -0.018432444 -0.05406186 0.020017475 0.015726298 0.04222347 0.0043187356 -0.013706089 -0.009651379 0.023852788 -0.010038955 0.008732657 0.01794064 -0.020690564 0.0046935277 -0.03448834 0.0334876 0.036884908 0.015210842 0.029796105 0.006726564 -0.036756903 0.025112722 0.040684253 0.018693786 -0.0062095025 -0.00046832213 0.0038810133 0.025103228 0.017480478 -0.021486713 -0.00089312403 -0.038541142 -0.001873527 -0.01569843 -0.033866018 -0.009499656 -0.020268664 0.051018637 -0.0034485736 -0.016979214 -0.05196791 -0.015365917 -0.04235084 -0.019312482 0.0066805556 -0.013159631 0.0106041115 0.030781128 -0.021980908 0.03964172 -0.05412059 -0.028971115 0.0032095746 -0.022835966 0.046592526 0.008171551 0.021127816 0.039285354 0.0046189833 0.0012206639 0.0050117066 0.020791905 -0.02632897 -0.04190557 0.018300027 -0.052938893 -0.014675011 0.013000138 -0.00025920826 -0.009705664 -0.0045271623 0.0005278775 0.04796621 0.0057193204 0.021264093 -0.03334422 -0.01369498 -0.008939329 0.022664089 0.0018011532 -0.0029173484 0.0016488092 0.007195532 -0.011127112 0.016789258 0.010065549 -0.0074561285 0.0031622155 0.019281475 0.005659885 0.023407513 -0.0013173161 -0.015846655 -0.015594452 -0.008729134 0.031351935 0.0021175882 -0.005187556 0.01731375
solved 0.031869538 -0.018085308 0.009158702 -0.050379068 -0.015407244 -0.01434067 0.026971044 0.02105407 0.003728462 0.02463812 0.044934887 0.048057437 -0.0011878144 -0.025061125 -0.006192806 0.039661273 0.003959296 -0.024571175 0.032451827 -0.043116204 -0.00503335 -0.021952366 -0.0003878963 0.0021840045 -0.032006424 0.014990365 -0.005799836 0.0063150385 0.005983238 -0.007190392 -0.028209057 -0.03773885 0.018972423 -0.026724488 0.048710268 -0.026029237 -0.0031688726 0.004387806 0.05050899 0.0021897901 -0.041896425 -0.016825011 -0.026344715 0.005589254 0.012174199 -0.022041345 -0.042861197 0.026995523 0.054019466 -0.027796376 0.020899594 0.012697139 -0.005267967 0.004242359 0.0049939365 -0.05897364 -0.013270319 -0.019489838 -0.021664158 -0.002137564 -0.028274592 -0.03390851 -0.019943263 -0.030888082 0.0073181046 0.009272619 -0.021552878 -0.022565743 -0.047548365 -0.012786157 -0.00181127 0.015087136 0.11085104 -0.01309471 -0.03146297 -0.041275837 0.016450305 0.0045408895 -0.004314417 0.009331696 0.00421338 -0.0148337465 -0.051702313 -0.00995509 -0.029190421 0.00052743196 0.021500563 0.01573351 -0.005398152 -0.01564118 -0.053201444 -0.017775279 -0.02171981 -0.03820462 0.0057942956 0.028983997 -0.010621704 0.001410931 0.010781894 0.03679778
allowance 0.018890146 -0.003670348 -0.025976758 -0.007313374 -0.015794635 -0.04072276 0.021726122 -0.037655912 -0.004747644 -0.0010887656 0.080642454 -0.021157656 -0.007848511 -0.047433436 -0.009482367 -0.0008145327 0.013573737 0.011666944 -0.056589942 -0.024067277 -0.0476516 -0.07313726 -0.020679481 0.032647837 0.012603159 0.028101444 0.014720974 0.03395211 0.015214733 0.030537825 -0.030375043 -0.0165979 -0.016896283 0.023302192 0.029685926 -0.031980082 -0.016271796 0.02973455 0.057523724 0.012213193 -0.01349781 0.0010568087 -0.001608079 -0.033144027 0.010160503 -0.0034858915 0.021150175 -0.018617932 -0.02123449 -0.023285288 -0.053624712 -0.058218963 0.019379355 0.01542053 -0.026812557 0.016845526 0.017835027 -0.019778255 -0.008517688 0.021512464 0.030184591 0.0059725367 -0.012655442 0.0006708201 0.03162593 0.011593885 -0.06843079 0.03560325 -0.007890447 -0.009353573 0.03364775 0.0013281577 -0.007533401 0.034571655 -0.018729828 0.03180688 -0.055018697 0.025889006 0.0037618293 -0.04108902 -0.010637767 -0.035370156 0.007814818 -0.024105595 0.0068309773 0.0074784453 0.03660898 -0.008469641 0.0044579846 -0.009643547 0.026371816 -0.04729056 -0.018335082 -0.047370877 -0.08536729 0.024937782 0.044745386 0.008206669 -0.012769652 0.0020552208
hearings 0.03191043 0.013049594 -0.042818915 -0.031279154 0.0061808173 -0.03391149 -0.026307045 -0.008952244 -0.006423366 -0.0069705267 0.04684445 0.022413721 0.031955905 0.014108579 -0.035211645 -0.012692547 -0.016853256 -0.042807333 0.046926364 -0.0039278828 0.028619114 0.0031588792 0.014741079 0.033107303 0.004373318 -0.0261331 0.0073745498 0.0028150023 0.044529054 -0.014149023 -0.06528201 0.002526027 -0.012983906 0.030480325 0.018361047 -0.014266985 -0.01639395 -0.052116424 0.022348508 0.0017988229 -0.033839054 -0.04470094 -0.0124358935 0.052336484 -0.030260928 0.071217276 -0.03814764 0.02059705 0.04136883 0.03369754 0.007839025 -0.0041409982 -0.032255508 0.042894926 -0.013130255 0.0110738985 -0.015750285 0.018979685 0.027344048 0.0076008793 0.041141357 -0.024829129 -0.049804673 0.0404871 0.013542422 0.0076249517 -0.029384915 0.0010900397 0.018652227 -0.04561787 -0.03485876 0.011609704 -0.021790765 -0.030412953 -0.027252363 0.044674568 -0.009351356 -0.0037890777 0.0050825053 -0.038980488 -0.005141188 0.019285712 -0.058000267 0.047216404 0.0025185326 -0.0005041362 -0.025974764 0.006255137 -0.048458282 -0.04959547 0.0037128236 0.023670413 -0.023710165 0.02686509 -0.06308899 0.001801519 0.043021288 -0.036048938 -0.05597007 0.016774114
foreign 0.012981115 -0.0643775 -0.015011975 0.024807109 0.093915194 0.019319149 0.07539225 0.028940076 -0.02939956 -0.04873136 0.017680936 -0.009053538 0.031856786 0.011234465 0.00030263135 0.010761417 0.0012673854 0.038901214 0.01741988 -0.04659566 -0.020248309 0.035849534 0.014752391 -0.03481145 -0.022538884 -0.028406883 0.029909736 -0.0052157016 0.059826724 -0.0041651577 -0.03402877 -0.036286525 0.010311659 0.033224553 0.011760239 -0.029747799 -0.0070372466 -0.015150636 0.029595997 0.00808034 0.0014896572 0.04170672 0.0634726 -0.0019771764 -0.056830827 0.004167968 0.029262198 -0.048152532 0.005468433 -0.06904094 -0.031122683 0.0044762827 -0.030146865 -0.042380635 -0.028645895 -0.023194501 0.04531296 0.011372673 -0.033894926 0.040618498 -0.043249246 0.006962601 0.026271971 -0.04487563 0.06674833 0.009660372 0.0318884 -0.032698426 -0.009808651 -0.05110994 -0.018516049 0.03796606 0.046825543 -0.023883566 0.03061704 0.01806531 0.037148234 -0.027968958 -0.02025627 0.008585498 -0.043819908 -0.008837981 -0.004913472 -0.011058062 0.004972217 0.0013133832 0.03405711 -0.07616131 -0.05188539 0.0065331035 -0.03981541 -0.045400515 0.0007088826 -0.0018706932 0.058167126 0.028601753 0.032972872 -0.02649687 0.003492836 -0.02488279
remember -0.005358349 0.004818982 0.02963758 -0.0046771197 0.0370665 0.009884048 0.01148209 -0.032302316 0.02098423 -0.00045177888 0.016877627 0.014340681 0.035311505 0.0001935286 0.022008412 0.008669633 0.019596014 0.024397342 -0.00864443 0.00093623734 -0.001238715 0.0005801477 0.048881263 0.03579082 0.01381332 -0.0143930055 0.021854585 -0.01972634 -0.020017423 -0.0049436754 -0.018933984 -0.004589012 -0.024857333 -0.027178245 -0.004655992 0.0061722635 -0.026789742 -0.010019741 -0.0061270343 -0.023466459 -0.06543273 -0.03480078 -0.036102477 0.008406773 -0.037608795 0.0062040403 0.03253464 0.024669753 0.018549476 -0.018636942 0.04885153 -0.04652634 -0.02225373 -0.0048165973 0.0009378374 0.047481503 0.02560214 -0.02655681 0.033034515 0.008365381 0.042068943 -0.0062259324 0.012762943 0.0018532271 -0.011508404 -0.030218722 0.021882279 0.021772288 0.035337314 -0.013319805 -0.04043657 -0.026986219 -0.008274093 0.0026645116 0.014800347 0.00042375608 0.012007406 -0.0117202895 0.008388963 0.018729283 0.011806955 -0.017807785 0.034609657 -0.023178691 -0.029087022 -0.037240714 0.006851892 -0.016976258 -0.008161217 0.018318783 -0.021813912 0.017265465 -0.01161751 0.022836795 -0.015077313 0.013648566 0.036330614 0.012161184 -0.021447496 0.024790293
pension 0.008310795 0.03178617 -0.012201094 0.024851687 -0.02812321 -0.02295438 -0.02194282 0.0030672508 -0.017144714 -0.012738497 0.045535747 0.012333449 0.0028180643 -0.030293569 0.011046268 0.0194127 -0.061837334 0.0132005345 -0.027864072 -0.024595907 -0.02709339 0.038836088 0.030167906 0.052006114 0.0022077668 -0.0032259056 0.059904568 -0.009223498 0.018129526 -0.014029612 0.01230724 -0.02425 0.016532224 -0.019112408 0.020545697 -0.015465703 0.014697386 -0.045666616 -0.009056916 -0.019464497 -0.0034327963 0.031054188 0.024024857 0.0027702358 -0.008171926 0.008768089 -0.0021163574 -0.00038101943 -0.010701997 0.020765744 -0.037654527 -0.012461863 0.049894646 -0.0006304108 -0.012515916 0.007884996 -0.024806492 0.0050769798 0.023998147 0.016714543 -0.011522 0.0033266265 -0.005174243 -0.014648646 -0.026373021 0.036550503 0.017045232 0.022489212 -0.0016656166 -0.002702483 -0.03832022 0.021405108 0.004474113 -0.0027973196 0.015580419 -0.008352225 0.0035434794 -0.019568814 0.012338884 -0.0016225252 0.0031596648 0.036017507 -0.012224351 0.01615422 0.008632566 -0.032509793 -0.019640421 0.009565289 -0.015153978 0.005154863 0.024380136 0.006236335 0.047370087 -0.014612987 0.019014858 0.0015838251 -0.014648126 -0.03630458 -0.021226719 0.01909868
competition 0.01731972 -0.029809939 0.017234897 0.047594238 0.026465463 0.0035351673 0.029306455 0.01418016 -0.01044642 -0.011266357 -0.009169714 0.018376326 -0.010541284 0.0070622484 0.009408565 0.02458719 0.002242847 0.02433522 -0.03173573 -0.029332403 0.00014485652 -0.052576844 0.04014782 -0.0062936163 0.03414514 0.020922767 0.01251133 0.035787065 0.0026967952 -0.03254894 0.020081252 0.04876765 -0.015205025 -0.013521536 0.007591088 -0.013222057 0.030922094 -0.002658464 -0.0071122735 0.027263477 0.018611904 0.03774029 0.0206662 -0.03844887 -0.02867462 -0.019883629 -0.0027284685 0.02694959 0.00494698 0.006691048 0.054656588 0.033022523 -0.009579129 -0.0077210967 0.018464085 -0.03546293 0.0032834345 -0.016615737 -0.03176201 -0.011907071 -0.007717408 0.03139232 -0.016231384 -0.020598648 -0.021419909 -0.022088146 0.01267619 0.019451685 -0.0073343036 -0.004981625 0.043997414 -0.015731312 -0.043138284 -0.013907092 -0.0110590765 0.006776934 0.023855394 0.0070584137 0.02504025 -0.05052669 -0.019633515 -0.038014963 -0.0063961693 0.027001167 -0.00739101 -0.0098200645 0.009418109 0.04949608 -0.017439034 -0.0028233384 -0.016690407 0.011393113 -0.010641924 -0.031105123 -0.009384307 -0.01651919 0.018936485 0.014355246 0.0058050486 -0.0021380852
principle 0.029130347 0.0072664344 -0.008046823 -0.02553214 -0.009746127 0.005247547 -0.03312489 -0.004745581 0.00034548447 0.018108016 0.016360704 -0.024979845 0.056794643 0.005077486 0.020877939 -0.0070034824 -0.017498149 -0.019846193 0.0022757952 -0.039636523 -0.018574867 -0.00068255997 -0.016096732 0.0010065073 0.021130042 -0.018068189 0.0010209712 -0.028775472 0.0410973 0.014029978 -0.004121908 -0.0032768177 0.008951224 0.0032622267 0.03394614 0.0029504586 0.0011929797 0.00024479767 -0.015223144 -0.025183592 0.06293138 0.053840946 -0.032710236 0.0113136405 0.0074010845 0.005780127 -0.007483687 -0.031765684 0.004813274 0.0286089 -0.04716106 0.00066679483 0.029818637 -0.044361528 0.018091671 0.019819917 0.010297124 -0.01894465 0.0062891757 0.021465624 0.0054929317 0.024031345 0.017281445 0.0041782595 -0.0435375 -0.02271335 -0.025556466 -0.0006591553 -0.032510377 0.026831165 -0.029564628 -0.0041805906 -0.0038104216 0.023471558 0.017585918 -0.016750664 0.014057444 -0.020915458 0.0034197741 -0.009948065 0.024780827 0.0025115316 -0.015272738 -0.007983778 -0.004780192 -0.02754145 -0.005132329 -0.023533925 -0.02290977 -0.030617911 0.000897718 0.0130456 0.035012055 0.016166257 0.03448205 -0.03006925 0.005671662 0.020390285 0.021977797 0.046075206
